1.702118664979934692e-02
-3.026604652404785156e-03
3.043266758322715759e-02
2.501168102025985718e-02
-6.331838667392730713e-03
2.808337286114692688e-02
2.432652562856674194e-02
-3.014096245169639587e-02
-2.465863153338432312e-02
8.223935961723327637e-03
1.510431244969367981e-02
1.411228999495506287e-02
-1.520990952849388123e-02
-1.677478104829788208e-02
2.808146923780441284e-02
-3.009350970387458801e-02
3.990720433648675680e-04
-1.202091202139854431e-02
-1.423053443431854248e-03
-1.947920769453048706e-02
3.098611906170845032e-02
1.433329284191131592e-02
-2.098865807056427002e-03
2.099579572677612305e-02
-6.429616361856460571e-03
-2.121881023049354553e-02
-1.250106096267700195e-02
2.308979630470275879e-03
-1.104908436536788940e-02
-9.695280343294143677e-03
-2.500438690185546875e-02
2.743834257125854492e-02
-2.226248010993003845e-02
1.360201463103294373e-02
1.994509994983673096e-02
1.970527321100234985e-02
-1.020183414220809937e-02
-1.467359438538551331e-02
7.734362035989761353e-03
-1.191549748182296753e-02
9.079899638891220093e-03
-1.497740298509597778e-02
1.339149102568626404e-02
-1.527355611324310303e-02
-1.490844041109085083e-02
1.225138828158378601e-02
-1.103192195296287537e-02
2.068502455949783325e-02
-2.818267792463302612e-03
2.215769514441490173e-02
-1.387969404458999634e-02
-1.989012211561203003e-02
3.030420839786529541e-02
1.866937428712844849e-02
6.785478442907333374e-03
-3.108551725745201111e-02
-2.090572193264961243e-02
-2.410263195633888245e-02
2.809162810444831848e-02
6.160628050565719604e-03
-2.386532723903656006e-03
1.354268938302993774e-02
1.824460178613662720e-02
-9.520754218101501465e-03
-7.384561002254486084e-03
1.587380841374397278e-02
7.082186639308929443e-04
-2.820428460836410522e-03
-1.471473649144172668e-02
7.437642663717269897e-03
8.233092725276947021e-03
-2.499212324619293213e-02
-1.069680601358413696e-02
-3.038884699344635010e-02
5.743175745010375977e-03
-4.929494112730026245e-03
2.566859498620033264e-02
1.608335599303245544e-02
1.745412126183509827e-02
-1.861374080181121826e-02
1.846842095255851746e-02
2.741474658250808716e-03
2.100938558578491211e-02
4.750058054924011230e-03
3.198895603418350220e-03
-2.091987803578376770e-02
8.763133519096300006e-05
-1.024570316076278687e-02
1.666372641921043396e-02
-1.239652559161186218e-02
-7.491905242204666138e-03
-2.484417334198951721e-02
1.513802632689476013e-02
-1.278527453541755676e-02
-1.153254881501197815e-02
-7.102724164724349976e-03
-2.498159185051918030e-02
3.084069490432739258e-02
-3.654014319181442261e-03
2.668350934982299805e-03
-1.111179217696189880e-02
4.266176372766494751e-03
-9.971380233764648438e-03
-2.515658736228942871e-02
-2.423405647277832031e-02
-2.085210010409355164e-02
-1.295476406812667847e-02
1.503068953752517700e-03
3.629148006439208984e-03
-6.366144865751266479e-03
2.224162220954895020e-02
-3.085471317172050476e-02
1.090010628104209900e-02
1.696296036243438721e-03
-2.791066840291023254e-02
-8.424185216426849365e-03
2.422963827848434448e-02
-2.826653793454170227e-02
1.860831305384635925e-02
2.272565662860870361e-02
-1.843124628067016602e-02
1.128792390227317810e-02
3.063809871673583984e-02
-2.003040537238121033e-02
2.467317134141921997e-02
2.236188203096389771e-02
1.015362888574600220e-02
2.955394610762596130e-02
2.311595529317855835e-02
-2.541407942771911621e-02
-2.079673111438751221e-02
2.816983684897422791e-02
-9.471166878938674927e-03
2.424419671297073364e-02
1.446039602160453796e-02
-2.073138952255249023e-03
2.089854329824447632e-02
-1.570487767457962036e-02
-2.197961136698722839e-02
8.210085332393646240e-03
-3.556162118911743164e-03
-2.595966309309005737e-02
3.621216863393783569e-03
2.554439008235931396e-03
8.976377546787261963e-03
-8.971320930868387222e-04
1.845797151327133179e-02
1.462817937135696411e-02
2.019169181585311890e-02
2.079382538795471191e-03
1.467749476432800293e-03
-2.596492692828178406e-02
2.595327794551849365e-03
-2.012195438146591187e-02
1.845543459057807922e-02
-1.903907582163810730e-02
1.387212425470352173e-02
2.393800392746925354e-02
2.839980646967887878e-02
-6.215438246726989746e-03
-1.399281620979309082e-02
1.494906097650527954e-02
2.899001911282539368e-02
-2.807996049523353577e-02
-2.585030719637870789e-02
-1.930671930313110352e-02
8.726533502340316772e-03
1.309050247073173523e-02
2.064219862222671509e-02
-2.862777188420295715e-02
-8.550323545932769775e-04
5.045279860496520996e-03
-2.541969716548919678e-02
2.096816897392272949e-03
-8.231177926063537598e-03
1.059051230549812317e-02
-1.810419559478759766e-02
-1.627444103360176086e-02
-1.217617094516754150e-02
3.115935251116752625e-02
2.505030483007431030e-03
1.901915296912193298e-02
1.763351261615753174e-03
1.751154661178588867e-03
8.100997656583786011e-03
-1.973323523998260498e-03
9.582992643117904663e-03
-1.296926662325859070e-02
-3.653746098279953003e-03
-4.287969321012496948e-03
-1.625518128275871277e-02
-2.063916251063346863e-02
-2.841144800186157227e-03
-1.208093389868736267e-02
-6.299845874309539795e-03
-1.425770297646522522e-02
-6.209947168827056885e-03
-2.507071569561958313e-02
-2.817345038056373596e-02
-1.652048900723457336e-02
1.133290305733680725e-02
-2.516585215926170349e-02
1.922834664583206177e-03
-2.980810403823852539e-02
1.557279378175735474e-03
5.719520151615142822e-03
2.201573923230171204e-02
6.751611828804016113e-03
-9.614303708076477051e-03
-2.603545784950256348e-02
-6.403774023056030273e-03
2.719104290008544922e-02
2.940618246793746948e-02
-1.522582024335861206e-03
-2.632931619882583618e-02
-3.010671958327293396e-02
2.355755493044853210e-02
2.732054516673088074e-02
-2.867404371500015259e-02
3.091263025999069214e-02
-8.281111717224121094e-03
1.986770704388618469e-02
-1.147570833563804626e-02
-8.343271911144256592e-04
2.509184181690216064e-03
-1.193931326270103455e-02
-2.603389322757720947e-03
7.525447756052017212e-03
1.952916756272315979e-02
-1.764925941824913025e-02
4.658587276935577393e-04
1.185469329357147217e-02
6.879739463329315186e-03
-1.327773183584213257e-02
2.064656838774681091e-02
8.179083466529846191e-03
-1.796923577785491943e-03
-1.713272184133529663e-02
1.183386892080307007e-03
-3.044385835528373718e-02
6.906781345605850220e-03
-8.726939558982849121e-03
7.910426706075668335e-03
-1.197342947125434875e-02
2.538473904132843018e-02
5.462761968374252319e-03
4.849329590797424316e-03
7.447458803653717041e-03
-8.767969906330108643e-03
-1.695457473397254944e-02
-2.894734963774681091e-02
2.318752184510231018e-02
-2.038139477372169495e-02
4.510655999183654785e-04
1.130949705839157104e-02
-1.345275342464447021e-02
2.474744617938995361e-02
-1.925025135278701782e-03
-1.006341725587844849e-02
-6.879791617393493652e-03
5.104709416627883911e-03
-5.623970180749893188e-03
1.921342685818672180e-02
6.323784589767456055e-03
6.565403193235397339e-03
1.234554871916770935e-02
2.287053689360618591e-02
-2.201272919774055481e-02
3.480739891529083252e-03
-2.720885723829269409e-02
-2.488119527697563171e-02
-1.469415053725242615e-02
-2.594868466258049011e-02
-2.199843525886535645e-02
-2.731044963002204895e-02
-3.700483590364456177e-03
-1.828386634588241577e-02
1.628174632787704468e-02
-2.139471471309661865e-03
-6.469491869211196899e-03
1.189973950386047363e-02
1.676100492477416992e-02
-2.335670962929725647e-02
-2.441427856683731079e-02
-1.524076983332633972e-02
-3.049964085221290588e-02
-8.544337004423141479e-03
-2.552159875631332397e-02
-4.467528313398361206e-03
-2.387899532914161682e-02
4.399865865707397461e-04
-2.356221526861190796e-02
2.813398838043212891e-02
-4.263523966073989868e-03
2.448615804314613342e-02
-2.006899565458297729e-02
-1.365961134433746338e-02
-1.039279997348785400e-02
-9.919323027133941650e-03
-2.990842983126640320e-02
1.408307999372482300e-02
-8.983433246612548828e-03
2.229274809360504150e-02
1.038305461406707764e-02
2.650341764092445374e-02
2.714153006672859192e-02
1.616748794913291931e-02
4.633024334907531738e-03
1.692898571491241455e-03
-2.065438404679298401e-02
1.847241073846817017e-03
-1.211611926555633545e-02
2.438719570636749268e-02
-1.084155589342117310e-02
7.594101130962371826e-03
3.051822260022163391e-02
2.965630963444709778e-02
3.925573080778121948e-03
-4.308894276618957520e-04
2.838764712214469910e-02
-1.838194578886032104e-02
-2.091937512159347534e-02
3.029206767678260803e-02
-9.533733129501342773e-03
4.138134419918060303e-03
-1.780412346124649048e-02
3.002438694238662720e-03
-1.222456991672515869e-02
-5.078274756669998169e-03
1.309154555201530457e-02
-2.906228601932525635e-02
4.980720579624176025e-03
-2.590406686067581177e-03
-3.975883126258850098e-03
-2.514332532882690430e-02
-2.363278716802597046e-02
-1.081522554159164429e-03
-2.974488958716392517e-02
-2.204772457480430603e-02
1.772168278694152832e-02
-2.746972069144248962e-02
1.177185028791427612e-02
-2.029985189437866211e-03
-9.961862117052078247e-03
2.035990357398986816e-02
-5.051840096712112427e-03
-1.027010008692741394e-02
-1.544812694191932678e-02
-2.010501921176910400e-02
7.408440113067626953e-03
-1.761813089251518250e-02
-3.946077078580856323e-03
2.965809404850006104e-02
-2.142966538667678833e-02
1.359732076525688171e-02
2.249353006482124329e-02
6.052032113075256348e-03
7.002025842666625977e-03
-2.066250145435333252e-02
-1.398210227489471436e-02
-3.910135477781295776e-03
9.735211730003356934e-03
-3.716878592967987061e-03
3.121599555015563965e-03
2.329329028725624084e-02
-3.191806375980377197e-03
-1.293074339628219604e-02
-1.852732524275779724e-02
2.021206542849540710e-02
-1.163347437977790833e-02
-2.432347834110260010e-02
2.730805799365043640e-02
1.596876606345176697e-02
2.650082111358642578e-02
-1.768902689218521118e-02
-9.169988334178924561e-03
-2.696437016129493713e-02
1.209465041756629944e-02
3.430418670177459717e-03
-4.426781088113784790e-03
1.448259502649307251e-02
7.139667868614196777e-03
-2.809523791074752808e-02
3.065302968025207520e-03
8.010208606719970703e-03
-2.661349996924400330e-02
-1.991146430373191833e-02
-1.621591299772262573e-02
-3.021422028541564941e-02
8.739780634641647339e-03
9.941346943378448486e-04
-5.251485854387283325e-03
1.812437921762466431e-02
-1.195668056607246399e-02
-2.812410145998001099e-02
-2.073084935545921326e-02
1.007991284132003784e-02
2.006363123655319214e-02
2.315782755613327026e-02
2.555299922823905945e-02
3.009229898452758789e-02
3.343190997838973999e-03
6.462518125772476196e-03
-1.567579805850982666e-02
3.942411392927169800e-03
1.836435869336128235e-02
3.048981726169586182e-02
-5.174510180950164795e-03
2.678453922271728516e-02
2.003382891416549683e-03
1.295664161443710327e-02
-2.260549366474151611e-02
-1.509182155132293701e-03
-1.419141516089439392e-02
-2.008230611681938171e-02
1.457997038960456848e-02
-1.182302832603454590e-02
2.321677282452583313e-02
-1.081477105617523193e-02
-1.383375003933906555e-02
-1.064305007457733154e-02
2.929048240184783936e-02
2.240978553891181946e-02
2.673102170228958130e-02
-1.475714147090911865e-03
-7.441792637109756470e-03
1.412180811166763306e-02
7.540818303823471069e-03
-9.290181100368499756e-03
-1.676399633288383484e-02
2.159246802330017090e-02
2.715433016419410706e-02
-2.239373698830604553e-02
-1.853061094880104065e-02
-2.088850736618041992e-02
3.980770707130432129e-03
1.678501814603805542e-02
2.565989270806312561e-02
2.718765288591384888e-02
-1.554065942764282227e-02
-2.294067293405532837e-02
-5.858588963747024536e-03
-1.798294484615325928e-03
1.344709098339080811e-02
-3.556575626134872437e-03
7.977198809385299683e-03
-1.527444645762443542e-02
2.803632989525794983e-02
-4.161588847637176514e-03
1.252260059118270874e-03
6.285149604082107544e-03
2.589861303567886353e-02
-1.358025521039962769e-02
2.573448419570922852e-02
3.011479601263999939e-02
1.876357197761535645e-02
-9.801175445318222046e-03
-1.840182021260261536e-02
-2.959238737821578979e-02
-1.321370899677276611e-02
-2.867274358868598938e-02
6.942786276340484619e-03
-4.985976964235305786e-03
2.628172561526298523e-02
-2.389790862798690796e-02
-2.557586133480072021e-02
-1.219738274812698364e-03
1.426050812005996704e-02
-2.748389542102813721e-02
5.413305014371871948e-03
2.489366754889488220e-02
7.149174809455871582e-03
-1.813053712248802185e-02
-2.464539930224418640e-02
2.331618219614028931e-02
2.667380869388580322e-02
5.380474030971527100e-03
-1.712348684668540955e-02
1.166172325611114502e-03
8.835073560476303101e-03
-1.278691738843917847e-02
-7.564734667539596558e-03
-1.641517505049705505e-02
8.270181715488433838e-03
1.466663181781768799e-02
-2.628951519727706909e-02
1.569356769323348999e-03
-1.382103934884071350e-02
2.332585677504539490e-02
1.920010522007942200e-02
-6.510078907012939453e-03
-2.021629363298416138e-02
2.867773175239562988e-02
1.147457957267761230e-02
2.167792990803718567e-02
6.654895842075347900e-04
1.963960006833076477e-02
3.577843308448791504e-03
2.149112522602081299e-03
-2.744857594370841980e-02
4.816238943021744490e-04
2.725555747747421265e-02
2.592800185084342957e-02
-2.681486308574676514e-02
-6.551053375005722046e-03
2.742484956979751587e-02
-2.135356143116950989e-02
2.842138335108757019e-02
2.472758665680885315e-02
-2.565459907054901123e-02
-8.941259235143661499e-03
-5.218692123889923096e-03
