-5.186450434848666191e-04
7.832662016153335571e-02
-3.488056361675262451e-02
3.427019342780113220e-02
-7.179804146289825439e-03
-4.440055228769779205e-03
1.294577121734619141e-02
2.449242956936359406e-02
-3.946874290704727173e-02
-5.826249718666076660e-02
2.357073972234502435e-04
-2.559133432805538177e-02
-4.340617731213569641e-02
-1.769322529435157776e-02
-4.142528027296066284e-02
-1.089321821928024292e-02
6.204431131482124329e-02
3.250601887702941895e-02
1.816871948540210724e-02
3.249917179346084595e-02
2.060976810753345490e-02
5.449644103646278381e-02
-2.773112058639526367e-02
-4.849144443869590759e-02
5.361807066947221756e-03
1.758596114814281464e-02
3.697782009840011597e-02
3.750419989228248596e-02
-2.611586637794971466e-02
-7.192997261881828308e-03
-2.746467664837837219e-02
2.370698563754558563e-02
4.010012373328208923e-02
1.802778989076614380e-02
8.675510063767433167e-03
2.663342840969562531e-02
5.701674893498420715e-02
-1.093974988907575607e-02
-3.380981087684631348e-02
5.605681240558624268e-02
2.645460143685340881e-02
4.688614606857299805e-02
-1.150269806385040283e-02
-2.855601161718368530e-02
7.006806321442127228e-03
-2.457990311086177826e-02
-1.529542147181928158e-03
1.660697720944881439e-02
-4.504115879535675049e-02
-5.214567296206951141e-03
-1.393316779285669327e-02
2.542292885482311249e-02
-5.558305233716964722e-02
1.563907414674758911e-02
1.090850681066513062e-02
2.049800753593444824e-02
2.882747538387775421e-02
-3.520835563540458679e-02
-3.612571954727172852e-02
1.939296722412109375e-02
1.008573174476623535e-02
1.034117117524147034e-02
-5.652770632877945900e-04
5.461649224162101746e-02
4.619066044688224792e-02
3.592989221215248108e-02
-1.893554627895355225e-02
1.025681477040052414e-02
-4.305582493543624878e-03
1.423132512718439102e-02
2.306278236210346222e-02
3.050335124135017395e-02
2.125894278287887573e-02
7.225240767002105713e-02
3.546462953090667725e-02
1.132058538496494293e-02
2.974648214876651764e-02
-3.057759627699851990e-02
4.178920015692710876e-02
-2.684659510850906372e-02
1.647279597818851471e-02
-4.075179994106292725e-02
6.246510893106460571e-04
-4.724323749542236328e-02
1.244190242141485214e-02
-5.143223330378532410e-03
1.380171440541744232e-02
5.828797444701194763e-02
1.939014159142971039e-02
3.494271263480186462e-02
-2.011013962328433990e-02
6.610466539859771729e-02
2.392894215881824493e-02
1.640341244637966156e-02
-2.172809839248657227e-02
-3.516948223114013672e-02
2.496990375220775604e-02
3.208457725122570992e-03
5.741097778081893921e-02
5.128799006342887878e-02
-1.167060062289237976e-02
-1.255272142589092255e-02
4.196885228157043457e-02
4.204444959759712219e-02
4.290805757045745850e-02
7.655903231352567673e-03
2.628076076507568359e-02
3.928408771753311157e-02
5.970535334199666977e-03
-2.950418181717395782e-02
5.677540320903062820e-03
4.748185630887746811e-03
-4.081869497895240784e-03
3.004181757569313049e-02
2.670386806130409241e-03
7.077791541814804077e-02
3.296305611729621887e-02
-9.440571069717407227e-03
-3.513917326927185059e-02
-2.039019204676151276e-02
5.247205495834350586e-02
-2.105372399091720581e-02
5.140182748436927795e-02
-4.402595013380050659e-02
1.774318702518939972e-02
-3.283295407891273499e-02
-5.433696322143077850e-03
3.629271313548088074e-02
2.719330834224820137e-03
3.567655384540557861e-02
1.927088759839534760e-02
4.651702940464019775e-02
4.961874708533287048e-02
-6.022808142006397247e-03
-4.136100411415100098e-02
9.849419817328453064e-03
-1.595953106880187988e-02
-1.818103902041912079e-02
3.921822085976600647e-02
3.575072437524795532e-02
-5.823078099638223648e-03
-1.555659342557191849e-02
-9.419173933565616608e-03
4.234361276030540466e-02
2.312245219945907593e-02
3.397414088249206543e-02
-3.129734471440315247e-02
6.155305542051792145e-03
3.982874751091003418e-02
2.998604625463485718e-02
3.384819254279136658e-03
-2.870354568585753441e-03
2.357880398631095886e-02
2.895021066069602966e-02
1.364506501704454422e-02
-2.416416443884372711e-02
4.235477000474929810e-02
1.869308389723300934e-02
6.111446302384138107e-03
4.299398139119148254e-02
2.245897427201271057e-02
8.868497796356678009e-03
6.831410527229309082e-02
-4.283290728926658630e-02
4.813134297728538513e-02
1.577551104128360748e-02
-4.227560944855213165e-03
1.548993983305990696e-03
-6.788651924580335617e-03
1.554212346673011780e-02
4.613765701651573181e-02
-2.390794828534126282e-02
1.596551947295665741e-02
4.765331745147705078e-02
-1.005628705024719238e-02
4.482587054371833801e-02
8.763314224779605865e-03
-1.697453111410140991e-02
4.032415524125099182e-02
-2.500940859317779541e-02
3.500695154070854187e-02
2.765308506786823273e-02
1.321715954691171646e-02
-3.813733160495758057e-02
-7.613232824951410294e-03
5.837170779705047607e-02
1.128891203552484512e-02
-2.657368220388889313e-02
3.195725753903388977e-02
2.798761054873466492e-02
-2.257880078104790300e-05
-1.948728598654270172e-02
3.618665784597396851e-02
3.015068545937538147e-02
-2.664358727633953094e-02
-7.307612802833318710e-03
1.940237544476985931e-02
-2.308330498635768890e-02
4.731669105240143836e-05
3.229715675115585327e-02
5.226362496614456177e-02
5.311513319611549377e-03
7.629345054738223553e-04
-5.801891442388296127e-03
1.130005158483982086e-02
1.491284556686878204e-02
2.753213793039321899e-02
1.914969086647033691e-02
5.381308868527412415e-02
3.248682990670204163e-02
1.970694214105606079e-02
4.665616899728775024e-02
6.480494886636734009e-02
4.509277641773223877e-03
-6.874009501188993454e-03
-2.588018216192722321e-02
4.772506654262542725e-02
-9.608138352632522583e-03
-5.333093460649251938e-03
2.511567249894142151e-02
-6.565040443092584610e-03
-5.789423733949661255e-02
2.118477225303649902e-02
-2.576388977468013763e-02
-1.869687251746654510e-02
2.801249548792839050e-02
-4.487077705562114716e-03
4.147187992930412292e-02
5.502865533344447613e-04
2.990819141268730164e-02
2.802670374512672424e-02
-8.416283875703811646e-03
1.388697326183319092e-02
-2.780357003211975098e-02
4.777852445840835571e-02
-2.886531874537467957e-02
1.792431063950061798e-02
1.402702182531356812e-02
-3.673067549243569374e-03
-3.007003664970397949e-02
8.209746330976486206e-03
3.498552739620208740e-02
2.678946964442729950e-02
4.012322798371315002e-02
1.706355996429920197e-02
5.813478305935859680e-02
-2.886942587792873383e-02
1.741531491279602051e-02
2.741065062582492828e-02
4.864468798041343689e-02
5.620307102799415588e-02
5.187648534774780273e-02
-3.258907049894332886e-02
2.888976410031318665e-02
3.249638527631759644e-02
3.376723080873489380e-02
