6.133757904171943665e-02
-1.125112473964691162e-01
1.629392802715301514e-01
3.905385732650756836e-02
-4.236726835370063782e-02
1.413088887929916382e-01
9.205431491136550903e-02
-9.791705012321472168e-02
1.597775332629680634e-02
3.143756091594696045e-02
1.702459156513214111e-01
-5.316904559731483459e-02
-4.171923175454139709e-02
-1.720184087753295898e-01
1.190643906593322754e-01
-1.149976179003715515e-01
-2.124952822923660278e-01
-6.972582777962088585e-04
8.029901236295700073e-02
-9.252505749464035034e-02
-7.891129702329635620e-02
-8.646208792924880981e-02
-1.198106780648231506e-01
-6.379327923059463501e-02
-7.422352582216262817e-02
-2.147506773471832275e-01
-1.158465743064880371e-01
1.872168183326721191e-01
-1.959287822246551514e-01
-5.560237541794776917e-02
8.691950887441635132e-02
1.352594196796417236e-01
-8.392199873924255371e-02
5.850509274750947952e-03
-1.124063320457935333e-02
8.355503529310226440e-02
-1.073568537831306458e-01
-1.320026665925979614e-01
9.112865477800369263e-02
-8.334679901599884033e-02
8.631731569766998291e-02
1.349756270647048950e-01
3.050247579813003540e-02
1.342838257551193237e-01
-6.671321392059326172e-02
4.589471966028213501e-02
-1.082171425223350525e-01
-1.298235356807708740e-01
4.474064335227012634e-03
1.168766468763351440e-01
1.745748892426490784e-02
-6.906279921531677246e-02
1.067783534526824951e-01
-1.190075278282165527e-01
-5.105813592672348022e-02
-6.680756062269210815e-02
-5.380470678210258484e-02
1.402943432331085205e-01
4.827204719185829163e-02
-1.525635458528995514e-02
-5.525385588407516479e-02
-1.164750531315803528e-01
2.375324815511703491e-02
1.359850615262985229e-01
1.281419098377227783e-01
-1.130697429180145264e-01
5.783040449023246765e-02
-8.463319391012191772e-02
2.630808390676975250e-02
1.161867156624794006e-01
-7.815931923687458038e-03
-1.927169859409332275e-01
-1.206040754914283752e-01
-1.267015039920806885e-01
1.116550713777542114e-01
-9.517953544855117798e-02
-1.354754418134689331e-01
9.886597841978073120e-02
1.038296818733215332e-01
-1.472861766815185547e-01
-2.752447500824928284e-02
-8.139933645725250244e-02
1.679374487139284611e-03
-7.386175543069839478e-02
-7.110317051410675049e-02
8.210949599742889404e-02
-7.847990095615386963e-02
-9.823418408632278442e-02
-1.483673322945833206e-02
-1.681766659021377563e-01
-9.578548371791839600e-02
-2.056314796209335327e-02
1.273736357688903809e-01
-1.581811606884002686e-01
-9.701272845268249512e-02
5.321745574474334717e-02
6.821120530366897583e-02
-6.862367969006299973e-03
-1.231953427195549011e-01
-1.326967626810073853e-01
-3.528981655836105347e-02
1.442514918744564056e-02
-1.790324449539184570e-01
6.269797682762145996e-02
1.602248996496200562e-01
-6.740974634885787964e-02
1.023427471518516541e-01
7.006913423538208008e-02
-5.369220674037933350e-02
4.805158823728561401e-02
-2.726817689836025238e-02
-1.041991040110588074e-01
2.410390973091125488e-02
6.474681943655014038e-02
-6.724380701780319214e-02
4.175433889031410217e-02
-6.730991601943969727e-02
-4.939492046833038330e-02
-5.134491622447967529e-02
1.520448029041290283e-01
1.249752100557088852e-02
-2.224458567798137665e-02
6.236905232071876526e-02
-1.113449037075042725e-02
9.301147609949111938e-02
-1.059661805629730225e-01
-8.864027261734008789e-02
-2.810853905975818634e-02
1.001324802637100220e-01
-8.073247224092483521e-02
-1.585552096366882324e-01
-2.826916985213756561e-02
1.388396471738815308e-01
-1.216327026486396790e-01
-6.955736875534057617e-02
5.720685422420501709e-02
9.461253136396408081e-02
-1.448027491569519043e-01
-1.450276225805282593e-01
-1.515202671289443970e-01
-1.813394427299499512e-01
1.151325553655624390e-01
1.429437547922134399e-01
-7.740094512701034546e-02
1.312576141208410263e-02
-1.417729258537292480e-01
1.469506323337554932e-01
-8.056082576513290405e-02
2.819295600056648254e-02
3.113933093845844269e-02
-8.036261796951293945e-02
-1.498323827981948853e-01
-1.442404687404632568e-01
1.299508512020111084e-01
4.450587928295135498e-02
-8.193586766719818115e-02
-1.371569633483886719e-01
-6.444133818149566650e-02
-9.932207316160202026e-02
-7.954195886850357056e-02
-9.399979561567306519e-02
-7.697019726037979126e-02
3.656146675348281860e-02
-1.298928260803222656e-01
1.126006543636322021e-01
-1.227696463465690613e-01
-8.737639337778091431e-02
1.768390089273452759e-01
1.071447655558586121e-01
-4.120748490095138550e-02
-5.104169994592666626e-02
-3.272800706326961517e-03
-4.892436414957046509e-02
1.010750606656074524e-01
-8.985242992639541626e-02
-1.466443240642547607e-01
-3.802533820271492004e-02
-1.073677018284797668e-01
1.031191870570182800e-01
1.369042694568634033e-01
4.131479933857917786e-02
-9.701628983020782471e-02
-8.168197423219680786e-02
8.634469658136367798e-02
1.453216671943664551e-01
-4.062258079648017883e-02
1.169561967253684998e-01
1.321817338466644287e-01
-7.258521765470504761e-02
-5.153613910079002380e-02
-7.501778006553649902e-02
-8.038671314716339111e-02
9.167261421680450439e-02
6.840404868125915527e-02
1.253452599048614502e-01
-7.788205146789550781e-02
-1.077025607228279114e-01
-1.293831616640090942e-01
3.717591241002082825e-02
-6.081846356391906738e-02
9.527218341827392578e-02
-1.011183783411979675e-01
1.534346640110015869e-01
-7.825827598571777344e-02
-1.075158789753913879e-01
-8.011529594659805298e-02
-1.729064993560314178e-02
-4.370165988802909851e-02
2.063599042594432831e-02
-1.159247383475303650e-01
7.575646042823791504e-02
-1.103754490613937378e-01
-3.537241742014884949e-02
7.172428816556930542e-02
-9.489569067955017090e-02
5.846929550170898438e-02
-1.263545453548431396e-01
-7.675028592348098755e-02
-1.848663850978482515e-05
-7.310701161623001099e-02
4.721926152706146240e-02
-5.692282319068908691e-02
-8.231891691684722900e-02
-1.096474379301071167e-01
-3.060024231672286987e-02
2.310065627098083496e-01
-1.352546215057373047e-01
7.811378221958875656e-03
-1.057532802224159241e-01
-2.380935251712799072e-01
8.417704701423645020e-02
1.349567919969558716e-01
7.251275330781936646e-02
-2.003834098577499390e-01
-1.062468662858009338e-01
6.222083047032356262e-02
-1.777831651270389557e-02
-1.520480513572692871e-01
5.161905661225318909e-02
-7.136816531419754028e-02
-2.480385825037956238e-02
-9.324347227811813354e-02
-5.987202376127243042e-02
-9.232851676642894745e-03
6.790093332529067993e-02
-1.656301878392696381e-02
1.845819130539894104e-02
1.513576060533523560e-01
8.523261174559593201e-03
-9.319350123405456543e-02
-9.416254609823226929e-02
-1.268309056758880615e-01
6.665906310081481934e-02
-2.045987248420715332e-01
-1.401765048503875732e-01
-8.493176847696304321e-02
-5.912946164608001709e-02
-7.623569667339324951e-02
-1.100286692380905151e-01
1.526583582162857056e-01
8.757084608078002930e-02
8.641356229782104492e-02
-1.159133091568946838e-01
4.943218827247619629e-02
-1.243026331067085266e-01
-1.440680921077728271e-01
-1.068022195249795914e-02
9.029213339090347290e-02
-1.023956108838319778e-03
1.448270082473754883e-01
1.130590867251157761e-02
-1.442921161651611328e-02
5.382942780852317810e-02
-1.059767380356788635e-01
-9.842950850725173950e-02
9.956906735897064209e-02
4.534133151173591614e-02
1.083022430539131165e-01
1.109139621257781982e-01
-1.053585857152938843e-01
1.331896781921386719e-01
1.002383008599281311e-01
-1.320531070232391357e-01
-9.219173341989517212e-02
-7.932712882757186890e-02
1.290234476327896118e-01
-1.194527000188827515e-01
-2.093701809644699097e-01
1.455338951200246811e-02
-1.481010168790817261e-01
1.220984756946563721e-01
-7.756408303976058960e-02
1.155385896563529968e-01
-1.561594456434249878e-01
-6.335642933845520020e-02
1.440152674913406372e-01
-4.370220005512237549e-02
-1.644405573606491089e-01
-5.255630239844322205e-02
-9.850641340017318726e-02
-2.414308860898017883e-02
-3.806446120142936707e-02
1.199214085936546326e-01
8.956035971641540527e-02
-1.749935001134872437e-01
8.809062093496322632e-02
6.131431460380554199e-02
1.422185450792312622e-01
-1.135389879345893860e-01
5.267457664012908936e-02
-6.104132533073425293e-02
1.101469993591308594e-01
1.581009030342102051e-01
-1.186046004295349121e-01
-1.480938196182250977e-01
6.651006639003753662e-02
7.214669883251190186e-02
1.781100630760192871e-01
1.477494090795516968e-01
-1.170672476291656494e-01
-1.656370759010314941e-01
6.098139099776744843e-03
-3.616189584136009216e-02
9.166745096445083618e-02
-8.432608842849731445e-02
-1.126927733421325684e-01
-1.366044133901596069e-01
-3.979301452636718750e-02
1.696325093507766724e-01
3.390013054013252258e-02
-5.243169143795967102e-02
1.146079525351524353e-01
6.172249093651771545e-02
-9.362285584211349487e-02
2.681736089289188385e-02
8.848308026790618896e-02
8.388470858335494995e-02
4.838444665074348450e-02
-1.642613857984542847e-01
8.896086364984512329e-02
1.220090463757514954e-01
-6.521293520927429199e-02
7.317273318767547607e-02
1.495816409587860107e-01
1.563764065504074097e-01
1.287585496902465820e-01
9.396789968013763428e-02
1.549359411001205444e-01
-2.497245185077190399e-02
-8.234553784132003784e-02
5.322299525141716003e-02
1.055028364062309265e-01
-2.417455315589904785e-01
1.131567507982254028e-01
1.333540081977844238e-01
-1.426269672811031342e-02
5.947251990437507629e-02
5.958066135644912720e-02
-1.041935533285140991e-01
-5.133657902479171753e-02
-1.576880067586898804e-01
-5.216986406594514847e-03
-1.217823550105094910e-01
1.853478513658046722e-02
5.666429549455642700e-02
-4.678216204047203064e-02
1.210113540291786194e-01
-2.792450040578842163e-02
-1.089144125580787659e-01
-1.262216269969940186e-01
-8.655956387519836426e-02
-1.434129774570465088e-01
-5.972614884376525879e-02
1.643736511468887329e-01
-2.138028293848037720e-01
-1.705343127250671387e-01
-7.482426613569259644e-02
1.980109959840774536e-01
-1.844860315322875977e-01
1.214553788304328918e-01
5.949020385742187500e-03
-2.212473750114440918e-02
-4.167416319251060486e-02
-4.393117502331733704e-02
-2.345045469701290131e-02
-1.358468532562255859e-01
2.439259551465511322e-02
8.007781207561492920e-02
-7.121667265892028809e-02
-4.366747662425041199e-02
8.722782880067825317e-02
-1.476581543684005737e-01
-1.208964176476001740e-02
8.094159513711929321e-02
1.112796738743782043e-01
1.483215838670730591e-01
1.263139992952346802e-01
-5.702113360166549683e-02
-1.070844829082489014e-01
-2.540385425090789795e-01
1.345358341932296753e-01
-5.159104242920875549e-02
-6.824496388435363770e-02
1.068878471851348877e-01
2.790146693587303162e-02
1.807567030191421509e-01
-4.569258168339729309e-02
5.613965913653373718e-02
1.427358090877532959e-01
-6.812017410993576050e-02
-1.060019526630640030e-02
-6.223703175783157349e-02
1.562788039445877075e-01
2.807655255310237408e-04
5.709362775087356567e-02
-1.295643448829650879e-01
5.851243436336517334e-02
1.650734692811965942e-01
1.633976399898529053e-01
1.966187544167041779e-02
6.637051701545715332e-02
2.768813166767358780e-03
-3.714285558089613914e-03
-1.153334155678749084e-01
-1.855096518993377686e-01
1.279423534870147705e-01
-1.322326995432376862e-02
9.250441938638687134e-02
9.805501252412796021e-02
-1.705389171838760376e-01
-1.291176676750183105e-01
-2.219855412840843201e-02
-6.174163892865180969e-02
7.224959880113601685e-02
-5.970666557550430298e-02
-5.190297588706016541e-02
3.832170274108648300e-03
1.353508234024047852e-01
-1.746488362550735474e-02
-3.786441683769226074e-02
-9.069330990314483643e-02
-6.306413095444440842e-03
-2.104680240154266357e-01
-9.510032832622528076e-03
6.772190332412719727e-02
1.051781326532363892e-01
1.266632080078125000e-01
-1.211274564266204834e-01
-1.320198476314544678e-01
-2.088745236396789551e-01
-8.917844295501708984e-02
-9.599450277164578438e-05
-4.049833118915557861e-02
-1.471155881881713867e-01
-9.696182608604431152e-02
1.277235448360443115e-01
-2.382233589887619019e-01
3.532642731443047523e-03
-1.590042561292648315e-01
1.288994494825601578e-02
1.557234674692153931e-01
-4.426679387688636780e-02
2.111502923071384430e-02
-6.281094998121261597e-02
2.663655765354633331e-02
-4.413268528878688812e-03
-1.659600436687469482e-01
4.667506739497184753e-02
1.723443120718002319e-01
-1.028419137001037598e-01
1.029767915606498718e-01
-1.688064783811569214e-01
-9.857933968305587769e-02
-2.168335020542144775e-02
1.657219976186752319e-01
1.512351483106613159e-01
1.014055982232093811e-01
1.227761283516883850e-01
1.232657730579376221e-01
-1.740311272442340851e-02
1.540219336748123169e-01
-8.248355984687805176e-02
-1.213938668370246887e-01
3.762318938970565796e-02
4.557010531425476074e-02
-8.360504359006881714e-02
-2.268206030130386353e-01
-1.263814717531204224e-01
-1.560231000185012817e-01
5.059218406677246094e-02
1.015435252338647842e-02
-2.999829361215233803e-03
2.055667154490947723e-02
-9.081262350082397461e-02
-1.092467904090881348e-01
-1.204347983002662659e-01
7.955858111381530762e-02
8.374115824699401855e-02
-6.024686247110366821e-02
1.111359335482120514e-03
-2.758825384080410004e-02
9.107583016157150269e-02
2.621813304722309113e-02
2.982033602893352509e-02
1.943297125399112701e-02
1.703940778970718384e-01
1.417496651411056519e-01
1.117152199149131775e-01
8.246281743049621582e-02
8.249036967754364014e-02
6.084182485938072205e-02
1.264412105083465576e-01
4.256450757384300232e-02
3.761735185980796814e-02
-8.251173794269561768e-02
-2.163781784474849701e-02
-5.653751268982887268e-02
1.615250296890735626e-02
-1.324531883001327515e-01
-1.307596918195486069e-02
-2.114329859614372253e-02
-4.532962292432785034e-02
-8.870262652635574341e-02
-4.047733545303344727e-02
7.956499606370925903e-02
-5.454441905021667480e-02
-9.821666032075881958e-02
2.050459384918212891e-01
2.041522599756717682e-02
-3.568148612976074219e-02
-3.310225531458854675e-02
-1.314761936664581299e-01
1.252862215042114258e-01
1.007596179842948914e-01
1.406395584344863892e-01
-1.015856042504310608e-01
1.044898331165313721e-01
-8.963999152183532715e-02
9.910890460014343262e-02
-3.509201109409332275e-02
-7.238695025444030762e-02
-7.322371751070022583e-02
8.112927389447577298e-06
-4.828639328479766846e-02
-1.162737533450126648e-01
1.615528166294097900e-01
-1.739757880568504333e-02
1.998609453439712524e-01
5.626271292567253113e-02
1.257324665784835815e-01
-3.409247472882270813e-02
-4.163030907511711121e-02
6.332888454198837280e-02
-6.388798356056213379e-02
-1.289439946413040161e-01
7.999490946531295776e-02
9.134060889482498169e-02
-3.262781724333763123e-02
-8.156660199165344238e-02
5.342671275138854980e-02
-6.408909708261489868e-02
-3.015298210084438324e-02
-3.427037037909030914e-03
-3.781781718134880066e-02
-1.218852922320365906e-01
1.217800229787826538e-01
1.686504036188125610e-01
-6.857229862362146378e-03
1.332132983952760696e-02
-2.990489127114415169e-03
-1.054886206984519958e-01
-1.033557206392288208e-01
-1.516332849860191345e-02
-1.488825976848602295e-01
-1.413640566170215607e-02
-3.134378418326377869e-02
1.570356264710426331e-02
-2.767074480652809143e-02
2.242854535579681396e-01
-1.211359947919845581e-01
-6.135307997465133667e-02
-7.473860681056976318e-02
-1.002483814954757690e-01
-4.260366410017013550e-02
-3.655367530882358551e-03
-2.955378219485282898e-02
2.794207260012626648e-02
-4.247356206178665161e-02
-1.085151061415672302e-01
1.180921047925949097e-01
-4.292760416865348816e-02
-9.935919940471649170e-02
-6.243094056844711304e-02
1.999740675091743469e-02
-2.162468992173671722e-02
-5.244082584977149963e-02
-6.969173252582550049e-02
5.827252287417650223e-03
-4.145051911473274231e-02
-1.161998584866523743e-01
-1.988094486296176910e-02
1.176181994378566742e-02
1.813605129718780518e-01
1.288716495037078857e-01
-8.889003843069076538e-02
-8.421052247285842896e-02
2.322370000183582306e-02
-5.880089011043310165e-03
-6.358078122138977051e-02
-7.150208204984664917e-02
-2.176654711365699768e-02
-3.201137855648994446e-02
-4.579079151153564453e-02
-4.800434038043022156e-02
1.232299283146858215e-01
-1.045731082558631897e-01
2.631529234349727631e-02
-7.487405091524124146e-02
-4.590183496475219727e-02
4.545460455119609833e-03
3.286618366837501526e-02
1.422026846557855606e-02
-1.059854477643966675e-01
-7.526524364948272705e-02
8.203244954347610474e-02
-5.418597906827926636e-02
-1.025124266743659973e-01
4.303246736526489258e-02
6.983754038810729980e-02
-5.386462435126304626e-02
-5.731893330812454224e-02
-1.494201738387346268e-02
-9.753520041704177856e-02
-7.771646231412887573e-02
-2.210109308362007141e-02
2.006348967552185059e-02
-5.312002450227737427e-02
2.331423573195934296e-02
-1.194022782146930695e-02
1.919352710247039795e-01
2.813808992505073547e-02
-1.347867492586374283e-02
-1.240729093551635742e-01
1.408974379301071167e-01
-2.300132624804973602e-02
1.822314597666263580e-02
-8.013346232473850250e-03
-8.823594450950622559e-02
-7.631029188632965088e-02
1.013040840625762939e-01
-8.431478589773178101e-02
-1.185328587889671326e-01
-1.456811875104904175e-01
-1.265489310026168823e-01
1.377499252557754517e-01
-7.075358927249908447e-02
2.458033710718154907e-02
-3.787540644407272339e-02
-8.973282575607299805e-02
-1.086077913641929626e-01
-9.054473601281642914e-03
6.395669281482696533e-02
5.240996927022933960e-02
-3.476653248071670532e-02
-6.019192188978195190e-02
2.233507782220840454e-01
3.934438806027173996e-03
1.230450719594955444e-02
-5.365028604865074158e-02
-1.151911728084087372e-02
-5.178498104214668274e-02
4.782882984727621078e-03
-9.851197153329849243e-02
-6.219746544957160950e-02
-1.076601222157478333e-01
-6.017254665493965149e-02
-8.000195026397705078e-02
1.340892314910888672e-01
7.636850327253341675e-02
-4.277110099792480469e-02
4.199067503213882446e-02
-6.248459219932556152e-02
7.472316920757293701e-02
7.309134583920240402e-03
9.355772286653518677e-02
-3.140846267342567444e-02
-7.355027645826339722e-02
5.239062383770942688e-02
1.910972408950328827e-02
4.708001017570495605e-02
1.426349021494388580e-02
1.051036119461059570e-01
3.855042159557342529e-02
9.397350996732711792e-02
1.358457207679748535e-01
2.010537981986999512e-01
3.334870561957359314e-02
1.223374251276254654e-02
-2.676027826964855194e-02
1.934496313333511353e-01
1.361702531576156616e-01
1.979893147945404053e-01
2.116327881813049316e-01
-1.483171135187149048e-01
-4.606721550226211548e-02
4.172688350081443787e-03
1.245863363146781921e-01
-5.400749668478965759e-02
-7.807848602533340454e-02
-8.351690322160720825e-02
5.226464942097663879e-02
-9.049364179372787476e-02
-1.130302399396896362e-01
1.244305539876222610e-02
-3.129451721906661987e-02
1.408514976501464844e-01
-9.954578429460525513e-02
7.787615060806274414e-02
1.364647895097732544e-01
-7.335758209228515625e-02
-5.734773725271224976e-02
5.026160925626754761e-02
-5.953310057520866394e-02
-4.670122265815734863e-02
8.240817487239837646e-02
1.382991112768650055e-02
8.957306854426860809e-03
-8.575451793149113655e-04
-5.880926549434661865e-02
9.383619576692581177e-02
-4.865119606256484985e-02
2.383020147681236267e-02
-2.613179385662078857e-02
-1.836182177066802979e-02
7.409386336803436279e-02
-9.638708829879760742e-02
7.686004787683486938e-02
4.779224470257759094e-02
-1.936210691928863525e-01
5.582990497350692749e-02
5.866705626249313354e-02
-9.926609694957733154e-02
-3.193152695894241333e-02
1.187542304396629333e-01
-1.000326797366142273e-01
7.434068620204925537e-02
6.628998368978500366e-02
-8.133807033300399780e-02
2.419680356979370117e-03
8.362957090139389038e-02
3.463517874479293823e-02
-1.375615410506725311e-02
1.164154186844825745e-01
-1.120905280113220215e-01
-8.951381593942642212e-02
1.555218100547790527e-01
5.000924691557884216e-03
-8.270172774791717529e-02
3.308432176709175110e-02
3.416978567838668823e-02
6.455042958259582520e-02
-9.109529852867126465e-02
-5.240929499268531799e-02
8.409597724676132202e-02
-4.434578493237495422e-02
7.488368451595306396e-02
1.179969534277915955e-01
-4.761805757880210876e-02
1.416554581373929977e-02
1.375477015972137451e-01
-8.091792464256286621e-02
-4.635213315486907959e-02
3.058316372334957123e-02
-3.060679323971271515e-02
-9.103602170944213867e-02
6.945307366549968719e-03
-2.769432216882705688e-02
-1.401400472968816757e-02
-3.965091332793235779e-02
-4.597030207514762878e-02
9.909047931432723999e-02
-4.246497899293899536e-02
-2.727686800062656403e-02
1.658077239990234375e-01
-1.661165803670883179e-01
1.591274589300155640e-01
-6.775403022766113281e-02
1.485043857246637344e-02
3.556778654456138611e-02
4.698647186160087585e-02
-9.538898617029190063e-02
-1.082845702767372131e-01
7.972649298608303070e-03
-1.651962250471115112e-01
1.118152737617492676e-01
-4.868004843592643738e-02
-1.160782203078269958e-01
1.263997051864862442e-02
-3.009958425536751747e-03
-4.834235832095146179e-02
1.476991772651672363e-01
6.539499759674072266e-02
-6.104571372270584106e-02
4.479897767305374146e-02
-4.447562992572784424e-02
1.465532183647155762e-01
1.336983293294906616e-01
6.997287273406982422e-02
-4.926031082868576050e-02
-6.232788041234016418e-02
6.853175163269042969e-02
-1.912881433963775635e-01
9.088326245546340942e-02
3.197876736521720886e-02
-1.211846992373466492e-01
-2.210555970668792725e-02
-6.875261664390563965e-02
-4.391887411475181580e-02
-5.617612972855567932e-02
-9.496197104454040527e-03
-6.517737172544002533e-03
9.940480440855026245e-02
1.026340201497077942e-01
-4.307375848293304443e-02
-9.233640506863594055e-03
-4.761869460344314575e-02
1.287770122289657593e-01
-2.393069118261337280e-02
-8.803412318229675293e-02
-4.253047704696655273e-02
2.086418913677334785e-03
3.463563695549964905e-02
-9.274490177631378174e-03
-3.673347085714340210e-02
7.025070488452911377e-02
-1.921219192445278168e-02
8.097442239522933960e-02
-5.986487492918968201e-02
-6.482247263193130493e-02
-3.858263790607452393e-02
5.877697467803955078e-02
-1.776194944977760315e-02
-5.333258584141731262e-02
1.056728437542915344e-01
4.868781194090843201e-02
6.385643035173416138e-02
-4.945031553506851196e-02
-1.379363238811492920e-01
-3.214418888092041016e-02
3.126011043787002563e-02
-1.141023784875869751e-01
7.509377785027027130e-03
-1.341916024684906006e-01
-8.506992459297180176e-02
-4.100771248340606689e-02
-1.457368135452270508e-01
-8.975078910589218140e-02
-6.035982072353363037e-02
2.082689553499221802e-01
2.110501751303672791e-02
-2.323263697326183319e-02
-1.369862258434295654e-01
-6.440839171409606934e-02
4.604275152087211609e-02
-1.751969009637832642e-02
-8.437412232160568237e-02
-1.601223647594451904e-02
-7.788146287202835083e-02
-5.701792612671852112e-02
-1.556643471121788025e-02
3.066248260438442230e-02
-1.220938414335250854e-01
-1.440294180065393448e-02
-3.149453550577163696e-02
-7.002209872007369995e-02
1.818837523460388184e-01
-7.901068776845932007e-02
-8.983407169580459595e-02
-6.966887414455413818e-02
1.832112371921539307e-01
1.290543377399444580e-01
-6.694822758436203003e-02
2.129536587744951248e-03
2.777659334242343903e-02
2.818018756806850433e-02
-3.405547887086868286e-02
5.487918853759765625e-02
-3.471154347062110901e-02
1.127200499176979065e-01
-4.736837744712829590e-02
1.364873796701431274e-01
-4.556711390614509583e-02
-1.016179174184799194e-01
3.444287180900573730e-02
8.381447196006774902e-02
-5.281474441289901733e-02
1.997440457344055176e-01
2.200131267309188843e-01
-1.272706687450408936e-02
8.022498339414596558e-02
1.402555853128433228e-01
-5.453556403517723083e-02
-5.870964378118515015e-02
-6.327799707651138306e-02
-8.724388480186462402e-02
-1.355054229497909546e-01
-1.353026330471038818e-01
-9.198457002639770508e-02
7.327464874833822250e-03
-4.595708474516868591e-02
1.456430107355117798e-01
1.331106573343276978e-01
1.397203095257282257e-02
6.260182708501815796e-02
-3.235851973295211792e-02
-1.428936570882797241e-01
3.034175373613834381e-02
2.322648651897907257e-03
1.629953533411026001e-01
-6.614435464143753052e-02
-1.006842628121376038e-01
9.388148039579391479e-02
5.892286822199821472e-02
2.157330513000488281e-02
-1.443132758140563965e-01
-9.769777767360210419e-03
1.166379973292350769e-01
3.216017782688140869e-02
1.023056358098983765e-01
-6.929941475391387939e-02
-4.971884936094284058e-02
3.083680197596549988e-02
-6.850218772888183594e-02
1.687163263559341431e-01
1.382043659687042236e-01
3.130224347114562988e-02
-6.895664334297180176e-02
-4.393402487039566040e-02
8.193730562925338745e-02
-1.156901940703392029e-01
4.099420830607414246e-02
-8.895286172628402710e-02
4.437562078237533569e-02
4.292763769626617432e-02
6.600351072847843170e-03
4.807637631893157959e-02
-4.155999422073364258e-02
1.060216054320335388e-01
-1.073738783597946167e-01
1.358367055654525757e-01
3.104584105312824249e-02
3.951217606663703918e-02
1.372002512216567993e-01
7.245557755231857300e-02
1.058989111334085464e-02
-1.106052193790674210e-02
4.237350821495056152e-02
3.756752237677574158e-02
7.323145866394042969e-02
1.327353715896606445e-01
-6.061775982379913330e-02
2.331133373081684113e-02
1.781216114759445190e-01
-9.323120862245559692e-02
-4.303793609142303467e-02
7.891180366277694702e-02
6.003847718238830566e-02
5.460264161229133606e-02
4.781854525208473206e-02
1.703323423862457275e-01
-1.516741514205932617e-01
-3.967103734612464905e-02
-1.697140932083129883e-01
-4.379946365952491760e-02
1.384122818708419800e-01
-1.959764026105403900e-02
-1.508993655443191528e-02
6.455425173044204712e-03
-4.943754896521568298e-02
-4.382762685418128967e-02
3.243377432227134705e-02
-1.112094800919294357e-02
-3.030885383486747742e-02
1.696393042802810669e-01
1.170608494430780411e-02
1.057469174265861511e-01
-5.045783147215843201e-02
-7.623384147882461548e-02
-9.267844259738922119e-02
3.292430564761161804e-02
2.294636704027652740e-02
-7.435923907905817032e-04
-3.982557728886604309e-02
8.344063907861709595e-02
1.376153826713562012e-01
-5.133351311087608337e-02
1.611025482416152954e-01
-5.339895188808441162e-02
-6.762170791625976562e-02
1.197460689581930637e-03
1.954787410795688629e-02
1.045640781521797180e-01
1.558629572391510010e-01
-4.556262493133544922e-02
5.264807119965553284e-02
8.269538730382919312e-02
6.074562203139066696e-03
3.664635494351387024e-02
1.101455241441726685e-01
-5.078460276126861572e-02
6.490733474493026733e-02
-2.600448578596115112e-02
-1.011572405695915222e-01
1.908463686704635620e-01
-3.115165978670120239e-02
5.740492418408393860e-02
-8.448846638202667236e-02
-3.327962383627891541e-02
-1.465723849833011627e-02
3.589434921741485596e-02
-5.581277981400489807e-02
1.198442205786705017e-01
1.239473074674606323e-01
7.232482731342315674e-02
-1.348589509725570679e-01
-1.079003363847732544e-01
7.298280298709869385e-02
2.666936069726943970e-02
8.315104991197586060e-02
-6.411368399858474731e-02
1.568565219640731812e-01
-1.531329751014709473e-01
1.850629448890686035e-01
-6.778696924448013306e-02
-8.765556663274765015e-02
1.126211881637573242e-01
-8.290282636880874634e-02
1.471943706274032593e-01
-6.149422004818916321e-02
-6.914573907852172852e-02
1.662838011980056763e-01
2.532838098704814911e-02
-5.078990757465362549e-02
-1.198126971721649170e-01
-1.375842392444610596e-01
-8.520138263702392578e-02
-4.182121716439723969e-03
1.735389381647109985e-01
-1.138869598507881165e-01
9.619987756013870239e-02
-1.148358508944511414e-01
-2.632835507392883301e-02
1.069320365786552429e-01
-6.550223380327224731e-02
-1.312640607357025146e-01
1.372663974761962891e-01
-1.782915741205215454e-01
-8.398912847042083740e-02
1.532789468765258789e-01
-8.788581006228923798e-03
-1.123091503977775574e-01
-1.179321706295013428e-01
1.184764355421066284e-01
2.831060439348220825e-02
3.517377004027366638e-02
-1.107098087668418884e-01
1.335679590702056885e-01
9.470589458942413330e-02
-1.304962188005447388e-01
1.254161596298217773e-01
-6.852966547012329102e-02
9.559965133666992188e-02
1.117111369967460632e-01
9.472938627004623413e-02
9.584001381881535053e-04
7.868465781211853027e-02
8.740754425525665283e-02
-1.380525827407836914e-01
-8.259857445955276489e-02
1.318548321723937988e-01
-8.099673688411712646e-02
1.716019120067358017e-03
1.442842036485671997e-01
9.324455633759498596e-03
1.083399653434753418e-01
1.145961508154869080e-01
-3.344736620783805847e-02
-9.129330515861511230e-02
9.447577595710754395e-02
1.240800507366657257e-02
-1.507398858666419983e-02
3.637266159057617188e-02
-5.370106920599937439e-02
1.047486811876296997e-01
1.965666264295578003e-01
2.811205387115478516e-02
-1.445438414812088013e-01
-4.720334336161613464e-02
9.435184299945831299e-02
-1.846547275781631470e-01
-1.118826791644096375e-01
-1.627613976597785950e-02
1.064245700836181641e-01
1.386873573064804077e-01
-3.544361889362335205e-02
-1.588200218975543976e-02
-9.243161417543888092e-03
-9.438975155353546143e-02
2.003046870231628418e-01
-3.440152853727340698e-02
1.681759208440780640e-01
-1.048662886023521423e-01
-8.994991332292556763e-02
7.247774302959442139e-02
-9.394689649343490601e-02
1.231409087777137756e-01
9.153381735086441040e-02
5.897971987724304199e-02
1.445849984884262085e-01
-1.121287941932678223e-01
7.347311079502105713e-02
-9.587403386831283569e-02
1.473663561046123505e-02
1.524167656898498535e-01
6.099346210248768330e-04
1.152758821845054626e-01
-3.283859416842460632e-02
8.369099348783493042e-03
-1.266069859266281128e-01
1.734778881072998047e-01
6.525097042322158813e-02
-1.099590957164764404e-01
1.416344940662384033e-01
-8.870185911655426025e-02
-1.901335567235946655e-01
-1.649450808763504028e-01
-1.013352423906326294e-01
1.434061825275421143e-01
5.726758763194084167e-02
1.288209110498428345e-03
5.529909953474998474e-02
1.101213321089744568e-02
5.610613524913787842e-02
5.746906623244285583e-02
-1.287482976913452148e-01
7.708518952131271362e-02
-1.267233043909072876e-01
1.297104358673095703e-01
2.107363753020763397e-02
-1.133886501193046570e-01
-4.811288416385650635e-02
4.697367176413536072e-02
1.817462034523487091e-02
-4.938917234539985657e-02
2.191002666950225830e-01
8.168775588274002075e-02
-3.572483733296394348e-02
1.066556051373481750e-01
1.056602373719215393e-01
4.235730692744255066e-02
-8.155567944049835205e-02
-1.202554162591695786e-02
9.263518452644348145e-02
1.843660622835159302e-01
1.142031773924827576e-01
1.653174161911010742e-01
-1.109502613544464111e-01
9.096936136484146118e-02
1.439553648233413696e-01
2.017713487148284912e-01
8.657954633235931396e-02
9.075843542814254761e-02
-1.129455417394638062e-01
1.638155281543731689e-01
-1.986927241086959839e-01
1.699422597885131836e-01
6.026380695402622223e-03
9.243523702025413513e-03
-4.185058921575546265e-02
-1.256600469350814819e-01
1.206943243741989136e-01
-4.989934340119361877e-02
3.196657076478004456e-02
-1.116179376840591431e-01
-1.062354370951652527e-01
2.003617770969867706e-02
-1.712719351053237915e-02
6.078084185719490051e-02
-1.413020342588424683e-01
-1.694169081747531891e-02
-1.109720319509506226e-01
5.987821519374847412e-02
1.718480288982391357e-01
-5.399801209568977356e-02
-4.263218492269515991e-02
-8.136047422885894775e-02
-6.652850657701492310e-02
1.184614077210426331e-01
8.831387013196945190e-02
-1.969716399908065796e-01
-5.193889886140823364e-02
-1.647234261035919189e-01
-4.061768576502799988e-02
-1.355828195810317993e-01
2.772423997521400452e-02
-1.623771488666534424e-01
-1.503380239009857178e-01
-3.876464068889617920e-02
-7.640542834997177124e-02
-1.481069773435592651e-01
2.371757850050926208e-02
-4.415508732199668884e-02
-6.801176071166992188e-02
-4.895785078406333923e-02
3.158887475728988647e-02
-1.316143013536930084e-02
8.096587657928466797e-02
1.310656815767288208e-01
-8.606463670730590820e-02
-2.344581298530101776e-02
2.708140015602111816e-01
-5.908555164933204651e-02
-2.337425015866756439e-02
-2.152831107378005981e-02
-7.290003355592489243e-03
-1.260575205087661743e-01
1.181042417883872986e-01
-4.768439754843711853e-02
1.452925056219100952e-01
7.161431759595870972e-02
-4.954392835497856140e-02
1.717555224895477295e-01
2.958568278700113297e-03
-1.431939452886581421e-01
1.620104014873504639e-01
6.664985418319702148e-02
-1.464314013719558716e-01
1.579866111278533936e-01
8.782332390546798706e-02
-7.929860055446624756e-02
1.125389561057090759e-01
-9.242192655801773071e-02
6.691965460777282715e-02
1.287013888359069824e-01
4.137954488396644592e-02
-1.383906453847885132e-01
-1.061894968152046204e-01
8.877737820148468018e-02
7.949513942003250122e-02
-8.717685192823410034e-02
-2.542508207261562347e-02
5.725963413715362549e-02
-6.656064838171005249e-02
1.811723858118057251e-01
1.128173992037773132e-01
-6.277409195899963379e-02
5.965683236718177795e-02
-6.695406138896942139e-02
-3.115326166152954102e-02
2.611834742128849030e-02
1.011447142809629440e-02
1.658578068017959595e-01
-1.164399310946464539e-01
1.195386871695518494e-01
1.545163989067077637e-02
1.908510625362396240e-01
1.409132480621337891e-01
2.495118789374828339e-02
1.517327129840850830e-01
-1.440963447093963623e-01
2.854954265058040619e-02
-1.196027845144271851e-01
1.102506881579756737e-03
1.343434900045394897e-01
-7.960913330316543579e-02
-1.576394587755203247e-01
-3.092011995613574982e-02
-1.946043968200683594e-01
-1.090457439422607422e-01
3.635388985276222229e-02
2.423374354839324951e-02
1.229714453220367432e-01
-6.252869963645935059e-03
-8.366237580776214600e-02
-1.383969634771347046e-01
-7.859189063310623169e-02
-9.700657427310943604e-02
2.038398683071136475e-01
7.976906001567840576e-02
7.118800282478332520e-02
-3.127666935324668884e-02
9.456234425306320190e-02
5.922999605536460876e-02
-1.404036730527877808e-01
-1.064697429537773132e-01
-1.168339401483535767e-01
6.853215396404266357e-02
6.002923101186752319e-02
-4.922118037939071655e-03
9.792494773864746094e-02
-2.929257042706012726e-02
-1.719526499509811401e-01
-6.629112362861633301e-02
2.691728807985782623e-02
9.127353131771087646e-02
4.615901038050651550e-02
-2.063684724271297455e-02
-5.469667539000511169e-02
8.155919611454010010e-02
1.002755686640739441e-01
8.192606270313262939e-02
3.402401134371757507e-02
1.343225836753845215e-01
-1.155858337879180908e-01
-1.055853888392448425e-01
-7.565800845623016357e-02
-1.032090708613395691e-01
-5.943473055958747864e-02
5.394642055034637451e-02
-1.784850358963012695e-01
-2.476727962493896484e-02
2.170161530375480652e-02
-1.443488523364067078e-02
4.094126820564270020e-02
-7.718544453382492065e-02
2.077232860028743744e-02
8.380577713251113892e-02
-1.436522901058197021e-01
-3.433727473020553589e-02
-1.643685549497604370e-01
-1.821268945932388306e-01
-8.903701603412628174e-02
-6.596738845109939575e-02
-1.379888802766799927e-01
-5.637824535369873047e-02
-1.345341205596923828e-01
-5.701706558465957642e-02
1.292612589895725250e-02
6.916213035583496094e-02
1.619047373533248901e-01
-6.270674616098403931e-02
-9.441360086202621460e-02
4.874509945511817932e-02
9.375932812690734863e-02
1.067259535193443298e-01
1.155164912343025208e-01
-7.723691314458847046e-02
-1.687535084784030914e-02
-1.409493386745452881e-01
-7.824272662401199341e-02
-6.080566346645355225e-02
-9.381332248449325562e-02
-8.394787460565567017e-02
-1.813613474369049072e-01
-8.071013726294040680e-03
1.239537447690963745e-01
1.071568727493286133e-01
4.527917131781578064e-03
-1.179109737277030945e-01
1.488885879516601562e-01
-5.710472539067268372e-02
7.573264092206954956e-02
-9.902813285589218140e-02
1.802310943603515625e-01
-1.160791888833045959e-01
-2.560585038736462593e-03
3.516478091478347778e-02
1.164105683565139771e-01
1.043515056371688843e-01
-1.131604686379432678e-01
-3.407452255487442017e-02
-1.199737265706062317e-01
6.552048958837985992e-03
-1.439000852406024933e-02
1.022339891642332077e-02
1.250736415386199951e-01
1.043046414852142334e-01
1.072815582156181335e-01
-1.553643792867660522e-01
8.885298669338226318e-02
-1.224610358476638794e-01
-2.525245398283004761e-02
-1.118288636207580566e-01
-2.655931189656257629e-02
1.759271621704101562e-01
-1.291519999504089355e-01
-2.351935766637325287e-02
3.430659323930740356e-02
-2.797603607177734375e-02
-1.984222605824470520e-02
1.186715215444564819e-01
1.244815438985824585e-01
-7.076342403888702393e-02
-7.929766178131103516e-02
1.129773706197738647e-01
1.306821554899215698e-01
5.948897078633308411e-02
-1.215113401412963867e-01
1.095062866806983948e-01
-6.685214489698410034e-02
1.485966239124536514e-02
-1.264252066612243652e-01
1.549417823553085327e-01
-7.699490338563919067e-02
1.248648613691329956e-01
8.873219788074493408e-02
1.490415781736373901e-01
-5.109009146690368652e-02
1.083093285560607910e-01
2.110736221075057983e-01
-1.071364283561706543e-01
-4.797187633812427521e-03
1.222434788942337036e-01
1.945520490407943726e-01
1.327046602964401245e-01
-7.289932668209075928e-02
1.302466262131929398e-04
6.952694803476333618e-02
5.282779410481452942e-02
-1.549862027168273926e-01
-2.002466022968292236e-01
8.845695108175277710e-02
-6.980285793542861938e-02
1.595255136489868164e-01
-1.468765363097190857e-02
3.468877449631690979e-02
-2.073439024388790131e-02
1.329873949289321899e-01
-1.095365360379219055e-01
-1.109968498349189758e-01
-5.527586489915847778e-02
8.008625358343124390e-02
6.390122324228286743e-02
-8.983939141035079956e-02
2.911539934575557709e-02
1.039758548140525818e-01
1.186829805374145508e-02
7.011004537343978882e-02
1.100880280137062073e-01
8.226262778043746948e-02
1.447466611862182617e-01
-1.383391618728637695e-01
-3.080464899539947510e-02
1.174016296863555908e-01
-1.657750271260738373e-02
1.366388052701950073e-01
7.386521250009536743e-02
3.576366230845451355e-03
5.383107066154479980e-02
-8.120425045490264893e-02
-4.150038212537765503e-02
5.652314797043800354e-02
-7.199744880199432373e-02
-9.967646747827529907e-02
-1.301922835409641266e-02
1.090446859598159790e-01
-1.227041110396385193e-01
-1.587022794410586357e-03
1.895077377557754517e-01
-8.309867233037948608e-02
-5.132858082652091980e-02
-1.175533533096313477e-01
-1.527692936360836029e-02
-6.039270386099815369e-02
9.228254109621047974e-02
-6.322412192821502686e-02
-1.103888824582099915e-02
-9.757830947637557983e-02
-6.426902860403060913e-02
-4.842846840620040894e-02
-1.370953321456909180e-01
9.896059334278106689e-02
-1.187781915068626404e-01
9.662670642137527466e-02
1.457020640373229980e-01
-1.069512404501438141e-02
-5.270223319530487061e-02
-1.040027886629104614e-01
-5.594965443015098572e-02
1.647823601961135864e-01
6.878706812858581543e-02
-8.831597864627838135e-02
-1.670147180557250977e-01
1.305857449769973755e-01
-9.770335257053375244e-02
-2.322837151587009430e-02
-3.699589893221855164e-02
-9.909071028232574463e-02
-3.483438119292259216e-02
7.072168588638305664e-02
9.150735288858413696e-02
1.265131831169128418e-01
-1.563814282417297363e-01
-6.599154323339462280e-02
2.973704226315021515e-02
3.371735289692878723e-02
7.496831566095352173e-02
-1.538713127374649048e-01
-4.964981973171234131e-02
-8.583434671163558960e-02
-4.669823125004768372e-02
1.755273938179016113e-01
-1.232296004891395569e-01
1.532963942736387253e-02
-6.911440938711166382e-02
3.931768238544464111e-02
1.822599172592163086e-01
1.101194396615028381e-01
1.343036741018295288e-01
6.581661105155944824e-02
-3.647045791149139404e-02
-2.937112562358379364e-02
1.447857022285461426e-01
2.767476951703429222e-03
2.968688867986202240e-02
7.794903218746185303e-02
1.163496598601341248e-01
2.751484699547290802e-02
-1.047198474407196045e-01
1.351215243339538574e-01
3.625518456101417542e-02
2.807597443461418152e-02
7.285407930612564087e-02
-8.117339015007019043e-02
-5.401139706373214722e-02
8.599447458982467651e-02
-1.159477978944778442e-01
-6.551614962518215179e-03
5.723983421921730042e-02
-1.047902852296829224e-01
1.086094304919242859e-01
1.903810305520892143e-03
-8.497574180364608765e-02
7.043209671974182129e-02
1.556212902069091797e-01
-1.170768216252326965e-01
-5.491352826356887817e-02
-2.860276727005839348e-03
1.217633336782455444e-01
-9.714968502521514893e-02
-6.671080738306045532e-02
-6.959089636802673340e-02
-1.388995051383972168e-01
1.538617610931396484e-01
2.713381499052047729e-02
2.073665708303451538e-02
2.009835839271545410e-02
1.367888301610946655e-01
-4.159511625766754150e-02
-9.337081760168075562e-02
1.658940017223358154e-01
-1.389831900596618652e-01
-1.248552948236465454e-01
-9.464763849973678589e-02
1.124830469489097595e-01
2.534064091742038727e-02
-9.210160374641418457e-02
1.478707045316696167e-01
1.609536111354827881e-01
-7.936955243349075317e-02
2.557800617069005966e-03
-8.244817703962326050e-02
-2.380825765430927277e-02
3.166746755596250296e-04
-6.618072837591171265e-02
2.441722154617309570e-02
1.122718006372451782e-01
1.409774720668792725e-01
3.754392266273498535e-02
-1.018781736493110657e-01
6.095830351114273071e-03
-7.157674059271812439e-03
-3.583082929253578186e-02
-3.584200143814086914e-02
-1.120899319648742676e-01
-1.094237789511680603e-01
1.132591217756271362e-01
1.290199756622314453e-01
-1.363557875156402588e-01
1.119810864329338074e-01
3.245002403855323792e-02
2.785117924213409424e-02
-4.171158373355865479e-02
1.381111443042755127e-01
-1.282847076654434204e-01
-8.041835576295852661e-02
1.092209070920944214e-01
7.806225121021270752e-02
-7.648970931768417358e-02
-9.345500171184539795e-02
-9.270604699850082397e-02
-1.211417391896247864e-01
-3.514153882861137390e-02
-7.629659026861190796e-02
-1.849915534257888794e-01
8.459325879812240601e-02
-3.154314123094081879e-03
-1.396380662918090820e-01
1.309512257575988770e-01
5.704653263092041016e-02
1.368335634469985962e-01
1.375779956579208374e-01
-4.423747584223747253e-02
-5.357028916478157043e-03
-6.697931140661239624e-02
7.084609568119049072e-02
-1.917701400816440582e-02
-8.391029387712478638e-02
-5.687189474701881409e-02
-1.034309566020965576e-01
1.484984606504440308e-01
9.858336299657821655e-02
-2.777176909148693085e-02
-7.825069129467010498e-02
-4.733439534902572632e-02
1.299649626016616821e-01
8.425828069448471069e-02
8.551304787397384644e-02
-1.179294213652610779e-01
7.434732466936111450e-02
-4.464938491582870483e-02
9.508181363344192505e-02
1.225604675710201263e-02
9.197756648063659668e-02
5.172320641577243805e-03
-1.550589650869369507e-01
-1.495240181684494019e-01
8.373393118381500244e-02
-1.428144723176956177e-01
-1.046326532959938049e-01
-1.373810023069381714e-01
-3.335951268672943115e-02
-1.592693477869033813e-01
-2.919337339699268341e-02
-1.416361480951309204e-01
-4.793906584382057190e-02
1.268519908189773560e-01
-1.046882122755050659e-01
-1.005560532212257385e-01
-1.128218322992324829e-01
1.219120770692825317e-01
-2.058898657560348511e-02
1.232089400291442871e-01
-8.372414857149124146e-02
-5.659762769937515259e-02
-1.283144671469926834e-02
9.604917466640472412e-02
-5.747910216450691223e-02
-1.040957719087600708e-01
1.370469331741333008e-01
-4.249552637338638306e-02
1.591863334178924561e-01
1.067852228879928589e-01
-3.019263409078121185e-02
-1.098105683922767639e-01
-1.395599246025085449e-01
3.558326512575149536e-02
7.033389061689376831e-02
2.415876649320125580e-02
1.678292155265808105e-01
9.967983514070510864e-02
1.222905814647674561e-01
-3.125790879130363464e-02
9.581086784601211548e-02
-6.978406012058258057e-02
3.088120371103286743e-02
-9.575095772743225098e-02
1.081403344869613647e-01
1.146441400051116943e-01
7.172521948814392090e-02
-4.894893988966941833e-02
-6.805355101823806763e-02
-1.637697778642177582e-02
7.105875760316848755e-02
1.108790412545204163e-01
-8.191811293363571167e-02
-1.683822423219680786e-01
-1.303432434797286987e-01
-1.964519768953323364e-01
5.417851731181144714e-02
5.872410535812377930e-02
-1.693506389856338501e-01
-6.757195293903350830e-02
1.413152962923049927e-01
1.006570383906364441e-01
1.079030781984329224e-01
-1.690518110990524292e-02
-1.070429086685180664e-01
-8.236531168222427368e-03
-1.074793264269828796e-01
-4.755770415067672729e-02
8.074032515287399292e-02
-1.225195452570915222e-01
9.637264162302017212e-02
4.012927785515785217e-02
1.432396173477172852e-01
1.681085824966430664e-01
-1.013028621673583984e-01
-3.690822049975395203e-02
-9.144297242164611816e-02
-5.529378727078437805e-02
-2.202069200575351715e-02
8.591304533183574677e-03
-7.711514085531234741e-02
-5.416559055447578430e-02
-1.758589297533035278e-01
-7.220232393592596054e-03
3.307810053229331970e-02
-1.418075412511825562e-01
8.675687760114669800e-02
-1.736936904489994049e-02
1.708686053752899170e-01
8.978644758462905884e-02
-5.832905694842338562e-02
1.225782558321952820e-01
-8.702328056097030640e-02
-8.911437541246414185e-02
-4.216330870985984802e-02
-3.311370313167572021e-02
5.255239829421043396e-02
-1.537308096885681152e-01
-5.574984103441238403e-02
-9.385663270950317383e-02
-8.277962356805801392e-02
-3.745824843645095825e-02
-2.663678303360939026e-02
-7.064875960350036621e-02
2.782383933663368225e-02
1.441616863012313843e-01
5.209164321422576904e-02
-1.257608234882354736e-01
-3.885383950546383858e-03
-1.403440386056900024e-01
-9.154193103313446045e-02
-2.282337546348571777e-01
1.093364730477333069e-01
-1.071502044796943665e-01
-7.786323130130767822e-02
1.507043372839689255e-02
1.265496760606765747e-01
-4.799329861998558044e-02
7.724912837147712708e-03
-9.646990150213241577e-02
-9.120532125234603882e-02
1.315942555665969849e-01
-7.684434205293655396e-02
1.169987916946411133e-01
-4.381923750042915344e-02
-1.197776272892951965e-01
8.975451439619064331e-02
1.182173192501068115e-01
-1.163458451628684998e-01
-2.953974343836307526e-02
-9.252524375915527344e-02
1.046334356069564819e-01
-7.439891993999481201e-02
1.072839424014091492e-01
4.908665269613265991e-02
-1.024086996912956238e-01
-5.243054404854774475e-02
7.096978276968002319e-02
-1.264188885688781738e-01
4.485727101564407349e-02
1.200982034206390381e-01
-4.940976575016975403e-02
-4.446300212293863297e-03
1.210310459136962891e-01
-1.076857671141624451e-01
6.173953041434288025e-02
7.799144089221954346e-02
-1.850506104528903961e-02
1.473641097545623779e-01
-5.321258306503295898e-02
-1.706287115812301636e-01
-6.089019775390625000e-02
8.024418354034423828e-02
-1.487407386302947998e-01
-8.987033367156982422e-02
-2.061855979263782501e-02
-1.792524941265583038e-03
5.771771445870399475e-02
-6.449677050113677979e-02
-1.086245700716972351e-01
-7.078896462917327881e-02
7.339411228895187378e-02
-1.277875155210494995e-01
1.520991474390029907e-01
-1.285399496555328369e-01
8.087943494319915771e-02
-1.278077661991119385e-01
1.446624249219894409e-01
1.253694593906402588e-01
-2.075075730681419373e-02
-7.838850468397140503e-02
-6.223620101809501648e-02
-7.537682354450225830e-02
-8.012516051530838013e-02
-9.512865543365478516e-02
1.395490467548370361e-01
-1.601020693778991699e-01
3.131671249866485596e-02
-1.450137048959732056e-01
-5.501331016421318054e-02
-1.454145461320877075e-02
1.453326642513275146e-01
1.056142598390579224e-01
1.155653670430183411e-01
6.915482133626937866e-02
1.859679073095321655e-01
-7.182669639587402344e-02
-1.389420032501220703e-02
-1.462427824735641479e-01
1.255204975605010986e-01
7.916367053985595703e-02
-1.014539450407028198e-01
1.117734834551811218e-01
-5.625407025218009949e-02
1.150368005037307739e-01
1.206568777561187744e-01
-4.086478799581527710e-02
1.162486746907234192e-01
7.290710508823394775e-02
-1.678164601325988770e-01
8.918664604425430298e-02
6.235819682478904724e-02
1.509177982807159424e-01
1.657596230506896973e-02
-4.047150164842605591e-02
-8.620499819517135620e-02
8.326530456542968750e-02
-1.284926831722259521e-01
1.579343229532241821e-01
-7.026999443769454956e-02
1.089434772729873657e-01
1.049193665385246277e-01
-3.562178229913115501e-03
1.626033782958984375e-01
4.553177580237388611e-02
1.195614039897918701e-01
-2.824145555496215820e-02
1.378464847803115845e-01
6.879931688308715820e-02
-2.825025469064712524e-02
-7.091708481311798096e-02
2.167727202177047729e-01
1.042575538158416748e-01
1.346952170133590698e-01
-6.108039617538452148e-02
-1.190120875835418701e-01
1.426743268966674805e-01
-6.577127147465944290e-03
-1.557674258947372437e-01
-1.169772073626518250e-01
6.516009569168090820e-02
-1.433756500482559204e-01
-1.911540627479553223e-01
-1.398547887802124023e-01
1.015157625079154968e-01
-4.438921064138412476e-02
-3.144083172082901001e-02
1.883826255798339844e-01
1.619542539119720459e-01
-9.807460755109786987e-02
1.976548284292221069e-01
1.364293694496154785e-01
1.698101758956909180e-01
-6.714060157537460327e-02
-1.683796048164367676e-01
1.062983796000480652e-01
-6.010562926530838013e-02
9.468395262956619263e-03
-8.592890948057174683e-02
-8.476216346025466919e-02
7.099452428519725800e-03
1.320118606090545654e-01
5.151028931140899658e-02
1.727666258811950684e-01
-1.101702824234962463e-01
4.501698072999715805e-03
-9.483808279037475586e-02
-2.227428555488586426e-02
1.617539376020431519e-01
1.059409347362816334e-03
-6.439658999443054199e-02
5.735658109188079834e-03
1.734317690134048462e-01
6.303119659423828125e-02
-7.803396880626678467e-02
7.051958888769149780e-02
4.432086274027824402e-02
4.280621558427810669e-02
2.347433753311634064e-02
-7.890730351209640503e-02
2.946759574115276337e-02
1.240962073206901550e-01
-7.172748446464538574e-02
-1.427646875381469727e-01
1.803487986326217651e-01
-4.223734512925148010e-02
-1.360956728458404541e-01
1.252077221870422363e-01
-1.661700755357742310e-01
3.725631535053253174e-02
5.541691556572914124e-02
5.789831280708312988e-02
-9.586933255195617676e-02
1.014168784022331238e-01
-2.427163273096084595e-01
-2.186271175742149353e-02
5.470537394285202026e-02
1.068516820669174194e-01
5.502097308635711670e-02
9.537681192159652710e-02
-4.864571616053581238e-02
-1.666364371776580811e-01
-5.097649246454238892e-02
-1.305430382490158081e-01
-1.170495152473449707e-01
-8.810066431760787964e-02
-3.625836595892906189e-02
-1.894496977329254150e-01
-1.327540576457977295e-01
1.076023802161216736e-01
-5.671863630414009094e-02
-1.749133914709091187e-01
2.096703741699457169e-03
9.503763169050216675e-03
1.004557609558105469e-01
-8.884704858064651489e-02
-6.276426464319229126e-02
-3.542333841323852539e-02
6.855321675539016724e-02
1.470419019460678101e-01
1.094767227768898010e-01
-1.436186283826828003e-01
-5.914999637752771378e-03
-1.407151967287063599e-01
1.451789438724517822e-01
1.147963330149650574e-01
6.013796478509902954e-02
9.601860493421554565e-02
-1.652481555938720703e-01
9.952685981988906860e-02
9.279527515172958374e-02
1.348401904106140137e-01
-5.167118832468986511e-02
-1.085750982165336609e-01
1.204579547047615051e-01
-1.062732264399528503e-01
-9.331271983683109283e-03
-6.649477779865264893e-02
-3.671265020966529846e-02
-1.014015302062034607e-01
2.688856050372123718e-02
1.776641607284545898e-02
-2.850740589201450348e-02
-8.035450428724288940e-02
-4.389932751655578613e-02
-1.446733325719833374e-01
1.079998835921287537e-01
-8.456441015005111694e-02
-1.145823672413825989e-01
-1.470106244087219238e-01
-9.965777397155761719e-02
9.426262229681015015e-02
-1.362837105989456177e-01
8.624584972858428955e-02
-8.508574962615966797e-02
1.242407411336898804e-01
8.843638747930526733e-02
-1.795278191566467285e-01
2.838183194398880005e-02
-1.094680726528167725e-01
9.772430360317230225e-02
-1.077124383300542831e-02
-1.173427328467369080e-01
-1.014225557446479797e-01
8.331502228975296021e-02
1.060613691806793213e-01
-5.772778019309043884e-02
4.304733872413635254e-02
-5.876399576663970947e-02
2.772774919867515564e-02
1.032282784581184387e-01
-1.080486774444580078e-01
1.389141678810119629e-01
-1.225413754582405090e-01
-1.716922074556350708e-01
1.344339102506637573e-01
1.418068706989288330e-01
-4.031521826982498169e-02
-2.054404616355895996e-01
1.592066884040832520e-01
-2.241001836955547333e-02
1.276469081640243530e-01
-1.333562582731246948e-01
6.185381859540939331e-02
-3.122740611433982849e-02
4.005641117691993713e-02
1.656710058450698853e-01
-7.948035001754760742e-02
7.931705564260482788e-02
-1.865175738930702209e-02
1.562275737524032593e-01
1.379643082618713379e-01
-2.009228616952896118e-02
-9.098019450902938843e-02
-2.292467653751373291e-01
9.547384828329086304e-02
1.906343251466751099e-01
-6.442601978778839111e-02
8.649703115224838257e-02
-5.100530385971069336e-02
-2.892710454761981964e-02
8.730453997850418091e-02
1.435612738132476807e-01
-2.023850381374359131e-02
1.747048459947109222e-02
1.053568273782730103e-01
-1.970281153917312622e-01
-9.988433122634887695e-02
1.556638032197952271e-01
-1.550908833742141724e-01
5.726543441414833069e-02
-1.168140470981597900e-01
-7.775824517011642456e-02
-2.017553001642227173e-01
-1.779115647077560425e-01
1.569148711860179901e-02
1.030269861221313477e-01
5.638402700424194336e-02
8.445855230093002319e-02
1.071788072586059570e-01
1.335874795913696289e-01
1.405350565910339355e-01
-1.779447868466377258e-02
4.840620327740907669e-03
-1.007556170225143433e-01
1.846730411052703857e-01
-8.639712631702423096e-02
-5.085739865899085999e-02
8.849740028381347656e-02
-9.059283137321472168e-02
1.377329975366592407e-01
-6.506647914648056030e-02
-8.353704214096069336e-02
-1.884419322013854980e-01
-1.051965430378913879e-01
1.031284406781196594e-01
1.163470596075057983e-01
-9.361335076391696930e-03
1.115858629345893860e-01
8.221452683210372925e-02
8.079437166452407837e-02
3.913855180144309998e-02
5.394932627677917480e-02
-1.524260789155960083e-01
1.496333926916122437e-01
2.905564906541258097e-04
-3.237102180719375610e-02
-8.170063048601150513e-02
-4.837520793080329895e-02
-2.439707890152931213e-02
7.799523323774337769e-02
-1.539647579193115234e-01
-4.799909144639968872e-02
-1.795645989477634430e-02
6.189460679888725281e-02
-9.914197772741317749e-02
-8.514901995658874512e-02
-1.247562654316425323e-02
6.980636715888977051e-02
-1.291393651627004147e-03
-7.584813982248306274e-02
1.076145172119140625e-01
1.702510714530944824e-01
5.019578337669372559e-02
-1.127754058688879013e-02
1.084414422512054443e-01
-8.558976650238037109e-02
3.180162981152534485e-02
-9.444118291139602661e-02
-4.347538575530052185e-02
-1.047610640525817871e-01
1.154976338148117065e-01
7.138025015592575073e-02
-5.684786662459373474e-02
8.851274847984313965e-03
-4.852372035384178162e-02
-7.334885001182556152e-02
-1.389976739883422852e-01
-4.987239837646484375e-02
3.294151974841952324e-03
-1.474404800683259964e-02
5.868929903954267502e-03
-3.840021044015884399e-02
-5.361723527312278748e-02
-1.086864396929740906e-01
-5.967755243182182312e-02
-2.023519016802310944e-02
-1.273490786552429199e-01
4.478138685226440430e-02
2.364841289818286896e-02
-6.661178194917738438e-04
1.546228677034378052e-01
-1.415599584579467773e-01
4.060511663556098938e-02
-3.497005254030227661e-02
-3.048067726194858551e-02
2.941812947392463684e-02
-6.513701379299163818e-02
1.343317180871963501e-01
-1.873541250824928284e-02
-1.113779619336128235e-01
-4.161689057946205139e-02
4.656215012073516846e-02
6.841069459915161133e-02
-1.548082232475280762e-01
7.677192986011505127e-02
1.367722172290086746e-02
1.289872266352176666e-02
8.011400699615478516e-02
-9.466841816902160645e-02
2.101799473166465759e-02
-1.533746123313903809e-01
-1.314251273870468140e-01
-8.427135646343231201e-02
-3.783872583881020546e-03
7.824517786502838135e-02
-6.361788511276245117e-02
1.204636618494987488e-01
8.991073071956634521e-02
1.031399145722389221e-02
7.533394545316696167e-02
-4.060012288391590118e-03
1.360590159893035889e-01
1.521732807159423828e-01
-6.099990755319595337e-02
7.998857647180557251e-03
6.564034521579742432e-02
6.463315337896347046e-02
1.958315633237361908e-02
-9.345605224370956421e-02
4.867149516940116882e-02
7.897520065307617188e-02
4.433916881680488586e-02
-6.920272856950759888e-02
1.196102201938629150e-01
8.690498024225234985e-02
-6.176347285509109497e-02
1.156765222549438477e-01
1.846744418144226074e-01
2.136812172830104828e-02
-4.813284054398536682e-02
7.903466001152992249e-03
7.465552538633346558e-02
-9.559574723243713379e-02
1.864228099584579468e-01
1.108360439538955688e-01
2.356731100007891655e-03
-1.368306390941143036e-02
-8.213642239570617676e-02
-1.347464472055435181e-01
5.986788496375083923e-02
-1.230270490050315857e-01
-8.913722634315490723e-02
1.289750635623931885e-01
4.982565343379974365e-02
3.655234724283218384e-02
-3.393257409334182739e-02
-1.015089172869920731e-02
-5.469824001193046570e-02
-9.806399047374725342e-02
-4.697337746620178223e-02
3.705431520938873291e-02
-2.878918685019016266e-02
4.215407744050025940e-02
6.738200783729553223e-02
-4.396807029843330383e-02
-5.048278719186782837e-02
-7.562106847763061523e-02
1.339252442121505737e-01
1.102203652262687683e-01
-9.648092091083526611e-02
4.628982022404670715e-02
-1.603021658957004547e-02
3.246067464351654053e-02
1.950326189398765564e-02
-7.103074342012405396e-02
-7.910364121198654175e-02
9.867810457944869995e-02
1.144263669848442078e-01
-1.636579185724258423e-01
-1.581907123327255249e-01
-1.444329768419265747e-01
-4.688461776822805405e-03
-9.985961765050888062e-02
-1.030534654855728149e-01
5.581571254879236221e-03
1.140756439417600632e-02
-6.135439500212669373e-02
-7.301026582717895508e-02
1.589498519897460938e-01
-5.201940075494349003e-04
1.133551374077796936e-01
-1.995745673775672913e-02
-3.618851304054260254e-02
1.228865832090377808e-01
-2.546868659555912018e-02
1.261586397886276245e-01
1.701283454895019531e-01
1.024071350693702698e-01
1.604100912809371948e-01
-7.317829877138137817e-02
1.535774618387222290e-01
-6.423298269510269165e-03
3.351747617125511169e-02
1.037504598498344421e-01
4.710627719759941101e-02
6.846858561038970947e-02
-1.856393739581108093e-02
-4.373435303568840027e-02
7.657613605260848999e-02
6.546043604612350464e-02
-1.084572374820709229e-01
3.226226568222045898e-02
3.564584627747535706e-02
-9.164007008075714111e-02
3.437122702598571777e-01
-6.649471819400787354e-02
4.632965847849845886e-02
-2.186932414770126343e-02
3.787381201982498169e-02
1.825912445783615112e-01
6.636210530996322632e-02
1.469036787748336792e-01
-1.099366396665573120e-01
-1.896445080637931824e-02
-1.342389136552810669e-01
-1.153094768524169922e-01
-2.072685025632381439e-02
-1.927372962236404419e-01
8.132685720920562744e-02
3.615884110331535339e-02
7.310159970074892044e-03
6.179944425821304321e-02
1.460006833076477051e-01
1.106448844075202942e-02
3.648776933550834656e-02
1.344639062881469727e-01
-1.242615953087806702e-01
2.359746769070625305e-02
4.466886073350906372e-02
-1.525208801031112671e-01
-5.632254853844642639e-02
-6.539923697710037231e-02
1.165183912962675095e-02
1.324122846126556396e-01
5.336898844689130783e-03
-8.526639640331268311e-02
-2.223442494869232178e-02
-9.853551536798477173e-02
-3.987011313438415527e-02
1.501085758209228516e-01
2.336508594453334808e-02
-7.281354814767837524e-02
-5.035991594195365906e-02
-6.117333844304084778e-02
-2.904733084142208099e-02
1.179854199290275574e-02
1.745617538690567017e-01
-5.351887270808219910e-02
-1.958874799311161041e-02
-3.012832812964916229e-02
2.512220107018947601e-02
-4.982533305883407593e-02
-3.438164293766021729e-02
-1.225552335381507874e-01
-3.843465074896812439e-02
-7.714944332838058472e-02
-5.301128700375556946e-02
-4.980439320206642151e-03
1.222351938486099243e-01
-2.604698203504085541e-02
-9.976869821548461914e-02
4.019319638609886169e-02
8.908107131719589233e-02
-9.276555478572845459e-02
-8.215076476335525513e-02
-1.642776429653167725e-01
-1.090823262929916382e-01
2.193360924720764160e-01
-5.603581294417381287e-02
2.268562912940979004e-01
-2.095358259975910187e-02
1.449297275394201279e-02
-9.450040757656097412e-02
1.553728710860013962e-02
9.084267169237136841e-02
-9.008499793708324432e-03
4.946089163422584534e-02
1.476223170757293701e-01
-2.443639002740383148e-02
-1.780355721712112427e-01
9.802835434675216675e-02
-5.186765268445014954e-02
1.243953593075275421e-02
-8.075026422739028931e-02
1.618523597717285156e-01
-1.552717667073011398e-02
9.914956986904144287e-02
-9.496046602725982666e-02
-1.029424145817756653e-01
-1.110148150473833084e-02
6.931720674037933350e-02
-1.949615776538848877e-01
-1.560796238481998444e-02
9.098450094461441040e-02
8.235481567680835724e-03
-7.617792487144470215e-02
6.750543415546417236e-02
4.344838485121726990e-02
1.400489360094070435e-01
-4.299252852797508240e-02
1.685094833374023438e-02
-1.297961473464965820e-01
2.615093952044844627e-03
9.366701543331146240e-02
-1.078495010733604431e-01
5.023939162492752075e-02
-4.333281144499778748e-02
1.166228353977203369e-01
9.584815800189971924e-02
3.755482612177729607e-04
1.163893751800060272e-02
4.233741201460361481e-03
-5.538226291537284851e-02
1.612038724124431610e-02
4.032191354781389236e-03
-3.642303496599197388e-02
5.343642458319664001e-02
-2.932026982307434082e-02
-6.287140399217605591e-02
1.892415732145309448e-01
-1.881792768836021423e-02
-2.711057476699352264e-02
2.024894356727600098e-01
-4.700400680303573608e-02
6.116815377026796341e-03
-9.857562929391860962e-02
-4.724509268999099731e-02
5.865316838026046753e-02
1.313335001468658447e-01
1.179706975817680359e-01
-8.487812429666519165e-02
1.268741190433502197e-01
6.754348054528236389e-03
-1.330429874360561371e-02
-9.830883890390396118e-02
2.152436524629592896e-01
-4.670723900198936462e-02
2.006328701972961426e-01
-5.367853492498397827e-02
-8.160670846700668335e-02
4.319078847765922546e-02
1.277569234371185303e-01
-5.597454681992530823e-02
-8.477061986923217773e-02
6.544665992259979248e-02
-9.852720797061920166e-02
-3.532704338431358337e-02
6.440106779336929321e-02
1.028527989983558655e-01
4.464829340577125549e-02
1.740399561822414398e-02
1.217688620090484619e-01
4.401898384094238281e-02
1.796885579824447632e-01
4.773695766925811768e-02
-3.371594101190567017e-02
-3.542945161461830139e-02
-2.517203800380229950e-02
1.070999056100845337e-01
-6.539771705865859985e-02
-1.240347605198621750e-02
-7.516606897115707397e-02
1.111633852124214172e-01
-1.479384209960699081e-02
1.688076406717300415e-01
2.991801314055919647e-02
-6.477303802967071533e-02
7.088596001267433167e-03
-3.383909910917282104e-02
1.624027788639068604e-01
-1.075804084539413452e-01
-1.293632388114929199e-01
1.900744438171386719e-01
1.238034963607788086e-01
1.017847880721092224e-01
4.320208448916673660e-03
1.780907809734344482e-02
-8.093375712633132935e-02
1.197409555315971375e-01
2.415811456739902496e-02
-1.852520368993282318e-02
2.754543907940387726e-02
1.664530485868453979e-01
1.618818789720535278e-01
-1.048791036009788513e-02
7.876915484666824341e-02
2.285642363131046295e-02
2.029757946729660034e-02
1.472804248332977295e-01
9.469732642173767090e-02
-3.918934240937232971e-02
3.502266854047775269e-02
8.110819011926651001e-02
3.443957120180130005e-02
-6.719178706407546997e-02
-9.215097129344940186e-02
-3.179179131984710693e-02
1.180319786071777344e-01
-7.329516578465700150e-03
8.615884184837341309e-02
-5.348692461848258972e-02
-5.502515658736228943e-02
-5.165878683328628540e-02
-1.236267685890197754e-01
-4.148058220744132996e-02
-5.098878964781761169e-02
-3.369117155671119690e-02
-7.251577079296112061e-02
-1.920864544808864594e-02
-2.532558329403400421e-02
2.065989822149276733e-01
-1.522465795278549194e-01
-2.286494337022304535e-02
-1.314191967248916626e-01
3.107186220586299896e-02
6.597200036048889160e-02
1.227862760424613953e-01
-1.171034052968025208e-01
-1.010828837752342224e-01
9.474594891071319580e-02
1.803510487079620361e-01
4.008117690682411194e-02
4.512027651071548462e-02
-2.535351738333702087e-02
-1.475176066160202026e-01
7.299672812223434448e-02
1.341202557086944580e-01
-1.652050018310546875e-01
-3.553222492337226868e-02
-6.281431019306182861e-02
-1.550884265452623367e-02
1.585164964199066162e-01
6.963741779327392578e-02
-6.861488521099090576e-02
-3.332737833261489868e-02
-2.801083028316497803e-02
3.278545290231704712e-02
-8.319969475269317627e-02
-2.174018509685993195e-02
-5.807118490338325500e-02
-1.978695578873157501e-02
1.428962498903274536e-01
8.331360667943954468e-02
-3.509123250842094421e-02
7.672861963510513306e-02
-9.847534447908401489e-02
-7.412958890199661255e-02
-9.691181592643260956e-03
3.536862879991531372e-02
1.150933876633644104e-01
-3.113893233239650726e-02
-6.841877847909927368e-02
-6.222541630268096924e-02
9.088913351297378540e-02
1.518194228410720825e-01
-7.573418319225311279e-02
4.051122441887855530e-02
-5.773274227976799011e-02
-5.240102484822273254e-02
-5.632933601737022400e-02
1.092723011970520020e-02
-2.742577902972698212e-02
-2.823342382907867432e-02
-1.153196617960929871e-01
-3.653797879815101624e-02
1.651378422975540161e-01
1.165880411863327026e-01
-5.580062791705131531e-02
-5.906840786337852478e-02
-5.721196532249450684e-02
-9.722036868333816528e-02
-4.636203125119209290e-02
1.236013621091842651e-01
-6.367456912994384766e-02
-5.506681650876998901e-02
1.600692272186279297e-01
1.903537660837173462e-01
1.565228551626205444e-01
1.303053945302963257e-01
1.929944381117820740e-02
-2.421714179217815399e-02
-6.121776625514030457e-02
1.309256553649902344e-01
-3.323743119835853577e-02
1.752179265022277832e-01
-5.402924492955207825e-02
-6.571732461452484131e-02
1.388837695121765137e-01
-6.616129726171493530e-02
1.236367411911487579e-02
1.204599663615226746e-01
4.125765711069107056e-02
1.238772720098495483e-01
1.254449337720870972e-01
-1.736110895872116089e-01
3.040275163948535919e-02
-1.144592240452766418e-01
-4.730355925858020782e-03
-1.714295148849487305e-01
7.531478255987167358e-02
-3.484092652797698975e-02
-5.441741272807121277e-02
2.235448546707630157e-02
8.118443191051483154e-02
-1.358608454465866089e-01
4.747102782130241394e-02
-4.895125702023506165e-02
-1.045062169432640076e-01
-8.519332855939865112e-02
1.276554316282272339e-01
8.364325761795043945e-02
1.911602541804313660e-02
-1.501312386244535446e-02
-7.167278975248336792e-02
-2.681462280452251434e-02
-1.472212672233581543e-01
-6.399184465408325195e-02
4.601249843835830688e-02
1.526478976011276245e-01
-7.789353281259536743e-02
-1.581657826900482178e-01
-1.085041463375091553e-02
-1.188389435410499573e-01
-5.784308537840843201e-02
1.241824552416801453e-01
5.287423729896545410e-02
1.535250693559646606e-01
4.887870699167251587e-02
1.332055311650037766e-02
1.203608661890029907e-01
-4.505689814686775208e-02
2.745459228754043579e-02
-6.931129842996597290e-02
-3.520774841308593750e-02
-2.139928750693798065e-02
1.258617192506790161e-01
