-5.001647025346755981e-02
1.281739473342895508e-01
6.748518347740173340e-02
-9.997092932462692261e-02
1.368622109293937683e-02
1.056291833519935608e-01
-5.163993313908576965e-02
2.081749588251113892e-02
-5.963032320141792297e-02
3.236459568142890930e-02
4.424609988927841187e-02
6.898604333400726318e-02
-4.703822359442710876e-02
1.132820546627044678e-01
1.217703819274902344e-01
1.295892447233200073e-01
-3.019534796476364136e-02
1.385843101888895035e-02
-1.232593655586242676e-01
6.019731517881155014e-03
-1.519736740738153458e-02
1.778605952858924866e-02
1.029480695724487305e-01
-3.493681922554969788e-02
1.231986656785011292e-01
9.248762577772140503e-02
3.300102427601814270e-02
-1.119105145335197449e-01
-6.692768633365631104e-02
1.140800788998603821e-01
7.076368480920791626e-02
1.011500433087348938e-01
-1.456642150878906250e-01
1.732033677399158478e-02
-1.033048518002033234e-02
-3.100410103797912598e-02
8.330664783716201782e-02
-9.669492393732070923e-02
-5.597111210227012634e-02
-9.526685625314712524e-02
4.489304125308990479e-02
-1.423227041959762573e-01
-1.041344031691551208e-01
-2.368705347180366516e-02
-1.890515349805355072e-02
-2.514562383294105530e-02
-1.056068856269121170e-02
6.667071580886840820e-02
3.894833475351333618e-02
-2.904727868735790253e-02
-4.594130441546440125e-02
-4.418833181262016296e-02
7.537753880023956299e-02
-7.721123844385147095e-02
1.033716946840286255e-01
-6.041075289249420166e-02
-1.112205162644386292e-01
-9.364192187786102295e-02
-6.379355490207672119e-02
1.095538493245840073e-02
-5.919196456670761108e-02
1.083124056458473206e-01
-2.272045612335205078e-02
-5.100422352552413940e-02
7.106339931488037109e-02
5.733807384967803955e-02
4.911936447024345398e-02
-1.190874800086021423e-01
9.108391590416431427e-03
1.013795956969261169e-01
-7.658703625202178955e-02
-5.022595822811126709e-02
7.902196794748306274e-02
-1.177230477333068848e-01
-9.001952409744262695e-02
2.528559416532516479e-02
6.889566779136657715e-02
-5.984622985124588013e-02
-5.903053283691406250e-02
-1.359999738633632660e-02
4.208857566118240356e-02
7.037486881017684937e-02
6.340693682432174683e-02
1.011522337794303894e-01
-1.095178499817848206e-01
-6.722219288349151611e-02
-8.791580051183700562e-02
8.525124937295913696e-02
-7.111816108226776123e-02
-4.378973692655563354e-02
1.042672172188758850e-01
8.174248784780502319e-02
1.025078520178794861e-01
-1.536376960575580597e-02
-2.474390715360641479e-02
-3.499205410480499268e-02
-6.972305476665496826e-02
-8.452494442462921143e-02
-1.132714077830314636e-01
-2.795431204140186310e-02
-3.009640146046876907e-03
9.200268238782882690e-02
-1.463831029832363129e-02
-3.088171966373920441e-02
-1.942589879035949707e-01
-1.167348772287368774e-01
-3.570257872343063354e-02
9.539850987493991852e-03
2.149918861687183380e-02
-8.984822779893875122e-02
-9.380826354026794434e-02
5.883364751935005188e-02
-1.002526059746742249e-01
-1.558555010706186295e-02
1.238239482045173645e-01
-1.981355808675289154e-02
9.649484604597091675e-02
-3.924806788563728333e-02
1.061957236379384995e-02
-9.362826496362686157e-02
-1.292443126440048218e-01
-8.042828738689422607e-02
2.374862320721149445e-03
6.451448798179626465e-02
-6.851513683795928955e-02
-8.790826797485351562e-02
1.127992719411849976e-01
3.415852412581443787e-02
-4.943799972534179688e-02
-1.303869634866714478e-01
6.925186514854431152e-02
-1.122845858335494995e-01
-2.759443409740924835e-02
3.159805387258529663e-02
-1.022244542837142944e-01
-3.436558321118354797e-02
3.185812756419181824e-02
-4.379176720976829529e-02
-6.739030778408050537e-02
-1.273564994335174561e-02
6.033135950565338135e-02
6.748949643224477768e-03
-9.893397986888885498e-02
1.050537303090095520e-01
-9.907541424036026001e-02
5.839628353714942932e-02
-1.108180955052375793e-01
1.205811277031898499e-01
5.079033970832824707e-02
-2.300314232707023621e-02
1.484535932540893555e-01
-4.017646238207817078e-02
5.523571744561195374e-02
-7.999718934297561646e-02
-5.818840116262435913e-02
-1.005205698311328888e-02
8.495680242776870728e-02
-1.108837351202964783e-01
-4.300407320261001587e-02
-1.354033797979354858e-01
7.930371793918311596e-04
-4.336885362863540649e-02
1.854913868010044098e-02
1.475950144231319427e-02
8.277511596679687500e-02
-1.646256260573863983e-02
6.194349005818367004e-02
-9.868176281452178955e-02
1.004289686679840088e-01
4.875792562961578369e-02
-3.905053716152906418e-03
5.719269812107086182e-02
-1.130204722285270691e-01
-8.828440308570861816e-02
1.202750578522682190e-01
3.077768534421920776e-02
-1.106682196259498596e-01
-9.109611064195632935e-02
-8.826802670955657959e-02
-9.929412603378295898e-02
2.738402783870697021e-02
-1.825511083006858826e-02
-5.879969522356987000e-02
-5.441009625792503357e-02
-7.914491742849349976e-02
1.367223565466701984e-03
7.717844843864440918e-02
8.995010703802108765e-02
2.072566747665405273e-02
4.550519213080406189e-02
7.216276973485946655e-02
-5.482755228877067566e-02
3.768795356154441833e-02
-1.548195779323577881e-01
2.627298049628734589e-02
-8.805029094219207764e-02
-8.374982327222824097e-02
-2.623216062784194946e-02
-2.014556154608726501e-02
-1.280261874198913574e-01
9.398834407329559326e-02
5.640720482915639877e-03
1.044273674488067627e-01
-9.992954879999160767e-02
-4.184177890419960022e-02
1.153952255845069885e-01
4.353315755724906921e-02
6.866116821765899658e-02
3.372885659337043762e-02
4.100758582353591919e-02
1.148386374115943909e-01
1.026470065116882324e-01
-4.206659644842147827e-02
-9.207138419151306152e-02
7.842233031988143921e-02
2.954078838229179382e-02
-4.671036265790462494e-03
-1.961227692663669586e-02
-4.648709297180175781e-02
1.151295974850654602e-01
7.303032279014587402e-02
6.618424504995346069e-02
-1.060273721814155579e-01
9.560942649841308594e-02
-3.913661092519760132e-02
-7.090109586715698242e-02
-3.217484802007675171e-02
-1.275870203971862793e-01
3.404606133699417114e-02
-1.321838647127151489e-01
-4.957230761647224426e-02
4.984313622117042542e-02
-9.728989750146865845e-02
-3.017254918813705444e-02
3.676686435937881470e-02
-8.373729884624481201e-03
-1.463058888912200928e-01
3.755856538191437721e-03
-7.333428412675857544e-02
-7.674435526132583618e-02
-2.486344985663890839e-02
-1.082277894020080566e-01
-5.705699324607849121e-02
7.746729254722595215e-02
-9.314958751201629639e-02
2.303554117679595947e-02
-4.359461367130279541e-02
2.326031448319554329e-03
-9.519236534833908081e-02
-1.592287868261337280e-01
9.569707512855529785e-02
-1.138863414525985718e-01
-7.045192178338766098e-03
1.133515611290931702e-01
-7.849828153848648071e-02
-1.094728112220764160e-01
-6.283374130725860596e-02
6.347285956144332886e-02
-6.960824131965637207e-02
-1.104396656155586243e-01
1.013893727213144302e-02
-3.965232521295547485e-03
-9.245847165584564209e-02
-7.475817203521728516e-02
-2.953569218516349792e-02
3.100809641182422638e-02
-2.796145901083946228e-02
-1.460158973932266235e-01
6.861737370491027832e-02
9.712956845760345459e-02
-9.399136900901794434e-02
7.346318662166595459e-02
-5.186578258872032166e-02
-3.706650808453559875e-02
-3.603525459766387939e-02
-1.951618236489593983e-03
-5.047437734901905060e-03
-4.579306393861770630e-02
-7.946687936782836914e-02
9.296099841594696045e-02
-3.136676922440528870e-02
1.298110466450452805e-02
-4.059665370732545853e-03
5.034156516194343567e-02
5.603545159101486206e-02
4.777123779058456421e-02
2.998867630958557129e-02
1.345915049314498901e-01
-1.114165335893630981e-01
9.956624358892440796e-02
4.705635830760002136e-02
-1.696641091257333755e-03
1.004354581236839294e-01
-4.225716367363929749e-02
-2.583616599440574646e-02
1.369182914495468140e-01
-7.582131773233413696e-02
-8.655628561973571777e-02
-1.095091700553894043e-01
-1.018744930624961853e-01
-1.610761857591569424e-03
-4.528415738604962826e-04
-9.756278991699218750e-02
-6.326110661029815674e-02
6.278676539659500122e-02
-5.249141156673431396e-02
6.502454727888107300e-02
1.049590632319450378e-01
1.288105845451354980e-01
-4.831022769212722778e-02
-6.824010610580444336e-02
4.471209645271301270e-02
-1.202230378985404968e-01
-1.374483574181795120e-02
7.770591881126165390e-03
-5.289407819509506226e-02
-9.608828276395797729e-02
-9.833944588899612427e-02
-1.107082590460777283e-01
-5.941605567932128906e-02
-4.752701893448829651e-02
-1.190672591328620911e-01
-5.038636922836303711e-02
6.533282995223999023e-02
6.473307311534881592e-02
-5.606218799948692322e-02
2.830586396157741547e-03
2.237891778349876404e-02
-5.890076234936714172e-02
1.223077401518821716e-01
8.597324043512344360e-02
-1.848172023892402649e-02
-6.281728297472000122e-02
-2.776687778532505035e-02
1.017448678612709045e-01
1.079342961311340332e-01
1.057962998747825623e-01
9.204147756099700928e-02
-9.726539254188537598e-02
-3.125512599945068359e-02
-2.760571241378784180e-02
-1.155305653810501099e-01
1.311893314123153687e-01
-6.986927241086959839e-02
2.256411127746105194e-02
-3.924367949366569519e-03
-6.053064763545989990e-02
-4.153729975223541260e-02
1.976775750517845154e-02
4.934792965650558472e-02
-1.030470877885818481e-01
-2.529975958168506622e-02
4.499392956495285034e-02
9.887737035751342773e-02
1.523905061185359955e-02
4.900993034243583679e-02
9.595884382724761963e-02
1.007177606225013733e-01
-9.087691456079483032e-02
1.059918850660324097e-01
1.236911043524742126e-01
1.027347147464752197e-01
8.999029546976089478e-02
-4.157538712024688721e-02
-1.388146877288818359e-01
-4.863893147557973862e-03
-6.833731383085250854e-02
9.006700664758682251e-02
1.821407303214073181e-02
7.957658171653747559e-02
-2.606808394193649292e-02
-2.801442146301269531e-02
-6.182699650526046753e-02
1.118751764297485352e-01
9.663900732994079590e-02
9.637572616338729858e-02
1.041246801614761353e-01
1.001092866063117981e-01
9.719715267419815063e-02
-7.308926433324813843e-02
8.335928432643413544e-03
8.823947608470916748e-02
5.367187783122062683e-02
-1.134875714778900146e-01
5.227831751108169556e-02
-6.160065904259681702e-02
4.608057439327239990e-02
-1.213699299842119217e-02
9.625378996133804321e-02
-1.247140914201736450e-01
7.420895248651504517e-02
6.681980937719345093e-02
1.297780429013073444e-03
-5.269476212561130524e-03
9.631401300430297852e-02
-1.328158006072044373e-02
7.708411663770675659e-02
7.123161107301712036e-02
-5.205730558373034000e-04
-8.356275409460067749e-02
6.176739931106567383e-02
7.838805764913558960e-02
1.075408309698104858e-01
5.532322078943252563e-02
-4.558216407895088196e-02
-8.608821034431457520e-02
-1.196531131863594055e-01
6.678719073534011841e-02
-2.492524683475494385e-02
7.346834987401962280e-02
9.843731671571731567e-02
4.342611879110336304e-02
-1.110153123736381531e-01
-2.554046176373958588e-02
-1.451970636844635010e-01
-4.332137480378150940e-02
-4.465408623218536377e-02
-4.230502620339393616e-02
-2.854223921895027161e-02
8.659898489713668823e-02
-9.378454834222793579e-02
-8.718830347061157227e-02
2.131471410393714905e-02
7.522177696228027344e-02
-1.268450915813446045e-01
1.061653345823287964e-01
-2.891572192311286926e-02
-9.060531854629516602e-02
2.112341485917568207e-02
-5.410708487033843994e-02
1.084202621132135391e-02
-9.218801558017730713e-02
-3.380072489380836487e-02
8.378145098686218262e-02
1.158347278833389282e-01
1.599290966987609863e-02
2.262612618505954742e-02
3.095509856939315796e-02
-5.256251618266105652e-02
7.456883788108825684e-02
-1.255589574575424194e-01
9.406732022762298584e-02
-5.691576749086380005e-02
-1.287280917167663574e-01
1.790348999202251434e-02
5.289541557431221008e-02
-1.549530774354934692e-01
-7.816173136234283447e-02
5.061915889382362366e-02
3.914476931095123291e-02
1.276610535569489002e-03
-1.691494137048721313e-02
-1.347443461418151855e-02
-6.865079700946807861e-02
-7.146752625703811646e-02
5.353307351469993591e-02
8.980026841163635254e-02
-2.975249849259853363e-02
-8.256131410598754883e-02
9.083242714405059814e-02
-1.050858348608016968e-01
1.239806860685348511e-01
1.156651303172111511e-01
-9.315244853496551514e-02
5.886526778340339661e-02
7.466159015893936157e-02
-4.820961877703666687e-02
1.528866682201623917e-02
8.911443501710891724e-02
1.062684655189514160e-01
-1.056654751300811768e-01
1.031550858169794083e-02
-4.290651157498359680e-02
-1.557432021945714951e-02
5.445931479334831238e-02
4.202063009142875671e-02
-1.885233446955680847e-02
9.854907542467117310e-02
4.207296669483184814e-02
6.359583139419555664e-02
-2.752617560327053070e-02
-1.077826470136642456e-01
-5.580396577715873718e-02
8.069787174463272095e-02
1.116960495710372925e-02
1.667287200689315796e-02
8.232235908508300781e-02
6.522823870182037354e-02
-1.006077602505683899e-01
-5.176641047000885010e-02
7.054716348648071289e-03
6.397856026887893677e-02
-1.794292032718658447e-02
-6.861957907676696777e-02
-9.710671007633209229e-02
-9.309303015470504761e-02
-3.339704498648643494e-02
-5.487844347953796387e-02
-8.716857433319091797e-02
2.830259688198566437e-02
1.277050077915191650e-01
-5.758049339056015015e-02
-9.703973680734634399e-02
-8.304034359753131866e-03
-1.357021331787109375e-01
-5.422920361161231995e-02
2.295652031898498535e-02
7.273437827825546265e-02
-9.601693600416183472e-02
-1.079984009265899658e-01
2.945562638342380524e-02
5.685944110155105591e-02
5.878089740872383118e-02
-9.954385459423065186e-02
-7.302071899175643921e-02
-1.282883584499359131e-01
-1.228670179843902588e-01
2.679886296391487122e-02
1.238999068737030029e-01
6.998623907566070557e-02
-1.661356166005134583e-02
8.599379658699035645e-02
8.299622684717178345e-03
-1.137444376945495605e-02
2.459739148616790771e-02
3.986983560025691986e-03
-2.251014113426208496e-02
5.184105783700942993e-02
-9.660173207521438599e-02
-6.872649304568767548e-03
1.103317961096763611e-01
2.570674940943717957e-02
-9.352292120456695557e-02
1.250886023044586182e-01
-6.128969043493270874e-02
-1.143926680088043213e-01
9.377980232238769531e-02
-4.779917746782302856e-02
-2.459853328764438629e-02
-1.151425540447235107e-01
-9.997863322496414185e-03
-1.230882182717323303e-01
-9.397725015878677368e-02
-7.024040818214416504e-02
-1.671634912490844727e-01
-9.480202943086624146e-02
-4.588539898395538330e-02
2.767803706228733063e-02
-5.485630035400390625e-02
-7.891833037137985229e-02
-1.562669128179550171e-02
8.445022255182266235e-02
-3.434130921959877014e-02
1.016527041792869568e-01
1.008515432476997375e-01
7.598198950290679932e-02
-5.663170292973518372e-02
-4.313372075557708740e-02
-4.527572169899940491e-02
-4.331124946475028992e-02
8.394909650087356567e-02
3.029666468501091003e-02
6.732176989316940308e-02
9.410879760980606079e-02
-4.756171256303787231e-02
-5.340578779578208923e-02
2.526543568819761276e-03
5.659037735313177109e-03
4.658211022615432739e-03
-6.219581887125968933e-02
6.761664152145385742e-02
-1.137379109859466553e-01
-7.179640978574752808e-02
9.795865416526794434e-02
9.957157820463180542e-02
-3.954904968850314617e-05
-1.804147846996784210e-02
1.253448543138802052e-03
7.675887551158666611e-03
-6.883189827203750610e-02
7.321610301733016968e-02
-6.634010374546051025e-02
4.613956809043884277e-02
-1.066129058599472046e-01
4.432582482695579529e-02
1.023456305265426636e-01
3.056353190913796425e-03
-7.082150131464004517e-02
-3.669269755482673645e-02
-9.285867959260940552e-02
5.252495035529136658e-02
-5.925400927662849426e-02
4.712028428912162781e-02
-9.233368188142776489e-02
1.071165949106216431e-01
1.126768812537193298e-01
-1.293223351240158081e-01
3.972534090280532837e-02
6.902221590280532837e-02
-4.843607544898986816e-02
-8.487934619188308716e-02
6.760906428098678589e-02
3.172447532415390015e-02
6.717224419116973877e-02
-1.007469743490219116e-01
7.239595800638198853e-02
-8.971180766820907593e-02
1.045498773455619812e-01
9.694920480251312256e-02
1.341390796005725861e-02
2.675185538828372955e-02
3.912566695362329483e-03
-2.586335316300392151e-02
-7.722950726747512817e-02
-3.847722709178924561e-02
-5.104386806488037109e-02
1.145434658974409103e-02
1.237383577972650528e-02
-7.278704643249511719e-02
-6.674414873123168945e-02
9.596517682075500488e-02
1.216540485620498657e-01
8.752838522195816040e-02
-1.100342068821191788e-02
-5.681084468960762024e-03
-4.391523823142051697e-02
2.706552296876907349e-02
-1.388456821441650391e-01
4.575906321406364441e-02
-1.260562539100646973e-01
3.069044835865497589e-02
3.289641812443733215e-02
1.102468818426132202e-01
-3.961835056543350220e-02
-7.237251102924346924e-02
-1.196663305163383484e-01
2.022774145007133484e-02
-1.516167819499969482e-02
-3.179750591516494751e-02
-4.209669306874275208e-02
-2.051386423408985138e-02
-9.804830700159072876e-02
-3.388826921582221985e-02
-5.134781450033187866e-02
-1.049920544028282166e-01
-1.015463620424270630e-01
-6.335638463497161865e-02
-6.382136046886444092e-02
3.114360384643077850e-02
-1.967443712055683136e-02
-4.832061380147933960e-02
4.798322170972824097e-02
1.110501885414123535e-01
-2.816294133663177490e-02
9.946053475141525269e-02
1.026999391615390778e-02
-6.365738064050674438e-02
-1.864247769117355347e-02
-2.506304532289505005e-03
-6.943940371274948120e-02
-2.308209426701068878e-02
-1.692567914724349976e-01
7.479531317949295044e-02
-5.386617034673690796e-02
1.671032309532165527e-01
-1.039362177252769470e-01
-7.396211475133895874e-02
1.384195499122142792e-02
-8.504176884889602661e-02
-5.326315760612487793e-02
-1.025632172822952271e-01
-7.247466593980789185e-02
9.471431374549865723e-02
8.805052191019058228e-02
1.233659386634826660e-01
4.510771483182907104e-02
-7.342122495174407959e-02
1.003995388746261597e-01
5.347424000501632690e-02
1.382424384355545044e-01
7.596363313496112823e-03
-3.761784359812736511e-02
2.558710984885692596e-02
9.799107164144515991e-02
-9.911056607961654663e-02
-1.043584719300270081e-01
-7.584952563047409058e-02
3.449333086609840393e-02
2.963708713650703430e-02
8.204837888479232788e-02
-1.177247315645217896e-01
8.906058967113494873e-02
-2.620940655469894409e-02
8.358164876699447632e-02
-6.516378372907638550e-02
-4.658349230885505676e-02
1.016848608851432800e-01
-1.512886881828308105e-01
4.386169090867042542e-02
4.088291898369789124e-02
-5.694285407662391663e-02
1.548358984291553497e-02
2.653843164443969727e-02
3.746307268738746643e-02
2.768462151288986206e-02
-1.070594489574432373e-01
-9.151947498321533203e-02
2.204536460340023041e-02
1.041714325547218323e-01
2.269238419830799103e-02
3.833245858550071716e-02
-4.838795214891433716e-02
-9.095400571823120117e-02
-1.047382056713104248e-01
-5.487804766744375229e-03
-1.155274733901023865e-02
-9.970405697822570801e-02
-1.390552073717117310e-01
9.834023565053939819e-02
-5.594529584050178528e-02
-5.690702795982360840e-02
5.903293495066463947e-04
7.206392288208007812e-02
-8.674873411655426025e-02
-1.269875019788742065e-01
6.644883006811141968e-02
2.993974462151527405e-02
-2.096483483910560608e-02
-1.180300042033195496e-01
1.134897321462631226e-01
-1.176303625106811523e-01
7.117657363414764404e-02
-3.113862499594688416e-02
-6.801789999008178711e-02
7.867714017629623413e-02
1.389935761690139771e-01
4.125174507498741150e-02
1.084055900573730469e-01
-5.638936068862676620e-03
1.035071760416030884e-01
1.117741689085960388e-02
6.820593029260635376e-02
-3.149268776178359985e-02
1.474284683354198933e-03
1.182380765676498413e-01
-7.893376052379608154e-02
7.782910764217376709e-02
-3.753386810421943665e-02
1.371167302131652832e-01
-1.008812114596366882e-01
7.874622941017150879e-02
3.743876237422227859e-03
8.100495487451553345e-02
1.165670305490493774e-01
3.723123669624328613e-02
8.833519369363784790e-02
2.586237341165542603e-02
-1.244726311415433884e-02
-7.731892168521881104e-02
-4.525757953524589539e-02
8.758365362882614136e-02
-2.544307522475719452e-02
8.245477080345153809e-02
1.863128691911697388e-02
-1.432623863220214844e-01
-6.066791340708732605e-02
-3.941008821129798889e-02
-1.349047869443893433e-01
-4.394774883985519409e-02
-6.479695439338684082e-02
5.435460805892944336e-02
-1.881714211776852608e-03
-7.578498870134353638e-02
-8.760581910610198975e-02
7.392808794975280762e-02
2.347516641020774841e-02
4.609359428286552429e-03
3.925921395421028137e-02
3.714408725500106812e-02
1.176903024315834045e-01
-1.012397706508636475e-01
-1.004347503185272217e-01
-3.438543155789375305e-02
-5.765200778841972351e-02
-7.661932706832885742e-02
-8.270773291587829590e-02
-9.163451194763183594e-02
-1.048169285058975220e-01
1.039533540606498718e-01
-7.048405706882476807e-02
-6.508600711822509766e-02
1.823699101805686951e-02
4.534817487001419067e-02
-1.347929686307907104e-01
-1.213318035006523132e-01
7.288108021020889282e-02
-9.634372591972351074e-02
-7.193683087825775146e-02
-7.317215949296951294e-02
6.227681785821914673e-02
-6.481149792671203613e-02
4.026645421981811523e-02
-1.239752545952796936e-01
8.038075268268585205e-02
-1.019072309136390686e-01
-4.548339545726776123e-02
-2.710348740220069885e-02
6.682480126619338989e-02
2.403731923550367355e-03
7.070773839950561523e-02
-1.224774271249771118e-01
2.922332100570201874e-02
-1.336681842803955078e-01
7.697608321905136108e-02
-4.112272709608078003e-02
-1.397718768566846848e-02
2.372552827000617981e-02
3.303994983434677124e-02
1.962816901504993439e-02
-3.829944878816604614e-02
-1.163940206170082092e-01
-1.363883018493652344e-01
1.743474788963794708e-02
-7.349935919046401978e-02
-1.530064083635807037e-02
1.800671964883804321e-02
5.197720974683761597e-02
-8.954081684350967407e-02
-4.114635288715362549e-02
-7.596309762448072433e-03
-1.357294321060180664e-01
8.809866756200790405e-02
8.310563117265701294e-02
2.893892861902713776e-02
-8.451891690492630005e-02
-4.588261991739273071e-02
-1.434938143938779831e-02
-1.675134301185607910e-01
-1.010473072528839111e-01
7.966862618923187256e-02
1.373536512255668640e-02
3.980241343379020691e-02
7.276477664709091187e-02
6.372018158435821533e-02
-5.938450619578361511e-02
7.017029821872711182e-02
6.774670630693435669e-02
-2.496912889182567596e-02
2.373913489282131195e-02
1.302901655435562134e-01
7.399763166904449463e-02
-1.117379739880561829e-01
-7.606907188892364502e-02
-8.829055726528167725e-02
-3.441751934587955475e-03
-9.511024504899978638e-02
1.035734917968511581e-02
-1.262251287698745728e-01
-1.214628443121910095e-01
1.154075190424919128e-02
-5.238345265388488770e-02
5.921200290322303772e-02
-1.202718764543533325e-01
-1.219023019075393677e-01
-2.838468365371227264e-02
-9.996757656335830688e-02
5.434119142591953278e-03
1.748158410191535950e-02
-9.270910918712615967e-02
-1.743078827857971191e-01
8.299594372510910034e-02
-5.046893656253814697e-02
4.928177595138549805e-02
2.239249646663665771e-02
1.242541968822479248e-01
1.320611983537673950e-01
-1.378371007740497589e-02
-1.405153572559356689e-01
-5.258053913712501526e-02
6.820235401391983032e-02
-4.667820036411285400e-02
-9.729767590761184692e-02
-3.151243180036544800e-02
3.090876899659633636e-02
-1.341646909713745117e-01
1.541865617036819458e-02
3.887065872550010681e-02
6.771955639123916626e-02
-4.062642529606819153e-02
1.190582364797592163e-01
3.703594207763671875e-02
-6.538480985909700394e-03
9.961774200201034546e-02
-1.503977626562118530e-01
-1.814134069718420506e-03
1.645391434431076050e-02
1.259413510560989380e-01
6.125606596469879150e-03
-4.767060652375221252e-02
1.328632384538650513e-01
2.655510790646076202e-02
-4.666186124086380005e-02
-9.795791655778884888e-02
8.126949518918991089e-02
-1.147543638944625854e-01
-9.879770129919052124e-02
9.113179147243499756e-02
3.806512430310249329e-02
6.936472374945878983e-03
-7.691089808940887451e-02
5.208302289247512817e-02
-1.042888499796390533e-02
-4.121739417314529419e-02
-2.944874949753284454e-02
-1.215220056474208832e-02
2.734790556132793427e-02
5.586388334631919861e-02
-2.678541652858257294e-02
2.572415582835674286e-02
-1.246605813503265381e-01
-7.106716930866241455e-02
-3.570023225620388985e-03
-3.962055966258049011e-02
-1.058952286839485168e-01
-9.927657246589660645e-02
-9.224244207143783569e-02
1.256330907344818115e-01
8.546313270926475525e-03
1.994802989065647125e-02
-1.012738943099975586e-01
1.082203984260559082e-01
-1.055460199713706970e-01
-4.193445667624473572e-02
-1.965594105422496796e-02
-1.177872344851493835e-01
-6.174360588192939758e-02
-1.029892638325691223e-01
-3.920561820268630981e-02
1.012770384550094604e-01
-6.548152863979339600e-02
-3.621061146259307861e-02
5.638968572020530701e-02
-7.613719999790191650e-02
-3.827776387333869934e-02
5.347546655684709549e-03
-1.118079349398612976e-01
-3.616195917129516602e-02
-2.943849749863147736e-02
-6.529149413108825684e-02
4.060511291027069092e-02
3.636118769645690918e-02
4.827907308936119080e-03
-3.310497105121612549e-02
9.851039946079254150e-02
-2.851020358502864838e-02
-1.287820637226104736e-01
1.031759232282638550e-01
-1.090108379721641541e-01
-3.200538456439971924e-02
-1.295706927776336670e-01
-6.550643593072891235e-02
3.673751279711723328e-02
-1.321410685777664185e-01
-5.008571594953536987e-02
-6.139444652944803238e-03
1.481174379587173462e-01
1.152352690696716309e-01
-6.974545121192932129e-02
9.107477962970733643e-02
-5.193778872489929199e-02
7.800585776567459106e-02
-3.705584630370140076e-02
-1.203246712684631348e-01
-2.350311726331710815e-03
-3.479976207017898560e-02
4.798029735684394836e-02
7.992601394653320312e-02
5.327875539660453796e-02
1.024980396032333374e-01
6.936483830213546753e-02
5.572830513119697571e-02
-4.550076276063919067e-02
3.291692584753036499e-02
-4.374486207962036133e-02
1.420913450419902802e-02
3.687686100602149963e-02
-9.860463440418243408e-02
-1.858512312173843384e-02
-5.894080176949501038e-02
-1.897622831165790558e-02
-1.443618535995483398e-01
3.159478306770324707e-02
-3.813308849930763245e-02
-4.947654530405998230e-02
-8.906007558107376099e-02
6.867697089910507202e-02
-6.511963903903961182e-02
5.616432428359985352e-02
-1.471232343465089798e-02
8.339265733957290649e-02
1.457682996988296509e-01
-9.348601102828979492e-02
-4.134784266352653503e-02
1.541831530630588531e-02
-4.374747723340988159e-02
1.353696361184120178e-02
-1.210111156105995178e-01
-3.284733369946479797e-02
-5.818992480635643005e-02
2.667787112295627594e-02
-6.729160249233245850e-02
-2.662672847509384155e-02
1.245804429054260254e-01
3.691970137879252434e-03
4.437256138771772385e-03
8.480651676654815674e-02
-8.209052681922912598e-02
-1.229558233171701431e-02
-4.336854815483093262e-02
9.354092180728912354e-02
-7.261232286691665649e-02
-1.000087410211563110e-01
-6.720637530088424683e-02
4.933782666921615601e-02
2.623399719595909119e-02
-9.674067795276641846e-02
3.156055510044097900e-02
-9.953837841749191284e-02
6.555953621864318848e-02
-2.577298693358898163e-02
-9.172021597623825073e-02
3.137722611427307129e-02
1.052407473325729370e-01
1.108433678746223450e-01
9.394098073244094849e-02
-1.994706876575946808e-02
4.997002333402633667e-02
5.753955245018005371e-02
-8.164144307374954224e-02
-4.458121955394744873e-02
-9.130493551492691040e-02
-9.485607594251632690e-02
5.613205209374427795e-02
3.350984072312712669e-03
3.793140500783920288e-02
3.030782751739025116e-02
8.310238271951675415e-02
-3.265814483165740967e-02
9.754287451505661011e-02
-2.809300273656845093e-02
-3.599481284618377686e-02
-7.333821803331375122e-02
-4.466607794165611267e-02
7.839263230562210083e-02
-1.250739097595214844e-01
7.092222571372985840e-02
-9.234533458948135376e-02
-5.976483225822448730e-02
5.649284273386001587e-02
1.667809300124645233e-02
5.367780849337577820e-02
-1.358999777585268021e-02
5.522828921675682068e-02
-8.331874758005142212e-02
4.472365975379943848e-02
1.570402830839157104e-02
3.903446020558476448e-03
1.023144810460507870e-03
-1.208004802465438843e-01
-1.019118726253509521e-01
-4.227411374449729919e-02
1.291556283831596375e-02
-2.458344399929046631e-02
9.536502510309219360e-02
1.085496544837951660e-01
-1.241285055875778198e-01
1.086392030119895935e-01
-8.414348959922790527e-02
5.695720389485359192e-02
1.209746208041906357e-02
-3.615099936723709106e-02
3.324764221906661987e-02
8.749602735042572021e-02
-4.595526959747076035e-03
-1.159117519855499268e-01
-3.944091871380805969e-02
-1.043521016836166382e-01
-1.355537772178649902e-01
-1.031400635838508606e-01
-8.660892397165298462e-02
-1.823702943511307240e-03
1.221948023885488510e-02
-1.292853206396102905e-01
1.169999539852142334e-01
-2.776159904897212982e-02
3.207653062418103218e-04
-9.295123815536499023e-02
-7.703001797199249268e-02
-1.229327470064163208e-01
-9.327728301286697388e-02
-5.540047958493232727e-02
-4.188628122210502625e-02
1.136580016463994980e-02
-8.387836813926696777e-02
-1.266000270843505859e-01
7.426366955041885376e-02
-5.413198098540306091e-02
-7.894089818000793457e-02
2.781149931252002716e-02
-1.491577085107564926e-02
4.089314863085746765e-02
9.631655365228652954e-02
1.153241097927093506e-02
-3.648132458329200745e-02
-5.580344796180725098e-02
4.213894158601760864e-02
-2.843369171023368835e-02
-7.494134455919265747e-02
-1.448300480842590332e-01
5.656326189637184143e-02
-1.070791035890579224e-01
-1.340369433164596558e-01
-1.899566501379013062e-02
-7.248182315379381180e-03
4.319070279598236084e-02
5.027045309543609619e-02
-4.307223018258810043e-03
3.575792536139488220e-02
-3.295075148344039917e-02
4.703703150153160095e-02
-1.706732320599257946e-03
-1.235841512680053711e-01
-4.163854569196701050e-02
-6.107560545206069946e-02
-7.503080368041992188e-02
-1.106013730168342590e-01
4.804109409451484680e-02
-4.930527135729789734e-02
-6.048430129885673523e-02
-6.369038671255111694e-02
-1.415006965398788452e-01
-7.767858356237411499e-02
8.317814208567142487e-03
1.073807552456855774e-01
8.594956994056701660e-02
-9.033766388893127441e-02
-2.005768381059169769e-02
-4.447324573993682861e-02
5.500499531626701355e-02
-1.572423428297042847e-02
-6.916366517543792725e-03
-4.725613817572593689e-02
1.109786797314882278e-02
-3.015487641096115112e-02
-6.248276308178901672e-02
7.001673430204391479e-02
-8.258549124002456665e-02
1.315279453992843628e-01
6.172240525484085083e-02
9.095985442399978638e-02
-5.658761784434318542e-02
7.594411820173263550e-02
-9.974674880504608154e-02
-8.198659867048263550e-02
4.854512587189674377e-02
1.646223515272140503e-01
8.023209869861602783e-02
5.169649422168731689e-02
-7.039463520050048828e-02
-9.649325907230377197e-02
3.638172149658203125e-02
1.206746101379394531e-01
-7.714087143540382385e-03
1.471876502037048340e-01
4.169653728604316711e-02
-6.160551309585571289e-02
-4.585570842027664185e-02
3.060891479253768921e-02
-2.590550109744071960e-03
-8.807865087874233723e-04
-6.075399369001388550e-02
2.222369797527790070e-02
-3.957413136959075928e-02
-1.595682054758071899e-01
5.762703344225883484e-02
-1.169197335839271545e-01
-2.216896973550319672e-02
-3.309169784188270569e-02
1.074896827340126038e-01
1.396274287253618240e-02
-9.862841665744781494e-02
8.128737658262252808e-02
2.219340018928050995e-02
-8.013875782489776611e-02
4.934232681989669800e-02
-1.165202260017395020e-01
-1.138674318790435791e-01
1.101003810763359070e-01
6.989376153796911240e-03
-9.558421373367309570e-02
-3.899145498871803284e-02
-8.164522051811218262e-02
-9.665324538946151733e-02
-2.158243022859096527e-02
-2.782881073653697968e-02
-2.955131605267524719e-02
-1.169809922575950623e-01
3.951721265912055969e-02
-7.031465321779251099e-02
1.772152483463287354e-01
-1.283618509769439697e-01
-1.190700684674084187e-03
-1.618998497724533081e-02
-2.211209386587142944e-02
4.784693568944931030e-02
-5.315190926194190979e-02
-3.326110914349555969e-02
-7.914700359106063843e-02
-4.241632297635078430e-02
1.108878199011087418e-02
-4.461830854415893555e-02
1.485347002744674683e-01
-3.323252126574516296e-02
3.901412710547447205e-02
1.316388603299856186e-02
-3.338646888732910156e-02
-4.337117448449134827e-02
-3.916128352284431458e-02
2.905796840786933899e-02
-1.016783416271209717e-01
-2.210630290210247040e-02
-1.810024492442607880e-02
6.390698999166488647e-02
-1.048773452639579773e-01
1.020932346582412720e-01
-1.215017363429069519e-01
7.027600705623626709e-02
-1.548739988356828690e-02
4.635279625654220581e-02
5.038280412554740906e-02
-8.838114142417907715e-02
8.849439769983291626e-02
1.820665411651134491e-02
7.463224697858095169e-03
-3.487969562411308289e-02
4.237924702465534210e-03
1.022330373525619507e-01
8.303582668304443359e-02
5.648687854409217834e-02
5.916238948702812195e-02
-4.974053800106048584e-02
-9.806674718856811523e-02
-4.273271188139915466e-02
-4.188389703631401062e-02
-3.531942144036293030e-02
5.271835997700691223e-02
-6.694362312555313110e-02
-2.276053093373775482e-02
1.329457852989435196e-02
-3.978710994124412537e-02
-1.029460728168487549e-01
-8.120095729827880859e-02
-5.161933600902557373e-02
-5.004935339093208313e-02
-3.365821763873100281e-02
-1.507287751883268356e-02
-1.314928662031888962e-02
8.702702820301055908e-02
8.232796937227249146e-02
-8.466759324073791504e-02
6.682397425174713135e-02
9.313328564167022705e-02
-6.190431118011474609e-02
1.260887533426284790e-01
-1.396282762289047241e-01
-8.727058023214340210e-02
9.689188003540039062e-02
9.359906613826751709e-02
-1.292562931776046753e-01
-6.099039688706398010e-02
3.194360807538032532e-02
-7.615367323160171509e-02
1.892975531518459320e-02
7.685314863920211792e-02
-1.430052667856216431e-01
-1.023756805807352066e-02
1.424115989357233047e-02
2.536435611546039581e-02
4.183926433324813843e-02
-1.019653454422950745e-01
1.143301948904991150e-01
-2.880900725722312927e-02
-1.636302471160888672e-02
1.301080286502838135e-01
8.500429987907409668e-02
2.579724788665771484e-02
-1.502480264753103256e-02
9.694831818342208862e-02
8.312726765871047974e-02
8.579735457897186279e-02
5.837249383330345154e-02
-9.775312244892120361e-02
9.609353542327880859e-02
-8.778493106365203857e-02
-5.128839612007141113e-02
5.318568088114261627e-03
-3.414254263043403625e-02
-1.361538469791412354e-01
5.452028289437294006e-02
5.313026532530784607e-02
1.698194071650505066e-02
2.737947367131710052e-02
-1.703973673284053802e-02
1.113322004675865173e-01
-9.583776444196701050e-02
6.099655106663703918e-02
6.171337887644767761e-02
-5.853254813700914383e-03
1.028632298111915588e-01
-6.981863081455230713e-02
-6.693033874034881592e-02
6.437458097934722900e-02
-2.715786918997764587e-02
1.099197939038276672e-01
9.392134845256805420e-02
-1.494926959276199341e-01
-7.530041038990020752e-02
-5.272087454795837402e-02
-1.273579895496368408e-01
-8.532521128654479980e-02
-1.398279964923858643e-01
1.197943240404129028e-01
9.734554588794708252e-02
-3.777655214071273804e-02
1.853764615952968597e-02
-3.950846940279006958e-02
-5.031605809926986694e-02
7.015089690685272217e-02
8.994068950414657593e-02
-2.123078703880310059e-02
5.151892825961112976e-02
1.242405152879655361e-03
3.484312072396278381e-02
-8.201766014099121094e-02
7.496596127748489380e-02
7.693234831094741821e-02
-6.987299025058746338e-02
-4.653989151120185852e-02
-4.446509853005409241e-02
7.039684802293777466e-02
-1.191987693309783936e-01
-1.141388416290283203e-01
1.027361862361431122e-02
3.528241440653800964e-02
-9.435618668794631958e-02
-1.157509759068489075e-01
-1.290412843227386475e-01
5.095215141773223877e-02
-7.978635281324386597e-02
-1.206501200795173645e-01
-9.571939706802368164e-02
1.075955107808113098e-01
-1.029906198382377625e-01
1.212022006511688232e-01
-8.013925701379776001e-02
1.327784806489944458e-01
-1.835775189101696014e-02
1.099081039428710938e-01
-6.152987107634544373e-02
-1.236929930746555328e-02
-4.205897822976112366e-02
6.652319431304931641e-02
-1.126314252614974976e-01
-1.283219903707504272e-01
-1.188710555434226990e-01
5.730226985178887844e-05
-1.101303324103355408e-01
-8.499979972839355469e-02
2.532445825636386871e-02
-9.415888786315917969e-02
-4.920461028814315796e-02
1.140177547931671143e-01
-7.720253430306911469e-03
4.000478610396385193e-02
-7.784418016672134399e-02
8.656801283359527588e-02
-6.357871741056442261e-02
-5.380044691264629364e-03
7.994683831930160522e-02
9.573899954557418823e-02
8.696663379669189453e-02
1.464280299842357635e-02
-4.160161688923835754e-02
-1.363227665424346924e-01
-6.552680581808090210e-02
-1.106500774621963501e-01
9.402142465114593506e-02
1.650588773190975189e-02
9.091325104236602783e-02
2.751722931861877441e-02
-8.087241649627685547e-02
5.325616523623466492e-02
3.454639762639999390e-02
4.141131881624460220e-03
-3.923819214105606079e-02
-3.241281956434249878e-02
-8.281981945037841797e-02
-4.736378788948059082e-02
8.437712676823139191e-03
6.153137981891632080e-02
-9.350928664207458496e-02
-8.077624440193176270e-02
-1.080755740404129028e-01
-4.444056749343872070e-02
6.828277558088302612e-02
2.540945075452327728e-02
6.120983138680458069e-02
-1.334771066904067993e-01
1.338184718042612076e-02
1.872306503355503082e-02
-1.117086261510848999e-01
-2.610680460929870605e-02
-2.359538339078426361e-02
1.119790002703666687e-01
5.870772525668144226e-02
7.876341044902801514e-02
9.507251903414726257e-03
-2.470180578529834747e-02
-1.353157162666320801e-01
-5.662068724632263184e-02
-4.357381910085678101e-02
-1.054663136601448059e-01
-5.704456940293312073e-02
9.858237951993942261e-02
-1.164325028657913208e-01
1.063470393419265747e-01
4.523962363600730896e-02
7.486983388662338257e-02
-1.079581603407859802e-01
-1.170877963304519653e-01
-1.216850131750106812e-01
5.699571594595909119e-02
-3.209551423788070679e-02
5.238744243979454041e-02
-1.230386421084403992e-01
-8.815474808216094971e-03
-1.922778785228729248e-02
-6.528639048337936401e-02
-1.044913530349731445e-01
-1.163873896002769470e-01
1.079490929841995239e-01
9.616070240736007690e-02
-4.077149182558059692e-02
-1.059007942676544189e-01
-2.755982102826237679e-03
-8.907891809940338135e-02
-6.192968413233757019e-02
-4.310495033860206604e-02
-9.519500285387039185e-02
-3.199598193168640137e-02
8.358335494995117188e-02
3.205947205424308777e-02
-1.116879433393478394e-01
-9.330933541059494019e-02
3.269091248512268066e-02
3.824171051383018494e-02
-1.083524525165557861e-01
-1.404683716828003526e-04
1.005817279219627380e-01
-1.135500892996788025e-01
-2.196510694921016693e-02
-9.097044169902801514e-02
-7.925750315189361572e-02
4.588675126433372498e-02
-2.223321050405502319e-02
-2.956444956362247467e-02
2.492328640073537827e-03
6.999692320823669434e-02
-1.700081489980220795e-02
-2.263534348458051682e-03
7.511017471551895142e-02
6.815905123949050903e-02
-4.486209899187088013e-02
1.753605157136917114e-02
-8.034209161996841431e-02
3.313614055514335632e-02
-6.341747194528579712e-02
-8.780637383460998535e-02
-2.569846063852310181e-02
-4.564392566680908203e-02
-1.046598888933658600e-02
2.131617441773414612e-02
2.730600163340568542e-02
-1.018718257546424866e-01
-7.799785584211349487e-02
8.911517262458801270e-02
-2.678679302334785461e-02
-3.087966516613960266e-02
-7.218784838914871216e-02
2.449041977524757385e-02
-4.342022538185119629e-02
-5.706872045993804932e-02
1.436129510402679443e-01
-1.068675443530082703e-01
1.244737133383750916e-01
-8.742937445640563965e-02
-2.865041978657245636e-02
9.854404628276824951e-02
9.442799538373947144e-02
-4.904260113835334778e-02
6.075994297862052917e-02
1.033921986818313599e-01
8.827258646488189697e-02
3.201998770236968994e-02
4.151657968759536743e-02
-1.297392994165420532e-01
1.324735879898071289e-01
-8.801292628049850464e-02
1.288090795278549194e-01
-2.072750218212604523e-02
-6.606196612119674683e-02
9.413927048444747925e-02
-4.642928950488567352e-03
4.719973355531692505e-02
-4.606707487255334854e-03
-5.681178346276283264e-02
5.981510505080223083e-02
-1.206781622022390366e-02
-9.268714487552642822e-02
1.820596680045127869e-02
5.587106943130493164e-02
1.047434583306312561e-01
1.109542548656463623e-01
1.214074157178401947e-02
1.153150573372840881e-01
9.058444201946258545e-02
6.210873648524284363e-02
-2.909001335501670837e-02
6.779064238071441650e-02
3.139967471361160278e-02
-1.053611934185028076e-01
-1.277233958244323730e-01
-9.073069691658020020e-02
-1.188378557562828064e-01
-2.901559136807918549e-02
-1.157856453210115433e-02
6.709549576044082642e-02
-2.358243241906166077e-02
6.670203059911727905e-02
-5.867566913366317749e-02
-1.341471652267500758e-04
-3.185870498418807983e-02
2.303913794457912445e-02
4.190672934055328369e-02
5.838914588093757629e-02
2.790136449038982391e-02
-4.483506828546524048e-02
-1.476244479417800903e-01
1.130610182881355286e-01
7.262203842401504517e-02
1.285544186830520630e-01
2.652093581855297089e-02
-1.019942238926887512e-01
3.672223165631294250e-02
6.675191223621368408e-02
7.046587020158767700e-02
-1.554606705904006958e-01
-7.711733877658843994e-02
1.661727903410792351e-03
-4.665710404515266418e-02
-1.179331615567207336e-01
3.996039554476737976e-02
-1.167071610689163208e-01
1.796950027346611023e-02
-5.164156109094619751e-02
1.462300959974527359e-02
-1.419510319828987122e-02
-5.402287840843200684e-02
1.103499829769134521e-01
7.112140208482742310e-02
1.453139632940292358e-02
-7.985926419496536255e-02
-1.033516153693199158e-01
-2.295186184346675873e-02
-2.157903835177421570e-02
-5.420481413602828979e-02
-4.000134766101837158e-02
-7.953398674726486206e-02
-5.443720612674951553e-03
4.021256789565086365e-02
-1.856745965778827667e-02
-1.330817937850952148e-01
-8.204646292142570019e-04
-9.905383922159671783e-03
-2.510747872292995453e-02
-8.839149773120880127e-02
-1.169936805963516235e-01
-1.192980483174324036e-01
-8.940925449132919312e-02
-2.003661915659904480e-02
8.008833974599838257e-03
2.285898081026971340e-04
-4.914836585521697998e-02
-1.152018010616302490e-01
9.273970127105712891e-02
-8.810941874980926514e-02
4.652931913733482361e-02
-3.706040605902671814e-02
4.191699251532554626e-02
-2.857460081577301025e-02
-6.657160818576812744e-02
-9.399681538343429565e-02
1.366776414215564728e-02
5.542485974729061127e-03
3.507310152053833008e-02
-5.240103229880332947e-02
-3.406535834074020386e-02
-9.739664196968078613e-02
1.351404339075088501e-01
4.616961255669593811e-02
-5.468652397394180298e-02
-3.312990441918373108e-02
7.836655527353286743e-02
-7.797020673751831055e-02
-1.332335919141769409e-02
5.777857452630996704e-02
2.419641800224781036e-02
-7.802220527082681656e-03
1.004748642444610596e-01
-1.137538552284240723e-01
-1.162003725767135620e-01
5.361444875597953796e-02
-1.314132809638977051e-01
-1.084667965769767761e-01
1.260410249233245850e-01
-6.777849793434143066e-02
1.253419965505599976e-01
-8.391340076923370361e-02
6.013451144099235535e-02
1.190959513187408447e-01
-1.484874933958053589e-01
-4.642882850021123886e-03
3.980546817183494568e-02
-6.568006426095962524e-02
1.631307043135166168e-02
-6.651348620653152466e-02
-6.682106852531433105e-02
-1.186745986342430115e-01
1.139192134141921997e-01
-2.162675000727176666e-02
9.309784322977066040e-02
-9.726418554782867432e-02
-2.466855198144912720e-02
-7.191532105207443237e-02
3.525184094905853271e-02
1.095494776964187622e-01
4.657233133912086487e-02
-9.324824437499046326e-03
-4.798594489693641663e-02
-3.979905694723129272e-02
1.122614648193120956e-02
-1.710246689617633820e-02
-1.516097690910100937e-02
9.793412685394287109e-02
3.296920284628868103e-02
1.107826828956604004e-01
1.224944740533828735e-02
-1.056265980005264282e-01
-1.324073076248168945e-01
-1.564549468457698822e-02
-9.847979992628097534e-02
-2.632568031549453735e-02
2.484382875263690948e-02
-3.501186519861221313e-02
-8.688569813966751099e-02
-3.390059620141983032e-02
9.039715677499771118e-02
7.847070693969726562e-02
-1.025309041142463684e-01
1.249539926648139954e-01
7.055203616619110107e-02
1.176427956670522690e-02
-5.488158017396926880e-02
-7.256400585174560547e-02
-3.627646714448928833e-02
1.038526594638824463e-01
-6.790338456630706787e-02
-2.574414387345314026e-02
1.732814311981201172e-02
4.127659276127815247e-02
5.007313191890716553e-02
6.065014377236366272e-02
-3.674154728651046753e-02
-3.467417135834693909e-02
-1.025484576821327209e-01
5.564696714282035828e-02
-1.393926143646240234e-01
3.980336710810661316e-02
9.796603769063949585e-02
9.657485783100128174e-02
-5.374195054173469543e-02
3.983035311102867126e-02
-7.162027992308139801e-03
1.170849986374378204e-02
-1.586670614778995514e-02
-1.489733904600143433e-01
4.993291944265365601e-02
1.264226809144020081e-02
2.520308457314968109e-02
-8.999973535537719727e-02
-4.707444086670875549e-02
-1.197620406746864319e-01
-1.284482479095458984e-01
1.495099253952503204e-02
-2.563759684562683105e-03
-1.019405275583267212e-01
-1.304529607295989990e-01
2.867668494582176208e-02
1.353171467781066895e-01
-1.121563985943794250e-01
6.754194945096969604e-02
8.322713524103164673e-02
3.266963362693786621e-02
1.762494631111621857e-02
6.571070849895477295e-02
-4.722118005156517029e-02
4.603361338376998901e-02
1.200264412909746170e-02
-1.053638234734535217e-01
7.995977252721786499e-02
1.274488270282745361e-01
9.819559752941131592e-02
-5.934107676148414612e-02
-3.128624707460403442e-02
9.029241278767585754e-03
1.558124125003814697e-01
-5.126487091183662415e-02
3.115774132311344147e-02
1.008619591593742371e-01
-2.019667439162731171e-02
3.632619604468345642e-02
1.091291308403015137e-01
3.719858825206756592e-02
-9.306673705577850342e-02
-2.199204463977366686e-04
1.704676896333694458e-01
9.837414324283599854e-02
-9.557937085628509521e-02
-6.036071851849555969e-02
-4.986464232206344604e-02
-7.945896126329898834e-03
6.828347686678171158e-03
6.346736848354339600e-02
-7.072887569665908813e-02
4.900810495018959045e-02
3.129456564784049988e-02
-4.370676353573799133e-02
2.631061011925339699e-03
1.144410297274589539e-01
3.572160005569458008e-02
6.727993488311767578e-02
-3.664545342326164246e-02
-1.332759484648704529e-02
-1.019146218895912170e-01
-9.738587774336338043e-03
-9.475072473287582397e-02
-8.013831824064254761e-02
1.367341727018356323e-02
6.767225265502929688e-02
6.829484552145004272e-02
1.002958789467811584e-02
4.312473814934492111e-03
5.194228142499923706e-02
3.214802965521812439e-02
5.192846059799194336e-02
-5.919872317463159561e-03
5.564588122069835663e-03
1.663303002715110779e-02
-9.705268591642379761e-02
-2.351721748709678650e-03
-9.430975653231143951e-03
-5.666344985365867615e-02
-7.190914452075958252e-02
-4.608551040291786194e-02
-4.479096084833145142e-02
2.834606450051069260e-03
1.147961542010307312e-01
-3.632305422797799110e-03
-4.356161504983901978e-02
-1.006605774164199829e-01
-1.284892484545707703e-02
-3.324176743626594543e-02
-6.434766203165054321e-02
5.749911442399024963e-02
4.363006353378295898e-02
-5.705703049898147583e-02
1.938125304877758026e-02
4.853560030460357666e-02
-5.125620961189270020e-02
-1.779437810182571411e-02
1.186687797307968140e-01
-7.680550217628479004e-03
1.502724438905715942e-01
5.701197311282157898e-03
-7.032631337642669678e-02
7.631742209196090698e-02
-2.471544779837131500e-02
-3.849525004625320435e-02
-1.075897179543972015e-02
9.811419248580932617e-02
-6.898020207881927490e-02
1.057473942637443542e-01
-3.130204230546951294e-02
-4.793881438672542572e-03
-1.227977946400642395e-01
-1.352843642234802246e-01
-1.353238075971603394e-01
1.073401272296905518e-01
1.375990062952041626e-01
-5.003554746508598328e-02
4.501827433705329895e-02
-1.309477686882019043e-01
-2.158402279019355774e-02
-1.082169190049171448e-01
-1.119485944509506226e-01
9.425276517868041992e-02
1.111890971660614014e-01
-8.613008074462413788e-03
1.029346603900194168e-02
9.092690795660018921e-02
-6.612348370254039764e-03
2.918133325874805450e-02
-8.636306226253509521e-02
1.283431798219680786e-01
-1.366167049854993820e-02
4.320304468274116516e-02
8.750715851783752441e-02
9.209694713354110718e-02
-8.771420456469058990e-03
-6.651534140110015869e-02
9.354816377162933350e-02
5.713600292801856995e-02
-1.143910735845565796e-01
-1.105024591088294983e-01
1.238700002431869507e-01
-1.049868948757648468e-02
-1.788946986198425293e-02
-7.463664561510086060e-02
-6.328111886978149414e-02
-1.155219748616218567e-01
-5.071121454238891602e-02
8.609541505575180054e-02
2.598813176155090332e-02
1.217302232980728149e-01
4.753020778298377991e-02
1.600043289363384247e-02
1.061988919973373413e-01
-9.842735528945922852e-02
-1.043211668729782104e-01
-4.363509267568588257e-02
-1.234818026423454285e-01
1.296025235205888748e-02
7.640490680932998657e-02
-3.587877750396728516e-02
-5.416199937462806702e-02
-7.661642879247665405e-02
-5.597089231014251709e-02
3.300718218088150024e-02
3.494091331958770752e-02
-3.760513663291931152e-02
-2.726534567773342133e-02
-5.210714414715766907e-02
3.178978711366653442e-02
-9.644008427858352661e-02
-6.486092507839202881e-02
9.690441191196441650e-02
2.265311591327190399e-02
-3.320028260350227356e-02
1.086120959371328354e-02
1.185391619801521301e-01
1.250831037759780884e-01
5.253347917459905148e-04
-6.261180341243743896e-02
1.096279844641685486e-01
4.859011992812156677e-02
1.003917679190635681e-01
7.894369959831237793e-02
-5.559475976042449474e-04
2.133251912891864777e-02
-2.685734443366527557e-02
5.297702178359031677e-02
-2.348414249718189240e-02
-4.892223700881004333e-02
3.234295174479484558e-02
-1.310660839080810547e-01
1.227586790919303894e-01
-4.110812768340110779e-02
-8.152136951684951782e-02
-7.304113823920488358e-04
2.052347734570503235e-02
-1.622090674936771393e-02
-3.940974920988082886e-02
3.712318465113639832e-02
-2.365748398005962372e-02
-1.179663315415382385e-01
2.714326791465282440e-02
8.170800656080245972e-02
-1.143610291182994843e-02
6.213661655783653259e-02
1.138918623328208923e-01
1.008231565356254578e-02
-8.867362886667251587e-02
-1.140131577849388123e-01
-1.464926823973655701e-02
1.175276413559913635e-01
-1.189924553036689758e-01
-1.223967000842094421e-01
-8.123728632926940918e-02
-9.560396894812583923e-03
-9.713698178529739380e-02
1.418774854391813278e-02
9.407792240381240845e-03
-1.232378557324409485e-01
-1.881049200892448425e-02
6.642904877662658691e-02
-3.811880573630332947e-02
4.991390276700258255e-03
8.594348281621932983e-02
1.150410398840904236e-01
-6.007736548781394958e-02
1.461939420551061630e-02
-1.028619036078453064e-01
2.449411526322364807e-02
5.986427888274192810e-02
-4.230062291026115417e-02
-1.409967988729476929e-01
1.031025201082229614e-01
4.869210720062255859e-02
-6.042847037315368652e-02
1.433082483708858490e-02
-8.545256406068801880e-02
3.052720800042152405e-03
1.137684360146522522e-01
-5.611127614974975586e-02
1.012957422062754631e-03
-5.835105851292610168e-02
9.293023496866226196e-02
-6.435918807983398438e-02
-5.957994982600212097e-02
1.154705286026000977e-01
-3.445680718868970871e-03
9.958044439554214478e-02
4.436686262488365173e-02
3.191876038908958435e-02
-2.937721647322177887e-02
-1.028160452842712402e-01
-3.006400540471076965e-02
7.301633059978485107e-02
6.039838492870330811e-02
-1.021618396043777466e-01
-1.143363267183303833e-01
-4.024100024253129959e-03
-2.151175634935498238e-03
-6.316916551440954208e-03
-1.518825590610504150e-01
-4.868996888399124146e-02
-6.838475912809371948e-02
5.127659067511558533e-02
1.522098015993833542e-02
-7.433701306581497192e-02
1.610619127750396729e-01
-1.264817714691162109e-01
1.618851348757743835e-02
-3.784442320466041565e-02
4.019898176193237305e-02
-9.770625084638595581e-02
-1.645475327968597412e-01
4.647196084260940552e-02
7.231565658003091812e-03
-4.324097558856010437e-02
-9.054812043905258179e-02
1.014646664261817932e-01
-1.400422304868698120e-01
-9.486375376582145691e-03
1.017179191112518311e-01
2.570670098066329956e-02
9.925728291273117065e-02
6.928538531064987183e-02
1.259035915136337280e-01
8.407861739397048950e-02
9.767724201083183289e-03
8.076992817223072052e-03
4.481900483369827271e-02
9.370536543428897858e-03
1.126554608345031738e-01
1.243176031857728958e-02
-6.361538916826248169e-02
-1.212388202548027039e-01
5.826744250953197479e-03
-7.869559526443481445e-02
-8.855801820755004883e-02
4.033946245908737183e-02
7.600960880517959595e-02
4.627172276377677917e-02
-1.099777519702911377e-01
4.352661967277526855e-02
-1.078045740723609924e-01
1.690648123621940613e-02
-1.438277363777160645e-01
-5.201919376850128174e-02
1.076281964778900146e-01
-1.492459326982498169e-01
-2.063236571848392487e-02
-1.043924540281295776e-01
9.834082424640655518e-02
1.123370528221130371e-01
-5.057892575860023499e-02
-2.095021679997444153e-02
-2.998224273324012756e-02
-6.158200278878211975e-02
-1.321968808770179749e-02
-4.769198596477508545e-02
1.045886576175689697e-01
-1.137548685073852539e-01
2.266355790197849274e-02
6.177712231874465942e-02
-6.632412970066070557e-02
-9.584187716245651245e-02
-4.649473354220390320e-02
-3.063876740634441376e-02
-8.817806839942932129e-02
2.270830608904361725e-02
-1.282576937228441238e-02
-7.299780100584030151e-02
-2.568401023745536804e-02
2.337247319519519806e-02
-1.064466759562492371e-01
-1.475036591291427612e-01
2.766051888465881348e-02
-3.965388610959053040e-02
3.414826840162277222e-02
8.119627833366394043e-02
5.782607570290565491e-02
-1.143660843372344971e-01
3.410611301660537720e-03
1.178044304251670837e-01
3.209716081619262695e-02
-7.133233547210693359e-02
-1.002555117011070251e-01
-8.850871026515960693e-02
-2.832810766994953156e-02
6.028747558593750000e-02
3.222071006894111633e-02
1.581122167408466339e-02
4.074567928910255432e-03
8.151287212967872620e-03
4.426205903291702271e-02
-1.329404413700103760e-01
-3.719451278448104858e-02
-1.116404123604297638e-02
9.204497188329696655e-02
1.664816588163375854e-02
-1.858616247773170471e-02
-4.410134255886077881e-02
1.055795978754758835e-02
1.542852073907852173e-02
1.245491299778223038e-02
8.677173405885696411e-02
-2.861908823251724243e-02
-9.780594706535339355e-02
-5.423466488718986511e-02
1.193628683686256409e-01
1.004767939448356628e-01
-9.603600949048995972e-02
-4.205066338181495667e-02
-4.216533526778221130e-02
9.301126003265380859e-02
3.962048515677452087e-02
1.251772493124008179e-01
2.806914038956165314e-02
-4.537191987037658691e-02
-2.429145202040672302e-02
-5.393668264150619507e-02
-6.819286197423934937e-02
-1.284230351448059082e-01
-2.326133847236633301e-02
1.625793613493442535e-02
-1.003159806132316589e-01
-4.805296286940574646e-02
-9.617703408002853394e-02
-5.311315134167671204e-02
-1.281949728727340698e-01
5.841472372412681580e-02
1.054274663329124451e-01
1.577819585800170898e-01
2.885692007839679718e-02
3.753515332937240601e-02
1.164457201957702637e-01
1.138115208595991135e-02
-8.325331658124923706e-02
1.451205089688301086e-02
1.167194568552076817e-03
-1.119667813181877136e-01
-1.192781180143356323e-01
3.248240053653717041e-02
1.061502993106842041e-01
-9.675467759370803833e-02
-1.839120499789714813e-02
5.584936961531639099e-02
-1.402244716882705688e-01
4.517988115549087524e-02
7.986641675233840942e-02
7.044104277156293392e-04
-3.001911006867885590e-02
4.631277173757553101e-02
1.088946014642715454e-01
1.228539869189262390e-01
5.927343387156724930e-03
-3.620470687747001648e-02
7.750841230154037476e-02
-3.846605867147445679e-02
6.286855787038803101e-02
1.118839904665946960e-01
3.769150376319885254e-02
7.200027257204055786e-02
7.377404719591140747e-02
7.908600568771362305e-02
-7.665994577109813690e-03
-2.800994180142879486e-02
7.948056608438491821e-02
-1.150452271103858948e-01
-9.565959125757217407e-02
-1.953414874151349068e-03
1.452921777963638306e-01
1.386345271021127701e-02
-8.052511513233184814e-02
-8.374772220849990845e-02
1.767658255994319916e-02
1.060202717781066895e-01
1.397982612252235413e-02
5.784041713923215866e-03
-1.667654141783714294e-02
8.402870595455169678e-02
7.070386409759521484e-02
-1.851943507790565491e-02
1.538919378072023392e-02
6.520515680313110352e-02
-9.314945898950099945e-03
-2.980791777372360229e-02
-1.888535916805267334e-02
-9.369348734617233276e-02
-5.229891836643218994e-02
-2.287296950817108154e-02
-1.243632566183805466e-02
1.612347066402435303e-01
1.275485605001449585e-01
3.886473178863525391e-02
7.605233788490295410e-02
6.823284178972244263e-02
6.424446403980255127e-02
-7.159128785133361816e-02
-1.303603053092956543e-01
7.533521205186843872e-02
1.116573810577392578e-01
4.379704594612121582e-02
3.606773540377616882e-02
-1.076444014906883240e-01
7.964383065700531006e-02
6.862659752368927002e-02
-1.538628991693258286e-02
2.597738057374954224e-02
-8.175537735223770142e-02
1.056649088859558105e-01
-6.197995319962501526e-02
-1.296271085739135742e-01
1.089879274368286133e-01
1.165771409869194031e-01
-2.456074953079223633e-02
8.274807780981063843e-02
-7.485274225473403931e-02
-1.373464800417423248e-02
-1.352241784334182739e-01
1.300487667322158813e-01
1.200549751520156860e-01
-1.007140204310417175e-01
8.203748613595962524e-02
8.990071713924407959e-02
-9.854397177696228027e-02
-8.539660274982452393e-02
-8.939171582460403442e-02
-6.698878854513168335e-02
-1.495931297540664673e-01
-6.524112075567245483e-02
-6.781286746263504028e-02
4.907189309597015381e-02
-1.201114878058433533e-01
-1.076998002827167511e-02
-8.433552086353302002e-02
-3.641269356012344360e-02
1.182822659611701965e-01
6.420229375362396240e-02
-1.100179105997085571e-01
8.849829435348510742e-02
-7.079235464334487915e-02
6.916466355323791504e-02
1.048862468451261520e-03
7.747749239206314087e-02
5.747291445732116699e-02
-9.270556271076202393e-02
5.495059117674827576e-02
-4.409063607454299927e-02
4.143437743186950684e-02
-2.389976195991039276e-02
5.417440831661224365e-02
-8.346101641654968262e-02
-1.171660348773002625e-01
-1.505084428936243057e-02
2.077490277588367462e-02
-2.555310726165771484e-02
6.564366817474365234e-02
4.003799334168434143e-02
8.117878437042236328e-02
-6.745667010545730591e-02
2.944931760430335999e-02
-9.983924776315689087e-02
4.454685747623443604e-02
-1.719523407518863678e-02
-9.560665488243103027e-02
-6.750621646642684937e-02
4.716014489531517029e-02
-1.001744094537571073e-04
8.045501261949539185e-02
5.305644497275352478e-02
-1.168315634131431580e-01
-9.846310317516326904e-02
8.838504552841186523e-02
4.133821651339530945e-02
1.147286035120487213e-02
-3.813929110765457153e-02
-1.548970788717269897e-01
4.769541323184967041e-02
8.546244353055953979e-02
1.044239625334739685e-01
-6.629294902086257935e-02
4.293622076511383057e-02
-4.164048284292221069e-02
2.729477547109127045e-02
8.840821683406829834e-02
1.580299139022827148e-01
5.185766145586967468e-02
-1.232433319091796875e-01
-1.351479738950729370e-01
-4.834692552685737610e-02
1.356886178255081177e-01
3.756733238697052002e-02
1.245606988668441772e-01
2.766823954880237579e-02
-8.961445093154907227e-02
-6.600918620824813843e-02
-4.111748933792114258e-02
-1.049490720033645630e-01
1.891856454312801361e-02
-8.403844386339187622e-02
-9.225966641679406166e-04
-2.118348143994808197e-02
-7.114654034376144409e-02
-5.002437531948089600e-02
-3.886549547314643860e-02
-1.165369153022766113e-01
-8.976938575506210327e-02
6.066732481122016907e-02
5.053880810737609863e-02
5.232763476669788361e-03
-8.311749249696731567e-02
-1.061341911554336548e-01
-9.917609393596649170e-02
-7.575695216655731201e-02
-4.538021236658096313e-02
4.056591540575027466e-02
1.627979129552841187e-01
-1.054466068744659424e-01
-1.585441827774047852e-01
-3.319760784506797791e-02
-4.145238548517227173e-02
-1.056117042899131775e-01
4.416778683662414551e-02
2.976200729608535767e-02
5.838969722390174866e-02
-9.885941445827484131e-02
-2.354652620851993561e-02
4.133539274334907532e-02
-9.633546322584152222e-02
1.190773919224739075e-01
3.385807946324348450e-02
-4.133641347289085388e-02
6.870973855257034302e-02
-5.794725194573402405e-02
-2.882271818816661835e-02
6.468867510557174683e-02
-6.978225708007812500e-02
-4.567864164710044861e-02
7.112857699394226074e-02
-1.181433349847793579e-01
-4.941861334373243153e-05
1.062889248132705688e-01
9.627725929021835327e-02
-4.381074383854866028e-02
-5.843779072165489197e-02
-6.515167653560638428e-02
6.925627589225769043e-02
7.927457243204116821e-02
3.956833481788635254e-02
1.122495755553245544e-01
1.384330242872238159e-01
1.369251590222120285e-02
-1.106571853160858154e-01
1.844974607229232788e-02
2.781241200864315033e-02
-7.214418798685073853e-02
3.629640862345695496e-02
2.543375454843044281e-02
-5.065893754363059998e-02
-5.224270746111869812e-02
-3.502447903156280518e-02
-3.556255251169204712e-03
-5.331886559724807739e-02
7.717051357030868530e-02
-1.335064228624105453e-02
-2.294661104679107666e-02
-6.609710399061441422e-03
1.328518092632293701e-01
-1.118717268109321594e-01
1.003694832324981689e-01
8.510170131921768188e-02
1.261604856699705124e-02
3.559775650501251221e-02
9.036581218242645264e-02
6.623811274766921997e-02
3.109094919636845589e-03
7.531859725713729858e-02
6.894400715827941895e-02
7.693360745906829834e-02
-6.479179859161376953e-02
1.235517784953117371e-01
1.121186651289463043e-02
3.688330948352813721e-02
-1.097884997725486755e-01
2.205189503729343414e-02
-3.935987129807472229e-02
1.378374546766281128e-01
5.070320144295692444e-02
2.849198877811431885e-03
-5.943833664059638977e-02
-1.133835315704345703e-01
9.161996841430664062e-02
-1.763160713016986847e-02
-5.447477847337722778e-02
-3.997487202286720276e-02
3.540857508778572083e-02
1.220645532011985779e-01
4.213917627930641174e-02
-9.369686990976333618e-02
-1.266545653343200684e-01
4.524659365415573120e-02
-3.778001759201288223e-03
1.031629666686058044e-01
2.698483318090438843e-02
4.838369786739349365e-02
2.514646621420979500e-03
-8.842337131500244141e-02
-4.315693303942680359e-02
-6.244416162371635437e-02
-6.001396849751472473e-02
6.382513791322708130e-02
9.722009301185607910e-02
7.173082232475280762e-02
4.081798344850540161e-02
6.125888600945472717e-02
8.611236512660980225e-02
-4.230923578143119812e-02
1.283835768699645996e-01
-9.681708365678787231e-02
2.515966072678565979e-02
5.141695216298103333e-02
-2.851925045251846313e-02
-1.308853179216384888e-01
-9.230797737836837769e-02
1.331621222198009491e-02
8.847320079803466797e-02
-1.079639643430709839e-01
-6.085643544793128967e-02
-6.447695940732955933e-02
4.726821556687355042e-02
-7.989969104528427124e-02
-1.689196005463600159e-02
4.319007322192192078e-02
-6.345144938677549362e-04
-5.367664247751235962e-02
-1.307297777384519577e-02
-1.497525814920663834e-02
-9.535244852304458618e-02
1.473153382539749146e-01
-1.285715401172637939e-01
9.130298346281051636e-02
-5.857649445533752441e-02
4.861921817064285278e-02
-1.025486066937446594e-01
1.076249107718467712e-01
-1.942187920212745667e-02
-1.196098849177360535e-01
-1.380922198295593262e-01
-9.556560218334197998e-02
3.003857284784317017e-02
-1.341151893138885498e-01
-9.858551621437072754e-02
-5.567564070224761963e-02
-3.295637667179107666e-02
6.723316013813018799e-02
8.656457066535949707e-02
3.497253404930233955e-03
1.097517907619476318e-01
6.677392125129699707e-02
4.101923480629920959e-02
-4.145020246505737305e-02
5.781923420727252960e-03
-1.666374504566192627e-02
1.341171711683273315e-01
1.131561398506164551e-01
-9.709616005420684814e-02
-1.864184252917766571e-02
-1.051027625799179077e-01
-1.532135307788848877e-01
-8.005734533071517944e-03
9.557048976421356201e-02
-3.300832584500312805e-02
7.762422412633895874e-02
1.185633540153503418e-01
-1.216555130667984486e-03
1.053903996944427490e-01
9.850261360406875610e-02
1.835498027503490448e-02
-9.214310348033905029e-02
-7.556938566267490387e-03
2.223674952983856201e-02
-2.801436930894851685e-02
-1.196231171488761902e-01
-8.198184520006179810e-02
-8.857696503400802612e-02
1.151620596647262573e-01
8.410420268774032593e-02
5.968567356467247009e-02
9.317414462566375732e-02
-1.341427769511938095e-02
9.950198978185653687e-02
2.464094664901494980e-03
-9.838558034971356392e-04
1.247095689177513123e-02
-2.733064256608486176e-02
2.011217176914215088e-02
1.167350485920906067e-01
-9.619409590959548950e-02
-5.234402418136596680e-02
7.204430550336837769e-02
-1.179451644420623779e-01
6.376755423843860626e-03
-2.950255759060382843e-02
9.857589006423950195e-02
-8.526728302240371704e-02
-5.680809915065765381e-02
-1.212076544761657715e-01
-4.944003373384475708e-02
-8.863250911235809326e-02
-7.325679808855056763e-02
-9.508205205202102661e-02
-5.553888157010078430e-02
4.744806792587041855e-03
5.568320676684379578e-02
3.113417886197566986e-02
1.074769273400306702e-01
-6.830895692110061646e-02
7.273691892623901367e-02
9.563742578029632568e-02
8.940599113702774048e-02
6.502497941255569458e-02
4.828175157308578491e-02
-2.818645164370536804e-02
-8.382245153188705444e-02
6.358239054679870605e-02
4.111023992300033569e-02
-2.157106064260005951e-03
-1.096346080303192139e-01
-6.098180636763572693e-02
1.165935099124908447e-01
-8.186647295951843262e-02
-2.674269117414951324e-02
-5.857578292489051819e-02
-5.202232301235198975e-02
-7.804478518664836884e-03
-1.160027235746383667e-01
-1.398781836032867432e-01
4.178017750382423401e-02
-1.065591573715209961e-01
7.638943195343017578e-02
6.012382730841636658e-02
-6.818855553865432739e-02
3.985237330198287964e-02
9.126859158277511597e-02
-9.156815707683563232e-02
-9.370917081832885742e-02
-7.611566036939620972e-02
-5.736024677753448486e-02
1.467875540256500244e-01
-1.181880664080381393e-02
-1.161136478185653687e-01
-1.374221742153167725e-01
9.222760051488876343e-02
-2.290236763656139374e-02
-1.126756742596626282e-01
1.178380325436592102e-01
-3.244106471538543701e-02
8.971347659826278687e-02
6.466809660196304321e-02
-9.749651700258255005e-02
1.272862851619720459e-01
3.248609974980354309e-02
1.141542419791221619e-01
1.206969395279884338e-01
8.498208224773406982e-02
-6.928953528404235840e-02
1.145066395401954651e-01
-1.372647732496261597e-01
9.125014394521713257e-02
2.222241088747978210e-02
-3.180811926722526550e-02
-8.010327816009521484e-03
-1.029296889901161194e-01
1.539273373782634735e-02
-1.287026852369308472e-01
5.562185496091842651e-02
-9.558060765266418457e-02
-3.085191175341606140e-02
-2.535344101488590240e-02
2.814992330968379974e-02
-2.508468739688396454e-02
8.632972836494445801e-02
-4.338502511382102966e-02
4.228059947490692139e-02
4.898775741457939148e-02
-6.024361774325370789e-02
-1.296917647123336792e-01
6.651911139488220215e-02
-5.453676730394363403e-02
8.845931291580200195e-02
2.787369675934314728e-02
4.178940877318382263e-02
-9.815899282693862915e-02
-9.925963729619979858e-02
5.360869225114583969e-03
-4.561783373355865479e-02
1.032756194472312927e-01
-6.009666249155998230e-02
-3.487904742360115051e-02
2.743595466017723083e-02
1.592713445425033569e-01
-1.821402646601200104e-02
-6.041364744305610657e-02
2.136246487498283386e-02
7.755538821220397949e-02
1.311379224061965942e-01
5.343131721019744873e-02
-2.683023363351821899e-02
-7.644758373498916626e-02
2.650509774684906006e-02
1.496410113759338856e-03
3.942517936229705811e-02
3.260567039251327515e-02
7.942647486925125122e-02
-5.306070297956466675e-02
3.742605820298194885e-02
-1.263304501771926880e-01
9.857417643070220947e-02
-3.509343042969703674e-02
7.227199524641036987e-02
6.549154222011566162e-02
-1.103062927722930908e-01
-8.943059295415878296e-02
1.028881967067718506e-01
6.799340993165969849e-02
-8.808979392051696777e-02
8.734747022390365601e-02
5.420345440506935120e-02
3.225324675440788269e-02
-6.445724517107009888e-02
1.138934269547462463e-01
-1.551143452525138855e-02
-1.034235432744026184e-01
-5.602613836526870728e-02
-5.132108926773071289e-02
5.312677100300788879e-02
-2.050735754892230034e-03
1.370884776115417480e-01
-1.163277626037597656e-01
1.424787193536758423e-01
-1.091392338275909424e-01
-6.974140554666519165e-02
-1.337464898824691772e-01
1.567178517580032349e-01
-6.364721059799194336e-02
5.974282976239919662e-03
6.486490368843078613e-02
-2.329985424876213074e-02
5.431137606501579285e-02
1.860053651034832001e-02
5.517734587192535400e-02
9.248840622603893280e-03
-5.977217853069305420e-02
-1.045293454080820084e-02
-9.156697243452072144e-02
3.203745558857917786e-02
3.504382818937301636e-02
-3.713801503181457520e-02
1.594559848308563232e-02
1.385339498519897461e-01
2.666610106825828552e-02
7.534111291170120239e-02
4.715835303068161011e-02
-1.016384959220886230e-01
-1.465560644865036011e-01
-4.023426771163940430e-02
1.139462813735008240e-01
-3.672044724225997925e-02
-3.102417290210723877e-02
-8.569285273551940918e-03
-7.569647580385208130e-02
-1.261496692895889282e-01
-2.246715873479843140e-02
-1.093326658010482788e-01
5.363541096448898315e-02
7.268524914979934692e-02
9.035855531692504883e-02
9.554434567689895630e-02
6.258090585470199585e-02
-8.133449405431747437e-02
-1.053453609347343445e-01
-1.715947687625885010e-02
-5.386776477098464966e-02
-9.762473404407501221e-02
-1.401498354971408844e-02
2.442201832309365273e-03
7.279881741851568222e-03
1.371597945690155029e-01
6.883843988180160522e-02
-3.383166715502738953e-02
-9.648529440164566040e-02
7.902549207210540771e-02
-8.995159715414047241e-02
-6.078281998634338379e-02
-4.586426913738250732e-02
-2.613487653434276581e-02
7.358461618423461914e-02
-3.053561784327030182e-02
-1.056287251412868500e-02
-5.488960444927215576e-02
1.288630068302154541e-01
-3.066505677998065948e-02
-4.722748696804046631e-02
1.834638416767120361e-02
-9.810990840196609497e-02
8.399890363216400146e-02
2.947811409831047058e-02
9.330461174249649048e-02
-8.811108767986297607e-02
-9.532968699932098389e-02
-9.874169528484344482e-02
2.598361112177371979e-02
4.612625390291213989e-02
4.532120510702952743e-05
-4.949999228119850159e-02
-2.218868955969810486e-02
-5.873462930321693420e-02
8.872961997985839844e-02
-1.587344519793987274e-02
-9.454700350761413574e-02
-4.023351147770881653e-02
-1.083183959126472473e-01
4.635154083371162415e-02
5.410305410623550415e-02
8.029858767986297607e-02
-3.048598021268844604e-02
-1.750480197370052338e-02
-9.128890186548233032e-02
6.066283583641052246e-02
-3.315654397010803223e-02
-2.331996802240610123e-03
-4.285352304577827454e-02
-1.050513833761215210e-01
4.612765740603208542e-03
-2.263696119189262390e-02
-1.006767991930246353e-02
1.092768386006355286e-01
7.036902010440826416e-02
-7.834238559007644653e-02
8.651854842901229858e-02
-9.728343039751052856e-02
-2.626205794513225555e-02
1.311894208192825317e-01
1.287733465433120728e-01
2.373292669653892517e-02
4.237991198897361755e-02
2.500004367902874947e-03
-7.018637657165527344e-02
4.627572372555732727e-02
5.059951543807983398e-02
-1.252796798944473267e-01
3.129250928759574890e-02
-8.290573209524154663e-02
-8.560781180858612061e-02
-5.449146404862403870e-02
8.554749190807342529e-02
-1.803972199559211731e-02
-1.064214110374450684e-01
-3.316672146320343018e-02
3.028266597539186478e-03
-9.612203389406204224e-02
-6.588124483823776245e-02
7.031546533107757568e-02
-6.288237869739532471e-02
-8.799987286329269409e-02
-3.961106017231941223e-02
4.706796258687973022e-02
7.853558659553527832e-02
4.945579543709754944e-02
-1.816532388329505920e-02
3.510392084717750549e-02
8.101907372474670410e-02
-7.528447359800338745e-02
5.674652755260467529e-02
1.693259400781244040e-04
-2.591179497539997101e-02
8.433507382869720459e-02
-2.547197975218296051e-03
8.910890668630599976e-02
1.296661496162414551e-01
-6.110914424061775208e-02
-1.410284042358398438e-01
-4.457518830895423889e-02
4.223478212952613831e-02
5.527895689010620117e-02
8.127555251121520996e-02
-1.973149552941322327e-02
6.198253855109214783e-02
-5.979395285248756409e-02
-8.107956498861312866e-02
4.760545492172241211e-02
-8.066685497760772705e-02
1.572829112410545349e-02
7.209094613790512085e-02
8.354780822992324829e-02
-8.862960338592529297e-02
-5.018612369894981384e-02
1.075463518500328064e-01
-7.711350917816162109e-02
2.672838233411312103e-02
1.097249910235404968e-01
-1.151351258158683777e-01
-6.217521615326404572e-03
1.586312800645828247e-02
7.945905625820159912e-02
-1.416561603546142578e-01
-7.324740290641784668e-02
-1.993059925734996796e-02
-5.264217033982276917e-03
-1.451152265071868896e-01
-3.649068623781204224e-02
-7.739955931901931763e-02
-2.904407214373350143e-03
1.790371350944042206e-02
-1.176736652851104736e-01
-7.431446015834808350e-02
6.426277756690979004e-02
3.373548388481140137e-02
-9.688822925090789795e-02
7.871699333190917969e-02
1.194064021110534668e-01
2.164310030639171600e-02
-1.766952313482761383e-02
4.339401423931121826e-02
5.120615288615226746e-02
-5.752795562148094177e-02
-3.037413582205772400e-02
1.066337972879409790e-01
8.390145003795623779e-02
-9.911029785871505737e-02
1.469135880470275879e-01
8.986853063106536865e-02
9.696721099317073822e-03
6.061533465981483459e-02
-6.741923838853836060e-02
-5.706033483147621155e-02
-1.376359164714813232e-01
-1.739625781774520874e-01
6.835687905550003052e-02
2.497565001249313354e-02
-1.125976517796516418e-01
7.307767868041992188e-02
-4.774144664406776428e-02
-1.178717687726020813e-01
8.528346568346023560e-02
8.819925785064697266e-02
8.959766477346420288e-02
1.056184023618698120e-01
-9.301333874464035034e-02
8.208092302083969116e-02
-8.635377138853073120e-02
-1.052056439220905304e-03
-1.202177852392196655e-01
3.086969628930091858e-02
-4.266819730401039124e-02
-5.103258788585662842e-02
8.835221081972122192e-02
-7.750517874956130981e-02
9.355743974447250366e-02
5.957746133208274841e-02
1.750932261347770691e-02
-5.685456842184066772e-02
-2.025657147169113159e-02
1.182784605771303177e-02
9.494168311357498169e-02
-2.788956463336944580e-02
-8.274319767951965332e-02
-2.027820982038974762e-02
3.133374080061912537e-02
-1.428969670087099075e-02
-2.932653203606605530e-02
1.095630507916212082e-02
-5.117287486791610718e-02
1.080710887908935547e-01
-3.862246870994567871e-02
-1.231971904635429382e-01
-5.340597778558731079e-02
1.748802140355110168e-03
-2.986115589737892151e-02
-3.592127561569213867e-02
2.440782729536294937e-03
9.560683369636535645e-02
-5.725920572876930237e-02
-2.438489720225334167e-02
6.736631691455841064e-02
4.708445072174072266e-02
-1.321271359920501709e-01
8.228386752307415009e-03
7.334184646606445312e-02
9.025340527296066284e-02
-5.400984361767768860e-02
2.133536338806152344e-02
6.409832090139389038e-02
-6.370460242033004761e-02
3.042000904679298401e-02
1.346636861562728882e-01
1.137042976915836334e-02
9.318691492080688477e-02
-4.833209142088890076e-02
1.439276933670043945e-01
-1.165493503212928772e-01
5.310592800378799438e-02
7.912836968898773193e-02
-5.818403512239456177e-02
6.198658421635627747e-02
1.698307320475578308e-02
8.402524143457412720e-02
-1.056615784764289856e-01
-1.097370684146881104e-01
-1.120966151356697083e-01
-6.333497166633605957e-02
1.251073181629180908e-01
7.254305761307477951e-03
-5.804091226309537888e-03
-1.123182773590087891e-01
-1.066773533821105957e-01
-1.507186051458120346e-02
8.179280906915664673e-02
-2.167704049497842789e-03
-6.265290081501007080e-02
-5.291291698813438416e-02
3.889461979269981384e-02
-9.631621837615966797e-02
2.391332294791936874e-03
-1.014116927981376648e-01
8.453161269426345825e-02
4.929707199335098267e-02
8.454179763793945312e-02
3.287691622972488403e-02
4.686768725514411926e-02
-9.269034117460250854e-02
4.475824534893035889e-02
-3.111211955547332764e-02
9.691920876502990723e-02
-5.266414210200309753e-02
9.826264530420303345e-02
4.327009990811347961e-02
6.377443671226501465e-02
-5.976592376828193665e-02
1.180372312664985657e-01
-7.758384943008422852e-02
3.197149373590946198e-03
1.259140223264694214e-01
7.951784878969192505e-02
-4.950616136193275452e-02
8.665321767330169678e-02
1.591684967279434204e-01
-4.667983949184417725e-02
-2.920587733387947083e-02
-1.529989242553710938e-01
8.063283562660217285e-02
-1.092106197029352188e-02
3.695993497967720032e-02
9.116020798683166504e-02
4.269485548138618469e-02
6.940412521362304688e-02
2.569012343883514404e-02
2.301020547747612000e-02
4.726467281579971313e-02
-1.144951060414314270e-01
1.050551757216453552e-01
-1.601109504699707031e-01
-1.056054607033729553e-01
1.522746775299310684e-02
-3.847542032599449158e-02
5.528905615210533142e-02
-1.246779188513755798e-01
7.123659364879131317e-03
3.060866612941026688e-03
-7.367503643035888672e-02
4.188176989555358887e-02
8.249152451753616333e-02
8.379647880792617798e-02
8.263692259788513184e-02
7.855505496263504028e-02
-1.427409350872039795e-01
-4.967400059103965759e-02
-4.431426059454679489e-03
6.437416374683380127e-02
-1.159165613353252411e-02
-4.094693344086408615e-03
-9.997913986444473267e-02
8.909838646650314331e-02
6.147479871287941933e-04
-3.727812552824616432e-03
-8.357658237218856812e-02
-5.491857975721359253e-02
-5.891020968556404114e-02
6.925384048372507095e-03
3.158602118492126465e-02
8.169431984424591064e-02
9.505285322666168213e-02
-5.737740546464920044e-02
-5.609184876084327698e-02
-2.635265886783599854e-02
-8.723115921020507812e-02
-4.115422815084457397e-02
-9.809578768908977509e-03
-5.634577199816703796e-02
4.684084653854370117e-02
-6.818763911724090576e-03
1.022199094295501709e-01
-7.734616100788116455e-02
5.646687373518943787e-02
-1.107147634029388428e-01
-4.365275055170059204e-02
4.299451038241386414e-02
3.887942060828208923e-02
-1.348108202219009399e-01
1.293683201074600220e-01
9.719870239496231079e-02
-5.108361318707466125e-02
-9.057318419218063354e-02
1.360763888806104660e-02
1.124567165970802307e-01
-9.990215301513671875e-02
3.306566551327705383e-02
-4.464903846383094788e-02
-6.624015420675277710e-02
-8.565830439329147339e-02
6.424757838249206543e-02
2.673154510557651520e-02
4.140131920576095581e-02
5.049420893192291260e-02
9.917905181646347046e-02
-7.833251357078552246e-02
-5.165082588791847229e-02
-8.004059642553329468e-02
-1.032396629452705383e-01
-3.277182206511497498e-02
4.568947106599807739e-02
1.990924961864948273e-02
-2.810329571366310120e-02
-1.548518426716327667e-02
-1.634903624653816223e-02
-2.333648316562175751e-02
-1.520786732435226440e-01
-2.010928466916084290e-03
-3.864403814077377319e-02
6.276531517505645752e-02
-4.868429154157638550e-02
7.592472434043884277e-02
-5.477779731154441833e-02
-3.550187102518975735e-04
-9.573895484209060669e-02
1.265851259231567383e-01
1.014671549201011658e-01
1.933574117720127106e-02
-3.817145153880119324e-02
1.684281788766384125e-02
2.517201937735080719e-02
1.002585813403129578e-01
1.035549491643905640e-01
3.362859785556793213e-02
9.509995579719543457e-02
-2.731085987761616707e-04
1.145468503236770630e-01
-1.141866669058799744e-02
1.122174784541130066e-01
-9.112935513257980347e-02
8.247037976980209351e-02
1.111234575510025024e-01
1.040012016892433167e-01
-4.468915611505508423e-02
9.109795093536376953e-02
-3.634147346019744873e-02
8.390433341264724731e-02
-1.029961779713630676e-01
-3.849200531840324402e-02
-3.269202262163162231e-02
-8.614451438188552856e-02
-1.032172143459320068e-01
2.984300442039966583e-02
-7.420828193426132202e-02
-4.815908893942832947e-02
-1.224778406322002411e-02
1.904920674860477448e-02
7.320569455623626709e-02
6.893269717693328857e-02
-2.814880758523941040e-02
-7.076788693666458130e-02
-2.364012785255908966e-02
4.022107273340225220e-02
-8.826909214258193970e-02
-6.249223649501800537e-02
-5.105063319206237793e-02
-9.257185459136962891e-02
1.020258441567420959e-01
5.429825931787490845e-02
-2.855978719890117645e-02
-6.834995001554489136e-02
7.125883549451828003e-02
-8.841030299663543701e-02
9.600867331027984619e-02
-1.171778738498687744e-01
-4.402647167444229126e-02
-5.894392356276512146e-02
-9.158477187156677246e-03
3.762579709291458130e-02
-1.605614647269248962e-02
6.594827771186828613e-02
-1.708126626908779144e-02
5.526237189769744873e-02
-4.065954312682151794e-02
-1.152272671461105347e-01
1.199754998087882996e-01
5.342776328325271606e-02
4.027048498392105103e-02
6.601488590240478516e-02
-1.219768170267343521e-02
1.322100311517715454e-01
3.925223276019096375e-02
-1.179538145661354065e-01
-9.575473517179489136e-02
1.578543633222579956e-01
1.986137405037879944e-02
3.377885743975639343e-02
9.972354769706726074e-02
-6.327527761459350586e-02
-1.150310132652521133e-02
3.576933965086936951e-02
-1.374621409922838211e-02
8.949865400791168213e-02
5.119856819510459900e-02
1.644231192767620087e-02
-6.393735855817794800e-02
-4.066531732678413391e-02
-5.217898264527320862e-02
-4.596183542162179947e-03
-1.467833667993545532e-01
1.311015188694000244e-01
6.161442957818508148e-03
4.728725180029869080e-02
7.136690616607666016e-02
9.058976173400878906e-02
-2.610677480697631836e-02
-6.803078949451446533e-02
-1.323317736387252808e-01
2.932468056678771973e-02
1.986578293144702911e-02
1.300858259201049805e-01
3.469204157590866089e-02
6.409826874732971191e-02
3.087010048329830170e-02
8.302547782659530640e-02
1.192658990621566772e-01
-2.495463564991950989e-02
5.001713521778583527e-03
4.178899526596069336e-02
1.493473164737224579e-02
6.766351312398910522e-02
7.985787838697433472e-02
5.970754660665988922e-03
6.167312711477279663e-02
2.783792093396186829e-02
-9.356773644685745239e-02
1.049669310450553894e-01
7.614658772945404053e-02
-1.326722651720046997e-01
9.010892361402511597e-02
-1.081537920981645584e-02
8.267445117235183716e-02
-1.136353239417076111e-01
-6.326668709516525269e-02
1.406590919941663742e-02
6.180014833807945251e-02
1.533303037285804749e-02
1.038732379674911499e-01
-4.788968339562416077e-02
5.049523315392434597e-04
-2.683836780488491058e-02
8.184798061847686768e-02
5.856817588210105896e-02
1.452087312936782837e-01
9.925727546215057373e-02
1.123438253998756409e-01
1.092825904488563538e-01
2.753032557666301727e-02
-1.136407926678657532e-01
-1.051583439111709595e-01
-6.492484360933303833e-02
1.027551144361495972e-01
-4.931779950857162476e-02
9.106770157814025879e-02
7.232981920242309570e-02
-5.346632376313209534e-02
4.338387772440910339e-02
1.066953837871551514e-01
-6.223389878869056702e-02
3.529372066259384155e-02
1.050975099205970764e-01
-3.434995934367179871e-02
1.242722645401954651e-01
9.223490953445434570e-02
9.954009205102920532e-02
5.481310561299324036e-02
-1.296498626470565796e-01
8.493068814277648926e-02
4.547407478094100952e-02
6.606125831604003906e-02
-1.110751107335090637e-01
1.158267334103584290e-01
1.418179273605346680e-01
-9.201859682798385620e-02
5.038958042860031128e-02
-7.818923145532608032e-02
-5.907404422760009766e-02
-8.509914577007293701e-02
-3.395124524831771851e-02
-6.223819777369499207e-02
4.977583419531583786e-03
5.713353678584098816e-02
9.856803342700004578e-03
-4.903916269540786743e-02
-4.219502210617065430e-03
5.049595981836318970e-02
-9.185716509819030762e-02
6.387259811162948608e-02
1.058286614716053009e-02
1.014623120427131653e-01
8.711504191160202026e-02
-2.858522348105907440e-02
3.639717400074005127e-02
6.798078864812850952e-02
-2.184827253222465515e-02
4.845543205738067627e-02
-3.890169411897659302e-02
8.001981675624847412e-02
-1.079781204462051392e-01
-7.232127338647842407e-02
9.055916219949722290e-02
8.043533563613891602e-02
-8.178517222404479980e-02
1.111512631177902222e-01
-4.193816334009170532e-03
-1.216728612780570984e-02
3.615909442305564880e-02
-1.094185337424278259e-01
1.783387921750545502e-02
-5.477432534098625183e-02
-7.764495164155960083e-02
2.673596516251564026e-02
-1.044655442237854004e-01
-5.249897390604019165e-02
9.764322638511657715e-02
5.390916019678115845e-02
1.141971722245216370e-01
-8.942422270774841309e-02
-6.569495052099227905e-02
1.152607202529907227e-01
-6.207041814923286438e-02
-1.032723858952522278e-01
-4.690666869282722473e-02
-1.021605059504508972e-01
-4.460648051463067532e-04
6.521417759358882904e-03
-6.020990014076232910e-02
1.179549992084503174e-01
-2.255130372941493988e-02
1.501107867807149887e-02
3.923126310110092163e-02
2.998954430222511292e-02
-9.082286804914474487e-02
1.064829751849174500e-01
-8.772233873605728149e-02
5.578827112913131714e-02
-8.001828566193580627e-03
-9.749075770378112793e-02
-1.106654480099678040e-01
-6.413708627223968506e-02
-7.337991148233413696e-02
-9.363172948360443115e-02
6.219042465090751648e-02
7.639465387910604477e-03
-1.209993138909339905e-01
6.549625657498836517e-03
-3.643573960289359093e-03
-8.053019642829895020e-02
-1.102123931050300598e-01
4.881778731942176819e-04
-4.237975552678108215e-02
-7.918110489845275879e-02
-2.648650668561458588e-02
-8.278326690196990967e-02
-1.268427968025207520e-01
6.898119300603866577e-02
-9.495167434215545654e-02
-1.188532263040542603e-01
-6.499160826206207275e-02
-5.345693975687026978e-02
9.270115941762924194e-02
-5.464626476168632507e-02
7.894200831651687622e-02
-1.190426349639892578e-01
7.799702882766723633e-02
-1.307889074087142944e-01
-4.876773059368133545e-02
-3.736003860831260681e-02
4.922014847397804260e-02
-3.487199544906616211e-02
-1.246650964021682739e-01
-6.143641471862792969e-02
-8.806112408638000488e-02
6.558882445096969604e-02
-8.098367601633071899e-02
-2.322002314031124115e-02
3.078189305961132050e-02
-8.356644213199615479e-02
-2.683098614215850830e-02
8.592148125171661377e-02
-8.534551411867141724e-02
-4.679042473435401917e-02
-1.281843036413192749e-01
-9.474761784076690674e-02
1.326115578413009644e-01
3.627455234527587891e-02
1.051022633910179138e-01
-3.978160209953784943e-03
-1.604318618774414062e-02
-5.436276644468307495e-02
8.807361125946044922e-02
-1.048141792416572571e-01
-2.394025959074497223e-02
-1.000506356358528137e-01
-8.187968283891677856e-02
5.481395497918128967e-02
-1.064774207770824432e-02
-8.269760012626647949e-02
6.300231907516717911e-03
-4.652483016252517700e-02
-2.623946405947208405e-02
-4.813385382294654846e-02
1.655066199600696564e-02
-6.557220593094825745e-03
5.101170390844345093e-02
6.362660974264144897e-02
-6.891188025474548340e-02
-4.465465433895587921e-03
3.479392081499099731e-02
3.615698590874671936e-02
1.137091517448425293e-01
-7.998611032962799072e-02
-9.446916729211807251e-02
-3.322629258036613464e-02
-6.230049952864646912e-02
5.271290894597768784e-03
1.075182482600212097e-01
-4.809489473700523376e-02
-9.810855239629745483e-02
-9.915840625762939453e-02
-2.412681840360164642e-02
1.034944728016853333e-01
-8.400297909975051880e-02
1.134608965367078781e-02
-9.269240498542785645e-02
3.846349567174911499e-02
-2.535966783761978149e-02
-7.713299244642257690e-03
1.153333410620689392e-01
1.137004643678665161e-01
7.021337002515792847e-02
-2.221371978521347046e-02
-1.358026117086410522e-01
5.177143588662147522e-02
5.104796215891838074e-02
4.256796836853027344e-02
9.470240026712417603e-02
-6.669799983501434326e-02
-9.957167506217956543e-02
4.424316808581352234e-02
-1.149675026535987854e-01
1.224591657519340515e-01
3.120480803772807121e-03
-1.036568135023117065e-01
-9.281417727470397949e-02
-1.214973106980323792e-01
1.144964769482612610e-01
1.602386683225631714e-02
-4.651915282011032104e-03
-1.123060658574104309e-02
4.332339018583297729e-02
8.005877584218978882e-02
-6.939493864774703979e-02
-9.070311486721038818e-02
-6.821770966053009033e-02
9.161332994699478149e-02
1.123947501182556152e-01
-1.495136506855487823e-02
1.045832782983779907e-01
9.426059573888778687e-02
4.149179905652999878e-02
2.244543097913265228e-02
-9.045211970806121826e-02
-4.744791612029075623e-02
1.297409683465957642e-01
7.475324720144271851e-02
-9.602946788072586060e-02
-1.936597563326358795e-02
-9.686227887868881226e-02
6.571362609975039959e-05
-6.321336328983306885e-02
-4.551768302917480469e-02
-1.476516760885715485e-02
-1.098085716366767883e-01
6.458051502704620361e-03
9.843645244836807251e-02
-1.611661515198647976e-03
9.481769800186157227e-02
1.020861230790615082e-02
-1.109500452876091003e-01
1.066468656063079834e-01
8.713938295841217041e-02
-7.619248330593109131e-02
-1.261577308177947998e-01
9.129159152507781982e-02
-9.260647930204868317e-03
-9.203424304723739624e-02
8.122257143259048462e-02
4.226843640208244324e-02
-9.880164265632629395e-02
5.176992341876029968e-02
-9.158926457166671753e-02
5.272640287876129150e-02
-4.106999188661575317e-02
9.070840477943420410e-02
-1.336112990975379944e-02
-3.679004684090614319e-02
-2.295311912894248962e-02
-1.416011005640029907e-01
-3.192311152815818787e-02
-1.652668118476867676e-01
-9.276887774467468262e-02
1.046936810016632080e-01
-8.041854202747344971e-02
-1.173695400357246399e-01
-4.250060766935348511e-03
2.444953657686710358e-02
-2.477213973179459572e-03
-3.638778254389762878e-02
-4.669887479394674301e-03
-6.807126849889755249e-02
-1.201312988996505737e-01
4.327703267335891724e-02
1.053395196795463562e-01
1.635952619835734367e-03
2.917963825166225433e-02
-4.376137256622314453e-02
-5.919093638658523560e-02
-3.288456797599792480e-02
1.119977757334709167e-01
-9.318803437054157257e-03
1.152484416961669922e-01
-7.237961888313293457e-02
-8.444900065660476685e-02
-2.774357609450817108e-02
-7.576487958431243896e-02
7.012455910444259644e-02
3.181598335504531860e-02
-7.373905181884765625e-02
-4.268819466233253479e-02
7.368568331003189087e-02
-9.258937090635299683e-02
6.500854343175888062e-02
8.648254722356796265e-02
-1.308470368385314941e-01
3.410537540912628174e-02
-1.163026764988899231e-01
4.082972928881645203e-02
9.867368638515472412e-02
4.634636268019676208e-02
8.300474286079406738e-02
-3.714314475655555725e-02
7.503130286931991577e-02
-1.328724771738052368e-01
1.195981651544570923e-01
8.656302839517593384e-02
-1.296606361865997314e-01
3.130078688263893127e-02
-6.288529932498931885e-02
1.389288110658526421e-03
-6.196446344256401062e-02
-3.021954931318759918e-02
-1.146946474909782410e-01
-2.355164662003517151e-02
-1.350311040878295898e-01
-1.289508789777755737e-01
-1.491638422012329102e-01
-1.321544498205184937e-01
-3.955158218741416931e-02
7.989450544118881226e-02
-4.912582039833068848e-02
-1.079288795590400696e-01
-3.770232200622558594e-02
1.989913918077945709e-02
1.030526533722877502e-01
-1.031738221645355225e-01
1.434448510408401489e-01
-9.461183100938796997e-02
6.902207434177398682e-02
1.287082433700561523e-01
-9.178670495748519897e-02
4.557221755385398865e-02
3.960405662655830383e-02
-9.418256580829620361e-02
6.509154289960861206e-02
8.150787651538848877e-02
-6.022619549185037613e-03
-6.160351634025573730e-02
-6.703112274408340454e-02
-2.501477673649787903e-02
-1.163323521614074707e-01
-5.062972754240036011e-02
1.403481215238571167e-01
1.133115217089653015e-01
-4.224978387355804443e-02
9.091105312108993530e-02
1.157592460513114929e-01
-1.120123341679573059e-01
2.952545322477817535e-02
1.359412074089050293e-01
-2.819331176578998566e-02
-9.669634699821472168e-02
5.553989112377166748e-02
5.659483373165130615e-02
-1.768046058714389801e-02
5.237365886569023132e-02
-9.909500181674957275e-02
-1.083739008754491806e-02
1.369259785860776901e-02
1.506216973066329956e-01
-7.104336470365524292e-02
-8.038378506898880005e-02
1.313345283269882202e-01
-1.069889813661575317e-01
-5.574639141559600830e-02
-2.509030327200889587e-02
1.187412254512310028e-02
-8.146144449710845947e-02
-3.229929879307746887e-02
-1.231313310563564301e-02
-5.235808435827493668e-03
-1.704326421022415161e-01
3.155593993142247200e-03
1.592099070549011230e-01
-7.117601484060287476e-02
1.291546374559402466e-01
3.302835300564765930e-02
4.812289774417877197e-02
-5.392119288444519043e-02
3.158645704388618469e-02
-4.293911531567573547e-02
2.303961105644702911e-02
6.709692627191543579e-02
-1.385493203997612000e-02
9.189821779727935791e-02
-6.207976490259170532e-02
1.402579396963119507e-01
-1.231043189764022827e-01
9.885203838348388672e-02
-6.059433519840240479e-02
-9.915890544652938843e-02
-7.380842417478561401e-02
-4.938625916838645935e-02
-1.271064579486846924e-02
-8.712144196033477783e-02
-1.350237615406513214e-02
1.043412685394287109e-01
-1.067123562097549438e-01
7.235812395811080933e-02
-8.795214444398880005e-02
1.370555907487869263e-01
-1.163573786616325378e-01
-6.253168731927871704e-02
-2.984430268406867981e-02
-1.451522707939147949e-01
-1.060136482119560242e-01
4.783900920301675797e-03
5.229744687676429749e-02
-8.026545494794845581e-02
2.527275122702121735e-02
-3.511772677302360535e-02
2.570232748985290527e-02
-9.837635606527328491e-02
1.071732789278030396e-01
-6.811662763357162476e-02
1.097215861082077026e-01
3.871611878275871277e-02
7.467096298933029175e-02
4.402604699134826660e-02
-1.608468443155288696e-01
-2.855703607201576233e-02
-4.497881233692169189e-02
1.092267557978630066e-01
-6.225843913853168488e-03
3.655379638075828552e-02
-5.174501240253448486e-02
-1.890967413783073425e-02
3.496063500642776489e-02
-6.231508031487464905e-02
-1.089240610599517822e-01
1.541263051331043243e-02
7.222763448953628540e-02
2.630796097218990326e-02
1.141145080327987671e-02
8.657978847622871399e-03
-5.053490772843360901e-02
4.847932606935501099e-02
6.203901022672653198e-02
2.615424105897545815e-03
2.129680849611759186e-02
2.295399643480777740e-02
4.890016466379165649e-02
4.716398939490318298e-02
2.791601419448852539e-02
9.360658377408981323e-02
-2.276402711868286133e-02
6.832281500101089478e-02
-5.101189017295837402e-03
-5.626464635133743286e-02
1.208591014146804810e-01
-2.258648723363876343e-02
6.236083805561065674e-02
7.689421623945236206e-02
1.250001788139343262e-01
2.352559752762317657e-02
-1.259100139141082764e-01
-2.627481520175933838e-02
-2.866343967616558075e-02
1.276361942291259766e-01
-1.208843756467103958e-02
-9.876362234354019165e-02
-1.448093075305223465e-02
5.401569977402687073e-02
-1.197722256183624268e-01
1.207538917660713196e-01
1.141935139894485474e-01
-8.755826205015182495e-02
7.225452363491058350e-02
3.961110860109329224e-02
9.465863555669784546e-02
1.008674651384353638e-01
2.930926717817783356e-02
4.220722988247871399e-02
-4.010000452399253845e-02
-8.725725114345550537e-02
-6.089511886239051819e-02
5.288147553801536560e-02
-1.682424917817115784e-02
-3.039189800620079041e-02
-3.094007261097431183e-02
-1.270826011896133423e-01
-9.778585284948348999e-03
6.832942366600036621e-02
-1.355754863470792770e-02
6.152582168579101562e-02
-1.129089295864105225e-01
-7.299080956727266312e-03
4.253352805972099304e-02
4.905742406845092773e-02
-7.236936688423156738e-02
-1.044465452432632446e-01
-1.180853545665740967e-01
-2.246267348527908325e-02
-7.703170180320739746e-03
6.465559452772140503e-02
5.915491282939910889e-02
2.954782545566558838e-02
-3.228731453418731689e-02
3.354825824499130249e-02
6.524383276700973511e-02
-9.271772205829620361e-02
5.257841572165489197e-02
1.098331362009048462e-01
-7.515200972557067871e-02
7.755355536937713623e-02
9.684757888317108154e-02
-5.714377760887145996e-02
-4.572778567671775818e-02
7.742135971784591675e-02
1.108419522643089294e-01
-9.561090916395187378e-02
6.303280591964721680e-02
-1.045275405049324036e-01
5.632174760103225708e-02
-1.893219165503978729e-02
-6.040606275200843811e-02
-2.426357939839363098e-02
4.996348917484283447e-02
9.033263474702835083e-02
-9.038852900266647339e-02
1.026333495974540710e-01
6.162396445870399475e-02
3.134142374619841576e-03
-1.101599559187889099e-01
-1.023086532950401306e-01
-5.538312718272209167e-02
8.679092675447463989e-02
1.068543735891580582e-02
7.000806182622909546e-02
-4.793876782059669495e-02
7.226140704005956650e-03
-1.305973343551158905e-02
1.075963582843542099e-02
-1.042381208389997482e-02
8.444949984550476074e-02
-7.955267094075679779e-03
3.810247406363487244e-02
-1.092500761151313782e-01
8.482404798269271851e-02
8.972559124231338501e-02
5.345326289534568787e-02
-4.058207944035530090e-02
-7.304924726486206055e-02
1.148327887058258057e-01
4.336444288492202759e-02
9.085242450237274170e-02
6.778343021869659424e-02
1.076885778456926346e-02
-6.188425794243812561e-02
5.140618234872817993e-02
2.557089366018772125e-02
-9.081230312585830688e-02
1.077450960874557495e-01
-9.741370379924774170e-02
-1.402668952941894531e-01
-6.301047652959823608e-02
-1.150416880846023560e-01
1.010182201862335205e-01
7.415428012609481812e-02
-6.952102482318878174e-02
9.692110866308212280e-02
6.918136030435562134e-02
1.184633970260620117e-01
-1.619750284589827061e-03
5.212600156664848328e-02
-1.127389520406723022e-01
-5.991001427173614502e-02
-6.361048668622970581e-02
5.304140970110893250e-02
4.168687760829925537e-02
1.037379577755928040e-01
-6.003031879663467407e-02
3.457977622747421265e-02
-6.210440304130315781e-03
1.898155664093792439e-03
-5.374501273036003113e-02
4.911911860108375549e-02
8.059126138687133789e-02
-2.657703682780265808e-02
2.840582840144634247e-02
-5.364631488919258118e-02
1.084740236401557922e-01
1.032034307718276978e-01
-7.167300581932067871e-02
-1.019482165575027466e-01
-1.491449475288391113e-01
-4.214004613459110260e-03
8.608987927436828613e-02
-2.745582722127437592e-03
-4.703583195805549622e-02
5.527291446924209595e-02
1.182310096919536591e-02
3.266672417521476746e-02
-5.704390257596969604e-02
-6.807892769575119019e-02
-2.536413958296179771e-03
8.505667559802532196e-03
-2.853264100849628448e-02
-2.195526659488677979e-02
6.093392148613929749e-02
-1.309732496738433838e-01
2.886553294956684113e-02
5.222215875983238220e-02
1.334070712327957153e-01
5.555440485477447510e-02
1.031927880831062794e-03
3.839027509093284607e-02
6.433084607124328613e-02
-1.362217590212821960e-02
1.896453276276588440e-02
5.342977494001388550e-02
-4.886879026889801025e-02
1.115195006132125854e-01
5.674697458744049072e-02
-9.724824875593185425e-02
-1.159436181187629700e-01
5.187677219510078430e-03
-1.195110753178596497e-01
-5.476843565702438354e-02
-8.237719535827636719e-02
1.210939232259988785e-02
3.016442991793155670e-03
-3.254307433962821960e-02
-6.195767596364021301e-02
1.553068216890096664e-02
1.520738452672958374e-01
3.006302379071712494e-02
-4.278241470456123352e-02
6.812321371398866177e-04
4.553053900599479675e-02
1.320007350295782089e-02
-5.163785070180892944e-02
9.270686656236648560e-02
2.975972369313240051e-02
7.275230600498616695e-04
-2.260201796889305115e-02
-6.943318992853164673e-02
-4.518608003854751587e-02
-4.957054182887077332e-02
9.170621633529663086e-02
4.737948998808860779e-02
-4.160406067967414856e-02
-7.297120243310928345e-02
1.238609999418258667e-01
8.086524903774261475e-02
-4.356852173805236816e-02
9.501181542873382568e-02
8.003044873476028442e-02
-5.640501528978347778e-02
6.557142734527587891e-02
9.716887027025222778e-02
-3.969727829098701477e-02
-4.613391682505607605e-02
8.608818799257278442e-02
1.036214977502822876e-01
-1.091895923018455505e-01
7.783922553062438965e-02
-1.078718081116676331e-01
-4.846446588635444641e-02
-2.672247774899005890e-02
2.350088208913803101e-02
6.164909154176712036e-02
1.927284337580204010e-02
1.125201061367988586e-01
7.306117564439773560e-02
-1.330564469099044800e-01
3.488990664482116699e-02
1.093786954879760742e-01
6.531424075365066528e-02
-2.432964555919170380e-02
-3.789987415075302124e-02
-8.788613229990005493e-02
9.291891008615493774e-02
3.523430600762367249e-02
-8.814960718154907227e-02
3.972410783171653748e-02
3.448555245995521545e-02
-4.956834763288497925e-02
-4.771573469042778015e-02
9.289398044347763062e-02
-3.007102198898792267e-02
6.940180063247680664e-02
1.250550448894500732e-01
-1.277198046445846558e-01
-5.829986557364463806e-02
-5.526496842503547668e-02
-1.044680923223495483e-01
9.226942807435989380e-02
3.330599516630172729e-02
6.535087525844573975e-02
9.803089499473571777e-02
-7.621563225984573364e-02
-1.396665815263986588e-02
-3.044949658215045929e-02
1.116863787174224854e-01
-1.149284392595291138e-01
5.374026298522949219e-02
-1.617456413805484772e-02
6.890580058097839355e-03
7.293498516082763672e-02
1.291494816541671753e-02
7.401512563228607178e-02
-1.081503257155418396e-01
-4.110167920589447021e-02
-2.271250076591968536e-02
1.147362589836120605e-01
8.754000812768936157e-02
-9.661518782377243042e-02
1.858747564256191254e-02
2.671577036380767822e-02
-1.199419945478439331e-01
3.694135695695877075e-02
-3.881984204053878784e-02
-1.239246279001235962e-01
-1.745069399476051331e-03
5.681162327527999878e-02
-1.320000290870666504e-01
-1.127715706825256348e-01
6.213327497243881226e-02
-8.125679194927215576e-02
2.655965648591518402e-02
1.249470859766006470e-01
-6.785426288843154907e-02
1.454647071659564972e-02
-1.052537932991981506e-01
-1.002099458128213882e-02
-7.850935310125350952e-02
-1.918670162558555603e-02
3.494803607463836670e-02
8.362853527069091797e-02
-5.520451813936233521e-02
9.104488790035247803e-02
8.240860700607299805e-02
-1.359852850437164307e-01
3.067698515951633453e-02
9.422311186790466309e-02
5.270087718963623047e-02
-4.198502004146575928e-02
-9.359477460384368896e-02
-5.444515496492385864e-02
3.250962495803833008e-02
8.483860641717910767e-03
7.696028053760528564e-02
1.063362956047058105e-01
6.361480057239532471e-02
8.217293769121170044e-02
-3.591036191210150719e-03
5.955130979418754578e-02
-2.316452562808990479e-02
-4.171328991651535034e-02
-8.743568509817123413e-02
-1.123490333557128906e-01
-1.590488702058792114e-01
-3.755610436201095581e-02
-4.880597442388534546e-02
-1.020112857222557068e-01
4.917734116315841675e-02
-6.145575642585754395e-02
3.870001062750816345e-03
-1.996188424527645111e-02
-2.559306472539901733e-02
4.195677116513252258e-02
-9.867483377456665039e-02
-8.385115116834640503e-02
1.034011468291282654e-01
-3.370182216167449951e-02
9.505337476730346680e-02
-1.371115893125534058e-01
-8.672232180833816528e-02
-3.421587403863668442e-03
-2.467808080837130547e-04
5.227296799421310425e-02
3.221152350306510925e-02
-8.421268314123153687e-03
-4.261627048254013062e-02
1.082327663898468018e-01
-1.257337927818298340e-01
3.515017777681350708e-02
-1.230226308107376099e-01
-3.227763995528221130e-02
1.873517967760562897e-02
1.464840956032276154e-02
1.310457289218902588e-01
-9.399279952049255371e-02
