7.283938676118850708e-02
1.634604297578334808e-02
2.231539459899067879e-03
-6.539317220449447632e-02
-5.563460662961006165e-02
-7.320553064346313477e-02
-5.243627354502677917e-03
1.314429566264152527e-02
-1.250207237899303436e-02
-6.725483387708663940e-02
-2.722236514091491699e-02
4.323684051632881165e-02
1.069106440991163254e-02
4.813298583030700684e-02
-8.435893058776855469e-02
3.243307396769523621e-02
-2.676344849169254303e-02
-7.928127422928810120e-03
3.569655865430831909e-02
-3.628119826316833496e-02
3.016660548746585846e-02
6.389360129833221436e-02
5.702232569456100464e-02
-5.124726891517639160e-02
-2.164924517273902893e-02
4.252230376005172729e-02
-1.411837246268987656e-02
6.270886212587356567e-02
5.282843951135873795e-03
6.253909319639205933e-02
2.510027028620243073e-02
8.672498166561126709e-02
8.354885876178741455e-02
-1.855755224823951721e-02
-4.425303079187870026e-03
-5.327478051185607910e-03
-3.952478524297475815e-03
6.732124090194702148e-02
4.630240052938461304e-02
-7.934436202049255371e-02
-1.696803607046604156e-02
4.978331923484802246e-02
7.412324193865060806e-03
-5.781643465161323547e-02
-8.377562463283538818e-02
-6.366219371557235718e-02
5.842261016368865967e-02
-3.953295201063156128e-02
8.250395953655242920e-02
-6.730472203344106674e-03
2.273334562778472900e-02
5.999779701232910156e-02
-6.959571689367294312e-02
-8.488090708851814270e-03
-2.828438021242618561e-02
5.685156583786010742e-02
-3.783191740512847900e-02
2.370594814419746399e-02
-5.336117744445800781e-02
-1.750051975250244141e-02
8.705073036253452301e-03
3.320249542593955994e-02
-6.540466845035552979e-02
-3.024916164577007294e-02
3.560896590352058411e-02
-4.073492810130119324e-02
4.146905243396759033e-02
6.734580546617507935e-02
-5.392510211095213890e-04
8.688995242118835449e-02
-2.366494946181774139e-02
5.696559697389602661e-02
5.810860544443130493e-02
1.538574881851673126e-02
7.706661522388458252e-02
3.309828788042068481e-02
-2.645890600979328156e-02
2.698395028710365295e-02
2.634453028440475464e-02
-1.811572723090648651e-02
-3.504081442952156067e-02
-8.238960802555084229e-02
2.265628054738044739e-02
1.462706248275935650e-03
-7.171234581619501114e-03
-4.433292150497436523e-02
2.258860319852828979e-02
-3.293233364820480347e-02
-3.203884139657020569e-02
7.715609669685363770e-02
2.523631043732166290e-02
2.538378164172172546e-02
-6.744806468486785889e-02
-2.881263615563511848e-03
8.421979844570159912e-02
8.555620163679122925e-02
-6.003558263182640076e-02
-1.750588230788707733e-02
3.940549120306968689e-02
3.929552622139453888e-03
-2.682246454060077667e-02
-3.423618897795677185e-02
-6.857650727033615112e-02
-7.287170737981796265e-02
-8.458606898784637451e-02
5.894890055060386658e-02
6.160090491175651550e-02
-6.875091791152954102e-02
5.818122625350952148e-02
1.277109514921903610e-02
3.208479285240173340e-02
-2.778491936624050140e-02
5.821206606924533844e-03
5.506156757473945618e-02
9.123138152062892914e-03
-7.646171748638153076e-02
-8.711584843695163727e-03
-4.510677419602870941e-03
-8.918630890548229218e-03
8.772718906402587891e-02
1.934442296624183655e-02
3.668138012290000916e-02
5.853249877691268921e-02
-3.977605700492858887e-02
2.761835604906082153e-02
4.514694586396217346e-02
1.461971900425851345e-03
1.529468037188053131e-02
-3.627322241663932800e-02
-4.723476245999336243e-02
-2.406438346952199936e-03
6.365253031253814697e-02
2.596439607441425323e-02
8.305353671312332153e-02
-7.562609016895294189e-02
-1.829138398170471191e-02
4.914790391921997070e-02
-5.426069349050521851e-02
6.205932796001434326e-02
6.761216372251510620e-02
4.140189290046691895e-02
-7.261594384908676147e-02
7.576802163384854794e-04
3.992068395018577576e-02
6.758763641119003296e-02
2.738789655268192291e-02
6.270729005336761475e-02
-1.964037865400314331e-02
2.697598421946167946e-03
5.159172415733337402e-02
-8.212753385305404663e-02
2.950900979340076447e-02
1.047776918858289719e-02
-2.686365973204374313e-03
-5.314775742590427399e-03
6.022347137331962585e-02
5.000805854797363281e-02
-7.842262834310531616e-02
1.119733229279518127e-02
-2.381675411015748978e-03
-7.522109150886535645e-02
-4.269971046596765518e-03
6.787363439798355103e-02
-6.217662990093231201e-02
-5.888599436730146408e-03
-6.919345259666442871e-02
6.780493259429931641e-02
-3.121138364076614380e-02
6.268133968114852905e-02
-8.460408449172973633e-02
-3.408364951610565186e-02
2.944567427039146423e-02
6.768315564841032028e-03
1.635002717375755310e-02
6.035050377249717712e-02
7.034890353679656982e-02
-5.947847291827201843e-02
-7.408910244703292847e-02
6.735631823539733887e-02
-2.828628756105899811e-02
7.231692224740982056e-02
2.616422623395919800e-02
-5.174324288964271545e-02
-5.075934343039989471e-03
2.612017095088958740e-02
3.569511463865637779e-03
-3.905294090509414673e-02
-3.464267402887344360e-02
2.651681564748287201e-02
-1.638031005859375000e-02
3.254514187574386597e-02
7.149064447730779648e-03
5.991194397211074829e-02
8.037973195314407349e-03
4.406842961907386780e-02
1.632677204906940460e-02
-5.723629519343376160e-02
7.695455104112625122e-02
6.226367503404617310e-02
-2.612144686281681061e-02
-7.963606715202331543e-02
7.803208380937576294e-02
5.298906192183494568e-02
7.350683212280273438e-02
-7.832768559455871582e-02
4.542851820588111877e-02
6.683529913425445557e-02
7.998422533273696899e-02
6.937313079833984375e-02
3.657831251621246338e-02
8.178511634469032288e-03
-1.427053287625312805e-02
-1.677458174526691437e-02
1.626791432499885559e-02
3.688026219606399536e-02
1.487992820329964161e-03
2.045407518744468689e-02
2.645679935812950134e-02
-7.535079121589660645e-02
-2.935792505741119385e-02
7.915305346250534058e-02
-2.977750636637210846e-02
-7.863305509090423584e-02
3.349733771756291389e-03
4.809369519352912903e-02
-3.495637327432632446e-02
-8.492150157690048218e-02
-5.129934102296829224e-02
5.608564242720603943e-02
-3.220856934785842896e-02
-8.780126273632049561e-02
2.254855260252952576e-02
-8.656338602304458618e-02
-6.439845263957977295e-02
6.910678744316101074e-02
8.373967371881008148e-03
2.066673478111624718e-03
1.500534173101186752e-02
4.128684103488922119e-02
6.287264078855514526e-02
-7.688533514738082886e-02
2.045482397079467773e-02
-6.218741089105606079e-02
1.108450535684823990e-02
8.248985558748245239e-02
3.599125891923904419e-02
-2.936150692403316498e-02
-2.873383462429046631e-02
-1.186871062964200974e-02
-1.830974966287612915e-02
-6.014309823513031006e-02
-7.818836718797683716e-02
7.805057615041732788e-02
-3.356909006834030151e-02
5.109167471528053284e-02
-2.485989592969417572e-03
-6.753428280353546143e-02
-2.252365462481975555e-02
2.041427791118621826e-02
-7.874690741300582886e-02
-2.737178653478622437e-02
-3.112601675093173981e-02
-2.558343112468719482e-02
-8.236870914697647095e-02
-6.987157277762889862e-03
-2.580641955137252808e-02
8.438737131655216217e-03
4.129902273416519165e-02
-2.531523071229457855e-02
1.754290796816349030e-02
-7.685583829879760742e-02
-4.345015436410903931e-02
-8.036725223064422607e-02
-3.618297353386878967e-02
-6.933458149433135986e-02
6.212263181805610657e-02
2.910568565130233765e-02
-8.412480354309082031e-02
-3.057902306318283081e-02
4.297230392694473267e-02
5.237753316760063171e-02
4.650560021400451660e-02
2.455792576074600220e-02
-1.176394429057836533e-02
-7.873883005231618881e-04
7.670943439006805420e-02
-2.817359752953052521e-02
-2.457561530172824860e-02
-8.791708946228027344e-02
2.524270676076412201e-02
-8.661187440156936646e-02
-6.840354204177856445e-02
-5.230707302689552307e-02
2.286688797175884247e-02
-8.470679074525833130e-02
-6.434584408998489380e-02
-3.564241901040077209e-02
5.090598389506340027e-02
-3.266636654734611511e-02
8.450603485107421875e-02
8.608439564704895020e-02
-1.354176085442304611e-02
1.429908722639083862e-02
-8.903237059712409973e-03
-1.363909896463155746e-02
3.172587230801582336e-02
-3.412344679236412048e-02
-4.884972423315048218e-02
-5.075747892260551453e-02
-5.860452726483345032e-02
-3.609588742256164551e-02
4.517688974738121033e-02
4.705196246504783630e-02
-4.232073575258255005e-02
-6.191379204392433167e-02
-2.486283704638481140e-02
-4.593992605805397034e-02
-8.535115979611873627e-03
5.166094005107879639e-02
2.662895806133747101e-02
2.143853157758712769e-02
-7.163182646036148071e-02
-2.608297765254974365e-02
-6.436087191104888916e-02
7.411788403987884521e-02
5.859600380063056946e-02
-8.542692661285400391e-02
4.865700751543045044e-02
8.068203926086425781e-02
6.723583489656448364e-02
-3.170187026262283325e-02
6.786647439002990723e-02
3.746321424841880798e-02
-1.063901279121637344e-02
-4.925016313791275024e-03
-5.722231045365333557e-02
6.387756019830703735e-02
5.622068047523498535e-02
8.267842978239059448e-02
-6.937435269355773926e-02
-2.678210847079753876e-02
-2.779943868517875671e-02
8.686644583940505981e-02
1.011789869517087936e-02
-7.893464714288711548e-02
-1.660788059234619141e-02
-4.560495540499687195e-02
1.497825235128402710e-02
2.779133617877960205e-02
-5.929442867636680603e-02
-3.950649499893188477e-02
-3.908795490860939026e-02
-8.404678851366043091e-02
-1.022092998027801514e-03
-3.389602154493331909e-02
7.237385213375091553e-02
7.223974168300628662e-02
-1.216374896466732025e-02
-3.101196698844432831e-02
2.026136033236980438e-02
2.667433954775333405e-02
6.944333761930465698e-02
7.216583471745252609e-03
2.514970861375331879e-02
-8.349328488111495972e-02
-5.936949327588081360e-02
5.620925873517990112e-02
-2.289136499166488647e-02
4.958407953381538391e-02
-7.249780464917421341e-03
-7.594146579504013062e-02
-8.285152167081832886e-02
8.456514030694961548e-02
-7.974007725715637207e-02
-1.923980377614498138e-02
-5.627330020070075989e-02
8.533019572496414185e-03
-7.292229682207107544e-02
-6.395681947469711304e-02
-4.814168810844421387e-02
-9.969151578843593597e-03
-7.554980460554361343e-03
6.518885493278503418e-02
-8.071004599332809448e-02
1.284153293818235397e-02
-6.860652565956115723e-02
-1.573391258716583252e-02
5.854299291968345642e-02
1.281344238668680191e-02
5.791378393769264221e-02
-4.825908690690994263e-03
-4.471996426582336426e-02
1.734638959169387817e-02
-2.853634580969810486e-02
2.178170019760727882e-03
8.161262609064579010e-03
6.118085980415344238e-02
6.128710228949785233e-03
-6.155313178896903992e-02
1.568695157766342163e-02
-5.296115949749946594e-02
2.694272063672542572e-02
1.847920194268226624e-02
8.490913361310958862e-02
6.441774964332580566e-02
-3.048502607271075249e-03
7.554092258214950562e-02
-5.671773850917816162e-02
5.101371183991432190e-02
2.138078026473522186e-02
4.522703588008880615e-02
7.803186774253845215e-02
-1.675428822636604309e-02
-3.911799564957618713e-02
1.427758205682039261e-02
6.679990142583847046e-02
-6.443520635366439819e-02
6.494800746440887451e-02
-5.543820559978485107e-02
5.053859204053878784e-02
-3.559016808867454529e-02
3.112717531621456146e-02
6.891138106584548950e-02
3.136440739035606384e-02
-7.818663865327835083e-02
-6.966152042150497437e-02
6.506543606519699097e-02
2.350935339927673340e-02
3.521421924233436584e-02
7.280281186103820801e-02
-8.342415094375610352e-02
6.894022226333618164e-02
7.772155106067657471e-02
1.443256624042987823e-02
-8.454968780279159546e-02
5.669053271412849426e-02
-7.720541954040527344e-02
-3.258581459522247314e-02
3.766599344089627266e-03
-4.465715587139129639e-02
2.600504740257747471e-05
-1.502540428191423416e-02
7.698407024145126343e-02
-5.668354779481887817e-02
4.172193259000778198e-02
-6.763485074043273926e-02
-5.571430921554565430e-02
4.773109219968318939e-03
8.445918560028076172e-02
-8.121070265769958496e-02
1.261889282613992691e-02
1.947344467043876648e-02
4.914350807666778564e-02
9.163860231637954712e-04
2.596433740109205246e-03
-5.890997499227523804e-02
-4.866778850555419922e-02
6.933019030839204788e-03
-3.390499949455261230e-02
-8.734755218029022217e-02
2.903882041573524475e-02
3.851800691336393356e-03
-6.564386188983917236e-02
-7.232615351676940918e-02
3.709492273628711700e-03
1.767051964998245239e-02
8.763886243104934692e-02
1.983134634792804718e-02
-9.989339858293533325e-03
3.924425691366195679e-02
6.311434507369995117e-02
-6.263770908117294312e-02
-8.818058669567108154e-02
-7.636691629886627197e-02
-4.439864680171012878e-02
-2.416556887328624725e-02
-6.172030791640281677e-02
6.090263649821281433e-02
-7.166531682014465332e-02
-5.637816339731216431e-02
-3.204517066478729248e-03
6.475414335727691650e-02
-4.348690621554851532e-03
-9.175213635899126530e-04
8.182509243488311768e-02
4.595112800598144531e-02
-2.704950282350182533e-03
1.028084941208362579e-02
2.508108317852020264e-02
-1.598447561264038086e-02
-2.819910645484924316e-02
-4.749846458435058594e-02
-6.545277684926986694e-02
1.752558723092079163e-02
-5.197413265705108643e-02
-4.157768562436103821e-02
-8.512314409017562866e-03
5.212398618459701538e-02
1.389769092202186584e-02
1.118092611432075500e-02
2.705661207437515259e-02
4.670282825827598572e-02
-5.168473348021507263e-02
4.152795299887657166e-02
2.503384649753570557e-02
1.555829774588346481e-02
1.711912266910076141e-02
5.472049489617347717e-02
7.752387970685958862e-02
8.278066664934158325e-02
6.628081947565078735e-02
4.627805203199386597e-02
-6.006167735904455185e-03
7.904353737831115723e-02
-5.610230192542076111e-02
1.206678990274667740e-02
8.364958688616752625e-03
5.253920797258615494e-03
-1.437643729150295258e-02
1.445631589740514755e-02
8.627715706825256348e-02
-5.290970951318740845e-02
7.758995145559310913e-02
-7.326330989599227905e-02
-4.545368999242782593e-02
-7.721830159425735474e-02
-4.260262474417686462e-02
-4.753492772579193115e-03
2.759987302124500275e-02
5.215609073638916016e-02
-7.645329833030700684e-02
-7.098487019538879395e-02
7.217653840780258179e-02
7.669819146394729614e-02
-7.863698899745941162e-02
-2.459130622446537018e-02
7.664678990840911865e-02
6.124139204621315002e-02
-5.064312368631362915e-02
-4.632237926125526428e-02
-1.018775720149278641e-02
-7.253690809011459351e-02
5.121054872870445251e-02
-2.444685809314250946e-02
1.724270754493772984e-03
1.369614526629447937e-02
-7.223930675536394119e-03
4.278863780200481415e-03
-1.816373132169246674e-02
-4.489720240235328674e-02
4.275260493159294128e-03
6.655552238225936890e-02
5.537203326821327209e-02
2.376815676689147949e-02
7.720747590065002441e-02
-2.278114110231399536e-02
4.243286699056625366e-02
-5.744433030486106873e-02
-5.141223222017288208e-02
6.672541610896587372e-03
3.476589173078536987e-02
5.999080091714859009e-02
4.665701463818550110e-02
2.219150587916374207e-02
-8.067176491022109985e-02
7.134402543306350708e-02
-4.456741269677877426e-03
4.644128680229187012e-02
-4.961831495165824890e-02
6.037483364343643188e-02
-9.930460713803768158e-03
-6.526061892509460449e-02
5.803596600890159607e-02
6.434271484613418579e-02
7.451857905834913254e-03
-4.613982886075973511e-02
4.104356840252876282e-02
-6.233401969075202942e-02
1.565538346767425537e-02
-2.228702045977115631e-02
8.191012591123580933e-02
-2.679803036153316498e-02
4.263862594962120056e-02
2.217854559421539307e-02
2.185423672199249268e-02
5.565102677792310715e-03
-2.840289846062660217e-02
-4.878573492169380188e-02
-2.132453396916389465e-02
5.352604389190673828e-02
7.464471459388732910e-02
-5.154822021722793579e-02
6.242218986153602600e-02
-5.824960768222808838e-02
-2.562341839075088501e-02
3.470235690474510193e-02
-7.228516042232513428e-02
-1.770319417119026184e-02
6.710343807935714722e-02
7.159417867660522461e-02
-1.752393320202827454e-02
-1.339387800544500351e-02
3.953507170081138611e-02
-2.537858672440052032e-02
-8.243969827890396118e-02
6.021704524755477905e-02
7.272627204656600952e-02
8.521041274070739746e-02
5.557892099022865295e-02
5.584365501999855042e-02
8.129713684320449829e-02
7.017753273248672485e-02
8.744085580110549927e-02
-1.579501666128635406e-02
-4.362261854112148285e-03
-3.778391750529408455e-03
-4.894579946994781494e-02
-2.708019316196441650e-02
-1.732538826763629913e-02
-4.939408227801322937e-02
-4.853805899620056152e-02
3.765650093555450439e-02
-9.213501587510108948e-03
3.741729632019996643e-02
-4.901210591197013855e-02
1.049845293164253235e-02
4.939768463373184204e-02
2.087999135255813599e-02
2.586292847990989685e-02
-7.977852225303649902e-02
-7.925567030906677246e-02
7.905482500791549683e-02
7.099030911922454834e-02
-3.044010698795318604e-02
-2.837923169136047363e-02
5.676600709557533264e-02
2.474678494036197662e-02
6.090638786554336548e-02
3.223307803273200989e-02
-8.652575314044952393e-02
1.523307152092456818e-02
5.801935214549303055e-03
8.446018397808074951e-02
1.888279989361763000e-02
1.253820210695266724e-02
8.026549220085144043e-02
-8.831450715661048889e-03
-5.614027380943298340e-02
-7.283324003219604492e-02
6.954406946897506714e-02
2.384974248707294464e-02
5.234069656580686569e-03
6.079717422835528851e-04
2.986737340688705444e-02
-8.120044320821762085e-02
5.763432756066322327e-02
-3.667419403791427612e-02
-5.200740694999694824e-02
2.595755830407142639e-02
-8.433704078197479248e-02
-1.112265512347221375e-03
5.878843739628791809e-02
4.793140664696693420e-02
7.470028102397918701e-02
-2.514288201928138733e-02
-6.267235428094863892e-02
3.264644369482994080e-02
1.045789849013090134e-02
-6.372190266847610474e-02
3.314936161041259766e-02
4.614689946174621582e-02
-4.831023514270782471e-02
-6.260544061660766602e-02
4.486781731247901917e-02
2.188889123499393463e-02
4.488417878746986389e-02
-2.818176336586475372e-02
8.479816466569900513e-02
2.650890313088893890e-02
7.034965604543685913e-02
4.000529274344444275e-02
-3.740984946489334106e-02
-2.932038623839616776e-03
-4.350408166646957397e-02
5.650948360562324524e-02
3.265048936009407043e-02
2.178874984383583069e-02
3.410921245813369751e-02
4.362306371331214905e-02
-8.159289509057998657e-02
3.146270662546157837e-02
-4.469195753335952759e-02
-4.442062973976135254e-02
3.907710313796997070e-02
7.975620031356811523e-02
-3.558903187513351440e-02
-4.185752011835575104e-03
6.725082546472549438e-02
7.261681556701660156e-02
4.878284782171249390e-02
9.250072180293500423e-04
-1.079247985035181046e-02
6.507959216833114624e-02
-4.922684282064437866e-02
-2.165303751826286316e-02
-7.970830053091049194e-02
6.353655457496643066e-02
-3.845375031232833862e-02
3.915131464600563049e-02
3.841239586472511292e-02
1.635567471385002136e-02
-9.452779777348041534e-03
8.681630343198776245e-02
-4.784382507205009460e-02
8.468499034643173218e-02
-7.856045849621295929e-03
-2.955246344208717346e-02
-8.084957301616668701e-02
7.585664279758930206e-03
-8.750648796558380127e-02
4.893182590603828430e-02
3.048812411725521088e-02
-2.125014550983905792e-02
1.202437933534383774e-02
5.259517952799797058e-02
7.190648466348648071e-02
-4.301286116242408752e-02
-7.802815735340118408e-02
-6.552188098430633545e-02
7.720312103629112244e-03
3.765422478318214417e-02
-5.064505338668823242e-02
7.360260933637619019e-02
-5.630611255764961243e-02
-4.197682812809944153e-02
4.517713189125061035e-02
5.663937702775001526e-02
3.253927454352378845e-02
5.483305826783180237e-02
-3.208068385720252991e-02
-8.089113980531692505e-02
8.478741347789764404e-02
-7.369128614664077759e-02
8.360400795936584473e-02
6.438251584768295288e-02
-6.853513419628143311e-02
6.763821840286254883e-02
-1.836978830397129059e-02
5.087144672870635986e-02
5.388993769884109497e-02
8.293303847312927246e-02
4.759867861866950989e-02
-3.297309204936027527e-02
-2.636227384209632874e-02
-1.804515160620212555e-02
7.513462007045745850e-02
8.277769386768341064e-02
5.321084707975387573e-02
4.410656914114952087e-02
-7.029272615909576416e-02
-2.727035991847515106e-02
-1.347082760185003281e-02
4.636482149362564087e-02
2.654873207211494446e-02
4.665257781744003296e-02
6.560622900724411011e-02
5.729063227772712708e-02
-1.239554584026336670e-02
1.005711220204830170e-02
9.745457209646701813e-03
-4.033418744802474976e-02
3.891032934188842773e-02
7.972833514213562012e-02
-4.271483048796653748e-02
-1.688124611973762512e-02
-6.303601711988449097e-02
-5.470769479870796204e-02
4.381081461906433105e-02
8.739833720028400421e-03
-4.779667407274246216e-02
7.804582267999649048e-02
-6.541446596384048462e-02
-5.562387034296989441e-02
4.767355322837829590e-02
8.099701255559921265e-02
-4.361187294125556946e-02
-8.626414835453033447e-02
-1.090274658054113388e-02
6.323055131360888481e-04
1.438444480299949646e-02
-5.609160661697387695e-02
1.334641827270388603e-03
1.980861835181713104e-02
3.818015381693840027e-02
2.232995815575122833e-02
1.403378322720527649e-02
-5.364139005541801453e-02
-4.755406826734542847e-02
8.285120874643325806e-02
-7.497978955507278442e-02
5.966660752892494202e-02
-3.723964840173721313e-02
-2.127545513212680817e-02
8.978922269307076931e-04
5.774060264229774475e-02
-3.092406876385211945e-02
4.539456963539123535e-02
3.160085156559944153e-02
3.331742063164710999e-02
5.320443212985992432e-02
5.156852304935455322e-02
5.680371075868606567e-02
-8.236058801412582397e-02
2.855356223881244659e-02
5.936811119318008423e-02
-3.916864469647407532e-02
1.319837011396884918e-02
-7.668094336986541748e-02
7.038899511098861694e-02
-5.907193571329116821e-02
2.528408356010913849e-02
-1.133336126804351807e-02
-8.608680218458175659e-02
-6.897182762622833252e-02
8.226069808006286621e-02
1.417268905788660049e-02
7.904704660177230835e-03
-7.537885010242462158e-02
7.489410787820816040e-02
-3.385489806532859802e-02
2.406478673219680786e-02
-2.848896197974681854e-02
-3.632850572466850281e-02
7.946667075157165527e-02
-5.766690894961357117e-02
-4.713287204504013062e-02
6.133254617452621460e-02
-5.776448920369148254e-02
1.531640882603824139e-03
-3.703644871711730957e-02
3.969853743910789490e-02
-5.278661847114562988e-02
7.562496513128280640e-02
6.968776136636734009e-02
-1.272511295974254608e-02
7.145086675882339478e-02
-6.030954793095588684e-02
6.694985926151275635e-02
-2.832761220633983612e-02
-2.773923240602016449e-02
5.525657162070274353e-02
3.178771212697029114e-02
-6.353753060102462769e-02
-4.490128159523010254e-02
-7.253276556730270386e-02
-8.286145329475402832e-02
-3.305377066135406494e-02
2.109947055578231812e-02
-7.079189270734786987e-02
-6.298114359378814697e-02
-6.293141096830368042e-02
-1.179151888936758041e-02
7.801846414804458618e-02
-8.301879465579986572e-02
1.105481293052434921e-02
-5.095243081450462341e-02
6.398678570985794067e-02
-3.040676936507225037e-02
5.652839690446853638e-02
6.220978125929832458e-02
8.739624172449111938e-02
-1.304992847144603729e-02
-7.837162911891937256e-02
-5.689476383849978447e-04
3.047719784080982208e-02
-3.771708905696868896e-02
-3.503436455503106117e-03
-7.863156497478485107e-02
8.599856495857238770e-02
4.954919219017028809e-02
6.848246604204177856e-02
8.291319757699966431e-02
9.740136563777923584e-03
4.601920396089553833e-02
-3.779482841491699219e-02
6.159896776080131531e-02
5.022266879677772522e-02
1.407518237829208374e-02
8.784738020040094852e-04
8.091956377029418945e-02
5.613146722316741943e-02
7.774953544139862061e-02
3.053533844649791718e-02
7.071858644485473633e-02
-6.295828521251678467e-02
7.220395654439926147e-02
-5.494480021297931671e-03
-3.744048997759819031e-02
8.261339366436004639e-02
1.655691489577293396e-02
5.421180278062820435e-02
-2.832469344139099121e-02
6.608217209577560425e-02
7.351901382207870483e-02
-8.649344742298126221e-02
6.170215457677841187e-02
-8.516733348369598389e-02
-1.690959930419921875e-02
-5.838348716497421265e-02
6.930775195360183716e-02
-8.476246148347854614e-02
-1.180662773549556732e-02
3.253046423196792603e-02
-8.478586561977863312e-03
-5.222284048795700073e-02
-1.810807734727859497e-02
-5.444858595728874207e-02
5.072369053959846497e-02
-7.767318189144134521e-02
-7.234345376491546631e-02
1.827022619545459747e-02
5.009178072214126587e-02
8.279712498188018799e-02
-2.221170440316200256e-02
-4.885599017143249512e-03
1.932786963880062103e-02
1.102823880501091480e-03
-2.462057583034038544e-02
6.146102026104927063e-02
5.676025524735450745e-02
6.702075712382793427e-03
8.728022873401641846e-02
-8.132221549749374390e-02
7.747310400009155273e-02
5.883089825510978699e-02
3.063087537884712219e-02
2.944313548505306244e-02
-4.464485868811607361e-02
2.725007571280002594e-02
2.687465213239192963e-02
-5.457416176795959473e-02
-8.706486970186233521e-02
7.782653719186782837e-02
-7.203983515501022339e-02
2.649916708469390869e-02
-5.742225795984268188e-02
-2.136810496449470520e-02
-9.965558536350727081e-03
-6.953375996090471745e-04
4.509919136762619019e-02
-4.658103361725807190e-02
7.727915048599243164e-02
-3.161262348294258118e-02
-5.903292819857597351e-02
-5.400890856981277466e-02
2.591919526457786560e-02
7.741831243038177490e-02
-2.375203557312488556e-02
6.118712946772575378e-02
4.790893197059631348e-02
1.738675520755350590e-03
2.120078168809413910e-02
8.263148367404937744e-02
-2.871656417846679688e-02
7.728638499975204468e-02
4.104005917906761169e-02
6.343137472867965698e-02
-7.519549876451492310e-02
6.588846445083618164e-02
5.129199847579002380e-02
5.610466003417968750e-02
5.919739603996276855e-02
3.592412918806076050e-02
3.735031234100461006e-03
-9.978361427783966064e-03
-7.513763848692178726e-03
-6.546919792890548706e-02
5.696590244770050049e-02
-9.883825667202472687e-03
-1.030406169593334198e-02
3.528821840882301331e-02
-5.763065069913864136e-02
-8.087373524904251099e-02
-1.331236679106950760e-02
-6.588297337293624878e-02
6.572740525007247925e-02
5.801247060298919678e-02
6.875188648700714111e-02
-8.536612614989280701e-03
-2.024731412529945374e-02
-8.593346923589706421e-02
-8.277282863855361938e-02
-7.994922250509262085e-02
-5.653646588325500488e-02
-2.841957658529281616e-02
4.637610539793968201e-02
-7.819806039333343506e-02
-7.146157324314117432e-02
2.871613390743732452e-02
-2.871902100741863251e-02
-8.517878130078315735e-03
-5.508224014192819595e-03
-3.980855271220207214e-02
-4.620913043618202209e-02
2.579408138990402222e-02
4.957302659749984741e-02
2.087275311350822449e-02
4.552923887968063354e-02
2.316443435847759247e-02
-3.162555024027824402e-02
1.674184575676918030e-02
3.200688585638999939e-02
-5.285796523094177246e-02
-6.364793330430984497e-02
6.814613193273544312e-02
2.155720628798007965e-02
5.157474055886268616e-02
3.501513600349426270e-02
5.358259379863739014e-02
-9.537176811136305332e-04
-8.154423534870147705e-02
5.541511625051498413e-02
-7.517701387405395508e-02
-5.744911264628171921e-03
