-4.044830054044723511e-02
-5.122014284133911133e-01
-3.119438290596008301e-01
2.784901484847068787e-02
1.569385230541229248e-01
3.624943196773529053e-01
4.348765909671783447e-01
-2.406292706727981567e-01
5.912611261010169983e-02
-3.828191757202148438e-01
-5.316811800003051758e-01
5.734778642654418945e-01
-2.029965072870254517e-01
-2.349127382040023804e-01
8.298347145318984985e-02
-1.677249521017074585e-01
-1.987955421209335327e-01
5.472124218940734863e-01
-1.741721294820308685e-02
-4.286779463291168213e-01
-4.382004141807556152e-01
1.588908284902572632e-01
-5.463585853576660156e-01
-3.114475607872009277e-01
-3.688987195491790771e-01
-9.312176704406738281e-02
3.387757539749145508e-01
2.844161391258239746e-01
-5.107931494712829590e-01
9.350203722715377808e-02
-2.081343680620193481e-01
1.406228095293045044e-01
-8.486253768205642700e-02
-4.938894510269165039e-01
1.152872890233993530e-01
-4.358341991901397705e-01
3.808219134807586670e-01
-4.563115835189819336e-01
4.231394529342651367e-01
-3.128386735916137695e-01
-3.048174381256103516e-01
2.448824495077133179e-01
-6.758195161819458008e-02
4.287787973880767822e-01
1.702491194009780884e-01
2.007358670234680176e-01
4.648370444774627686e-01
1.709901541471481323e-01
-4.818941354751586914e-01
-1.624362170696258545e-01
-5.456990003585815430e-01
1.642044782638549805e-01
4.565817415714263916e-01
8.970950543880462646e-02
-2.452671527862548828e-01
-2.380763441324234009e-01
5.125151276588439941e-01
-1.614217907190322876e-01
-1.618227213621139526e-01
-4.952995181083679199e-01
-1.441738903522491455e-01
3.645344078540802002e-01
3.671883940696716309e-01
-2.140440493822097778e-01
