1.831269264221191406e-02
3.136087208986282349e-03
-2.437759190797805786e-02
-2.602612972259521484e-02
-1.805618032813072205e-02
1.920717209577560425e-02
-1.578183844685554504e-02
2.523705363273620605e-02
-2.152391895651817322e-02
2.717146277427673340e-02
2.025638520717620850e-02
9.217418730258941650e-03
-2.522610500454902649e-02
1.160700619220733643e-02
3.158405423164367676e-03
-3.470949828624725342e-03
-1.473180949687957764e-03
1.627385988831520081e-02
2.326441183686256409e-02
3.117760270833969116e-02
-2.076093107461929321e-02
3.381084650754928589e-03
-2.508853748440742493e-02
-2.156853675842285156e-03
-1.678829640150070190e-02
-7.012456655502319336e-03
1.440783590078353882e-02
-1.380956545472145081e-02
-1.626655086874961853e-02
2.817359939217567444e-02
1.230351626873016357e-02
4.696603864431381226e-03
-2.145154401659965515e-02
7.589966058731079102e-03
1.736332476139068604e-02
-3.860041499137878418e-03
2.729725837707519531e-02
-9.860858321189880371e-03
1.285848394036293030e-02
1.590781658887863159e-02
1.740620657801628113e-02
-2.612332627177238464e-02
4.732582718133926392e-03
-5.517605692148208618e-03
1.621335744857788086e-03
-1.833218708634376526e-02
8.923012763261795044e-03
1.700997725129127502e-02
1.325940340757369995e-02
7.125884294509887695e-03
4.343390464782714844e-03
7.579971104860305786e-03
1.258773845620453358e-04
6.843965500593185425e-03
1.349689066410064697e-02
-7.068358361721038818e-03
-7.577639073133468628e-03
-2.322025597095489502e-03
1.628366112709045410e-02
2.901232242584228516e-02
3.015041351318359375e-02
2.075731754302978516e-03
2.944648638367652893e-02
-6.964169442653656006e-03
-3.254905343055725098e-03
9.461421519517898560e-03
-1.010562106966972351e-02
7.719784975051879883e-03
2.147545292973518372e-02
-6.356514990329742432e-03
2.259684354066848755e-02
-2.197748795151710510e-02
2.824598178267478943e-02
-1.496043056249618530e-02
1.940624788403511047e-02
1.607441902160644531e-02
8.936908096075057983e-03
9.203832596540451050e-03
1.262034848332405090e-02
-3.519497811794281006e-03
-1.784147322177886963e-02
-1.247560605406761169e-02
-1.985639706254005432e-02
-3.334019856993108988e-04
2.246852964162826538e-03
2.147661894559860229e-02
-1.528460532426834106e-02
-1.301845535635948181e-02
5.926534533500671387e-03
-2.748109982348978519e-04
-4.209600389003753662e-03
-4.999276250600814819e-03
1.873972266912460327e-02
-2.789820730686187744e-02
1.517766714096069336e-02
-5.237154662609100342e-03
8.440826088190078735e-03
1.903960108757019043e-02
-5.359664559364318848e-03
-1.824312657117843628e-02
6.296858191490173340e-03
-4.802327603101730347e-03
-1.965007930994033813e-02
1.370376348495483398e-02
2.156931906938552856e-02
-2.987909829244017601e-04
1.948935538530349731e-02
2.579804137349128723e-02
1.992839202284812927e-02
2.890488877892494202e-02
-1.658770721405744553e-03
2.496132627129554749e-02
-3.823114093393087387e-04
-6.919559091329574585e-03
1.569069921970367432e-03
-8.749660337343811989e-04
-3.032003343105316162e-02
-1.472992449998855591e-02
-8.465856313705444336e-03
-1.949155330657958984e-02
-2.868573740124702454e-02
5.953572690486907959e-04
-1.930779963731765747e-02
2.275953069329261780e-02
-1.715222373604774475e-02
-2.530581504106521606e-02
2.025736495852470398e-02
7.259130477905273438e-03
-6.364822387695312500e-03
1.830111816525459290e-02
2.353600040078163147e-02
-9.943183511495590210e-03
-2.354136109352111816e-02
-1.809127628803253174e-03
1.574078574776649475e-02
2.061613649129867554e-02
-2.721555158495903015e-02
-1.845483854413032532e-02
2.278208732604980469e-02
1.818199828267097473e-02
-1.960784941911697388e-02
-2.542161568999290466e-02
8.263427764177322388e-03
-2.111733704805374146e-02
-1.470079272985458374e-02
1.332909613847732544e-02
-1.581512764096260071e-02
-1.948264241218566895e-02
1.164015382528305054e-02
6.950646638870239258e-03
1.614134758710861206e-03
1.539048925042152405e-02
-2.717844396829605103e-02
2.483889088034629822e-02
-2.182997763156890869e-03
2.723984420299530029e-02
-7.995735853910446167e-03
-1.038487255573272705e-02
2.865520864725112915e-02
4.679262638092041016e-03
1.588444411754608154e-02
2.302883937954902649e-02
-2.354606986045837402e-03
7.048822939395904541e-03
2.014680951833724976e-02
2.001483738422393799e-02
-1.274620741605758667e-02
2.401919290423393250e-02
5.769342184066772461e-03
-2.011896297335624695e-02
2.966685965657234192e-02
5.036648362874984741e-03
5.674116313457489014e-03
-2.652276307344436646e-03
-2.775616943836212158e-02
3.064735233783721924e-02
1.259353756904602051e-02
-4.198554903268814087e-03
-3.924362361431121826e-03
-6.232861429452896118e-03
-6.777919828891754150e-03
-2.560805529356002808e-02
-2.691493928432464600e-02
-3.078397363424301147e-03
-1.945813000202178955e-02
-2.980324253439903259e-02
-1.614319160580635071e-02
1.940227672457695007e-02
9.215652942657470703e-03
-7.116623222827911377e-03
6.099864840507507324e-04
-2.838140726089477539e-02
2.649094164371490479e-02
3.096345067024230957e-02
-4.745647311210632324e-03
-2.452623471617698669e-02
-3.107947111129760742e-02
2.559674903750419617e-02
3.418635576963424683e-03
-2.605821192264556885e-02
1.365744322538375854e-02
8.204907178878784180e-03
8.174557238817214966e-03
-2.492036670446395874e-02
1.988304778933525085e-02
-1.644467934966087341e-02
3.293577581644058228e-03
1.787340268492698669e-02
-2.615986391901969910e-02
1.234369352459907532e-02
-2.845963463187217712e-02
-8.941780775785446167e-03
-1.108411699533462524e-02
2.870010212063789368e-02
-1.847618818283081055e-02
2.003397792577743530e-02
1.691631972789764404e-03
6.988190114498138428e-03
-1.888623833656311035e-02
-1.148664951324462891e-02
1.508532091975212097e-02
-2.282500267028808594e-02
2.533813193440437317e-02
-2.308302372694015503e-02
-2.591189369559288025e-02
-2.983264625072479248e-03
-1.350679248571395874e-02
-2.922045066952705383e-02
-2.923855185508728027e-02
6.095997989177703857e-03
2.838299423456192017e-02
2.562793716788291931e-02
2.303291112184524536e-03
7.982008159160614014e-03
-3.572531044483184814e-03
2.608537301421165466e-02
3.015714511275291443e-02
1.010487976600416005e-04
3.077204525470733643e-02
4.230614751577377319e-03
6.209772080183029175e-03
-7.509108632802963257e-03
2.900314331054687500e-02
-1.076759770512580872e-02
-1.328388601541519165e-02
2.510567754507064819e-02
1.534409471787512302e-03
2.592544630169868469e-02
-4.786465317010879517e-03
2.113955840468406677e-02
2.964090183377265930e-02
-2.188336476683616638e-02
3.900434821844100952e-03
2.852898091077804565e-02
-1.211193302879109979e-04
1.807597652077674866e-02
-7.570341229438781738e-03
3.124612569808959961e-02
-2.897091209888458252e-03
3.091150522232055664e-02
2.352017536759376526e-02
-3.820039331912994385e-03
-1.668458431959152222e-02
-2.294506505131721497e-02
6.547622382640838623e-03
-2.253986150026321411e-02
1.244459301233291626e-03
8.436769247055053711e-03
-8.287958800792694092e-03
-1.664562895894050598e-02
2.029715105891227722e-02
9.840037673711776733e-03
-5.211722105741500854e-03
-4.157647490501403809e-03
-1.788500696420669556e-02
2.939269691705703735e-02
2.031687647104263306e-02
-1.349199563264846802e-02
1.042895391583442688e-02
-2.566330879926681519e-02
1.971300691366195679e-02
-1.601990312337875366e-02
2.468569949269294739e-02
3.403745591640472412e-03
1.155573129653930664e-02
-2.412497252225875854e-02
-1.868676394224166870e-02
1.349851489067077637e-03
1.315574720501899719e-02
-2.732009813189506531e-02
7.273543626070022583e-03
-1.609345525503158569e-02
-2.273322269320487976e-02
1.473088562488555908e-02
-1.890372484922409058e-03
1.985017955303192139e-02
1.811261102557182312e-02
-2.588927745819091797e-03
-2.751693874597549438e-02
-9.989939630031585693e-03
1.152181252837181091e-02
-5.851700901985168457e-03
-1.578259468078613281e-02
7.756821811199188232e-03
2.919275313615798950e-03
-6.019886932335793972e-04
-1.795529201626777649e-02
-3.943953663110733032e-03
1.875178888440132141e-02
-3.021703660488128662e-02
-1.295370981097221375e-02
1.101264357566833496e-02
5.519695580005645752e-03
2.644671127200126648e-02
1.321330666542053223e-03
2.275319769978523254e-02
2.965013682842254639e-02
7.696550339460372925e-03
2.775033190846443176e-02
-2.140074595808982849e-02
-4.693549126386642456e-03
-2.685109898447990417e-02
1.148727163672447205e-02
1.651477813720703125e-02
2.486790716648101807e-02
2.029673010110855103e-02
-1.315011456608772278e-02
4.723921418190002441e-03
-1.497768238186836243e-02
-2.415284514427185059e-03
-2.180850133299827576e-02
-1.042132824659347534e-02
3.620672971010208130e-03
-1.160996779799461365e-02
-6.653245538473129272e-03
1.106635108590126038e-02
1.458852365612983704e-02
1.530383527278900146e-02
-2.520754933357238770e-02
2.143835648894309998e-02
-2.058282494544982910e-02
3.650113940238952637e-03
1.522140949964523315e-02
1.717289909720420837e-02
-1.289331540465354919e-02
1.575290411710739136e-02
2.909890189766883850e-02
2.279374748468399048e-02
-1.341645792126655579e-02
-1.997885107994079590e-02
1.929134130477905273e-02
1.155664026737213135e-02
2.695763483643531799e-02
4.719175398349761963e-03
-2.234343811869621277e-02
-2.920082211494445801e-02
2.696787938475608826e-02
3.920279443264007568e-03
1.287825405597686768e-02
2.851537242531776428e-02
-9.981889277696609497e-03
9.765833616256713867e-03
2.459684386849403381e-02
6.634626537561416626e-03
-3.423946618568152189e-04
1.166926324367523193e-02
8.697237819433212280e-03
-1.618887111544609070e-02
4.893593490123748779e-03
-1.125742495059967041e-02
-1.289717480540275574e-02
1.907138898968696594e-02
4.091203212738037109e-03
9.306799620389938354e-03
2.984334528446197510e-02
1.452171802520751953e-02
-2.534358948469161987e-02
-3.016624599695205688e-02
-1.281215250492095947e-02
4.274208098649978638e-03
-2.892946079373359680e-02
-1.654839888215065002e-02
-3.107782825827598572e-02
2.018852904438972473e-02
2.370955795049667358e-02
-2.406993135809898376e-02
2.018869295716285706e-02
-7.567223161458969116e-03
-1.771532371640205383e-02
-3.122157976031303406e-02
-1.808477565646171570e-02
-9.554848074913024902e-03
-5.230396986007690430e-03
1.004019752144813538e-02
1.449196413159370422e-02
-1.749020814895629883e-02
1.139761880040168762e-02
-1.323348283767700195e-02
4.776474088430404663e-03
-2.256177365779876709e-03
-5.602743476629257202e-03
8.543644100427627563e-03
2.989083901047706604e-02
-2.832489460706710815e-02
5.349218845367431641e-04
8.812941610813140869e-03
7.259160280227661133e-03
1.953929662704467773e-03
-1.934003829956054688e-02
2.173594757914543152e-02
1.679365709424018860e-02
-6.090059876441955566e-03
-6.525970995426177979e-03
-2.744578197598457336e-02
-2.845831587910652161e-02
-5.912326276302337646e-03
-1.999031379818916321e-02
-2.914183586835861206e-02
-7.544714957475662231e-03
3.023492544889450073e-02
-8.106727153062820435e-03
-9.694404900074005127e-03
-2.711961045861244202e-02
-2.460673451423645020e-02
-2.465005964040756226e-03
-2.387572079896926880e-03
-2.176738157868385315e-02
1.595038920640945435e-02
7.658034563064575195e-03
-7.367206271737813950e-04
-6.112352013587951660e-03
1.055068895220756531e-02
2.751339599490165710e-02
4.129372537136077881e-03
7.060583680868148804e-03
2.716301754117012024e-02
3.025244548916816711e-02
2.559796348214149475e-02
7.542267441749572754e-03
2.386971563100814819e-02
5.830876529216766357e-03
5.518585443496704102e-03
-6.313730031251907349e-03
2.388850599527359009e-02
-2.549182623624801636e-03
3.973580896854400635e-03
-6.806999444961547852e-03
-3.000702708959579468e-03
-2.209896966814994812e-02
-9.443555027246475220e-03
-5.216304212808609009e-03
6.008870899677276611e-03
2.599849924445152283e-02
6.366007030010223389e-03
-2.851216495037078857e-02
-6.795257329940795898e-03
2.922658994793891907e-02
-4.970208974555134773e-04
-5.520235747098922729e-03
8.632600307464599609e-03
-2.432602271437644958e-02
2.320601046085357666e-02
-2.319984138011932373e-02
1.527829095721244812e-02
1.992605254054069519e-02
-8.445046842098236084e-03
2.251673862338066101e-02
-2.610232681035995483e-02
-4.509691789280623198e-04
-2.175397798418998718e-02
-4.752697714138776064e-04
2.125813439488410950e-02
-2.063064277172088623e-02
-1.946620270609855652e-02
-2.893783152103424072e-02
-1.814549043774604797e-02
8.475642651319503784e-03
-2.004069089889526367e-02
-1.733978133415803313e-04
-1.839566603302955627e-02
2.003572881221771240e-02
-1.091865822672843933e-02
1.063147559762001038e-02
1.683818176388740540e-02
9.485743939876556396e-03
3.821376711130142212e-03
-2.229445055127143860e-02
-5.288273096084594727e-04
-7.521405816078186035e-03
9.701248258352279663e-03
1.563253998756408691e-02
2.050082758069038391e-02
-1.211404800415039062e-02
-2.653544396162033081e-02
-1.009223237633705139e-02
1.857082918286323547e-02
2.022476494312286377e-02
-1.504658535122871399e-02
-1.817280426621437073e-02
2.029949426651000977e-02
3.054187074303627014e-02
1.398366317152976990e-02
2.854539826512336731e-02
9.667668491601943970e-03
8.878428488969802856e-03
-5.459401756525039673e-03
2.400847896933555603e-02
2.604741603136062622e-02
-3.449872136116027832e-03
-2.475630119442939758e-02
-3.058537840843200684e-04
2.526680752635002136e-02
