5.882317572832107544e-02
7.400179654359817505e-02
2.879287116229534149e-02
-8.323206752538681030e-02
-5.974253639578819275e-02
-7.345256954431533813e-02
-7.548981159925460815e-02
-3.204083442687988281e-02
4.692151769995689392e-02
8.688142895698547363e-02
-4.620879143476486206e-02
-7.638914883136749268e-02
4.032788425683975220e-02
-1.862157508730888367e-02
1.673132926225662231e-02
-2.204366773366928101e-02
-7.223229855298995972e-02
-4.395974054932594299e-02
8.701581507921218872e-02
-8.153334259986877441e-02
-2.515075169503688812e-02
-5.033781379461288452e-02
-8.705781400203704834e-02
-6.928023695945739746e-02
-1.156319119036197662e-02
-3.189457580447196960e-02
-8.628191798925399780e-02
-2.528782933950424194e-02
3.810143098235130310e-02
-8.768967352807521820e-03
-8.616202324628829956e-02
-5.227842181921005249e-02
-2.678853087127208710e-02
2.344737760722637177e-02
8.670372515916824341e-02
6.967440713196992874e-03
-3.453585505485534668e-02
-5.421764031052589417e-02
-8.463321253657341003e-03
7.887692749500274658e-02
4.926871508359909058e-02
6.202136352658271790e-02
1.795567385852336884e-02
1.319512538611888885e-02
4.799933731555938721e-02
6.051120907068252563e-02
6.406539678573608398e-02
-5.836071819067001343e-02
2.800746820867061615e-02
5.736724939197301865e-03
-8.415267802774906158e-03
6.215945631265640259e-02
-7.306471467018127441e-02
-5.494370684027671814e-02
-8.515165187418460846e-03
7.211393862962722778e-02
4.135213792324066162e-02
7.803013920783996582e-02
4.470380395650863647e-02
-2.102008648216724396e-02
6.881321966648101807e-02
6.211360171437263489e-02
-4.249402135610580444e-02
2.558667771518230438e-02
-3.553106635808944702e-02
3.303883969783782959e-02
-8.156164549291133881e-03
4.115005210041999817e-02
2.298817597329616547e-02
2.064657025039196014e-02
5.651914328336715698e-02
-6.699418276548385620e-02
3.495715558528900146e-02
2.477753721177577972e-02
-4.663452878594398499e-02
4.778647422790527344e-02
4.092435818165540695e-03
-8.685250580310821533e-02
-8.514240384101867676e-02
2.255045995116233826e-02
1.187545713037252426e-02
-6.184012070298194885e-02
4.679936543107032776e-02
6.333222240209579468e-02
-2.826542593538761139e-02
-3.331216424703598022e-02
-2.186321280896663666e-02
3.373689576983451843e-02
5.459354817867279053e-02
2.598656713962554932e-02
-5.622876435518264771e-02
1.881584897637367249e-02
-4.782122373580932617e-02
-8.567761629819869995e-02
-3.696133196353912354e-02
8.761569857597351074e-02
-3.862937446683645248e-03
8.109783381223678589e-02
-2.828124910593032837e-02
1.691554300487041473e-02
-7.604332268238067627e-02
-5.139269679784774780e-02
-1.716795004904270172e-02
-4.541851952672004700e-02
8.612541854381561279e-02
-7.103287428617477417e-02
1.179364696145057678e-02
5.931890569627285004e-03
3.180407360196113586e-02
-5.503556504845619202e-02
3.981884568929672241e-03
4.560717940330505371e-02
-1.970652863383293152e-02
-7.148834317922592163e-02
-7.690494507551193237e-02
4.836931452155113220e-02
-1.217141188681125641e-02
3.434269223362207413e-03
-3.021422028541564941e-02
-6.959364563226699829e-02
-6.558616645634174347e-03
-7.377202808856964111e-02
-9.026684798300266266e-03
-1.891273260116577148e-02
5.885060131549835205e-02
-5.335574969649314880e-02
2.235742285847663879e-02
-7.476494461297988892e-02
3.529147012159228325e-03
-5.860213562846183777e-02
8.692769333720207214e-03
-3.014655411243438721e-02
1.262137945741415024e-02
1.618493814021348953e-03
6.391625106334686279e-02
-7.006605714559555054e-02
3.792676702141761780e-02
-7.441185414791107178e-02
5.170432105660438538e-02
-3.514811024069786072e-02
7.283641397953033447e-02
-3.512451797723770142e-02
6.274509429931640625e-02
-2.526015741750597954e-03
5.001287162303924561e-02
1.060520112514495850e-02
-9.851024486124515533e-03
1.806726865470409393e-02
8.462659269571304321e-02
-3.469525277614593506e-02
1.334827952086925507e-02
7.927969843149185181e-02
-2.745803631842136383e-02
2.814714983105659485e-02
6.394118070602416992e-02
-7.448635250329971313e-02
7.904630899429321289e-02
7.111307233572006226e-02
-2.857267484068870544e-02
2.895387262105941772e-02
1.749915070831775665e-02
5.769084393978118896e-02
-4.428797960281372070e-02
-3.420819342136383057e-02
1.713027991354465485e-02
-3.690745681524276733e-02
4.383954033255577087e-02
-4.597121104598045349e-02
-3.311833832412958145e-03
-1.856442913413047791e-02
8.682150393724441528e-02
2.199359051883220673e-02
1.471176370978355408e-02
-2.778260596096515656e-02
-6.003484874963760376e-02
-4.060508310794830322e-02
-6.728290021419525146e-02
8.661586791276931763e-02
1.402547117322683334e-02
3.464768826961517334e-02
2.332623675465583801e-02
-6.932080537080764771e-02
-2.937264041975140572e-03
-1.211930532008409500e-02
3.014759719371795654e-02
1.508314628154039383e-02
-6.304023414850234985e-02
3.831204399466514587e-02
8.016136288642883301e-02
-5.167343840003013611e-02
-7.451768964529037476e-02
-2.379277534782886505e-02
-2.843460254371166229e-02
7.635095715522766113e-02
-8.382107317447662354e-02
8.443577587604522705e-02
5.660498514771461487e-03
6.486172974109649658e-02
8.152204751968383789e-02
-2.725871652364730835e-02
1.638156361877918243e-02
-2.395028248429298401e-02
-4.124200716614723206e-02
-3.128572180867195129e-02
6.302513182163238525e-02
4.025201871991157532e-02
-2.650359272956848145e-02
-3.935143724083900452e-02
2.168934792280197144e-02
-4.201449453830718994e-02
5.599891394376754761e-02
7.936391979455947876e-03
-4.447789490222930908e-02
7.915835827589035034e-02
-1.875027228379622102e-04
2.109732246026396751e-03
-3.165707737207412720e-02
-5.182340368628501892e-02
1.150961127132177353e-02
7.900360226631164551e-02
-2.806725725531578064e-02
8.318477123975753784e-02
6.441887468099594116e-02
3.762793540954589844e-02
-2.951442077755928040e-02
-2.460479736328125000e-02
-7.946112751960754395e-02
2.685043960809707642e-02
3.748542815446853638e-02
-4.279671702533960342e-03
-6.090585142374038696e-02
-2.909553796052932739e-02
8.103962242603302002e-02
-5.307184904813766479e-02
-3.990535065531730652e-02
-2.383095584809780121e-02
3.177592158317565918e-02
3.806349262595176697e-02
-6.406971253454685211e-03
-2.094137854874134064e-02
-7.335235364735126495e-03
-6.899914145469665527e-02
6.441655755043029785e-02
-4.970934242010116577e-02
-2.208570018410682678e-03
-7.187296450138092041e-02
3.410308063030242920e-02
2.181498706340789795e-02
-1.664942689239978790e-02
-2.107368968427181244e-02
-7.804111391305923462e-02
8.421337604522705078e-02
2.530165575444698334e-02
-5.549191962927579880e-03
-8.705325424671173096e-03
-3.097683750092983246e-02
5.067681148648262024e-02
-7.855536043643951416e-02
3.260285034775733948e-02
2.358029596507549286e-02
5.563231185078620911e-02
6.874930858612060547e-02
6.929951719939708710e-03
-4.434505850076675415e-02
4.596254974603652954e-02
7.757193595170974731e-02
8.148326724767684937e-02
7.017863541841506958e-02
-2.015521191060543060e-02
8.212452381849288940e-02
-2.720338851213455200e-02
3.055042354390025139e-03
-4.213570791762322187e-04
-5.630595609545707703e-02
-5.177538096904754639e-02
-7.321646809577941895e-02
6.898519396781921387e-02
7.617836445569992065e-02
6.726384162902832031e-02
6.817511469125747681e-02
5.614384263753890991e-02
-8.637464046478271484e-02
-5.321822315454483032e-02
-4.931672010570764542e-03
6.588312238454818726e-02
1.285673025995492935e-02
-4.857112467288970947e-02
-1.598928496241569519e-02
2.348542399704456329e-02
-2.197562903165817261e-02
5.421223491430282593e-02
2.605939656496047974e-02
-3.139371052384376526e-02
-8.484032005071640015e-02
-7.767795026302337646e-02
-5.060055851936340332e-02
-2.121759951114654541e-02
-3.207286447286605835e-02
-7.068605720996856689e-02
-7.802058011293411255e-02
1.222368143498897552e-02
8.823958784341812134e-02
4.916918650269508362e-02
8.689415454864501953e-02
-7.667534798383712769e-02
3.541754931211471558e-02
7.770220935344696045e-02
-6.182359904050827026e-02
1.055046264082193375e-02
-4.184808954596519470e-02
5.320420861244201660e-02
6.850259006023406982e-02
-2.013318054378032684e-02
5.815199762582778931e-02
5.233358219265937805e-02
8.322466164827346802e-02
1.903576031327247620e-02
-1.415150123648345470e-03
8.727498352527618408e-02
-4.573141783475875854e-02
7.462135050445795059e-03
8.501044660806655884e-02
8.311089873313903809e-02
-6.146847829222679138e-02
-3.680452331900596619e-02
-5.216682702302932739e-02
-1.541965454816818237e-02
-1.495568268001079559e-02
-6.420484185218811035e-02
7.442279160022735596e-02
-1.737180352210998535e-02
-2.294793725013732910e-03
7.332179695367813110e-02
5.486964434385299683e-02
-5.910764634609222412e-02
-8.057267963886260986e-02
-6.125241518020629883e-02
-4.324628040194511414e-02
4.478537663817405701e-02
-4.555391520261764526e-02
-3.092305036261677742e-03
1.074310764670372009e-02
2.876367419958114624e-02
5.861489474773406982e-02
-4.730690643191337585e-02
5.774830281734466553e-02
-6.582216359674930573e-03
3.559064120054244995e-02
3.383062779903411865e-02
-8.461961895227432251e-02
-1.427551964297890663e-03
-6.927298009395599365e-02
3.030960448086261749e-02
-1.935398019850254059e-02
-7.378575950860977173e-02
-3.002217970788478851e-02
-5.125469714403152466e-02
-3.595944866538047791e-02
-3.385504707694053650e-02
1.143794273957610130e-03
4.017363861203193665e-02
-4.484903067350387573e-02
-3.180430456995964050e-02
-1.826713420450687408e-02
-2.979639917612075806e-02
-5.703142378479242325e-03
6.378440558910369873e-02
4.200836271047592163e-02
4.491168260574340820e-02
-5.799166113138198853e-02
3.778145462274551392e-02
4.540885612368583679e-02
8.491159230470657349e-02
-8.185806870460510254e-02
3.700500726699829102e-02
3.716928511857986450e-02
1.907516457140445709e-02
1.702868565917015076e-02
-5.079434812068939209e-02
-8.139303326606750488e-02
-8.260613679885864258e-02
4.384382441639900208e-02
-2.751010097563266754e-02
-3.952684253454208374e-02
3.109721699729561806e-03
-6.426434498280286789e-03
-3.522562980651855469e-02
-5.282458290457725525e-02
3.815755946561694145e-03
1.554177794605493546e-02
-8.582837879657745361e-02
2.457228116691112518e-02
5.277611315250396729e-02
-1.796846394427120686e-03
3.767129406332969666e-02
5.253560468554496765e-02
3.321055695414543152e-02
-2.747296914458274841e-02
4.100541770458221436e-02
-2.305013127624988556e-02
8.686666935682296753e-02
-3.106452291831374168e-03
3.581964597105979919e-02
3.080030530691146851e-02
9.282123210141435266e-05
6.282460689544677734e-02
3.214238584041595459e-02
-1.479522418230772018e-02
1.932892599143087864e-03
8.673438429832458496e-02
5.676815658807754517e-02
-6.998930871486663818e-02
-6.373466551303863525e-02
-1.710866019129753113e-02
-4.343408718705177307e-02
-9.525621309876441956e-03
-8.056942373514175415e-03
-4.844703152775764465e-02
-1.409688685089349747e-02
-2.313333004713058472e-02
9.754461236298084259e-03
-4.499991890043020248e-03
8.054593205451965332e-02
3.549616038799285889e-02
-4.119638353586196899e-02
6.750070303678512573e-02
3.728973865509033203e-02
-5.630732327699661255e-02
3.065821528434753418e-02
3.347117081284523010e-02
1.869339123368263245e-02
-5.611250177025794983e-02
-2.826702082529664040e-03
-8.494804799556732178e-02
-8.460268378257751465e-02
5.008761957287788391e-02
3.630457818508148193e-02
3.387105092406272888e-02
1.551390532404184341e-02
-2.043778821825981140e-02
6.235276162624359131e-02
2.184746041893959045e-02
-3.199551627039909363e-02
2.741582877933979034e-02
-5.138758569955825806e-02
2.407483197748661041e-02
-4.246085137128829956e-02
5.798747763037681580e-02
-8.483144640922546387e-02
6.755656749010086060e-02
-7.096765190362930298e-02
-7.347752898931503296e-02
6.114444509148597717e-02
2.198693528771400452e-02
5.232054367661476135e-02
2.859647385776042938e-02
-6.454938650131225586e-02
1.694715209305286407e-02
2.655608206987380981e-02
3.932161722332239151e-03
-3.482754155993461609e-02
-6.195797398686408997e-02
-7.210771739482879639e-02
6.645051389932632446e-02
7.183238118886947632e-02
-4.384457692503929138e-02
-1.145484950393438339e-02
6.366655230522155762e-02
-2.248825132846832275e-02
-8.603061735630035400e-02
5.052027851343154907e-02
-6.538861989974975586e-02
2.746937610208988190e-02
8.227336406707763672e-02
-8.818848431110382080e-02
7.275705784559249878e-02
-6.753437966108322144e-02
1.876335591077804565e-02
3.701376169919967651e-02
2.173695154488086700e-02
8.447831869125366211e-02
-6.559006124734878540e-02
-3.447455819696187973e-03
-1.178685808554291725e-03
-2.135129831731319427e-02
-9.093860164284706116e-03
2.488041110336780548e-02
5.827028304338455200e-02
-3.159885108470916748e-02
-6.651188433170318604e-02
-8.532848209142684937e-02
2.866957150399684906e-02
-7.598776370286941528e-02
-4.349856078624725342e-02
-7.623732089996337891e-03
-8.933838456869125366e-03
3.528835624456405640e-02
5.928937345743179321e-02
-3.530485928058624268e-02
-2.293094759806990623e-03
-5.795144289731979370e-02
1.098080445080995560e-02
5.230969563126564026e-02
-5.804474279284477234e-02
-4.572135582566261292e-02
-4.335764423012733459e-02
-1.738819852471351624e-02
-3.176230937242507935e-02
-1.564784906804561615e-02
8.174735307693481445e-02
2.236997708678245544e-02
-7.591435313224792480e-02
7.058997452259063721e-02
7.517229765653610229e-02
-6.623063981533050537e-02
-9.612695313990116119e-03
6.530961394309997559e-02
-2.574682421982288361e-02
7.616730779409408569e-02
7.716149091720581055e-02
-3.666471317410469055e-02
3.511201217770576477e-02
-1.971546374261379242e-02
-2.152749337255954742e-02
6.768295913934707642e-02
7.539290189743041992e-02
-8.408883213996887207e-02
-2.254929021000862122e-02
8.119749277830123901e-02
-3.352442383766174316e-02
3.242385387420654297e-02
7.415396720170974731e-02
6.600338499993085861e-03
7.346750050783157349e-02
-6.365754641592502594e-03
1.880148798227310181e-02
5.694062262773513794e-02
-8.671864867210388184e-02
6.127461418509483337e-02
6.471407413482666016e-02
1.834961026906967163e-02
-7.320846617221832275e-02
4.781059548258781433e-02
-7.814830541610717773e-02
-1.684389263391494751e-02
-2.843248471617698669e-02
-3.619003575295209885e-03
7.720791548490524292e-02
-5.344935879111289978e-02
1.814657822251319885e-02
5.710151791572570801e-02
5.028975429013371468e-04
-2.072824537754058838e-02
6.834824383258819580e-02
5.904888361692428589e-02
1.607340574264526367e-02
1.077344920486211777e-02
1.441480033099651337e-02
-5.130079388618469238e-02
-4.764823243021965027e-02
-7.492056116461753845e-03
-2.345348708331584930e-02
6.622527539730072021e-02
8.058655261993408203e-02
5.903129652142524719e-02
7.403784990310668945e-02
1.868043094873428345e-02
-7.123302668333053589e-02
9.152956306934356689e-03
5.278208851814270020e-02
-6.525956839323043823e-02
-8.273409307003021240e-02
5.669685453176498413e-02
8.820292353630065918e-02
-4.419856891036033630e-02
-8.593750745058059692e-02
-1.331470906734466553e-02
6.008194386959075928e-02
-3.196069505065679550e-03
-7.912260293960571289e-02
-6.756824254989624023e-02
-7.928081601858139038e-02
5.809902213513851166e-03
5.694134905934333801e-02
7.332975417375564575e-02
-6.005525588989257812e-02
2.994924411177635193e-02
7.678327709436416626e-02
8.800087869167327881e-02
-4.936689883470535278e-02
-7.626190781593322754e-02
-6.791970133781433105e-02
-3.359201923012733459e-02
-7.059818506240844727e-02
-8.506949245929718018e-02
-6.538133323192596436e-02
8.211419731378555298e-02
-6.908772140741348267e-02
1.909774355590343475e-02
-4.927990585565567017e-02
-6.809777021408081055e-02
7.309029251337051392e-02
1.380169391632080078e-02
-1.634050160646438599e-02
-7.815425843000411987e-02
-3.587212041020393372e-02
-5.692299455404281616e-02
3.459114208817481995e-02
6.918902695178985596e-02
-4.432776477187871933e-03
-8.355868607759475708e-02
6.673507392406463623e-02
-4.964054748415946960e-02
-1.571217551827430725e-02
8.475714176893234253e-02
-6.354548037052154541e-03
-4.689851403236389160e-02
5.396548658609390259e-02
9.056033566594123840e-03
-6.280934810638427734e-02
3.139600856229662895e-03
-1.133849564939737320e-02
-5.829769000411033630e-02
5.508263036608695984e-02
3.746902570128440857e-02
-6.333284825086593628e-02
3.534767776727676392e-02
-4.077294468879699707e-02
3.194395080208778381e-02
1.546991290524601936e-03
-4.714468494057655334e-02
-6.922515481710433960e-02
8.773602545261383057e-02
4.732979461550712585e-02
-7.746249437332153320e-02
3.244495019316673279e-02
2.579844370484352112e-02
-3.620490059256553650e-02
8.294518291950225830e-02
-1.784260384738445282e-02
-1.315304171293973923e-02
2.434262074530124664e-02
-3.184492513537406921e-02
1.657345704734325409e-02
-4.208328947424888611e-02
4.954554885625839233e-02
-8.276678621768951416e-03
-8.287674188613891602e-02
5.521599575877189636e-02
8.461776375770568848e-02
3.332272171974182129e-02
6.553813815116882324e-02
-8.615057170391082764e-02
-7.369434088468551636e-02
-2.973921597003936768e-02
6.138081476092338562e-02
3.702295944094657898e-02
-1.653849706053733826e-02
4.304192215204238892e-02
-9.310782887041568756e-03
6.874554604291915894e-02
-2.088071592152118683e-02
-3.356602415442466736e-02
-7.038308680057525635e-02
4.379455745220184326e-02
-2.605345286428928375e-02
8.473277091979980469e-03
6.785992532968521118e-02
-2.606076747179031372e-02
5.990402027964591980e-02
-8.713066577911376953e-02
3.813093528151512146e-03
-3.292512893676757812e-02
-4.747964814305305481e-02
1.267454866319894791e-02
3.599669411778450012e-02
-5.424670130014419556e-02
-3.622077032923698425e-02
-8.123896270990371704e-02
8.009126782417297363e-02
-1.350326836109161377e-02
8.387459814548492432e-02
-3.544383496046066284e-02
-6.233236566185951233e-02
7.219506055116653442e-02
6.001489982008934021e-02
-2.979486063122749329e-02
-4.102304577827453613e-02
-5.660133436322212219e-02
-3.587071970105171204e-02
-6.365836411714553833e-02
6.966306269168853760e-02
7.355614006519317627e-02
3.481835499405860901e-02
-8.140696585178375244e-02
2.602440305054187775e-02
5.920359119772911072e-02
-1.525312103331089020e-02
-4.629759117960929871e-03
3.175925090909004211e-02
7.462777942419052124e-02
5.122249480336904526e-03
1.414730586111545563e-02
-5.835596844553947449e-02
-5.910770967602729797e-02
8.021259307861328125e-02
2.213990688323974609e-02
-4.782802239060401917e-02
-5.723653733730316162e-02
-5.720410030335187912e-03
5.042058974504470825e-02
3.325777128338813782e-02
2.492143027484416962e-02
4.362638294696807861e-02
2.462343685328960419e-02
7.336226850748062134e-02
2.601044252514839172e-02
2.388508245348930359e-02
-3.377393260598182678e-02
-8.237678557634353638e-02
-5.951203033328056335e-02
6.253185868263244629e-02
1.038077846169471741e-02
-5.778400227427482605e-02
-7.359846681356430054e-02
-6.875984370708465576e-02
5.732084065675735474e-02
5.314795300364494324e-02
1.740620657801628113e-02
-3.032434172928333282e-02
-4.147941991686820984e-02
5.214456468820571899e-02
8.494526147842407227e-02
-4.276059940457344055e-02
4.816383868455886841e-02
3.025749698281288147e-02
2.928550541400909424e-02
-4.151700437068939209e-02
2.707478124648332596e-04
-4.273192957043647766e-02
7.133290916681289673e-02
-1.845960505306720734e-02
-4.003394022583961487e-02
3.356545418500900269e-02
6.057428196072578430e-02
1.433411147445440292e-02
3.489486128091812134e-02
4.472848027944564819e-02
1.775854267179965973e-02
7.606384344398975372e-03
2.468043193221092224e-02
6.959773600101470947e-02
-7.679296657443046570e-03
-2.114671096205711365e-02
1.481528952717781067e-02
2.321191318333148956e-02
-5.037393420934677124e-02
7.723064045421779156e-04
2.619577944278717041e-02
-9.827727451920509338e-03
-1.284010522067546844e-02
-8.174402639269828796e-03
8.033476024866104126e-02
4.874015226960182190e-02
-8.281943947076797485e-02
2.738189324736595154e-02
-5.374578759074211121e-02
7.605258375406265259e-02
4.324024170637130737e-02
8.319491893053054810e-02
-4.463159292936325073e-02
1.828091032803058624e-02
8.575780689716339111e-02
1.458266843110322952e-02
-6.018871068954467773e-02
2.082042768597602844e-02
-2.829772606492042542e-02
-5.962001159787178040e-02
-2.911691740155220032e-02
8.613553643226623535e-02
-4.910018667578697205e-02
5.424698349088430405e-03
3.188657760620117188e-02
-4.139982163906097412e-03
7.358823716640472412e-02
4.607609286904335022e-02
7.962757349014282227e-02
-7.740643620491027832e-02
9.703637100756168365e-03
1.660769619047641754e-02
2.509019523859024048e-02
-5.396779626607894897e-02
-7.651633769273757935e-02
-8.648108690977096558e-02
-7.427401095628738403e-02
3.888081386685371399e-02
-3.837218508124351501e-02
-2.109677763655781746e-03
8.096046000719070435e-02
-1.891214400529861450e-02
-2.252084016799926758e-02
3.244115039706230164e-03
-1.973906531929969788e-02
6.833452731370925903e-02
-4.882908239960670471e-02
6.074907630681991577e-02
1.767829246819019318e-02
3.802461177110671997e-02
-4.285638034343719482e-02
5.335436016321182251e-02
7.662612199783325195e-02
-7.113998383283615112e-02
-9.952365653589367867e-04
-8.459896594285964966e-02
7.468795776367187500e-02
-8.048247545957565308e-02
4.128197208046913147e-02
-4.015695676207542419e-02
1.727830991148948669e-02
3.192156925797462463e-02
2.746346592903137207e-02
5.444753170013427734e-02
6.340456008911132812e-02
-4.989166557788848877e-02
-1.239742804318666458e-02
7.447168976068496704e-02
1.527612679637968540e-03
-6.794838607311248779e-02
5.355597287416458130e-02
1.629484072327613831e-02
-4.609753564000129700e-02
-1.169238053262233734e-02
5.688468366861343384e-02
-3.419832140207290649e-02
-5.797881633043289185e-02
-7.255972921848297119e-02
-8.554269373416900635e-02
9.267867542803287506e-03
7.954808324575424194e-02
-8.823281526565551758e-02
-6.238954514265060425e-02
-3.808329254388809204e-02
1.016893144696950912e-02
-4.692396614700555801e-03
6.922627985477447510e-02
-1.050104014575481415e-02
-7.181160151958465576e-02
-1.800639741122722626e-02
-8.337235450744628906e-02
5.644819140434265137e-02
-6.584736704826354980e-02
-8.163832128047943115e-02
-6.760349124670028687e-02
-7.062412053346633911e-02
3.247251361608505249e-02
-6.762580480426549911e-03
1.404284685850143433e-02
-5.655685439705848694e-02
-3.522953717038035393e-03
3.828576579689979553e-02
1.517257746309041977e-02
5.785004794597625732e-02
3.689515218138694763e-02
1.145492657087743282e-03
-7.434186339378356934e-02
-5.841676518321037292e-02
3.234733641147613525e-02
-3.825632482767105103e-02
-5.299260094761848450e-02
-8.788355439901351929e-02
6.147035583853721619e-02
-2.244271151721477509e-02
-8.270348608493804932e-02
-6.723409146070480347e-02
-7.563091814517974854e-02
-8.706663735210895538e-03
-5.397477000951766968e-02
-1.607912778854370117e-02
8.286654949188232422e-02
8.725427091121673584e-02
7.359446585178375244e-02
-8.675615489482879639e-02
-6.117732822895050049e-02
-8.402758836746215820e-02
4.338143393397331238e-02
-6.962461024522781372e-02
3.341739252209663391e-02
4.841034486889839172e-02
-4.415901377797126770e-02
-8.478927612304687500e-02
-3.332712454721331596e-03
2.200709283351898193e-02
6.242536474019289017e-03
5.124760791659355164e-02
-5.968348681926727295e-02
-6.924068182706832886e-02
4.683369770646095276e-03
1.229559350758790970e-02
5.941666662693023682e-02
-4.356201365590095520e-02
4.088909178972244263e-02
-4.231054708361625671e-02
-4.423771053552627563e-02
-7.132434099912643433e-02
-7.395043037831783295e-03
3.144823759794235229e-02
6.719876825809478760e-02
-2.700607478618621826e-02
-7.447274029254913330e-02
1.851402595639228821e-02
3.022849746048450470e-02
8.135924488306045532e-02
-4.709191620349884033e-02
-4.130642861127853394e-02
-8.300513029098510742e-02
-8.649709075689315796e-02
-5.037553608417510986e-02
4.607446864247322083e-02
-8.795129507780075073e-02
-2.797861583530902863e-02
-5.729646980762481689e-02
8.409887552261352539e-03
-6.587264686822891235e-02
4.323187284171581268e-03
-5.882575735449790955e-02
-8.373887091875076294e-02
5.706578027456998825e-03
7.011034339666366577e-02
-7.573337852954864502e-02
-7.368686050176620483e-02
-4.575131833553314209e-02
-4.041363671422004700e-02
3.060451149940490723e-02
3.186488151550292969e-02
6.927618384361267090e-02
8.554881811141967773e-02
3.623861819505691528e-02
5.883928760886192322e-02
-2.052029967308044434e-02
1.653409190475940704e-02
-7.856640219688415527e-02
6.310724467039108276e-02
6.339607387781143188e-02
7.444307953119277954e-02
-6.873257458209991455e-02
-1.966421306133270264e-02
-7.745787501335144043e-02
5.644185096025466919e-02
-3.865698352456092834e-02
-1.207786146551370621e-02
-2.518432913348078728e-03
4.541485011577606201e-02
2.036141604185104370e-02
8.038560859858989716e-03
8.234647661447525024e-02
5.553787201642990112e-02
-3.997980430722236633e-02
-3.080988302826881409e-02
-4.655367136001586914e-02
-5.021252110600471497e-02
-8.975782431662082672e-03
3.513353690505027771e-02
-3.865464404225349426e-02
-2.987758442759513855e-02
-7.016256451606750488e-02
-8.537501841783523560e-02
2.584796771407127380e-02
8.234176039695739746e-02
-6.450391560792922974e-02
7.011271268129348755e-02
-7.827037572860717773e-02
-2.578473463654518127e-02
2.019298635423183441e-02
-1.529661938548088074e-03
1.083882618695497513e-02
-4.976477473974227905e-02
-3.624111646786332130e-03
-6.679029017686843872e-02
-8.680550009012222290e-02
6.398843973875045776e-02
-1.800535432994365692e-02
7.465082406997680664e-02
-8.206409215927124023e-02
8.467215299606323242e-02
-8.149337768554687500e-02
6.233147345483303070e-03
-4.590754956007003784e-02
-6.316982954740524292e-02
2.983069419860839844e-02
-1.928406953811645508e-02
4.858612641692161560e-02
-4.338985309004783630e-02
4.771216958761215210e-02
5.921769142150878906e-02
-8.187603950500488281e-02
-4.843194503337144852e-03
-4.695525392889976501e-02
4.033005796372890472e-03
-7.675313949584960938e-02
-2.119798772037029266e-02
-7.168636471033096313e-02
7.557280361652374268e-02
4.352033883333206177e-02
2.410161541774868965e-03
-4.278850927948951721e-02
-5.867023393511772156e-02
-8.341322839260101318e-02
1.542712212540209293e-03
6.738547235727310181e-02
3.038328327238559723e-02
5.422130972146987915e-02
-4.108838364481925964e-02
-5.265150591731071472e-02
5.092902854084968567e-02
-6.271079182624816895e-02
2.782014384865760803e-02
-7.976546883583068848e-02
4.284805431962013245e-02
6.998113542795181274e-02
3.009335510432720184e-02
-5.629610270261764526e-02
8.134770393371582031e-02
-8.500063419342041016e-02
3.348089987412095070e-03
