2.359978482127189636e-02
5.409643054008483887e-03
1.877593249082565308e-02
-4.782911390066146851e-03
-2.865198999643325806e-02
1.495647302363067865e-04
7.771167904138565063e-03
-2.102616429328918457e-02
-5.528345704078674316e-03
7.888834923505783081e-03
-3.458896535448729992e-04
-4.180260002613067627e-03
-2.593442797660827637e-03
1.832348108291625977e-02
1.846258714795112610e-02
-1.443841680884361267e-02
3.288920852355659008e-04
5.712661892175674438e-03
-2.269311249256134033e-02
1.651129499077796936e-02
-2.432696893811225891e-02
-2.861157804727554321e-02
3.117858991026878357e-02
6.089664995670318604e-03
7.272470742464065552e-03
1.429865509271621704e-02
1.782552897930145264e-02
1.730905845761299133e-02
-2.687124535441398621e-02
2.916780486702919006e-02
-3.618605434894561768e-03
2.111776173114776611e-02
1.294751465320587158e-02
1.350243389606475830e-02
-4.987280815839767456e-03
-1.342501491308212280e-02
2.573331817984580994e-02
-1.024029403924942017e-02
-1.641526818275451660e-02
1.177966222167015076e-02
-5.788179114460945129e-03
1.662449538707733154e-02
1.242552325129508972e-02
1.404653117060661316e-02
2.179576456546783447e-02
-2.156919613480567932e-02
1.825150847434997559e-02
1.153128221631050110e-02
1.486592739820480347e-02
-5.366750061511993408e-03
-2.160404622554779053e-02
2.084898576140403748e-02
5.735829472541809082e-03
-2.407557889819145203e-02
-1.534467190504074097e-02
-1.316376146860420704e-03
-3.110850229859352112e-02
2.308687567710876465e-02
-1.750615984201431274e-02
-8.084857836365699768e-04
3.023031353950500488e-02
-3.077449277043342590e-02
-2.246635407209396362e-02
2.938633784651756287e-02
1.143735647201538086e-02
-1.035276055335998535e-02
2.552834153175354004e-02
2.323377877473831177e-02
-3.015463799238204956e-02
-4.779942333698272705e-03
3.009420633316040039e-02
1.198228076100349426e-02
1.584753766655921936e-02
2.001940086483955383e-02
-1.990467682480812073e-02
5.846697837114334106e-03
-2.074754610657691956e-02
-2.914649248123168945e-02
3.566794563084840775e-03
2.557467296719551086e-02
-1.292306929826736450e-02
-1.974353290279395878e-05
1.953372731804847717e-02
-1.687312871217727661e-02
-1.705988869071006775e-02
2.799304947257041931e-02
1.404920127242803574e-03
2.028406038880348206e-02
5.985479801893234253e-03
1.188864186406135559e-02
1.802713796496391296e-02
2.946018800139427185e-02
7.102366536855697632e-03
2.691742777824401855e-02
-1.055223867297172546e-02
-2.153242379426956177e-02
-1.740832231007516384e-03
2.509877830743789673e-02
-2.368541061878204346e-02
-9.512122720479965210e-03
-1.048500090837478638e-02
2.219359204173088074e-02
-2.165695279836654663e-02
2.883038297295570374e-02
5.606531631201505661e-04
6.758294999599456787e-03
-1.441112533211708069e-02
-1.812700415030121803e-03
-7.908400148153305054e-03
1.400384306907653809e-02
1.115508377552032471e-02
-2.867669612169265747e-02
-3.121059760451316833e-02
-9.433545055799186230e-04
7.360041141510009766e-03
5.001373589038848877e-03
-2.014659345149993896e-03
-3.208823502063751221e-03
2.225936576724052429e-02
2.040396630764007568e-02
5.062935408204793930e-03
-2.910137549042701721e-02
1.040219515562057495e-02
-2.217170223593711853e-02
-1.986593380570411682e-02
-3.237001597881317139e-03
7.485442794859409332e-03
-1.952496170997619629e-02
5.313769634085474536e-06
1.230340823531150818e-02
2.286328934133052826e-03
-1.841825991868972778e-02
-1.316380873322486877e-02
-1.985522732138633728e-02
-2.991966158151626587e-02
-2.199222147464752197e-02
1.069635152816772461e-02
-2.184365317225456238e-02
1.957817221409641206e-05
-1.228947890922427177e-03
-8.788764476776123047e-03
-2.639885246753692627e-02
2.680573239922523499e-02
1.097813248634338379e-02
-5.528166890144348145e-03
5.102600902318954468e-03
-8.758373558521270752e-03
1.374606415629386902e-02
6.169918924570083618e-03
3.002976626157760620e-02
-1.523650065064430237e-02
-5.447451025247573853e-03
-2.027463167905807495e-02
-3.652617335319519043e-03
1.477375999093055725e-02
1.144330576062202454e-02
-2.889951318502426147e-02
-6.079338490962982178e-03
2.250972762703895569e-02
-2.006721496582031250e-02
2.779965102672576904e-02
-1.511818170547485352e-02
1.627579680643975735e-03
-2.776636555790901184e-02
-2.692070603370666504e-02
-6.259256624616682529e-04
7.241114974021911621e-03
3.012212738394737244e-02
-2.283681556582450867e-02
5.351960659027099609e-03
-6.008714437484741211e-03
2.371546626091003418e-02
8.081685751676559448e-03
-1.537073031067848206e-02
4.944931715726852417e-03
9.468749165534973145e-03
2.979939803481101990e-02
-1.985641941428184509e-02
9.314823895692825317e-03
2.665169164538383484e-02
2.721234783530235291e-02
-1.851857081055641174e-02
-3.571808920241892338e-04
-2.661330252885818481e-02
1.407007873058319092e-02
-1.404161751270294189e-02
-2.007816731929779053e-02
2.005039900541305542e-02
-2.033390477299690247e-02
-1.759030297398567200e-02
2.882926911115646362e-02
-3.828898072242736816e-03
-3.028619661927223206e-02
2.968901023268699646e-02
-3.271014662459492683e-03
-1.032502949237823486e-02
-3.035035356879234314e-02
-1.901360601186752319e-02
2.266571298241615295e-02
-2.560063451528549194e-02
-1.600486430106684566e-04
1.122725009918212891e-02
-8.680440485477447510e-03
-1.250583794899284840e-03
-2.663996815681457520e-02
1.421812176704406738e-02
2.605243772268295288e-02
-1.654604449868202209e-03
-7.697200868278741837e-03
-3.955800086259841919e-03
-2.805225923657417297e-02
-7.492015603929758072e-03
4.757523536682128906e-03
8.546996861696243286e-03
2.619056776165962219e-02
-8.821237832307815552e-03
-1.380221545696258545e-02
-2.884876355528831482e-02
-1.182064041495323181e-02
2.423208206892013550e-02
-1.204242929816246033e-03
-2.109840512275695801e-02
-1.829667761921882629e-02
8.730947971343994141e-03
-1.605568081140518188e-02
-1.510460395365953445e-03
-3.100563958287239075e-02
-2.179732546210289001e-02
-8.650895208120346069e-03
1.472570747137069702e-02
3.481097519397735596e-03
2.445036172866821289e-02
-2.347211912274360657e-02
-2.075045835226774216e-03
1.043090596795082092e-02
2.347757667303085327e-02
2.027930319309234619e-02
1.083636656403541565e-02
1.820794190280139446e-03
-2.733620582148432732e-03
-7.351043750531971455e-04
1.953733339905738831e-02
2.824834361672401428e-02
2.026607096195220947e-02
3.014604374766349792e-02
2.302509546279907227e-02
1.257235556840896606e-02
1.253914833068847656e-02
1.764370128512382507e-02
-2.229543402791023254e-02
-1.481152698397636414e-02
1.512931659817695618e-02
4.628684371709823608e-03
5.444526672363281250e-03
-1.275630667805671692e-03
-1.924776285886764526e-02
3.070081770420074463e-02
-2.147759497165679932e-02
1.105897477827966213e-03
-2.978226915001869202e-02
-2.562128379940986633e-02
3.203198779374361038e-03
2.643808349967002869e-02
2.912271022796630859e-02
1.484930142760276794e-02
-2.228228375315666199e-02
-1.797866821289062500e-02
1.270008855499327183e-03
-3.005846217274665833e-02
2.912677824497222900e-02
-1.705213566310703754e-03
2.672228729352355003e-03
2.611809968948364258e-02
8.314695209264755249e-03
-1.510864868760108948e-02
-3.060628427192568779e-03
2.038097754120826721e-02
5.774546414613723755e-03
-1.646658033132553101e-02
-1.272862404584884644e-02
2.144529670476913452e-02
-1.298658782616257668e-03
1.934928074479103088e-02
2.337884157896041870e-02
-1.021210849285125732e-02
2.101785689592361450e-02
-1.498443633317947388e-02
-2.691493183374404907e-02
2.942435815930366516e-02
-2.649165317416191101e-02
1.024711877107620239e-02
-6.828993558883666992e-03
2.608290314674377441e-02
-3.555946052074432373e-03
1.075770333409309387e-02
1.104861125349998474e-02
8.159425109624862671e-03
-1.660281792283058167e-02
-1.741776615381240845e-02
-1.067609712481498718e-02
-1.474939286708831787e-02
-8.485719561576843262e-03
-2.454100176692008972e-02
-1.554390043020248413e-02
-5.201000720262527466e-03
-1.964718848466873169e-02
1.471211761236190796e-02
2.612277865409851074e-02
5.240320693701505661e-03
2.479128912091255188e-02
-8.045908063650131226e-03
-2.786896890029311180e-03
-4.686920146923512220e-04
-3.626350313425064087e-03
-2.678323164582252502e-02
-1.473680138587951660e-02
-2.362195402383804321e-02
-2.688616281375288963e-03
-3.074100241065025330e-02
1.613305136561393738e-02
1.036028191447257996e-02
2.366375923156738281e-02
2.353698015213012695e-02
1.913204044103622437e-02
-7.001716643571853638e-03
-7.904045283794403076e-03
7.369317114353179932e-03
-2.219460532069206238e-02
3.695021849125623703e-03
-2.740866690874099731e-02
-7.770415977574884892e-04
1.784461364150047302e-02
-4.662200808525085449e-04
1.327566057443618774e-02
9.729463607072830200e-03
-1.698165759444236755e-02
-8.822426199913024902e-03
1.894314587116241455e-02
-2.889727801084518433e-02
-2.874435111880302429e-02
1.117105409502983093e-02
6.753534078598022461e-03
-2.250827103853225708e-02
-2.859834209084510803e-02
-8.228797465562820435e-03
-2.991105243563652039e-02
-2.554352581501007080e-02
3.033011406660079956e-02
-1.794948801398277283e-02
2.700750529766082764e-02
2.705657482147216797e-02
2.241366729140281677e-02
-1.078441389836370945e-03
-2.183847501873970032e-02
2.285946905612945557e-02
-2.024333178997039795e-02
-2.710178494453430176e-02
9.946931153535842896e-03
-2.595844864845275879e-02
1.036028191447257996e-02
1.687083393335342407e-03
-3.237701486796140671e-03
-5.444843322038650513e-03
-2.276353538036346436e-02
2.544949576258659363e-02
-7.603373378515243530e-03
-8.644707500934600830e-03
-7.646288722753524780e-03
-2.890392020344734192e-02
-1.191779226064682007e-02
-2.376308292150497437e-02
-7.059890776872634888e-03
2.397590503096580505e-02
6.268847733736038208e-03
-2.601624280214309692e-02
2.255005389451980591e-02
-8.300904184579849243e-03
-1.129499822854995728e-02
-1.333629339933395386e-02
2.387992339208722115e-03
-2.817447483539581299e-02
-3.092999383807182312e-02
-2.753686625510454178e-03
2.088288590312004089e-02
6.133146584033966064e-03
2.012733370065689087e-03
-5.798537284135818481e-03
-1.463243365287780762e-02
-2.465490018948912621e-03
2.199882641434669495e-02
1.978819072246551514e-02
-1.050588209182024002e-03
2.615081146359443665e-02
7.912606000900268555e-03
4.792198538780212402e-03
2.467471361160278320e-02
-2.320470660924911499e-02
1.043775235302746296e-03
-3.994811559095978737e-04
-3.506179898977279663e-03
-1.555574312806129456e-02
1.198440045118331909e-02
-1.422761008143424988e-02
-3.096590936183929443e-02
2.845456823706626892e-02
1.617631688714027405e-02
-2.457507699728012085e-02
-1.115547120571136475e-02
-2.434559538960456848e-02
6.319098174571990967e-03
2.192358300089836121e-02
-4.799265414476394653e-03
-3.080200776457786560e-02
7.155980914831161499e-03
1.068797335028648376e-02
-3.054961562156677246e-03
1.235835254192352295e-02
-1.114861294627189636e-02
1.277189701795578003e-02
-2.727875486016273499e-02
3.124286234378814697e-02
-1.712163910269737244e-02
-2.252154052257537842e-03
-9.114127606153488159e-03
7.237762212753295898e-03
-2.336103469133377075e-02
-6.453882902860641479e-03
-1.268731802701950073e-02
-2.960763126611709595e-02
-3.510592970997095108e-03
2.552771195769309998e-02
-1.835767179727554321e-02
-2.359497547149658203e-02
-4.331931471824645996e-03
3.088359162211418152e-02
8.008074015378952026e-03
3.643586067482829094e-03
-1.328458776697516441e-03
-1.945331692695617676e-02
2.055017650127410889e-02
-1.661415770649909973e-02
1.832129061222076416e-02
-1.650433242321014404e-02
-2.839848399162292480e-02
-2.304205298423767090e-02
-6.205148994922637939e-03
2.467546984553337097e-02
3.510694950819015503e-03
-9.127587080001831055e-03
1.406752690672874451e-02
9.519051760435104370e-03
-8.814271539449691772e-03
-2.558657526969909668e-02
2.326556667685508728e-02
2.465106174349784851e-02
-2.106417343020439148e-02
-2.544073015451431274e-02
-2.001779899001121521e-02
1.833860948681831360e-02
2.314963191747665405e-02
3.022270649671554565e-02
3.098405152559280396e-02
1.561796665191650391e-02
5.149744451045989990e-03
3.068165108561515808e-02
-2.815366908907890320e-02
1.693172380328178406e-02
2.258512005209922791e-02
-1.384525001049041748e-02
-2.170801907777786255e-02
-2.965617179870605469e-02
-1.260411366820335388e-02
-1.878172531723976135e-02
-4.881147295236587524e-03
2.789098396897315979e-02
-2.466730028390884399e-02
-9.471427649259567261e-03
1.649597287178039551e-02
2.507738023996353149e-02
-2.480828389525413513e-02
1.634068787097930908e-02
3.048330917954444885e-02
2.111876383423805237e-02
1.132036373019218445e-02
2.951771765947341919e-02
3.106362745165824890e-02
-2.154629211872816086e-03
-2.175755798816680908e-02
-2.254831790924072266e-02
-2.864673361182212830e-02
-2.935970574617385864e-02
2.884066104888916016e-02
-8.136451244354248047e-03
1.934824138879776001e-02
-3.144467948004603386e-03
2.717822790145874023e-03
-1.832286594435572624e-03
5.252156406641006470e-03
-1.383013650774955750e-02
-1.794106513261795044e-02
9.517949074506759644e-03
1.725196838378906250e-02
2.418773621320724487e-02
1.471213996410369873e-02
-1.130869984626770020e-02
-1.286167278885841370e-02
2.483883872628211975e-02
-2.095121890306472778e-02
2.437195554375648499e-02
-1.677007973194122314e-02
1.489190757274627686e-02
9.276676923036575317e-03
