1.158072575926780701e-01
5.041152834892272949e-01
3.620960712432861328e-01
-1.070544049143791199e-01
-2.513734996318817139e-01
-4.930766820907592773e-01
-5.706583857536315918e-01
-3.343365192413330078e-01
4.087246060371398926e-01
-1.373131424188613892e-01
-4.337396919727325439e-01
2.563167810440063477e-01
-2.589443325996398926e-01
-1.318873912096023560e-01
3.146412968635559082e-01
9.355378150939941406e-02
1.678032614290714264e-02
-1.473874598741531372e-01
3.188362345099449158e-02
8.134792000055313110e-02
-4.728576242923736572e-01
4.188073575496673584e-01
6.169769167900085449e-02
-4.252935647964477539e-01
-5.487262010574340820e-01
-5.501487255096435547e-01
-6.282159686088562012e-02
-5.221630930900573730e-01
-2.585209906101226807e-01
1.347219292074441910e-02
4.895879626274108887e-01
1.186372041702270508e-01
1.785412579774856567e-01
-7.686961442232131958e-02
-4.600173234939575195e-01
-3.161850571632385254e-01
4.669912457466125488e-01
4.447768330574035645e-01
-7.316077500581741333e-02
1.833052784204483032e-01
2.101929485797882080e-01
4.365443587303161621e-01
1.279102861881256104e-01
-1.693224161863327026e-01
3.164743781089782715e-01
3.517113327980041504e-01
1.686774939298629761e-01
2.983621656894683838e-01
-5.683915317058563232e-02
-2.890823781490325928e-01
7.632756978273391724e-02
-1.191241666674613953e-01
1.367244422435760498e-01
4.175711274147033691e-01
5.234257578849792480e-01
5.397332906723022461e-01
2.016530185937881470e-01
4.498525261878967285e-01
-1.508132517337799072e-01
-4.194433689117431641e-01
-1.444351673126220703e-01
3.928788602352142334e-01
-3.089084029197692871e-01
-1.187823861837387085e-01
