9.506957232952117920e-02
-5.316365510225296021e-02
-5.338363051414489746e-01
-2.034060359001159668e-01
-9.222625195980072021e-02
-6.649821996688842773e-01
1.577690988779067993e-01
-8.361464738845825195e-02
-5.772526264190673828e-01
-3.627859055995941162e-01
7.073369622230529785e-01
-2.865987122058868408e-01
-8.543145656585693359e-02
1.294717639684677124e-01
-6.029951572418212891e-01
-1.498528569936752319e-02
1.477965861558914185e-01
-5.948668122291564941e-01
4.238149523735046387e-01
2.908102869987487793e-01
4.532722234725952148e-01
-1.709861904382705688e-01
-5.914666056632995605e-01
9.966162592172622681e-02
-2.954018488526344299e-02
3.796940445899963379e-01
-3.869578242301940918e-01
1.988278329372406006e-01
5.021330714225769043e-01
2.350080609321594238e-01
-5.030568838119506836e-01
-2.883874624967575073e-02
-3.482165336608886719e-01
-4.090681374073028564e-01
4.037588238716125488e-01
3.353221416473388672e-01
-5.827057361602783203e-02
-4.807776808738708496e-01
-2.111155688762664795e-01
-7.557907700538635254e-02
1.612141132354736328e-01
-6.418783664703369141e-01
-1.449862867593765259e-01
-2.858236432075500488e-01
4.541745483875274658e-01
-8.230490237474441528e-02
1.276990324258804321e-01
-6.819011569023132324e-01
1.080737635493278503e-01
-1.275139153003692627e-01
6.458233594894409180e-01
1.289140433073043823e-01
5.883831977844238281e-01
-3.183009922504425049e-01
-4.571803659200668335e-02
-1.037269905209541321e-01
-4.712173640727996826e-01
2.590451240539550781e-01
2.683346569538116455e-01
6.346757411956787109e-01
-1.609139889478683472e-01
-8.372474461793899536e-02
-6.531656384468078613e-01
2.393163293600082397e-01
5.480365753173828125e-01
-4.581856131553649902e-01
-2.329076230525970459e-01
-6.278149783611297607e-02
-4.901968240737915039e-01
-5.577332526445388794e-02
8.807373791933059692e-02
-4.782881140708923340e-01
1.658520996570587158e-01
-4.494488537311553955e-01
6.280363798141479492e-01
4.664652943611145020e-01
5.128895640373229980e-01
9.640821814537048340e-02
5.386648233979940414e-03
1.694627702236175537e-01
3.641520738601684570e-01
1.868695318698883057e-01
-8.700136095285415649e-02
-6.813833713531494141e-01
3.375761210918426514e-01
5.845898389816284180e-01
2.001153379678726196e-01
-2.436944246292114258e-01
-2.029622644186019897e-01
-3.796367347240447998e-01
-5.432108044624328613e-02
-6.421132087707519531e-01
1.570191830396652222e-01
4.701242744922637939e-01
4.849036037921905518e-01
3.993036150932312012e-01
-2.731065452098846436e-01
-2.787097990512847900e-01
-3.393813371658325195e-01
-1.086215078830718994e-01
1.533002704381942749e-01
-6.810757517814636230e-01
-3.519156575202941895e-01
-2.952563166618347168e-01
3.985481560230255127e-01
-6.419158726930618286e-02
4.787113666534423828e-01
2.733266353607177734e-01
-2.440931349992752075e-01
-5.894330143928527832e-01
3.636821806430816650e-01
-2.084646373987197876e-01
4.960585758090019226e-02
7.582425475120544434e-01
1.244860440492630005e-01
-2.294110506772994995e-01
-4.408444166183471680e-01
-1.196227371692657471e-01
7.862804830074310303e-02
4.532780051231384277e-01
1.658797562122344971e-01
3.319537341594696045e-01
5.981503129005432129e-01
2.532864548265933990e-02
5.071851611137390137e-01
1.207905933260917664e-01
3.389574587345123291e-01
-4.833887815475463867e-01
1.073730587959289551e-01
1.999324709177017212e-01
-8.518251031637191772e-02
-7.224987149238586426e-01
2.722697257995605469e-01
3.791290223598480225e-01
-5.642433762550354004e-01
2.594304084777832031e-01
-3.140934705734252930e-01
-2.674797475337982178e-01
-2.841240167617797852e-01
4.243236482143402100e-01
-5.865299701690673828e-01
-2.303179949522018433e-01
3.307587504386901855e-01
-5.664214491844177246e-01
9.431370347738265991e-02
-1.149281561374664307e-01
5.523800253868103027e-01
-2.563810050487518311e-01
-8.457430452108383179e-02
-6.141144037246704102e-01
-1.554489433765411377e-01
1.375088188797235489e-02
6.346266865730285645e-01
-4.877749085426330566e-01
5.603655055165290833e-02
6.221399903297424316e-01
8.848328143358230591e-02
1.546927243471145630e-01
4.172765016555786133e-01
1.169963553547859192e-01
-7.438538223505020142e-02
-4.965152442455291748e-01
-4.023332148790359497e-02
-6.401607394218444824e-01
1.433399021625518799e-01
4.699926078319549561e-01
-2.386028617620468140e-01
9.756609797477722168e-02
4.591494332998991013e-03
8.148168325424194336e-01
-1.302334517240524292e-01
-6.604819744825363159e-02
4.481200575828552246e-01
-4.513001441955566406e-01
2.368636429309844971e-02
-8.130558580160140991e-02
-5.464296936988830566e-01
-7.689638435840606689e-02
1.297257244586944580e-01
-5.065581202507019043e-01
-1.116933487355709076e-02
-5.341703295707702637e-01
-2.357668429613113403e-01
2.969347238540649414e-01
-5.854707360267639160e-01
-1.540953814983367920e-01
-2.971564531326293945e-01
1.297810226678848267e-01
7.570734024047851562e-01
1.039861813187599182e-01
2.004303783178329468e-01
5.431913733482360840e-01
