-1.101143658161163330e-01
-1.046273857355117798e-01
-4.184995777904987335e-03
3.095035254955291748e-02
-2.012696675956249237e-02
-2.438799478113651276e-02
-1.090795695781707764e-01
8.295568823814392090e-02
2.050894312560558319e-03
9.569756686687469482e-02
-1.051842719316482544e-01
4.545776546001434326e-02
-6.051734089851379395e-02
-2.981028053909540176e-03
1.234297305345535278e-01
-4.363813623785972595e-02
-2.518316358327865601e-02
3.726594150066375732e-02
8.450870215892791748e-02
6.491430103778839111e-02
-6.962009239941835403e-03
-2.239932864904403687e-02
-1.938094384968280792e-02
-8.967089653015136719e-02
-1.127628087997436523e-01
-6.432038545608520508e-02
-8.510942757129669189e-02
1.076171547174453735e-01
-1.177778542041778564e-01
7.219825685024261475e-02
7.005496323108673096e-02
1.234019100666046143e-01
9.254223108291625977e-02
8.255462348461151123e-02
6.975056231021881104e-02
-1.242531687021255493e-01
3.249153122305870056e-02
3.868669271469116211e-02
-6.190191488713026047e-04
-2.471766248345375061e-02
-9.230008721351623535e-02
-6.624124944210052490e-02
-6.094038486480712891e-02
5.485332384705543518e-02
4.124343395233154297e-02
-8.433715999126434326e-02
-7.713522017002105713e-02
4.636803641915321350e-02
1.121046692132949829e-01
-7.713514566421508789e-02
-9.010840952396392822e-02
9.495902061462402344e-02
6.047906819730997086e-03
9.676426649093627930e-02
8.769742213189601898e-03
-9.940348565578460693e-02
-1.100822836160659790e-01
8.622902445495128632e-03
-1.130373924970626831e-01
-6.885273754596710205e-02
1.226464062929153442e-01
5.484949052333831787e-02
-1.068809162825345993e-02
4.348804056644439697e-02
1.074543781578540802e-02
3.951628506183624268e-02
-8.091448247432708740e-02
2.667326852679252625e-02
7.918585836887359619e-02
-7.203408982604742050e-03
6.146723031997680664e-02
3.209497034549713135e-02
-7.476574182510375977e-02
8.371379971504211426e-02
4.213713109493255615e-02
-1.616915874183177948e-02
-9.522771462798118591e-03
1.103899031877517700e-01
3.652885556221008301e-02
9.258249402046203613e-02
-1.084989905357360840e-01
8.206370472908020020e-02
-8.887468278408050537e-02
-4.478079080581665039e-02
-9.752982854843139648e-02
2.962727844715118408e-02
-2.957491762936115265e-02
-4.617848619818687439e-02
1.234583258628845215e-01
9.973977506160736084e-02
-3.096760017797350883e-03
-6.979884207248687744e-02
8.332733809947967529e-02
3.573118476197123528e-03
8.364593982696533203e-02
-7.844206690788269043e-02
8.592607080936431885e-02
7.944083213806152344e-02
-4.466084763407707214e-03
9.614585340023040771e-02
-1.108736544847488403e-01
-5.125656723976135254e-02
-1.137114167213439941e-01
-1.163252741098403931e-01
-1.059788912534713745e-01
-5.137075483798980713e-02
1.167997270822525024e-01
4.121159017086029053e-02
-7.221928238868713379e-02
-1.082430332899093628e-01
7.840587198734283447e-02
-5.204288661479949951e-02
-7.176384795457124710e-03
4.382522776722908020e-02
-1.202606502920389175e-02
-1.940613798797130585e-02
-7.189047522842884064e-03
-4.346011579036712646e-02
-1.027176082134246826e-01
1.032398343086242676e-01
-1.212778389453887939e-01
1.247867345809936523e-01
-3.933958709239959717e-02
-7.013131678104400635e-02
-2.050874521955847740e-03
7.658627629280090332e-02
-1.210202127695083618e-01
6.565603613853454590e-02
