1.050096377730369568e-02
6.178906653076410294e-03
-9.279676713049411774e-03
1.616685278713703156e-02
-1.121640950441360474e-02
1.319369114935398102e-02
8.220596238970756531e-03
1.087074819952249527e-02
5.124680232256650925e-03
-1.749355345964431763e-02
-9.019017219543457031e-03
-2.925718575716018677e-02
-3.980066999793052673e-02
2.129537612199783325e-02
-1.441202126443386078e-02
-1.510885171592235565e-02
-7.623244076967239380e-03
-2.024742029607295990e-02
1.428401470184326172e-02
3.500721231102943420e-02
3.870546445250511169e-02
4.608543589711189270e-02
-2.660148777067661285e-02
1.319406460970640182e-02
4.034155979752540588e-03
-1.115872710943222046e-02
3.811034932732582092e-02
1.973569765686988831e-02
-1.393839018419384956e-03
-1.639036647975444794e-02
3.456452488899230957e-02
5.057936534285545349e-03
2.508661709725856781e-02
2.401998080313205719e-02
2.902950905263423920e-02
1.661928184330463409e-02
-6.462272722274065018e-03
-5.346224177628755569e-03
-7.930169813334941864e-03
2.512719249352812767e-03
3.198815882205963135e-02
1.082281395792961121e-02
1.019803341478109360e-02
1.563751511275768280e-02
-2.890988951548933983e-03
1.559369917958974838e-02
-1.024801656603813171e-02
-4.533896222710609436e-03
2.707396633923053741e-02
-7.724047638475894928e-03
-8.337390609085559845e-03
5.614748690277338028e-03
1.628562808036804199e-02
1.489479443989694118e-03
-2.057315595448017120e-02
-2.471271716058254242e-02
1.820155419409275055e-02
-1.589635759592056274e-02
-9.747926960699260235e-04
1.133471541106700897e-02
1.278753951191902161e-02
2.279110811650753021e-02
-1.990139484405517578e-02
8.041740395128726959e-03
