-3.770562261343002319e-02
-3.995388373732566833e-02
-1.988728530704975128e-02
-4.469804838299751282e-02
-8.263479918241500854e-03
7.318314164876937866e-02
8.397256582975387573e-02
8.124794065952301025e-02
-5.202082172036170959e-02
-8.341792970895767212e-02
8.824950456619262695e-02
5.514154210686683655e-02
7.506078481674194336e-02
5.764933302998542786e-02
5.862299818545579910e-03
-5.675007775425910950e-02
-1.905469596385955811e-02
3.295958414673805237e-02
-4.763081669807434082e-02
5.132873728871345520e-02
7.001423090696334839e-02
8.589313924312591553e-02
2.382182516157627106e-03
5.032542347908020020e-02
-2.999754436314105988e-02
2.143148332834243774e-02
6.828640401363372803e-02
3.162783756852149963e-02
2.589473873376846313e-02
3.609681501984596252e-02
-1.472549792379140854e-02
2.457135915756225586e-02
-1.193699892610311508e-02
-4.630747810006141663e-02
-1.020673383027315140e-02
1.328635727986693382e-03
-2.002904564142227173e-02
-7.069989293813705444e-02
8.155210316181182861e-02
-6.292388588190078735e-02
9.881096892058849335e-03
3.393373265862464905e-02
8.073868602514266968e-02
-5.427637323737144470e-02
-5.622674897313117981e-02
-6.202093139290809631e-02
8.760373294353485107e-02
5.786277353763580322e-03
-1.813760027289390564e-02
4.401170834898948669e-02
2.419762313365936279e-02
-8.044300973415374756e-02
3.808129951357841492e-02
7.581467926502227783e-02
2.083160728216171265e-02
-1.376629807054996490e-02
-6.892817467451095581e-02
-7.695016264915466309e-02
-8.448160439729690552e-02
3.010694682598114014e-02
3.607389703392982483e-02
-6.460602581501007080e-02
1.962111704051494598e-02
2.703633904457092285e-02
-4.351537674665451050e-02
-2.031031250953674316e-02
5.935632064938545227e-02
1.016300637274980545e-02
3.653228655457496643e-02
-8.660693466663360596e-02
-7.521159946918487549e-02
8.212675899267196655e-02
2.482001483440399170e-02
-8.730645477771759033e-02
5.357650294899940491e-02
1.735614496283233166e-03
-4.404249787330627441e-02
-5.570160970091819763e-02
8.227981626987457275e-03
4.335045814514160156e-02
-6.092733517289161682e-02
-7.589661329984664917e-02
-7.120511680841445923e-02
-1.146636623889207840e-02
-8.124732412397861481e-03
2.192216739058494568e-02
5.339670553803443909e-02
-5.107226595282554626e-02
8.488016575574874878e-02
-1.400547102093696594e-02
-2.268716320395469666e-02
-6.122941151261329651e-02
4.780329018831253052e-02
5.676886439323425293e-02
7.785144448280334473e-02
8.712581545114517212e-02
-2.213872037827968597e-03
2.428585663437843323e-03
6.512743979692459106e-02
-5.344334244728088379e-02
-4.449151828885078430e-02
-2.212831750512123108e-02
-2.704613842070102692e-02
3.158988431096076965e-02
1.390478340908885002e-03
7.351968437433242798e-02
3.665922209620475769e-02
3.416919708251953125e-02
1.169324293732643127e-02
3.535703197121620178e-02
5.850321799516677856e-02
4.812124744057655334e-02
7.070787996053695679e-02
-7.697842270135879517e-02
8.556368201971054077e-02
-3.998554870486259460e-02
-4.752425849437713623e-02
-2.634776057675480843e-03
1.192873809486627579e-02
7.946856319904327393e-02
-1.462912838906049728e-02
-6.333343684673309326e-02
5.115488171577453613e-02
-3.113709017634391785e-02
3.361703082919120789e-02
-5.766636133193969727e-02
2.718330547213554382e-02
6.671538576483726501e-03
7.842420041561126709e-02
-4.994108527898788452e-02
2.651019953191280365e-02
-8.165809512138366699e-02
-1.813982427120208740e-02
7.928738370537757874e-03
-3.541558608412742615e-02
1.752183656208217144e-03
7.501843851059675217e-03
8.217829465866088867e-02
-1.966100931167602539e-02
4.888275638222694397e-03
-5.635850131511688232e-02
-7.312368601560592651e-02
4.825357720255851746e-02
8.630249649286270142e-02
-6.069509685039520264e-02
2.929406054317951202e-02
-6.170179322361946106e-02
-1.157315541058778763e-02
-4.266999661922454834e-03
7.803095132112503052e-02
6.405334919691085815e-02
-1.830862276256084442e-02
4.742373712360858917e-03
-1.338833128102123737e-03
2.328910492360591888e-02
-1.120680477470159531e-02
-3.678524121642112732e-02
-3.925250843167304993e-02
7.180824875831604004e-02
-8.400861173868179321e-02
1.550885941833257675e-02
-8.314149826765060425e-02
7.086243480443954468e-02
1.755242422223091125e-02
7.946654409170150757e-02
-7.345152553170919418e-03
-6.500318646430969238e-02
5.363305285573005676e-02
5.143680423498153687e-02
-3.867345303297042847e-02
-3.379318490624427795e-02
-8.819135278463363647e-02
-6.991108506917953491e-02
5.038920044898986816e-02
-4.939041566103696823e-03
-2.397418022155761719e-02
-3.706546500325202942e-02
-3.090802056249231100e-04
7.229802757501602173e-02
-1.655596680939197540e-02
8.384474366903305054e-02
-3.343295678496360779e-02
7.320002466440200806e-02
-1.908140629529953003e-02
2.311228774487972260e-02
-5.934358388185501099e-02
2.071273140609264374e-02
-7.843632996082305908e-02
2.594060450792312622e-02
2.972130430862307549e-03
-8.088146895170211792e-02
-2.223448455333709717e-02
-6.814883649349212646e-02
-3.534276783466339111e-02
-6.746042519807815552e-02
-8.208267390727996826e-02
-6.326940655708312988e-02
2.382876351475715637e-02
-8.632886409759521484e-02
-6.042679026722908020e-02
-6.921003758907318115e-02
3.559162095189094543e-02
-1.480208477005362511e-03
5.401875078678131104e-02
8.634685724973678589e-02
4.601461067795753479e-02
-1.313864719122648239e-02
2.193199656903743744e-02
-1.579491049051284790e-02
5.497523024678230286e-02
6.645665317773818970e-02
1.321414299309253693e-02
1.112052984535694122e-02
-7.205486297607421875e-02
8.748730272054672241e-02
-8.326498419046401978e-02
-7.746735215187072754e-02
-8.183331787586212158e-02
5.445554852485656738e-02
7.979594916105270386e-02
-1.033236272633075714e-02
6.352524459362030029e-02
6.044967472553253174e-02
7.731372117996215820e-02
4.903195798397064209e-02
5.600788071751594543e-02
-6.691704690456390381e-02
-5.641947686672210693e-02
-6.388696283102035522e-02
-7.353002578020095825e-02
-4.946292936801910400e-02
-1.669649407267570496e-02
6.844029575586318970e-02
-5.432970076799392700e-02
6.246874108910560608e-02
7.341169752180576324e-03
7.147645205259323120e-02
3.287359327077865601e-02
-4.832936916500329971e-03
7.833702117204666138e-02
7.612870633602142334e-02
8.572246134281158447e-02
-4.657911602407693863e-03
-1.105965953320264816e-02
6.327726878225803375e-04
1.464416459202766418e-02
5.913534760475158691e-02
-5.427504703402519226e-02
-2.716242149472236633e-02
-3.995379060506820679e-02
-2.229967527091503143e-02
-5.088407918810844421e-02
4.822861775755882263e-02
6.883501261472702026e-02
-7.313104718923568726e-02
2.215624041855335236e-02
-7.025919854640960693e-02
-2.525709941983222961e-02
2.110213099513202906e-04
2.608568593859672546e-02
4.899802803993225098e-02
-1.583639346063137054e-02
2.652898617088794708e-02
-1.316493656486272812e-02
-5.171418190002441406e-02
-3.383222222328186035e-02
7.201790809631347656e-02
6.176942959427833557e-02
7.414551079273223877e-02
5.171168595552444458e-02
-7.787515223026275635e-02
7.246764749288558960e-02
6.080215051770210266e-02
4.981580376625061035e-02
-4.695643484592437744e-02
4.889893159270286560e-02
-2.639198675751686096e-02
-5.814271420240402222e-02
-3.663513436913490295e-02
-2.362422458827495575e-02
6.836403161287307739e-02
8.052260614931583405e-03
-6.806167215108871460e-02
-1.426637079566717148e-02
8.025244623422622681e-02
-3.661132231354713440e-02
-8.729793131351470947e-02
5.913142859935760498e-02
3.943679481744766235e-02
8.795098401606082916e-03
3.502400964498519897e-02
7.278935611248016357e-02
-3.305468708276748657e-02
7.338186353445053101e-02
2.355048805475234985e-02
6.947335600852966309e-02
7.105588447302579880e-04
4.775501322001218796e-03
5.916966497898101807e-02
-3.746918169781565666e-03
-4.106438159942626953e-02
6.118598207831382751e-02
1.306437421590089798e-02
2.541162073612213135e-02
-4.591073095798492432e-02
1.776552945375442505e-02
-5.996738746762275696e-02
8.042937517166137695e-02
3.464373946189880371e-02
-3.753834217786788940e-02
-3.806571662425994873e-02
-9.061709046363830566e-03
3.060986474156379700e-02
-4.179110750555992126e-02
7.872261106967926025e-02
-5.894966889172792435e-04
-1.167962886393070221e-02
-1.010149344801902771e-02
2.864026837050914764e-02
-3.283505141735076904e-02
7.615922391414642334e-02
5.066868662834167480e-02
6.474529206752777100e-02
-1.489938516169786453e-02
7.834869623184204102e-02
-6.660972256213426590e-03
1.733337529003620148e-02
4.751179367303848267e-02
-3.305828198790550232e-02
-5.804860964417457581e-02
-2.785165980458259583e-02
3.482625633478164673e-02
-6.611132621765136719e-02
4.997295886278152466e-02
-1.908165961503982544e-02
-7.354412227869033813e-02
-8.805220574140548706e-02
-7.337412983179092407e-02
-3.447091579437255859e-02
5.228770524263381958e-02
4.592714458703994751e-02
-3.050863929092884064e-02
-6.476527079939842224e-03
-5.247044563293457031e-02
-6.639218330383300781e-02
3.208363894373178482e-03
1.732162758708000183e-02
6.476034969091415405e-02
2.353648655116558075e-02
6.174344569444656372e-02
-6.313207745552062988e-02
-8.179681003093719482e-02
-5.772386863827705383e-02
7.786741107702255249e-02
7.266973610967397690e-03
1.459720265120267868e-02
5.242467299103736877e-02
-5.638658069074153900e-03
1.918569765985012054e-02
-1.847931742668151855e-02
-1.268659066408872604e-02
-2.958939410746097565e-02
2.316190628334879875e-03
1.911596581339836121e-02
-5.812068283557891846e-02
-5.956929177045822144e-02
2.939834259450435638e-02
2.334260381758213043e-03
-7.887422293424606323e-02
6.783566623926162720e-02
2.906743809580802917e-02
-7.831667363643646240e-02
-6.597554683685302734e-02
-8.313203603029251099e-02
-2.214532811194658279e-03
-8.275513350963592529e-02
2.541462332010269165e-02
-7.226772606372833252e-02
4.792558029294013977e-02
6.235752720385789871e-03
2.569639496505260468e-02
3.917582333087921143e-02
-6.292749941349029541e-02
7.919524610042572021e-02
-5.450291186571121216e-02
3.001836827024817467e-03
3.193373978137969971e-02
5.185241252183914185e-02
-6.173823028802871704e-02
-5.879286304116249084e-02
-2.498499862849712372e-02
-4.165007174015045166e-02
2.901199273765087128e-02
4.913777858018875122e-02
-7.196322083473205566e-02
-3.883377835154533386e-02
-6.441912800073623657e-02
-7.386688143014907837e-03
2.530944533646106720e-02
4.359289072453975677e-03
-4.351494461297988892e-02
-3.724627569317817688e-02
6.894781719893217087e-03
-2.488453127443790436e-02
-6.996527314186096191e-02
4.562692344188690186e-02
7.224030792713165283e-02
8.075901120901107788e-02
-5.352662131190299988e-02
-6.672712415456771851e-02
2.646866254508495331e-02
8.358769118785858154e-02
8.668822795152664185e-02
-1.711119897663593292e-02
-6.478337198495864868e-02
6.846797466278076172e-02
7.613848894834518433e-03
4.368378594517707825e-02
-3.142576292157173157e-02
7.314690947532653809e-02
-6.310571730136871338e-02
3.040854586288332939e-03
-2.856894582509994507e-02
-1.459312438964843750e-02
8.834780007600784302e-02
4.782378673553466797e-02
-7.678829878568649292e-02
-2.273365110158920288e-02
-8.255821466445922852e-02
4.478523973375558853e-03
9.766414761543273926e-03
-4.256526008248329163e-02
7.762988656759262085e-02
-2.575155533850193024e-02
5.415695905685424805e-02
-5.198445916175842285e-02
1.946707069873809814e-02
-4.324740916490554810e-02
4.677288699895143509e-03
-8.907167240977287292e-03
-3.919836133718490601e-03
2.502255141735076904e-02
-8.256725966930389404e-03
6.353399902582168579e-02
-7.673063129186630249e-02
4.912064597010612488e-02
-4.101085290312767029e-02
3.138754889369010925e-02
-8.366390317678451538e-02
-1.563562639057636261e-02
-7.352824509143829346e-02
7.028365973383188248e-03
5.062945932149887085e-02
-6.314387172460556030e-02
5.487503856420516968e-02
-1.683917269110679626e-02
3.680793941020965576e-02
5.673790723085403442e-02
-8.022568188607692719e-03
3.380629047751426697e-02
-1.277583744376897812e-02
-6.064920872449874878e-02
-6.011057179421186447e-03
3.825595602393150330e-03
8.760464377701282501e-03
4.176215268671512604e-03
3.299867361783981323e-02
-3.392359614372253418e-02
-4.415876790881156921e-02
8.191620558500289917e-02
-5.360664054751396179e-02
1.569624431431293488e-02
4.285995289683341980e-02
2.483858168125152588e-02
4.683034121990203857e-02
-4.044256731867790222e-02
-4.948234930634498596e-02
5.460492800921201706e-03
-2.104795724153518677e-02
-7.279030233621597290e-02
-5.756864324212074280e-02
7.349983602762222290e-02
-3.068615123629570007e-02
4.950712993741035461e-02
6.816211342811584473e-02
2.320470660924911499e-02
-3.607265278697013855e-02
5.735230445861816406e-02
-7.551579177379608154e-02
-8.221045881509780884e-02
-6.424043327569961548e-02
-4.162417352199554443e-02
1.744401082396507263e-02
2.040161378681659698e-02
-4.669078439474105835e-02
6.784857809543609619e-02
7.625835388898849487e-02
8.758180588483810425e-02
-7.637657970190048218e-02
-3.201879188418388367e-02
3.727038204669952393e-02
5.307898297905921936e-02
-5.720308050513267517e-02
-4.914727061986923218e-02
-3.106692619621753693e-02
2.165223658084869385e-02
-7.794746756553649902e-02
-8.615564554929733276e-02
4.035308025777339935e-03
-8.769549429416656494e-02
-7.064515352249145508e-02
5.062257871031761169e-02
-3.252584859728813171e-02
1.442379970103502274e-02
6.197391450405120850e-02
8.781911432743072510e-02
3.609745949506759644e-02
-5.304370447993278503e-02
3.229605406522750854e-02
-8.611437678337097168e-02
7.602767646312713623e-02
2.123258076608181000e-02
-5.123854428529739380e-02
3.630393370985984802e-02
3.968069702386856079e-02
-7.820225507020950317e-02
-5.260673537850379944e-02
7.506123930215835571e-02
-3.254744037985801697e-02
4.636776074767112732e-02
-2.366355806589126587e-02
6.236733496189117432e-02
2.772014960646629333e-02
-4.922709893435239792e-03
-2.181015163660049438e-02
-1.640683040022850037e-02
-2.413895353674888611e-02
6.471281498670578003e-02
2.172548882663249969e-02
8.536963909864425659e-02
-3.445147722959518433e-02
-1.360193639993667603e-02
4.765298590064048767e-02
-6.922833621501922607e-02
-1.362833101302385330e-02
7.762319594621658325e-02
-5.083651468157768250e-02
-5.978284776210784912e-02
-4.581621661782264709e-02
-8.322104811668395996e-02
4.723501577973365784e-02
8.440510928630828857e-02
-6.478451937437057495e-02
-4.718742147088050842e-02
-5.330579355359077454e-02
5.979430302977561951e-02
-3.575635841116309166e-03
-6.861156225204467773e-02
2.051739022135734558e-02
3.382182493805885315e-02
-4.885077849030494690e-02
3.954122588038444519e-02
6.682138144969940186e-02
-4.394113272428512573e-02
1.396504230797290802e-02
4.029004776384681463e-04
4.035351052880287170e-02
5.831485241651535034e-02
-8.247760683298110962e-02
-2.725818892940878868e-03
-5.020464956760406494e-02
2.850615791976451874e-02
3.881336003541946411e-02
6.688367575407028198e-02
-2.871456369757652283e-02
3.935525193810462952e-02
-2.791154012084007263e-02
-3.206935897469520569e-02
-1.832878962159156799e-02
2.595682069659233093e-02
5.396867915987968445e-02
-7.854688167572021484e-02
-3.463357314467430115e-02
1.485508866608142853e-02
-6.554302573204040527e-02
-5.495281890034675598e-02
-7.702019065618515015e-02
-8.160950243473052979e-02
6.158940866589546204e-02
8.733552694320678711e-02
-4.204974323511123657e-02
8.803115040063858032e-02
6.415706127882003784e-02
-2.075711265206336975e-03
-7.761064916849136353e-02
-2.711925283074378967e-02
-1.251939404755830765e-02
1.421635318547487259e-02
1.562446821480989456e-02
-3.020378015935420990e-02
-1.261128485202789307e-02
5.722055211663246155e-02
3.399235010147094727e-02
5.570501461625099182e-02
4.405276104807853699e-02
-6.379736959934234619e-02
2.460180968046188354e-02
4.509881138801574707e-02
3.462203219532966614e-02
5.032279714941978455e-02
-2.836063504219055176e-02
4.618866741657257080e-02
-5.366742610931396484e-02
-5.876063928008079529e-02
1.751364767551422119e-02
-1.351317483931779861e-02
5.010635405778884888e-02
8.294247835874557495e-02
1.414047833532094955e-02
-7.260700687766075134e-03
-3.406086936593055725e-02
3.377617103978991508e-03
-9.707019664347171783e-03
-4.357230663299560547e-02
2.271991223096847534e-02
2.422884805127978325e-03
-5.046176910400390625e-02
-2.358328923583030701e-02
3.669318184256553650e-02
-1.963567920029163361e-02
-5.259536672383546829e-03
7.332332432270050049e-02
4.911683127284049988e-02
-8.378873765468597412e-02
2.252674603369086981e-04
4.554642364382743835e-02
3.848246484994888306e-02
-6.763223558664321899e-02
5.315116792917251587e-02
-5.488847196102142334e-02
8.437261916697025299e-03
-2.141857519745826721e-02
2.891955524682998657e-02
5.317537114024162292e-02
3.628952056169509888e-02
2.167361602187156677e-02
2.702780440449714661e-02
3.074488230049610138e-02
7.169448584318161011e-02
2.468997053802013397e-02
-1.468105823732912540e-03
2.885982207953929901e-02
-2.688493765890598297e-02
-7.745593786239624023e-02
-5.298465862870216370e-02
-4.192756861448287964e-02
-6.160197034478187561e-02
-8.747459948062896729e-02
-5.759989470243453979e-02
1.231430750340223312e-02
1.312129385769367218e-02
-2.258584275841712952e-02
2.110531926155090332e-02
7.920473068952560425e-02
-6.378093361854553223e-02
7.415421772748231888e-03
-1.142190117388963699e-02
-5.303725600242614746e-02
-8.463911712169647217e-02
1.567390747368335724e-02
3.465638309717178345e-02
-7.229321449995040894e-02
-8.289531618356704712e-02
-3.228439018130302429e-02
6.904200650751590729e-03
-5.968522652983665466e-02
8.818642795085906982e-02
4.822752997279167175e-02
-3.682199493050575256e-02
-7.374519109725952148e-02
-2.072351053357124329e-02
-8.232177793979644775e-02
1.527761109173297882e-02
-5.855409055948257446e-02
3.224937617778778076e-02
1.405159011483192444e-02
-6.925311684608459473e-02
3.303511068224906921e-02
-8.492293953895568848e-02
6.882703304290771484e-02
2.731623686850070953e-02
-6.862807273864746094e-02
-3.109269961714744568e-02
1.109530497342348099e-02
-8.469890803098678589e-02
7.421027123928070068e-02
1.346148177981376648e-02
-3.929297998547554016e-02
6.762407720088958740e-02
-1.539347227662801743e-02
5.280923098325729370e-02
-7.810673862695693970e-02
1.369067654013633728e-02
7.118663936853408813e-02
1.258354168385267258e-02
5.743172019720077515e-03
-6.558710336685180664e-02
1.070876605808734894e-02
4.387147724628448486e-02
-8.072956651449203491e-02
8.275122381746768951e-03
-8.007384836673736572e-03
-2.202230691909790039e-02
5.771020427346229553e-02
7.086928933858871460e-02
7.870636135339736938e-02
8.600135147571563721e-02
-7.808818668127059937e-02
-4.950143024325370789e-02
-5.675477534532546997e-02
5.128150433301925659e-02
-2.344083413481712341e-02
6.025100499391555786e-02
2.495542168617248535e-02
1.278787013143301010e-02
-5.490122362971305847e-03
-8.695098757743835449e-02
-1.319401664659380913e-03
1.318479795008897781e-02
-6.501974165439605713e-02
-4.704662784934043884e-02
-2.533567603677511215e-04
4.606918245553970337e-02
-5.005118250846862793e-02
-3.895994042977690697e-03
7.756004482507705688e-02
3.738711029291152954e-02
4.598403349518775940e-02
7.483848184347152710e-02
-9.469690732657909393e-03
-7.007745653390884399e-02
-7.620571553707122803e-02
1.632132381200790405e-02
-1.131142396479845047e-02
9.501163847744464874e-03
5.197886377573013306e-02
-5.257935263216495514e-03
-3.263280913233757019e-02
7.170262187719345093e-02
-7.566466927528381348e-02
8.043969422578811646e-02
7.152876257896423340e-02
8.757891505956649780e-02
8.502262830734252930e-02
8.350369334220886230e-02
-1.686442829668521881e-02
2.916222624480724335e-02
-3.265751525759696960e-02
-4.846010729670524597e-02
-8.720789849758148193e-02
4.707790166139602661e-02
1.837026141583919525e-02
1.253297645598649979e-02
-5.402150005102157593e-02
-3.469808772206306458e-02
-7.222224026918411255e-02
-3.650317341089248657e-02
7.641211152076721191e-02
3.055824525654315948e-02
-4.386211931705474854e-02
-7.881691306829452515e-02
-4.332390613853931427e-03
5.247886478900909424e-02
2.125301212072372437e-02
-8.228038996458053589e-02
-3.940675407648086548e-02
7.776841521263122559e-02
-3.386195749044418335e-02
-6.314038485288619995e-02
-8.093741536140441895e-02
-2.335034497082233429e-02
6.182701140642166138e-02
-2.673826878890395164e-03
3.139929380267858505e-03
-6.713444832712411880e-03
5.889648944139480591e-02
8.783127367496490479e-02
-2.624917216598987579e-02
-3.267852589488029480e-02
-8.201147615909576416e-02
7.666835933923721313e-02
7.218828052282333374e-02
8.539311587810516357e-02
2.249344624578952789e-02
8.717826008796691895e-02
5.742185562849044800e-02
1.909971795976161957e-02
3.955117985606193542e-02
-2.622691914439201355e-02
2.351902611553668976e-02
-2.211769670248031616e-02
7.437589764595031738e-02
6.577290332643315196e-05
6.613834947347640991e-02
-2.897785743698477745e-03
8.222571760416030884e-02
4.730429500341415405e-02
3.037890978157520294e-02
2.575736120343208313e-02
8.673132956027984619e-02
8.673336356878280640e-02
-8.770309388637542725e-02
-6.502574682235717773e-02
-8.651044964790344238e-02
-3.121421858668327332e-02
-5.883811786770820618e-02
6.957715749740600586e-02
6.359625607728958130e-02
-7.879891991615295410e-02
7.501707971096038818e-02
-3.057711571455001831e-02
8.209776133298873901e-02
-2.332837507128715515e-02
-2.041694521903991699e-02
7.006939500570297241e-02
-7.020384818315505981e-02
-4.977248609066009521e-02
3.618283569812774658e-02
8.145060390233993530e-02
-3.284385800361633301e-02
-7.423924747854471207e-03
-4.136137664318084717e-02
7.249905914068222046e-02
-2.875542454421520233e-02
2.201457321643829346e-02
-3.494263440370559692e-02
2.525706775486469269e-02
-2.886281535029411316e-02
-5.631967261433601379e-02
-6.137568503618240356e-02
-1.377208344638347626e-02
6.552317645400762558e-03
1.750148832798004150e-02
-7.123831659555435181e-02
-2.974310517311096191e-02
-1.105716265738010406e-02
-4.150933399796485901e-02
2.119673416018486023e-02
3.944924846291542053e-02
2.416338771581649780e-02
5.567620694637298584e-02
-6.622829008847475052e-03
2.687126025557518005e-02
3.852748870849609375e-02
-6.716049462556838989e-02
6.473976373672485352e-02
-5.964483693242073059e-02
-4.429845511913299561e-02
2.996762096881866455e-02
-3.379093110561370850e-02
-3.071053652092814445e-04
7.676079124212265015e-02
5.537845194339752197e-02
-1.557341869920492172e-02
-4.313431680202484131e-02
6.334484368562698364e-02
-4.568433854728937149e-03
-3.220053017139434814e-02
-1.224512420594692230e-02
-8.290333300828933716e-02
4.140523076057434082e-02
8.738031983375549316e-02
-3.293017158284783363e-03
-3.774774074554443359e-02
-2.322318777441978455e-02
5.496298894286155701e-02
-4.691653326153755188e-02
5.616482719779014587e-02
2.163622155785560608e-02
7.658041268587112427e-02
-5.925257876515388489e-02
-5.152321606874465942e-02
-7.318252231925725937e-03
-3.117484226822853088e-02
2.313360385596752167e-02
3.525423631072044373e-02
-3.276211395859718323e-02
-8.340668678283691406e-02
8.581095188856124878e-02
-1.132012717425823212e-02
-5.314891412854194641e-02
7.886494696140289307e-02
7.214169204235076904e-02
3.507532179355621338e-02
6.967750936746597290e-02
-5.241211131215095520e-02
-7.228154689073562622e-02
7.303170859813690186e-02
3.098468668758869171e-02
4.389351699501276016e-03
2.226140722632408142e-02
6.953026354312896729e-02
8.038038015365600586e-02
-2.370938658714294434e-03
-6.742896139621734619e-02
-4.770298302173614502e-02
7.135173678398132324e-02
-7.590221613645553589e-02
8.655343949794769287e-02
7.293786853551864624e-02
1.585555146448314190e-04
-1.646865904331207275e-02
7.529740780591964722e-02
3.215266019105911255e-02
6.205277144908905029e-02
4.911009594798088074e-02
9.698632173240184784e-03
5.708136036992073059e-02
-1.976286806166172028e-02
8.078188449144363403e-02
-1.438442431390285492e-02
7.741333544254302979e-02
5.986791104078292847e-02
2.083308063447475433e-02
5.434001609683036804e-02
-1.631945930421352386e-02
8.176463097333908081e-02
-6.496924906969070435e-02
-6.471898406744003296e-02
-8.172410726547241211e-02
-5.867004394531250000e-02
8.362894505262374878e-02
6.012382730841636658e-02
5.957379937171936035e-02
5.117459595203399658e-02
4.384169727563858032e-02
6.297267973423004150e-02
5.042048543691635132e-02
1.381090003997087479e-02
-2.334675192832946777e-02
5.354849621653556824e-02
8.648525923490524292e-02
-3.899820521473884583e-02
7.555590569972991943e-02
-8.394183963537216187e-02
6.839387118816375732e-02
-4.753759875893592834e-02
8.383311331272125244e-02
6.524588912725448608e-02
1.663977978751063347e-03
-7.268712669610977173e-02
-1.625961065292358398e-02
8.597398549318313599e-02
-4.378836136311292648e-03
-6.046397145837545395e-03
-7.611839473247528076e-02
8.831416815519332886e-02
4.652080684900283813e-02
1.766918040812015533e-02
1.633548550307750702e-02
5.872278288006782532e-02
6.485144048929214478e-02
-7.261808216571807861e-02
-7.848516106605529785e-02
-5.683662742376327515e-02
-2.073143422603607178e-02
-5.284300073981285095e-02
6.508042104542255402e-03
2.813345380127429962e-02
5.638070404529571533e-02
1.495266892015933990e-02
-4.325878620147705078e-02
-3.673962876200675964e-02
2.633055858314037323e-02
-3.056047856807708740e-02
-3.039772994816303253e-02
6.948737055063247681e-02
1.459451578557491302e-02
-2.419888600707054138e-02
-5.798156559467315674e-02
8.587426692247390747e-02
-5.414086207747459412e-02
7.478924095630645752e-02
2.987982891499996185e-02
6.764105707406997681e-02
-2.429860644042491913e-02
-6.842467933893203735e-02
-4.361837357282638550e-02
8.087610453367233276e-02
-2.074180170893669128e-02
8.125243335962295532e-02
4.959924146533012390e-02
4.211617633700370789e-02
-8.296853303909301758e-02
-5.936399474740028381e-02
6.905324757099151611e-02
-1.960091851651668549e-02
1.729579083621501923e-02
4.447750374674797058e-02
-3.371796384453773499e-02
1.325799711048603058e-02
-6.391525268554687500e-02
5.985537171363830566e-02
1.477168034762144089e-02
3.673610836267471313e-02
6.412053853273391724e-02
5.218727886676788330e-02
6.318164616823196411e-02
-6.542149931192398071e-02
4.925813898444175720e-02
-1.808327436447143555e-02
2.866439288482069969e-03
-5.321438983082771301e-02
-2.411171607673168182e-02
-5.108245462179183960e-02
8.740264922380447388e-02
5.140840541571378708e-03
2.936514094471931458e-02
-4.953684285283088684e-02
7.441969960927963257e-02
-5.828856304287910461e-02
-8.528400957584381104e-02
-6.278669834136962891e-02
7.496197521686553955e-02
