-3.392201662063598633e-02
-2.077501825988292694e-02
1.055363640189170837e-01
6.330145895481109619e-02
-4.509515315294265747e-02
8.630594611167907715e-02
4.047039523720741272e-02
-5.717189237475395203e-02
9.207606315612792969e-02
5.465977638959884644e-02
7.794771343469619751e-02
4.121640324592590332e-02
-4.777539521455764771e-02
-7.715503219515085220e-03
-4.326790943741798401e-02
6.002275738865137100e-03
6.316803395748138428e-02
-1.562481187283992767e-02
2.819859981536865234e-02
2.488364465534687042e-02
-4.334504157304763794e-02
9.464935958385467529e-02
8.080727607011795044e-02
1.970995776355266571e-02
1.634315215051174164e-02
-1.212348416447639465e-02
1.973251439630985260e-02
-3.186319768428802490e-02
-4.271325096487998962e-02
-5.495579168200492859e-02
2.052800543606281281e-02
4.016805812716484070e-02
5.118248611688613892e-02
-7.377760857343673706e-02
8.798272162675857544e-02
9.407548350282013416e-04
-9.416321665048599243e-02
8.408314734697341919e-02
4.196873307228088379e-02
5.116700381040573120e-02
4.412698373198509216e-02
8.742411434650421143e-02
2.295616827905178070e-02
3.862466663122177124e-02
8.744329214096069336e-03
1.399337053298950195e-01
2.121307421475648880e-03
-5.587498843669891357e-02
1.684626191854476929e-02
4.252549633383750916e-02
7.121618837118148804e-02
-1.386108715087175369e-02
-4.558396525681018829e-03
5.314258858561515808e-02
1.600059121847152710e-02
1.663869433104991913e-02
-6.916864216327667236e-02
6.251807324588298798e-03
2.771516889333724976e-02
6.451864540576934814e-02
2.532824873924255371e-02
9.622421115636825562e-03
1.005150899291038513e-01
7.180265337228775024e-02
