-1.214752420783042908e-01
-9.195821732282638550e-02
-8.775015920400619507e-02
7.009419053792953491e-02
-1.483050733804702759e-01
-9.754996001720428467e-02
7.917912676930427551e-03
3.568335175514221191e-01
-1.323864310979843140e-01
2.997504919767379761e-02
-8.164469897747039795e-02
1.420840024948120117e-01
5.690677091479301453e-03
-1.653912663459777832e-01
4.046531617641448975e-01
-1.749179363250732422e-01
1.901225596666336060e-01
2.999928221106529236e-02
-1.042117401957511902e-01
2.695417106151580811e-01
-9.942135959863662720e-02
-1.131566837430000305e-01
-9.435340017080307007e-02
-1.584987342357635498e-01
3.007494807243347168e-01
3.572227433323860168e-02
9.270700067281723022e-02
-8.402140438556671143e-02
9.800507873296737671e-02
-2.265647947788238525e-01
8.578712493181228638e-02
-4.186071828007698059e-02
-1.462091952562332153e-01
-1.714149713516235352e-01
2.671650350093841553e-01
1.312208622694015503e-01
1.066890954971313477e-01
1.020196899771690369e-01
-1.379643827676773071e-01
3.156014084815979004e-01
-9.008918702602386475e-02
5.518913641571998596e-02
1.271599829196929932e-01
-1.049776971340179443e-01
-1.888104081153869629e-01
-1.845436096191406250e-01
6.307179480791091919e-02
-8.577349781990051270e-02
2.006687521934509277e-01
-9.843837469816207886e-02
1.325662434101104736e-01
6.911832839250564575e-02
1.955827623605728149e-01
-7.157775014638900757e-02
8.054473251104354858e-02
-1.177260931581258774e-02
-9.469314664602279663e-02
-2.968195453286170959e-02
-7.148282974958419800e-02
-1.624227315187454224e-01
8.914529532194137573e-02
2.714841254055500031e-02
2.941208779811859131e-01
2.188521176576614380e-01
