-3.203550758001938448e-10
-1.066675747729561863e-09
1.121034376438956315e-09
-4.930481023457389256e-10
-1.506323510369611540e-09
5.237953959458252484e-10
8.362887604640434347e-10
-4.937982661656903360e-11
2.971733137346888043e-10
-2.008254673668830037e-10
4.284973209589537646e-10
2.534370768803029250e-10
8.971859921658165149e-10
3.804687953579133364e-10
4.839348366481033281e-10
1.460209064774176113e-09
1.188018683428992972e-09
5.069851205519171344e-10
-1.046249198388693458e-09
-4.391920993551678976e-10
7.999030882110957918e-10
-2.755590755576520223e-10
-2.610556215643100586e-10
1.424079604239736341e-10
1.715662056867017782e-10
6.319508805141538232e-10
-1.618750411491731711e-10
-5.885114062742502483e-10
7.525854384127228514e-10
6.941507924018708309e-10
-5.034979100315695177e-10
1.617388445396272800e-09
9.432077341386957414e-10
4.325366176338718560e-10
1.240597735652215761e-09
-7.727612993946308961e-10
1.124245418981928424e-10
8.656246830440750273e-10
-5.207956843555905380e-10
-1.300038687812588023e-10
-6.135125185657841484e-10
3.706487061716501330e-10
-6.347287140329171962e-10
6.477960945439065199e-10
5.596343943814474642e-10
2.712383651015670694e-10
-2.692617517841000563e-10
-3.116785163292945526e-10
-1.130916360558842371e-09
-6.417928410940021422e-10
-1.212109967951846556e-09
7.007473490361348922e-10
-2.727379988520794996e-10
-2.451913116985338092e-10
4.340038051164896160e-10
6.353744613774026107e-11
5.064088592909854469e-10
6.409487385283796357e-10
-5.154003890339708960e-10
6.290248322216029919e-10
-5.946584336058435838e-10
-6.920753414796365632e-10
-5.930848034907398869e-10
1.932942278459748309e-10
1.428318019414120954e-09
6.108992756104214550e-10
-5.842824835067261802e-11
-1.936474980368529941e-09
-4.590175184393530117e-10
-1.905586383132984452e-10
4.960586941216149626e-10
-8.389347549986325703e-10
2.646006469486650303e-10
-1.208011690678745254e-09
-1.484954520458714455e-10
1.270687027821182369e-10
9.934177924719733710e-10
-7.252258238388264999e-10
1.108576008768125121e-09
-1.171681640599331331e-09
-1.919643333181397793e-10
7.740447172110975771e-10
9.548684065663337606e-10
4.930492125687635507e-10
3.253883620879527427e-11
-3.720765362480449312e-10
-9.489364849457615492e-10
-1.998787663159973249e-10
-3.223848410449647872e-10
3.891527655675020014e-10
5.191455043629389365e-10
6.634551796835808091e-10
1.810691874215564212e-10
-9.245785560774155698e-12
-6.301280330855973943e-11
3.903597445287232404e-10
-6.157474530255058198e-10
-3.338584964041046987e-10
-9.200900041861359568e-10
2.205776256092306653e-10
-6.799446006233722528e-10
-5.484552256795893754e-10
-1.833786594795938640e-10
-4.004982179228733230e-10
-3.515237545492766458e-10
3.117178737355175144e-10
-3.154035088659412622e-10
3.184421060176134688e-10
9.844332016228918292e-10
4.500154415776336236e-10
-3.486896327231647774e-10
6.637386473773432272e-11
1.616388800584900309e-09
-5.005284520187558428e-10
-3.583761343239899588e-10
-6.163824450844401781e-10
5.932189739432658371e-10
2.122086534273037728e-11
-2.360174000681780626e-10
-2.666049880861720567e-10
-3.255116662326251742e-12
-5.297906557899523250e-10
-1.402434501862614979e-09
6.477898217838173878e-10
7.470848384372175133e-10
-2.800540632730275092e-10
7.139955293666844227e-10
2.528749432073595926e-10
9.533153155771856291e-10
1.356799228524607770e-09
-1.787269082731413050e-10
4.078129500761917825e-10
4.142360898740093944e-10
-5.974108430173430406e-10
-3.175206278460684928e-11
1.294876206259232276e-09
-1.278278927152598499e-09
9.740463990937087146e-10
1.942742772209626878e-10
1.310202363269397097e-10
-6.062384622085303931e-11
-1.179073921830919858e-10
-2.968463322372549840e-11
-2.892549533228816472e-10
-7.558940973151351272e-11
3.395630721048092937e-10
1.308005179861959633e-11
-1.051360665194067678e-09
-1.533474680570634519e-09
-6.985588496544181680e-11
1.173887320682354130e-09
-4.913721096677647893e-10
-6.542533181885801241e-10
-1.168862673317505596e-09
8.091956549272083521e-10
-8.968901732409051419e-10
2.571516333205181581e-10
-4.939808562198777508e-10
9.700006076140965661e-11
-2.744400817711323270e-10
-2.535293502914370833e-11
-2.133565407680393378e-10
-1.047045339319652157e-09
4.513235063452469831e-10
-1.839294411221104042e-10
7.023868708877500922e-10
-2.230969020633466471e-10
-7.080562802741496853e-10
-4.005411002871994697e-10
3.261459435854874300e-10
-1.956661221935718231e-10
2.083748590342437979e-10
-3.297062067808553820e-10
2.363224893553450556e-10
3.598213671462957564e-10
5.980207301581330626e-11
-2.754862726828122277e-10
4.342776138699377952e-10
1.264209709139763049e-10
5.645531264697467577e-10
-3.474919518797747742e-10
2.511994223741709220e-10
-4.659385655081393907e-10
7.881849617419334209e-10
1.395248361291123729e-10
-2.694052203544572421e-10
-5.826969462496833785e-10
1.463583837457704817e-10
1.306730168515457535e-09
1.488426493168049092e-09
3.109558999181416539e-10
-4.331341396657251153e-10
4.423381938511994349e-10
1.293229856536015632e-09
-1.503738245034469401e-10
-1.218323913976249173e-10
7.370490884284208732e-10
8.797620409950468456e-10
1.770290997127332844e-10
-4.271895615026721771e-10
-9.122229083224908663e-10
-1.831278323427554255e-10
-1.220370804411174959e-09
-1.527349358099172605e-10
-4.175687018381779581e-10
3.945331561450160507e-10
-3.973780471344667831e-10
4.380851584273592891e-11
3.442045815038596857e-10
-6.234014970907253428e-10
-6.780098704695092238e-10
-1.347648326266437380e-09
-4.685888344013733331e-10
3.507217571918630483e-10
6.711294298078485099e-10
-4.245996262919327080e-11
4.148499876954758747e-10
-6.339707925295812174e-11
6.101742444641899965e-10
1.277602468263694391e-09
-4.673961773171697587e-10
-4.758310412356081542e-10
8.182723248983947428e-11
-2.428486300942722664e-10
9.379276244558809594e-10
1.749831113340150068e-10
-1.414509398500740645e-09
-1.077447464581382519e-09
-1.399005911117967571e-10
-2.476361338210608665e-10
9.468308359572574773e-10
-1.935102772465668863e-10
-6.252480200252819031e-10
-1.985870495824215709e-10
4.914457174542974371e-10
-1.539606497846790489e-10
7.497656384636286475e-10
1.157017925912384726e-09
8.076203039664164862e-10
3.071303975032968481e-11
1.149232584096715470e-10
-6.716556200103696028e-10
4.766231298525269722e-10
-9.146962354211751745e-11
-3.246692636960091249e-10
-6.549558811963507310e-11
5.347102760566713187e-10
8.138314466776819245e-10
-1.417301720429975376e-09
8.288265074263279075e-10
9.918445925682917164e-11
-5.087557458649527575e-11
9.844278864301614362e-11
6.921195838671678757e-10
7.604962770635381730e-10
-1.192581450260021825e-11
2.841339663550712658e-10
2.745626781486265600e-10
-3.793510505722963444e-10
-5.135095126895805606e-10
4.115311147412370474e-10
-2.663766429655822776e-10
9.175165627262060752e-10
-3.888416671982142248e-11
-9.736363798529268365e-11
-9.859967287084714371e-10
-4.535433972829849836e-10
-7.728888640201603266e-10
8.989936399472764350e-12
-1.538480565166366887e-09
5.719741347220974603e-10
-2.346950932208269336e-11
-1.554149031690599259e-09
-1.698907681202399544e-10
5.775709355226865682e-10
7.905547882991470487e-10
5.107463896258934710e-10
2.878850768883722822e-10
2.274108457100965097e-09
1.969637231091780905e-10
5.554312565436703153e-10
-2.974056001470160027e-10
-7.621531739054887566e-10
4.606784120841922459e-10
2.204021132268252359e-10
4.503430961477761230e-10
-3.673357729105930503e-10
1.208319777568078734e-09
-1.058314408330929268e-10
-2.506856389139500152e-10
-2.762425566071868843e-10
5.562275640080827088e-10
9.019800462084504034e-10
7.666230428249320994e-10
-2.629387818586792491e-10
-1.494460111217676967e-09
-1.716133068985215004e-10
1.145950140335472156e-10
2.158787454353827684e-10
1.046387837488893524e-10
8.642838111860839945e-10
2.461880033166607973e-09
6.461640111865563085e-10
-3.299608919427043929e-10
-8.979380433649097881e-11
5.273159686680628511e-11
-7.980558991427244564e-10
4.785841722920736174e-10
4.666262376495922126e-10
-7.890557651712981624e-11
-1.183662834414178633e-09
9.712377568860119936e-10
8.579945087738849452e-10
4.939224029776312364e-11
-5.333868416390608047e-11
-5.516302414854123981e-10
8.265162998455366505e-10
-1.050728393181543652e-10
5.154605631219055795e-10
-1.762280460448906183e-10
-4.734077574397588251e-10
-4.433597933228838883e-10
-3.435095818904443377e-10
-5.253629753454447382e-10
7.271701019107013053e-10
-1.992393472427522738e-10
1.103446889416659360e-09
2.128902470976967720e-10
-1.630752061165807731e-10
6.324736290252985782e-10
1.253883663565602546e-10
4.997670610684679104e-10
-1.568405183505205969e-09
2.846713142989898415e-11
6.782290007389946140e-11
-4.620685223333254044e-10
6.638743998976792682e-10
-1.233570801062455757e-09
2.099120183229885583e-10
6.012037395697333864e-11
-3.064555831322479662e-10
-5.435789041108307629e-10
2.676288878011856553e-11
3.127100800526250168e-10
8.158573261418666789e-10
7.786159494926891966e-10
-6.187277912239608213e-10
3.741320309114115616e-10
2.374516416825400711e-10
-8.628348036054944714e-11
7.138401536543881321e-10
3.126042757983782394e-10
-8.880295943036742301e-10
2.754825256801041178e-10
-1.174554231653246461e-09
7.779181743217122857e-10
-2.991162595389340595e-10
-8.055460465339336906e-11
-1.166556018450393140e-10
4.041169066049121739e-10
2.713773095130989077e-10
1.651625086696029143e-10
-1.358887891100835077e-09
2.147690081333308854e-10
2.330126092076056921e-10
-3.308624901832146747e-11
3.810568527384816662e-10
6.309392452941153806e-10
-2.044301811165993854e-10
-4.684461152315577692e-10
1.143023009575472315e-09
-1.323204185110782305e-10
-6.230095328518814313e-10
8.536896745070521320e-10
2.025563050622736228e-10
1.696594864597500418e-09
-1.478365430074290998e-09
-3.376039170444045112e-10
-1.241429625764567390e-09
1.987461445418503558e-10
-3.776655377318860474e-10
-2.427263390281098054e-10
6.464833668395897348e-10
-2.331587700687975939e-10
2.228704554241289770e-09
-5.353323895285200251e-10
-1.145610717401268630e-09
7.979297778071270386e-10
7.232731635831157746e-10
4.504571160524051265e-10
2.070282140165247142e-10
-8.039853782726424924e-10
-4.594372937649637834e-10
-1.996461884701261624e-10
-6.926402784657170741e-10
6.950273689909636232e-11
1.028755303167372404e-09
5.074928810522294498e-10
-1.649588243779476215e-09
5.876318875941421993e-10
5.783968859418564534e-10
-3.513067059479624277e-10
5.412002790361469806e-11
-8.683090357841649620e-10
1.006954519766622980e-09
1.243218972213355755e-09
-2.869650697623349345e-11
1.109915159780427985e-09
-7.165106841178214836e-10
-1.058974463674644539e-09
3.573265572320849515e-10
4.980651446828687767e-10
7.766372545070510114e-10
3.876693410731490985e-10
6.614495062784442325e-10
-1.089070278403880820e-09
-6.387754769576758918e-10
1.660159898442259419e-09
3.631728251463073320e-10
6.743269276299201920e-10
-1.078760525352606692e-09
5.477350795146662676e-10
-9.234248365963537708e-10
3.034785964195485519e-11
-8.918378535671678264e-11
2.739092563874834241e-10
-1.797493265343064195e-10
-7.464375784138610470e-10
-5.157941296296542077e-10
-1.489104672902641369e-10
-3.993078090402946145e-10
8.171915921728611920e-10
-9.212179907791551159e-10
1.805906202356766244e-09
-3.139285220665755105e-10
8.206225698970115445e-10
3.961280470310413193e-10
4.471211456635870718e-10
-2.182238001413594475e-10
-1.194045513505659351e-12
-6.342024821970326798e-11
2.417887556838138607e-10
-4.601921899105576585e-10
3.462203579385203511e-10
-5.885809895023186300e-11
1.124444981570604796e-09
1.210279210184239673e-09
4.846468226737954410e-10
-1.750527500732346198e-10
1.702061491748452227e-09
-2.581199420870206040e-10
-4.488080740383537659e-10
-9.519063315366338429e-10
-2.686346457780874886e-11
2.025467710220496542e-10
-2.356418948856742190e-10
-6.030798083145327837e-10
-1.162418147848676142e-10
1.627901147216448408e-10
5.280060277890186171e-10
-8.670065776428259596e-10
1.491221729432723464e-10
-6.176748695851941307e-11
-2.706951052200423646e-10
3.814019100545351648e-10
7.617195936504561615e-12
-3.868307618670741022e-10
-7.114149824793969401e-10
3.388542779703129781e-10
1.485755740660010815e-09
-1.038252372964620918e-09
-9.638044806692391830e-10
3.497530320917263680e-10
-6.854322109894894766e-10
-9.634635970978688846e-12
4.429442090891910766e-10
-1.113262482199672831e-09
5.270907599275176381e-10
-1.012074313244681889e-09
4.304667733379119454e-10
-1.571858643245604981e-09
1.812356098529477322e-10
-1.920844212854877497e-11
2.969216816861575126e-10
2.121926523379613627e-10
-5.736933150757295152e-10
-4.290317545674326993e-10
1.492916901213448000e-10
-3.571706819194275795e-10
-2.417039901558837300e-10
-5.176061801392961570e-10
4.068851089389369236e-10
4.103048178993873307e-10
-6.119617590449877298e-10
-1.414190570203643915e-10
-1.271155958271208419e-10
-5.660890853298461423e-11
-1.274959027242061893e-09
4.823320076674519896e-10
-7.584307487595864927e-11
9.517988619478501278e-10
-6.569941812806234793e-11
-7.461177509160421550e-11
4.509643491967807449e-10
4.241142714800361091e-10
-5.850448597799484673e-11
-1.710581454261728140e-09
-5.970837158031372383e-10
5.600528374394286857e-10
1.433118901328356287e-10
-3.600972575679151078e-10
7.859358164274965475e-10
-7.068379215269260385e-10
-4.322225632957810149e-10
6.306564714897433532e-10
-4.246597518076100641e-10
4.359518301910725313e-11
-7.714801575353646967e-10
4.459060620742860692e-10
6.039297395510345723e-10
6.450265321866766044e-10
5.598752572666398919e-10
1.188001363949808820e-09
-1.942281196987138969e-10
5.344029663234550753e-10
1.681675493303558255e-10
2.546328981001266811e-10
7.151942371663722042e-10
2.968362361466247989e-11
1.035654673131602976e-09
-8.122639783003648972e-10
-1.036498178952349747e-10
3.301851569936786746e-10
-3.524910641150569290e-10
-6.519292883311322839e-10
-1.116030379222365809e-09
8.122265082732837982e-10
-1.197096866079050415e-10
-2.896942928598544853e-11
2.476262250805660869e-10
-7.450121769503326163e-11
3.593578490335147535e-10
5.245440193313299915e-10
-4.848721424366431165e-10
-5.919101320195352400e-10
1.837926755232643927e-10
1.120427972622906054e-09
1.057169768392540732e-10
-3.827343719731146621e-10
2.720013381196650926e-10
-5.864993490867220771e-10
-6.727879919843360312e-10
-8.182295396785832509e-10
-5.629095523040916760e-10
2.138578619748088272e-10
-9.066791761824788409e-10
-3.032550321968585649e-10
3.771280232545137778e-10
-1.105456004513172275e-10
-1.067670063470416153e-09
-1.388599374374521744e-10
6.990464873624091524e-10
1.921725834019838430e-10
-4.827623301117967003e-10
-1.114422859549435429e-10
-6.851731404466931963e-10
4.277788123729919789e-10
2.594761627783270796e-10
5.571239580781650602e-10
1.181840458830407670e-10
6.064932445148940587e-10
2.548447564088007766e-11
3.893829980672336433e-10
-5.710686784565766061e-11
1.797284404636556587e-10
1.017126036173543469e-10
-1.104019653475063478e-09
1.703336499625507372e-10
-4.677576104228364784e-10
-1.688208323136208833e-10
-1.459198734066191605e-10
6.079681202919573479e-10
6.773409610971725670e-10
1.796941206944069336e-10
-1.449553366228428786e-09
-5.420683346635257749e-10
-9.517356902577489564e-10
3.410756677091342226e-10
8.548722146839438096e-11
6.035807409432436543e-10
5.312409956381713982e-10
1.010544870005958273e-09
4.913616735713333128e-10
7.850714522916746319e-10
-5.017901649750911020e-10
2.436714441333975856e-10
-7.623078279728190410e-10
1.493309920164165305e-10
4.387860907950624778e-10
-2.045686675611335659e-10
-1.522758724670225661e-10
-3.321621588892043064e-10
2.733363535512012277e-10
1.929801041189449506e-10
1.556255346812918106e-09
-2.110249822107057582e-11
4.104467113408283296e-11
-2.741372406855902000e-10
-5.105898481794213239e-10
-1.234034430197539223e-09
1.738087312963543241e-10
3.098601375484122400e-10
-1.297776747177792345e-10
6.722538636871888684e-10
7.542963476048214488e-10
-3.314071517213079687e-10
1.037144814475254861e-09
-1.699447249592367370e-10
-9.186706950714551567e-11
1.399510923816293939e-10
-3.570783252415665743e-11
-5.455852991609333458e-10
7.287661030197511991e-10
3.069979270797773552e-10
-1.012726236204741781e-09
-1.742682248506710607e-10
-7.605276408639838337e-10
1.755875306264087499e-10
2.693565370748274290e-10
-5.722277096609218461e-10
-1.030613372421385066e-10
-4.243593809682977280e-10
-3.413172799948682723e-10
3.926930447484267006e-10
-5.791446766600927276e-10
-3.996964426100646506e-10
8.888078467661486570e-11
-1.880428729394978404e-10
2.384694941515164146e-10
1.633035928705339757e-10
-3.272145054911135276e-10
1.117873127398638644e-09
3.009156812616708976e-10
-9.047649851545713773e-10
1.241863611944893364e-09
3.044965668497212619e-10
-4.594286062697960915e-10
4.307481871190788070e-10
8.347383895213056348e-10
1.051428596965386930e-10
-5.082592680061281953e-10
4.675551178862091817e-12
1.498899962482092008e-11
-1.655949682932700284e-10
-3.692881833661232349e-10
-9.810127155063241844e-10
-3.709099138937688167e-10
-2.489651262926884101e-10
8.667384171490155609e-11
-4.831013367123659918e-10
-2.472715088241983494e-10
4.308842518896405238e-11
5.087810728277020189e-10
1.488787843006988965e-10
-1.975968139111827782e-10
2.107005264706529601e-10
6.690771825468289080e-10
9.499157016534809372e-10
-7.678824798240668770e-10
-6.890924497682249239e-10
3.803496406717954414e-10
-1.514439545990953206e-10
5.976498185233936056e-10
-1.391903675651562367e-10
1.969508028887290152e-10
3.103761692102580128e-11
1.984178446545747931e-11
6.048538336855813213e-10
-1.514600556085099470e-09
9.364956587987194325e-10
-1.327866150369061415e-10
-3.424264760631956506e-10
3.096491951737334603e-10
-1.758419104769259889e-10
-8.720683203344847811e-11
1.087156697998636901e-09
-2.877960647573729602e-10
-4.581250379054324640e-10
-1.127107518428260846e-09
-3.793919345351781658e-10
-2.921599628891158318e-10
1.044839437192024434e-09
5.126546409606191901e-10
2.799959153421127667e-10
3.016652483367465720e-10
-3.934715053777182447e-10
-4.318004009906672991e-10
-2.875666371693341716e-10
-5.227519528361312950e-10
-1.034619723228047405e-09
-4.489224547654657727e-10
1.976234315081981663e-10
-2.051325775909162985e-10
-6.585453016239029012e-11
4.363291117304157751e-10
5.075431741552449694e-10
5.394412139203552670e-10
1.308922303877579907e-09
5.436380789980432837e-10
-2.818226485512553836e-10
-4.789164551044500229e-11
-2.215534283811493310e-10
-3.704308249030674460e-10
-1.409780514549652253e-09
1.123374657185927106e-10
5.862971774739378361e-10
-2.447349267686860230e-10
1.399065308049785017e-09
8.173552945578421713e-10
2.203909499343126299e-09
6.024944987359504012e-10
3.695859174257520863e-10
-1.058727994163177755e-09
-1.098468746518754813e-10
3.040543095078618308e-10
-2.771989582317502254e-10
6.870808366699066028e-10
-1.713294783822760792e-10
-2.979758384480390987e-10
1.304601565665919338e-10
1.473887012437558042e-09
7.302193849589855290e-10
8.903797144022007615e-11
-5.242790646065031979e-10
-4.312839668729750997e-11
-1.014317935199571252e-10
1.859117720881542368e-10
4.179847579166562355e-10
-4.326897451445432807e-10
1.050801889945773837e-09
6.920697348533622062e-10
-1.083169220983393188e-09
5.556845539267385448e-10
-3.693533534576687316e-10
8.803884288255403590e-10
-1.837918012226325004e-10
-1.557672220375838634e-11
5.832671567951308589e-10
1.614159639284906689e-10
-1.868605409294232800e-10
3.542957593971607366e-10
-2.233881551960692491e-10
-9.698543079750265861e-10
6.408775177213499319e-10
1.960750312113290761e-11
-4.135074227473722885e-11
-4.285999888331559760e-10
-1.572078023315270912e-10
-5.797736180035428788e-10
-4.565233607811691741e-11
-6.034605037896767499e-10
-6.072717328997612185e-10
-6.366318583417296395e-10
-6.777573502425582319e-10
-5.716865314475683135e-10
-2.413708954929205674e-10
4.399105246744028364e-10
-6.001608099381883221e-10
-4.704532874377775897e-10
2.485164019017105375e-10
5.099408117992254574e-10
-3.075363297355693248e-10
-5.380076939509592648e-10
-4.946434234431862365e-11
2.942900645397372728e-10
-7.271702684441549991e-10
5.449583007077762886e-10
1.694101109395163007e-10
5.650249157440612180e-10
-2.998044867918991940e-10
-1.167703267412889545e-09
1.945824057436595922e-11
8.830463027464929837e-10
-7.590622574937810896e-10
-5.702946795360652743e-11
1.910949620764768042e-09
-3.591797415047892628e-10
-5.805051994656196257e-10
6.681164510524695288e-10
-7.461892770344036308e-10
-7.049879569009931402e-10
-1.124559334542141187e-09
5.778256206845355791e-10
2.960112363559197490e-11
-1.229533697078011301e-09
1.844758096281040594e-10
-5.523594914791374322e-10
2.219572720063567317e-10
-1.318202880185026515e-09
-1.929396920008485949e-11
-4.837653611033942980e-10
1.708270608302697724e-10
7.224236764358238361e-10
-1.027665619268702812e-09
-1.015553197092344817e-09
3.760814576425630662e-11
4.868282998948814111e-10
-9.385030252939685624e-11
6.318671280647336630e-11
1.793061532584516726e-10
1.101222113497613009e-09
2.085935313367315302e-10
5.186802376488941491e-11
2.796116289893735285e-11
-1.205715194352308117e-09
1.348849087978720718e-10
2.526289732962538892e-10
1.083234613119543610e-09
2.863728421065303564e-10
-9.579794735259383742e-10
1.891795747832603070e-10
5.064649047370473056e-11
-7.563404347266100558e-10
3.877171639299348271e-10
-6.528074192324595515e-10
8.304035792328079424e-10
9.478386964190121944e-10
5.328738006404876160e-10
2.635869300604554155e-10
1.473048766298390433e-10
1.047857689506770384e-09
9.748326451619604427e-11
7.905238130767600069e-10
7.671248636320626701e-10
-1.625908019331490095e-10
4.106411322091219063e-10
8.368264969860206293e-10
-8.694611697279697182e-11
1.014457962078552100e-09
8.478324708960371936e-10
-3.330729858586067849e-10
-1.242974473347757680e-10
-5.035196148917009396e-10
1.353663570125007709e-10
5.453751894535230349e-10
-5.031078678663369885e-11
-2.298567031155940299e-10
-1.373911873159272545e-09
5.434530048198382701e-10
3.141756022007058391e-10
-1.760019907592891286e-10
1.093029902698994249e-10
1.121848794416457906e-10
-5.086946974763861817e-10
8.463174605566337050e-10
5.689200777148073485e-10
1.575492097893871346e-10
-1.847653419151384924e-10
1.134417670911602727e-09
4.078677395824570340e-10
1.673114091715888208e-09
-6.199140645257728011e-10
5.776566031068242069e-11
5.330423880067769460e-10
-1.904481156111970108e-10
-6.417484321730171359e-10
-5.050878049139839732e-10
3.574296067454518777e-11
-1.231732355000403345e-10
-1.433491658708874184e-09
-8.619450153624086397e-10
-2.928030595761299537e-10
-2.375950547417460257e-10
8.536238382816918602e-10
-1.012992911775256744e-09
4.605259229517599806e-11
-3.852352881139609053e-10
6.531514218366396562e-10
8.629468251086791497e-10
5.730404484260986919e-10
-1.762849310971148498e-10
4.965786670751981546e-10
-1.631393242718104375e-09
-1.189503275609085642e-13
-5.269356131987201763e-12
-9.778868687027042483e-11
2.556085898497428843e-11
8.264550710457285732e-10
3.917797475327944312e-10
-9.331759809327877520e-10
-9.104116072133905391e-11
7.256562711832614809e-11
1.971468648054308659e-11
2.241681978931708841e-10
-3.881383756065837076e-11
1.451500464960675529e-11
1.027882154391868141e-10
-2.015408256950124155e-10
-2.517101527210741096e-10
6.613240510766615898e-10
-9.145013635247778438e-10
-3.704197504283968101e-10
4.191292035660154625e-10
-5.607184716538426983e-10
5.999082897112373303e-10
-4.565733069394894983e-10
-9.624060229307396241e-12
4.375972084691426289e-10
5.585852336231766913e-10
7.851267969094521959e-10
2.336463141017208756e-11
1.130841253971226479e-10
-1.799495136234341430e-10
-5.041279060868930628e-10
4.566389766313960763e-10
2.904999296671206821e-10
1.534057603169713957e-11
6.375208139175470023e-10
6.323591095203084933e-10
-2.131670395755236314e-10
-4.184307067500725452e-10
4.265058028973811588e-10
-8.878212609531033195e-10
-5.973978534079549263e-10
-8.178676624837066811e-10
2.802117149425242815e-10
1.400685817332103511e-10
7.619611538944859319e-12
2.005642180114008966e-10
6.459994206231556291e-10
-5.508597467063225395e-10
-7.154137837694918289e-10
-6.313593398088457320e-11
5.392735702436368683e-10
6.135002506013620405e-10
8.512291427287266288e-10
-1.683917588701788759e-10
-7.100654508818138311e-10
8.979314514157010763e-10
-5.764735910851470635e-10
5.133324321171528481e-10
-1.976555363825127642e-09
2.860191250508847816e-10
1.020693862763266679e-09
9.926994781750408947e-10
6.961595883092641657e-11
1.656909609515366810e-10
-9.667106004584979928e-10
2.103295454469744641e-10
9.150052937556552024e-11
-6.749286685092670268e-10
4.923584873139930096e-10
-9.594674360569044325e-11
-1.152806738957679045e-09
1.157690193709370874e-10
-6.391402962435677182e-10
-7.999103046607558554e-10
-5.169897843160242701e-10
-5.612959541601014735e-10
-7.137879176610795184e-10
2.426365774965688615e-10
-3.438510864928190358e-10
-2.614215233176508946e-10
-1.278671526300234618e-11
-7.622779074623053930e-10
9.985850341065471980e-11
3.719132293800164746e-11
-7.314697736404696116e-10
-2.531179710274500394e-10
-5.742128439401028572e-10
-4.956132726441353498e-11
2.203727755833995161e-10
-1.619901768279419230e-09
9.557360458600783204e-10
1.746793543144775640e-10
-1.688866158033874854e-09
-3.369950984932756910e-10
4.363544525709528443e-10
-5.591508922542232085e-10
-2.187015901711220067e-09
6.653194661865313719e-10
-9.712417536889006442e-10
1.047062853087865619e-10
-9.400045186680472398e-10
-1.013960804208124955e-09
-2.971765195036724094e-11
1.103871771768183407e-09
-4.004466203078038689e-10
1.365521862251029006e-10
-8.367790488295057116e-11
-1.588038867073038318e-10
-1.401021854086081930e-09
-1.852327180529300676e-10
-8.628360248508215591e-10
1.128327778432414163e-10
-1.217614117171583743e-11
3.228124711984747819e-10
-7.585072153704075504e-11
-4.980317269698275595e-10
-1.098810820110429631e-09
-7.308115224091693563e-10
-8.403349682772898177e-10
-1.430828233672798433e-10
5.488292043054343594e-10
5.185729068379885121e-10
-1.092755774756426490e-09
-2.550023213421237500e-11
5.321984519746081332e-11
2.845775837201358627e-10
-4.180460491665094480e-11
2.306159985199229823e-10
7.960936354578507235e-10
-1.089500600848225531e-09
4.335324321758093902e-10
-1.036639440954445490e-09
-6.579877753765117632e-10
1.029604623781210648e-09
8.004944485051623815e-10
2.555796407843757834e-10
1.124388915307861225e-09
4.139302789418763950e-10
-3.371367351956422453e-10
-3.394007297430334802e-10
1.386190828789324314e-09
