4.876850545406341553e-02
-9.973219037055969238e-02
-1.142878010869026184e-01
3.837886080145835876e-02
-5.775872245430946350e-02
5.301897600293159485e-02
-1.082941796630620956e-02
-1.241012010723352432e-03
6.987032294273376465e-02
-5.039836466312408447e-02
-5.489041283726692200e-02
-7.124451547861099243e-02
1.505852490663528442e-01
1.346346437931060791e-01
-5.888978764414787292e-02
5.337275564670562744e-02
-8.844053745269775391e-02
2.671950682997703552e-02
-1.611350029706954956e-01
-7.067850977182388306e-02
5.809529870748519897e-02
-1.681195348501205444e-01
-1.019461750984191895e-01
-8.065808564424514771e-02
-1.315383762121200562e-01
7.753694802522659302e-02
-4.454472288489341736e-02
4.921952635049819946e-02
8.129014819860458374e-02
5.879027768969535828e-03
-4.241481050848960876e-02
1.101279035210609436e-01
3.370657935738563538e-02
-9.374467283487319946e-02
9.279862046241760254e-02
2.879646420478820801e-02
8.269517123699188232e-02
8.473737537860870361e-02
-1.208303943276405334e-01
2.526633068919181824e-02
-5.352083221077919006e-02
-1.178150475025177002e-01
3.620383143424987793e-02
1.500449888408184052e-02
1.062298640608787537e-01
-1.597727984189987183e-01
-4.569450765848159790e-02
9.738590568304061890e-02
3.964646533131599426e-02
-4.158239811658859253e-02
-1.534686535596847534e-01
-1.288334876298904419e-01
1.046041492372751236e-02
-5.873490497469902039e-02
1.019626706838607788e-01
-4.287967830896377563e-02
-6.644594669342041016e-02
-4.133218154311180115e-02
-3.151505813002586365e-02
6.973230838775634766e-02
-1.012687459588050842e-01
-7.170310616493225098e-02
-9.414865076541900635e-02
-1.479419916868209839e-01
-5.188900232315063477e-02
4.202142730355262756e-02
3.465269133448600769e-02
-8.958126418292522430e-03
1.244140136986970901e-02
5.513843521475791931e-02
-1.329404562711715698e-01
-8.269717544317245483e-02
1.558767538517713547e-02
1.284272223711013794e-01
1.621545851230621338e-02
-9.447294473648071289e-02
-8.237719535827636719e-02
-7.952389121055603027e-02
-3.472272679209709167e-02
-1.109844893217086792e-01
-8.220586925745010376e-02
-1.100033074617385864e-01
-1.468590646982192993e-02
-6.768653541803359985e-02
8.497620373964309692e-02
-4.052245244383811951e-02
-1.598473936319351196e-01
-3.871046006679534912e-02
8.453501760959625244e-02
-6.159310787916183472e-02
2.505527064204216003e-02
-1.503625661134719849e-01
-6.275389343500137329e-02
-4.295144230127334595e-02
-3.764371573925018311e-02
1.164704039692878723e-01
7.603026181459426880e-02
4.462099820375442505e-02
-7.311969995498657227e-02
-2.369952946901321411e-02
7.348340004682540894e-02
-7.077210396528244019e-02
-6.925074011087417603e-02
-8.544792979955673218e-02
-7.473134994506835938e-02
-1.581264287233352661e-01
3.712813928723335266e-02
-5.765761062502861023e-02
1.681562885642051697e-02
3.548849746584892273e-02
1.575552858412265778e-02
-5.035157501697540283e-02
-1.596120893955230713e-01
-1.627048105001449585e-02
-9.168709814548492432e-02
1.272334307432174683e-01
-8.327236026525497437e-02
1.516962517052888870e-02
-9.559412300586700439e-02
4.743823781609535217e-02
-2.198128588497638702e-02
-8.589860051870346069e-02
1.133780330419540405e-01
-1.333720237016677856e-01
-1.311432123184204102e-01
6.134372204542160034e-03
4.155010730028152466e-02
3.832392394542694092e-02
-1.738626137375831604e-02
1.819236204028129578e-02
1.455579102039337158e-01
1.056952103972434998e-01
8.828619867563247681e-02
1.083190552890300751e-02
8.491660654544830322e-02
7.111265510320663452e-02
-1.863042451441287994e-02
1.016884818673133850e-01
-6.910990178585052490e-02
9.607423096895217896e-02
2.878823503851890564e-02
-5.053365230560302734e-02
-9.305439889430999756e-02
6.402699649333953857e-02
-3.451359272003173828e-02
-3.845173120498657227e-02
5.126763600856065750e-03
-5.255243182182312012e-02
1.039185672998428345e-01
4.389528557658195496e-02
-2.212740853428840637e-02
-3.365950658917427063e-02
-4.512845724821090698e-02
-5.596994608640670776e-02
1.261573433876037598e-01
-2.130085602402687073e-02
-2.460531890392303467e-02
-2.082640491425991058e-02
-1.263725161552429199e-01
5.327463522553443909e-02
-1.292165368795394897e-01
-4.122476279735565186e-02
-2.656302973628044128e-02
1.498794257640838623e-01
7.987637817859649658e-02
-1.216775998473167419e-01
1.220281198620796204e-01
1.213942375034093857e-02
6.052024662494659424e-02
-8.553605526685714722e-02
-1.127012968063354492e-01
9.626621007919311523e-02
4.034305736422538757e-02
-1.074096933007240295e-01
-6.132329255342483521e-02
1.029459908604621887e-01
-3.625884279608726501e-02
-1.233758330345153809e-01
2.480934374034404755e-02
-1.172842606902122498e-01
-1.399470679461956024e-02
-7.703951001167297363e-02
-6.627175491303205490e-03
-5.888051912188529968e-02
-6.465665996074676514e-02
8.536256849765777588e-02
3.568907082080841064e-02
2.921550534665584564e-02
1.327053606510162354e-01
7.395234704017639160e-02
-5.161448568105697632e-02
-1.002318412065505981e-01
-7.351561635732650757e-02
9.261330962181091309e-02
-5.753173679113388062e-02
1.037029996514320374e-01
-2.069008536636829376e-02
7.679127156734466553e-02
5.654797703027725220e-02
7.110726833343505859e-02
1.067120432853698730e-01
-4.761255532503128052e-02
3.994466364383697510e-02
-3.291823714971542358e-02
-1.133610727265477180e-03
1.350157260894775391e-01
1.044011488556861877e-01
6.945583969354629517e-02
5.180367454886436462e-02
-8.398971706628799438e-02
5.269744992256164551e-02
5.418099462985992432e-02
1.489917337894439697e-01
-7.287103217095136642e-03
-7.632091641426086426e-02
1.119163557887077332e-01
-4.445230960845947266e-02
-7.298537343740463257e-02
7.943809032440185547e-02
-3.636564686894416809e-02
2.515901066362857819e-02
-6.640439387410879135e-03
-8.203542977571487427e-02
5.095613654702901840e-03
1.468522101640701294e-02
-3.242321312427520752e-02
-6.200364604592323303e-02
9.706027060747146606e-02
-5.245048180222511292e-02
-4.559016972780227661e-02
6.252792477607727051e-02
-1.590764224529266357e-01
-5.598032847046852112e-02
-7.214368134737014771e-02
2.786651952192187309e-03
-3.936955705285072327e-02
4.339782148599624634e-02
-3.619952127337455750e-02
3.759112954139709473e-02
1.001010164618492126e-01
-1.368897706270217896e-01
1.669655181467533112e-02
1.146052554249763489e-01
-1.400646269321441650e-01
1.395523995161056519e-01
-8.412513881921768188e-02
8.925545960664749146e-03
8.106962591409683228e-02
-2.235314808785915375e-02
-6.326033920049667358e-02
1.958364993333816528e-02
-3.311544284224510193e-02
9.670806466601788998e-04
-2.376091480255126953e-02
-6.068904325366020203e-02
6.092141568660736084e-02
1.270685493946075439e-01
4.025405738502740860e-03
-1.434057503938674927e-01
2.890684083104133606e-02
4.220666363835334778e-02
3.137572854757308960e-02
9.833016991615295410e-02
9.383016079664230347e-02
-4.137201607227325439e-02
-1.229731589555740356e-01
-1.026947274804115295e-01
-1.527006179094314575e-01
-4.335913434624671936e-02
-1.760597899556159973e-02
2.905774302780628204e-02
1.249879715032875538e-03
-1.003637313842773438e-01
-5.640011653304100037e-02
5.412613227963447571e-02
4.820414632558822632e-02
-9.738882631063461304e-02
-6.812078063376247883e-04
-8.505177497863769531e-02
-2.535876259207725525e-02
7.002177089452743530e-02
-1.412096768617630005e-01
-2.815073356032371521e-02
5.099598690867424011e-02
6.958276778459548950e-02
-2.073624730110168457e-02
1.045040506869554520e-02
2.000125311315059662e-02
1.076149940490722656e-01
1.748981885612010956e-02
-7.329992949962615967e-02
3.087837062776088715e-02
1.229404509067535400e-01
-1.175713613629341125e-01
1.117875799536705017e-01
8.009418845176696777e-02
-1.280492637306451797e-02
2.046840498223900795e-03
-5.379021912813186646e-02
-1.169643923640251160e-01
-1.548788603395223618e-02
-1.131418794393539429e-01
-7.205756846815347672e-03
9.193710982799530029e-02
-2.757097594439983368e-02
-7.931909710168838501e-02
-1.826369613409042358e-01
9.592473506927490234e-02
-1.500239819288253784e-01
6.600129418075084686e-03
4.725278168916702271e-02
3.748971223831176758e-02
3.801260888576507568e-02
-2.861201390624046326e-02
5.455917119979858398e-02
-2.117318846285343170e-02
4.896971210837364197e-02
1.111553311347961426e-01
-6.030084565281867981e-02
-1.083457544445991516e-01
1.307387799024581909e-01
-8.508189022541046143e-02
3.386918827891349792e-02
-1.941199414432048798e-02
-1.345454603433609009e-01
-6.989609450101852417e-02
-8.915963023900985718e-02
-3.286454826593399048e-02
-1.477264314889907837e-01
1.207023486495018005e-02
3.851281479001045227e-02
1.505062635987997055e-02
-1.176456809043884277e-01
6.605286896228790283e-02
1.108233332633972168e-01
-8.028031885623931885e-02
-8.164435625076293945e-02
-1.508663594722747803e-01
-3.886636719107627869e-02
-1.492721438407897949e-01
-2.709810435771942139e-02
6.269159913063049316e-02
5.621024221181869507e-02
-8.216734230518341064e-02
4.769984632730484009e-02
-7.604010403156280518e-02
-1.352826952934265137e-01
-6.217432674020528793e-03
3.475213795900344849e-02
6.993149220943450928e-02
1.224950402975082397e-01
-1.572594940662384033e-01
-4.023689543828368187e-04
8.047083765268325806e-02
1.456004567444324493e-03
-1.308090239763259888e-02
-9.154741466045379639e-02
-1.072083041071891785e-01
-8.438429236412048340e-02
-9.598474949598312378e-02
-1.556892693042755127e-01
-1.342427879571914673e-01
-4.075744748115539551e-02
9.601566940546035767e-02
-2.951254881918430328e-02
-1.420978456735610962e-02
-6.223766505718231201e-02
6.630701571702957153e-02
-2.475754730403423309e-02
1.245141774415969849e-02
-1.540663838386535645e-01
-5.363830551505088806e-02
-8.155149966478347778e-02
-9.758184105157852173e-02
3.636622428894042969e-02
-9.472057968378067017e-02
6.639925390481948853e-02
8.491573482751846313e-02
8.208255469799041748e-02
-1.624370664358139038e-01
-2.969588339328765869e-02
5.264635384082794189e-02
8.551447093486785889e-02
-1.534357964992523193e-01
-4.216425120830535889e-02
-5.529856774955987930e-03
1.154362689703702927e-02
-5.379480496048927307e-02
7.490675896406173706e-02
3.390118852257728577e-02
-8.590006269514560699e-03
3.554650396108627319e-02
-8.624720573425292969e-02
-8.139271289110183716e-03
6.078315526247024536e-02
-1.257323771715164185e-01
-8.948204666376113892e-02
6.632715463638305664e-02
-1.247840188443660736e-02
9.739276766777038574e-02
-9.846534812822937965e-04
-1.018537729978561401e-01
1.223940998315811157e-01
-9.618292003870010376e-02
7.252921909093856812e-02
1.450375840067863464e-02
-9.720018506050109863e-02
5.982871353626251221e-02
5.426192656159400940e-02
1.114240363240242004e-01
-1.079356968402862549e-01
1.978806778788566589e-02
-1.477477885782718658e-02
-1.950374245643615723e-02
-5.275467876344919205e-03
-4.576133564114570618e-02
-2.982892468571662903e-02
-6.809146702289581299e-02
4.678587988018989563e-02
-2.267494425177574158e-02
6.345746666193008423e-02
-1.124108135700225830e-01
4.668464511632919312e-02
3.273479640483856201e-03
-4.146577045321464539e-02
-1.579163819551467896e-01
-4.647493734955787659e-02
3.124639950692653656e-02
-5.708486586809158325e-02
-1.142817437648773193e-01
-1.032876372337341309e-01
-5.774582922458648682e-02
2.314780652523040771e-02
9.058670699596405029e-02
1.458809245377779007e-03
4.044309724122285843e-03
-3.931551240384578705e-03
-1.523838751018047333e-02
-7.680200040340423584e-02
-4.018897563219070435e-02
-9.708798676729202271e-02
-5.824725702404975891e-02
-1.213165074586868286e-01
-8.707939088344573975e-02
4.358517751097679138e-02
-1.214273646473884583e-01
9.495794028043746948e-02
-9.154543280601501465e-02
3.438299521803855896e-02
-5.520418658852577209e-02
8.630956523120403290e-03
7.991913706064224243e-02
4.642724990844726562e-02
-1.091459617018699646e-01
-6.941466778516769409e-02
-3.666945919394493103e-02
8.777474611997604370e-02
5.463884025812149048e-02
8.934303373098373413e-02
-1.165639832615852356e-01
5.497273057699203491e-02
-3.464835882186889648e-02
-1.172984912991523743e-01
-4.711740463972091675e-02
3.941110894083976746e-02
8.599730208516120911e-03
-7.729696482419967651e-02
-8.848441764712333679e-03
1.342784613370895386e-01
-9.825678169727325439e-02
-1.214930936694145203e-01
4.563101753592491150e-02
5.175145342946052551e-04
3.771983087062835693e-02
1.078153029084205627e-01
-7.218077778816223145e-02
-7.653475552797317505e-02
-4.765845090150833130e-02
-8.748391270637512207e-02
5.007188767194747925e-02
-4.979705810546875000e-02
6.390702724456787109e-02
-9.296010434627532959e-02
-6.975662708282470703e-02
1.839510980062186718e-03
6.092229112982749939e-02
-2.100146142765879631e-03
1.675757393240928650e-02
-9.323502331972122192e-02
1.860378123819828033e-02
-4.135233163833618164e-02
-7.493365556001663208e-02
1.189158409833908081e-01
-5.477271229028701782e-02
1.234443783760070801e-01
-2.298100665211677551e-02
-8.135785907506942749e-02
-1.143491342663764954e-01
-3.203133121132850647e-02
1.155524980276823044e-02
7.674057036638259888e-02
2.037822827696800232e-02
-9.231154620647430420e-02
-1.500804722309112549e-01
-3.740261867642402649e-02
4.102352261543273926e-02
1.596561819314956665e-02
7.907161116600036621e-02
3.521472215652465820e-02
-2.134515345096588135e-02
-5.207277089357376099e-02
7.856737077236175537e-02
-2.910294942557811737e-02
-2.770796604454517365e-02
-6.885087490081787109e-02
1.267190556973218918e-02
8.288230746984481812e-03
-1.511131674051284790e-01
-9.594740718603134155e-02
-1.649398803710937500e-01
-1.434860080480575562e-01
-1.273040920495986938e-01
-5.533209815621376038e-02
3.246165439486503601e-02
-1.186071038246154785e-01
3.301549330353736877e-02
6.831861287355422974e-02
6.764676421880722046e-02
2.000822871923446655e-02
-1.874658465385437012e-01
9.777288883924484253e-02
4.941003397107124329e-02
-7.054834067821502686e-02
-4.602850601077079773e-02
2.933116257190704346e-02
-8.523330092430114746e-02
-1.365782320499420166e-01
-1.599337905645370483e-01
2.684274874627590179e-02
-1.058895662426948547e-01
8.132639527320861816e-02
-9.201107919216156006e-02
2.648993954062461853e-02
-8.640258572995662689e-03
6.517851259559392929e-03
-1.316316127777099609e-01
6.856332719326019287e-02
-1.148733049631118774e-01
9.877149015665054321e-02
-8.567228913307189941e-02
-7.458742707967758179e-02
6.754709035158157349e-02
-5.984347313642501831e-02
1.611936651170253754e-02
1.025886610150337219e-01
-2.233024872839450836e-02
-8.135999739170074463e-02
4.201414436101913452e-02
2.404857426881790161e-02
8.627989143133163452e-02
-6.602264940738677979e-02
-1.447789222002029419e-01
-2.879797294735908508e-02
2.206548675894737244e-02
-1.517319977283477783e-01
-1.458782702684402466e-01
5.565699562430381775e-02
-1.540717780590057373e-01
-1.000813916325569153e-01
-1.125485002994537354e-01
3.464479371905326843e-02
-1.277842670679092407e-01
5.274868011474609375e-02
7.526816427707672119e-02
-1.646025292575359344e-02
5.263629555702209473e-02
1.164379045367240906e-01
-5.107918009161949158e-02
-1.178692579269409180e-01
-2.371451444923877716e-02
-7.348118722438812256e-02
-3.023985400795936584e-02
-3.686048835515975952e-02
-3.388276696205139160e-02
4.090930894017219543e-02
9.185722470283508301e-02
-2.288810163736343384e-02
-6.955648958683013916e-02
-1.313246507197618484e-02
-7.712269574403762817e-02
1.267335414886474609e-01
1.189990937709808350e-01
3.597168624401092529e-02
-5.856833606958389282e-02
1.045776158571243286e-01
-6.927290558815002441e-02
-7.890042662620544434e-02
5.870094522833824158e-02
8.394960314035415649e-02
8.609228581190109253e-02
-4.622483998537063599e-02
-1.119519099593162537e-01
-7.183157652616500854e-02
1.625060439109802246e-01
-3.127441555261611938e-02
7.629302144050598145e-02
2.319575846195220947e-02
1.497933864593505859e-01
-2.492409572005271912e-02
1.513729244470596313e-01
-1.124935746192932129e-01
1.186178028583526611e-01
5.936169996857643127e-02
-2.632989920675754547e-02
-6.850110832601785660e-03
-2.141438610851764679e-02
1.286322474479675293e-01
8.557257056236267090e-02
4.003502428531646729e-02
-9.638523682951927185e-03
-9.354694187641143799e-02
-1.042945832014083862e-01
-4.425772279500961304e-02
6.346875429153442383e-02
8.467167615890502930e-02
5.060828849673271179e-02
-1.059278547763824463e-01
9.447848796844482422e-02
-7.106485310941934586e-03
-1.010121181607246399e-01
-5.900522321462631226e-02
-1.427815854549407959e-02
-4.937550425529479980e-02
-5.970294005237519741e-04
-3.516019880771636963e-02
-1.057189330458641052e-01
-1.138511747121810913e-01
3.165845945477485657e-02
1.385731995105743408e-01
-1.072222441434860229e-01
-5.362583696842193604e-02
-5.676597356796264648e-02
-1.083237826824188232e-01
1.683634072542190552e-01
5.857687443494796753e-02
-2.973071299493312836e-02
-2.531080506742000580e-02
4.605270922183990479e-02
3.341920673847198486e-02
-1.032209619879722595e-01
5.712817236781120300e-02
-4.180030524730682373e-02
-4.491011425852775574e-02
5.901917070150375366e-02
-6.732407212257385254e-02
-6.240578368306159973e-03
2.046248167753219604e-01
-1.133441627025604248e-01
-1.175644546747207642e-01
9.766646474599838257e-02
-1.450818870216608047e-02
3.231264278292655945e-02
4.871195182204246521e-02
4.746732860803604126e-02
2.262249961495399475e-02
-5.271068960428237915e-02
3.341830521821975708e-02
8.676027506589889526e-02
-8.703514188528060913e-02
2.040031924843788147e-02
-1.405269559472799301e-02
1.097868010401725769e-01
6.951861083507537842e-02
2.484981343150138855e-02
-1.384375095367431641e-01
9.203948080539703369e-02
7.353451848030090332e-02
9.477271139621734619e-02
4.277228936553001404e-02
-1.364669054746627808e-01
1.068682894110679626e-01
-8.199996501207351685e-02
8.094737678766250610e-02
1.083791255950927734e-01
1.221136897802352905e-01
-1.972439289093017578e-01
1.270685791969299316e-01
1.266615539789199829e-01
6.837421655654907227e-02
8.280865103006362915e-02
-5.216939002275466919e-02
-2.272527106106281281e-02
4.324806481599807739e-02
-1.370084583759307861e-01
1.184867601841688156e-02
6.626085937023162842e-02
-8.476204425096511841e-02
5.538918077945709229e-02
-4.873143136501312256e-02
-2.719308994710445404e-02
4.397172108292579651e-02
4.890675097703933716e-02
-4.505947232246398926e-02
-2.618915028870105743e-02
-8.216464519500732422e-02
-6.367126852273941040e-02
-4.901692643761634827e-02
6.438548862934112549e-02
-8.368770033121109009e-02
-1.258973479270935059e-01
-9.211951494216918945e-02
-4.447629302740097046e-02
1.168180555105209351e-01
6.873691827058792114e-02
-1.101242452859878540e-01
1.334188729524612427e-01
-5.852257832884788513e-02
1.170354634523391724e-01
-3.323515132069587708e-02
-1.617129519581794739e-02
6.375118345022201538e-02
-1.945327036082744598e-02
-9.786754846572875977e-02
3.249137476086616516e-02
-7.097902148962020874e-02
-7.905683666467666626e-02
1.484614913351833820e-04
-1.206664815545082092e-01
-3.737600892782211304e-02
7.334958296269178391e-03
9.958145022392272949e-02
1.881593838334083557e-02
-2.053112350404262543e-02
-7.189928740262985229e-02
-1.380849629640579224e-01
1.152205094695091248e-01
-1.182433310896158218e-02
-2.458074688911437988e-02
1.891645044088363647e-02
3.757300600409507751e-02
-1.290104240179061890e-01
-9.737101942300796509e-02
2.394453436136245728e-02
-1.321657001972198486e-01
2.216926962137222290e-02
-4.241472855210304260e-02
-1.032371520996093750e-01
-9.056146442890167236e-02
-7.630775868892669678e-02
9.988722205162048340e-02
6.029037013649940491e-02
3.658368438482284546e-02
5.685134232044219971e-02
5.359391868114471436e-02
1.434669941663742065e-01
7.984529435634613037e-02
-5.137290060520172119e-02
-9.979774057865142822e-02
-7.421560585498809814e-02
3.217215836048126221e-02
-1.233681887388229370e-01
-5.752674117684364319e-02
4.296629689633846283e-03
1.428898870944976807e-01
-7.273830473423004150e-02
8.843025565147399902e-02
-1.056376397609710693e-01
3.617982193827629089e-02
2.916527213528752327e-03
-1.001149788498878479e-01
-1.611204892396926880e-01
3.494865074753761292e-02
-7.289762049913406372e-02
-5.694546550512313843e-02
9.272636473178863525e-02
8.703865110874176025e-02
-1.668927259743213654e-02
5.933472886681556702e-02
-1.254562288522720337e-02
-1.668356359004974365e-01
-3.151395544409751892e-02
-8.712793700397014618e-03
-7.884875684976577759e-02
1.168300807476043701e-01
1.179248616099357605e-01
2.388100139796733856e-03
-6.560084223747253418e-02
-1.324814856052398682e-01
-1.279229968786239624e-01
-1.484141871333122253e-02
1.262467205524444580e-01
1.022038161754608154e-01
-1.795697398483753204e-02
3.603657707571983337e-02
-6.573095452040433884e-03
-4.535836353898048401e-02
-2.611959911882877350e-02
-2.925267443060874939e-02
3.950932994484901428e-03
1.105213165283203125e-01
9.886028617620468140e-02
6.179765984416007996e-02
8.864740282297134399e-02
1.331948582082986832e-02
-4.854783788323402405e-02
-3.416664898395538330e-02
6.878521293401718140e-02
3.724754974246025085e-02
1.575927883386611938e-01
5.704943556338548660e-03
1.117468699812889099e-01
-1.241127494722604752e-03
-4.431790113449096680e-02
-9.344358742237091064e-02
7.740518450736999512e-02
7.754580676555633545e-02
4.818192496895790100e-02
1.267040055245161057e-02
3.157935664057731628e-02
-8.036692440509796143e-02
-1.192794218659400940e-01
7.509913295507431030e-02
1.359555125236511230e-01
8.780791610479354858e-02
2.339362353086471558e-02
-6.120050325989723206e-02
-4.573694989085197449e-02
1.773046702146530151e-02
-5.013565346598625183e-02
5.992252007126808167e-02
7.243301719427108765e-02
-6.053367163985967636e-03
-4.550988599658012390e-02
-1.191147193312644958e-01
-1.390719115734100342e-01
9.551849961280822754e-02
1.137388870120048523e-01
-1.702327281236648560e-02
9.586467593908309937e-02
-1.399346161633729935e-02
-9.000290185213088989e-02
9.774388372898101807e-02
-6.153658032417297363e-02
-1.544445306062698364e-01
2.774719614535570145e-04
-1.272470038384199142e-02
2.344440482556819916e-02
-2.422160655260086060e-02
-9.600049257278442383e-02
-5.244546011090278625e-02
6.642646342515945435e-02
-3.846106305718421936e-02
1.316741108894348145e-02
-1.453479938209056854e-02
-9.534557908773422241e-02
7.381719350814819336e-02
-7.002601772546768188e-02
-5.671600997447967529e-02
1.202057395130395889e-02
-6.184601038694381714e-02
-3.666164353489875793e-03
2.453885786235332489e-02
-8.795028924942016602e-02
-1.700564026832580566e-01
1.510017737746238708e-02
-6.565421819686889648e-02
1.001190692186355591e-01
-7.450209558010101318e-02
-9.875804185867309570e-02
-1.982113718986511230e-02
-1.262280624359846115e-02
3.357817605137825012e-02
-1.002879962325096130e-01
-1.231500133872032166e-01
4.749331623315811157e-02
-8.458781987428665161e-03
4.054769873619079590e-03
1.062112003564834595e-01
-2.354453690350055695e-02
8.120569586753845215e-02
-1.970296800136566162e-01
-8.101347088813781738e-02
-4.955984652042388916e-02
1.200522407889366150e-01
1.448608841747045517e-02
2.886453829705715179e-02
4.941149055957794189e-02
6.389273330569267273e-03
9.945191442966461182e-02
-1.942551322281360626e-02
-1.833153516054153442e-02
-1.473784595727920532e-01
9.994491189718246460e-02
1.486980542540550232e-02
-1.111425608396530151e-01
1.073464155197143555e-01
7.783599942922592163e-02
-5.096672847867012024e-02
-3.804288804531097412e-02
5.634626746177673340e-02
-1.270340383052825928e-01
-4.939674586057662964e-02
-2.231793664395809174e-02
-1.257038861513137817e-01
1.043772920966148376e-01
-1.229883730411529541e-01
-1.394267976284027100e-01
7.125792093575000763e-03
4.897523671388626099e-02
-8.661130070686340332e-02
7.033084519207477570e-03
1.692785881459712982e-02
-1.099549010396003723e-01
3.859972581267356873e-02
4.077735170722007751e-02
-1.144172102212905884e-01
-1.299455612897872925e-01
-3.026302158832550049e-02
1.300233900547027588e-01
-4.337188601493835449e-02
8.639055490493774414e-02
-1.224505677819252014e-01
-3.275906294584274292e-02
5.577699840068817139e-02
8.639814332127571106e-03
3.877528756856918335e-02
3.323363512754440308e-02
3.218947350978851318e-02
2.430360391736030579e-02
-3.437032550573348999e-02
-1.919222436845302582e-02
5.379489157348871231e-03
-5.777714028954505920e-02
-2.056561782956123352e-02
-4.435341432690620422e-02
-9.391261637210845947e-02
1.124793216586112976e-01
1.028984487056732178e-01
-8.881984651088714600e-02
-4.885441809892654419e-02
4.133353475481271744e-03
5.965431407094001770e-02
5.001908913254737854e-02
-5.696382746100425720e-02
3.832389041781425476e-02
1.311963051557540894e-01
-1.155331581830978394e-01
-5.315798521041870117e-02
-8.486779779195785522e-02
-8.749786019325256348e-02
4.554815217852592468e-02
5.488086864352226257e-02
-1.138125509023666382e-01
3.565871715545654297e-02
-5.209232121706008911e-02
6.388629972934722900e-02
-5.799671052955091000e-04
-1.452251244336366653e-02
1.987836696207523346e-02
7.882940769195556641e-02
-7.293090224266052246e-02
5.574327707290649414e-02
9.838138520717620850e-02
6.446889042854309082e-02
2.751220948994159698e-02
1.110501936636865139e-03
1.100755557417869568e-01
-4.063574597239494324e-02
-2.689128369092941284e-02
-1.012249812483787537e-01
-2.120251953601837158e-01
-2.929897420108318329e-02
3.444502502679824829e-02
-1.907774992287158966e-02
-8.987802267074584961e-02
-8.285171538591384888e-02
-1.462780386209487915e-01
1.252412945032119751e-01
1.252207532525062561e-02
-1.125679761171340942e-01
-5.187140405178070068e-02
-8.520697802305221558e-02
-9.102412313222885132e-02
-1.184223126620054245e-02
-5.292416899465024471e-04
-1.373351961374282837e-01
-4.682239890098571777e-02
5.195675417780876160e-02
-5.852352362126111984e-03
1.106885746121406555e-01
-2.088455483317375183e-02
-1.578972488641738892e-02
1.096181720495223999e-01
-3.209489956498146057e-02
1.359490007162094116e-01
-1.374426037073135376e-01
8.509811758995056152e-02
9.684827923774719238e-02
-7.151537388563156128e-02
7.528511807322502136e-03
-1.184262409806251526e-01
-6.799556314945220947e-03
-1.122462600469589233e-01
-1.532094366848468781e-02
-8.538588881492614746e-03
-6.550075113773345947e-02
2.979591488838195801e-02
8.999592065811157227e-02
-8.139395713806152344e-02
-8.942884206771850586e-02
4.189457371830940247e-02
1.072887480258941650e-01
-8.900337666273117065e-02
-8.281648159027099609e-02
-8.109037764370441437e-03
-1.405951753258705139e-02
-1.706656068563461304e-03
-7.359827309846878052e-02
-7.358982414007186890e-02
-1.013620048761367798e-01
4.038294777274131775e-02
-7.515056431293487549e-02
-1.124967485666275024e-01
9.907678514719009399e-02
1.193265840411186218e-01
1.640301197767257690e-02
-1.405123621225357056e-01
4.191713780164718628e-02
1.231453940272331238e-02
-5.999807268381118774e-02
1.489434242248535156e-01
-1.025345325469970703e-01
-4.181415960192680359e-02
1.331984996795654297e-01
-1.626874804496765137e-01
-1.429048329591751099e-01
-1.853729039430618286e-02
-1.436241120100021362e-01
-7.083193212747573853e-02
-2.285724878311157227e-02
-1.412787940353155136e-02
2.400132827460765839e-02
7.052209228277206421e-02
9.896586835384368896e-02
4.653039574623107910e-02
1.155820582062005997e-02
1.007130444049835205e-01
2.310816012322902679e-02
-8.476330339908599854e-02
-2.788973972201347351e-02
3.528222441673278809e-02
1.443881355226039886e-02
7.139118015766143799e-02
4.649742692708969116e-02
2.810768038034439087e-02
7.143097370862960815e-02
1.236068755388259888e-01
-1.928324252367019653e-02
1.299706846475601196e-01
-1.411823630332946777e-01
-6.455446779727935791e-02
-3.067175298929214478e-02
-4.103757441043853760e-02
3.757942467927932739e-02
-1.116368453949689865e-02
5.134048312902450562e-02
-1.433803141117095947e-01
1.706104725599288940e-02
-2.559629455208778381e-02
3.893176838755607605e-02
1.929012499749660492e-02
-1.556917577981948853e-01
-5.367272347211837769e-02
1.133981794118881226e-01
-8.552815020084381104e-02
7.327315956354141235e-02
7.188367843627929688e-02
1.189294084906578064e-01
1.318743359297513962e-02
3.627986460924148560e-02
-1.315175443887710571e-01
1.487713754177093506e-01
1.115158572793006897e-01
8.109862357378005981e-02
2.678743749856948853e-02
1.587457656860351562e-01
4.695139825344085693e-02
-1.078668087720870972e-01
-1.123526394367218018e-01
1.704769954085350037e-02
1.068864837288856506e-01
1.509951204061508179e-01
1.149334385991096497e-01
-5.388397350907325745e-02
-5.366038903594017029e-02
3.893255069851875305e-02
-9.043100476264953613e-02
3.208899870514869690e-02
-9.782546013593673706e-02
1.132268533110618591e-01
1.258274018764495850e-01
6.918463110923767090e-02
6.735043227672576904e-02
-4.946593940258026123e-02
4.940813779830932617e-02
6.207631155848503113e-02
-1.676600128412246704e-01
6.418735720217227936e-03
-1.011608913540840149e-02
-4.135752841830253601e-02
7.395152002573013306e-02
9.126421064138412476e-02
-5.917814746499061584e-02
4.676850512623786926e-02
6.131551042199134827e-02
-1.170752644538879395e-01
4.437442868947982788e-02
1.427440438419580460e-03
-1.059570163488388062e-01
-4.200595617294311523e-02
-3.424922004342079163e-02
5.942852050065994263e-02
-7.704434450715780258e-03
-7.782103121280670166e-02
7.170797139406204224e-02
-5.959099158644676208e-02
-4.804914072155952454e-02
-4.050231538712978363e-03
9.556171298027038574e-02
2.208221890032291412e-02
-1.333851367235183716e-01
-3.251779079437255859e-02
-1.611826382577419281e-02
5.289763212203979492e-03
-2.817829884588718414e-02
-5.538726225495338440e-02
1.360954996198415756e-02
2.604201436042785645e-02
-7.038471102714538574e-02
-6.152650341391563416e-02
1.245325282216072083e-01
-2.614251710474491119e-02
-4.186389967799186707e-02
-5.687386542558670044e-02
3.253355994820594788e-02
-3.801586478948593140e-02
-1.015861798077821732e-02
6.802385300397872925e-02
-9.905485063791275024e-02
-8.137833327054977417e-02
-9.213771671056747437e-02
6.057117134332656860e-02
-1.540925502777099609e-01
5.076983198523521423e-02
-5.902842059731483459e-02
-7.217077165842056274e-02
-8.952562697231769562e-03
3.416570276021957397e-02
-2.827774733304977417e-03
5.606612563133239746e-02
-4.983122646808624268e-02
-1.112996414303779602e-01
1.254799813032150269e-01
1.220101676881313324e-02
-5.421352386474609375e-02
-1.441914737224578857e-01
3.338622301816940308e-02
-1.334290951490402222e-01
-4.526747390627861023e-02
-1.863746158778667450e-02
-4.806024022400379181e-03
1.438592560589313507e-02
-4.049979895353317261e-02
2.207286842167377472e-02
6.841335911303758621e-03
-6.394912302494049072e-02
-6.175598502159118652e-02
1.375679112970829010e-02
-1.546425521373748779e-01
-8.577624708414077759e-02
6.453794986009597778e-02
-1.382551342248916626e-01
-4.789808392524719238e-02
7.995309680700302124e-02
-5.839390680193901062e-02
1.215452700853347778e-01
-9.787594527006149292e-02
3.041694499552249908e-02
-8.578737080097198486e-02
-4.345957934856414795e-02
-2.197252959012985229e-02
-4.638453945517539978e-02
-1.584575511515140533e-02
2.372768707573413849e-02
1.156502068042755127e-01
1.598449796438217163e-02
-1.457353960722684860e-02
-5.191636085510253906e-02
1.966100418940186501e-03
2.287908270955085754e-02
1.229370534420013428e-01
2.658506622537970543e-03
7.727321237325668335e-02
-2.589794620871543884e-02
-5.061835050582885742e-02
-8.050072193145751953e-02
4.827199503779411316e-02
7.367236912250518799e-02
-1.294075846672058105e-01
-8.252852410078048706e-02
6.250917911529541016e-02
-5.064588785171508789e-02
-1.571742445230484009e-01
1.197815537452697754e-01
-1.433200687170028687e-01
5.173547193408012390e-02
-1.177406311035156250e-01
8.781030774116516113e-02
-4.681873694062232971e-02
-1.195388734340667725e-01
3.608815371990203857e-02
1.209043338894844055e-01
-2.857726067304611206e-02
-1.039273962378501892e-01
-2.654141560196876526e-02
9.623081982135772705e-02
2.445469982922077179e-02
-6.007437035441398621e-02
-2.804021164774894714e-02
7.735528051853179932e-02
-1.156869679689407349e-01
-1.063260957598686218e-01
-1.398633420467376709e-01
2.737218700349330902e-02
-1.078417431563138962e-02
-1.942596025764942169e-02
-4.620735719799995422e-02
7.757578790187835693e-02
-4.501786828041076660e-02
1.084914710372686386e-02
1.213972046971321106e-01
-1.301838755607604980e-01
-6.732606887817382812e-02
-1.232989411801099777e-02
-4.951011016964912415e-02
-7.647474855184555054e-02
-1.705942451953887939e-01
-1.096884608268737793e-01
-1.756307668983936310e-02
-2.177600935101509094e-02
1.146833375096321106e-01
3.492897003889083862e-02
2.449186891317367554e-02
3.955521434545516968e-02
-2.916788496077060699e-02
-8.919911086559295654e-02
1.080605834722518921e-01
-1.384028978645801544e-02
-6.379532814025878906e-02
-8.180431276559829712e-02
-1.125758737325668335e-01
1.117485985159873962e-01
-7.800839096307754517e-02
3.458539023995399475e-02
-5.661722645163536072e-02
9.061555564403533936e-02
7.001020014286041260e-02
-2.172578591853380203e-03
-6.859441846609115601e-02
-6.184766534715890884e-04
2.861180342733860016e-02
-6.248881667852401733e-02
3.386824950575828552e-02
6.322538480162620544e-03
-3.310812264680862427e-02
7.121071219444274902e-02
4.671594128012657166e-02
-7.700954377651214600e-02
-1.522904336452484131e-01
-7.508286088705062866e-02
2.607704885303974152e-02
-2.388961054384708405e-02
-1.163498088717460632e-01
1.063525453209877014e-01
-6.478633731603622437e-02
8.928157389163970947e-02
-1.100492402911186218e-01
-6.437226384878158569e-02
-1.284620761871337891e-01
-3.513074771035462618e-04
3.286783024668693542e-02
6.641177088022232056e-02
6.948464363813400269e-02
6.922731548547744751e-02
-1.924988254904747009e-02
-1.425612419843673706e-01
1.164602711796760559e-01
-6.912525743246078491e-02
-1.100547909736633301e-01
1.615057513117790222e-02
4.278575256466865540e-02
1.026961728930473328e-01
4.586239531636238098e-02
1.595834642648696899e-02
-6.313841044902801514e-02
-4.138403758406639099e-02
-1.815986447036266327e-02
-3.985064104199409485e-02
4.739420861005783081e-02
1.961982250213623047e-02
-8.282473683357238770e-02
-3.956922143697738647e-02
-9.052374213933944702e-02
-1.318880617618560791e-01
-2.614050731062889099e-02
-1.229577697813510895e-02
-3.223983570933341980e-02
-1.163961738348007202e-01
5.829355120658874512e-02
1.463813930749893188e-01
6.738667935132980347e-02
1.400863677263259888e-01
5.553652346134185791e-02
-1.361823678016662598e-01
4.100133106112480164e-02
1.574103683233261108e-01
6.600491702556610107e-02
-5.118130892515182495e-02
-6.057367101311683655e-02
-1.299728006124496460e-01
-8.630062453448772430e-03
-9.598875045776367188e-02
-8.828440308570861816e-02
-1.138480156660079956e-01
7.559181004762649536e-02
-9.953844547271728516e-02
3.899076953530311584e-03
-4.172622784972190857e-02
-4.724089801311492920e-02
-4.075479507446289062e-02
4.215370491147041321e-02
-1.031268015503883362e-01
4.826646670699119568e-02
-4.117063805460929871e-02
-4.505880549550056458e-02
-5.624786019325256348e-03
-1.376565992832183838e-01
-2.996715530753135681e-02
-3.515603020787239075e-02
-1.950501464307308197e-02
7.416510581970214844e-02
-9.639541059732437134e-02
-1.830496825277805328e-02
6.445538718253374100e-03
-3.943429514765739441e-02
-1.064568459987640381e-01
-1.205221116542816162e-01
-1.080285683274269104e-01
1.104229986667633057e-01
-1.226202845573425293e-01
1.149193644523620605e-01
4.619371145963668823e-02
1.020782440900802612e-01
6.716722995042800903e-02
-1.497288942337036133e-01
1.584747061133384705e-02
6.349740084260702133e-03
-1.888253353536128998e-02
4.240697249770164490e-02
-9.549283236265182495e-02
-6.989733129739761353e-02
2.734121121466159821e-02
3.463892638683319092e-02
9.842915087938308716e-02
1.802734471857547760e-02
3.945899382233619690e-02
-8.850037306547164917e-02
-5.284628272056579590e-02
-5.259944871068000793e-02
-1.216451004147529602e-01
-1.188214570283889771e-01
-2.066232077777385712e-02
-1.067540235817432404e-02
1.267910301685333252e-01
-1.136078014969825745e-01
-6.355459243059158325e-02
-5.904090031981468201e-02
-3.670236468315124512e-02
8.724033832550048828e-02
-1.125791296362876892e-01
6.106390431523323059e-02
-5.644219741225242615e-02
-1.316113173961639404e-01
9.080806374549865723e-02
-3.077249042689800262e-02
-5.843914672732353210e-02
-9.202317148447036743e-02
-7.021386176347732544e-03
4.031994938850402832e-02
-1.121599003672599792e-01
-8.203491568565368652e-02
-1.215512156486511230e-01
-3.484917432069778442e-02
-1.303407251834869385e-01
1.670128479599952698e-02
6.714311242103576660e-02
-5.379640683531761169e-02
-1.397804468870162964e-01
-7.713725790381431580e-03
-2.063474245369434357e-02
-1.350628137588500977e-01
-1.217225845903158188e-02
3.514116629958152771e-02
-1.165056019090116024e-03
-1.434224098920822144e-01
-1.265954077243804932e-01
1.256033182144165039e-01
7.121717790141701698e-04
-2.410575933754444122e-02
-9.880609810352325439e-02
1.131262406706809998e-01
-8.033733814954757690e-02
-1.053383946418762207e-01
-5.858364328742027283e-02
-1.286279857158660889e-01
-7.943736389279365540e-03
-1.232473850250244141e-01
9.362917393445968628e-02
-9.480334818363189697e-02
-1.323476135730743408e-01
1.554135978221893311e-01
-1.817811653017997742e-02
-5.548003688454627991e-02
5.038543418049812317e-02
-1.067180410027503967e-01
3.550262376666069031e-02
-3.380096703767776489e-02
1.430036779493093491e-02
1.174529343843460083e-01
-3.299439698457717896e-02
9.278304874897003174e-02
1.411439627408981323e-01
-1.497778892517089844e-01
-1.321586519479751587e-01
-1.265702098608016968e-01
7.500433921813964844e-02
-2.632257714867591858e-02
-2.913677319884300232e-02
7.043190300464630127e-02
7.686319202184677124e-02
-1.226652637124061584e-01
7.140061259269714355e-02
-9.595763403922319412e-04
-5.582894012331962585e-02
-2.760834246873855591e-02
2.687953040003776550e-02
-9.881040453910827637e-02
1.296098679304122925e-01
-8.219724148511886597e-02
-8.396195620298385620e-02
6.285511702299118042e-02
-1.400024816393852234e-02
-3.325428441166877747e-02
1.400625258684158325e-01
-2.385224029421806335e-02
-4.945833981037139893e-02
2.289482019841670990e-02
1.070112735033035278e-01
-6.738369911909103394e-02
-3.808130696415901184e-02
1.261167973279953003e-01
1.432583183050155640e-01
-8.622901141643524170e-02
-4.295746609568595886e-02
-1.493384689092636108e-01
-6.521855294704437256e-02
7.002671062946319580e-02
-2.311723306775093079e-02
-4.640262201428413391e-02
1.009545475244522095e-01
-1.081389039754867554e-01
-1.311693340539932251e-01
1.283480226993560791e-01
-1.880816742777824402e-02
-1.040375754237174988e-01
-3.519864287227392197e-03
-1.138649880886077881e-01
-5.363461375236511230e-02
-6.863018870353698730e-02
2.663162769749760628e-03
1.530950069427490234e-01
1.765637397766113281e-01
2.195977419614791870e-02
4.184105619788169861e-02
6.694803480058908463e-03
-9.265873581171035767e-03
-6.342436373233795166e-02
1.164035722613334656e-01
5.428472906351089478e-02
4.415405169129371643e-02
-4.962331615388393402e-03
-7.859245687723159790e-02
-1.216120943427085876e-01
8.497453480958938599e-02
-1.345014572143554688e-01
7.576707750558853149e-02
5.661012977361679077e-02
-1.603559590876102448e-02
1.126673594117164612e-01
-1.430427581071853638e-01
1.032235771417617798e-01
1.982852816581726074e-02
-1.057634353637695312e-01
-1.276680920273065567e-02
-4.535187035799026489e-02
3.478709980845451355e-02
6.128061562776565552e-02
-2.048478089272975922e-02
-7.259375602006912231e-02
-1.553534250706434250e-02
9.183114767074584961e-02
2.716764248907566071e-02
-1.672659367322921753e-01
-1.062042638659477234e-01
4.147574305534362793e-02
8.188778162002563477e-02
8.081886917352676392e-02
4.566538147628307343e-03
-4.765449091792106628e-03
-1.824719249270856380e-03
-3.054439090192317963e-02
4.323333874344825745e-02
-4.643125459551811218e-03
-1.342840790748596191e-01
-8.172524720430374146e-02
1.465568132698535919e-02
-5.833762139081954956e-02
-1.027264818549156189e-01
6.020274385809898376e-02
6.317794322967529297e-03
4.862603917717933655e-02
-9.313832968473434448e-02
-1.289768815040588379e-01
-4.872227832674980164e-02
-8.366239815950393677e-02
-9.566412866115570068e-02
-1.432327628135681152e-01
5.107104778289794922e-02
3.131123259663581848e-02
-1.479758769273757935e-01
7.189905643463134766e-02
5.354074016213417053e-02
1.161350123584270477e-02
-1.087343767285346985e-01
2.925147116184234619e-02
2.547956816852092743e-02
2.945595607161521912e-02
4.372115433216094971e-02
1.587140001356601715e-02
7.978335767984390259e-02
1.185767445713281631e-02
-5.511417519301176071e-03
-5.424674600362777710e-02
-1.646501719951629639e-01
-1.747851818799972534e-01
-1.484715044498443604e-01
-5.588756874203681946e-02
-1.381783336400985718e-01
3.065441548824310303e-02
1.145393922924995422e-01
-3.132841363549232483e-02
5.239368230104446411e-02
-1.124923825263977051e-01
-1.114638596773147583e-01
-8.552835136651992798e-02
-1.138885542750358582e-01
-6.969130784273147583e-02
8.560298383235931396e-02
2.927704714238643646e-02
-1.045638769865036011e-01
2.579279709607362747e-03
-9.772517532110214233e-02
-1.032810062170028687e-01
-1.168346591293811798e-02
4.225838929414749146e-02
2.239821711555123329e-03
1.199740692973136902e-01
-2.409403026103973389e-02
4.690211638808250427e-02
-1.423849817365407944e-02
-1.307474728673696518e-02
-7.676324993371963501e-02
-9.587639570236206055e-02
-3.667703270912170410e-02
-1.000951007008552551e-01
-5.266051366925239563e-02
6.678795814514160156e-02
-1.289148721843957901e-02
-4.366258159279823303e-02
5.079194158315658569e-02
6.579905003309249878e-02
-7.734761107712984085e-03
-3.711475431919097900e-02
1.084275916218757629e-01
-1.113874092698097229e-01
3.066637180745601654e-02
-1.019905284047126770e-01
8.671134710311889648e-02
3.885461017489433289e-02
-3.482813388109207153e-02
-3.513599559664726257e-02
-1.088394001126289368e-01
-9.866096079349517822e-02
3.873471915721893311e-02
2.199844643473625183e-02
-4.782237857580184937e-02
1.020275056362152100e-01
-9.363605640828609467e-03
-8.301602303981781006e-02
-7.364778965711593628e-02
-5.706415325403213501e-02
-9.207945317029953003e-02
1.377918571233749390e-01
1.247152313590049744e-02
9.050680696964263916e-02
-1.504468172788619995e-01
-6.803130358457565308e-02
-9.413618594408035278e-02
9.064088761806488037e-02
-2.221899852156639099e-02
2.636917680501937866e-02
7.404296845197677612e-02
2.672476321458816528e-02
-9.624986909329891205e-03
-3.842779621481895447e-02
2.525040134787559509e-02
-8.170596510171890259e-02
1.379708796739578247e-01
-2.584294229745864868e-02
-3.360325843095779419e-02
-9.367932379245758057e-02
-2.540421439334750175e-03
-4.647395387291908264e-02
2.000416219234466553e-01
-5.802832543849945068e-02
-2.878351509571075439e-02
6.685464084148406982e-02
-4.953200742602348328e-02
4.886983335018157959e-02
5.567940324544906616e-02
-1.064044907689094543e-01
6.326935440301895142e-02
-1.189288422465324402e-01
-8.861340582370758057e-02
-7.910370081663131714e-02
1.502918452024459839e-01
5.855779349803924561e-02
1.295369267463684082e-01
-6.171797215938568115e-02
3.318437188863754272e-02
7.410587370395660400e-02
1.018924191594123840e-01
7.171367295086383820e-03
2.591939643025398254e-02
8.511374890804290771e-02
-1.378419697284698486e-01
-1.993432641029357910e-01
-1.334090083837509155e-01
-8.693603426218032837e-02
1.398330628871917725e-01
2.412874437868595123e-02
5.986024811863899231e-02
-1.865694485604763031e-02
6.092140916734933853e-03
9.098926186561584473e-02
-6.491597741842269897e-02
3.774789348244667053e-02
-1.057225465774536133e-01
-1.802438944578170776e-01
4.228483512997627258e-02
-9.891373664140701294e-02
-5.247735232114791870e-02
-1.272337436676025391e-01
-1.208274587988853455e-01
-1.457803994417190552e-01
9.241680800914764404e-02
4.033286496996879578e-02
-4.953441768884658813e-02
6.245454028248786926e-02
-1.549131870269775391e-01
-1.126700565218925476e-01
-1.142788156867027283e-01
6.103748455643653870e-02
-8.598759770393371582e-02
8.708601444959640503e-02
3.278299421072006226e-02
-1.190855652093887329e-01
7.196574937552213669e-03
6.704553216695785522e-02
-1.143724471330642700e-02
-9.857045486569404602e-03
-8.358348160982131958e-02
-6.529911886900663376e-03
-8.735340833663940430e-02
8.395382016897201538e-02
-1.286657750606536865e-01
4.609749838709831238e-02
1.134782098233699799e-02
1.831636764109134674e-02
9.913554787635803223e-02
-6.265905499458312988e-02
9.668903797864913940e-02
-1.751671172678470612e-02
-1.178026795387268066e-01
-9.508182853460311890e-02
2.790016867220401764e-02
-7.371520251035690308e-02
-3.445005416870117188e-02
3.296844661235809326e-02
-5.006813630461692810e-02
-8.467245846986770630e-03
-9.040836244821548462e-02
4.233527556061744690e-02
-1.369176898151636124e-02
-1.714522838592529297e-01
-6.881984323263168335e-02
-2.818356454372406006e-02
-8.240475505590438843e-02
1.276459395885467529e-01
-9.712769091129302979e-02
-7.858978956937789917e-02
-5.846026167273521423e-02
-7.608824968338012695e-02
-1.484396606683731079e-01
4.264116287231445312e-02
2.809636108577251434e-02
1.561807692050933838e-01
1.222110167145729065e-02
-2.561517991125583649e-02
8.032639324665069580e-02
9.392579086124897003e-03
8.860128000378608704e-03
-4.706832766532897949e-02
4.198658466339111328e-02
-7.639695703983306885e-02
-4.853966087102890015e-02
-1.191549226641654968e-01
2.747404016554355621e-02
-1.233701184391975403e-01
-7.916731387376785278e-02
3.910128027200698853e-02
1.452147401869297028e-02
7.779551297426223755e-02
-8.969864249229431152e-02
-5.921009927988052368e-02
-5.337473750114440918e-02
-8.362178504467010498e-02
-1.014258489012718201e-01
1.358169317245483398e-01
-5.052960291504859924e-02
8.210070431232452393e-02
-1.249668374657630920e-01
-8.263991773128509521e-02
-1.251959204673767090e-01
1.430452615022659302e-01
7.374933362007141113e-02
8.439403772354125977e-02
7.646422833204269409e-02
-3.740610089153051376e-03
1.004057377576828003e-01
-1.444004848599433899e-02
6.282340735197067261e-02
-1.215862333774566650e-01
-8.462008833885192871e-02
-2.464825473725795746e-02
-6.682620942592620850e-02
-1.040953546762466431e-01
-7.623944431543350220e-02
-8.163800835609436035e-02
2.413490414619445801e-02
-5.819361284375190735e-02
-7.431287318468093872e-02
7.932195812463760376e-02
2.809217013418674469e-02
5.888132378458976746e-02
6.565719377249479294e-03
-1.521023809909820557e-01
8.979070931673049927e-02
-2.744941785931587219e-02
-1.045518368482589722e-01
-1.897999271750450134e-02
1.452611684799194336e-01
1.482977904379367828e-02
2.300900593400001526e-02
4.220804572105407715e-02
-1.046437993645668030e-01
-3.336568549275398254e-02
8.239394426345825195e-02
-1.124884188175201416e-01
-9.862540662288665771e-02
-1.098932102322578430e-01
8.029431849718093872e-02
-4.516280815005302429e-02
4.685490578413009644e-02
6.292871385812759399e-02
1.181894317269325256e-01
-1.326206326484680176e-02
-1.344777494668960571e-01
-2.858428657054901123e-02
-7.474145293235778809e-02
-6.577262282371520996e-02
-1.033103764057159424e-01
-5.838540568947792053e-02
-2.941350452601909637e-02
9.138663113117218018e-02
-2.358897961676120758e-02
2.637547068297863007e-02
-8.240675926208496094e-02
-6.706161797046661377e-02
-6.887553632259368896e-02
5.765954498201608658e-03
-1.095005795359611511e-01
-1.478274632245302200e-02
9.643788635730743408e-02
4.399997740983963013e-02
1.753342337906360626e-02
-1.314452141523361206e-01
-9.106676280498504639e-02
-2.111537158489227295e-01
4.292012378573417664e-02
-3.504140302538871765e-02
3.229100257158279419e-02
-5.125363171100616455e-02
6.594596058130264282e-02
-5.759747326374053955e-02
-1.697315871715545654e-01
1.153082400560379028e-01
7.136520743370056152e-02
-7.109119743108749390e-02
-3.403446823358535767e-02
1.552991718053817749e-01
-1.312288492918014526e-01
-7.603902369737625122e-02
-4.965743049979209900e-02
4.100620374083518982e-02
-2.291341545060276985e-03
1.199255324900150299e-02
-1.260305494070053101e-01
-1.538469642400741577e-01
1.720146648585796356e-02
4.874461330473423004e-03
8.773190528154373169e-02
2.856977051123976707e-03
6.593503803014755249e-02
-8.307290263473987579e-03
-3.854640945792198181e-02
-1.658415943384170532e-01
-2.138780057430267334e-02
-5.746915936470031738e-02
-5.693093314766883850e-02
-1.273183524608612061e-01
-1.828547418117523193e-01
-8.821851015090942383e-02
-1.798626780509948730e-02
-4.485521465539932251e-02
-1.489910855889320374e-02
-1.732814013957977295e-01
-1.491042226552963257e-01
6.617601960897445679e-02
1.569396257400512695e-02
-1.284863650798797607e-01
1.057749334722757339e-02
-2.942850813269615173e-02
1.343955397605895996e-01
3.148227185010910034e-02
-1.812574453651905060e-02
-1.166038797236979008e-03
-1.590752005577087402e-01
1.167491003870964050e-01
5.049875751137733459e-02
1.040920168161392212e-01
9.793773293495178223e-03
4.440483450889587402e-02
-1.846593432128429413e-02
-1.325041949748992920e-01
-7.707294076681137085e-02
4.667310044169425964e-02
-2.376333996653556824e-02
2.040610611438751221e-01
1.613572090864181519e-01
-1.114462763071060181e-01
1.170704811811447144e-01
-1.506903618574142456e-01
-8.026227355003356934e-02
8.770544081926345825e-02
-7.138038426637649536e-02
1.389279216527938843e-01
-1.251056528417393565e-04
-1.217129603028297424e-01
3.604902327060699463e-02
1.369943320751190186e-01
-3.699925541877746582e-02
-9.328281879425048828e-02
5.331679433584213257e-02
-9.053502976894378662e-02
4.655488952994346619e-02
-1.318449079990386963e-01
-6.291759014129638672e-02
9.479614347219467163e-02
-1.292483210563659668e-01
6.741943210363388062e-02
6.968389451503753662e-02
-1.275897920131683350e-01
-1.448344346135854721e-02
-8.102319389581680298e-02
-5.725368484854698181e-02
-1.915807723999023438e-01
1.694419085979461670e-01
1.448366492986679077e-01
-1.045816466212272644e-01
7.058254629373550415e-02
2.303590252995491028e-02
6.611692905426025391e-02
1.095069795846939087e-01
-8.945072442293167114e-02
1.479071080684661865e-01
7.012481987476348877e-02
-7.553163915872573853e-02
2.578534185886383057e-02
2.204328775405883789e-02
-9.345486760139465332e-02
-5.555224418640136719e-02
1.011460050940513611e-01
1.031420081853866577e-01
6.760527938604354858e-02
-7.120495289564132690e-02
2.257150225341320038e-02
-2.218900062143802643e-02
-5.881191045045852661e-02
-9.281983226537704468e-02
4.576217755675315857e-02
2.255013585090637207e-02
-8.749624341726303101e-02
-5.786272138357162476e-02
-4.853345081210136414e-02
-1.268634349107742310e-01
-2.212765254080295563e-02
7.237687706947326660e-02
1.070660818368196487e-02
4.845164716243743896e-02
-5.266711488366127014e-02
7.122934609651565552e-02
-1.055006608366966248e-01
2.684213593602180481e-02
7.334639877080917358e-02
1.136891469359397888e-01
-1.035621315240859985e-01
3.718990087509155273e-02
3.713745996356010437e-02
-5.632141605019569397e-02
-2.084724791347980499e-02
1.031778529286384583e-01
-1.721359603106975555e-02
6.743234395980834961e-02
1.173280328512191772e-01
1.119504719972610474e-01
-1.085403747856616974e-02
9.879416972398757935e-02
-5.027095228433609009e-02
7.233470678329467773e-02
1.054461449384689331e-01
-1.285075396299362183e-01
1.312089115381240845e-01
2.576776035130023956e-02
9.551440924406051636e-02
2.232128317700698972e-04
7.429493218660354614e-02
-2.582898177206516266e-02
-2.996402606368064880e-02
1.284925043582916260e-01
-5.003472417593002319e-02
6.497140973806381226e-02
-8.562375605106353760e-02
7.888237386941909790e-02
1.573809683322906494e-01
-2.316243946552276611e-02
3.877641633152961731e-02
1.031975150108337402e-01
-1.342827230691909790e-01
-2.321459539234638214e-02
-1.678878068923950195e-02
-4.517506808042526245e-02
9.017785638570785522e-02
-1.374943926930427551e-02
-2.884087525308132172e-02
-9.955314546823501587e-02
1.680321432650089264e-02
-1.345785520970821381e-02
-2.124207094311714172e-02
4.577487334609031677e-02
5.231584981083869934e-02
-1.036403235048055649e-02
9.978154301643371582e-02
5.794889107346534729e-02
-9.452817589044570923e-02
-9.667563438415527344e-02
4.319425672292709351e-02
4.682892758864909410e-04
9.903337806463241577e-02
-5.353843048214912415e-02
-4.441664367914199829e-02
2.018294669687747955e-02
-6.124106794595718384e-02
-6.011480838060379028e-02
1.934769004583358765e-01
5.792560800909996033e-02
1.534977555274963379e-01
3.381353616714477539e-02
-6.938420236110687256e-02
-1.306212395429611206e-01
7.274562865495681763e-02
-1.941509358584880829e-02
-7.660632580518722534e-02
-9.797103703022003174e-02
6.649979948997497559e-02
1.078229546546936035e-01
-1.108073741197586060e-01
1.444451808929443359e-01
9.418348968029022217e-02
-5.097963660955429077e-02
1.066549047827720642e-01
5.524075124412775040e-03
-3.278913348913192749e-02
2.863810956478118896e-02
8.685865998268127441e-02
1.570291966199874878e-01
3.531578555703163147e-02
-7.078086584806442261e-02
-3.461477160453796387e-02
6.687600165605545044e-02
2.958123013377189636e-02
9.693876653909683228e-02
-1.042476072907447815e-01
-8.874520659446716309e-02
-1.237710285931825638e-02
-1.297149620950222015e-02
-1.650627935305237770e-03
1.222440898418426514e-01
-6.028331816196441650e-02
-2.207096107304096222e-02
1.854545474052429199e-01
8.698946237564086914e-02
1.127556115388870239e-01
9.718871116638183594e-02
5.384779721498489380e-02
2.399782650172710419e-02
1.625269055366516113e-01
-7.837827503681182861e-02
-6.003269553184509277e-02
1.629709750413894653e-01
5.254789441823959351e-02
1.067123189568519592e-01
-2.578228712081909180e-02
7.095453143119812012e-02
9.943071007728576660e-02
-9.064543247222900391e-02
-2.496210113167762756e-02
1.409661322832107544e-01
-2.148625068366527557e-02
-5.085105821490287781e-02
2.398168109357357025e-02
1.503245346248149872e-02
5.349451676011085510e-02
1.727355122566223145e-01
-7.441111654043197632e-02
-2.622778294607996941e-03
4.828726127743721008e-02
9.205907583236694336e-02
6.481251865625381470e-02
-5.338978022336959839e-02
8.926249295473098755e-02
-4.318558424711227417e-02
-8.076084777712821960e-03
8.696027100086212158e-02
1.427163928747177124e-01
-3.306010738015174866e-02
-5.935219302773475647e-02
3.345150500535964966e-02
-3.491384908556938171e-02
-1.688874140381813049e-02
1.658066213130950928e-01
1.287988270632922649e-03
6.184812262654304504e-02
3.804993256926536560e-02
-3.985201939940452576e-02
7.842732965946197510e-02
1.973217427730560303e-01
1.011919006705284119e-01
7.896317169070243835e-03
1.069793757051229477e-02
-2.172829583287239075e-02
-2.279401384294033051e-02
-2.892310544848442078e-02
1.925710588693618774e-01
7.236930727958679199e-02
-6.327766925096511841e-02
-8.794283494353294373e-03
1.036286074668169022e-02
1.161942929029464722e-01
-7.777671329677104950e-03
-2.090692892670631409e-02
7.658812403678894043e-02
-2.914861962199211121e-02
-1.091708242893218994e-02
-2.716311812400817871e-02
-1.246681809425354004e-01
-1.055222079157829285e-01
-1.371005550026893616e-02
1.653678715229034424e-02
3.219424979761242867e-03
-5.354632809758186340e-02
-6.613035500049591064e-02
-2.645399607717990875e-02
1.431685388088226318e-01
4.353330284357070923e-02
-5.169801786541938782e-02
-8.057919889688491821e-02
8.402253687381744385e-02
-1.828145049512386322e-02
2.929215319454669952e-02
8.224461972713470459e-02
-1.450204551219940186e-01
-1.065581291913986206e-01
7.600939273834228516e-02
1.113364994525909424e-01
-1.037488356232643127e-01
-7.438432425260543823e-02
-1.029325947165489197e-01
-6.647600233554840088e-02
8.837037533521652222e-02
2.880987152457237244e-02
-6.758991628885269165e-02
3.167395666241645813e-02
-1.644445210695266724e-01
5.661950632929801941e-02
3.978276997804641724e-02
5.329988151788711548e-02
-7.599808275699615479e-02
-2.094367295503616333e-01
-8.398956060409545898e-02
7.233270257711410522e-02
-3.604504093527793884e-02
-1.426861342042684555e-02
2.655492164194583893e-02
-1.116239950060844421e-01
3.003118373453617096e-02
-1.264114379882812500e-01
-5.658888444304466248e-02
-1.208812114782631397e-03
-3.613466862589120865e-03
-1.113088279962539673e-01
6.757667660713195801e-02
1.358237490057945251e-02
-8.515010029077529907e-02
-1.751999370753765106e-02
-1.196265667676925659e-01
-5.629073455929756165e-02
6.381566077470779419e-02
5.298498272895812988e-02
-2.578234113752841949e-02
2.453221194446086884e-02
-1.595291495323181152e-02
1.758593320846557617e-02
1.565815135836601257e-02
-1.200056597590446472e-01
1.721089035272598267e-01
-1.184965372085571289e-01
9.212928824126720428e-03
-1.623636111617088318e-02
-5.807228013873100281e-02
8.226857334375381470e-02
-5.001900717616081238e-02
-6.934957206249237061e-02
5.528283119201660156e-02
-1.832983344793319702e-01
-3.835684061050415039e-02
-1.086908876895904541e-01
-1.240104511380195618e-01
3.055331856012344360e-02
-6.586241722106933594e-02
-8.667525649070739746e-02
-5.307985004037618637e-03
9.016435593366622925e-02
-1.270703226327896118e-01
-7.080415636301040649e-02
-5.764445662498474121e-02
1.103844344615936279e-01
1.096699759364128113e-01
-2.291458658874034882e-02
9.203863888978958130e-02
9.738169610500335693e-02
-6.390086561441421509e-02
1.354449540376663208e-01
7.303179800510406494e-02
1.584550552070140839e-02
6.282978691160678864e-03
-1.070498749613761902e-01
-4.566404968500137329e-02
-1.809306093491613865e-03
-4.934684559702873230e-02
-1.324774473905563354e-01
1.332751810550689697e-01
-8.095704764127731323e-02
1.255629677325487137e-02
7.140830904245376587e-02
1.230499967932701111e-01
-2.689712494611740112e-02
-6.162779033184051514e-02
7.873231917619705200e-02
4.606928676366806030e-03
-6.537466496229171753e-02
-4.050239175558090210e-02
-1.328849941492080688e-01
-1.293115764856338501e-01
-6.107526645064353943e-02
-1.540874838829040527e-01
-6.243634968996047974e-02
-2.542175166308879852e-02
-7.134334743022918701e-02
6.141426414251327515e-02
9.936418384313583374e-03
1.593428291380405426e-02
-5.642115324735641479e-02
6.567107141017913818e-02
2.466888725757598877e-02
-7.562217116355895996e-02
6.410709768533706665e-02
9.670909494161605835e-02
1.663756556808948517e-02
4.271898791193962097e-02
-3.637031465768814087e-02
-4.768433794379234314e-02
7.472727447748184204e-02
-1.372164040803909302e-01
-6.828739494085311890e-02
1.006804779171943665e-01
4.426945000886917114e-03
-6.272407621145248413e-02
-2.185745537281036377e-02
-1.304284781217575073e-01
3.333321586251258850e-02
8.183124661445617676e-02
4.100809339433908463e-03
-6.964784697629511356e-04
-6.127998698502779007e-03
1.258824765682220459e-01
-4.096651822328567505e-02
1.163720488548278809e-01
-2.733056619763374329e-02
-1.024209633469581604e-01
2.491557411849498749e-02
8.401140570640563965e-03
4.296381026506423950e-02
-1.389466412365436554e-02
-6.103207543492317200e-02
4.002957791090011597e-02
-1.180068962275981903e-02
-1.065141186118125916e-01
-5.985198542475700378e-02
-7.455615699291229248e-02
1.306797713041305542e-01
7.685480266809463501e-02
-1.171981468796730042e-01
-5.444353446364402771e-02
7.913082838058471680e-02
-2.342323213815689087e-02
-3.769750893115997314e-02
4.738401994109153748e-02
-1.627324074506759644e-01
-1.860697120428085327e-01
-8.712824434041976929e-03
-7.450613379478454590e-02
-1.082682311534881592e-01
-2.371256798505783081e-02
-1.485830247402191162e-01
-6.689202785491943359e-02
5.155987292528152466e-02
-3.688138350844383240e-02
-8.477235585451126099e-02
8.242247998714447021e-02
-1.889354921877384186e-02
-1.314255641773343086e-03
-1.897870749235153198e-02
-1.586590660735964775e-03
-9.415047615766525269e-02
3.603891655802726746e-02
-7.797720283269882202e-02
-1.006554067134857178e-01
6.158216670155525208e-02
1.083353161811828613e-01
-5.766871199011802673e-02
1.574181765317916870e-02
3.871824592351913452e-02
-4.224300850182771683e-03
-1.054808869957923889e-01
-6.409436464309692383e-02
3.495471552014350891e-03
9.483274072408676147e-02
9.251689910888671875e-02
-1.128441840410232544e-01
-1.150010228157043457e-01
-1.004137545824050903e-01
-8.769018948078155518e-02
-6.030081771314144135e-03
-4.149110242724418640e-02
7.945230603218078613e-02
-1.190440803766250610e-01
-1.095564216375350952e-01
5.167785659432411194e-02
2.365017123520374298e-02
-4.728822410106658936e-02
3.137021511793136597e-02
3.702152520418167114e-02
5.886484310030937195e-02
3.757484629750251770e-02
2.601006440818309784e-02
1.263182312250137329e-01
-7.349216938018798828e-02
3.693629801273345947e-02
-1.025588735938072205e-01
-9.129917621612548828e-02
1.066508889198303223e-01
-1.050592809915542603e-01
-8.900299668312072754e-02
-5.181815102696418762e-02
-3.086738521233201027e-03
1.711172312498092651e-01
-3.591809421777725220e-02
-1.467557996511459351e-01
-1.200007870793342590e-01
-2.176052704453468323e-02
-5.415605381131172180e-02
1.168541535735130310e-01
-2.668951265513896942e-02
-2.799227647483348846e-02
-1.192419379949569702e-01
-2.352572791278362274e-02
-1.427254267036914825e-02
-1.217746660113334656e-01
-5.158415436744689941e-02
7.782900333404541016e-02
-1.459851511754095554e-03
-4.260596260428428650e-02
-3.783465921878814697e-02
-9.267459809780120850e-02
1.011638119816780090e-01
-3.521820902824401855e-02
-9.990529716014862061e-02
3.963224962353706360e-02
6.119265779852867126e-02
8.987361937761306763e-02
1.835836023092269897e-01
8.868174999952316284e-02
-1.571568250656127930e-01
-1.174758002161979675e-01
1.331981122493743896e-01
1.077835112810134888e-01
2.820765948854386806e-04
7.828470319509506226e-02
2.240930870175361633e-02
1.298982929438352585e-02
6.698810309171676636e-02
8.310536295175552368e-02
-1.177836358547210693e-01
1.233295723795890808e-02
-1.111028790473937988e-01
-8.738421648740768433e-02
-5.559024587273597717e-02
-7.103915512561798096e-02
-5.186641961336135864e-02
-4.039545357227325439e-02
-1.234559491276741028e-01
1.059747338294982910e-01
9.793078154325485229e-02
2.158611640334129333e-02
-9.972587227821350098e-03
1.517141796648502350e-02
-4.775441065430641174e-02
-5.330733209848403931e-02
-1.508067995309829712e-01
7.788439840078353882e-02
-9.038445353507995605e-02
-8.428653329610824585e-02
8.177547901868820190e-02
9.563282877206802368e-02
-1.191246733069419861e-01
-1.629881747066974640e-02
-1.229286119341850281e-01
7.527334988117218018e-02
-5.819562822580337524e-02
-4.772522300481796265e-02
-3.390283882617950439e-02
-8.704873919486999512e-02
-1.176441386342048645e-01
-5.187497287988662720e-02
5.530252307653427124e-02
1.258680783212184906e-02
-3.458200022578239441e-02
-1.230379492044448853e-01
-9.056363254785537720e-02
-1.711776480078697205e-02
8.580972999334335327e-02
4.648048197850584984e-04
-5.824127048254013062e-02
5.022848024964332581e-02
8.883837610483169556e-02
8.315156400203704834e-02
-7.363524287939071655e-02
1.019333973526954651e-01
-5.801802501082420349e-02
-1.010187640786170959e-01
-6.378409266471862793e-02
-4.104458168148994446e-02
1.390607208013534546e-01
7.607609033584594727e-02
-6.648526340723037720e-02
3.297021903563290834e-04
2.483049407601356506e-02
1.073898971080780029e-01
-1.420618407428264618e-02
7.792692631483078003e-02
-6.116358563303947449e-02
6.304156035184860229e-02
9.738178551197052002e-02
3.296288195997476578e-03
-9.539842605590820312e-02
-1.145497784018516541e-01
8.644521236419677734e-02
3.046569041907787323e-02
-9.134815633296966553e-02
1.181306466460227966e-01
-1.485585570335388184e-01
1.474008709192276001e-01
-3.144381940364837646e-02
-3.435533493757247925e-02
-9.452033787965774536e-02
1.146595478057861328e-01
3.877502679824829102e-02
9.173060953617095947e-02
9.508872032165527344e-02
8.604672551155090332e-02
-8.627109974622726440e-02
-1.248502954840660095e-01
-3.149018436670303345e-02
1.186692714691162109e-02
-3.462372720241546631e-02
-2.994268573820590973e-02
-6.776806712150573730e-02
-7.990682125091552734e-02
-8.184304833412170410e-02
1.345435976982116699e-01
-1.195219755172729492e-01
-1.115395575761795044e-01
1.013486310839653015e-01
4.404792562127113342e-02
-6.106824427843093872e-02
-1.472073420882225037e-02
-1.127061098814010620e-01
-1.590384989976882935e-01
-4.703933000564575195e-02
1.208028011023998260e-02
-5.851052701473236084e-02
5.106021091341972351e-02
1.073355972766876221e-01
2.886453270912170410e-02
-6.619810312986373901e-02
-6.587965413928031921e-03
9.113501012325286865e-02
1.132470369338989258e-01
9.650166332721710205e-02
3.512308374047279358e-02
3.749568015336990356e-03
9.044071286916732788e-02
1.507181394845247269e-02
4.052605479955673218e-02
-7.944064587354660034e-02
9.049658477306365967e-02
7.837858796119689941e-02
-1.565232127904891968e-02
-6.490192841738462448e-03
-1.200010254979133606e-01
-1.268341112881898880e-02
5.114363506436347961e-02
-3.352636098861694336e-02
-5.408197268843650818e-02
-1.896554045379161835e-02
-8.617962157586589456e-05
-6.653891503810882568e-02
-1.042088121175765991e-01
-1.562214642763137817e-01
-6.695480644702911377e-02
-9.896749258041381836e-02
6.645226478576660156e-02
-8.615317940711975098e-02
-1.051338911056518555e-01
-5.987562984228134155e-02
-8.690046519041061401e-02
-8.314970880746841431e-02
1.071831658482551575e-01
-7.167377322912216187e-02
-1.907666679471731186e-03
-1.469633169472217560e-02
-7.817812263965606689e-02
-1.325296759605407715e-01
5.085064470767974854e-02
8.996469527482986450e-02
-1.408459395170211792e-01
6.493975222110748291e-02
-3.855863213539123535e-02
6.320675462484359741e-02
2.736461162567138672e-02
1.832906529307365417e-02
5.241742357611656189e-02
-6.762722134590148926e-02
-4.107015952467918396e-02
6.584695726633071899e-02
-6.051831878721714020e-04
-1.999365538358688354e-01
1.594349159859120846e-03
-1.125018522143363953e-01
-7.858033291995525360e-03
-7.960696518421173096e-02
-4.909811168909072876e-02
-1.147132068872451782e-01
-6.796180456876754761e-02
-1.366878580302000046e-02
-1.458554528653621674e-02
4.311140999197959900e-02
-5.329360440373420715e-02
-7.059930264949798584e-02
3.264505788683891296e-02
5.428830534219741821e-02
-1.409372128546237946e-02
-1.383190415799617767e-02
-1.866155862808227539e-01
-4.523778706789016724e-02
-3.894368186593055725e-02
-6.304831057786941528e-02
-8.183313906192779541e-02
3.749173134565353394e-02
-9.480006247758865356e-02
1.336281001567840576e-02
-3.532553836703300476e-02
6.240448728203773499e-02
-7.632781565189361572e-02
7.743882387876510620e-02
-4.953643679618835449e-02
-3.850954771041870117e-02
3.683244436979293823e-02
9.820275753736495972e-02
4.390582442283630371e-02
-5.126570537686347961e-02
1.154428124427795410e-01
2.018588781356811523e-02
-1.590549014508724213e-03
-1.914054388180375099e-03
-8.766268379986286163e-03
-1.277688741683959961e-01
1.325644180178642273e-02
-1.029430925846099854e-01
6.616056710481643677e-02
7.608506083488464355e-02
2.570412307977676392e-02
-1.213355213403701782e-01
7.324140518903732300e-02
6.763384491205215454e-02
-7.729442417621612549e-02
1.049804911017417908e-01
8.638768643140792847e-02
-6.915285438299179077e-02
-2.590458607301115990e-04
-1.463257521390914917e-01
9.395069628953933716e-02
-1.346147954463958740e-01
-4.347501322627067566e-02
1.039977148175239563e-01
1.604685094207525253e-03
-6.108910217881202698e-02
-5.725250765681266785e-02
-1.158507019281387329e-01
-6.103058904409408569e-02
5.543141067028045654e-02
-1.014724895358085632e-01
-3.153562173247337341e-02
5.818057060241699219e-02
8.148226886987686157e-02
-1.152487322688102722e-01
1.396095752716064453e-01
-1.375731378793716431e-01
-1.218851357698440552e-01
-1.040769666433334351e-01
1.963186077773571014e-02
1.050954610109329224e-01
1.536448150873184204e-01
-7.451295852661132812e-02
4.072353988885879517e-02
-1.299360673874616623e-02
-7.434716075658798218e-02
-1.231329217553138733e-01
1.042000651359558105e-01
3.244173945859074593e-03
-5.370085313916206360e-02
-9.411776810884475708e-02
-8.061634749174118042e-02
-7.763693574815988541e-03
4.101630300283432007e-02
-7.412121444940567017e-02
-5.971249192953109741e-02
-3.784826397895812988e-02
-8.357968181371688843e-02
8.373718708753585815e-02
1.131506562232971191e-01
1.331587284803390503e-01
-1.112586073577404022e-02
6.153364107012748718e-02
-1.454331129789352417e-01
-5.409280955791473389e-02
-1.435457020998001099e-01
3.390206769108772278e-02
1.464510522782802582e-02
1.731486171483993530e-01
-4.884580522775650024e-02
-1.186903715133666992e-01
-1.321518607437610626e-02
3.851049579679965973e-03
-1.034028455615043640e-01
3.898295015096664429e-02
-7.731107622385025024e-02
1.323716938495635986e-01
5.353268235921859741e-02
1.138372942805290222e-01
8.111798763275146484e-02
2.636735141277313232e-02
7.026035338640213013e-02
-1.030289903283119202e-01
-3.250627592206001282e-02
-4.633400589227676392e-02
-3.655804321169853210e-03
-6.780938804149627686e-02
3.333640098571777344e-02
9.334695339202880859e-02
-5.121592804789543152e-02
2.946338802576065063e-02
-3.648127987980842590e-02
9.692343324422836304e-02
1.608622968196868896e-01
-4.797941073775291443e-02
-2.494286745786666870e-02
6.848514080047607422e-02
3.973823785781860352e-02
6.940791010856628418e-02
-1.146131083369255066e-01
5.289243068546056747e-03
3.804631065577268600e-03
1.686214506626129150e-01
-5.537562817335128784e-02
1.160344257950782776e-01
-1.181789860129356384e-02
-7.281745970249176025e-02
-2.483516745269298553e-02
1.319449096918106079e-01
-1.110811755061149597e-01
2.208868786692619324e-02
-1.281510591506958008e-01
-8.353718370199203491e-02
3.832824528217315674e-02
-2.505809068679809570e-02
-2.887283079326152802e-02
-8.002267777919769287e-02
7.343135774135589600e-02
-7.322796434164047241e-02
-2.637031488120555878e-02
1.986826956272125244e-02
1.791149261407554150e-03
5.830776318907737732e-02
1.075610071420669556e-01
-5.414575710892677307e-02
-1.936224102973937988e-01
-3.690741583704948425e-02
8.040028065443038940e-02
-4.131072759628295898e-02
1.663779765367507935e-01
-3.656313940882682800e-02
-1.388373076915740967e-01
-3.467446193099021912e-02
5.813235789537429810e-02
2.429595962166786194e-02
-1.007455587387084961e-01
-1.276640295982360840e-01
1.070921421051025391e-01
3.484621271491050720e-02
9.546977281570434570e-02
-8.895844966173171997e-02
-4.443367477506399155e-03
-1.128626763820648193e-01
-6.293009221553802490e-02
-1.454732269048690796e-01
1.371036022901535034e-01
-5.449378117918968201e-02
4.543584212660789490e-02
-4.385339468717575073e-02
1.329287439584732056e-01
-6.694392114877700806e-02
-3.931625559926033020e-02
1.210235431790351868e-01
6.583197973668575287e-03
5.928450822830200195e-02
6.635837256908416748e-02
-2.589800581336021423e-02
-1.475766748189926147e-01
-1.196680665016174316e-01
8.104090392589569092e-02
-5.802546441555023193e-02
-5.989978834986686707e-02
7.033078372478485107e-02
-6.698810309171676636e-02
-6.859585642814636230e-02
-2.566585317254066467e-02
5.923998728394508362e-02
3.446762263774871826e-02
-5.889234319329261780e-02
-4.301064833998680115e-02
6.447794288396835327e-02
3.608332574367523193e-02
-5.029938742518424988e-02
1.364986151456832886e-01
4.978538677096366882e-02
7.502235006541013718e-03
-1.214416623115539551e-01
-6.900507211685180664e-02
5.747735500335693359e-02
-1.438562721014022827e-01
6.650252640247344971e-02
8.235134929418563843e-02
-1.536712329834699631e-02
-1.079945415258407593e-01
1.137797832489013672e-01
-5.299346521496772766e-02
7.588220387697219849e-02
-1.388261616230010986e-01
2.928753201558720320e-05
3.849515318870544434e-02
-1.147305667400360107e-01
-1.005702465772628784e-02
5.020708963274955750e-02
5.108892545104026794e-02
-8.285104483366012573e-02
4.022799059748649597e-02
-5.328504368662834167e-02
-9.167498350143432617e-02
2.129117771983146667e-02
6.210192292928695679e-02
1.597103476524353027e-02
-1.068975478410720825e-01
-4.992244392633438110e-02
-2.838226035237312317e-02
-1.560898721218109131e-01
3.906445205211639404e-02
-6.341330707073211670e-02
1.594159379601478577e-02
-1.282210946083068848e-01
-1.913199387490749359e-02
-8.245605975389480591e-03
-1.779114156961441040e-01
9.217756800353527069e-03
-1.544685065746307373e-01
-2.905481727793812752e-03
5.473594740033149719e-02
-7.195080816745758057e-02
9.308471530675888062e-02
8.012969791889190674e-02
-9.442088007926940918e-02
3.318975679576396942e-03
3.292117267847061157e-02
-9.603819996118545532e-02
1.241632550954818726e-01
-1.305220127105712891e-01
5.805675685405731201e-02
-3.498381376266479492e-02
7.570311427116394043e-02
1.167998183518648148e-02
-3.486545383930206299e-02
-7.047521322965621948e-02
-5.912165716290473938e-02
-1.266138404607772827e-01
-4.603494331240653992e-02
4.487368091940879822e-02
3.211288899183273315e-02
3.384869173169136047e-02
-4.738990217447280884e-02
9.287600219249725342e-02
7.754766941070556641e-02
6.695315241813659668e-02
2.426965162158012390e-02
8.466834574937820435e-02
-1.165963113307952881e-01
-1.349388957023620605e-01
-4.687740281224250793e-02
-1.510999649763107300e-01
-5.745942145586013794e-02
-1.185519546270370483e-01
3.703882545232772827e-02
-1.374267339706420898e-01
-4.310458898544311523e-03
-7.676147669553756714e-02
5.471631139516830444e-02
8.288437873125076294e-02
9.454906731843948364e-02
6.929461658000946045e-02
-9.084592759609222412e-02
1.207159757614135742e-01
1.624703854322433472e-01
8.636958897113800049e-02
7.257325202226638794e-02
6.388467550277709961e-02
2.617264352738857269e-02
-9.775254875421524048e-02
8.454024046659469604e-02
-1.538472473621368408e-01
-1.356343552470207214e-02
-1.115707531571388245e-01
3.157192096114158630e-02
6.936895102262496948e-02
-6.075882166624069214e-02
-1.392267197370529175e-01
-1.188588738441467285e-01
-2.646314911544322968e-02
-9.666311740875244141e-02
4.946424067020416260e-02
-6.853780150413513184e-02
-3.357347473502159119e-02
7.172960788011550903e-02
7.636819779872894287e-02
4.052219539880752563e-02
-1.028107777237892151e-01
9.960987418889999390e-02
-3.003516420722007751e-02
-9.301910549402236938e-02
-1.147333309054374695e-01
-5.908279120922088623e-02
1.070640683174133301e-01
4.645013809204101562e-02
9.718565642833709717e-02
1.734319701790809631e-02
-3.324247524142265320e-02
-1.904692351818084717e-01
-1.630605310201644897e-01
9.474245458841323853e-02
-4.594424739480018616e-02
2.921446226537227631e-02
1.501741260290145874e-02
9.608392417430877686e-02
-1.855021715164184570e-02
4.014948382973670959e-02
3.574439510703086853e-02
5.813246592879295349e-02
1.166443303227424622e-01
-3.545100614428520203e-02
9.955203160643577576e-03
-8.599764108657836914e-02
5.090918764472007751e-02
-7.148804515600204468e-02
5.644692108035087585e-02
5.105080083012580872e-02
-1.138337627053260803e-01
-9.807332605123519897e-02
-5.444425716996192932e-02
8.432304859161376953e-02
-1.035331636667251587e-01
3.224426880478858948e-02
-8.924109861254692078e-03
-9.194546192884445190e-02
-1.212170198559761047e-01
-5.260971561074256897e-02
-8.342066407203674316e-02
3.117506206035614014e-02
6.337165832519531250e-02
-5.184480547904968262e-02
2.071614935994148254e-02
-1.147334948182106018e-01
5.351264774799346924e-02
-1.306165605783462524e-01
-9.969326108694076538e-02
-6.438300013542175293e-02
-2.790125086903572083e-02
-1.241416390985250473e-02
-3.491492569446563721e-02
-5.418465286493301392e-02
1.089317649602890015e-01
-5.159756913781166077e-02
4.532206803560256958e-02
3.909936547279357910e-02
3.876112634316086769e-03
-8.663890510797500610e-02
-1.260713785886764526e-01
-3.258541971445083618e-02
-9.232111275196075439e-02
-5.851329490542411804e-02
2.685444196686148643e-03
-1.415011473000049591e-02
-1.238292604684829712e-01
2.982700616121292114e-02
2.147302590310573578e-02
-5.241683125495910645e-02
1.090402081608772278e-01
-4.533057287335395813e-02
-1.182909533381462097e-01
-1.387218981981277466e-01
2.530876547098159790e-02
8.658672682940959930e-03
1.018408462405204773e-01
-1.381533443927764893e-01
1.258345693349838257e-01
-4.227929189801216125e-02
-1.385710537433624268e-01
7.584920525550842285e-02
-1.155616715550422668e-01
-8.639999665319919586e-03
6.577491015195846558e-02
-9.832868725061416626e-02
-9.583528339862823486e-02
1.533673983067274094e-02
-5.841379612684249878e-02
1.700079650618135929e-03
8.172021806240081787e-02
-9.359705448150634766e-02
-5.233670398592948914e-02
-6.564614176750183105e-02
-1.250775158405303955e-02
-1.143943071365356445e-01
7.718688249588012695e-02
1.158085763454437256e-01
8.151987940073013306e-02
-3.276494145393371582e-02
4.610169306397438049e-02
1.345905512571334839e-01
-6.830400228500366211e-02
-1.317783724516630173e-02
8.894159644842147827e-02
-1.173251122236251831e-01
-6.559826433658599854e-02
4.798378050327301025e-02
2.272389642894268036e-02
6.209609657526016235e-02
5.826240777969360352e-02
4.003442451357841492e-02
5.519956350326538086e-02
1.063428521156311035e-01
-4.848446324467658997e-02
-5.531460046768188477e-02
-9.277014434337615967e-02
-7.978934794664382935e-02
6.704398244619369507e-02
1.517385095357894897e-01
1.427152454853057861e-01
1.083595380187034607e-01
-1.468971669673919678e-01
-4.059762135148048401e-02
5.726435780525207520e-02
-1.027613878250122070e-01
9.077002108097076416e-02
4.180560261011123657e-02
-5.739781633019447327e-02
-4.702263697981834412e-02
5.275528505444526672e-02
3.562642633914947510e-02
-3.729535266757011414e-02
1.110453996807336807e-02
-8.783767372369766235e-02
1.681106537580490112e-01
4.351690039038658142e-02
-4.878434911370277405e-02
-1.712283194065093994e-01
-9.283789247274398804e-02
-8.583860471844673157e-03
-4.414365068078041077e-02
1.072133406996726990e-01
-1.480649970471858978e-02
5.461080744862556458e-02
-1.106206551194190979e-01
-1.478557139635086060e-01
-1.794235967099666595e-02
-8.022787421941757202e-02
3.963378071784973145e-02
-9.811533987522125244e-02
-1.173250027932226658e-03
-1.165910391137003899e-03
-1.254815906286239624e-01
-1.536171324551105499e-02
-4.090481437742710114e-03
1.023474782705307007e-01
7.561921142041683197e-03
-8.764448016881942749e-02
8.695593476295471191e-02
-4.013058170676231384e-02
-2.749940007925033569e-02
-1.306026130914688110e-01
6.748237460851669312e-02
-4.733825474977493286e-02
-1.229025870561599731e-01
-3.257587552070617676e-02
3.345823287963867188e-02
6.067956238985061646e-02
-1.334710977971553802e-02
-6.546394526958465576e-02
6.561268121004104614e-02
1.640598848462104797e-02
5.350339226424694061e-03
-4.639408737421035767e-02
-7.685359567403793335e-02
-4.384824261069297791e-02
6.790255755186080933e-02
9.999576210975646973e-02
1.178978234529495239e-01
9.813042730093002319e-02
5.522666126489639282e-02
3.930667042732238770e-02
-8.664733730256557465e-03
7.977973669767379761e-02
6.658447533845901489e-02
8.016826212406158447e-02
-2.089878916740417480e-02
7.142464071512222290e-02
-2.763698436319828033e-02
-1.010441500693559647e-02
-1.241513863205909729e-01
-8.981053531169891357e-02
-8.457754552364349365e-02
9.207697212696075439e-02
9.155404567718505859e-02
1.803297400474548340e-01
1.575691974721848965e-03
-1.363906860351562500e-01
-4.487596079707145691e-02
1.137009933590888977e-01
1.185955628752708435e-01
-1.153847128152847290e-01
-6.805352866649627686e-02
-4.139907285571098328e-02
-5.377821624279022217e-02
-5.398447439074516296e-02
8.015868067741394043e-02
6.917537003755569458e-02
-3.346833167597651482e-03
1.869544573128223419e-02
6.422558333724737167e-03
-1.183670535683631897e-01
1.394781917333602905e-01
-5.140098184347152710e-02
-7.300885021686553955e-02
-2.354905568063259125e-02
-7.231877744197845459e-02
3.227600455284118652e-02
7.726289331912994385e-02
1.095241308212280273e-01
-7.932133972644805908e-02
-1.059710830450057983e-01
-9.933397918939590454e-02
4.666622728109359741e-02
4.653935134410858154e-02
1.135302409529685974e-01
-4.477227479219436646e-02
-6.928886473178863525e-02
-4.543670266866683960e-02
1.231326386332511902e-01
-1.610798686742782593e-01
-4.363529756665229797e-02
-2.387899532914161682e-02
2.171901240944862366e-02
-8.318988233804702759e-02
5.534896627068519592e-02
4.271039366722106934e-02
-1.911283284425735474e-02
-4.503649659454822540e-03
-8.710454404354095459e-02
-1.319847535341978073e-02
4.258639365434646606e-02
7.501120865345001221e-02
4.525433108210563660e-02
-1.487926952540874481e-02
-3.869936987757682800e-02
1.302123665809631348e-01
1.847553066909313202e-02
1.816461831331253052e-01
-4.552062228322029114e-02
9.230550378561019897e-03
-9.795466810464859009e-02
3.775255382061004639e-02
-8.143146336078643799e-02
5.913782492280006409e-02
-1.010546907782554626e-01
1.134309917688369751e-01
1.736399158835411072e-02
6.737220287322998047e-02
-1.243166029453277588e-01
1.107816249132156372e-01
-1.110504567623138428e-02
-6.851155310869216919e-02
1.363758295774459839e-01
-6.357704102993011475e-02
1.119590178132057190e-01
8.525243401527404785e-02
3.142693638801574707e-02
-9.414293617010116577e-02
1.807800233364105225e-01
4.553743824362754822e-02
2.808770909905433655e-02
-6.530409306287765503e-02
1.740116626024246216e-02
4.619812592864036560e-02
-1.168199032545089722e-01
-1.140476204454898834e-02
-5.574357882142066956e-02
-1.827029511332511902e-02
-1.425460577011108398e-01
1.723888814449310303e-01
-7.239691168069839478e-02
-7.192935794591903687e-02
-4.576906561851501465e-02
5.746445432305335999e-02
-8.168840408325195312e-02
-1.270605176687240601e-01
1.604960858821868896e-01
-9.322075545787811279e-02
8.883865177631378174e-02
-2.763089723885059357e-02
-2.248324081301689148e-02
1.644593924283981323e-01
-1.387377679347991943e-01
-1.151672750711441040e-02
7.272966951131820679e-02
-9.548775106668472290e-02
-1.013738662004470825e-01
1.589686125516891479e-01
4.078392311930656433e-02
3.536817058920860291e-02
1.665655523538589478e-01
3.387788310647010803e-03
1.695825345814228058e-02
-9.396658837795257568e-02
-6.329161673784255981e-02
6.013249978423118591e-02
3.131141513586044312e-02
-1.056907922029495239e-01
1.269981563091278076e-01
6.032126396894454956e-02
7.673338800668716431e-02
5.849872715771198273e-03
-7.048907876014709473e-02
-8.692466467618942261e-02
-5.389500036835670471e-02
5.174818634986877441e-02
-3.179591894149780273e-02
4.207296296954154968e-03
-3.929436672478914261e-03
-1.325401514768600464e-01
-7.214906811714172363e-02
-1.692470908164978027e-02
9.419121593236923218e-02
-1.041695568710565567e-02
4.776509478688240051e-02
7.652146369218826294e-02
-6.559346616268157959e-02
-8.787689730525016785e-03
-8.862563967704772949e-02
1.656021736562252045e-02
-5.496178939938545227e-02
2.500950358808040619e-02
2.219409681856632233e-02
-5.317447241395711899e-03
-2.618291042745113373e-02
-6.195877492427825928e-02
-7.529693096876144409e-02
8.776648342609405518e-02
4.105868190526962280e-02
-7.833364605903625488e-02
-6.222881376743316650e-02
-8.716335147619247437e-02
-5.336719751358032227e-02
3.184039518237113953e-02
-6.340818852186203003e-02
-5.738017149269580841e-03
-1.341442614793777466e-01
-1.214877367019653320e-01
-2.926642075181007385e-03
-9.718740731477737427e-02
7.854878902435302734e-02
3.059268184006214142e-02
5.621389299631118774e-02
-8.262339979410171509e-02
3.484685719013214111e-02
-3.745590584003366530e-05
-1.788444221019744873e-01
-9.938776493072509766e-02
-1.056989096105098724e-02
-2.576911589130759239e-03
3.647755458950996399e-02
6.466413289308547974e-02
-2.058048397302627563e-01
1.019696295261383057e-01
-9.338613599538803101e-02
-2.052589803934097290e-01
-5.035529378801584244e-03
-1.405386440455913544e-02
-1.244265139102935791e-01
-9.197868406772613525e-03
8.000610768795013428e-02
2.277870103716850281e-02
-1.562884747982025146e-01
-6.441502831876277924e-03
-5.332851409912109375e-02
4.638248309493064880e-02
1.121440902352333069e-01
3.358957916498184204e-02
-1.016579493880271912e-01
5.026482418179512024e-02
-2.033017203211784363e-02
1.064012125134468079e-01
-6.508109718561172485e-02
-1.036056429147720337e-01
7.627237588167190552e-02
2.911120839416980743e-02
4.165287315845489502e-02
1.521282345056533813e-01
-1.279660761356353760e-01
-3.001026250422000885e-02
-6.507354229688644409e-02
-2.384893409907817841e-02
-2.236151136457920074e-02
4.732905328273773193e-02
-1.172322314232587814e-02
9.141403250396251678e-03
-7.599814236164093018e-02
-1.508243009448051453e-02
-1.392765250056982040e-02
-8.736443519592285156e-02
-6.127643957734107971e-02
-1.453370451927185059e-01
-6.143391504883766174e-02
-7.683348376303911209e-03
-1.824678778648376465e-01
3.514510765671730042e-02
6.417310237884521484e-02
2.365003526210784912e-02
2.178664505481719971e-02
-1.058762818574905396e-01
1.448310911655426025e-02
1.014240086078643799e-01
9.410016983747482300e-02
4.700088873505592346e-02
-2.073501981794834137e-02
1.473381072282791138e-01
4.839305579662322998e-02
3.263172460719943047e-03
-1.230875030159950256e-01
-7.363257557153701782e-02
4.226831719279289246e-02
-1.199647486209869385e-01
7.824134826660156250e-02
7.455133646726608276e-02
4.226016998291015625e-02
7.308776676654815674e-02
-1.515735834836959839e-01
-1.143670827150344849e-01
-1.319590806961059570e-01
6.208485364913940430e-02
6.777303665876388550e-02
-3.623717278242111206e-02
-6.066895276308059692e-02
1.677125133574008942e-02
7.601524144411087036e-02
1.681432873010635376e-02
7.157215476036071777e-02
1.424981802701950073e-01
1.346142739057540894e-01
-8.618293702602386475e-02
-3.357136622071266174e-02
2.842886187136173248e-02
5.529180914163589478e-02
3.594798594713211060e-02
4.918976686894893646e-03
3.264682367444038391e-02
-6.181990727782249451e-02
8.062166720628738403e-02
-1.385268010199069977e-02
-3.228482604026794434e-02
-9.281164407730102539e-02
-6.761173903942108154e-02
7.788529619574546814e-03
1.339950114488601685e-01
6.818095594644546509e-02
-9.532549977302551270e-02
6.635423004627227783e-02
7.118952274322509766e-02
8.674526214599609375e-02
-1.364174187183380127e-01
-8.009565621614456177e-02
-5.004530400037765503e-02
7.198143005371093750e-02
-4.105253890156745911e-02
4.920989274978637695e-02
2.248529903590679169e-02
-1.308310180902481079e-01
-1.070890799164772034e-01
-6.580630689859390259e-02
-4.807991907000541687e-02
8.145685493946075439e-02
1.044130697846412659e-01
3.035707771778106689e-02
-1.005545854568481445e-01
-3.639811417087912560e-03
-7.238511741161346436e-02
7.353235036134719849e-02
7.303991913795471191e-02
4.202122241258621216e-02
-9.477300196886062622e-02
4.868912696838378906e-02
-1.381338238716125488e-01
3.995118290185928345e-02
1.695371977984905243e-02
-9.324429929256439209e-02
6.995690613985061646e-02
6.956491619348526001e-02
-8.263966441154479980e-02
6.944155786186456680e-03
7.379408343695104122e-04
2.985086850821971893e-02
-7.252137362957000732e-02
-3.058603964745998383e-02
-1.414913535118103027e-01
3.753787279129028320e-02
6.431710906326770782e-03
-2.221891097724437714e-02
-6.551716476678848267e-02
3.544659912586212158e-02
1.120300516486167908e-01
-1.032121181488037109e-01
-1.515008509159088135e-01
-1.497941464185714722e-01
-1.152613759040832520e-01
3.815527539700269699e-03
-1.854333840310573578e-02
3.916783630847930908e-02
6.339671462774276733e-02
-2.555445395410060883e-02
-7.088116556406021118e-02
-3.492234647274017334e-02
-1.299436390399932861e-01
9.262855350971221924e-02
5.649833474308252335e-03
1.247688569128513336e-02
1.134713813662528992e-01
-5.326472222805023193e-02
-1.572547256946563721e-01
-3.310914617031812668e-03
1.315605491399765015e-01
-4.401925951242446899e-02
-1.060118824243545532e-01
8.546767383813858032e-02
-4.019492119550704956e-02
-1.592611074447631836e-01
-8.132053166627883911e-02
2.422881498932838440e-02
1.086390204727649689e-02
-1.391963753849267960e-02
-1.146312952041625977e-01
3.830658970400691032e-03
2.101137861609458923e-02
1.464772224426269531e-01
-2.299828454852104187e-02
-1.213047727942466736e-01
-1.176297217607498169e-01
9.356866031885147095e-02
4.223656654357910156e-02
7.816398888826370239e-02
-4.417843744158744812e-02
6.222631782293319702e-02
-3.895713016390800476e-02
-1.083323135972023010e-01
5.907677486538887024e-02
1.322447806596755981e-01
-5.519547685980796814e-02
9.331815689802169800e-02
5.018210038542747498e-02
-6.504558026790618896e-02
-1.529758051037788391e-02
4.109235480427742004e-02
8.413488417863845825e-02
-1.365135610103607178e-01
-6.603808701038360596e-02
-7.667064666748046875e-02
-9.763391315937042236e-02
-8.176743984222412109e-02
6.330855935811996460e-02
5.079657584428787231e-02
1.276302188634872437e-01
-1.012446656823158264e-01
-5.898778513073921204e-02
1.056802272796630859e-01
-1.839594729244709015e-02
4.067053645849227905e-02
1.132107749581336975e-01
7.849255343899130821e-04
-2.880716882646083832e-02
-4.233698546886444092e-02
1.302554458379745483e-01
7.608895748853683472e-02
6.804168969392776489e-02
6.457702815532684326e-02
-2.191622368991374969e-02
1.957579329609870911e-02
-1.802386716008186340e-03
6.506577879190444946e-02
-3.554026037454605103e-02
1.334744840860366821e-01
6.412422657012939453e-02
-1.291502416133880615e-01
-8.630830794572830200e-02
2.735014073550701141e-02
-8.460922539234161377e-02
-1.593072265386581421e-01
5.293496418744325638e-03
-4.977791383862495422e-02
-8.170547336339950562e-02
-7.055745925754308701e-03
-9.952079504728317261e-03
4.965848103165626526e-02
1.738488301634788513e-02
-9.246023744344711304e-02
4.159688204526901245e-02
8.118100464344024658e-02
8.005279302597045898e-02
-1.836763881146907806e-02
1.051955670118331909e-01
1.638698577880859375e-01
-1.810360699892044067e-01
4.825293272733688354e-02
-7.144933938980102539e-02
-4.468050226569175720e-02
-6.961835920810699463e-02
1.152105927467346191e-01
3.172258287668228149e-02
5.959024280309677124e-02
-7.449664920568466187e-02
7.577152550220489502e-02
-7.168471068143844604e-02
1.227265689522027969e-02
1.158585958182811737e-02
9.684620797634124756e-02
2.993760816752910614e-02
1.320139914751052856e-01
-1.366040389984846115e-02
-8.609310537576675415e-02
-1.063943803310394287e-01
4.225330427289009094e-02
-1.276532653719186783e-02
7.808668166399002075e-02
2.131361514329910278e-02
-5.405623838305473328e-02
-3.407016396522521973e-02
-1.207963079214096069e-01
7.964631915092468262e-02
-7.894067466259002686e-02
-1.127198785543441772e-01
3.427112847566604614e-02
3.896502777934074402e-02
1.061722263693809509e-01
-1.206726357340812683e-01
1.349826529622077942e-02
-1.049937605857849121e-01
-1.581895202398300171e-01
2.899082750082015991e-02
-9.501785039901733398e-02
8.787101507186889648e-02
-6.955309957265853882e-02
1.167938187718391418e-01
-7.505505532026290894e-02
-5.724408850073814392e-02
-7.853018492460250854e-02
-4.785593971610069275e-02
-1.310806721448898315e-01
1.616344973444938660e-02
1.548725813627243042e-01
5.512017756700515747e-02
-1.378225386142730713e-01
-6.240383163094520569e-02
1.041215285658836365e-01
-1.392432600259780884e-01
5.602716654539108276e-02
-1.323186904191970825e-01
7.954135537147521973e-02
-1.167378574609756470e-01
-1.521827559918165207e-02
-4.133316129446029663e-02
-1.921263523399829865e-02
-7.948602735996246338e-02
-3.593099117279052734e-02
6.536414474248886108e-02
8.488633902743458748e-04
-4.288247972726821899e-02
-7.527627050876617432e-03
-5.637506023049354553e-02
2.683821506798267365e-02
4.297459870576858521e-02
-1.252645552158355713e-01
3.234555199742317200e-02
-2.337862923741340637e-02
-2.041922509670257568e-02
2.430118806660175323e-02
-6.202133744955062866e-02
4.351056739687919617e-02
1.547819003462791443e-02
-2.498126775026321411e-02
-1.476995646953582764e-01
9.593387693166732788e-02
2.313981018960475922e-02
-6.493722647428512573e-02
3.108908608555793762e-02
-1.295369416475296021e-01
6.230782344937324524e-02
-8.907071501016616821e-02
-8.297020196914672852e-02
4.302982240915298462e-02
-9.885035455226898193e-02
1.237456128001213074e-01
-2.666491828858852386e-02
1.312265694141387939e-01
-1.185130476951599121e-01
-1.187877282500267029e-01
-1.201309338212013245e-01
3.870795294642448425e-02
-1.282131671905517578e-01
-2.115743793547153473e-02
-3.037688508629798889e-02
4.267003759741783142e-02
3.005415759980678558e-02
-7.676646858453750610e-02
-5.622246488928794861e-02
-5.319910123944282532e-02
-2.660313807427883148e-02
4.220959171652793884e-02
5.400389432907104492e-03
2.505778335034847260e-02
8.103556185960769653e-02
-3.871412016451358795e-03
-1.389184873551130295e-02
6.549527496099472046e-02
-3.590191528201103210e-02
-1.158864349126815796e-01
-2.231508120894432068e-02
1.227090228348970413e-02
-9.851162135601043701e-02
-8.066374063491821289e-02
1.238938271999359131e-01
1.134798526763916016e-01
-8.914183080196380615e-02
1.763991117477416992e-01
-3.138962015509605408e-02
-1.154518201947212219e-01
-4.719559103250503540e-02
-7.259941101074218750e-02
1.876567602157592773e-01
-8.709271252155303955e-02
-7.114816457033157349e-02
-1.318921148777008057e-01
6.247368827462196350e-02
6.380519270896911621e-02
7.843193411827087402e-02
8.806041628122329712e-02
3.858310729265213013e-02
5.517884716391563416e-02
4.854107275605201721e-02
-2.710446901619434357e-02
3.672273457050323486e-02
-7.148290425539016724e-02
-9.873665869235992432e-02
-1.034855991601943970e-01
4.939251579344272614e-03
7.032992318272590637e-03
6.467787176370620728e-02
-3.669311106204986572e-02
-4.868549481034278870e-02
-5.929235368967056274e-02
1.091986298561096191e-01
-6.296028196811676025e-02
1.474346518516540527e-01
2.642031759023666382e-02
8.456444367766380310e-03
1.553340554237365723e-01
1.572493165731430054e-01
-2.086744830012321472e-02
-4.866844788193702698e-02
-1.264011412858963013e-01
-1.483027786016464233e-01
-1.368438638746738434e-02
5.576265975832939148e-02
9.495668858289718628e-02
-1.062351986765861511e-01
5.202041938900947571e-02
-4.244212061166763306e-02
4.318728297948837280e-02
-5.691631231456995010e-03
-6.281986087560653687e-02
-9.205691516399383545e-02
9.128733654506504536e-04
2.650560252368450165e-02
-4.593792930245399475e-02
-4.908142611384391785e-02
5.268242582678794861e-02
-9.839436411857604980e-02
1.187135949730873108e-01
1.302295327186584473e-01
-1.203364059329032898e-01
-4.030729830265045166e-02
1.250114664435386658e-02
6.015763431787490845e-02
-4.468781128525733948e-02
-8.954484947025775909e-03
-4.706331994384527206e-03
8.616887778043746948e-02
1.095201596617698669e-01
-4.724373295903205872e-02
2.305633202195167542e-02
1.384088993072509766e-01
1.519932001829147339e-01
-3.090736921876668930e-03
-1.521965116262435913e-01
-5.528652295470237732e-02
-1.960232853889465332e-02
9.557688981294631958e-02
-2.594732306897640228e-02
-7.845653593540191650e-02
3.746052831411361694e-02
-7.914149016141891479e-02
1.377620846033096313e-01
-9.114173799753189087e-02
1.930467411875724792e-02
3.964541107416152954e-02
7.107002288103103638e-02
-4.836152866482734680e-02
-8.864090777933597565e-03
7.672232389450073242e-02
1.107995137572288513e-01
-1.977326814085245132e-03
9.767499566078186035e-02
-9.985996782779693604e-02
-6.320825964212417603e-02
-1.220998354256153107e-02
1.387054920196533203e-01
-1.591817587614059448e-01
2.676667645573616028e-03
6.544260680675506592e-02
5.062126740813255310e-02
-5.527522042393684387e-02
1.195066869258880615e-01
-1.327555179595947266e-01
-1.508015096187591553e-01
1.274650078266859055e-02
5.371388979256153107e-03
-4.144487157464027405e-02
-1.795327290892601013e-02
7.500503957271575928e-02
-9.405630081892013550e-02
-1.284116655588150024e-01
5.295138806104660034e-02
-3.520721197128295898e-02
-1.412449870258569717e-02
-8.436940610408782959e-02
1.033010631799697876e-01
-3.007817082107067108e-02
-9.798253327608108521e-02
-1.388834267854690552e-01
-2.872276492416858673e-02
7.880066335201263428e-02
-1.475340686738491058e-02
2.566825598478317261e-02
4.071193933486938477e-02
1.435003057122230530e-02
-1.303453743457794189e-01
2.561630494892597198e-02
-2.164566703140735626e-02
2.841013111174106598e-02
3.256657719612121582e-02
-7.018787413835525513e-02
8.221659064292907715e-02
-4.658380150794982910e-02
-1.573616713285446167e-01
8.040932938456535339e-03
-1.686856001615524292e-01
6.911692023277282715e-02
1.643734984099864960e-02
9.308889508247375488e-02
-1.218075826764106750e-01
-2.135160379111766815e-02
-4.094436392188072205e-02
7.940116524696350098e-02
-1.421833131462335587e-02
-1.172255277633666992e-01
3.246425092220306396e-02
-1.246533766388893127e-01
-7.477822899818420410e-02
-4.048695322126150131e-03
-1.033772155642509460e-01
-3.231644630432128906e-02
-1.219653412699699402e-01
8.505753427743911743e-02
1.034280098974704742e-02
-1.266381293535232544e-01
5.131172016263008118e-02
-5.978177860379219055e-02
-4.405757784843444824e-02
-1.093055084347724915e-01
-6.873095035552978516e-02
6.435294449329376221e-02
1.012134552001953125e-02
1.282864063978195190e-01
-5.830048397183418274e-02
-4.401648044586181641e-02
1.066802516579627991e-01
6.785173714160919189e-02
-8.088440448045730591e-02
-1.871340908110141754e-02
2.817471139132976532e-02
-1.048138514161109924e-01
-3.046480379998683929e-02
2.954586967825889587e-02
-1.160716786980628967e-01
-2.185510098934173584e-02
8.069363236427307129e-02
2.329441718757152557e-02
-8.479484356939792633e-03
-8.173750340938568115e-02
-1.112350448966026306e-01
-1.299254149198532104e-01
1.309722959995269775e-01
-4.432550072669982910e-02
-9.441073238849639893e-02
3.958060964941978455e-02
-1.483131349086761475e-01
-1.240253970026969910e-01
1.084688156843185425e-01
-1.444644480943679810e-02
-3.458540141582489014e-02
5.265263374894857407e-03
-1.050300672650337219e-01
-3.239414468407630920e-02
-7.291189581155776978e-02
6.980398297309875488e-02
-1.592098325490951538e-01
4.429367557168006897e-02
-4.454819858074188232e-02
5.973494611680507660e-03
2.485891990363597870e-02
-1.481114029884338379e-01
-1.549925468862056732e-02
-2.948199212551116943e-02
8.215587586164474487e-02
9.696835279464721680e-02
7.457085698843002319e-02
-4.981351271271705627e-02
-4.234839230775833130e-02
4.274857044219970703e-02
7.273279875516891479e-02
2.077329671010375023e-03
-2.592996694147586823e-02
8.521480858325958252e-02
4.616150166839361191e-03
2.838500775396823883e-03
2.103417366743087769e-02
-4.818488657474517822e-02
-3.148150071501731873e-02
1.512424647808074951e-01
-6.394446641206741333e-02
-4.663099721074104309e-02
-4.641282930970191956e-02
1.551879346370697021e-01
-1.416948586702346802e-01
1.919339224696159363e-02
-1.839121617376804352e-02
6.717237085103988647e-02
-7.129091024398803711e-02
1.035402566194534302e-01
-1.245467290282249451e-01
3.550890088081359863e-02
1.694162748754024506e-02
-3.406133968383073807e-03
-1.002511754631996155e-01
5.445719882845878601e-02
1.526966392993927002e-01
-7.848227024078369141e-02
1.458719968795776367e-01
-7.475323975086212158e-03
-8.984352461993694305e-03
8.481879532337188721e-02
5.976657569408416748e-02
-1.478511691093444824e-01
-1.500552296638488770e-01
-9.698182344436645508e-02
2.994883619248867035e-02
-9.701876342296600342e-02
-4.513551667332649231e-02
-2.274341136217117310e-02
-1.220614276826381683e-02
-6.548207718878984451e-03
-4.502503573894500732e-02
-8.965368568897247314e-02
-4.746463522315025330e-02
7.064250856637954712e-02
-2.651009894907474518e-02
-8.852396160364151001e-02
-6.936331838369369507e-02
1.026897225528955460e-02
-1.115032210946083069e-01
4.849065467715263367e-02
-3.977140784263610840e-02
1.047615632414817810e-01
7.875952124595642090e-02
-1.529218703508377075e-01
-1.247385069727897644e-01
9.501457214355468750e-02
1.218952611088752747e-01
9.929089993238449097e-02
-5.646547675132751465e-02
-1.159916818141937256e-02
4.165735095739364624e-02
3.489344939589500427e-02
-2.108373120427131653e-02
-8.698206394910812378e-02
-1.137618720531463623e-01
-6.926644593477249146e-02
-6.403876096010208130e-02
-1.281900107860565186e-01
-4.406109917908906937e-03
-1.064639445394277573e-02
3.068421408534049988e-02
-4.613582789897918701e-02
-5.734318867325782776e-02
-1.142473444342613220e-01
-5.898513644933700562e-02
-1.025720238685607910e-01
7.544594258069992065e-02
-2.921643294394016266e-02
1.093486174941062927e-01
6.500644981861114502e-02
1.262427270412445068e-01
-1.094748452305793762e-01
-2.455279417335987091e-02
2.315581403672695160e-02
4.237020388245582581e-02
-9.966498613357543945e-02
8.234995603561401367e-02
-9.300921112298965454e-02
3.344833105802536011e-02
7.067600637674331665e-02
-1.613736152648925781e-01
-6.626415997743606567e-02
5.855656042695045471e-02
-7.109100371599197388e-02
2.359498851001262665e-02
6.892692297697067261e-02
-1.156056299805641174e-01
6.397383660078048706e-02
1.142168790102005005e-01
1.110735610127449036e-01
3.403821587562561035e-02
4.682381823658943176e-02
1.773940399289131165e-02
-5.422278866171836853e-02
-5.758546292781829834e-02
5.425066500902175903e-02
1.157244294881820679e-01
-1.576844900846481323e-01
5.524566024541854858e-02
-3.139720857143402100e-02
9.217044711112976074e-02
1.006483566015958786e-02
-6.824895739555358887e-02
6.562250107526779175e-02
-1.501603275537490845e-01
-5.476644262671470642e-02
-6.415344029664993286e-02
1.755471900105476379e-02
4.176498949527740479e-02
8.698579668998718262e-02
-6.854408979415893555e-02
-7.895193994045257568e-02
8.765875548124313354e-02
1.039489284157752991e-01
-1.289491355419158936e-01
1.178313046693801880e-02
5.511948838829994202e-02
-9.487705677747726440e-02
-1.040519699454307556e-01
-1.509556621313095093e-01
-2.366000227630138397e-02
4.541543498635292053e-02
-3.857918828725814819e-02
-1.187622621655464172e-01
-7.744036614894866943e-02
-1.281453818082809448e-01
3.842464182525873184e-03
-1.414434164762496948e-01
-1.874641627073287964e-01
