-8.000900968909263611e-03
2.164070867002010345e-02
3.753623226657509804e-03
5.949240177869796753e-02
7.341441698372364044e-03
-3.968456387519836426e-02
-2.056642808020114899e-02
9.127706289291381836e-03
-4.135011881589889526e-02
-3.684811294078826904e-02
1.294244173914194107e-02
-2.995865978300571442e-02
-4.830200597643852234e-02
6.565560470335185528e-04
1.454170886427164078e-02
-2.028008177876472473e-02
-4.280735738575458527e-03
-4.540445283055305481e-02
2.385452762246131897e-02
3.074711561203002930e-02
2.044042013585567474e-02
2.580738393589854240e-03
-1.289022620767354965e-02
-7.149650901556015015e-02
-6.027698516845703125e-02
9.229736030101776123e-02
-2.679089084267616272e-02
-1.723115704953670502e-02
-3.144725784659385681e-02
3.025534003973007202e-02
-4.070974141359329224e-02
7.289956510066986084e-02
-1.602633856236934662e-03
-4.216666333377361298e-03
4.841039329767227173e-02
-1.461450103670358658e-02
4.882900789380073547e-02
2.406262233853340149e-02
1.947901211678981781e-02
-1.034354092553257942e-03
-4.858753830194473267e-02
-3.934996575117111206e-02
4.818961769342422485e-02
9.857687354087829590e-02
8.959068916738033295e-03
-3.355751559138298035e-02
-1.307544764131307602e-02
-6.160489469766616821e-02
3.604393452405929565e-02
9.042740799486637115e-03
-7.589004933834075928e-03
3.043323755264282227e-02
6.392752286046743393e-03
4.427138715982437134e-02
-3.018120117485523224e-02
-4.211790859699249268e-02
-2.030506730079650879e-02
1.600135490298271179e-02
-1.819483563303947449e-02
2.410761639475822449e-02
-5.426564440131187439e-02
-2.970271185040473938e-02
-2.564650401473045349e-02
3.168722987174987793e-02
7.338786870241165161e-02
2.537407167255878448e-02
-7.030699402093887329e-03
-4.749903455376625061e-03
2.321115694940090179e-02
-2.089719288051128387e-02
-7.134771440178155899e-03
5.078595131635665894e-03
-1.839000731706619263e-02
2.994720824062824249e-02
-2.725377492606639862e-02
-3.936699032783508301e-02
-3.524531377479434013e-03
6.567921489477157593e-03
-4.447962623089551926e-03
1.712214946746826172e-02
7.667832076549530029e-02
5.626612529158592224e-02
1.322325766086578369e-01
-3.863623365759849548e-02
-3.456593677401542664e-02
3.929243423044681549e-03
2.520218677818775177e-02
5.840448290109634399e-02
1.379371713846921921e-02
-1.296415459364652634e-02
-5.122707225382328033e-03
3.378332033753395081e-02
-9.988848119974136353e-03
3.570475429296493530e-02
-4.976490139961242676e-02
-9.637530893087387085e-03
-8.095540106296539307e-03
-1.248599775135517120e-02
1.120986863970756531e-01
-4.467331804335117340e-03
5.238473415374755859e-02
1.561205275356769562e-02
-2.447953261435031891e-02
-1.605312526226043701e-02
-3.853123416774906218e-05
-2.359336242079734802e-02
7.378736138343811035e-02
-1.614614948630332947e-02
-2.574886195361614227e-02
2.966140024363994598e-02
2.738215960562229156e-02
2.699977718293666840e-02
1.873415894806385040e-02
-4.624421522021293640e-02
2.344682440161705017e-02
-6.845578551292419434e-02
-1.269182935357093811e-02
9.573640301823616028e-03
-3.726505115628242493e-02
-9.153169393539428711e-02
-5.715523660182952881e-02
-1.602229289710521698e-02
-3.472476080060005188e-02
-6.300977617502212524e-02
3.916765004396438599e-02
-5.059862509369850159e-03
-1.794681884348392487e-02
-2.529148943722248077e-03
2.839031442999839783e-02
-1.249712891876697540e-02
-4.038463905453681946e-02
7.669349014759063721e-02
-1.718898862600326538e-02
6.052194163203239441e-03
-2.722014673054218292e-02
1.239492744207382202e-01
3.671430796384811401e-02
3.873160108923912048e-02
1.222817506641149521e-02
-3.969542682170867920e-02
-5.933947116136550903e-02
-3.143551573157310486e-02
4.354900121688842773e-02
-7.230443507432937622e-02
-4.055688157677650452e-03
-6.093077734112739563e-02
3.387333080172538757e-02
-1.692163944244384766e-02
3.118748031556606293e-02
8.853558450937271118e-03
-2.807062119245529175e-02
9.920865995809435844e-04
-6.171693559736013412e-03
-3.019008971750736237e-02
1.592925749719142914e-02
-1.042604167014360428e-02
1.011009328067302704e-02
2.549675107002258301e-02
1.990858931094408035e-03
5.456424504518508911e-02
-1.120992470532655716e-02
2.665523206815123558e-03
5.349437892436981201e-02
-2.048944123089313507e-02
4.118579998612403870e-02
-3.243143111467361450e-02
-5.167739838361740112e-02
5.081757158041000366e-02
-2.203208394348621368e-02
-4.616586491465568542e-02
-3.938133269548416138e-02
-4.121419414877891541e-02
-3.960985317826271057e-02
4.869572818279266357e-02
-2.857234887778759003e-02
3.917269408702850342e-02
1.351922936737537384e-02
-7.860171608626842499e-03
5.903883837163448334e-03
4.805254191160202026e-02
7.946821860969066620e-03
-2.184719406068325043e-02
-9.249455761164426804e-04
3.754318878054618835e-02
-6.408693152479827404e-04
2.352907694876194000e-02
-2.350715361535549164e-02
-4.051572829484939575e-02
-2.487740851938724518e-02
-2.364834072068333626e-03
1.445931848138570786e-02
-3.306595236063003540e-02
1.068024709820747375e-02
-4.169072583317756653e-02
-3.856219723820686340e-02
-7.380634080618619919e-03
-2.856734767556190491e-02
-1.524278335273265839e-02
-5.098499357700347900e-02
-8.720784634351730347e-02
4.516838118433952332e-02
-3.930355608463287354e-02
-4.132658615708351135e-02
-4.597022756934165955e-02
1.449809502810239792e-02
-1.145637407898902893e-02
2.345216646790504456e-02
5.397599935531616211e-02
-4.200585931539535522e-02
-4.409335181117057800e-02
6.227760761976242065e-02
9.262631647288799286e-03
2.954143472015857697e-02
-2.063092403113842010e-02
-1.254895795136690140e-02
-8.734305389225482941e-03
2.850195951759815216e-02
-6.219762936234474182e-02
-2.762989327311515808e-02
-4.136304184794425964e-02
2.350343950092792511e-02
-6.361678987741470337e-02
-9.038187563419342041e-03
3.267367184162139893e-02
1.622184552252292633e-02
-2.823399193584918976e-02
7.469411357305943966e-04
5.135012790560722351e-02
4.568810574710369110e-03
9.832388907670974731e-02
2.800938300788402557e-02
3.605743125081062317e-02
1.683530770242214203e-02
-3.670690581202507019e-02
2.020942233502864838e-02
-3.142850939184427261e-03
4.177631344646215439e-03
-4.425468668341636658e-02
-6.598756462335586548e-02
-6.310947984457015991e-02
1.774848625063896179e-02
2.867637202143669128e-03
6.292618811130523682e-02
-9.005730040371417999e-03
4.320450872182846069e-02
2.745644934475421906e-02
2.510347589850425720e-02
2.851712144911289215e-02
3.311756625771522522e-02
-2.073346637189388275e-02
-2.382590621709823608e-02
-2.183454111218452454e-02
-7.281745783984661102e-03
6.855249404907226562e-02
-2.018744125962257385e-02
1.272502914071083069e-02
