1.028603538870811462e-01
-3.914590924978256226e-02
-8.230897784233093262e-02
-3.018615394830703735e-02
1.058694571256637573e-01
-1.587429642677307129e-02
-2.743617631494998932e-02
2.711354941129684448e-02
9.599570184946060181e-02
5.082591995596885681e-02
-7.692603021860122681e-02
-6.603974103927612305e-02
-8.554767817258834839e-02
1.133497133851051331e-01
-6.209566071629524231e-02
-2.436596341431140900e-02
5.291290208697319031e-02
3.236179426312446594e-02
-8.679911494255065918e-02
7.776486128568649292e-02
3.328006342053413391e-02
5.416202545166015625e-02
-6.461448967456817627e-02
1.205430477857589722e-01
5.385883897542953491e-02
1.127749904990196228e-01
8.391490578651428223e-02
1.001880690455436707e-01
-6.178554892539978027e-02
-8.204611390829086304e-02
-7.469137012958526611e-02
2.621447853744029999e-02
-8.616061508655548096e-02
-7.496070861816406250e-02
-1.098026633262634277e-01
3.872317075729370117e-02
-5.334255471825599670e-02
1.688671298325061798e-02
7.392771542072296143e-02
2.383351139724254608e-02
-7.067582011222839355e-02
-1.209845989942550659e-01
5.656635854393243790e-03
1.231868118047714233e-01
7.354917936027050018e-03
3.579668328166007996e-02
-5.780972167849540710e-02
-1.348690222948789597e-02
-3.076146915555000305e-02
-6.808990240097045898e-02
1.312009710818529129e-02
5.782550200819969177e-02
-4.999021068215370178e-03
7.081229239702224731e-02
-1.189178898930549622e-01
-1.240264326333999634e-01
1.011448055505752563e-01
7.569622248411178589e-02
2.875350415706634521e-02
-1.365715637803077698e-02
2.519790455698966980e-02
-7.489062845706939697e-02
-1.141079291701316833e-01
-3.992867842316627502e-02
