-2.738373167812824249e-02
1.229901835322380066e-01
5.379277467727661133e-02
1.324028223752975464e-01
-1.047153025865554810e-01
-1.372812688350677490e-01
-1.477181464433670044e-01
6.704957783222198486e-02
-1.609510183334350586e-01
4.683547094464302063e-02
-4.042844474315643311e-02
-3.969660773873329163e-02
-8.992455154657363892e-02
2.543268911540508270e-02
-1.549147963523864746e-01
6.278639286756515503e-02
-5.941401794552803040e-02
-1.236876994371414185e-01
-1.554779428988695145e-02
-1.484586596488952637e-01
9.856913238763809204e-02
7.820354774594306946e-03
6.546243280172348022e-02
1.118172779679298401e-01
-7.414849847555160522e-02
-1.043708324432373047e-01
-1.480379998683929443e-01
4.397542402148246765e-02
3.823890164494514465e-02
8.022109419107437134e-02
4.798760637640953064e-02
-4.448903724551200867e-02
1.124209836125373840e-01
4.393477737903594971e-02
-1.901549398899078369e-01
9.694983251392841339e-03
-9.401009976863861084e-02
5.766499042510986328e-02
-3.611037880182266235e-02
-1.715014427900314331e-01
3.607454523444175720e-02
-6.472611427307128906e-02
-7.179124653339385986e-02
1.220823302865028381e-01
2.280717901885509491e-02
1.462778728455305099e-02
2.225584723055362701e-02
3.461622446775436401e-02
-1.821238845586776733e-01
1.478402763605117798e-01
-7.459773868322372437e-02
-5.465922504663467407e-02
-4.852302744984626770e-02
4.837497323751449585e-02
8.166125416755676270e-02
-5.290827900171279907e-02
-5.085751041769981384e-02
-1.005060002207756042e-01
1.286925096064805984e-02
6.978846341371536255e-02
2.478300407528877258e-02
8.238789439201354980e-02
-3.850950300693511963e-02
4.486472159624099731e-02
3.559539467096328735e-02
-4.961575195193290710e-02
-6.457988172769546509e-02
-3.823463246226310730e-02
1.328899413347244263e-01
1.282331198453903198e-01
-1.929481774568557739e-01
6.514251977205276489e-02
1.310400962829589844e-01
-4.792611300945281982e-02
1.736377030611038208e-01
4.751824960112571716e-02
-1.342399138957262039e-02
6.095059216022491455e-02
-3.023798950016498566e-02
1.323429029434919357e-02
-1.197704207152128220e-02
5.225168075412511826e-03
-4.217528179287910461e-02
-1.046026647090911865e-01
3.361626295372843742e-03
1.316016465425491333e-01
1.176894977688789368e-01
1.327419579029083252e-01
-3.197726234793663025e-02
7.313397526741027832e-02
-2.912837639451026917e-02
1.448391526937484741e-01
-6.232350692152976990e-02
6.109189614653587341e-02
-2.590632811188697815e-02
-2.191602438688278198e-02
-3.682219982147216797e-02
7.957525551319122314e-02
-1.300339400768280029e-01
1.673306897282600403e-02
4.106415808200836182e-02
-6.240736320614814758e-02
-9.898145496845245361e-02
-1.358021795749664307e-01
7.810248527675867081e-03
-8.352455496788024902e-02
-2.512218896299600601e-03
6.815936416387557983e-02
-5.619018524885177612e-02
2.873924188315868378e-02
7.364998012781143188e-02
9.557866491377353668e-03
-9.910915046930313110e-02
1.552666425704956055e-01
-1.602850854396820068e-02
4.603832215070724487e-02
2.471520751714706421e-02
1.411563009023666382e-01
-1.496887505054473877e-01
-4.521914944052696228e-02
-6.281870603561401367e-02
1.693952977657318115e-01
1.499056629836559296e-02
1.624419987201690674e-01
2.364735305309295654e-02
9.279373288154602051e-02
-1.209952831268310547e-01
-2.160941809415817261e-01
-1.086877733469009399e-01
1.155600999481976032e-03
-6.550992280244827271e-02
4.867330193519592285e-02
3.544771671295166016e-02
-6.228371337056159973e-02
-4.505101591348648071e-02
1.698119193315505981e-01
-4.212433099746704102e-02
3.247399628162384033e-02
7.437703199684619904e-03
3.598411008715629578e-02
-1.221610233187675476e-01
-1.478787958621978760e-01
1.637950241565704346e-01
-1.101613938808441162e-01
-3.112877160310745239e-02
-6.793190538883209229e-02
-2.325736917555332184e-02
7.587910443544387817e-02
-1.555930376052856445e-01
5.913529172539710999e-02
-8.925689011812210083e-02
-5.118915811181068420e-02
1.161197870969772339e-01
-1.200970560312271118e-01
-8.080536872148513794e-02
1.360414456576108932e-02
-1.157927662134170532e-01
-8.396206796169281006e-02
-3.631915524601936340e-02
-5.063038691878318787e-02
8.341243863105773926e-02
-1.070924196392297745e-02
1.628625541925430298e-01
5.284630507230758667e-02
8.180376142263412476e-02
-2.226367779076099396e-02
-1.140167936682701111e-01
-7.084767520427703857e-02
-5.894846469163894653e-02
1.960380747914314270e-02
-1.515358313918113708e-02
-2.042458802461624146e-01
-3.766478225588798523e-02
-4.305236041545867920e-02
-1.676225960254669189e-01
-2.807828970253467560e-02
-1.737061329185962677e-02
-5.847859382629394531e-02
1.156799867749214172e-01
-5.060048401355743408e-02
-2.182003855705261230e-02
-1.885982602834701538e-02
-1.054472476243972778e-01
-6.325943768024444580e-02
-1.815005242824554443e-01
-1.695439368486404419e-01
-4.808508232235908508e-02
-2.104188129305839539e-02
-4.650985449552536011e-02
-5.063497647643089294e-02
7.622615993022918701e-02
5.611130967736244202e-02
1.517330557107925415e-01
1.126169785857200623e-01
1.473455107770860195e-03
8.674430102109909058e-02
1.336628012359142303e-02
1.309007257223129272e-01
4.816756770014762878e-02
-5.083951726555824280e-02
1.249819435179233551e-02
1.021032482385635376e-01
7.103697210550308228e-02
7.776309549808502197e-02
1.955809770151972771e-03
-6.271868012845516205e-03
-1.182728186249732971e-01
-6.928942352533340454e-02
-1.652081264182925224e-03
-1.076856330037117004e-01
1.729905158281326294e-01
-9.162804484367370605e-02
1.473298221826553345e-01
2.267956733703613281e-02
4.099983721971511841e-02
-5.686709657311439514e-02
-2.129243016242980957e-01
8.739054203033447266e-02
6.819228082895278931e-02
1.721123754978179932e-01
-4.339305683970451355e-02
-2.984413877129554749e-02
5.041091144084930420e-02
1.162715181708335876e-01
-3.599971160292625427e-02
9.626801311969757080e-02
-1.868992000818252563e-01
-3.586601465940475464e-02
-1.590497642755508423e-01
4.369873553514480591e-02
1.534601449966430664e-01
6.299112737178802490e-02
1.225201785564422607e-01
1.430376470088958740e-01
4.250454530119895935e-02
6.706256419420242310e-02
-9.491329640150070190e-02
8.777336776256561279e-02
-3.710933774709701538e-02
1.042892262339591980e-01
-3.969433531165122986e-02
4.700142145156860352e-02
3.871259093284606934e-02
-1.066635102033615112e-01
-9.004584699869155884e-02
1.145476028323173523e-01
-3.790892660617828369e-02
-1.206111013889312744e-01
3.488099575042724609e-02
3.221602737903594971e-02
1.327482461929321289e-01
-3.583151847124099731e-02
1.032797023653984070e-01
3.673148155212402344e-02
1.058809459209442139e-01
1.154305860400199890e-01
-7.707335054874420166e-02
1.043723896145820618e-01
-6.890582293272018433e-02
-1.016365736722946167e-01
1.055164448916912079e-02
-2.435580827295780182e-02
1.265613585710525513e-01
-1.308127790689468384e-01
-9.803082793951034546e-02
-3.346588462591171265e-02
-1.358143538236618042e-01
-1.266838461160659790e-01
-1.316210925579071045e-01
4.050507768988609314e-02
7.031214237213134766e-02
1.582560478709638119e-03
4.942364990711212158e-03
1.737639866769313812e-02
3.744530677795410156e-02
2.419323194772005081e-03
-1.354251652956008911e-01
3.357436135411262512e-02
-7.107425015419721603e-03
-1.101143807172775269e-01
4.562707245349884033e-02
1.383406016975641251e-02
1.411010026931762695e-01
-3.835383430123329163e-02
1.845110394060611725e-02
-6.860241293907165527e-02
-7.971698790788650513e-02
4.316622391343116760e-02
-2.670637518167495728e-02
-9.112902916967868805e-04
6.075115129351615906e-02
-1.984854228794574738e-02
-1.313343942165374756e-01
1.558725386857986450e-01
-8.861780911684036255e-02
2.645708248019218445e-02
-2.057761326432228088e-02
3.603589162230491638e-02
-3.801110014319419861e-02
-9.315763413906097412e-02
-1.254478842020034790e-01
-1.381258368492126465e-01
1.293214224278926849e-02
1.297023426741361618e-02
-3.850843012332916260e-02
2.231814898550510406e-02
1.224471256136894226e-02
3.365640342235565186e-02
-5.465697031468153000e-03
-1.025540605187416077e-01
-9.514155238866806030e-02
-4.593227431178092957e-02
-4.579372704029083252e-02
3.272338584065437317e-02
4.666159674525260925e-02
-3.227722644805908203e-02
5.293956398963928223e-02
-1.059508845210075378e-01
-5.103606358170509338e-02
1.356940567493438721e-01
-9.722953662276268005e-03
-9.030395746231079102e-02
6.849034875631332397e-02
2.064783591777086258e-03
-2.851557135581970215e-01
-2.228455245494842529e-01
-1.423280127346515656e-02
-5.635654926300048828e-02
-1.092891246080398560e-01
4.330498352646827698e-02
-1.178845297545194626e-02
-4.056852683424949646e-02
-9.800812602043151855e-02
-2.532444298267364502e-01
-3.607273567467927933e-03
-1.617221832275390625e-01
-1.265616565942764282e-01
-5.956401675939559937e-02
9.485475718975067139e-02
6.417261064052581787e-02
3.269161656498908997e-02
1.802478916943073273e-02
7.021794468164443970e-02
-1.741527616977691650e-01
-7.993882894515991211e-02
-9.715968370437622070e-02
1.713569313287734985e-01
3.984954208135604858e-02
8.533688634634017944e-02
-1.218406260013580322e-01
1.584345549345016479e-01
1.303475350141525269e-02
5.343153141438961029e-03
-1.995804905891418457e-01
2.785175666213035583e-02
6.910424679517745972e-02
-2.875845506787300110e-02
1.685050576925277710e-01
1.136486008763313293e-01
1.705048233270645142e-01
1.662492305040359497e-01
7.143652439117431641e-02
-5.464972928166389465e-03
8.713603019714355469e-02
-1.705844998359680176e-01
-8.699453435838222504e-03
4.355512559413909912e-02
4.057682678103446960e-02
-1.517761200666427612e-01
5.130577459931373596e-02
7.789249718189239502e-02
2.287618219852447510e-01
4.268087446689605713e-02
9.521453827619552612e-02
-3.397417441010475159e-02
5.611206591129302979e-02
8.794239908456802368e-02
-1.382004022598266602e-01
-2.117489837110042572e-02
-6.410185247659683228e-03
-7.842997461557388306e-02
9.902298450469970703e-02
1.237154528498649597e-01
8.780504576861858368e-03
1.852050237357616425e-02
-1.435567736625671387e-01
8.757371455430984497e-02
-1.692409217357635498e-01
5.480377003550529480e-02
2.084731869399547577e-02
-6.453355401754379272e-02
1.128229722380638123e-01
-1.745578646659851074e-01
-9.667129069566726685e-02
-2.846086863428354263e-03
-1.632699072360992432e-01
7.488432526588439941e-02
-9.329239279031753540e-02
-7.180380076169967651e-02
6.243934854865074158e-02
-3.330635651946067810e-02
2.072816528379917145e-02
3.834809735417366028e-02
-4.985442850738763809e-03
9.500245004892349243e-02
-9.144524484872817993e-02
1.977210491895675659e-02
6.582519412040710449e-02
8.354885131120681763e-02
-8.156243711709976196e-02
6.020043790340423584e-02
3.767740353941917419e-02
-8.809325098991394043e-02
3.794058039784431458e-02
1.685169152915477753e-02
-1.246586591005325317e-01
8.324305713176727295e-02
2.783144079148769379e-02
-8.260182105004787445e-03
-1.827073097229003906e-01
-6.198110058903694153e-03
-1.565569341182708740e-01
-4.594448581337928772e-02
-2.799350954592227936e-02
-1.020359154790639877e-02
1.620543003082275391e-02
4.070061445236206055e-02
5.056318640708923340e-02
8.233633637428283691e-02
1.271581742912530899e-02
5.349376238882541656e-03
-1.789085566997528076e-01
1.978655345737934113e-02
-1.122487336397171021e-02
-1.875179857015609741e-01
-1.445474326610565186e-01
-1.230538636445999146e-01
-1.019612848758697510e-01
4.883174970746040344e-02
4.832107573747634888e-02
-1.095828264951705933e-01
-1.660659164190292358e-01
-1.096474472433328629e-02
4.022493213415145874e-02
1.137695312500000000e-01
6.823064386844635010e-02
-8.933083713054656982e-02
4.575069528073072433e-03
-5.367519333958625793e-02
-1.000688374042510986e-01
-5.949176475405693054e-02
3.941265866160392761e-02
9.520556777715682983e-02
-4.278539121150970459e-02
3.380381315946578979e-02
-2.800527028739452362e-02
8.846811018884181976e-03
-5.627716332674026489e-02
-1.195675432682037354e-01
-3.797708451747894287e-02
-4.116981476545333862e-02
9.077350050210952759e-02
4.185971990227699280e-02
4.738112539052963257e-02
5.340555682778358459e-02
-1.050502806901931763e-01
-1.373165845870971680e-01
-8.516778796911239624e-02
-5.373571440577507019e-02
2.151971682906150818e-02
-7.661349326372146606e-02
1.646830588579177856e-01
1.353426873683929443e-01
4.105755686759948730e-02
-4.534409195184707642e-02
-1.655956804752349854e-01
1.890080608427524567e-02
-2.891209907829761505e-02
-5.396165698766708374e-02
1.891268789768218994e-02
-5.086694844067096710e-03
1.601861268281936646e-01
1.567478030920028687e-01
-1.294028460979461670e-01
1.747104227542877197e-01
4.789383336901664734e-02
-8.601163863204419613e-04
-1.773241460323333740e-01
-2.807520329952239990e-03
-1.574217528104782104e-01
-5.460420250892639160e-02
5.052204057574272156e-02
-1.751044578850269318e-02
3.455729037523269653e-02
-5.374629050493240356e-02
9.848294407129287720e-02
1.378629058599472046e-01
-6.656862050294876099e-02
1.928612822666764259e-03
1.160193160176277161e-01
3.763727098703384399e-02
-1.791726201772689819e-01
-1.333547979593276978e-01
-2.594346366822719574e-02
-2.925147712230682373e-01
1.445233821868896484e-01
-8.285463601350784302e-02
8.610884100198745728e-02
-1.439510751515626907e-02
-8.798909932374954224e-02
-2.584803476929664612e-02
-5.775989592075347900e-02
1.377124339342117310e-01
4.011335596442222595e-02
-5.643569305539131165e-02
-8.582682907581329346e-02
5.356337130069732666e-02
-2.427591755986213684e-02
-1.340440809726715088e-01
-7.425709068775177002e-02
5.100328847765922546e-02
-2.906823158264160156e-02
1.056404411792755127e-01
4.502108320593833923e-02
1.354034245014190674e-01
-1.392511557787656784e-02
-1.829183399677276611e-01
1.200572401285171509e-01
-5.880293995141983032e-02
5.648114904761314392e-02
1.030011102557182312e-01
-1.227376982569694519e-01
1.269149929285049438e-01
-9.004943072795867920e-02
6.088530272245407104e-02
4.764458630234003067e-03
5.375608429312705994e-02
6.624883413314819336e-02
-5.448011308908462524e-02
1.335890293121337891e-01
-1.229831501841545105e-01
3.924736008048057556e-02
-1.156683787703514099e-01
-2.148621156811714172e-02
-1.013268232345581055e-01
1.424091905355453491e-01
1.249168999493122101e-03
-1.726334728300571442e-02
3.567413613200187683e-02
-1.483401954174041748e-01
1.359664499759674072e-01
-1.228766068816184998e-01
1.846575993113219738e-03
-1.234964877367019653e-01
-6.138673797249794006e-02
1.162309292703866959e-02
-6.389436125755310059e-02
9.445299394428730011e-03
1.060044541954994202e-01
4.604589566588401794e-02
-1.212502494454383850e-01
1.436226516962051392e-01
1.018952205777168274e-02
8.519980311393737793e-02
-4.005754739046096802e-02
-5.103765800595283508e-02
-1.308996528387069702e-01
-3.631483390927314758e-02
-1.718407571315765381e-01
-7.951859384775161743e-02
2.911182492971420288e-02
-6.806909292936325073e-02
-3.906675800681114197e-02
-3.371067717671394348e-02
-2.106132730841636658e-02
-1.053182333707809448e-01
7.902253419160842896e-02
1.238956823945045471e-01
-1.001312024891376495e-02
1.140488907694816589e-01
-1.326760463416576385e-02
-4.340543970465660095e-02
-9.078846126794815063e-02
2.080009691417217255e-02
-7.616229355335235596e-02
-3.508784249424934387e-02
-9.147430211305618286e-02
8.490806072950363159e-02
1.419021934270858765e-01
8.269988745450973511e-02
-1.680977940559387207e-01
1.494542658329010010e-01
4.975533485412597656e-02
-6.830134242773056030e-02
-4.556325450539588928e-02
5.324599891901016235e-02
9.510453045368194580e-02
-4.922485724091529846e-02
1.323574781417846680e-01
-4.673312231898307800e-02
-2.215655148029327393e-01
8.929710835218429565e-02
6.378570199012756348e-02
1.938225179910659790e-01
8.847382664680480957e-02
-2.718080021440982819e-02
-3.336995840072631836e-02
1.811734959483146667e-02
9.363575279712677002e-02
9.573213756084442139e-02
-2.730187475681304932e-01
1.158583313226699829e-01
3.269766643643379211e-02
9.761164337396621704e-02
2.356253564357757568e-02
-5.940157547593116760e-02
8.301285654306411743e-02
4.799112305045127869e-02
3.534282743930816650e-02
2.089445739984512329e-01
-1.472489833831787109e-01
9.044969826936721802e-02
1.043730825185775757e-01
1.894841715693473816e-02
-1.807765811681747437e-01
-1.959164440631866455e-02
-6.327754259109497070e-02
6.084496527910232544e-02
6.390664726495742798e-02
-2.950021252036094666e-02
1.197045017033815384e-02
1.401725970208644867e-02
1.600131094455718994e-01
-8.033227175474166870e-02
2.618520287796854973e-03
9.345965087413787842e-02
-5.875081196427345276e-02
4.939609393477439880e-02
1.044518351554870605e-01
1.158988252282142639e-01
-2.079491615295410156e-01
-1.799692660570144653e-01
3.385141119360923767e-02
5.295114219188690186e-02
-1.586867123842239380e-01
4.436081647872924805e-02
-1.022727638483047485e-01
-9.089747816324234009e-02
-1.362504214048385620e-01
1.162412464618682861e-01
-1.698026359081268311e-01
9.562686830759048462e-02
3.055853210389614105e-02
-1.687857881188392639e-02
-1.053688004612922668e-01
-8.493560552597045898e-02
-1.264991611242294312e-01
-6.051567941904067993e-02
-1.814519613981246948e-01
8.365614712238311768e-02
-2.296016961336135864e-01
-2.539335377514362335e-02
-1.516665816307067871e-01
-1.051792055368423462e-01
-6.473526358604431152e-02
1.302312910556793213e-01
-1.452355459332466125e-02
-9.400187432765960693e-02
3.722105175256729126e-02
5.814939737319946289e-03
3.961316868662834167e-02
-2.201361022889614105e-02
7.266669720411300659e-02
-2.454466745257377625e-02
-1.247437819838523865e-01
1.088732406497001648e-01
-3.159191459417343140e-02
-2.980590425431728363e-02
-6.554491072893142700e-02
1.294393688440322876e-01
-8.237753063440322876e-02
-2.349236421287059784e-02
-4.378708451986312866e-02
1.948877982795238495e-02
7.616475969552993774e-02
9.911140799522399902e-02
-8.470600098371505737e-02
-4.367740824818611145e-02
-1.815406829118728638e-01
-1.610034704208374023e-02
-3.939038142561912537e-02
1.013739109039306641e-01
4.351092129945755005e-02
-4.463902115821838379e-02
-7.468464970588684082e-02
-1.099490225315093994e-01
-1.052923500537872314e-01
-1.198161579668521881e-02
-7.249089423567056656e-03
-1.297744810581207275e-01
2.155043929815292358e-02
-1.431725025177001953e-01
1.366139799356460571e-01
1.356682088226079941e-02
9.369636327028274536e-02
7.251635543070733547e-04
-1.450364291667938232e-01
-1.504187099635601044e-02
1.432553231716156006e-01
1.303120106458663940e-01
-1.560305655002593994e-01
1.202470883727073669e-01
5.747902765870094299e-02
-1.195328384637832642e-01
7.262257486581802368e-02
-1.497709751129150391e-02
-7.643242925405502319e-02
7.650084793567657471e-02
3.162175044417381287e-02
-5.278544500470161438e-02
-7.588922977447509766e-02
-3.423083573579788208e-02
-3.542920574545860291e-02
-9.430411458015441895e-02
3.678189590573310852e-02
-3.130283579230308533e-02
-3.985432442277669907e-03
3.960573673248291016e-02
1.517536342144012451e-01
4.702025651931762695e-02
-7.574323564767837524e-02
6.853343546390533447e-02
-7.994985207915306091e-03
-1.730870008468627930e-01
1.965473592281341553e-01
-9.729799628257751465e-02
-1.396684050559997559e-01
-1.803790405392646790e-02
5.132013186812400818e-02
-1.258621066808700562e-01
-3.548880666494369507e-02
-6.697241961956024170e-02
-1.164465397596359253e-01
-1.102223098278045654e-01
-2.546780407428741455e-01
8.014087565243244171e-03
4.761897027492523193e-02
-6.017081812024116516e-02
2.006030455231666565e-02
-3.395890817046165466e-02
1.009967178106307983e-01
-2.920364215970039368e-02
4.648550413548946381e-03
8.380851894617080688e-02
-1.041848361492156982e-01
7.416172325611114502e-02
-1.911444067955017090e-01
-1.379689201712608337e-03
1.616571247577667236e-01
9.742840379476547241e-02
9.613799303770065308e-02
3.266296908259391785e-02
-4.459417983889579773e-02
1.086904406547546387e-01
1.038730219006538391e-01
7.428976148366928101e-02
-9.483486413955688477e-02
-1.150138005614280701e-01
-1.354366093873977661e-01
7.395379245281219482e-02
9.355331212282180786e-02
-1.584024578332901001e-01
1.107761859893798828e-01
-1.052275374531745911e-01
1.085354387760162354e-01
-2.837536856532096863e-02
-1.190678998827934265e-01
8.950501680374145508e-02
-4.235893860459327698e-02
-9.911416471004486084e-02
5.213949829339981079e-02
-6.812491267919540405e-02
6.198783963918685913e-02
-7.250360399484634399e-02
1.455011963844299316e-01
8.838468790054321289e-02
1.177044864743947983e-02
-1.156099438667297363e-01
2.155092172324657440e-02
6.895810365676879883e-02
-9.827325493097305298e-02
-9.124722331762313843e-02
1.518506556749343872e-01
-3.312998637557029724e-02
3.374190255999565125e-02
-6.931377947330474854e-02
2.850069478154182434e-02
9.873560816049575806e-02
-9.690542519092559814e-02
1.036669611930847168e-01
-3.977829217910766602e-02
-2.571182325482368469e-02
3.119398839771747589e-02
5.726228654384613037e-02
-1.951467059552669525e-02
7.619870360940694809e-03
1.252163638127967715e-04
7.716015726327896118e-02
-8.626182377338409424e-02
-9.931067377328872681e-02
-9.155704639852046967e-03
-1.322622448205947876e-01
-5.400619655847549438e-02
-1.224918216466903687e-01
-4.467131569981575012e-02
-4.547055438160896301e-02
1.224581077694892883e-01
-7.513511925935745239e-02
-1.181026324629783630e-01
4.178301990032196045e-02
6.701098755002021790e-03
1.264905743300914764e-02
4.631803557276725769e-02
3.050792589783668518e-02
-2.060192078351974487e-01
-3.564032167196273804e-02
3.722453489899635315e-02
4.259539395570755005e-02
-6.892985105514526367e-02
-2.205093204975128174e-02
-3.365430235862731934e-02
-7.966591417789459229e-02
1.473414748907089233e-01
1.016677245497703552e-01
-1.644366048276424408e-02
3.924171999096870422e-02
-2.518755383789539337e-02
-3.682116791605949402e-02
-1.198808252811431885e-01
8.080380409955978394e-02
-8.832797408103942871e-02
7.755404338240623474e-03
1.437128484249114990e-01
-2.006183750927448273e-02
1.933321356773376465e-01
-4.416603222489356995e-02
7.361907511949539185e-02
-4.545680060982704163e-02
7.999697327613830566e-02
-1.442251354455947876e-01
1.837521558627486229e-03
4.193071648478507996e-02
1.276104450225830078e-01
-1.313122212886810303e-01
-2.008059620857238770e-02
-4.464767128229141235e-02
-1.526805013418197632e-01
-1.938696578145027161e-02
3.226324543356895447e-02
2.011190950870513916e-01
-3.693240508437156677e-02
1.627621799707412720e-01
1.044601872563362122e-01
-8.944347500801086426e-02
1.512836664915084839e-01
-9.922637045383453369e-02
6.452774256467819214e-02
-1.054777130484580994e-01
-2.385101094841957092e-02
-6.022038683295249939e-02
1.177105531096458435e-01
-1.258818060159683228e-01
5.444359034299850464e-02
-1.460049599409103394e-01
6.864035874605178833e-02
8.132765442132949829e-02
-1.498141139745712280e-01
4.267335310578346252e-02
8.878631144762039185e-02
-4.542967677116394043e-02
-1.193331554532051086e-01
5.720831081271171570e-02
2.832728251814842224e-02
-1.514835059642791748e-01
4.976424574851989746e-02
9.378356486558914185e-02
-5.938865244388580322e-02
4.260560125112533569e-02
-5.839948076754808426e-03
-2.478157402947545052e-03
4.423329234123229980e-02
1.235899254679679871e-01
-1.991639472544193268e-02
9.556796401739120483e-03
-7.903745770454406738e-02
-2.234197035431861877e-02
-4.966429248452186584e-02
-6.403591483831405640e-02
4.454547539353370667e-02
1.452994942665100098e-01
2.448783814907073975e-02
1.321791112422943115e-01
4.146506637334823608e-02
-3.195197880268096924e-01
1.215527430176734924e-01
4.379582777619361877e-02
4.135589674115180969e-02
-1.240132600069046021e-01
-1.038557216525077820e-01
-2.382604032754898071e-02
1.234547048807144165e-02
1.319381594657897949e-01
8.680125325918197632e-02
4.174242541193962097e-02
-6.977991759777069092e-02
1.441722661256790161e-01
-6.226570345461368561e-03
6.657207757234573364e-02
-1.034048125147819519e-01
8.787722326815128326e-03
-1.323543787002563477e-01
-4.424140229821205139e-02
5.310061201453208923e-02
-2.365009114146232605e-02
-9.772210568189620972e-02
-1.203581616282463074e-01
-3.150893449783325195e-01
-1.176925003528594971e-02
-8.836743980646133423e-02
5.728596448898315430e-02
-7.783192396163940430e-02
-7.754784822463989258e-02
-2.354348748922348022e-01
-4.134964197874069214e-02
-1.166823208332061768e-01
2.266710065305233002e-02
-3.205240890383720398e-02
-1.421809848397970200e-02
-2.521035447716712952e-02
5.544422194361686707e-02
2.786331064999103546e-02
-1.630288511514663696e-01
-1.342082978226244450e-04
1.389954518526792526e-02
1.828497089445590973e-02
2.071696333587169647e-02
1.390921026468276978e-01
1.498950570821762085e-01
7.364720851182937622e-02
5.171919986605644226e-02
-1.055569201707839966e-01
-1.521061956882476807e-01
-2.279888466000556946e-02
8.824986964464187622e-02
-3.327174857258796692e-02
-6.320048123598098755e-02
-1.481828987598419189e-01
-2.389832027256488800e-02
1.160262078046798706e-01
9.559304267168045044e-02
1.097144410014152527e-01
1.348369847983121872e-02
-5.011855065822601318e-02
-4.866122081875801086e-02
2.479396946728229523e-02
1.625003218650817871e-01
5.504026636481285095e-02
-3.026729077100753784e-02
5.808060057461261749e-03
-1.123666912317276001e-01
1.212472468614578247e-02
-5.490884557366371155e-02
-1.073871031403541565e-01
7.249287515878677368e-02
2.886073663830757141e-02
9.840705245733261108e-02
4.728089645504951477e-02
1.867504864931106567e-01
-2.841897122561931610e-02
-3.718535229563713074e-02
8.016310632228851318e-02
8.116917312145233154e-02
-8.233539015054702759e-02
-6.377044320106506348e-02
-1.150557026267051697e-01
1.083281487226486206e-01
-5.221910774707794189e-02
-2.789925225079059601e-02
-1.959485467523336411e-03
-1.234926879405975342e-01
-2.917108237743377686e-01
-2.043736539781093597e-02
-1.793068051338195801e-01
-2.570037916302680969e-02
1.992198824882507324e-02
-4.014343768358230591e-02
-1.969358175992965698e-01
-7.289847731590270996e-02
-1.442781239748001099e-01
-3.076760284602642059e-02
7.276190072298049927e-02
4.041127860546112061e-02
-1.178932040929794312e-01
2.268920838832855225e-02
3.483795747160911560e-02
-4.638173431158065796e-02
3.405587375164031982e-02
4.047605395317077637e-02
-1.216916143894195557e-01
5.874682590365409851e-02
-5.623297020792961121e-02
-7.583430409431457520e-02
1.351205352693796158e-02
-8.809037506580352783e-03
-1.342938393354415894e-01
7.329828292131423950e-02
-1.458350867033004761e-01
1.144269481301307678e-01
-7.231143862009048462e-02
7.709355652332305908e-02
-1.945059150457382202e-01
-1.369746476411819458e-01
-6.181671097874641418e-02
-9.227311611175537109e-02
-1.608292758464813232e-01
-2.990498207509517670e-02
6.724965292960405350e-03
1.177134513854980469e-01
3.761836793273687363e-03
-1.183358952403068542e-01
-5.037917941808700562e-02
-1.583204567432403564e-01
2.646922506392002106e-02
1.238554622977972031e-02
2.833221666514873505e-02
1.467054635286331177e-01
-4.514224082231521606e-02
-1.436062008142471313e-01
-2.252073734998703003e-01
6.535296887159347534e-02
1.802105084061622620e-02
7.979885488748550415e-02
-3.743230178952217102e-02
-1.411327123641967773e-01
2.319001033902168274e-02
7.710152119398117065e-02
-8.904059976339340210e-02
-1.114366855472326279e-02
-2.064442783594131470e-01
1.453500241041183472e-01
-6.010566372424364090e-03
-5.249408259987831116e-02
1.349266022443771362e-01
-1.106119751930236816e-01
-6.987899541854858398e-02
-3.554121777415275574e-02
-1.005475781857967377e-02
-8.113267272710800171e-02
-1.835090816020965576e-01
-1.567646861076354980e-02
-2.288607358932495117e-01
-1.104607656598091125e-01
-1.695349365472793579e-01
1.259356923401355743e-02
6.655875593423843384e-03
1.112312898039817810e-01
-2.910712361335754395e-02
-1.521155051887035370e-02
-1.171624585986137390e-01
-1.485162787139415741e-02
1.365634053945541382e-01
-2.878772281110286713e-02
-1.509989053010940552e-01
-3.955768793821334839e-02
-9.031520038843154907e-02
-7.408379018306732178e-02
2.937562391161918640e-02
2.655118890106678009e-02
-1.906307637691497803e-01
-1.182445660233497620e-01
-2.356477640569210052e-02
4.944451898336410522e-02
-3.242598101496696472e-02
-1.566202640533447266e-01
-9.325085580348968506e-02
-6.913733482360839844e-02
5.396670848131179810e-02
-1.024067997932434082e-01
1.185139343142509460e-01
-5.208220705389976501e-02
-2.991255745291709900e-02
-9.085477888584136963e-02
-2.466809190809726715e-02
5.469488725066184998e-02
-1.201174184679985046e-01
-6.880682427436113358e-03
6.434334069490432739e-02
-1.665469855070114136e-01
-2.329053729772567749e-02
-1.192192882299423218e-01
-6.728405505418777466e-02
-9.144131094217300415e-02
-1.189047545194625854e-01
-4.182088002562522888e-02
-1.286223828792572021e-01
-1.143440604209899902e-01
7.825125008821487427e-02
-7.040326297283172607e-02
3.347850963473320007e-02
9.345816075801849365e-02
9.880133904516696930e-03
-2.339343167841434479e-02
-9.744203090667724609e-02
-1.679501384496688843e-01
-4.746838659048080444e-02
3.126928582787513733e-02
-7.208862900733947754e-02
9.880425035953521729e-02
-6.930243968963623047e-02
-2.837697230279445648e-02
3.703737631440162659e-02
-9.594521485269069672e-03
6.298282742500305176e-02
-1.539527326822280884e-01
1.108572073280811310e-02
-1.727647334337234497e-01
-7.614953815937042236e-02
-1.562924981117248535e-01
7.676971703767776489e-02
-8.577279746532440186e-02
3.344250097870826721e-02
-7.064263522624969482e-02
-1.090134605765342712e-01
-8.387596346437931061e-03
2.971095219254493713e-02
-3.160731121897697449e-02
-2.891140431165695190e-02
1.102568432688713074e-01
-1.435762196779251099e-01
6.509963888674974442e-03
4.213622584939002991e-02
7.101714611053466797e-02
-2.909274538978934288e-03
1.039172708988189697e-02
-1.603011637926101685e-01
3.464672714471817017e-02
-1.032991241663694382e-02
-1.271847188472747803e-01
6.402962654829025269e-02
2.855582349002361298e-02
-1.582775264978408813e-01
-8.676131814718246460e-02
-9.028889238834381104e-02
4.827583034057170153e-04
7.629854232072830200e-02
-7.015745341777801514e-02
-2.462139427661895752e-01
-1.366025954484939575e-01
3.536710143089294434e-02
-8.347967267036437988e-02
-1.920430362224578857e-01
4.047673195600509644e-02
-1.128653436899185181e-02
-1.274477541446685791e-01
-5.824309960007667542e-02
-2.746276855468750000e-01
-2.551708519458770752e-01
-2.621480226516723633e-01
-3.164147436618804932e-01
5.735598504543304443e-02
4.428763687610626221e-02
4.859201610088348389e-02
5.635353922843933105e-02
-6.202477589249610901e-02
1.938940584659576416e-02
-2.132151573896408081e-01
-1.610778123140335083e-01
-3.106864728033542633e-02
-1.204978395253419876e-02
1.423455178737640381e-01
-9.589022397994995117e-02
-2.042282745242118835e-02
2.367569133639335632e-02
1.303036957979202271e-01
9.071654826402664185e-02
-3.042487502098083496e-01
-4.261226579546928406e-02
-3.044117242097854614e-02
1.509207934141159058e-01
3.091746196150779724e-02
-3.205963969230651855e-02
-5.216610804200172424e-02
-1.848435588181018829e-02
4.359903186559677124e-02
-1.271211504936218262e-01
9.959848225116729736e-02
-2.426356226205825806e-01
-1.500062793493270874e-01
-3.070982731878757477e-02
-2.104689925909042358e-01
-3.711096644401550293e-01
1.531271338462829590e-01
2.077827975153923035e-02
3.967060521245002747e-02
-2.653049863874912262e-02
1.468807011842727661e-01
4.323581606149673462e-02
-7.194132357835769653e-02
6.466901395469903946e-03
-8.917477726936340332e-02
1.292594522237777710e-01
-2.211184650659561157e-01
2.170332474634051323e-03
3.882275894284248352e-02
3.012559376657009125e-03
7.502350956201553345e-02
-2.931534498929977417e-02
4.688867181539535522e-02
7.320310175418853760e-02
-1.544583290815353394e-01
8.977120369672775269e-02
5.210340395569801331e-02
6.460252683609724045e-03
1.945583336055278778e-02
-7.168817520141601562e-02
8.318372070789337158e-02
-1.136723384261131287e-01
8.908033370971679688e-02
1.342567056417465210e-01
-3.689153492450714111e-02
1.313510537147521973e-01
5.155482888221740723e-02
9.761797636747360229e-02
-4.096662998199462891e-02
-7.041513919830322266e-02
1.305432915687561035e-01
-1.162390336394309998e-01
-3.680801019072532654e-02
-2.438838593661785126e-03
-6.630689650774002075e-02
8.882422000169754028e-02
-2.068171836435794830e-02
1.097929999232292175e-01
-5.486761033535003662e-02
-6.935067474842071533e-02
1.827237010002136230e-02
-1.562330988235771656e-03
1.159196868538856506e-01
9.417918510735034943e-03
-4.863784834742546082e-02
1.595694571733474731e-01
1.598922312259674072e-01
-1.098118722438812256e-01
5.680020526051521301e-02
-1.028730198740959167e-01
1.250855326652526855e-01
-3.479108214378356934e-02
-6.950465589761734009e-02
-6.682780385017395020e-02
1.915817707777023315e-02
-9.208735823631286621e-02
-2.492297999560832977e-02
4.390706121921539307e-02
-1.777212768793106079e-01
6.100278720259666443e-02
-1.534515768289566040e-01
2.785949222743511200e-02
4.777371883392333984e-02
9.133600443601608276e-02
1.149302124977111816e-01
-7.838091254234313965e-02
-1.095648109912872314e-01
-1.549552679061889648e-01
-8.804072439670562744e-02
-2.997332438826560974e-02
1.104522217065095901e-02
4.198275133967399597e-02
-4.598670080304145813e-02
1.884019076824188232e-01
1.113366037607192993e-01
-1.236873567104339600e-01
-3.316504508256912231e-02
-1.412457823753356934e-01
1.332710981369018555e-01
-7.634630054235458374e-02
1.227163430303335190e-02
3.041747771203517914e-02
2.456744015216827393e-02
3.299032524228096008e-02
4.138007014989852905e-02
-2.166534215211868286e-02
1.497149616479873657e-01
-5.428250506520271301e-02
-1.666592210531234741e-01
5.413235351443290710e-02
-1.290382742881774902e-01
-3.587071970105171204e-02
7.030206918716430664e-02
-1.465169712901115417e-02
1.678962856531143188e-01
3.101756237447261810e-02
-3.379856701940298080e-03
1.572838239371776581e-02
4.424408450722694397e-02
-1.368496716022491455e-01
-7.810226082801818848e-02
7.232408970594406128e-02
-2.077386975288391113e-01
5.173179507255554199e-02
1.427971720695495605e-01
1.705935411155223846e-02
6.701763719320297241e-02
8.393492549657821655e-03
-1.714016795158386230e-01
-2.007292211055755615e-02
9.964451193809509277e-03
-8.486179262399673462e-02
-5.653897672891616821e-02
1.154339239001274109e-01
-5.560474842786788940e-02
1.437653750181198120e-01
4.754023998975753784e-02
-1.808087155222892761e-02
-1.668358892202377319e-01
6.355305761098861694e-02
-1.128475964069366455e-01
5.176306003704667091e-04
9.277665615081787109e-02
-1.434890329837799072e-01
-9.127616882324218750e-02
4.119670018553733826e-02
3.233003243803977966e-02
-1.000754162669181824e-01
-1.753290444612503052e-01
-1.380694806575775146e-01
7.389836758375167847e-02
-1.205275282263755798e-01
1.293762587010860443e-02
-5.381201207637786865e-02
-1.647713221609592438e-02
2.292915061116218567e-02
-1.283053308725357056e-01
1.247418522834777832e-01
8.779378607869148254e-03
7.694224268198013306e-02
7.442934066057205200e-02
1.485103070735931396e-01
5.270877853035926819e-02
-7.221758365631103516e-02
7.702982425689697266e-02
-1.340634971857070923e-01
-4.044686909765005112e-03
-4.342928156256675720e-02
1.348752155900001526e-02
5.799231305718421936e-02
-2.943207882344722748e-02
5.962093826383352280e-03
1.596148312091827393e-01
-3.548339381814002991e-02
-1.919064298272132874e-02
-1.526125222444534302e-01
8.701520413160324097e-02
1.048520877957344055e-01
-6.273829191923141479e-02
-4.955323785543441772e-02
-1.054920405149459839e-01
6.235381215810775757e-02
9.412527084350585938e-02
-4.432892054319381714e-02
-6.700744479894638062e-02
-1.680158525705337524e-01
1.641214489936828613e-01
-1.259171366691589355e-01
2.531239949166774750e-02
-1.105242297053337097e-01
5.555369891226291656e-03
1.143944635987281799e-01
-6.313814222812652588e-02
-8.926239609718322754e-02
-3.178085759282112122e-02
-3.564950078725814819e-02
-9.734056890010833740e-02
-3.241419047117233276e-02
-8.846376091241836548e-03
4.416314139962196350e-02
-1.240209266543388367e-01
1.139284390956163406e-02
-4.157313331961631775e-02
-9.293189644813537598e-02
-1.269323751330375671e-02
-5.600319430232048035e-02
5.555615574121475220e-02
3.195441886782646179e-02
-8.370036259293556213e-03
-1.104943826794624329e-02
-1.680843979120254517e-01
-5.784228444099426270e-02
1.103975549340248108e-01
-1.916881836950778961e-02
-1.188197657465934753e-01
4.146067798137664795e-02
9.405904263257980347e-02
2.326209843158721924e-02
-7.912479341030120850e-02
-1.221184507012367249e-01
3.668949007987976074e-02
-1.953553855419158936e-01
-9.107425063848495483e-02
4.586183000355958939e-03
-6.378777325153350830e-02
1.667878478765487671e-01
-8.647502399981021881e-03
2.087884396314620972e-02
9.226077795028686523e-02
8.515501022338867188e-02
-1.314957290887832642e-01
6.318505108356475830e-02
1.157347345724701881e-03
2.709061652421951294e-02
-6.100957840681076050e-02
-9.697308391332626343e-02
7.124047726392745972e-02
-2.289943099021911621e-01
4.897475242614746094e-02
-8.358247578144073486e-02
-2.807924896478652954e-02
8.598963916301727295e-02
1.070463433861732483e-01
9.238955378532409668e-02
7.301557809114456177e-02
1.256853640079498291e-01
-4.456817731261253357e-02
-1.830021739006042480e-01
7.821656763553619385e-03
-6.391823291778564453e-02
1.340690255165100098e-01
3.338354825973510742e-02
1.200306881219148636e-02
3.215261921286582947e-02
-1.559301018714904785e-01
2.656737342476844788e-02
4.592647030949592590e-02
-1.900397054851055145e-02
-9.459993802011013031e-03
-1.612873822450637817e-01
1.269680559635162354e-01
3.119191341102123260e-02
-7.326456904411315918e-02
-1.072812378406524658e-01
-4.788245260715484619e-02
7.792832702398300171e-02
6.205129250884056091e-02
3.130198642611503601e-02
1.585051976144313812e-02
6.333097070455551147e-02
7.322857528924942017e-02
-4.622367769479751587e-02
-2.947101555764675140e-02
1.270427405834197998e-01
2.731455676257610321e-02
1.078878715634346008e-02
1.183740273118019104e-01
3.771035000681877136e-02
-1.347292400896549225e-02
1.782974153757095337e-01
1.428006589412689209e-01
2.580771222710609436e-02
1.253142803907394409e-01
4.515254124999046326e-02
1.481366455554962158e-01
-8.210337162017822266e-02
-4.025905579328536987e-02
-6.019882485270500183e-02
1.167428791522979736e-01
-5.371457338333129883e-02
3.280641883611679077e-02
-2.095936052501201630e-02
-3.765687346458435059e-02
-1.492318660020828247e-01
1.303480193018913269e-02
-1.655449867248535156e-01
6.323210895061492920e-02
-8.307283371686935425e-02
-1.508012413978576660e-01
-1.567199639976024628e-02
-9.920892119407653809e-02
-1.203828528523445129e-01
-3.755716534215025604e-05
-1.834032535552978516e-01
1.167539358139038086e-01
-3.453968092799186707e-02
-1.501544117927551270e-01
6.348334997892379761e-02
9.835790097713470459e-02
9.590791165828704834e-02
-5.647765100002288818e-02
-1.974655836820602417e-01
3.416602732613682747e-03
-3.030326031148433685e-02
-4.026471078395843506e-02
-7.299458980560302734e-02
7.825572043657302856e-02
-1.124297082424163818e-02
-1.459002941846847534e-01
-1.131909713149070740e-01
1.426060684025287628e-02
-7.639726251363754272e-02
3.758768364787101746e-02
1.537612266838550568e-02
-5.300184339284896851e-02
1.320727765560150146e-01
-8.022049069404602051e-02
-1.524851024150848389e-01
-6.792986392974853516e-02
-9.862376749515533447e-02
1.145310997962951660e-01
1.482953876256942749e-01
9.974651783704757690e-02
-4.713053256273269653e-02
3.547831252217292786e-02
-2.609872259199619293e-02
-7.047425955533981323e-02
-1.865713894367218018e-01
-2.440342307090759277e-02
-8.988127857446670532e-02
5.758319795131683350e-02
-1.800328791141510010e-01
-2.197537571191787720e-02
-9.478744119405746460e-02
-4.546932876110076904e-02
5.747416615486145020e-02
6.827392429113388062e-02
7.792206853628158569e-02
-3.799690306186676025e-02
-7.445408403873443604e-02
-8.646766096353530884e-02
-6.962774693965911865e-02
2.024373738095164299e-03
1.128842607140541077e-01
-1.335974186658859253e-01
-7.619086652994155884e-02
9.698113799095153809e-02
-1.297297626733779907e-01
-3.195355238858610392e-04
9.086409211158752441e-02
-2.573312632739543915e-02
-1.389357447624206543e-01
-7.321522384881973267e-02
-5.520721897482872009e-03
3.063085861504077911e-02
4.712069034576416016e-02
-1.108150258660316467e-01
1.967878043651580811e-01
-6.070246919989585876e-02
-1.277893632650375366e-01
-1.172294989228248596e-01
-1.223094910383224487e-01
-1.495779771357774734e-02
-4.865180701017379761e-02
-8.468278497457504272e-02
2.126903682947158813e-01
4.017220437526702881e-02
-1.432344317436218262e-02
-6.393006443977355957e-02
-1.576574146747589111e-01
-5.307834967970848083e-02
-4.975909739732742310e-02
7.365754246711730957e-02
-1.341302543878555298e-01
4.863949120044708252e-02
9.291070699691772461e-02
4.197109118103981018e-02
1.324356049299240112e-01
-1.452798489481210709e-02
-4.582397639751434326e-02
1.182932853698730469e-01
-4.360573366284370422e-03
-2.677947282791137695e-02
-9.273865073919296265e-02
9.831502288579940796e-02
3.200657665729522705e-02
-9.423542767763137817e-02
-4.207997769117355347e-02
-4.378954693675041199e-02
1.647814363241195679e-01
-1.623822301626205444e-01
2.081085741519927979e-02
1.483327597379684448e-01
-3.496226668357849121e-02
-4.263875260949134827e-02
7.254459429532289505e-03
4.264122620224952698e-02
-2.751108631491661072e-02
6.895731389522552490e-02
-2.928783744573593140e-02
-3.256516531109809875e-02
3.899025497958064079e-03
9.485718607902526855e-02
1.541527658700942993e-01
-5.847230926156044006e-02
-9.398920834064483643e-02
-1.316674947738647461e-01
1.453003939241170883e-02
-1.015554219484329224e-01
2.133317664265632629e-02
-1.162588596343994141e-01
-8.303605020046234131e-03
-6.827779859304428101e-02
-8.123046904802322388e-02
8.520215004682540894e-02
-1.303878575563430786e-01
-1.585235297679901123e-01
2.626064233481884003e-02
2.227286994457244873e-02
-2.983462996780872345e-02
1.494370773434638977e-02
-1.067359000444412231e-01
6.010834127664566040e-03
-1.289475411176681519e-01
-1.720755398273468018e-01
-1.343991234898567200e-02
-1.050017699599266052e-01
-1.359315812587738037e-01
-1.771592795848846436e-01
6.128519773483276367e-02
5.656181648373603821e-02
-7.066891342401504517e-02
-1.345932111144065857e-02
-8.877933025360107422e-02
-1.118176206946372986e-01
2.755731530487537384e-02
1.000488400459289551e-01
-1.199277266860008240e-01
-3.021148219704627991e-02
1.267456710338592529e-01
-6.151710450649261475e-02
-8.558870106935501099e-02
-1.606723219156265259e-01
-4.881471768021583557e-02
-1.284413784742355347e-01
-3.671941533684730530e-02
-1.285634040832519531e-01
2.345014363527297974e-02
-7.218726724386215210e-02
-7.358737289905548096e-02
-4.296756163239479065e-02
-5.239469185471534729e-02
-3.145774826407432556e-02
1.349223405122756958e-02
3.282198309898376465e-02
-7.838189601898193359e-02
-1.530893146991729736e-02
-1.606776937842369080e-02
-1.289351433515548706e-01
-1.289207935333251953e-01
1.471680402755737305e-01
-1.952934712171554565e-01
-4.225467145442962646e-02
-8.187942206859588623e-02
-5.881640315055847168e-02
1.061113700270652771e-01
6.122463196516036987e-02
-1.155940741300582886e-01
-1.145439445972442627e-01
-1.534000225365161896e-02
-4.215104132890701294e-02
9.374809265136718750e-02
1.036050841212272644e-01
-1.779716834425926208e-02
1.306160092353820801e-01
-1.539293378591537476e-01
4.822752252221107483e-02
1.118646264076232910e-01
-1.434236317873001099e-01
8.893065154552459717e-02
-1.737070232629776001e-01
-9.748203307390213013e-02
-9.580363333225250244e-02
1.493788510560989380e-01
-7.673587650060653687e-02
8.657019585371017456e-02
-1.161656063050031662e-02
1.461363136768341064e-01
-1.352379471063613892e-01
-7.396694272756576538e-02
1.744367182254791260e-03
7.295450568199157715e-02
-8.326768130064010620e-02
-4.609032347798347473e-02
3.093491680920124054e-02
-1.156089603900909424e-01
4.813078325241804123e-03
-9.936674684286117554e-02
-1.449393760412931442e-02
1.488047242164611816e-01
-1.219001412391662598e-01
1.873466745018959045e-02
-2.446201629936695099e-02
4.681251011788845062e-03
-1.310765445232391357e-01
-8.219257928431034088e-03
-9.115186333656311035e-02
-1.791361346840858459e-02
-2.362223267555236816e-01
-1.803255826234817505e-01
1.042956486344337463e-02
1.967495381832122803e-01
-6.503497064113616943e-02
3.429470583796501160e-02
-3.078513080254197121e-03
4.435551539063453674e-02
9.043312631547451019e-03
-6.659481674432754517e-02
-8.016270399093627930e-02
-3.409139579162001610e-03
2.276920154690742493e-02
-1.942381411790847778e-01
1.167736798524856567e-01
5.014250800013542175e-02
1.245952676981687546e-02
5.342104285955429077e-02
1.024502217769622803e-01
6.629417766816914082e-04
-6.127890199422836304e-02
-8.545266836881637573e-02
-2.842433564364910126e-02
-1.771683096885681152e-01
-3.948109224438667297e-02
-1.018936485052108765e-01
6.364933401346206665e-02
-3.385517373681068420e-02
-2.890550903975963593e-02
8.097203820943832397e-02
3.285234794020652771e-02
-3.359978646039962769e-02
2.463290095329284668e-02
1.155084520578384399e-01
1.281908154487609863e-01
-8.528973162174224854e-02
1.154494062066078186e-01
9.050992131233215332e-02
-5.681256949901580811e-02
1.874953880906105042e-02
-1.652603968977928162e-02
6.029451265931129456e-03
2.904729358851909637e-02
2.669800631701946259e-02
2.089249528944492340e-02
7.549058645963668823e-02
1.027015596628189087e-01
2.948505803942680359e-02
6.269657611846923828e-02
-1.127895563840866089e-01
1.357101351022720337e-01
-2.545315027236938477e-02
-1.231859903782606125e-02
5.924519523978233337e-02
9.902262687683105469e-02
-1.500221788883209229e-01
-9.317708015441894531e-02
8.933344483375549316e-02
1.128378212451934814e-01
-3.214951977133750916e-02
-8.669163286685943604e-02
3.160836920142173767e-02
-5.833302810788154602e-02
-1.351801007986068726e-01
-6.024489179253578186e-02
-1.023893803358078003e-01
-2.334858477115631104e-02
-1.566595733165740967e-01
5.258433893322944641e-02
8.277381956577301025e-02
3.848356753587722778e-02
8.224999904632568359e-02
9.229023754596710205e-02
-1.144583001732826233e-01
-6.157492846250534058e-02
-8.988127112388610840e-02
-1.275711040943861008e-02
-1.788987405598163605e-02
8.125101774930953979e-02
-1.721588522195816040e-01
6.587145477533340454e-02
-5.142431333661079407e-02
-8.156612515449523926e-03
-1.143218949437141418e-01
1.514832079410552979e-01
8.540686219930648804e-02
-1.523245722055435181e-01
-1.789562106132507324e-01
-1.073951050639152527e-01
-1.483007520437240601e-01
-2.404310554265975952e-02
-4.413405433297157288e-02
5.305769294500350952e-02
1.006974466145038605e-02
-1.982763409614562988e-01
3.688591299578547478e-03
-7.971009612083435059e-02
-1.869225343398284167e-05
-7.723234593868255615e-02
-6.786835938692092896e-02
1.460600197315216064e-01
-1.043894514441490173e-01
-1.166537106037139893e-01
-1.890612095594406128e-01
-1.737138777971267700e-01
-1.074634939432144165e-01
3.701391071081161499e-02
-4.912713915109634399e-02
1.372150778770446777e-01
-1.794252991676330566e-01
-5.513022467494010925e-02
-8.613827079534530640e-02
-1.239047497510910034e-01
-4.169326648116111755e-02
9.818198159337043762e-03
4.538153856992721558e-02
3.296197950839996338e-02
2.954835817217826843e-02
2.392317727208137512e-02
-1.943277120590209961e-01
2.154459990561008453e-02
-9.945017099380493164e-02
3.140736743807792664e-02
-1.432975381612777710e-01
9.469510614871978760e-02
-1.930092647671699524e-02
-6.352256238460540771e-02
1.685889810323715210e-02
6.768506020307540894e-02
-6.446101516485214233e-02
7.609084248542785645e-02
6.053287163376808167e-02
-1.733211278915405273e-01
3.429191559553146362e-02
-1.357782483100891113e-01
1.009790971875190735e-01
-6.455010920763015747e-02
-8.381199836730957031e-02
-1.119266599416732788e-01
7.711239624768495560e-03
8.949312567710876465e-02
-6.309006363153457642e-02
4.802856221795082092e-02
-2.050910890102386475e-01
-2.367068082094192505e-02
-1.587991788983345032e-02
-3.388859331607818604e-02
8.345679379999637604e-03
1.650858111679553986e-02
-8.843035995960235596e-02
-1.221304312348365784e-01
-7.974492013454437256e-02
1.046825796365737915e-01
-7.856981828808784485e-03
-1.437969598919153214e-02
3.631810471415519714e-02
1.043772175908088684e-01
-2.263829261064529419e-01
-8.522088080644607544e-02
4.388319700956344604e-02
1.981044001877307892e-02
2.518572472035884857e-02
-1.564276069402694702e-01
2.441352419555187225e-02
1.631080359220504761e-01
-7.776403427124023438e-02
-5.533922463655471802e-02
-9.189976751804351807e-02
-1.070947200059890747e-01
2.613643743097782135e-02
1.400431897491216660e-02
6.429892033338546753e-02
1.279183775186538696e-01
-1.806618273258209229e-01
-1.956350803375244141e-01
-3.402509167790412903e-02
-9.215939044952392578e-02
2.821567654609680176e-02
5.030196532607078552e-02
2.370079047977924347e-02
-1.577060669660568237e-01
-8.017069101333618164e-02
-4.827483370900154114e-02
-4.026310145854949951e-02
6.623155623674392700e-02
-8.571549504995346069e-02
-1.319921165704727173e-01
1.390759646892547607e-01
2.224156260490417480e-01
7.347756624221801758e-02
2.162749618291854858e-01
-1.606927439570426941e-02
1.695998460054397583e-01
1.122395396232604980e-01
5.855960026383399963e-02
-1.059033423662185669e-01
-3.600399941205978394e-02
-1.142557561397552490e-01
-6.902471929788589478e-02
-2.495045075193047523e-03
-1.001694127917289734e-01
1.088045313954353333e-01
-8.092568814754486084e-02
1.335107833147048950e-01
7.542406674474477768e-03
9.720528125762939453e-02
-1.194467693567276001e-01
1.203764453530311584e-01
1.352046243846416473e-02
2.258004806935787201e-02
-2.379626221954822540e-02
-6.685680896043777466e-02
-2.709812298417091370e-02
6.689777970314025879e-02
5.685213208198547363e-02
1.185646355152130127e-01
-2.745206654071807861e-02
2.252609282732009888e-02
1.164751313626766205e-02
7.248265296220779419e-02
-1.836926192045211792e-01
-7.910735905170440674e-02
-9.908490628004074097e-02
-8.052803575992584229e-02
9.960269182920455933e-02
-1.516185998916625977e-01
-1.671565175056457520e-01
4.654944315552711487e-02
-1.304064393043518066e-01
1.061818599700927734e-01
-4.853418469429016113e-02
-2.813301282003521919e-03
-3.130412474274635315e-02
-1.790693216025829315e-02
-1.315514445304870605e-01
-1.755121909081935883e-02
3.224624320864677429e-02
-3.648434579372406006e-02
-1.986197009682655334e-02
-5.727953091263771057e-02
-3.413843363523483276e-02
7.299959659576416016e-02
-1.190659478306770325e-01
2.619453147053718567e-02
-1.275418698787689209e-01
4.546237178146839142e-03
3.405686467885971069e-02
-9.803151339292526245e-02
4.131738096475601196e-02
-3.006243892014026642e-02
-1.732452958822250366e-02
-1.175590381026268005e-01
8.090038783848285675e-03
6.895568966865539551e-02
-4.943712800741195679e-02
3.357311710715293884e-02
-6.644774973392486572e-02
2.444889582693576813e-02
-1.054050102829933167e-01
-6.847369484603404999e-03
6.930001080036163330e-02
-2.281562536954879761e-01
5.835758894681930542e-02
-1.499908268451690674e-01
-2.032895386219024658e-02
1.698354259133338928e-02
7.933451235294342041e-02
-2.994740568101406097e-02
-1.248013004660606384e-01
4.414159059524536133e-02
-5.973842740058898926e-02
-2.944047003984451294e-02
-3.529381752014160156e-02
-3.529213964939117432e-01
-9.104306250810623169e-02
5.218303576111793518e-02
-2.678722701966762543e-02
-5.036721006035804749e-03
-1.703588850796222687e-02
-1.137774530798196793e-02
-1.105756983160972595e-01
1.046585850417613983e-02
-1.059699431061744690e-01
7.695246487855911255e-02
-1.905837655067443848e-01
-1.072466745972633362e-01
2.762086316943168640e-02
1.119561344385147095e-01
-8.748227357864379883e-02
-1.309631019830703735e-01
-3.932088986039161682e-02
-1.935116760432720184e-02
4.564469680190086365e-03
-1.394684426486492157e-02
-2.396913804113864899e-02
2.755869738757610321e-02
-1.899432390928268433e-01
1.168775632977485657e-01
-6.012827530503273010e-02
4.235443472862243652e-02
-1.488432735204696655e-01
2.969090640544891357e-02
3.786795586347579956e-02
-1.518886238336563110e-01
-1.739301234483718872e-01
1.053905636072158813e-01
-3.941133618354797363e-02
-8.849448710680007935e-02
-3.092775680124759674e-02
-1.777435094118118286e-01
-8.449681848287582397e-02
-1.355431824922561646e-01
4.491478577256202698e-02
3.290241584181785583e-02
-8.277676254510879517e-02
3.852678462862968445e-02
-1.483545005321502686e-01
1.418863087892532349e-01
-5.952938646078109741e-02
-2.286372892558574677e-02
-7.808340340852737427e-02
-3.601614385843276978e-02
2.437627315521240234e-02
9.617489576339721680e-02
6.268651783466339111e-02
5.103502795100212097e-02
-8.789314306341111660e-04
-6.370872259140014648e-02
3.395498916506767273e-02
6.684614717960357666e-02
1.352852676063776016e-02
6.244030967354774475e-02
4.208773374557495117e-02
-4.705249518156051636e-02
4.964948445558547974e-02
8.153026923537254333e-03
-7.005282491445541382e-02
-2.013647109270095825e-01
-2.673855517059564590e-03
-3.645552694797515869e-02
-8.607112616300582886e-02
2.792843617498874664e-02
-1.262030750513076782e-01
-1.019578725099563599e-01
-8.964729309082031250e-02
9.094746783375740051e-03
-1.624346524477005005e-01
-5.860218405723571777e-02
1.159383133053779602e-01
-1.387979388236999512e-01
-3.909528627991676331e-02
3.215729072690010071e-02
-6.945693492889404297e-02
1.331259906291961670e-01
-6.170219182968139648e-02
-1.415664255619049072e-01
-6.723777949810028076e-02
7.089369744062423706e-02
-1.440947204828262329e-01
-9.855503216385841370e-03
-2.246017195284366608e-02
6.939660757780075073e-02
1.495965104550123215e-02
-1.904148608446121216e-01
-1.995919458568096161e-02
-7.506813853979110718e-02
-7.561276853084564209e-02
-2.025019377470016479e-01
-1.298604309558868408e-01
8.924514055252075195e-02
1.634529978036880493e-02
1.460020244121551514e-01
-1.220822483301162720e-01
1.542020440101623535e-01
-6.023371592164039612e-03
-1.196365151554346085e-02
4.732497036457061768e-02
-6.118524819612503052e-02
-5.397746711969375610e-02
-1.259981095790863037e-01
-4.732545092701911926e-02
-1.034756302833557129e-01
8.079770207405090332e-02
-5.147702991962432861e-02
6.847166270017623901e-02
7.102105021476745605e-02
1.189668402075767517e-01
1.395823154598474503e-02
-1.048189848661422729e-01
-8.059076033532619476e-03
2.305760793387889862e-02
-1.129546463489532471e-01
8.335170149803161621e-02
-1.326766014099121094e-01
-1.786886304616928101e-01
9.206454455852508545e-02
-7.134481519460678101e-02
-1.807640120387077332e-02
-5.449239909648895264e-02
-6.706328690052032471e-02
-6.980287842452526093e-03
2.334434539079666138e-02
5.086299404501914978e-02
-4.565977491438388824e-03
1.474274508655071259e-02
-8.006937056779861450e-02
3.217439725995063782e-02
1.194219142198562622e-01
9.350530058145523071e-02
1.428755559027194977e-02
-1.880801320075988770e-01
-4.714634269475936890e-02
2.542378753423690796e-02
-1.181390788406133652e-02
-4.778792709112167358e-02
-5.269852653145790100e-02
1.201160997152328491e-02
-7.435328792780637741e-03
-9.068178012967109680e-03
-1.891139778308570385e-03
-2.090277969837188721e-01
-1.655763089656829834e-01
-1.095691621303558350e-01
1.628517508506774902e-01
-1.745946109294891357e-01
-9.254361502826213837e-03
-7.995727658271789551e-02
-9.802589565515518188e-02
-1.585833355784416199e-02
-3.950516134500503540e-02
1.508097946643829346e-01
2.735603228211402893e-02
-1.923887878656387329e-01
4.463217034935951233e-02
5.077026784420013428e-02
5.842847377061843872e-02
2.973771840333938599e-02
-5.601783469319343567e-02
-9.136960655450820923e-02
-6.715142633765935898e-03
-4.094212874770164490e-02
3.006413765251636505e-02
-1.012736838310956955e-02
8.576346933841705322e-02
-1.836555898189544678e-01
7.056474685668945312e-02
1.880919933319091797e-02
2.909720875322818756e-03
-1.699348241090774536e-01
7.440283149480819702e-02
-1.454432457685470581e-01
8.153687417507171631e-02
-2.882383950054645538e-02
9.176202863454818726e-02
-3.310969099402427673e-02
-1.556196529418230057e-02
-6.485978513956069946e-02
5.395137518644332886e-02
-1.460650712251663208e-01
-1.107888668775558472e-01
-4.651452600955963135e-02
-1.504752337932586670e-01
-1.059724092483520508e-01
-2.291852235794067383e-02
6.564638763666152954e-02
-2.047136425971984863e-02
-3.981911018490791321e-02
5.467154551297426224e-03
1.662740670144557953e-02
-7.341834157705307007e-02
-4.970648884773254395e-02
-4.594083409756422043e-03
1.908911950886249542e-02
6.061215419322252274e-03
6.495897471904754639e-02
-6.851091235876083374e-02
1.577581278979778290e-02
-1.502392292022705078e-01
-1.772582530975341797e-01
1.333563029766082764e-01
4.901548847556114197e-02
1.312808785587549210e-02
-4.028241336345672607e-02
3.770944848656654358e-02
5.759496986865997314e-02
7.590197026729583740e-02
-1.916272193193435669e-01
-1.017259582877159119e-01
-2.149543613195419312e-01
-2.209213674068450928e-01
-9.697803109884262085e-02
1.526232212781906128e-01
3.570892289280891418e-02
1.248659715056419373e-01
-3.095521591603755951e-02
8.961319178342819214e-02
-2.055160850286483765e-01
8.229748904705047607e-02
6.840220838785171509e-02
-5.375723913311958313e-02
-4.521379619836807251e-02
1.638066954910755157e-02
2.158784121274948120e-02
-1.694283485412597656e-01
7.831116765737533569e-02
-1.642098464071750641e-02
-2.667671442031860352e-01
-4.872901737689971924e-02
9.668902307748794556e-02
9.903640486299991608e-03
8.911328762769699097e-02
-9.854462929069995880e-03
-8.151400089263916016e-02
1.342955678701400757e-01
-1.270974278450012207e-01
3.476894274353981018e-02
4.755027219653129578e-02
-1.334104388952255249e-01
-8.000139147043228149e-02
-4.457023926079273224e-03
-3.632904263213276863e-03
-1.908453106880187988e-01
1.401078850030899048e-01
-1.225658599287271500e-02
-2.626141346991062164e-02
6.994657963514328003e-02
1.345421224832534790e-01
-1.554298698902130127e-01
-5.373738706111907959e-03
-5.100159719586372375e-02
-9.994097054004669189e-02
7.955802232027053833e-02
-7.828647643327713013e-02
-4.010250791907310486e-03
-7.986021786928176880e-02
1.046523824334144592e-01
1.028767526149749756e-01
1.102240756154060364e-01
1.201744973659515381e-01
-1.681360229849815369e-02
-1.483302861452102661e-01
-3.361270576715469360e-02
-6.307955086231231689e-02
-2.111366949975490570e-03
1.132316440343856812e-01
-2.321601063013076782e-01
-1.284103691577911377e-01
1.359913591295480728e-02
-1.695559620857238770e-01
5.472056567668914795e-02
-1.128696501255035400e-01
-1.152024194598197937e-01
7.929590344429016113e-02
1.286972165107727051e-01
-1.696934700012207031e-01
4.395400173962116241e-03
-1.456400603055953979e-01
-6.144113466143608093e-02
-2.237445712089538574e-01
-1.307689212262630463e-02
-5.767250061035156250e-02
-1.568062603473663330e-01
6.749543547630310059e-02
-1.148617416620254517e-01
6.529483944177627563e-02
-4.309824109077453613e-02
-6.513301283121109009e-02
-9.694656729698181152e-02
1.583745703101158142e-02
5.048479884862899780e-02
-2.326022833585739136e-02
4.804531112313270569e-02
-1.264379471540451050e-01
3.243825584650039673e-02
-2.558412961661815643e-02
-4.490967839956283569e-02
-5.609400104731321335e-03
-2.242977172136306763e-02
-6.887804716825485229e-02
-6.625360250473022461e-02
-1.381901055574417114e-01
-6.243348866701126099e-02
-9.364125877618789673e-02
-1.332529634237289429e-01
-1.951187252998352051e-01
-6.249072495847940445e-03
5.029601231217384338e-02
5.194329842925071716e-02
-1.678042230196297169e-03
5.791565775871276855e-02
5.748268682509660721e-03
-8.810609579086303711e-02
1.009571999311447144e-01
-3.232421875000000000e-01
-1.496520042419433594e-01
-2.782610990107059479e-02
1.507701575756072998e-01
6.047129258513450623e-02
-1.207767128944396973e-01
-2.872965857386589050e-02
2.622104436159133911e-02
1.002465710043907166e-01
5.014219880104064941e-02
5.269603431224822998e-02
-1.891261786222457886e-01
-7.820811867713928223e-02
-2.183106914162635803e-02
-1.035116538405418396e-01
1.270058900117874146e-01
-2.344320118427276611e-01
-2.424486577510833740e-01
2.628147834911942482e-03
9.597473591566085815e-02
-1.225480902940034866e-02
4.918443411588668823e-02
-6.273008137941360474e-02
-4.257237166166305542e-02
-6.405674666166305542e-02
-2.624589800834655762e-01
-4.195715114474296570e-02
7.850018143653869629e-02
3.001896897330880165e-03
-3.001662492752075195e-01
2.649063616991043091e-02
5.728942155838012695e-02
-5.316374078392982483e-02
-1.450117211788892746e-02
-1.389313787221908569e-01
1.677616089582443237e-01
-7.993112504482269287e-02
-1.733019948005676270e-02
-2.173530906438827515e-01
3.246323391795158386e-02
1.274785846471786499e-01
5.667183920741081238e-02
-4.109811782836914062e-02
-1.928562968969345093e-01
-2.248801141977310181e-01
5.994676798582077026e-02
1.458487212657928467e-01
7.694520521908998489e-03
-5.849514901638031006e-02
-2.571871280670166016e-01
7.297599222511053085e-03
1.549499034881591797e-01
-2.118675112724304199e-01
-2.852669684216380119e-03
-9.078520536422729492e-02
-1.030728742480278015e-01
-9.643760323524475098e-02
-3.427666798233985901e-02
1.373922917991876602e-02
1.145083159208297729e-01
9.564635902643203735e-02
-3.473348543047904968e-02
-7.348076254129409790e-02
1.016078144311904907e-02
-2.006225138902664185e-01
-1.246013417840003967e-01
-1.581490226089954376e-02
1.155297905206680298e-01
-3.653054684400558472e-02
4.123757779598236084e-02
1.329440623521804810e-03
-1.204096749424934387e-01
1.428620070219039917e-01
-3.394117578864097595e-02
-4.529711604118347168e-02
8.999416232109069824e-02
1.821445375680923462e-01
9.584859013557434082e-02
1.001352816820144653e-01
7.310687005519866943e-02
-5.790964886546134949e-02
1.882116496562957764e-02
1.476375609636306763e-01
-8.902771770954132080e-02
-3.243088722229003906e-02
9.783191233873367310e-02
-8.251919597387313843e-02
2.442919649183750153e-03
6.262376904487609863e-02
-4.252908006310462952e-02
1.694616861641407013e-02
8.801631629467010498e-03
-1.156863942742347717e-02
-1.489282995462417603e-01
5.831514671444892883e-02
1.723482608795166016e-01
8.597660809755325317e-02
-1.369962990283966064e-01
-2.641176059842109680e-02
9.766623377799987793e-02
-1.145595461130142212e-01
1.290845964103937149e-02
5.128495767712593079e-02
3.647445142269134521e-02
-8.490386605262756348e-02
3.860633820295333862e-03
-1.324923336505889893e-01
-1.673942953348159790e-01
-7.364459335803985596e-02
-3.390179574489593506e-02
2.380231209099292755e-02
-7.124187797307968140e-02
-7.161192595958709717e-02
-1.128997802734375000e-01
7.857295870780944824e-02
1.412771344184875488e-01
-2.602719701826572418e-02
-6.368662416934967041e-02
7.207047194242477417e-02
-2.433671429753303528e-02
1.019607707858085632e-01
3.228027001023292542e-02
4.580404143780469894e-03
-6.145212054252624512e-02
1.253974586725234985e-01
-4.280304163694381714e-02
4.102864488959312439e-02
1.113775670528411865e-01
4.863486438989639282e-02
1.104819104075431824e-01
1.552300453186035156e-01
1.604859083890914917e-01
-2.913262695074081421e-02
3.811765089631080627e-02
-8.832237869501113892e-02
-7.675311714410781860e-02
-1.687463074922561646e-01
-8.517008274793624878e-02
3.752633929252624512e-02
2.105647884309291840e-02
-1.496068388223648071e-01
2.864738926291465759e-02
7.075032591819763184e-02
7.563372701406478882e-02
-1.733124442398548126e-02
2.449206449091434479e-02
-1.670103222131729126e-01
1.222339272499084473e-01
-8.578136563301086426e-02
5.266521871089935303e-02
-1.973598077893257141e-02
-9.197235852479934692e-02
-7.852174341678619385e-02
1.051002833992242813e-02
-5.923544242978096008e-02
1.085865721106529236e-01
-1.733348369598388672e-01
-2.657146193087100983e-02
-1.799747496843338013e-01
-1.595584303140640259e-01
-9.080818854272365570e-03
-1.110306382179260254e-01
1.147948205471038818e-01
-2.990741841495037079e-02
1.030154302716255188e-01
-4.856148362159729004e-02
1.435214430093765259e-01
5.928638204932212830e-02
-6.219782307744026184e-02
3.459471743553876877e-03
-9.942694008350372314e-02
4.020513221621513367e-02
1.259581744670867920e-01
5.921082571148872375e-03
-1.587706059217453003e-01
3.483312204480171204e-02
-9.890151023864746094e-02
-5.455237999558448792e-02
-6.641707569360733032e-02
6.312815099954605103e-02
4.726743325591087341e-02
1.324235647916793823e-02
-4.784906655550003052e-02
4.087777435779571533e-02
3.425753861665725708e-02
8.986617438495159149e-03
8.983631618320941925e-03
1.186968162655830383e-01
-3.386702854186296463e-03
-4.411804676055908203e-02
-7.240061461925506592e-02
7.706242054700851440e-02
1.286014914512634277e-01
-3.144663944840431213e-02
-1.610713601112365723e-01
-6.567252427339553833e-02
-4.980198666453361511e-02
1.049910038709640503e-01
9.078265726566314697e-02
1.260131895542144775e-01
-6.723295897245407104e-02
-5.874886363744735718e-02
-1.303980499505996704e-01
-1.935031637549400330e-02
5.254708230495452881e-02
-4.015216138213872910e-03
-2.104339562356472015e-02
8.013550192117691040e-02
9.535634517669677734e-02
-3.847744688391685486e-02
-9.826590865850448608e-02
-1.269796788692474365e-01
2.958535589277744293e-02
-2.126590013504028320e-01
1.966082304716110229e-01
-1.997197568416595459e-01
-8.707770705223083496e-02
6.183439865708351135e-02
-1.209999695420265198e-01
-5.269178748130798340e-02
-8.749374747276306152e-02
-5.007239803671836853e-02
-4.078971222043037415e-02
6.398215144872665405e-02
9.622455388307571411e-02
7.100003212690353394e-02
-8.331143110990524292e-02
-8.309005945920944214e-02
5.091645568609237671e-02
-1.200055107474327087e-01
-2.966920286417007446e-02
1.070671230554580688e-01
4.539852961897850037e-02
-1.264791190624237061e-01
5.335232987999916077e-02
1.425687503069639206e-02
1.645231693983078003e-01
5.618716031312942505e-02
-5.055478587746620178e-02
-5.763211473822593689e-02
9.685706347227096558e-02
3.999505564570426941e-02
-6.533267349004745483e-02
-2.000210732221603394e-01
1.142229288816452026e-01
-1.406154632568359375e-01
-5.135351419448852539e-02
-1.049225628376007080e-01
6.313581019639968872e-02
1.318188617005944252e-03
9.180549532175064087e-02
1.240810528397560120e-01
2.940139174461364746e-02
-1.959089636802673340e-01
-5.314880609512329102e-02
-9.830692410469055176e-02
-1.028657406568527222e-01
-8.471938222646713257e-02
-1.940598338842391968e-01
-1.638953536748886108e-01
5.017768591642379761e-03
-1.640444621443748474e-02
5.906390771269798279e-02
-6.737501919269561768e-02
6.367633491754531860e-02
-7.795124500989913940e-02
-6.182341650128364563e-02
-2.789244055747985840e-02
-5.644550174474716187e-02
1.218361705541610718e-01
-2.911939471960067749e-02
-7.777966558933258057e-02
5.667302757501602173e-02
1.217649970203638077e-02
-5.438971891999244690e-02
-5.810150504112243652e-02
-4.476353526115417480e-02
9.392271935939788818e-02
-1.843470036983489990e-01
-6.152697280049324036e-02
4.348599165678024292e-02
8.299152553081512451e-02
-3.716229647397994995e-02
-1.826629787683486938e-01
4.412633180618286133e-02
-1.186802014708518982e-01
-9.093094617128372192e-02
6.720965728163719177e-03
-1.465270817279815674e-01
6.335417926311492920e-02
-5.014200508594512939e-02
8.688014745712280273e-02
-1.591630629263818264e-03
8.535563945770263672e-02
9.226115047931671143e-02
-1.305972188711166382e-01
2.373591810464859009e-02
1.403378248214721680e-01
-1.588128358125686646e-01
3.590964898467063904e-02
9.433370083570480347e-02
-1.045209914445877075e-01
5.141746252775192261e-02
-6.306952983140945435e-02
-1.432103365659713745e-01
-1.201162636280059814e-01
-9.427347034215927124e-02
7.541004568338394165e-02
2.469826489686965942e-02
2.118495479226112366e-02
8.991207182407379150e-02
-1.027674134820699692e-02
-1.282919943332672119e-01
1.753699034452438354e-02
-1.772225797176361084e-01
-1.678118556737899780e-01
-4.799065738916397095e-02
-8.253726176917552948e-03
-7.601221650838851929e-02
5.819746106863021851e-02
-4.219274595379829407e-02
8.022809773683547974e-02
6.241641193628311157e-02
6.576275080442428589e-02
-3.177252039313316345e-02
7.383929193019866943e-02
-1.794901192188262939e-01
1.319880317896604538e-02
-1.610931903123855591e-01
6.506973505020141602e-02
-4.604103974997997284e-03
-1.766761690378189087e-01
-2.040255442261695862e-02
-2.427588216960430145e-02
1.808517798781394958e-02
2.733368426561355591e-02
-9.804835915565490723e-02
1.037397421896457672e-03
-1.936697214841842651e-02
1.982153765857219696e-02
-1.150010526180267334e-01
3.216093406081199646e-02
1.627745777368545532e-01
-1.094641014933586121e-01
-1.161491274833679199e-01
-1.183922141790390015e-01
-8.589244633913040161e-02
4.822869598865509033e-02
1.592447631992399693e-03
-3.087265230715274811e-02
-1.120605021715164185e-01
2.433280646800994873e-02
1.283863186836242676e-01
-1.312056090682744980e-02
8.922632783651351929e-02
5.133289471268653870e-02
-6.594799458980560303e-02
6.807158142328262329e-02
-1.126636341214179993e-01
-1.134895756840705872e-01
-7.305676490068435669e-02
-1.093343421816825867e-01
2.186924517154693604e-01
4.265197366476058960e-02
-1.214690506458282471e-03
-1.536451745778322220e-02
6.582432240247726440e-02
-6.445785611867904663e-02
-1.469932310283184052e-02
-9.317482262849807739e-02
-1.246838420629501343e-01
-9.688010066747665405e-02
-6.268626451492309570e-02
-6.265591830015182495e-02
-6.554085761308670044e-02
-1.764769405126571655e-01
-4.936325550079345703e-02
-5.266821756958961487e-02
-8.623491972684860229e-03
1.263797134160995483e-01
5.011167749762535095e-02
-1.388839930295944214e-01
5.205734446644783020e-02
-3.714723512530326843e-02
4.963785875588655472e-03
-3.113225847482681274e-02
-9.714889526367187500e-02
-2.133493721485137939e-01
-5.603316798806190491e-02
7.428804785013198853e-02
6.058603152632713318e-02
1.333434730768203735e-01
-1.289516389369964600e-01
-1.177422925829887390e-01
-2.464309930801391602e-01
2.018773183226585388e-02
-2.034902721643447876e-01
-8.350049704313278198e-02
-3.181166574358940125e-02
-8.537875115871429443e-02
2.069660723209381104e-01
-4.128713905811309814e-02
4.893423989415168762e-02
-4.710843041539192200e-02
-9.607204049825668335e-02
-1.114618927240371704e-01
1.987343728542327881e-01
-2.272748649120330811e-01
2.867195568978786469e-02
-9.827104210853576660e-02
-1.988207362592220306e-02
3.572488948702812195e-02
-2.346136234700679779e-02
-2.120531536638736725e-02
2.906706556677818298e-02
-5.715107545256614685e-02
1.866942271590232849e-02
5.078018829226493835e-02
-5.887466948479413986e-03
-2.540870010852813721e-02
3.180510178208351135e-02
-9.612627327442169189e-02
3.294946998357772827e-02
-9.424855560064315796e-02
5.475786700844764709e-02
-5.280307307839393616e-02
4.180018231272697449e-02
-8.647684007883071899e-02
5.186916515231132507e-02
-8.515825867652893066e-02
-5.805661156773567200e-02
-1.075621172785758972e-01
-3.137312084436416626e-02
5.681539326906204224e-02
7.398970425128936768e-02
-2.296146899461746216e-01
8.593998104333877563e-02
-8.962522447109222412e-02
1.215449944138526917e-01
2.065864764153957367e-02
-1.327588707208633423e-01
-3.700113296508789062e-02
-1.472325325012207031e-01
9.557243436574935913e-02
-8.271253854036331177e-02
-1.386090815067291260e-01
1.197635680437088013e-01
-8.755943179130554199e-02
1.084432676434516907e-01
-6.662840396165847778e-02
-1.790945827960968018e-01
-1.805477887392044067e-01
2.261963859200477600e-02
-6.908176839351654053e-02
-4.601942375302314758e-02
9.479852765798568726e-02
5.180731415748596191e-02
-1.305829286575317383e-01
-1.165742333978414536e-02
-1.300398558378219604e-01
-1.466522216796875000e-01
-7.193612307310104370e-02
6.132686138153076172e-02
-1.893206313252449036e-02
-6.356886029243469238e-02
-1.679593473672866821e-01
3.289856761693954468e-02
6.948805600404739380e-02
-1.413368284702301025e-01
-1.363233029842376709e-01
-9.893404692411422729e-02
-8.435297757387161255e-03
-9.460330754518508911e-02
-1.487098038196563721e-01
4.607546702027320862e-02
-7.216092199087142944e-02
1.692503876984119415e-02
-1.525522172451019287e-01
-5.710474401712417603e-02
-1.555321812629699707e-01
6.857693940401077271e-02
3.260271251201629639e-02
-1.087603420019149780e-01
-1.062447130680084229e-01
-1.558146327733993530e-01
-1.275453269481658936e-01
-6.852368824183940887e-03
-8.530542254447937012e-03
-1.140108481049537659e-01
-1.512754261493682861e-01
3.383515775203704834e-02
-1.787353456020355225e-01
7.935909181833267212e-02
1.049466058611869812e-02
1.002814248204231262e-01
-1.008202433586120605e-01
1.278306171298027039e-02
1.136901415884494781e-02
1.496536005288362503e-02
-3.279766812920570374e-02
-1.730973273515701294e-01
3.598001599311828613e-02
-5.003543198108673096e-02
3.640573099255561829e-02
-1.541944593191146851e-01
-9.859333187341690063e-02
2.658605016767978668e-02
4.272508248686790466e-02
3.844316303730010986e-02
-2.338968217372894287e-02
-3.401795634999871254e-03
9.348753094673156738e-02
2.144689485430717468e-02
-1.545494198799133301e-01
5.948323383927345276e-02
-1.758340299129486084e-01
-9.069120138883590698e-02
-1.228849515318870544e-01
-7.194724678993225098e-02
-1.175786927342414856e-01
-1.536633074283599854e-01
-1.217640638351440430e-01
-1.145532168447971344e-02
2.922824211418628693e-02
-6.326977908611297607e-02
-1.290461868047714233e-01
-6.138564273715019226e-02
-1.682468801736831665e-01
5.272460356354713440e-02
8.734091371297836304e-02
-5.088645964860916138e-02
-4.281579330563545227e-02
2.495641447603702545e-02
8.586577326059341431e-02
-1.082652062177658081e-01
-1.080081462860107422e-01
-3.766526654362678528e-02
1.763383857905864716e-02
1.469313725829124451e-02
6.391639262437820435e-02
-1.227088794112205505e-01
-1.194081008434295654e-01
-6.708011031150817871e-02
6.154160946607589722e-02
-1.740040443837642670e-02
-5.643506348133087158e-02
5.361117795109748840e-02
-2.061381377279758453e-02
8.105967193841934204e-02
7.022199034690856934e-02
-1.722373813390731812e-02
8.805271238088607788e-02
-1.217602416872978210e-01
-2.830377966165542603e-02
-8.545089513063430786e-02
6.414537876844406128e-02
-1.684252023696899414e-01
1.164595247246325016e-03
-1.007000505924224854e-01
-6.669683754444122314e-02
9.009090065956115723e-02
-8.103285729885101318e-02
-1.219084560871124268e-01
-9.513352066278457642e-02
-1.166817098855972290e-01
-3.269591927528381348e-02
3.085392154753208160e-02
5.859878659248352051e-02
-8.531749993562698364e-02
-1.845385730266571045e-01
8.141285181045532227e-02
9.383480250835418701e-02
3.961306996643543243e-03
-8.206187933683395386e-02
-9.663262218236923218e-02
7.968456298112869263e-02
7.344907522201538086e-02
-1.304827034473419189e-01
-5.851296335458755493e-02
-1.204868685454130173e-02
-1.454048603773117065e-01
-3.915426880121231079e-02
6.059023737907409668e-02
-8.092691004276275635e-02
-7.213538140058517456e-02
-2.934915199875831604e-02
7.714990526437759399e-02
3.632510080933570862e-02
-4.046092554926872253e-02
-2.518897317349910736e-02
-5.902611650526523590e-03
-6.407026201486587524e-02
1.333260387182235718e-01
-2.828277088701725006e-02
1.285056620836257935e-01
8.717835694551467896e-02
1.143108606338500977e-01
8.519057929515838623e-02
3.903316333889961243e-02
-1.107120793312788010e-02
1.287183631211519241e-02
1.517361104488372803e-01
6.507179886102676392e-02
-1.696738451719284058e-01
7.880663126707077026e-02
5.322732031345367432e-02
5.280999466776847839e-02
1.245537772774696350e-01
-1.398201137781143188e-01
-2.535056881606578827e-02
-1.339385509490966797e-01
-6.359948217868804932e-02
8.685833960771560669e-02
-1.758906058967113495e-02
-4.283529147505760193e-02
-1.161048486828804016e-01
2.793846651911735535e-02
1.608327329158782959e-01
-1.626230031251907349e-01
-1.334708333015441895e-01
9.905216842889785767e-02
-1.603247784078121185e-02
2.460891008377075195e-02
-1.682354658842086792e-01
6.261160224676132202e-02
-6.874064356088638306e-02
-8.314456790685653687e-02
-5.954668391495943069e-03
1.938318014144897461e-01
2.710344037041068077e-03
2.473404631018638611e-02
8.623164147138595581e-02
-1.572311520576477051e-01
-1.522272173315286636e-02
-1.372947543859481812e-01
-1.243813335895538330e-01
-7.399082928895950317e-02
-7.048027962446212769e-02
9.673924185335636139e-03
5.861698091030120850e-02
1.502019464969635010e-01
9.073577821254730225e-02
-1.684869825839996338e-02
3.336815163493156433e-02
-7.804178446531295776e-02
3.477985784411430359e-02
-7.850675284862518311e-02
-1.005769893527030945e-01
-2.682733163237571716e-02
7.645099423825740814e-03
1.509770005941390991e-01
-8.803126960992813110e-02
1.995808333158493042e-01
1.186244860291481018e-01
8.415419608354568481e-02
-2.950415946543216705e-03
-1.280588358640670776e-01
-5.558551289141178131e-03
9.082088619470596313e-02
-1.021028980612754822e-01
1.080150455236434937e-01
1.187277883291244507e-01
-1.103604659438133240e-01
8.935701102018356323e-02
-9.688188880681991577e-02
-2.271357923746109009e-03
-5.188747495412826538e-02
-1.242816001176834106e-01
1.040050238370895386e-01
-6.634286046028137207e-02
-4.437112435698509216e-02
6.432837992906570435e-02
-4.201259836554527283e-02
7.047792524099349976e-02
8.147367835044860840e-02
2.076197415590286255e-01
-2.997412346303462982e-02
5.370853841304779053e-02
-9.470871090888977051e-02
1.944079250097274780e-02
6.514701992273330688e-02
6.768767535686492920e-02
-1.927894800901412964e-01
6.490971893072128296e-02
-1.992461085319519043e-01
-4.528484866023063660e-02
4.021789506077766418e-02
2.088388986885547638e-02
1.613697595894336700e-02
3.124996833503246307e-02
-6.538167595863342285e-02
1.027987301349639893e-01
1.012462079524993896e-01
9.398267418146133423e-02
-1.237595677375793457e-01
-1.143049076199531555e-01
2.929806010797619820e-03
1.264519393444061279e-01
3.852838650345802307e-02
-7.858766615390777588e-02
5.192597955465316772e-02
1.077657490968704224e-01
-4.175807163119316101e-02
-2.706039324402809143e-02
-8.831267058849334717e-02
-5.722608044743537903e-02
7.087283581495285034e-02
-1.437914092093706131e-02
2.592186816036701202e-02
4.039455205202102661e-02
5.693290755152702332e-02
7.453944534063339233e-03
-1.250591427087783813e-01
-1.104410141706466675e-01
-1.678636483848094940e-02
1.109120026230812073e-01
-1.729855537414550781e-01
-9.762943722307682037e-03
-2.253393456339836121e-02
-1.444191634654998779e-01
1.946151554584503174e-01
3.053225949406623840e-02
-8.485104143619537354e-02
-4.358992446213960648e-03
-1.643336713314056396e-01
7.522533182054758072e-03
-7.739986479282379150e-02
-6.143497303128242493e-02
-9.231583029031753540e-02
-1.553657092154026031e-02
-1.715750545263290405e-01
1.347206346690654755e-02
-1.861444413661956787e-01
1.356102228164672852e-01
-3.214548528194427490e-02
-1.202870234847068787e-01
7.351396977901458740e-02
7.079761475324630737e-02
1.222253367304801941e-01
1.700541935861110687e-02
-8.558431267738342285e-02
-9.050646424293518066e-02
-1.157621145248413086e-01
2.775325067341327667e-02
-1.481990367174148560e-01
-2.934178896248340607e-02
-1.948348879814147949e-01
1.659830063581466675e-01
-8.156549185514450073e-02
-5.100219324231147766e-02
-7.736881077289581299e-02
5.375495180487632751e-02
-4.988360032439231873e-02
8.480585366487503052e-02
4.455656930804252625e-02
-1.353288590908050537e-01
-3.478791937232017517e-02
-9.448394179344177246e-02
2.200782299041748047e-01
6.363594532012939453e-02
-1.380538344383239746e-01
-7.460493128746747971e-03
-5.161061510443687439e-02
6.541261076927185059e-02
1.069928403012454510e-03
-3.481520339846611023e-02
-2.487686090171337128e-02
-9.822436608374118805e-03
1.644414812326431274e-01
8.640002459287643433e-02
-1.921060085296630859e-01
4.164809361100196838e-02
-9.875399619340896606e-02
-2.235846370458602905e-01
3.866289928555488586e-02
2.173846028745174408e-02
1.030968278646469116e-01
-3.641755878925323486e-02
5.669089779257774353e-02
-9.005452692508697510e-02
-1.417446434497833252e-01
-3.648438304662704468e-02
-3.453507646918296814e-02
8.680126070976257324e-02
6.440632976591587067e-03
-2.098037451505661011e-01
-8.866792917251586914e-02
-2.300665676593780518e-01
-1.169577389955520630e-01
-1.670480705797672272e-02
1.083522811532020569e-01
-1.247038319706916809e-01
7.735730148851871490e-03
9.405578672885894775e-02
-3.292663022875785828e-02
2.309647016227245331e-02
4.788065701723098755e-02
-5.324058979749679565e-02
-1.247783228754997253e-01
1.933720661327242851e-03
3.315088152885437012e-02
-2.424644865095615387e-02
-7.742249965667724609e-02
7.466553896665573120e-02
-1.964274495840072632e-01
-1.515417248010635376e-01
2.902818610891699791e-03
-1.012434959411621094e-01
1.052373275160789490e-01
1.757698878645896912e-02
6.232872232794761658e-02
-7.312475889921188354e-02
1.337754875421524048e-01
1.815480738878250122e-02
5.205812305212020874e-02
-9.822594374418258667e-02
9.815938025712966919e-02
-2.473404854536056519e-01
1.228051781654357910e-01
2.699696831405162811e-02
5.860010161995887756e-02
-9.783402085304260254e-02
6.907560676336288452e-02
6.495838612318038940e-02
1.808380335569381714e-01
-1.082415357232093811e-01
1.282736212015151978e-01
8.017972856760025024e-02
-1.167119517922401428e-01
4.057624563574790955e-02
5.959947407245635986e-02
1.101314648985862732e-01
1.087878867983818054e-01
-3.498323494568467140e-03
-1.139215528964996338e-01
-1.130715459585189819e-01
-3.341845050454139709e-02
-9.407828748226165771e-02
1.791719160974025726e-02
1.543222088366746902e-02
6.256295740604400635e-02
3.580462560057640076e-02
1.206695735454559326e-01
-7.485932856798171997e-02
1.287962794303894043e-01
5.032748915255069733e-03
8.509691059589385986e-02
-2.662091888487339020e-02
1.638717018067836761e-02
1.985167711973190308e-02
-8.944521844387054443e-02
-1.888209879398345947e-01
-6.475835293531417847e-02
1.478728950023651123e-01
-5.172294378280639648e-02
1.775537133216857910e-01
1.186812948435544968e-02
-1.186685543507337570e-02
1.526334434747695923e-01
8.589163422584533691e-02
-3.165826201438903809e-02
8.958730846643447876e-02
1.898199692368507385e-02
8.732326328754425049e-02
-1.263036727905273438e-01
-3.994650021195411682e-02
-7.405718415975570679e-02
1.059377565979957581e-01
-1.232419461011886597e-01
9.660637378692626953e-02
3.947535157203674316e-02
-4.216120019555091858e-02
2.615662058815360069e-03
2.622840739786624908e-02
-1.378761231899261475e-01
-7.289439439773559570e-02
-6.137512996792793274e-02
9.093050658702850342e-02
1.482168287038803101e-01
-1.370169967412948608e-01
9.070354700088500977e-02
-5.269554257392883301e-02
3.439750149846076965e-02
1.579666435718536377e-01
2.967009320855140686e-02
-1.226722449064254761e-02
1.133957058191299438e-01
-6.673554424196481705e-03
1.127564087510108948e-01
3.570860996842384338e-02
-6.985056400299072266e-02
-7.706624269485473633e-02
1.018843576312065125e-01
1.576276570558547974e-01
-6.594870984554290771e-02
5.262525752186775208e-02
3.973747603595256805e-03
3.883050382137298584e-02
4.430493712425231934e-02
1.102663651108741760e-01
8.904458582401275635e-02
-3.382120281457901001e-02
-1.923794299364089966e-02
5.137632787227630615e-02
-6.395519524812698364e-02
-4.315710812807083130e-02
9.942167252302169800e-02
-3.352343291044235229e-02
-6.045783683657646179e-02
-1.253938972949981689e-01
9.090106934309005737e-02
3.674434125423431396e-02
-1.134202256798744202e-01
4.028941318392753601e-02
1.045483499765396118e-01
1.123787537217140198e-01
1.035190671682357788e-01
-1.489466726779937744e-01
-5.510776303708553314e-03
-2.987399324774742126e-02
-3.255377709865570068e-02
-2.398260086774826050e-01
2.068510837852954865e-02
1.167147513478994370e-02
1.299839317798614502e-01
-4.671057686209678650e-02
7.434065639972686768e-02
-7.544380426406860352e-02
-3.497498854994773865e-02
-8.413259871304035187e-03
-5.392624065279960632e-02
-1.625510863959789276e-02
-7.862616330385208130e-02
1.408988330513238907e-02
7.939405739307403564e-02
-1.988174952566623688e-02
-7.637546211481094360e-02
-3.875759989023208618e-02
7.968809455633163452e-03
-5.854294449090957642e-02
-1.500577386468648911e-02
1.238917484879493713e-01
4.614269360899925232e-02
3.998303413391113281e-02
4.542554169893264771e-02
5.357675254344940186e-02
5.954710021615028381e-02
4.737487807869911194e-02
-1.104646697640419006e-01
1.096055060625076294e-01
-1.028354838490486145e-01
-2.133166491985321045e-01
-3.485019877552986145e-02
5.340616032481193542e-02
6.446145474910736084e-02
8.763164281845092773e-02
1.319243162870407104e-01
1.570796221494674683e-02
-5.782739818096160889e-02
-4.549612849950790405e-02
-5.386430770158767700e-02
-2.267503589391708374e-01
1.188172847032546997e-01
-6.212428957223892212e-02
1.450771540403366089e-01
1.077402830123901367e-01
9.303940832614898682e-02
7.889036089181900024e-02
-1.905358955264091492e-02
4.647828638553619385e-02
1.073217391967773438e-01
2.873636037111282349e-02
-1.192832663655281067e-01
-1.118666902184486389e-01
-4.468087852001190186e-02
1.924900859594345093e-01
-6.824808195233345032e-03
-9.852102398872375488e-02
-6.027349829673767090e-02
-1.511673908680677414e-02
1.295323949307203293e-02
2.704854682087898254e-02
1.232531815767288208e-01
2.623095735907554626e-02
4.560436680912971497e-02
9.479464590549468994e-02
2.485259622335433960e-02
-6.384783983230590820e-02
5.946360062807798386e-03
6.526720523834228516e-02
-3.213966265320777893e-02
-3.151051327586174011e-02
-3.683193773031234741e-02
-1.539857089519500732e-01
1.792578399181365967e-02
1.180365458130836487e-01
-1.645066738128662109e-01
1.065382510423660278e-01
3.535256907343864441e-02
-1.211196780204772949e-01
-1.631249790079891682e-03
1.158276647329330444e-01
5.449453368782997131e-02
-1.712277531623840332e-01
8.751767873764038086e-02
8.298880606889724731e-02
4.165029898285865784e-02
-1.588892489671707153e-01
-3.919709846377372742e-02
-2.488280646502971649e-02
-1.084826514124870300e-02
-2.059052698314189911e-02
4.740257933735847473e-02
-1.578673720359802246e-02
-8.141375333070755005e-02
7.428392767906188965e-02
4.380008578300476074e-02
9.202341735363006592e-02
-5.299479514360427856e-02
-8.172338455915451050e-02
-1.233454346656799316e-01
7.458049803972244263e-02
2.748107351362705231e-02
8.952245861291885376e-02
-7.515223324298858643e-02
2.072023414075374603e-02
-2.352008223533630371e-02
1.088933348655700684e-01
-1.055440958589315414e-02
-1.230609370395541191e-03
-1.444802880287170410e-01
-1.534227132797241211e-01
7.996357232332229614e-02
1.985959336161613464e-02
1.204434260725975037e-01
-8.723059296607971191e-02
3.353656455874443054e-02
-1.732526272535324097e-01
-4.836989566683769226e-02
2.194898426532745361e-01
-1.481774747371673584e-01
-3.611339256167411804e-02
-1.145405992865562439e-01
-1.366867423057556152e-01
1.548981294035911560e-02
-1.020454615354537964e-01
8.538363128900527954e-02
7.547376304864883423e-02
6.318334490060806274e-04
-3.680733591318130493e-02
-1.339074671268463135e-01
-8.760507404804229736e-02
-2.755997003987431526e-03
-6.299503147602081299e-02
-9.431335330009460449e-02
2.060042135417461395e-02
1.458669751882553101e-01
-6.406453996896743774e-02
7.303115725517272949e-02
-3.645133972167968750e-02
-1.005927473306655884e-01
1.167185157537460327e-01
1.003722772002220154e-01
-1.725379973649978638e-01
5.117388442158699036e-02
6.173957139253616333e-02
-3.426725417375564575e-02
-3.450118750333786011e-02
8.721044659614562988e-02
8.607377856969833374e-02
6.748247146606445312e-02
-5.039066821336746216e-02
3.727218136191368103e-02
-1.557810604572296143e-01
1.413079202175140381e-01
1.325026340782642365e-02
-2.688070572912693024e-02
1.468047797679901123e-01
-1.524162013083696365e-02
-9.021259844303131104e-02
1.270529329776763916e-01
9.286084026098251343e-02
6.529001146554946899e-02
1.054681167006492615e-01
6.137869879603385925e-02
-1.481095887720584869e-02
2.189229130744934082e-01
2.877587452530860901e-02
-1.682448834180831909e-01
-1.962347328662872314e-01
9.333746135234832764e-02
-5.509092286229133606e-02
6.438429700210690498e-04
5.389355495572090149e-02
1.419207639992237091e-02
-5.219887569546699524e-02
8.850245177745819092e-02
1.467265039682388306e-01
1.711998432874679565e-01
2.646944299340248108e-02
5.225440114736557007e-02
9.756536036729812622e-02
3.372805938124656677e-02
2.558167465031147003e-02
-1.402337104082107544e-01
-7.967456430196762085e-02
-5.315872654318809509e-02
-1.937622427940368652e-01
6.301956251263618469e-03
5.642440542578697205e-02
-9.715539962053298950e-02
7.939340174198150635e-02
1.163185164332389832e-01
8.568663150072097778e-02
1.219286918640136719e-01
-7.380242645740509033e-02
1.069583967328071594e-01
-1.329834759235382080e-01
7.380581647157669067e-02
1.204954311251640320e-01
5.480415374040603638e-02
-2.015289850533008575e-02
-1.420007459819316864e-02
1.498714983463287354e-01
5.948912724852561951e-02
3.630821034312248230e-02
-3.440763801336288452e-02
-1.049276441335678101e-02
-1.771764829754829407e-02
1.408624798059463501e-01
-1.226151362061500549e-01
1.629143394529819489e-02
-1.422935873270034790e-01
7.118844659999012947e-04
1.413633972406387329e-01
-1.118178199976682663e-02
3.745738416910171509e-02
-2.088612876832485199e-02
-2.179202809929847717e-02
1.689572781324386597e-01
-7.770936191082000732e-02
4.775279015302658081e-02
8.611070364713668823e-02
1.844173111021518707e-02
1.238780170679092407e-01
7.633377611637115479e-02
-2.852009609341621399e-02
2.621898613870143890e-02
-2.414940483868122101e-02
1.592526882886886597e-01
-1.154827773571014404e-01
9.257575869560241699e-02
-3.401572583243250847e-03
-9.990471601486206055e-02
1.818297207355499268e-01
1.409759819507598877e-01
-6.654158234596252441e-02
4.990003257989883423e-02
1.815381459891796112e-02
-8.447733521461486816e-02
1.069651357829570770e-02
-1.698337681591510773e-02
-4.679518938064575195e-02
6.237906590104103088e-02
6.841430068016052246e-02
1.942006647586822510e-01
-1.155393868684768677e-01
9.364043176174163818e-02
4.632595926523208618e-02
1.165914833545684814e-01
6.009590253233909607e-02
1.040006577968597412e-01
-3.503959998488426208e-02
2.027387320995330811e-01
-3.004627302289009094e-02
1.326898783445358276e-01
1.277455687522888184e-01
4.946787655353546143e-02
-2.247356623411178589e-02
1.726853661239147186e-02
-1.294627636671066284e-01
-1.131587475538253784e-01
-9.006246924400329590e-02
3.212016308680176735e-03
7.777001708745956421e-02
5.656395852565765381e-02
-1.068938672542572021e-01
-1.792185902595520020e-01
-2.969865454360842705e-03
-5.389664322137832642e-02
-1.908234879374504089e-02
-1.401854865252971649e-02
-3.897972404956817627e-02
1.461039632558822632e-01
-1.903289407491683960e-01
-2.254697680473327637e-02
-9.407706558704376221e-02
-2.968042492866516113e-01
1.253728717565536499e-01
-6.732875108718872070e-02
2.062001638114452362e-02
6.632363796234130859e-02
-2.345095202326774597e-02
-1.692529916763305664e-01
9.955514967441558838e-02
1.436061710119247437e-01
-1.620507426559925079e-02
1.064329147338867188e-01
1.134405881166458130e-01
-1.658199578523635864e-01
-3.122975528240203857e-01
-8.299475163221359253e-02
-4.989015683531761169e-02
-1.547459047287702560e-03
-5.010345950722694397e-02
3.413948696106672287e-03
-1.375097483396530151e-01
1.230825185775756836e-01
-1.753445714712142944e-01
1.351059824228286743e-01
8.621798455715179443e-02
1.283952295780181885e-01
-2.210021018981933594e-01
-1.486795991659164429e-01
-7.507749646902084351e-02
9.167851507663726807e-02
1.321710348129272461e-01
2.620434761047363281e-02
1.461028605699539185e-01
2.129702270030975342e-02
-7.525109499692916870e-02
5.954556539654731750e-02
-7.869658060371875763e-03
-7.062987983226776123e-02
-2.477597817778587341e-02
-3.519838303327560425e-02
-9.550578892230987549e-02
8.678354322910308838e-03
-1.319431215524673462e-01
-3.520576655864715576e-02
8.216676115989685059e-02
8.377335965633392334e-02
-3.565376996994018555e-02
-1.399553716182708740e-01
8.328516781330108643e-02
6.725119054317474365e-02
9.961740672588348389e-02
1.326718628406524658e-01
-2.755013294517993927e-02
-1.377914398908615112e-01
-1.724067479372024536e-01
6.859502196311950684e-02
-1.139257848262786865e-01
-3.035168163478374481e-02
-1.045417860150337219e-01
-6.143999053165316582e-04
8.212845772504806519e-03
6.377808749675750732e-02
-1.623475849628448486e-01
-9.835184551775455475e-03
-8.168781548738479614e-02
1.001419872045516968e-01
-1.315532773733139038e-01
-1.346023976802825928e-01
2.377532608807086945e-02
-2.188250236213207245e-02
5.540229752659797668e-02
1.162870898842811584e-01
-1.097276732325553894e-01
5.238857492804527283e-02
2.658745460212230682e-02
1.407409161329269409e-01
8.628606796264648438e-03
7.884445786476135254e-02
-1.491254568099975586e-01
6.955490261316299438e-02
-7.756239920854568481e-02
-4.330093041062355042e-02
7.225951552391052246e-02
2.210053801536560059e-02
7.341050356626510620e-02
-4.185729846358299255e-02
9.936013072729110718e-02
1.123647242784500122e-01
-1.334425900131464005e-02
-1.470556389540433884e-02
-1.369700729846954346e-01
-1.162929013371467590e-01
7.287459075450897217e-02
1.612863093614578247e-01
5.556740984320640564e-02
-7.848071306943893433e-02
4.792359843850135803e-02
5.003230273723602295e-02
1.123787239193916321e-01
7.819696515798568726e-02
-5.287700891494750977e-02
-4.200454428791999817e-02
8.015815913677215576e-02
-1.112557575106620789e-01
1.585400700569152832e-01
4.530533030629158020e-02
-1.392575502395629883e-01
9.992204606533050537e-02
1.263650357723236084e-01
-7.608341425657272339e-02
8.740697056055068970e-02
6.327871233224868774e-02
5.630721896886825562e-02
-1.221298649907112122e-01
-1.887327060103416443e-02
-3.608092665672302246e-02
-9.135390818119049072e-02
-1.273733526468276978e-01
5.832886323332786560e-02
1.987390369176864624e-01
8.896236121654510498e-02
2.748387679457664490e-02
-1.167716979980468750e-01
-9.278168529272079468e-02
1.498004514724016190e-02
1.441625207662582397e-01
-1.713804751634597778e-01
4.960173740983009338e-02
-1.939809136092662811e-02
1.421842277050018311e-01
1.529036164283752441e-01
1.444864273071289062e-01
7.128877192735671997e-02
5.474195629358291626e-02
3.141091391444206238e-02
1.218706965446472168e-01
-5.677655711770057678e-02
7.160897552967071533e-02
3.315436467528343201e-02
6.694277375936508179e-02
6.990461796522140503e-02
4.923700913786888123e-02
6.386373192071914673e-02
3.533086180686950684e-02
3.694421052932739258e-02
1.467742323875427246e-01
-1.152580380439758301e-01
8.583644032478332520e-02
-1.245086789131164551e-01
8.044789545238018036e-03
1.449430584907531738e-01
2.169634215533733368e-02
1.134316250681877136e-01
6.441465020179748535e-02
1.179775968194007874e-01
4.518204554915428162e-02
9.484809823334217072e-03
4.998197779059410095e-02
-2.520380727946758270e-02
1.080334335565567017e-01
1.983479410409927368e-01
1.497101634740829468e-01
-1.468470543622970581e-01
-1.784121394157409668e-01
6.916891783475875854e-02
9.179095737636089325e-03
1.082547530531883240e-01
3.504821565002202988e-03
-6.449268013238906860e-02
7.903503626585006714e-02
2.337190695106983185e-02
1.062988191843032837e-01
3.286693617701530457e-02
6.619754433631896973e-02
-7.493115961551666260e-03
-8.201589435338973999e-02
4.333663266152143478e-03
1.656408421695232391e-02
-3.352653834554075729e-07
3.864980489015579224e-02
1.372691094875335693e-01
1.159267798066139221e-01
-1.790182739496231079e-01
4.831540212035179138e-02
-1.041046380996704102e-01
-1.068651452660560608e-01
-7.475446909666061401e-02
-1.422916352748870850e-01
-2.083313092589378357e-02
6.808830797672271729e-02
-6.144167855381965637e-03
2.913771569728851318e-02
-3.893834725022315979e-02
-7.141434401273727417e-02
-4.704068601131439209e-02
-1.588056683540344238e-01
-1.369908303022384644e-01
-1.063409894704818726e-01
7.050913572311401367e-02
-3.347472753375768661e-03
2.069474309682846069e-01
4.177823662757873535e-02
1.545599997043609619e-01
3.362604603171348572e-02
1.586295664310455322e-01
5.686619784682989120e-03
-6.939332187175750732e-02
7.627378683537244797e-03
-5.193873494863510132e-02
-2.629445865750312805e-02
1.209913939237594604e-01
-7.704849354922771454e-03
-7.984781265258789062e-02
1.593794375658035278e-01
1.817199289798736572e-01
-6.655643880367279053e-02
-9.331066161394119263e-03
-1.402827631682157516e-02
-1.188053712248802185e-01
-1.975341588258743286e-01
-1.250004023313522339e-01
-4.584307223558425903e-02
1.927807182073593140e-02
-1.335252672433853149e-01
-5.300331115722656250e-02
-7.453700900077819824e-02
9.740252047777175903e-03
1.933093965053558350e-01
-8.720427751541137695e-02
-1.490918844938278198e-01
-5.279479920864105225e-02
-1.612772196531295776e-01
3.196350112557411194e-02
-8.454982936382293701e-02
-8.004118571989238262e-04
-1.183686256408691406e-01
1.381884217262268066e-01
-1.042712703347206116e-01
-4.143023863434791565e-02
-1.096283197402954102e-01
-3.307981416583061218e-02
-3.412406891584396362e-02
-4.455934464931488037e-02
4.335364326834678650e-02
1.470246016979217529e-01
1.423442270606756210e-02
-1.195391174405813217e-02
-2.985761687159538269e-02
-1.632465422153472900e-01
-1.045849621295928955e-01
-1.036540418863296509e-02
2.686209417879581451e-02
9.047572314739227295e-02
-6.154917925596237183e-02
7.675427198410034180e-02
8.485880494117736816e-02
1.915048062801361084e-01
-5.544066801667213440e-02
-7.767069619148969650e-04
-5.399192124605178833e-02
1.185732521116733551e-02
-8.061816543340682983e-02
-2.959640463814139366e-03
1.394032966345548630e-02
-9.322413057088851929e-02
-7.904475182294845581e-02
-2.439354918897151947e-02
-1.402063816785812378e-01
-8.707111328840255737e-02
-6.840052455663681030e-02
-7.432474195957183838e-02
-5.504589527845382690e-02
6.929171830415725708e-02
4.205205291509628296e-02
1.058828085660934448e-02
-1.188414692878723145e-01
-1.302033364772796631e-01
-1.322301328182220459e-01
3.417552262544631958e-02
-6.272418797016143799e-02
8.443266153335571289e-02
-3.966426849365234375e-02
-1.066403761506080627e-01
3.519367426633834839e-02
5.332728847861289978e-02
2.107023261487483978e-02
1.707924716174602509e-02
2.475388944149017334e-01
-4.061938822269439697e-02
-1.380059272050857544e-01
-1.235525030642747879e-02
-2.392306923866271973e-01
2.295574992895126343e-01
-1.310813575983047485e-01
-1.006424278020858765e-01
3.052608110010623932e-02
-8.733630180358886719e-02
4.259299486875534058e-02
-1.448162347078323364e-01
-1.075654923915863037e-01
-2.016015052795410156e-01
2.435444444417953491e-01
-3.982186317443847656e-03
4.233603179454803467e-02
-1.336634904146194458e-01
1.389885041862726212e-02
-8.108999580144882202e-02
5.121923517435789108e-03
8.171881735324859619e-02
3.205739334225654602e-02
7.023724913597106934e-02
3.560678288340568542e-02
8.920647203922271729e-03
-1.823562681674957275e-01
5.964503809809684753e-02
-8.477146923542022705e-02
-4.279671981930732727e-02
-7.648964971303939819e-02
-1.633889041841030121e-02
-6.545468233525753021e-03
-5.383821576833724976e-02
-4.917161911725997925e-02
4.566587880253791809e-02
-2.538911439478397369e-02
-1.676608109846711159e-03
1.158124506473541260e-01
-2.843286097049713135e-02
-6.285373121500015259e-02
1.470488160848617554e-01
-4.600683599710464478e-02
1.354747563600540161e-01
1.348387636244297028e-02
-1.841319650411605835e-01
-2.072179019451141357e-01
-1.963102258741855621e-02
-1.036799028515815735e-01
-1.102476492524147034e-01
-4.112762212753295898e-02
-6.614361703395843506e-02
4.278882872313261032e-03
5.669177696108818054e-02
1.840891540050506592e-01
-1.149440258741378784e-01
-5.340068042278289795e-02
-6.367380172014236450e-02
-8.922656625509262085e-02
-9.566237777471542358e-02
6.255928426980972290e-02
-1.874724477529525757e-01
-2.366557866334915161e-01
-3.702602162957191467e-02
1.078592091798782349e-01
-5.339146591722965240e-03
-1.522471569478511810e-02
-5.513207241892814636e-02
-3.985234722495079041e-02
9.315383434295654297e-02
-8.072658628225326538e-02
1.601128024049103260e-03
5.282796174287796021e-02
-7.749646157026290894e-02
-2.921500615775585175e-02
-5.195790901780128479e-02
4.142669495195150375e-03
-1.260233074426651001e-01
-1.979385875165462494e-02
-2.062137722969055176e-01
-4.077498242259025574e-02
-1.068503037095069885e-01
-4.574703425168991089e-02
-2.424782514572143555e-01
4.523219913244247437e-02
-4.496502876281738281e-02
3.679338097572326660e-02
-8.166501647792756557e-04
-2.338948249816894531e-01
4.959171265363693237e-02
-1.013667955994606018e-01
6.445938348770141602e-02
-2.704349812120199203e-03
4.322496056556701660e-02
-4.061409831047058105e-02
9.168197959661483765e-02
5.292938649654388428e-02
-3.933671116828918457e-02
-1.289892345666885376e-01
-9.643386304378509521e-02
-4.878789559006690979e-02
-1.099220067262649536e-01
-7.811465859413146973e-02
-1.405011713504791260e-01
-2.595008909702301025e-01
4.107657819986343384e-02
-8.087252080440521240e-02
1.321688145399093628e-01
6.734399497509002686e-02
1.577653922140598297e-02
-4.712461307644844055e-02
-1.128013804554939270e-01
-1.013806983828544617e-01
-1.476854532957077026e-01
-1.668805629014968872e-01
-1.035879254341125488e-01
5.940050259232521057e-02
5.075874552130699158e-02
7.478327304124832153e-02
-2.042742967605590820e-01
-8.604761213064193726e-02
-1.098732277750968933e-01
-2.586345560848712921e-02
-5.298693478107452393e-02
-2.272504121065139771e-01
-1.908640861511230469e-01
-2.211873047053813934e-02
-9.873145818710327148e-02
-1.528504043817520142e-01
-6.251964718103408813e-03
-2.113167643547058105e-01
9.006106294691562653e-03
-2.494858764111995697e-02
2.219445258378982544e-02
1.133664324879646301e-02
