2.062573470175266266e-02
1.515417359769344330e-02
4.018468409776687622e-02
-3.269125893712043762e-02
1.217537652701139450e-02
1.994826085865497589e-02
-3.886869549751281738e-02
3.920308314263820648e-03
-1.774941920302808285e-03
7.531004492193460464e-03
-4.577200859785079956e-03
-2.844783104956150055e-02
8.159179240465164185e-03
-4.862305149435997009e-02
1.283857598900794983e-02
-3.717463836073875427e-02
1.444284920580685139e-03
-2.411683648824691772e-02
1.820820756256580353e-02
9.272980969399213791e-04
-5.011089891195297241e-02
2.401840500533580780e-02
-2.144504152238368988e-02
-8.942008949816226959e-03
-2.217112109065055847e-02
2.864421345293521881e-02
-1.294430904090404510e-02
-4.076540353707969189e-04
-3.225543349981307983e-02
-4.371741414070129395e-02
5.015777796506881714e-02
2.099111489951610565e-02
3.209407627582550049e-02
-7.198364008218050003e-03
-6.871076300740242004e-03
-1.266141235828399658e-02
2.217404358088970184e-02
2.545896917581558228e-02
-1.092271413654088974e-02
2.270710468292236328e-02
2.158926427364349365e-02
1.239216141402721405e-02
-7.509375456720590591e-03
-1.175717636942863464e-02
8.264906704425811768e-02
-5.196180194616317749e-03
2.468102425336837769e-02
-4.142422229051589966e-02
2.298315800726413727e-02
-1.454903837293386459e-02
-1.482172682881355286e-02
5.814218893647193909e-03
1.736484654247760773e-02
-3.690693154931068420e-02
-1.244790479540824890e-02
-2.053585834801197052e-02
-3.649741038680076599e-02
3.645468736067414284e-03
-5.858594086021184921e-03
-1.554303895682096481e-02
3.110657446086406708e-02
-4.761122167110443115e-02
4.114276915788650513e-02
3.720884397625923157e-02
2.773399464786052704e-02
-5.647945683449506760e-03
3.650748729705810547e-02
1.009057159535586834e-03
-2.364466898143291473e-02
-2.772488258779048920e-02
-5.311925895512104034e-03
-1.885036006569862366e-02
8.790361694991588593e-03
-3.618072485551238060e-03
-2.926539257168769836e-02
-9.854570031166076660e-03
-3.188450261950492859e-02
3.621565178036689758e-02
4.483278468251228333e-02
8.242024108767509460e-03
4.316369071602821350e-03
7.585741113871335983e-03
-1.860836707055568695e-02
-8.854477782733738422e-04
1.382125634700059891e-02
-1.406795531511306763e-02
-8.895896375179290771e-03
4.171581566333770752e-02
3.539878129959106445e-02
-3.436641767621040344e-02
-3.274087235331535339e-02
1.722178049385547638e-02
-5.127089843153953552e-02
2.920530736446380615e-02
3.363606054335832596e-03
2.147357212379574776e-03
-2.332193031907081604e-02
-3.438502177596092224e-02
1.286208629608154297e-02
-3.009308595210313797e-03
-4.055055230855941772e-02
-4.290205240249633789e-02
4.189810715615749359e-03
-4.212175030261278152e-03
-3.559014573693275452e-02
-1.706825383007526398e-02
-8.244948461651802063e-03
3.539507463574409485e-02
-6.769879255443811417e-03
-3.253759443759918213e-02
-2.266452647745609283e-02
1.157481130212545395e-02
6.221739109605550766e-03
1.575340330600738525e-02
1.875460147857666016e-02
-9.970761835575103760e-03
3.366961330175399780e-02
-3.313616290688514709e-02
-4.452485963702201843e-02
-8.123660460114479065e-03
-4.928815737366676331e-02
6.316456943750381470e-02
-3.749027103185653687e-02
-1.448549609631299973e-02
2.929159207269549370e-03
-9.059750474989414215e-03
-2.049192413687705994e-02
1.459303218871355057e-02
-1.937401480972766876e-02
1.742480881512165070e-02
4.920792207121849060e-02
-2.594110183417797089e-02
2.819407545030117035e-02
-4.685975983738899231e-02
5.524678155779838562e-03
-4.458438977599143982e-02
3.161989152431488037e-02
1.219314709305763245e-02
-4.330154508352279663e-02
-4.021112993359565735e-02
3.013005852699279785e-02
2.727176621556282043e-02
5.170822888612747192e-02
2.075481601059436798e-02
-1.948393881320953369e-02
-1.069203062797896564e-05
-2.193023823201656342e-02
-1.058606244623661041e-02
2.441463060677051544e-03
9.910138323903083801e-03
-4.495448619127273560e-02
6.098947487771511078e-03
1.535930298268795013e-02
3.018632531166076660e-02
-1.061708107590675354e-02
-9.059581905603408813e-03
4.286351799964904785e-02
-2.121525257825851440e-02
3.404492279514670372e-03
1.616740785539150238e-02
-2.032867446541786194e-02
1.852376572787761688e-02
-3.664604621008038521e-03
5.794643983244895935e-02
4.750481247901916504e-02
2.453188970685005188e-02
2.522013150155544281e-02
-1.764941774308681488e-02
5.034060776233673096e-02
-4.947727918624877930e-02
-1.041968725621700287e-02
7.957006804645061493e-03
1.589879579842090607e-02
1.218801364302635193e-02
-9.828675538301467896e-04
4.153546318411827087e-02
-2.470185235142707825e-02
1.012142281979322433e-02
1.834435760974884033e-02
2.485164627432823181e-02
4.586214944720268250e-02
4.899258539080619812e-02
-3.742355853319168091e-03
-3.529819892719388008e-03
-3.843265399336814880e-02
-1.452565751969814301e-02
3.496783599257469177e-02
-7.228620816022157669e-03
-6.326791644096374512e-02
-8.235538378357887268e-03
1.896052621304988861e-02
3.310766443610191345e-02
-3.719295933842658997e-02
2.957641333341598511e-02
-1.468544453382492065e-02
-3.182606399059295654e-02
4.359002783894538879e-02
1.316538080573081970e-02
2.162461169064044952e-02
-2.987097762525081635e-02
-2.377264760434627533e-02
9.130261838436126709e-03
-1.217129267752170563e-02
-3.353941068053245544e-02
-1.460161153227090836e-02
-3.511119261384010315e-02
-3.021948598325252533e-02
1.850516349077224731e-02
-4.493030160665512085e-02
-1.175242755562067032e-02
-3.887000307440757751e-02
2.712154760956764221e-02
1.872786879539489746e-02
5.134359002113342285e-02
4.782706382684409618e-04
-1.020201295614242554e-02
-5.210834741592407227e-02
7.878266274929046631e-03
-2.822590433061122894e-02
2.076020278036594391e-02
2.964809164404869080e-02
-4.401287436485290527e-02
3.140683844685554504e-02
3.717137034982442856e-03
-5.043911933898925781e-02
1.695032976567745209e-02
-2.363796345889568329e-02
-4.925214126706123352e-02
-2.474768646061420441e-02
1.493414584547281265e-02
-2.177381701767444611e-02
2.356113120913505554e-02
4.648214671760797501e-03
-2.582951914519071579e-03
1.093317847698926926e-02
4.926634952425956726e-03
1.493624877184629440e-02
-3.333150222897529602e-02
-3.036958537995815277e-02
-2.994358510477468371e-05
9.701969102025032043e-03
1.301840879023075104e-02
-3.072359040379524231e-02
8.459654636681079865e-03
6.406351923942565918e-03
-5.661526694893836975e-03
-4.436995834112167358e-02
1.272969413548707962e-02
5.152707919478416443e-03
1.300475746393203735e-02
-3.286759182810783386e-02
4.196617752313613892e-02
-6.324239075183868408e-02
3.096184507012367249e-02
2.681534737348556519e-02
-5.298122763633728027e-02
2.563528716564178467e-03
6.922202184796333313e-03
1.139125693589448929e-02
1.696606539189815521e-02
-4.581872746348381042e-02
2.723272889852523804e-02
-4.694089293479919434e-02
1.242575701326131821e-02
1.831449382007122040e-02
-2.034016326069831848e-02
-7.369047030806541443e-03
-2.717469586059451103e-03
2.938505494967103004e-03
-3.481522202491760254e-02
2.029764838516712189e-02
2.076824381947517395e-02
2.575162798166275024e-02
7.174248993396759033e-02
1.359251979738473892e-02
2.731627039611339569e-02
6.258702371269464493e-03
-1.541529782116413116e-02
2.439634501934051514e-02
2.252965420484542847e-02
-4.666907340288162231e-02
-3.161587193608283997e-02
-5.486246570944786072e-02
-5.131948366761207581e-02
2.239083126187324524e-02
2.172235585749149323e-02
-2.715202420949935913e-02
-3.149621188640594482e-02
-9.925033373292535543e-05
-3.771965205669403076e-02
2.137571573257446289e-02
-4.364652931690216064e-02
1.755505055189132690e-02
-3.593031689524650574e-02
1.567094586789608002e-02
-5.031473003327846527e-03
1.080595422536134720e-02
2.404681220650672913e-02
1.720964908599853516e-02
-1.482790242880582809e-02
1.435789745301008224e-04
-1.201586425304412842e-02
1.758982613682746887e-02
-5.503199994564056396e-02
7.546830922365188599e-03
7.666501682251691818e-03
3.191472962498664856e-02
5.667761433869600296e-03
-1.339637581259012222e-02
9.808066301047801971e-03
3.682729601860046387e-02
3.042599372565746307e-02
1.166815124452114105e-02
3.701280429959297180e-02
5.159818567335605621e-03
1.567712239921092987e-02
-6.840710411779582500e-04
-5.130729451775550842e-02
-4.569200053811073303e-02
5.471747368574142456e-02
-2.956884540617465973e-02
-3.512271493673324585e-02
2.603820152580738068e-02
-2.647712640464305878e-02
-9.165089577436447144e-03
-3.613980114459991455e-02
-2.839261479675769806e-02
-4.289532452821731567e-02
-2.288299426436424255e-02
1.054264884442090988e-02
-1.840748451650142670e-02
2.768802642822265625e-02
-2.856266126036643982e-02
-1.067696511745452881e-02
5.867918953299522400e-03
-2.694163657724857330e-02
1.279364246875047684e-02
-3.509605675935745239e-02
-1.666139252483844757e-02
5.926995724439620972e-02
1.098752487450838089e-02
3.315331647172570229e-03
3.059617243707180023e-02
1.239264383912086487e-04
6.046535447239875793e-03
-1.221263594925403595e-02
1.821834780275821686e-02
1.408158615231513977e-02
-2.894128672778606415e-02
1.907692290842533112e-02
-2.382581308484077454e-02
-2.786279842257499695e-02
4.984961077570915222e-02
1.789807900786399841e-02
2.676611207425594330e-02
3.300593048334121704e-02
-1.057170331478118896e-02
-4.874928388744592667e-03
-6.412515044212341309e-02
1.000508666038513184e-02
-6.838580593466758728e-03
2.730514667928218842e-02
1.757837831974029541e-02
2.479804120957851410e-02
-3.256294876337051392e-03
-9.623639285564422607e-03
-1.957599073648452759e-02
-4.610082507133483887e-02
8.571636863052845001e-03
-2.097155898809432983e-02
2.669350244104862213e-02
2.915583178400993347e-02
4.194281250238418579e-02
1.858428306877613068e-02
4.074501991271972656e-02
7.704731542617082596e-03
5.491787195205688477e-02
-2.005809731781482697e-02
9.154500439763069153e-03
7.243132684379816055e-03
-3.000237047672271729e-03
1.938641420565545559e-03
-1.446089241653680801e-02
-8.514779619872570038e-03
-2.197438292205333710e-02
-3.552894666790962219e-02
9.903564117848873138e-03
8.637829683721065521e-03
8.654022240079939365e-04
-2.427671849727630615e-02
-3.010541945695877075e-02
-4.377386718988418579e-02
1.050059124827384949e-02
-7.498873164877295494e-04
-2.842977270483970642e-02
-2.982652373611927032e-02
7.520540384575724602e-04
2.378593757748603821e-02
1.612021215260028839e-02
-1.645983010530471802e-02
-2.113028429448604584e-02
3.288067132234573364e-02
-1.485686469823122025e-02
-4.071263968944549561e-02
-2.354488242417573929e-03
-8.195394650101661682e-03
-1.740082353353500366e-02
1.846168935298919678e-02
3.021121025085449219e-02
-5.330521985888481140e-02
4.678754135966300964e-02
3.650668635964393616e-02
-1.119786873459815979e-02
-4.198993090540170670e-03
2.520119072869420052e-03
-2.374007925391197205e-02
-4.673264175653457642e-02
-3.588806092739105225e-02
-4.825185239315032959e-02
-4.440641775727272034e-02
-2.132757380604743958e-02
-4.461569711565971375e-02
-2.668163925409317017e-02
-3.022418729960918427e-02
1.443909946829080582e-02
5.374578759074211121e-03
-4.158961772918701172e-02
-2.419837377965450287e-02
-2.588363550603389740e-02
2.206384204328060150e-02
-2.481163665652275085e-02
-3.307948634028434753e-02
-3.701775148510932922e-02
-5.178623273968696594e-02
2.823015116155147552e-02
4.272968508303165436e-03
-5.266012623906135559e-02
2.684753015637397766e-02
-4.042075201869010925e-02
3.736083954572677612e-02
3.310623764991760254e-02
8.043869398534297943e-03
3.381205722689628601e-02
-2.312243171036243439e-02
-3.976839035749435425e-02
-5.107983201742172241e-02
-1.425914186984300613e-02
-1.937301456928253174e-02
1.281144749373197556e-02
-2.988614374771714211e-03
-1.698347274214029312e-03
-8.102295920252799988e-03
2.183666639029979706e-02
1.331515959464013577e-03
-1.213147025555372238e-02
-5.007412284612655640e-02
-1.057925168424844742e-03
-2.646020846441388130e-03
-1.708333380520343781e-02
3.127323091030120850e-02
6.672877818346023560e-02
-4.716060310602188110e-02
-2.661888487637042999e-02
5.014187097549438477e-02
1.603092066943645477e-02
-3.474599123001098633e-02
-1.483471225947141647e-02
-4.251479730010032654e-02
2.730197971686720848e-03
3.803928196430206299e-02
-5.081407353281974792e-02
-5.357035249471664429e-02
-2.133504115045070648e-02
1.533074490725994110e-02
-4.837025701999664307e-02
2.054820582270622253e-02
-2.978440746665000916e-02
1.127933058887720108e-02
4.477493464946746826e-02
1.688112854026257992e-03
-1.713934121653437614e-03
1.010638102889060974e-02
6.789857149124145508e-02
2.195599488914012909e-02
2.455307170748710632e-03
-3.618051856756210327e-02
4.586661234498023987e-02
1.236349530518054962e-02
3.257706016302108765e-02
3.893470391631126404e-02
3.230359032750129700e-02
-5.004363879561424255e-02
4.859781265258789062e-02
-5.689310375601053238e-03
-4.608955979347229004e-02
-2.388960681855678558e-02
1.835382170975208282e-02
3.762582084164023399e-03
-4.875484388321638107e-03
-7.326022256165742874e-03
-2.146805450320243835e-02
-1.311609428375959396e-02
3.098289854824542999e-02
-4.555443674325942993e-02
-3.917512670159339905e-02
5.347453430294990540e-02
-4.288105666637420654e-02
8.879834786057472229e-03
-2.167433500289916992e-02
2.729233354330062866e-03
6.468906532973051071e-03
1.919633895158767700e-02
-2.229447662830352783e-02
-8.822950534522533417e-03
3.130020946264266968e-02
-9.786647744476795197e-03
-4.332138970494270325e-02
-4.162817448377609253e-02
-3.490265831351280212e-02
-1.706092618405818939e-02
5.920909345149993896e-03
-2.342901751399040222e-02
-3.394861146807670593e-02
-5.003841593861579895e-02
2.729167602956295013e-02
-5.993728060275316238e-03
3.839933872222900391e-02
-2.221652679145336151e-02
3.010491281747817993e-02
3.615293651819229126e-02
-1.264211256057024002e-02
-4.104381799697875977e-02
-6.657995400018990040e-04
5.050044879317283630e-02
-4.052821919322013855e-02
-1.688744523562490940e-03
-4.525001347064971924e-02
1.052791601978242397e-03
4.062606766819953918e-02
-5.557598918676376343e-02
-3.852750733494758606e-02
-6.895536556839942932e-03
2.778288535773754120e-02
-5.564705003052949905e-03
7.801576051861047745e-03
1.126552745699882507e-02
3.108561411499977112e-02
-1.659160479903221130e-02
1.714292354881763458e-02
-1.501663774251937866e-02
2.762455865740776062e-02
8.439358323812484741e-03
-1.704947464168071747e-02
-3.983081132173538208e-02
-1.824269071221351624e-02
9.775860235095024109e-03
-1.923404075205326080e-02
2.989649586379528046e-02
-2.055651135742664337e-02
-3.317198902368545532e-02
2.403311990201473236e-02
-3.840516135096549988e-02
1.035825815051794052e-03
5.306401848793029785e-02
7.043645717203617096e-03
4.194860532879829407e-02
3.945931419730186462e-02
7.939039729535579681e-03
2.166718244552612305e-02
2.286533825099468231e-02
-1.471189036965370178e-02
3.441938757896423340e-02
-4.402801021933555603e-02
3.131288662552833557e-02
5.341066420078277588e-02
3.373173624277114868e-02
-4.233875498175621033e-02
4.184609279036521912e-03
4.964097589254379272e-02
-1.113977935165166855e-02
-3.640078753232955933e-02
3.649754682555794716e-03
-1.601628027856349945e-03
-1.845265924930572510e-02
4.254421219229698181e-02
3.631631378084421158e-03
1.288801431655883789e-02
4.955705720931291580e-03
-3.188098222017288208e-02
-1.957080885767936707e-02
3.934879973530769348e-02
-4.632150381803512573e-02
-3.663887828588485718e-02
3.269310668110847473e-02
-6.914307828992605209e-03
-1.102747861295938492e-02
-6.963865831494331360e-03
5.231964960694313049e-02
-3.171578049659729004e-02
2.386497147381305695e-02
-2.049725037068128586e-03
1.511724386364221573e-02
-6.165152043104171753e-02
4.466370493173599243e-02
3.344576805830001831e-02
2.959565608762204647e-04
7.408245932310819626e-03
-2.639501541852951050e-02
-5.527474358677864075e-02
3.389329416677355766e-03
-7.347527891397476196e-03
1.575418934226036072e-02
-4.355975985527038574e-02
-3.357969969511032104e-02
-2.519113384187221527e-02
-2.488683722913265228e-02
-1.478577870875597000e-02
1.650047488510608673e-02
6.084148585796356201e-02
3.340313583612442017e-02
-2.375977858901023865e-02
-4.209122434258460999e-02
3.497420623898506165e-02
-6.094648968428373337e-03
2.338189445436000824e-02
5.998444184660911560e-02
-1.087843254208564758e-02
8.511167019605636597e-03
3.227301314473152161e-02
-2.802413702011108398e-02
-5.818472243845462799e-03
2.854388393461704254e-02
2.149979770183563232e-02
2.263317629694938660e-02
-2.996496297419071198e-02
2.809948287904262543e-03
-2.262013591825962067e-02
2.845704928040504456e-02
-3.652468323707580566e-02
-3.847353532910346985e-02
4.694969579577445984e-02
-1.348283514380455017e-02
3.264040872454643250e-02
3.365666791796684265e-02
-3.398509323596954346e-02
4.290657863020896912e-02
4.213233187329024076e-04
-3.977928310632705688e-03
-4.836776852607727051e-02
8.489130437374114990e-02
2.499690651893615723e-02
2.762043103575706482e-02
1.078662555664777756e-02
-7.145852781832218170e-03
1.072131935507059097e-02
-7.435264997184276581e-03
1.781770214438438416e-02
1.710211485624313354e-02
-3.849640488624572754e-02
2.122110873460769653e-02
1.675164513289928436e-02
-1.152114360593259335e-03
-7.976199500262737274e-03
5.275885388255119324e-02
-2.265650220215320587e-02
2.823033370077610016e-02
3.981800377368927002e-02
3.616365790367126465e-02
-2.155406400561332703e-02
-4.754811991006135941e-03
-1.355767808854579926e-02
4.007051512598991394e-02
-2.237815409898757935e-02
9.799449704587459564e-03
-1.093146111816167831e-02
-2.882451564073562622e-02
-5.935703963041305542e-02
-9.335155598819255829e-03
4.512242972850799561e-02
2.092956379055976868e-02
-1.507820375263690948e-02
3.643975406885147095e-02
-2.919847145676612854e-02
-1.787282526493072510e-02
-4.449692089110612869e-03
3.652137145400047302e-02
-7.387176901102066040e-02
1.389732398092746735e-02
-5.219067912548780441e-03
-3.913584630936384201e-03
-9.596135350875556469e-04
-6.457703560590744019e-02
-3.172209858894348145e-02
-2.791411429643630981e-02
-1.234209816902875900e-02
2.864735201001167297e-02
4.605574160814285278e-02
-5.544532090425491333e-02
-3.911719471216201782e-02
-1.961787417531013489e-02
-2.044741623103618622e-02
-4.637982323765754700e-02
-3.410714492201805115e-02
-1.961212139576673508e-03
2.771243080496788025e-02
1.465268526226282120e-02
-7.633591070771217346e-03
-3.214845061302185059e-02
1.622229814529418945e-02
3.028463385999202728e-02
-1.482357829809188843e-02
1.838160678744316101e-02
1.028049364686012268e-02
-3.838004171848297119e-02
-2.333843708038330078e-02
1.298915967345237732e-02
1.365504320710897446e-02
-1.163757126778364182e-02
3.094245865941047668e-02
-8.076984435319900513e-03
-3.103254921734333038e-02
-4.468861967325210571e-02
-2.150234580039978027e-02
1.269719004631042480e-02
3.379601985216140747e-03
5.457163974642753601e-02
5.152227822691202164e-03
-3.444132208824157715e-02
3.288606181740760803e-02
-7.362881675362586975e-03
-1.368873007595539093e-02
4.004469141364097595e-02
2.397211454808712006e-02
8.886252529919147491e-03
1.123967207968235016e-02
-1.945217140018939972e-02
-2.588619664311408997e-02
-1.161261275410652161e-02
-3.478058846667408943e-03
-6.247849203646183014e-03
5.000809952616691589e-02
3.913167491555213928e-02
6.332346674753353000e-05
-5.021800100803375244e-02
1.151016075164079666e-02
-1.089747902005910873e-02
3.778559342026710510e-02
2.801908925175666809e-02
2.502023428678512573e-02
3.376200795173645020e-02
-5.823258310556411743e-02
5.750937014818191528e-02
-1.576622761785984039e-02
8.061393350362777710e-02
4.081350192427635193e-02
5.048057995736598969e-03
3.439597412943840027e-02
-6.981619633734226227e-03
2.938817255198955536e-02
1.668766699731349945e-02
-1.815729402005672455e-02
1.772494614124298096e-02
-9.155114181339740753e-03
3.681274503469467163e-02
1.990124583244323730e-02
3.626171872019767761e-02
1.937778666615486145e-02
3.320586681365966797e-02
4.017932806164026260e-03
-3.781586885452270508e-02
-1.575903967022895813e-02
3.561600297689437866e-02
-2.042542770504951477e-02
2.819831855595111847e-02
2.017013961449265480e-03
-7.625807542353868484e-03
-1.560122892260551453e-02
4.210520908236503601e-02
-2.002704329788684845e-02
8.093896321952342987e-03
2.210793271660804749e-02
2.198563702404499054e-02
-2.999360859394073486e-02
1.225225813686847687e-02
5.529534444212913513e-02
3.872038051486015320e-02
1.079803099855780602e-03
4.568007215857505798e-02
-4.566948488354682922e-02
-5.743484571576118469e-02
6.368124485015869141e-02
2.567708864808082581e-02
1.674086786806583405e-03
-2.287186449393630028e-03
2.319419011473655701e-02
-5.926639959216117859e-02
2.881118282675743103e-02
-1.520971488207578659e-02
-2.277859300374984741e-02
2.898606657981872559e-02
1.525768358260393143e-02
-6.923004053533077240e-03
1.273139007389545441e-02
-2.853145450353622437e-02
3.475864604115486145e-02
-2.751904353499412537e-02
2.571524493396282196e-02
-3.575953468680381775e-02
-4.016729071736335754e-02
-3.886791691184043884e-02
4.180300608277320862e-02
2.844748552888631821e-03
-1.339054759591817856e-02
2.303264476358890533e-02
-3.529183194041252136e-02
-3.826704993844032288e-02
3.551928326487541199e-02
-1.902318373322486877e-02
-4.433819651603698730e-02
-2.092044800519943237e-02
-2.917569316923618317e-02
2.279755473136901855e-02
-7.402813062071800232e-03
-1.516401860862970352e-02
6.647669710218906403e-03
3.122884547337889671e-03
3.465601056814193726e-02
3.264776431024074554e-03
4.322740435600280762e-02
-2.518274821341037750e-02
-2.069998718798160553e-02
-1.110963430255651474e-02
-1.752511784434318542e-02
-2.834777347743511200e-02
3.855322021991014481e-03
3.852329216897487640e-03
4.564826563000679016e-02
-5.806536227464675903e-02
4.082562029361724854e-02
-2.292570658028125763e-02
1.661457121372222900e-02
1.142076030373573303e-02
3.188166767358779907e-02
-1.210429985076189041e-02
5.910665169358253479e-02
3.634489327669143677e-02
3.293525800108909607e-02
-3.014084137976169586e-02
-1.424412615597248077e-02
1.150073762983083725e-02
1.973705831915140152e-03
-3.827499598264694214e-02
-8.604106493294239044e-03
1.882378756999969482e-02
-1.179452612996101379e-02
-3.342477604746818542e-02
2.596515789628028870e-02
-3.515424579381942749e-02
-1.331883203238248825e-02
6.023020297288894653e-02
-1.064500119537115097e-02
-1.753431186079978943e-02
-1.925598643720149994e-02
2.903978526592254639e-02
1.801974512636661530e-02
5.130169913172721863e-02
-2.519801072776317596e-02
4.423640668392181396e-02
-1.591088995337486267e-02
-3.178941085934638977e-02
4.365797340869903564e-02
-3.640625625848770142e-02
-4.006874561309814453e-02
-3.700890578329563141e-03
1.322581805288791656e-02
-3.222766518592834473e-02
9.237557649612426758e-03
-2.516112290322780609e-02
7.278297096490859985e-03
-3.923673182725906372e-02
1.709846407175064087e-02
-5.101110413670539856e-02
3.044204413890838623e-02
5.452445521950721741e-02
-8.362906053662300110e-03
-2.758555114269256592e-02
6.430037319660186768e-02
-2.997550182044506073e-02
-1.528751384466886520e-02
1.509786583483219147e-02
1.678183092735707760e-03
-1.732857897877693176e-02
9.150191210210323334e-03
1.565193943679332733e-02
1.849820464849472046e-02
3.543397039175033569e-02
3.952436894178390503e-02
-2.924690581858158112e-02
3.335961373522877693e-03
-6.166270934045314789e-03
3.384068608283996582e-02
-5.643634870648384094e-02
2.061506733298301697e-03
8.613708429038524628e-03
3.037728555500507355e-02
-1.092546246945858002e-02
1.978773623704910278e-02
-3.568837186321616173e-03
-1.230633724480867386e-02
6.390496343374252319e-02
-3.358440473675727844e-02
2.457903511822223663e-02
-2.316517010331153870e-02
-4.411452636122703552e-02
4.597302898764610291e-02
4.754256515298038721e-04
-3.476999327540397644e-02
-6.756166927516460419e-03
-3.031073138117790222e-02
5.730721633881330490e-03
-1.804449409246444702e-02
-1.112615130841732025e-02
6.851111538708209991e-04
9.897794807329773903e-04
2.088301628828048706e-02
3.592586517333984375e-02
-5.828039138577878475e-04
6.763097364455461502e-03
-1.891739293932914734e-02
-2.325458079576492310e-02
-2.959242276847362518e-02
-2.950693015009164810e-03
3.141609951853752136e-02
5.578848998993635178e-03
-6.307413335889577866e-03
6.862886250019073486e-03
-4.262701794505119324e-02
4.647138714790344238e-02
1.759138144552707672e-02
-4.370859637856483459e-02
-7.529791910201311111e-04
-4.983394220471382141e-02
-2.882335148751735687e-02
3.381977230310440063e-02
1.430763956159353256e-02
1.175990235060453415e-02
6.889614742249250412e-03
-1.449622120708227158e-02
-5.036240816116333008e-02
1.903223618865013123e-02
3.122714161872863770e-02
-1.648401655256748199e-02
-4.157923907041549683e-02
-7.268198579549789429e-02
1.226907316595315933e-02
-4.684373736381530762e-02
-4.028309881687164307e-02
3.508579730987548828e-02
1.802783273160457611e-02
-8.286866359412670135e-03
-3.198521584272384644e-02
6.036310642957687378e-02
-4.062335565686225891e-02
5.272909626364707947e-02
3.237200155854225159e-02
-5.290535092353820801e-02
1.030605565756559372e-02
-7.315906230360269547e-03
-4.205218330025672913e-02
-5.384975671768188477e-02
-4.158650524914264679e-03
-8.292837068438529968e-03
-1.067991927266120911e-02
2.679402753710746765e-02
4.691698029637336731e-02
-2.023869194090366364e-02
-9.602457284927368164e-03
-3.256549313664436340e-02
4.250497370958328247e-02
4.127852618694305420e-02
-2.464810386300086975e-02
-6.243326701223850250e-03
3.693260997533798218e-02
-5.148225650191307068e-02
3.537153359502553940e-03
-2.588727883994579315e-02
-4.227649047970771790e-02
-2.472248673439025879e-02
2.274081576615571976e-03
-1.505648624151945114e-02
1.937030255794525146e-02
1.449354737997055054e-02
-2.940998226404190063e-02
-1.798356097424402833e-04
1.573002315126359463e-03
2.221845462918281555e-02
3.275037929415702820e-02
1.916128024458885193e-02
1.523146592080593109e-02
2.930288203060626984e-02
-3.315504267811775208e-02
-3.292284905910491943e-02
-4.207976907491683960e-02
-3.491016477346420288e-02
-6.404672749340534210e-03
1.355945877730846405e-02
2.705614641308784485e-02
-6.138045806437730789e-03
8.669889718294143677e-02
-4.504809901118278503e-02
-7.157196756452322006e-03
-8.229442872107028961e-03
-2.834168635308742523e-02
2.122122980654239655e-02
3.529478609561920166e-02
-1.455025863833725452e-03
2.231181040406227112e-02
-9.316206909716129303e-03
1.941685006022453308e-02
1.884887367486953735e-02
-2.468001283705234528e-02
2.810017205774784088e-02
-1.594373583793640137e-02
-1.673870161175727844e-02
2.377711050212383270e-02
-2.051812782883644104e-02
-4.629327729344367981e-02
5.862547550350427628e-03
1.606578938663005829e-02
-4.201335459947586060e-02
2.138742059469223022e-02
3.409334644675254822e-02
4.271829128265380859e-02
2.359975874423980713e-02
-2.873248048126697540e-02
6.296600401401519775e-02
3.629965009167790413e-03
-1.635923981666564941e-02
3.364740312099456787e-02
1.793905161321163177e-02
-1.770691201090812683e-02
-3.520007012411952019e-03
-9.981116745620965958e-04
-1.157531887292861938e-02
3.674373403191566467e-02
-7.387970108538866043e-03
2.455387450754642487e-02
5.663375556468963623e-02
9.305750951170921326e-03
-1.325082592666149139e-02
3.533043339848518372e-02
-1.172826066613197327e-02
3.255045413970947266e-02
-2.919526956975460052e-02
-1.925309002399444580e-02
-1.409342326223850250e-02
2.855603955686092377e-02
3.257411345839500427e-02
-4.103466868400573730e-02
1.024399325251579285e-02
-1.772440411150455475e-02
3.288846462965011597e-02
9.494272992014884949e-03
-1.491748407715931535e-04
1.927732117474079132e-02
-3.732986003160476685e-02
2.127631939947605133e-02
8.155429735779762268e-03
1.397896278649568558e-02
2.718988060951232910e-02
-3.791311383247375488e-02
-1.998982205986976624e-02
-1.769332587718963623e-02
-1.441191136837005615e-02
3.623199462890625000e-02
3.049456514418125153e-02
2.116876840591430664e-02
3.785645216703414917e-02
-2.826814167201519012e-02
-2.448878996074199677e-02
3.015624731779098511e-02
2.162047429010272026e-03
6.850616633892059326e-02
-2.252593450248241425e-02
6.121695786714553833e-02
1.550210360437631607e-02
2.626738045364618301e-03
-1.093071978539228439e-02
3.985775634646415710e-02
-3.784343972802162170e-02
-4.557312652468681335e-02
-1.330178882926702499e-02
-3.196193277835845947e-02
-9.157127700746059418e-03
1.250917091965675354e-03
-1.583831943571567535e-02
1.505640987306833267e-02
2.693753689527511597e-03
-8.950009010732173920e-03
3.803836926817893982e-02
1.668253168463706970e-02
-3.303096443414688110e-02
6.696271710097789764e-03
-4.208911210298538208e-02
-2.701516635715961456e-02
-2.964645810425281525e-02
-1.848784275352954865e-02
-2.991893328726291656e-02
-3.566975891590118408e-02
-2.920787967741489410e-02
2.891294099390506744e-02
3.377243503928184509e-02
-1.990657858550548553e-02
2.524988027289509773e-03
-3.855784237384796143e-02
-3.144490346312522888e-02
3.149176761507987976e-02
2.253063395619392395e-02
-8.097646757960319519e-03
-3.375275060534477234e-02
8.595739305019378662e-02
6.136557459831237793e-02
-5.919205490499734879e-03
-4.094486311078071594e-02
3.420288488268852234e-02
-2.076858282089233398e-02
-7.972140796482563019e-03
-1.265893876552581787e-02
-2.876249141991138458e-03
1.330125704407691956e-02
-2.205369062721729279e-02
6.633245851844549179e-03
4.440831393003463745e-02
-2.808812633156776428e-02
1.181640382856130600e-02
-2.737758308649063110e-02
-1.871097274124622345e-02
-4.236283525824546814e-02
1.204220950603485107e-02
-2.150974608957767487e-02
-2.431562356650829315e-02
3.895386308431625366e-02
-1.195078017190098763e-03
5.809660255908966064e-02
4.342971369624137878e-02
2.905938401818275452e-02
3.213063627481460571e-02
-1.039365213364362717e-02
-8.440367877483367920e-03
-2.814725739881396294e-04
1.961825042963027954e-02
2.841215394437313080e-02
6.002655718475580215e-04
3.367326781153678894e-02
-5.549218039959669113e-03
-1.736072939820587635e-03
2.176250889897346497e-02
4.554301872849464417e-02
9.995663538575172424e-03
1.066092681139707565e-02
-2.474325150251388550e-02
5.120790563523769379e-03
5.328996106982231140e-02
-4.248953610658645630e-02
3.832354024052619934e-02
1.959911920130252838e-02
-2.584285102784633636e-02
-2.412846684455871582e-02
4.470885172486305237e-02
6.244671531021595001e-03
4.234318155795335770e-03
9.669634513556957245e-03
1.858133450150489807e-02
-1.640769653022289276e-02
-3.742698207497596741e-02
1.171314995735883713e-02
-1.534917624667286873e-03
4.915289580821990967e-02
4.021566361188888550e-02
4.432756453752517700e-02
1.127908751368522644e-02
-2.327641472220420837e-02
7.429569959640502930e-02
3.669466450810432434e-02
3.374873101711273193e-02
-2.181234955787658691e-02
1.616702042520046234e-02
7.261671125888824463e-02
-6.594567559659481049e-03
5.584326013922691345e-02
-3.109965473413467407e-02
-3.132260590791702271e-02
2.365391328930854797e-02
4.744941834360361099e-03
3.357148170471191406e-02
2.480291947722434998e-02
7.597634941339492798e-02
-2.583559416234493256e-02
6.824087817221879959e-03
3.370725736021995544e-02
-2.323899604380130768e-02
-3.188805654644966125e-02
4.157292842864990234e-02
8.340945467352867126e-03
1.315480843186378479e-02
2.840001322329044342e-02
-4.110740497708320618e-02
-2.082271687686443329e-02
-3.798482567071914673e-02
5.073965992778539658e-03
8.426883257925510406e-03
-2.549974434077739716e-02
1.340285502374172211e-02
-2.745762281119823456e-02
-2.705049142241477966e-02
-2.885396406054496765e-02
3.460160642862319946e-02
5.020532384514808655e-02
-4.992813989520072937e-02
-3.103483468294143677e-02
4.185941070318222046e-02
-1.954809390008449554e-02
3.418294340372085571e-02
-1.291427668184041977e-02
1.304627861827611923e-02
-1.291473745368421078e-03
5.925638601183891296e-02
-2.877794392406940460e-02
-5.999903805786743760e-05
-2.408557571470737457e-03
3.909083455801010132e-02
1.488158944994211197e-02
3.764572367072105408e-02
7.053820043802261353e-02
-1.843809708952903748e-02
2.674658782780170441e-02
-2.326566353440284729e-02
-4.203545395284891129e-03
8.757058531045913696e-03
2.797188982367515564e-02
-3.061310946941375732e-02
-1.752342097461223602e-02
1.106394175440073013e-02
2.505296841263771057e-02
9.955540299415588379e-03
-7.520513609051704407e-03
7.335428148508071899e-03
-1.497018150985240936e-02
-3.718191757798194885e-03
4.867494478821754456e-02
-1.342522446066141129e-02
1.260222867131233215e-03
-1.457694545388221741e-02
-6.158741656690835953e-03
-1.403048448264598846e-02
1.877743750810623169e-02
-1.433608029037714005e-02
-7.696643006056547165e-03
-1.924017909914255142e-03
-3.124118596315383911e-02
3.311335667967796326e-02
2.145413123071193695e-02
-2.708726003766059875e-02
-3.868606686592102051e-02
-1.369080133736133575e-02
-4.906998481601476669e-03
3.180251270532608032e-02
-1.861745724454522133e-03
4.118331894278526306e-02
-2.117798663675785065e-02
-1.768141984939575195e-02
3.056909330189228058e-02
-4.079137742519378662e-02
4.632958024740219116e-02
1.366905961185693741e-02
5.614161863923072815e-02
-1.924728043377399445e-02
1.773128658533096313e-02
-1.170887332409620285e-02
5.522288009524345398e-02
9.572121314704418182e-03
1.075829099863767624e-02
-1.501767616719007492e-02
-1.027294900268316269e-03
-3.394903615117073059e-02
-2.810203284025192261e-02
2.487613260746002197e-02
9.854368865489959717e-03
1.207248587161302567e-02
5.495170596987009048e-03
-1.738469675183296204e-02
1.794712431728839874e-02
2.402686700224876404e-02
-2.952978014945983887e-02
1.986446324735879898e-03
-1.386203616857528687e-02
-3.829658776521682739e-02
-1.861126162111759186e-02
-1.513175107538700104e-02
-1.941767893731594086e-02
4.657258250517770648e-05
1.666247099637985229e-02
3.038915991783142090e-02
2.525708638131618500e-02
2.013125643134117126e-02
-1.763071119785308838e-02
3.111099638044834137e-02
4.109822586178779602e-02
2.840513596311211586e-03
2.853284217417240143e-02
2.142347581684589386e-02
-2.462204545736312866e-02
1.223197393119335175e-02
3.581089433282613754e-03
-1.807564124464988708e-02
-3.586884960532188416e-02
5.196987465023994446e-02
3.853059932589530945e-02
-3.081608377397060394e-02
2.341739274561405182e-02
-5.600817967206239700e-03
5.907933041453361511e-02
3.500351309776306152e-02
-1.340369228273630142e-02
1.058738585561513901e-02
-2.002489566802978516e-02
-1.472346764057874680e-02
3.079868480563163757e-02
-2.862521633505821228e-02
5.158892273902893066e-02
1.817651651799678802e-02
4.568124562501907349e-02
1.097545027732849121e-02
-3.526300936937332153e-02
-2.123404666781425476e-02
-2.928930893540382385e-02
3.363924846053123474e-02
-8.502572774887084961e-03
5.429665371775627136e-02
7.754809409379959106e-02
4.635807126760482788e-02
4.074878618121147156e-02
-1.161023136228322983e-02
1.563943922519683838e-02
-2.491148188710212708e-02
3.199443966150283813e-02
-3.534893319010734558e-02
4.059466719627380371e-02
-4.772567749023437500e-02
2.466659247875213623e-02
1.706247217953205109e-02
3.380646184086799622e-02
7.185913622379302979e-02
3.522346168756484985e-02
-1.391493994742631912e-02
1.373677514493465424e-02
-9.222634980687871575e-05
3.755526151508092880e-03
3.628436848521232605e-02
2.872268669307231903e-02
-4.163308814167976379e-02
-3.436113148927688599e-02
-3.763641417026519775e-02
-3.306886553764343262e-02
1.831445842981338501e-03
4.858278483152389526e-02
7.221901323646306992e-03
-5.224707722663879395e-02
-3.468155115842819214e-02
-9.768509306013584137e-03
6.837994605302810669e-02
-4.529086407274007797e-03
7.026790175586938858e-03
2.976742200553417206e-02
-3.979545831680297852e-02
2.237417176365852356e-02
1.694178208708763123e-02
2.143996395170688629e-02
3.154809772968292236e-02
-4.272412881255149841e-02
1.826140796765685081e-03
-2.891485020518302917e-02
1.761943660676479340e-02
-1.432038005441427231e-02
2.643793076276779175e-02
-1.012639142572879791e-02
-5.337185692042112350e-03
-3.034935891628265381e-02
5.023841559886932373e-02
-2.910571172833442688e-02
5.495166406035423279e-02
1.381976995617151260e-02
2.057948708534240723e-02
3.380233189091086388e-03
2.067807689309120178e-02
-4.304569738451391459e-04
-4.062023013830184937e-03
1.470213290303945541e-02
-4.737374931573867798e-02
3.096689842641353607e-02
2.554864808917045593e-02
-1.741058658808469772e-03
2.761138044297695160e-02
8.329047262668609619e-02
3.601845819503068924e-03
5.168077070266008377e-03
-4.984267801046371460e-02
2.002242207527160645e-02
1.081303786486387253e-02
2.465228177607059479e-02
-8.261047303676605225e-03
-3.915198147296905518e-02
-1.205501705408096313e-02
-2.241225354373455048e-02
1.477316394448280334e-02
-2.065122872591018677e-02
-1.766928657889366150e-02
4.473543912172317505e-02
-4.319017380475997925e-02
5.220327153801918030e-02
-2.027839049696922302e-02
-2.177430083975195885e-03
2.069639787077903748e-02
3.505737707018852234e-02
1.130745839327573776e-02
-1.377996709197759628e-02
3.391210362315177917e-02
6.134623661637306213e-03
-4.141377657651901245e-02
-4.316192492842674255e-02
3.678952530026435852e-02
-1.313423924148082733e-02
3.844253346323966980e-02
3.478277847170829773e-02
8.720566332340240479e-02
5.028438754379749298e-03
3.883538534864783287e-03
2.129337191581726074e-02
-1.862824335694313049e-02
2.938059624284505844e-03
2.564930729568004608e-02
2.224971167743206024e-02
9.222623892128467560e-03
1.523265615105628967e-02
1.988723874092102051e-02
-1.501577068120241165e-02
5.375285074114799500e-02
-4.630962503142654896e-04
7.987905293703079224e-02
2.607995830476284027e-02
3.420763835310935974e-02
-5.008702632039785385e-03
4.492476955056190491e-02
2.125555649399757385e-02
-4.161448404192924500e-02
3.800870850682258606e-02
6.456327624619007111e-03
4.742175806313753128e-03
4.149128124117851257e-02
-2.373220399022102356e-02
6.354650948196649551e-03
2.955507114529609680e-02
1.327131642028689384e-03
4.536258056759834290e-02
-3.753659781068563461e-03
-3.094905521720647812e-03
2.020076289772987366e-02
3.293303772807121277e-02
7.158826291561126709e-02
3.560296073555946350e-02
3.088783007115125656e-03
3.684537857770919800e-02
1.014359388500452042e-02
1.578478701412677765e-02
-1.160795986652374268e-02
-1.375300157815217972e-02
3.462734445929527283e-02
4.078076779842376709e-02
-1.435034442692995071e-02
-9.699486196041107178e-03
3.150327131152153015e-02
-3.877843543887138367e-02
5.889108031988143921e-02
-1.699879392981529236e-02
2.848499827086925507e-02
-4.708424583077430725e-02
3.125058859586715698e-02
-3.688628599047660828e-02
-1.154789817519485950e-03
-9.121233597397804260e-03
2.883690968155860901e-02
3.140833228826522827e-02
5.622387677431106567e-02
1.144140213727951050e-02
-2.299766242504119873e-02
4.382345080375671387e-02
2.003810554742813110e-02
3.021439909934997559e-02
5.041401088237762451e-02
3.425569087266921997e-02
6.995260715484619141e-03
-3.618600592017173767e-02
3.933868929743766785e-02
3.237709775567054749e-02
-1.265528379008173943e-03
2.689696103334426880e-02
-1.122969388961791992e-02
7.331523112952709198e-03
4.982120916247367859e-02
2.393611893057823181e-02
2.847602404654026031e-02
6.546079646795988083e-03
-1.395922736264765263e-03
4.048931971192359924e-02
-2.552392333745956421e-02
-1.923973672091960907e-02
-1.906176842749118805e-02
-6.277860701084136963e-02
3.049411065876483917e-02
6.867752410471439362e-03
-3.995862975716590881e-02
5.346589535474777222e-02
-1.662010326981544495e-02
2.654850296676158905e-02
3.613395243883132935e-02
2.913072519004344940e-02
4.454258084297180176e-02
7.031332701444625854e-03
5.531902611255645752e-02
3.052298910915851593e-02
1.475896686315536499e-02
1.060273032635450363e-02
1.450989581644535065e-02
6.776961963623762131e-03
5.604692175984382629e-02
1.383601687848567963e-02
-1.501313969492912292e-02
1.900066062808036804e-02
-3.601564094424247742e-02
-1.001454051584005356e-02
3.083408810198307037e-02
3.976123034954071045e-02
3.841905668377876282e-02
4.174179956316947937e-02
2.106726542115211487e-02
1.300200819969177246e-02
-1.665897481143474579e-02
2.800987288355827332e-02
-1.304550841450691223e-02
-6.822238792665302753e-04
-1.482553221285343170e-02
-3.647610917687416077e-02
-8.826729026623070240e-04
1.821711077354848385e-03
-3.624880686402320862e-02
2.465836331248283386e-02
-3.979484364390373230e-02
-1.526460517197847366e-02
1.051514316350221634e-02
-1.445633941330015659e-03
-3.453502804040908813e-02
-1.684102788567543030e-02
8.406036533415317535e-03
4.699242766946554184e-03
-1.778374239802360535e-02
-1.792892999947071075e-02
2.598270960152149200e-02
7.249346468597650528e-03
-2.756402269005775452e-02
4.980785399675369263e-02
3.799650073051452637e-02
8.508318103849887848e-03
-8.087923197308555245e-05
-2.750521525740623474e-02
-1.186289358884096146e-02
-2.239724993705749512e-02
1.548435166478157043e-02
-1.026826817542314529e-02
-5.370579287409782410e-02
-1.064177509397268295e-02
4.718612506985664368e-02
1.827436499297618866e-02
3.280187025666236877e-03
4.814641177654266357e-02
-1.160957012325525284e-02
4.019200056791305542e-02
3.071783855557441711e-02
-3.884993866086006165e-02
-4.393576178699731827e-03
2.891879063099622726e-03
-5.777727439999580383e-02
-3.384631592780351639e-03
-2.139886654913425446e-02
-2.080537145957350731e-03
2.576309069991111755e-02
-3.933490812778472900e-02
3.486618399620056152e-02
1.886165142059326172e-02
-4.542782902717590332e-02
5.032542627304792404e-03
-4.710448905825614929e-02
-1.819798350334167480e-02
1.434156578034162521e-02
1.330603193491697311e-02
-1.092602033168077469e-02
6.530730985105037689e-03
-2.449505589902400970e-02
-4.822063446044921875e-02
-3.367992118000984192e-02
-7.673855405300855637e-03
-1.199436653405427933e-02
-5.916201695799827576e-02
-1.923147030174732208e-02
1.051974482834339142e-02
2.256207168102264404e-02
4.311935231089591980e-02
3.208293020725250244e-02
-4.360386729240417480e-02
-4.603905975818634033e-02
-2.207458205521106720e-02
-4.601823538541793823e-02
-1.481207087635993958e-02
3.561608865857124329e-02
1.891094143502414227e-03
1.429642643779516220e-02
1.869365386664867401e-02
5.853342358022928238e-03
3.781087696552276611e-02
-5.795311648398637772e-03
3.835805132985115051e-02
2.088663168251514435e-02
4.440267756581306458e-02
2.269276045262813568e-02
-4.541797563433647156e-02
-5.131332203745841980e-03
-4.749410320073366165e-03
-3.821169957518577576e-02
-3.858495876193046570e-02
-1.591961458325386047e-02
1.376598328351974487e-02
-4.166214168071746826e-02
1.454342156648635864e-02
-6.307488679885864258e-02
-3.342454135417938232e-02
6.500178016722202301e-03
6.224509794265031815e-03
-7.656156085431575775e-04
-4.263823479413986206e-02
-5.104097537696361542e-03
6.213243305683135986e-02
3.929275646805763245e-02
-3.395897522568702698e-02
-1.649484597146511078e-02
5.313671007752418518e-02
-4.514750838279724121e-02
-7.813305594027042389e-03
-6.015646085143089294e-02
2.798370830714702606e-02
-4.445191472768783569e-02
2.194607257843017578e-02
-6.086886301636695862e-02
-7.874737493693828583e-03
4.287753254175186157e-02
2.650032378733158112e-02
-3.613646700978279114e-02
6.287749391049146652e-03
2.983518317341804504e-02
-4.497995227575302124e-02
-2.349130576476454735e-03
-2.020756527781486511e-02
2.325365506112575531e-02
4.842421039938926697e-04
4.513148218393325806e-02
2.288035675883293152e-02
7.889495464041829109e-04
-7.501375675201416016e-02
3.883221361320465803e-04
1.399577595293521881e-03
-2.185143344104290009e-02
1.960732415318489075e-02
-4.705902934074401855e-02
-4.373649135231971741e-03
-2.889814600348472595e-02
-3.666518256068229675e-02
2.172968722879886627e-02
-3.745166584849357605e-02
2.671344205737113953e-02
3.157322481274604797e-02
1.408446580171585083e-02
-2.560890512540936470e-03
-2.926253154873847961e-02
-6.182691082358360291e-02
-2.431948855519294739e-02
-2.167514292523264885e-03
1.003601960837841034e-02
-2.851183898746967316e-02
-6.171613000333309174e-03
-4.984460771083831787e-02
2.788875624537467957e-02
1.559885777533054352e-02
-5.299073830246925354e-02
7.821386680006980896e-03
5.934639833867549896e-03
7.646736223250627518e-03
-2.136134169995784760e-02
-2.431361190974712372e-02
6.463316082954406738e-02
9.762582369148731232e-03
1.422743964940309525e-02
3.393562510609626770e-02
-5.425849184393882751e-02
-8.238291367888450623e-03
-4.200240597128868103e-02
2.943897992372512817e-02
9.140034671872854233e-04
-1.828642934560775757e-02
-3.430257737636566162e-02
1.904081739485263824e-02
4.130136221647262573e-02
-1.238019671291112900e-02
1.643900573253631592e-02
3.683090209960937500e-02
1.902399212121963501e-02
2.381807425990700722e-03
2.252604626119136810e-02
-3.342819958925247192e-02
1.716557331383228302e-02
3.755405917763710022e-02
-2.691732370294630527e-04
-1.811220496892929077e-02
1.258313539437949657e-03
2.739014104008674622e-02
-6.697379518300294876e-03
-5.770464241504669189e-02
-1.357330940663814545e-02
-1.876219362020492554e-02
-2.841877937316894531e-02
-2.768629789352416992e-02
-3.269166499376296997e-02
3.154681622982025146e-02
-3.324267268180847168e-02
-3.095091693103313446e-02
-1.240794640034437180e-02
2.947808429598808289e-02
-1.786920911399647593e-04
2.928691729903221130e-02
1.734000444412231445e-02
-2.963290736079216003e-02
2.730497904121875763e-02
7.131345570087432861e-02
1.743528991937637329e-02
-4.642216861248016357e-02
-2.398500218987464905e-02
-7.847984321415424347e-03
1.675684563815593719e-02
-1.439151447266340256e-02
4.053735733032226562e-02
-1.941324397921562195e-02
2.238635905086994171e-03
4.936964716762304306e-03
5.031780153512954712e-02
1.122082863003015518e-02
-6.631718482822179794e-03
3.998881578445434570e-02
-1.543897204101085663e-02
-2.613197825849056244e-02
-1.539234630763530731e-02
-4.581651836633682251e-02
1.466754823923110962e-03
-2.191743114963173866e-03
-4.347302392125129700e-02
-1.576065458357334137e-02
-4.548875242471694946e-02
7.341554388403892517e-03
2.297384850680828094e-02
-4.994707647711038589e-03
5.404482409358024597e-02
6.450776755809783936e-02
1.365180965512990952e-02
-4.555942863225936890e-02
8.022581227123737335e-03
-1.918582990765571594e-02
9.658824419602751732e-04
-5.756535381078720093e-02
3.901077806949615479e-02
1.028830744326114655e-02
-3.190917149186134338e-02
-4.629184678196907043e-02
-5.942709743976593018e-02
2.060608379542827606e-02
1.623122021555900574e-02
-4.180880635976791382e-02
-3.564662858843803406e-02
-1.755108870565891266e-02
8.757775649428367615e-03
7.176118670031428337e-04
1.361886970698833466e-02
1.134012080729007721e-02
3.305376274511218071e-03
-1.376377698034048080e-02
3.177272900938987732e-02
-2.037894539535045624e-02
4.442035034298896790e-02
-1.242288574576377869e-02
-4.198523610830307007e-02
5.533223971724510193e-02
-1.089750044047832489e-02
-5.900001153349876404e-02
-2.266738191246986389e-02
2.199066430330276489e-02
-3.943324554711580276e-03
1.355346851050853729e-02
4.841344431042671204e-03
-3.278833627700805664e-02
2.008691802620887756e-02
-2.871899865567684174e-02
-1.705662161111831665e-02
-4.311586916446685791e-02
-3.709276020526885986e-02
3.269204171374440193e-03
1.238624099642038345e-02
9.290055371820926666e-03
7.407284807413816452e-03
2.871043048799037933e-03
1.922438852488994598e-02
-1.200169697403907776e-02
4.064568877220153809e-02
3.176431357860565186e-02
-1.587556488811969757e-02
-2.167714387178421021e-02
-4.647790919989347458e-03
6.924438290297985077e-03
-3.699916228652000427e-02
-6.601563841104507446e-02
-4.322917759418487549e-02
1.467732433229684830e-02
2.380372583866119385e-02
-1.200638897716999054e-02
4.746172577142715454e-03
3.768343711271882057e-03
4.485285654664039612e-02
-8.542654104530811310e-03
3.300377726554870605e-02
-4.390211775898933411e-03
-3.012484684586524963e-02
3.719431906938552856e-02
1.914685778319835663e-02
1.128194108605384827e-02
3.693649917840957642e-02
2.697027660906314850e-02
-4.216687753796577454e-02
-4.397613927721977234e-02
3.218943253159523010e-02
-4.600652679800987244e-02
-1.473880652338266373e-02
2.994496934115886688e-02
3.144907206296920776e-02
-1.562539860606193542e-02
-4.160286486148834229e-02
-3.645198419690132141e-02
-9.238990023732185364e-03
4.730178043246269226e-02
3.082990879192948341e-03
5.573261529207229614e-02
-2.409094572067260742e-02
-3.131236135959625244e-02
3.960685059428215027e-02
4.796125926077365875e-03
2.444983646273612976e-02
5.078937858343124390e-02
3.498380631208419800e-02
1.135742384940385818e-02
-4.044901207089424133e-02
-4.412736743688583374e-02
-3.593043982982635498e-02
-3.584003541618585587e-03
-1.332074590027332306e-02
1.446219161152839661e-02
2.861857181414961815e-03
1.368648745119571686e-02
9.621339850127696991e-03
-7.879764772951602936e-03
-2.295939996838569641e-02
3.123358450829982758e-02
3.177162259817123413e-02
-4.095879197120666504e-02
1.876412145793437958e-02
6.193052511662244797e-03
9.882564656436443329e-03
1.236828975379467010e-02
-2.991648577153682709e-02
2.564470283687114716e-02
-3.095640055835247040e-02
4.944605752825737000e-02
-1.037284173071384430e-02
1.149440300650894642e-03
2.529337257146835327e-02
7.870967499911785126e-03
-4.171849042177200317e-02
4.218649584800004959e-03
-2.619224600493907928e-03
3.281027823686599731e-02
1.489871181547641754e-02
5.380271002650260925e-02
-1.419670414179563522e-02
7.681810762733221054e-03
2.700850181281566620e-02
1.818351820111274719e-02
1.066917553544044495e-02
-4.136630520224571228e-02
-2.230493538081645966e-02
9.373904205858707428e-03
5.518225952982902527e-02
2.030746452510356903e-02
2.784818783402442932e-02
-5.990028753876686096e-02
-3.751665726304054260e-02
-3.789002075791358948e-02
-5.164104327559471130e-02
-4.796032235026359558e-02
4.175035655498504639e-02
-7.159097120165824890e-03
-1.732451654970645905e-02
-1.179978344589471817e-02
-2.404393628239631653e-02
-2.119776420295238495e-02
4.209912195801734924e-02
-8.842818439006805420e-03
1.021759863942861557e-02
4.265365377068519592e-02
-4.125278443098068237e-02
-3.516996279358863831e-02
-4.869857057929039001e-02
3.167863003909587860e-03
-2.664611861109733582e-02
-2.515450306236743927e-02
-1.990662142634391785e-02
-3.546367958188056946e-02
3.593964874744415283e-02
-2.279228717088699341e-02
4.853674396872520447e-02
-3.033704310655593872e-02
-1.725561171770095825e-02
1.769122853875160217e-02
-2.835403010249137878e-02
3.669079393148422241e-02
-1.561389677226543427e-02
3.329085558652877808e-02
-2.749418606981635094e-03
-4.441829398274421692e-02
1.092775259166955948e-02
-7.139544002711772919e-03
-5.084379389882087708e-02
1.364902313798666000e-02
-4.110459983348846436e-02
3.885119408369064331e-02
-2.157414890825748444e-02
-9.369269013404846191e-03
2.548426575958728790e-02
5.196839920245110989e-04
6.229538936167955399e-03
-3.163068741559982300e-02
3.937571309506893158e-04
-8.551690261811017990e-04
-2.903416194021701813e-02
2.327444776892662048e-02
1.349539496004581451e-02
-1.306133903563022614e-02
-6.209979299455881119e-03
-7.413278520107269287e-02
7.772994041442871094e-02
2.776168100535869598e-02
-1.839464157819747925e-02
3.079158999025821686e-02
-3.314028680324554443e-02
1.004349626600742340e-02
1.998700015246868134e-02
6.034380756318569183e-03
-3.027876280248165131e-02
9.113041451200842857e-04
-1.466108020395040512e-03
-3.915160894393920898e-02
-8.985906839370727539e-03
-6.329094059765338898e-03
-1.482265535742044449e-02
3.113945759832859039e-02
-3.373899683356285095e-02
9.002028964459896088e-03
-1.256732828915119171e-02
1.387274917215108871e-02
3.086129203438758850e-02
-1.470558997243642807e-02
1.549290586262941360e-02
2.373597398400306702e-02
-2.117221243679523468e-02
3.252783417701721191e-02
2.111716195940971375e-02
-2.244886010885238647e-02
2.191334031522274017e-02
1.589811965823173523e-02
-4.264120385050773621e-02
3.274158015847206116e-02
1.408181898295879364e-02
4.141068551689386368e-03
-2.230842830613255501e-03
-4.923325031995773315e-02
1.154354400932788849e-02
4.031508043408393860e-02
5.247318744659423828e-02
-1.720448955893516541e-02
-4.149734228849411011e-02
4.297208786010742188e-02
3.291446343064308167e-02
-7.177436724305152893e-03
6.669049151241779327e-03
4.689830541610717773e-02
1.591067574918270111e-02
-3.854618594050407410e-02
3.134585544466972351e-02
-2.159063145518302917e-02
-1.443417975679039955e-03
-4.767732322216033936e-02
1.520608272403478622e-02
-1.484508160501718521e-02
2.867003716528415680e-02
4.827661812305450439e-02
-5.124421790242195129e-02
2.286491729319095612e-02
2.064110338687896729e-02
-1.981603540480136871e-02
6.251933518797159195e-03
3.713269159197807312e-02
2.796633541584014893e-02
-6.243197619915008545e-02
4.956251382827758789e-02
1.659382507205009460e-02
-7.686312310397624969e-03
-6.085915025323629379e-03
-1.175523735582828522e-02
-3.888933360576629639e-02
2.710716798901557922e-02
3.875858336687088013e-02
3.072032518684864044e-02
-2.764182863757014275e-03
5.718807689845561981e-03
-4.223633557558059692e-02
-2.149895206093788147e-02
-5.129402503371238708e-02
-1.011146791279315948e-02
-2.804270014166831970e-02
2.822093432769179344e-03
2.921883948147296906e-02
-5.160953477025032043e-02
-5.304992198944091797e-03
-2.296544983983039856e-02
2.247945778071880341e-02
3.055151179432868958e-02
-2.989904209971427917e-02
-2.328062430024147034e-02
-3.590679913759231567e-02
1.409975718706846237e-02
1.475840341299772263e-02
6.584791000932455063e-03
3.620025003328919411e-03
1.710021123290061951e-02
7.750385906547307968e-03
-4.092372953891754150e-02
-8.468809537589550018e-03
2.347506396472454071e-02
1.613519713282585144e-02
3.134461492300033569e-02
2.559977956116199493e-02
1.586867868900299072e-02
-4.167303908616304398e-03
-4.075987264513969421e-03
-3.720261156558990479e-03
-1.685371249914169312e-02
-2.478245086967945099e-02
-2.071390300989151001e-02
-4.047453403472900391e-03
1.164977066218852997e-02
3.397145867347717285e-02
-9.309392189607024193e-04
-3.842958807945251465e-02
3.430308029055595398e-02
-3.743402287364006042e-02
-2.457967773079872131e-02
3.147004544734954834e-02
-1.341627445071935654e-02
-3.617097064852714539e-02
1.765634864568710327e-03
-1.953308237716555595e-03
9.077981114387512207e-02
-3.767154738306999207e-02
1.534857042133808136e-02
4.051727801561355591e-02
2.694557048380374908e-02
-4.567293915897607803e-03
2.777040377259254456e-02
-4.387733712792396545e-02
-4.975165054202079773e-02
1.031985622830688953e-03
1.802391931414604187e-02
2.169026806950569153e-02
1.152363023720681667e-03
-3.158009052276611328e-02
-1.155427377671003342e-02
-3.993231430649757385e-02
-3.381805494427680969e-02
3.118097782135009766e-02
7.874294184148311615e-03
4.314499348402023315e-02
-1.905776932835578918e-02
1.021975092589855194e-02
3.408757969737052917e-03
-3.763060644268989563e-02
-2.006924152374267578e-02
-4.108055308461189270e-02
-5.348899960517883301e-02
3.118525817990303040e-02
3.943904116749763489e-02
1.144715119153261185e-02
1.838449272327125072e-03
-5.197473987936973572e-02
5.545806605368852615e-03
-5.402443557977676392e-02
3.863399475812911987e-02
2.175266854465007782e-02
2.961541712284088135e-02
2.345997467637062073e-02
1.149221509695053101e-02
3.056404180824756622e-02
-3.556246170774102211e-03
6.855083163827657700e-03
-1.402512751519680023e-02
-3.133005648851394653e-02
6.206307187676429749e-02
-4.847662150859832764e-02
-9.389787912368774414e-03
1.898761838674545288e-02
-1.197335962206125259e-02
6.787877995520830154e-03
5.212475359439849854e-02
9.621784090995788574e-03
-2.258666604757308960e-02
-4.312073066830635071e-02
-2.493099123239517212e-02
-2.634748630225658417e-02
-1.152710430324077606e-02
-3.614867478609085083e-02
-3.404174745082855225e-02
-1.805760711431503296e-02
2.834755927324295044e-02
-1.600987091660499573e-02
-2.898565866053104401e-02
-3.235617885366082191e-03
2.325628511607646942e-02
1.950378902256488800e-02
-9.233753196895122528e-03
1.796293817460536957e-02
-3.864265047013759613e-03
3.925037384033203125e-02
-1.714178919792175293e-02
-7.065074983984231949e-03
-2.463561296463012695e-02
2.992023248225450516e-03
-7.113229949027299881e-03
-3.673086315393447876e-02
-2.548550255596637726e-02
1.101421075873076916e-03
2.401074208319187164e-02
-6.416135467588901520e-03
-3.507712855935096741e-02
-4.805817455053329468e-02
9.802112355828285217e-03
5.218737572431564331e-02
-2.542386390268802643e-02
2.566231973469257355e-02
-9.367413818836212158e-03
-4.731859266757965088e-02
-2.026941068470478058e-02
1.742126233875751495e-02
-7.014566566795110703e-03
2.086834982037544250e-02
-2.976396493613719940e-02
4.226957634091377258e-02
-8.994377218186855316e-03
-2.145086415112018585e-02
7.259313482791185379e-03
1.812664605677127838e-02
6.281392648816108704e-03
-4.644763842225074768e-02
2.384197898209095001e-02
3.507393226027488708e-02
-3.697708621621131897e-02
-4.040495841763913631e-04
-1.572820171713829041e-02
1.425062865018844604e-02
1.341349910944700241e-02
-4.213459044694900513e-02
3.944569826126098633e-02
1.262885704636573792e-02
1.370404032059013844e-03
-8.995450480142608285e-05
-1.848782040178775787e-02
-3.329672291874885559e-02
-2.990047633647918701e-02
1.972021162509918213e-02
-1.411809306591749191e-02
8.928480558097362518e-03
-9.351705200970172882e-03
-1.868868619203567505e-02
5.532409250736236572e-02
-3.352943807840347290e-03
-4.019575659185647964e-03
3.491207212209701538e-02
-3.688424453139305115e-02
-3.356144577264785767e-02
1.960260793566703796e-02
4.381826147437095642e-02
-3.447863087058067322e-02
-6.175625696778297424e-02
-2.364290133118629456e-02
-5.430388823151588440e-02
-4.225526377558708191e-02
-3.652743622660636902e-02
1.699299179017543793e-02
1.953467493876814842e-03
-1.953642815351486206e-03
-1.581458561122417450e-02
1.783057488501071930e-02
4.173847381025552750e-03
9.125690907239913940e-03
4.070205241441726685e-02
1.893977262079715729e-02
5.319342017173767090e-02
-5.695857107639312744e-02
1.619724929332733154e-02
7.562244776636362076e-03
1.736066676676273346e-02
-4.053023830056190491e-02
-3.859685361385345459e-02
-1.145783998072147369e-02
-1.996748521924018860e-02
1.349784526973962784e-02
-4.845106601715087891e-02
-4.049246758222579956e-02
2.106209471821784973e-02
-3.209841204807162285e-03
-2.204684540629386902e-02
-4.135529045015573502e-03
6.580322049558162689e-03
-2.945575676858425140e-02
-1.265310775488615036e-02
2.689265832304954529e-02
1.236705388873815536e-02
-2.697370760142803192e-02
1.477897539734840393e-02
2.452702634036540985e-02
-4.528122395277023315e-02
-2.588988654315471649e-02
-1.969539374113082886e-02
-2.440546452999114990e-02
6.238633394241333008e-02
1.498557906597852707e-02
5.673161894083023071e-02
-2.403033711016178131e-02
4.518119152635335922e-03
-2.117624133825302124e-02
-3.898088634014129639e-02
-6.182697135955095291e-03
-1.693193241953849792e-02
-3.403867036104202271e-02
3.203764185309410095e-02
1.099482644349336624e-03
3.238151967525482178e-02
-2.700146101415157318e-02
-5.040756613016128540e-02
1.494016312062740326e-02
-5.028668045997619629e-02
1.764820888638496399e-02
-1.038372400216758251e-03
-2.839494682848453522e-02
3.402885049581527710e-03
-4.581389203667640686e-02
5.515493080019950867e-02
-3.868649899959564209e-02
-2.428734302520751953e-02
-2.409996092319488525e-02
2.762710489332675934e-02
1.245438680052757263e-02
-4.869323223829269409e-02
-3.564232960343360901e-02
1.023952942341566086e-02
1.372302416712045670e-02
4.364085569977760315e-02
1.847969181835651398e-02
1.096436660736799240e-02
-1.863490976393222809e-02
-1.593032293021678925e-02
-5.201795138418674469e-03
8.022027090191841125e-03
4.417913500219583511e-03
-1.711547002196311951e-02
-3.802172839641571045e-02
-1.056082663126289845e-03
-8.307105745188891888e-04
3.703546896576881409e-02
4.024556651711463928e-02
-5.319395661354064941e-02
2.309044823050498962e-02
2.780411392450332642e-03
-1.992045901715755463e-02
-2.471607364714145660e-02
3.446029871702194214e-02
-4.380542412400245667e-02
-2.543503977358341217e-02
-3.291943296790122986e-02
3.479607403278350830e-02
1.778181642293930054e-02
1.011286210268735886e-02
-1.086915843188762665e-02
5.911243148148059845e-03
-4.942055791616439819e-02
-2.241349220275878906e-02
2.749975211918354034e-02
-2.821124158799648285e-02
-5.254244431853294373e-02
-2.682022750377655029e-02
-2.062757872045040131e-02
2.375992573797702789e-02
4.482650011777877808e-02
1.592151820659637451e-02
5.942195653915405273e-02
1.313450094312429428e-02
1.049497723579406738e-02
1.913810335099697113e-02
-3.116469085216522217e-02
-3.179519250988960266e-02
3.629801049828529358e-02
-3.742079064249992371e-02
1.581101305782794952e-02
-5.643452703952789307e-02
5.115813761949539185e-02
7.243540603667497635e-03
5.221402738243341446e-03
-2.138498052954673767e-02
-4.162836819887161255e-03
-1.392378937453031540e-03
4.256897419691085815e-02
8.167225867509841919e-03
1.651208475232124329e-02
-3.213293105363845825e-02
-5.150417238473892212e-02
6.903615780174732208e-03
4.717098176479339600e-02
-8.787992410361766815e-03
4.116436839103698730e-02
2.827027067542076111e-02
1.389066129922866821e-02
-4.575588181614875793e-02
2.049877308309078217e-02
-2.535534277558326721e-02
-6.628608796745538712e-03
2.200932241976261139e-02
3.311564028263092041e-02
-9.332584217190742493e-03
1.868725754320621490e-02
-1.287280581891536713e-02
-1.547072175890207291e-02
1.377140916883945465e-02
2.753061428666114807e-02
-4.041030257940292358e-02
1.568323187530040741e-02
-2.934286557137966156e-02
1.971540506929159164e-03
-1.285747811198234558e-02
-3.469640389084815979e-02
4.982772748917341232e-03
1.065054163336753845e-02
-4.870703443884849548e-02
1.449550502002239227e-02
3.742425516247749329e-02
8.248800411820411682e-03
-4.749639704823493958e-02
-8.738043718039989471e-03
9.605471976101398468e-03
1.555882021784782410e-02
1.942114438861608505e-03
-1.011022180318832397e-02
2.212544530630111694e-02
-5.357766151428222656e-02
-4.108833149075508118e-02
-2.979693002998828888e-02
8.984690532088279724e-03
-2.100126631557941437e-02
-7.563214749097824097e-02
-9.753667749464511871e-03
-9.916882961988449097e-03
-4.041848331689834595e-02
3.503175824880599976e-02
2.874776348471641541e-02
2.368297241628170013e-02
-5.617262423038482666e-02
6.770602776668965816e-04
-8.793060667812824249e-03
-4.003328830003738403e-02
-1.266268268227577209e-02
-2.381997369229793549e-02
-5.570119246840476990e-03
1.243802718818187714e-02
8.329313248395919800e-03
-2.538631670176982880e-02
-1.837844401597976685e-02
-1.538060232996940613e-02
2.782725915312767029e-02
3.175950795412063599e-02
-2.193522080779075623e-02
-5.388828739523887634e-02
-6.077815219759941101e-02
-7.761206477880477905e-03
1.905037835240364075e-02
-1.622430235147476196e-02
-2.598557621240615845e-02
1.584092341363430023e-02
-4.234348982572555542e-02
-2.910535782575607300e-02
1.899223215878009796e-02
1.639669388532638550e-02
-1.614104839973151684e-03
2.562002837657928467e-02
-4.625882580876350403e-02
3.027389384806156158e-02
-4.308015853166580200e-02
2.130000293254852295e-02
-4.100900143384933472e-02
-1.972574181854724884e-02
-2.495941007509827614e-03
-3.340262547135353088e-02
-4.826661199331283569e-02
1.919105648994445801e-02
1.909302175045013428e-02
-4.849568009376525879e-02
-5.085307057015597820e-04
-3.859407454729080200e-02
3.071624785661697388e-02
-4.322490468621253967e-02
4.350252076983451843e-02
-1.251374930143356323e-02
-7.965431548655033112e-03
-2.408675849437713623e-02
-5.043127387762069702e-02
-1.216620323248207569e-03
2.744308672845363617e-02
1.980762928724288940e-02
-1.410536561161279678e-02
3.330476582050323486e-02
-4.424031358212232590e-03
-2.820647694170475006e-02
-4.350139573216438293e-02
1.819597929716110229e-02
2.717475173994898796e-03
-1.631710305809974670e-02
-1.150856446474790573e-02
-6.054630968719720840e-03
-1.910036429762840271e-02
-3.995423391461372375e-02
-2.028394676744937897e-02
-1.915345340967178345e-02
-2.242596354335546494e-03
2.465618960559368134e-02
6.404532119631767273e-03
-1.289570331573486328e-02
-3.288425877690315247e-02
-3.000568039715290070e-02
-4.844232648611068726e-02
3.645919263362884521e-02
2.586690522730350494e-02
3.779229894280433655e-02
3.117730142548680305e-03
-1.123756635934114456e-02
1.026094518601894379e-02
8.954616263508796692e-03
-4.474508017301559448e-02
-5.775650590658187866e-02
-8.981934748589992523e-03
2.066275663673877716e-02
-5.531543865799903870e-02
3.796279802918434143e-02
4.321354255080223083e-02
-3.228353708982467651e-02
1.819923706352710724e-02
-3.456752002239227295e-02
-5.778316874057054520e-03
-4.388947412371635437e-02
-2.404296584427356720e-02
1.437331642955541611e-02
3.944054711610078812e-03
4.626893624663352966e-02
-4.162252321839332581e-02
-5.358900874853134155e-02
2.797796949744224548e-02
8.470242843031883240e-03
-1.290401909500360489e-02
1.316759362816810608e-02
3.891878575086593628e-02
9.072449058294296265e-03
-4.312951490283012390e-02
1.451652683317661285e-02
1.921021938323974609e-02
-3.864239901304244995e-02
2.809704467654228210e-02
-5.475878715515136719e-03
1.529438979923725128e-02
9.333896741736680269e-05
-4.411225765943527222e-02
5.457368120551109314e-02
-6.256923545151948929e-03
3.342547267675399780e-02
-3.034434514120221138e-03
-2.030722610652446747e-02
-3.304932266473770142e-02
-2.341588959097862244e-03
5.022113397717475891e-02
-1.675178855657577515e-02
2.771942690014839172e-02
1.798610016703605652e-02
-7.885990664362907410e-03
-5.105683114379644394e-03
-3.614574437960982323e-03
6.564661115407943726e-02
-2.529237605631351471e-02
3.488725423812866211e-02
-6.736182421445846558e-02
1.032700203359127045e-02
1.133204530924558640e-02
-6.721591111272573471e-03
1.631005294620990753e-02
-2.706829458475112915e-02
2.369947358965873718e-02
2.888487838208675385e-02
6.771640852093696594e-03
2.836500853300094604e-02
3.448817878961563110e-02
-3.174490109086036682e-02
4.935735836625099182e-03
-3.240323392674326897e-03
5.583496019244194031e-02
-3.281597793102264404e-02
-2.153952978551387787e-02
-4.952982440590858459e-02
-1.681444235146045685e-02
-4.071874171495437622e-02
5.487836524844169617e-02
-3.370134532451629639e-02
3.096100129187107086e-02
-5.906656756997108459e-02
9.708243422210216522e-03
5.273627489805221558e-02
-3.654605150222778320e-02
8.063894347287714481e-04
2.500910498201847076e-02
-1.729923486709594727e-02
5.231560207903385162e-03
-5.042478442192077637e-02
4.028119891881942749e-02
-1.064546965062618256e-02
-2.811255864799022675e-02
-1.574452407658100128e-02
4.974279552698135376e-03
-1.627117954194545746e-02
-2.803857903927564621e-03
1.073587918654084206e-03
-4.372688010334968567e-02
-9.478572756052017212e-04
-5.429142620414495468e-03
3.764511644840240479e-02
1.111614797264337540e-02
1.336666848510503769e-02
1.443400792777538300e-02
5.415232386440038681e-03
2.635664120316505432e-02
7.620941847562789917e-03
1.739495620131492615e-02
4.459333140403032303e-03
-3.576680645346641541e-02
-4.445344954729080200e-02
-2.500910870730876923e-02
-2.806838788092136383e-02
-4.581019748002290726e-03
1.136427372694015503e-02
-3.316435962915420532e-02
3.694934397935867310e-02
3.209124132990837097e-02
-2.352740801870822906e-02
-3.343408554792404175e-02
2.683657966554164886e-02
-2.819895930588245392e-02
1.332771405577659607e-02
-5.884378682821989059e-03
-3.447610884904861450e-02
1.834703795611858368e-02
-4.152798280119895935e-02
9.751507081091403961e-03
-2.164273150265216827e-02
-9.277750737965106964e-03
6.623470690101385117e-04
-2.722450532019138336e-02
2.231931500136852264e-02
-3.392833843827247620e-02
-4.870862513780593872e-02
-2.838716283440589905e-02
-4.317180439829826355e-02
2.041675522923469543e-02
-4.742997139692306519e-02
2.524956874549388885e-02
2.575113251805305481e-02
4.103610292077064514e-02
1.834286190569400787e-02
-1.628405414521694183e-02
4.110538586974143982e-02
3.403888270258903503e-02
-5.512156523764133453e-03
3.105633333325386047e-02
-3.060379810631275177e-02
2.221655473113059998e-02
4.251213744282722473e-02
-2.429688349366188049e-02
9.227044880390167236e-03
-2.679392695426940918e-02
-7.719814893789589405e-04
-2.701396681368350983e-02
-2.322156168520450592e-02
-4.493442177772521973e-02
-4.260074347257614136e-02
-7.713126018643379211e-03
3.772644558921456337e-03
-2.050582692027091980e-02
6.134260445833206177e-03
3.536653146147727966e-02
-2.169633097946643829e-02
-4.840103536844253540e-02
1.409101951867341995e-02
-2.121075242757797241e-02
-2.663450688123703003e-02
-6.618181942030787468e-04
2.065453305840492249e-02
-1.659254729747772217e-02
3.385738935321569443e-03
-4.848125390708446503e-03
3.708072006702423096e-02
-2.077860524877905846e-03
-2.779834531247615814e-02
-3.957213088870048523e-02
8.985350839793682098e-03
2.122118882834911346e-02
-3.341028094291687012e-02
6.732186884619295597e-04
2.753412909805774689e-02
-8.681079372763633728e-03
-3.291635587811470032e-02
-3.073114715516567230e-02
-9.977439418435096741e-03
2.037208154797554016e-02
4.542441107332706451e-03
4.783833399415016174e-02
-6.255819927901029587e-03
-1.108883600682020187e-02
-9.883542545139789581e-03
-3.625873476266860962e-02
-2.372475899755954742e-02
2.355801500380039215e-02
2.944468334317207336e-02
4.018183052539825439e-02
1.813608035445213318e-02
-3.455578163266181946e-02
-3.913656249642372131e-02
2.641804888844490051e-02
-5.184813588857650757e-02
2.953031845390796661e-02
3.513813391327857971e-02
4.762697964906692505e-02
-9.408200159668922424e-03
6.219051312655210495e-03
-2.331268787384033203e-02
4.507145658135414124e-02
-2.808266691863536835e-02
6.828174740076065063e-02
9.955663233995437622e-03
-1.228058361448347569e-03
-2.864777483046054840e-02
1.564034447073936462e-02
1.364546082913875580e-02
2.849806472659111023e-02
1.088996534235775471e-03
-3.645246103405952454e-02
-2.718646824359893799e-02
8.954014629125595093e-03
1.425486151129007339e-02
-2.810868620872497559e-02
-3.506115823984146118e-02
-1.188970170915126801e-02
-7.103611715137958527e-03
-3.952348232269287109e-02
-4.466200247406959534e-02
-2.526133507490158081e-02
2.920778281986713409e-02
1.770902983844280243e-02
1.369306445121765137e-02
1.010134816169738770e-02
-2.700473740696907043e-02
-1.316879410296678543e-02
-1.473119948059320450e-02
-1.332306116819381714e-02
-8.702501654624938965e-03
-6.483807228505611420e-03
2.401910349726676941e-02
1.031395979225635529e-02
-3.392979875206947327e-02
-2.784190140664577484e-02
-3.705348074436187744e-02
-1.192140858620405197e-02
4.517740104347467422e-03
-7.894371636211872101e-03
1.622255891561508179e-02
-3.650990873575210571e-02
-2.863630093634128571e-02
-2.571753039956092834e-02
2.523343823850154877e-02
-4.248593002557754517e-02
2.932044491171836853e-02
3.539372235536575317e-02
3.310684114694595337e-02
9.503304027020931244e-03
2.333622239530086517e-02
1.897695101797580719e-02
-2.775829844176769257e-02
-3.239201381802558899e-02
-1.929750479757785797e-02
2.314707264304161072e-03
4.227640107274055481e-03
-1.860479451715946198e-02
7.769437041133642197e-03
4.300883412361145020e-02
-2.849813736975193024e-02
4.235545173287391663e-02
-2.891308814287185669e-02
-2.136946283280849457e-02
-2.962204068899154663e-02
-5.360028147697448730e-02
-2.313153631985187531e-02
1.609971374273300171e-02
-1.608659513294696808e-02
-3.589676320552825928e-02
3.453768417239189148e-02
-4.697275348007678986e-03
-1.858677528798580170e-02
-3.385854884982109070e-02
9.884970262646675110e-03
-2.664029889274388552e-04
3.971063718199729919e-02
1.768711581826210022e-02
2.365422993898391724e-02
-3.487116470932960510e-02
3.195783868432044983e-02
7.346511352807283401e-03
4.197121597826480865e-03
1.509373425506055355e-03
4.442365095019340515e-02
1.337627787142992020e-02
8.631055243313312531e-03
3.414377942681312561e-02
1.829480938613414764e-02
-1.854908466339111328e-02
2.696868591010570526e-02
-2.746846899390220642e-02
-4.276457428932189941e-02
2.353807911276817322e-02
-2.821850962936878204e-02
-2.831782400608062744e-02
-2.688114903867244720e-02
-4.162352532148361206e-02
-4.998017847537994385e-02
3.648466244339942932e-02
1.358540449291467667e-02
2.900137566030025482e-02
3.090316988527774811e-02
4.415381699800491333e-02
-3.203023970127105713e-02
-2.547033503651618958e-02
-2.923430129885673523e-02
1.399115752428770065e-02
9.049776010215282440e-03
-1.794985309243202209e-02
-1.906990446150302887e-02
3.245544061064720154e-02
-3.232138231396675110e-02
2.850770950317382812e-03
-2.459582127630710602e-02
4.403221607208251953e-02
5.029200017452239990e-02
-2.273274399340152740e-02
-3.334096074104309082e-02
-1.260311994701623917e-02
-3.152318298816680908e-02
2.304321900010108948e-02
8.559084497392177582e-03
-1.135409716516733170e-02
4.475625976920127869e-02
-8.378785103559494019e-03
6.338875275105237961e-03
-1.304924581199884415e-02
-1.026520913001149893e-04
-4.318045685067772865e-04
6.095903739333152771e-02
-7.384450640529394150e-03
-3.916749265044927597e-03
-3.617619350552558899e-02
-1.914015598595142365e-02
-2.000406943261623383e-02
4.089831840246915817e-03
-1.387305185198783875e-02
-3.396475687623023987e-02
-2.836670912802219391e-02
-3.035110654309391975e-03
-2.540849149227142334e-02
-4.456330463290214539e-02
-3.981601819396018982e-02
4.036170244216918945e-02
-7.326053455471992493e-03
2.894274704158306122e-02
-1.795273832976818085e-02
5.349764227867126465e-02
1.002632826566696167e-02
-1.203055493533611298e-02
2.599067753180861473e-03
7.951041683554649353e-03
-2.799219079315662384e-02
-1.305839419364929199e-02
-8.899984881281852722e-03
2.933798730373382568e-02
-7.677048444747924805e-03
-1.097494363784790039e-02
4.845690727233886719e-02
1.806471310555934906e-02
3.149898722767829895e-02
3.473375365138053894e-02
-2.037964202463626862e-02
-4.033312574028968811e-02
3.464317694306373596e-02
-3.150961548089981079e-02
-2.845290116965770721e-02
-4.586062207818031311e-02
3.151610121130943298e-02
1.514828391373157501e-02
3.023108094930648804e-02
-3.689059987664222717e-02
8.144483901560306549e-03
1.587775535881519318e-02
-2.745668031275272369e-02
-1.614659652113914490e-02
-2.815844491124153137e-02
1.031749881803989410e-02
-3.519395366311073303e-02
4.313059151172637939e-02
2.548042498528957367e-02
-5.151893198490142822e-02
-1.968332380056381226e-02
4.461497440934181213e-02
1.690648123621940613e-02
4.012736678123474121e-02
4.931623861193656921e-02
-3.488966077566146851e-02
-3.793296869844198227e-03
2.356652542948722839e-02
1.780329458415508270e-02
2.971905283629894257e-02
1.517106685787439346e-02
1.935497857630252838e-02
-1.823209039866924286e-02
1.220745407044887543e-02
-2.087192609906196594e-02
3.602064773440361023e-02
-3.472476080060005188e-02
3.200390189886093140e-02
3.141600638628005981e-02
-2.556864055804908276e-04
-1.783210039138793945e-02
3.286881372332572937e-02
2.203380875289440155e-02
6.192965805530548096e-02
3.780135884881019592e-02
-6.684560212306678295e-04
-8.827373385429382324e-03
-1.120148785412311554e-02
-4.615062102675437927e-02
-6.910850759595632553e-03
-4.440981522202491760e-02
-2.807298488914966583e-02
-1.852240599691867828e-02
4.321718961000442505e-02
-1.701206527650356293e-02
3.351804614067077637e-02
-4.517947509884834290e-02
-4.338590800762176514e-02
3.688357770442962646e-02
-2.701328322291374207e-02
3.136584535241127014e-02
-2.571274340152740479e-02
-2.650700323283672333e-02
-1.361313741654157639e-02
2.379785291850566864e-03
3.101318515837192535e-02
-4.270224645733833313e-02
2.982270903885364532e-02
-3.050945140421390533e-02
-5.292509496212005615e-02
-2.761179348453879356e-03
-3.832122310996055603e-02
3.701891005039215088e-02
1.473782956600189209e-02
-2.850976772606372833e-02
-2.287409268319606781e-02
-2.193388901650905609e-02
-3.927583247423171997e-02
3.529393300414085388e-02
-3.378973901271820068e-02
7.703125476837158203e-03
3.751830384135246277e-02
1.133426092565059662e-02
5.127742420881986618e-03
-2.357916161417961121e-02
-2.589891478419303894e-02
-4.416374117136001587e-02
3.665413334965705872e-02
-2.688000723719596863e-02
-2.668689563870429993e-02
-3.363729268312454224e-02
-2.079422026872634888e-02
-2.886897418648004532e-03
2.892805635929107666e-02
2.893833070993423462e-02
8.859884925186634064e-03
4.539479315280914307e-02
-1.568743586540222168e-02
-3.579965978860855103e-02
1.081923302263021469e-02
-1.548820175230503082e-02
-9.963126853108406067e-03
2.478682063519954681e-02
1.753603294491767883e-02
-2.375435456633567810e-02
3.869829699397087097e-02
-4.478055611252784729e-02
1.160330977290868759e-02
1.676943711936473846e-02
-3.847399726510047913e-02
3.192438278347253799e-03
1.243278197944164276e-02
-9.418250061571598053e-03
-3.748663142323493958e-02
-1.625651866197586060e-02
-2.711246907711029053e-02
-1.858230866491794586e-02
1.115066092461347580e-02
-2.950554713606834412e-02
-1.600254885852336884e-02
1.507359091192483902e-02
3.417297452688217163e-02
4.363980609923601151e-03
1.586649101227521896e-03
-8.893511258065700531e-03
1.879797503352165222e-02
-2.870692126452922821e-02
5.789120215922594070e-03
-1.699934899806976318e-02
-3.353402251377701759e-03
-2.094972506165504456e-02
-3.632155060768127441e-02
1.824082247912883759e-02
-2.305198647081851959e-02
-6.550363468704745173e-05
-3.136694058775901794e-02
3.067227080464363098e-02
-2.438400126993656158e-02
-3.385127708315849304e-02
2.512046135962009430e-02
-5.052723735570907593e-02
2.455323748290538788e-02
-8.666750043630599976e-03
-1.099496800452470779e-02
3.252220898866653442e-02
-3.802548721432685852e-02
-2.108975080773234367e-03
3.374493494629859924e-02
-7.246663328260183334e-03
-2.941076643764972687e-02
2.055063098669052124e-02
1.958758570253849030e-02
-5.055290460586547852e-02
1.739923097193241119e-02
-8.114155381917953491e-03
-3.288850933313369751e-02
-2.615144103765487671e-02
1.521993987262248993e-02
1.784177613444626331e-03
-2.242529392242431641e-02
-8.227217942476272583e-03
-6.129368208348751068e-03
4.271165654063224792e-02
2.011558227241039276e-02
-1.606830582022666931e-02
9.166453033685684204e-03
4.010800272226333618e-03
-3.726306185126304626e-02
4.295626655220985413e-02
1.137717813253402710e-02
-4.405416175723075867e-02
6.961993873119354248e-03
2.058172971010208130e-02
3.318488225340843201e-02
4.521140363067388535e-03
-5.058081448078155518e-02
-2.898264303803443909e-02
-4.668489098548889160e-03
3.551077470183372498e-02
-3.766192495822906494e-02
-1.819006167352199554e-02
3.441717848181724548e-02
-5.887234117835760117e-03
2.121657691895961761e-02
-4.217101726680994034e-03
5.001184716820716858e-02
3.498983383178710938e-02
-2.999771758913993835e-02
3.566909208893775940e-02
4.840084910392761230e-02
-4.413904622197151184e-02
-1.296126004308462143e-02
1.399724930524826050e-02
-2.113966643810272217e-02
6.968829315155744553e-03
-8.345819078385829926e-03
4.186196625232696533e-02
1.928898505866527557e-02
-3.370023146271705627e-02
3.493982926011085510e-02
-4.642846994102001190e-03
7.068077474832534790e-02
5.686572194099426270e-02
3.293487476184964180e-03
-1.667166687548160553e-02
-1.248820312321186066e-02
8.021457120776176453e-03
1.723010092973709106e-02
-3.952468614443205297e-05
3.341400250792503357e-02
2.706027962267398834e-02
5.209303647279739380e-02
-8.374692872166633606e-03
1.274781301617622375e-02
2.581450529396533966e-02
-4.537297412753105164e-02
1.944126561284065247e-02
-2.308497391641139984e-02
3.405962139368057251e-02
-2.902942942455410957e-03
1.016710139811038971e-02
3.484562970697879791e-03
2.771851141005754471e-03
3.787707537412643433e-02
6.294162012636661530e-03
5.180415138602256775e-02
2.693789079785346985e-03
-1.329850964248180389e-02
3.322704462334513664e-03
1.672612503170967102e-02
-7.408021017909049988e-03
3.888077661395072937e-02
4.600571468472480774e-02
-4.756740108132362366e-02
-2.871448174118995667e-02
1.965693756937980652e-02
-3.249731659889221191e-02
-2.041564509272575378e-02
-2.532366290688514709e-02
2.316879481077194214e-02
-1.985896565020084381e-02
8.926781825721263885e-03
2.394610317423939705e-03
-1.578881591558456421e-02
-1.044043805450201035e-02
4.022981971502304077e-03
2.470584027469158173e-02
-1.220684684813022614e-02
-1.905653439462184906e-02
-8.510945364832878113e-03
5.138459149748086929e-03
-2.040703967213630676e-02
-2.168072015047073364e-02
-2.888802252709865570e-02
4.187623411417007446e-02
4.060759209096431732e-03
-3.233522176742553711e-02
-2.374918013811111450e-02
-4.320967569947242737e-02
-3.491910872980952263e-03
-1.662567071616649628e-02
1.846198737621307373e-02
-3.441087901592254639e-02
8.913834579288959503e-03
-1.101664267480373383e-02
-2.025658264756202698e-02
-2.033887431025505066e-02
1.299686543643474579e-02
-4.186909273266792297e-02
-4.192199558019638062e-02
-1.483045332133769989e-02
2.003875933587551117e-02
-6.296463776379823685e-03
-1.929725147783756256e-02
1.291917916387319565e-02
-1.509496010839939117e-03
3.766894340515136719e-02
2.548280358314514160e-02
-3.536938503384590149e-02
2.434216439723968506e-02
2.254687063395977020e-02
3.418380022048950195e-02
3.126580268144607544e-02
-3.306738799437880516e-03
-7.256682496517896652e-03
2.480815909802913666e-02
-2.810540795326232910e-02
-4.317998886108398438e-02
3.820990771055221558e-02
-1.103446446359157562e-02
6.653193384408950806e-03
-1.017033774405717850e-02
-3.467734530568122864e-02
-2.706798352301120758e-02
1.998599991202354431e-02
-3.782535786740481853e-04
-1.141129154711961746e-02
9.542561136186122894e-03
-9.381377138197422028e-03
8.246812038123607635e-03
3.157840296626091003e-02
-1.439086254686117172e-02
-3.335380181670188904e-02
1.520662475377321243e-02
-2.929473854601383209e-02
3.039303049445152283e-02
1.339603587985038757e-02
1.803346909582614899e-02
-3.334225714206695557e-02
1.821485813707113266e-03
4.233141615986824036e-02
-6.156127899885177612e-03
6.541611161082983017e-03
6.905774585902690887e-03
-3.665455430746078491e-02
4.961789771914482117e-02
-2.279238775372505188e-02
1.174177136272192001e-02
3.971658274531364441e-02
-2.744057029485702515e-02
1.008112356066703796e-02
1.008340064436197281e-02
2.829080261290073395e-02
-1.451407093554735184e-02
5.350747145712375641e-03
3.730195015668869019e-02
-2.160322479903697968e-02
2.800022624433040619e-02
2.271815575659275055e-02
-2.028482221066951752e-02
4.822000395506620407e-03
2.481776289641857147e-02
2.887972816824913025e-02
-2.207521721720695496e-02
-9.514478035271167755e-03
-3.749095648527145386e-02
3.787767142057418823e-02
-3.463329747319221497e-02
3.458024188876152039e-02
-1.043240539729595184e-02
-7.225831504911184311e-03
-5.461637675762176514e-02
-3.582144528627395630e-02
-5.158882122486829758e-04
-1.300948765128850937e-02
2.825234644114971161e-02
3.504905849695205688e-02
-3.834638372063636780e-02
6.229691207408905029e-04
-1.621965505182743073e-02
-4.865405336022377014e-02
5.447657313197851181e-03
5.572382942773401737e-04
4.615067318081855774e-02
1.959255523979663849e-02
2.886433340609073639e-02
-1.670360378921031952e-02
-9.736089967191219330e-03
-2.641400881111621857e-02
2.867944724857807159e-02
-1.214242540299892426e-02
1.625342410989105701e-03
-3.108151024207472801e-03
-1.351437810808420181e-02
-3.140050917863845825e-02
3.315763175487518311e-02
-4.054487869143486023e-02
1.025113370269536972e-02
-8.799743838608264923e-03
2.805407531559467316e-02
5.647111684083938599e-02
5.019292607903480530e-02
3.951111808419227600e-02
6.089491769671440125e-02
-1.342087425291538239e-02
1.889084279537200928e-02
-3.884228318929672241e-02
-4.045687615871429443e-02
-3.551589697599411011e-02
1.255908422172069550e-02
2.116431482136249542e-02
-1.521061547100543976e-02
-2.422482520341873169e-02
-2.457031980156898499e-02
-4.635733366012573242e-02
3.637063130736351013e-02
2.209765091538429260e-02
-7.708397228270769119e-03
5.819289945065975189e-03
2.792591042816638947e-02
4.390149936079978943e-02
-5.679230671375989914e-03
-1.366070099174976349e-02
1.484509650617837906e-02
-2.957385964691638947e-02
4.579386487603187561e-02
-2.236233279109001160e-02
5.611427128314971924e-02
1.849567890167236328e-02
3.657159209251403809e-02
-2.330410853028297424e-02
1.541598979383707047e-02
-3.796561807394027710e-02
4.267605021595954895e-02
-4.077077656984329224e-02
5.493723973631858826e-02
4.582727700471878052e-02
1.817422732710838318e-02
4.812337830662727356e-02
1.065756939351558685e-02
-1.385834999382495880e-02
4.920554161071777344e-02
-2.093658596277236938e-02
1.637468300759792328e-02
4.354931786656379700e-02
-1.849523512646555901e-03
2.662586420774459839e-02
-4.783411324024200439e-02
4.703881219029426575e-02
-5.237550660967826843e-02
-3.014024160802364349e-02
-1.145636383444070816e-02
3.465953469276428223e-02
-4.250568151473999023e-02
1.294905971735715866e-02
2.802573330700397491e-02
-9.606771171092987061e-03
-5.186554789543151855e-02
1.649127900600433350e-02
4.506837949156761169e-02
-1.716158911585807800e-02
2.293104492127895355e-02
5.147994309663772583e-02
-3.422697633504867554e-02
3.710772842168807983e-03
-1.231166627258062363e-02
8.027254603803157806e-03
2.454470284283161163e-02
2.584680169820785522e-02
1.262087188661098480e-02
5.470266193151473999e-02
-8.721664547920227051e-03
6.096846610307693481e-02
-1.224700082093477249e-02
1.519045978784561157e-02
-3.275433927774429321e-02
-4.657308757305145264e-02
-4.308264702558517456e-02
4.356906190514564514e-02
3.225478902459144592e-02
2.392034232616424561e-02
-3.164349123835563660e-02
1.465190760791301727e-02
-8.024276234209537506e-03
-3.625792637467384338e-02
-8.561435155570507050e-03
1.806082390248775482e-02
4.691188037395477295e-02
-2.315749600529670715e-02
1.578128524124622345e-02
-2.260495722293853760e-02
2.638601325452327728e-02
3.650199621915817261e-02
-2.191400714218616486e-02
-4.614660143852233887e-02
2.720955200493335724e-02
4.486345499753952026e-02
-1.882285065948963165e-02
-4.084143415093421936e-02
-5.560635690926574171e-05
1.561719458550214767e-02
2.809314429759979248e-02
3.136518970131874084e-02
-3.203904628753662109e-02
1.535744988359510899e-03
3.418714040890336037e-03
5.152786150574684143e-02
2.546754106879234314e-02
4.734720289707183838e-02
-2.636365033686161041e-02
6.384016945958137512e-03
-1.892210729420185089e-02
-1.776835322380065918e-02
1.155343092978000641e-02
-4.591577127575874329e-02
1.826860755681991577e-02
-2.388290304224938154e-04
1.720228046178817749e-02
1.658440334722399712e-03
1.053539477288722992e-02
-1.166787836700677872e-02
-2.139757573604583740e-02
1.418414339423179626e-02
2.893656957894563675e-03
-2.731178514659404755e-02
-4.392255470156669617e-02
1.136710122227668762e-02
4.827597737312316895e-02
-2.639356814324855804e-02
-4.029554873704910278e-02
4.511123988777399063e-03
2.377944998443126678e-02
3.882086649537086487e-02
-2.805666811764240265e-02
-1.977287419140338898e-02
-4.364827275276184082e-02
2.575215324759483337e-02
-4.612338170409202576e-02
3.201697394251823425e-02
1.777621731162071228e-02
-5.859518423676490784e-02
-3.541062027215957642e-02
-4.581082984805107117e-02
2.695876406505703926e-03
-4.197934642434120178e-02
-2.188949100673198700e-02
2.501483447849750519e-02
-9.540885686874389648e-03
-1.157229859381914139e-02
-1.324549131095409393e-02
1.923479326069355011e-02
-1.714560389518737793e-02
4.102775454521179199e-02
-8.850541897118091583e-03
-4.252342507243156433e-02
-3.271201625466346741e-02
-3.062600456178188324e-02
3.221104294061660767e-02
-2.577479463070631027e-03
-4.474638029932975769e-02
-4.423204809427261353e-02
-3.651558607816696167e-02
1.990118622779846191e-02
4.602273181080818176e-02
-4.195040091872215271e-02
2.856405079364776611e-02
3.191613033413887024e-02
-3.892682865262031555e-02
3.792420402169227600e-02
-2.466629957780241966e-03
4.551040008664131165e-02
2.888504415750503540e-02
-2.317436039447784424e-03
-4.297861456871032715e-02
-2.005427330732345581e-02
8.761451463215053082e-04
-6.147387623786926270e-02
1.939806155860424042e-03
2.112493664026260376e-02
-4.506530612707138062e-02
3.421263769268989563e-02
3.064350225031375885e-02
-4.068312793970108032e-02
-1.971394382417201996e-02
1.396208163350820541e-02
4.111446905881166458e-03
-1.759681105613708496e-02
3.810766339302062988e-02
-5.912205670028924942e-04
3.469613939523696899e-02
-1.029517780989408493e-02
-5.900113284587860107e-02
-3.160391375422477722e-02
3.988878428936004639e-02
-2.463010698556900024e-02
-4.918004944920539856e-02
2.876603975892066956e-02
7.901674136519432068e-03
-1.790690352208912373e-03
-3.694680333137512207e-02
7.358674192801117897e-04
1.463894639164209366e-02
-1.492969412356615067e-02
-3.696602210402488708e-02
3.161441534757614136e-02
4.620582610368728638e-02
1.494118012487888336e-02
-1.135965809226036072e-02
-4.806329309940338135e-02
-5.934049561619758606e-02
-2.677037194371223450e-02
5.069881211966276169e-03
-4.449617862701416016e-02
1.532851718366146088e-02
2.517227642238140106e-02
1.858855946920812130e-03
-3.071991913020610809e-02
-6.978154182434082031e-03
-3.938768059015274048e-02
-2.673101425170898438e-02
3.433707635849714279e-03
-8.775814436376094818e-03
-3.274310845881700516e-03
2.148522250354290009e-02
6.893120706081390381e-02
-5.704785883426666260e-02
-1.659119850955903530e-03
5.881019867956638336e-03
1.248805318027734756e-02
-3.015674883499741554e-03
2.173454128205776215e-02
1.933215558528900146e-02
-8.700710721313953400e-03
-1.655967906117439270e-02
4.789498820900917053e-02
2.446421235799789429e-02
2.612155862152576447e-02
2.903037890791893005e-02
-3.278090804815292358e-02
-3.348129615187644958e-02
-5.359481647610664368e-02
-2.012388780713081360e-02
3.060740418732166290e-02
-1.064860168844461441e-02
3.243561834096908569e-02
-1.168764289468526840e-02
-3.954712301492691040e-02
-2.508290112018585205e-02
-1.615332998335361481e-02
-8.710109628736972809e-03
-3.556425124406814575e-02
4.436169937252998352e-02
-4.275900125503540039e-02
-1.790057495236396790e-02
-1.447068620473146439e-02
-1.250384934246540070e-02
5.111417174339294434e-02
-3.788408264517784119e-02
-3.852214664220809937e-02
-4.290034994482994080e-02
-4.651493951678276062e-02
3.880573809146881104e-02
4.960426595062017441e-03
2.376447245478630066e-02
-1.508315373212099075e-02
5.275370925664901733e-02
5.832127761095762253e-03
-3.236167132854461670e-02
7.356473710387945175e-03
8.838601643219590187e-04
-8.137854747474193573e-03
5.334378220140933990e-03
-4.911341145634651184e-02
2.947198785841464996e-02
2.509207464754581451e-02
5.815269425511360168e-03
-4.569515585899353027e-02
3.766984865069389343e-02
1.768200099468231201e-02
3.516739606857299805e-02
1.211426686495542526e-02
-5.625955760478973389e-02
-5.175482854247093201e-02
-9.526704438030719757e-03
-2.200556173920631409e-02
-3.030684776604175568e-02
5.363552365452051163e-03
3.667658939957618713e-02
-2.627897262573242188e-02
2.859825454652309418e-02
-3.103251382708549500e-02
4.118904098868370056e-02
-8.820420131087303162e-03
-3.910846635699272156e-02
-4.441984742879867554e-02
1.782546751201152802e-02
-1.367768272757530212e-02
-1.378903072327375412e-02
2.461032569408416748e-02
-1.698414236307144165e-02
1.673450507223606110e-02
1.370894536375999451e-02
3.389339148998260498e-02
2.505577635020017624e-03
4.105664417147636414e-02
1.021490525454282761e-02
-2.613468095660209656e-02
-3.588817268610000610e-02
-1.893741451203823090e-02
2.803986519575119019e-02
-5.872921086847782135e-03
-4.072801675647497177e-03
1.911634206771850586e-02
1.545761525630950928e-02
-5.882712826132774353e-02
-9.343195706605911255e-03
-4.932804778218269348e-02
1.820632442831993103e-02
-3.947944566607475281e-02
1.743791066110134125e-02
4.170939326286315918e-02
1.737663894891738892e-02
1.187131647020578384e-02
2.321741543710231781e-02
-3.105817548930644989e-02
3.143360465764999390e-02
-6.958547513931989670e-03
-1.166126318275928497e-02
7.261759601533412933e-03
3.401688486337661743e-02
-4.660491272807121277e-02
2.920817956328392029e-02
2.637022698763757944e-04
3.989928215742111206e-02
-2.399036474525928497e-02
-5.887046828866004944e-02
1.729671843349933624e-02
1.923358067870140076e-02
-1.448793057352304459e-02
-9.381878189742565155e-03
5.072522908449172974e-02
1.273392140865325928e-02
-2.683042734861373901e-02
-9.055337868630886078e-03
-8.935432881116867065e-03
4.931197687983512878e-02
2.766194194555282593e-02
5.059748888015747070e-03
1.429636310786008835e-02
-1.535980962216854095e-02
-2.063512615859508514e-02
-1.748824492096900940e-02
2.328665554523468018e-02
-2.334754541516304016e-02
-2.044958993792533875e-02
-1.727559976279735565e-02
-2.130724117159843445e-02
-6.341607309877872467e-03
-1.670096442103385925e-02
-1.545262616127729416e-02
2.790648723021149635e-03
-1.114524714648723602e-02
3.761039813980460167e-03
6.291623692959547043e-03
-1.054525095969438553e-02
6.647674739360809326e-02
5.391468293964862823e-03
-5.783818289637565613e-02
-2.082936652004718781e-02
-4.101194068789482117e-02
6.698665767908096313e-02
1.576882600784301758e-02
1.281085517257452011e-02
-1.948348432779312134e-02
-2.477092854678630829e-02
8.146532624959945679e-02
1.890105381608009338e-02
-4.492337629199028015e-02
6.664443761110305786e-02
-6.197702884674072266e-02
-1.392899174243211746e-02
1.294164266437292099e-02
-4.109533876180648804e-02
6.662440486252307892e-03
2.895824424922466278e-02
9.251775220036506653e-03
2.461776509881019592e-02
3.277533873915672302e-02
2.387381903827190399e-02
3.148342669010162354e-02
-1.411179546266794205e-02
-2.193227782845497131e-02
5.151239410042762756e-02
1.726735942065715790e-02
-1.212892495095729828e-02
-5.094614252448081970e-02
-4.282227531075477600e-02
-3.354735299944877625e-02
-2.361772116273641586e-03
-2.761771157383918762e-02
3.179269656538963318e-02
1.988087594509124756e-02
2.053103409707546234e-02
4.577221348881721497e-03
-2.690239250659942627e-02
4.147482290863990784e-02
2.822326868772506714e-02
-3.861599415540695190e-02
-2.561695687472820282e-02
3.078877180814743042e-02
8.071897923946380615e-02
-2.678096294403076172e-02
1.318952906876802444e-02
4.213229194283485413e-02
-1.085814274847507477e-02
1.726733148097991943e-02
-2.456145547330379486e-02
3.920447081327438354e-02
-6.760969292372465134e-03
-4.094021394848823547e-02
-2.649587579071521759e-02
-1.122956722974777222e-02
-4.259313270449638367e-02
2.507174015045166016e-02
-4.489840194582939148e-02
-2.076400071382522583e-02
-4.419385641813278198e-02
2.119438908994197845e-02
-1.260582543909549713e-02
-1.595715433359146118e-02
3.898514807224273682e-02
1.652963459491729736e-02
-3.383525833487510681e-02
1.620472595095634460e-02
4.462000355124473572e-02
5.204702261835336685e-03
-3.378716483712196350e-02
-1.438196282833814621e-02
-3.256619349122047424e-02
-2.667025104165077209e-02
-2.078870311379432678e-02
4.689943417906761169e-02
-5.682938545942306519e-02
3.407661244273185730e-02
1.420349813997745514e-02
2.864073216915130615e-02
-3.564877808094024658e-02
2.431913278996944427e-02
3.743242472410202026e-02
2.596348337829113007e-02
2.445587143301963806e-02
-5.101135000586509705e-03
6.900168210268020630e-02
-6.521944422274827957e-03
-3.222694620490074158e-02
-6.586614251136779785e-02
-4.492970183491706848e-03
-1.385784707963466644e-02
2.510179206728935242e-02
-7.076385896652936935e-03
6.084150518290698528e-04
-2.769373357295989990e-02
-2.088376134634017944e-02
-1.173304859548807144e-02
-2.869650535285472870e-02
-4.267777130007743835e-02
-3.720578923821449280e-02
-4.135298728942871094e-02
-3.972985595464706421e-02
-3.824634104967117310e-02
-3.918094933032989502e-02
-3.183082910254597664e-03
-3.468911862000823021e-03
5.553140491247177124e-02
-4.120559431612491608e-03
5.747659131884574890e-03
-9.757466032169759274e-04
3.296434506773948669e-02
4.018472507596015930e-02
4.889955744147300720e-03
-2.722404897212982178e-02
-1.970108970999717712e-02
-2.247601933777332306e-02
5.646690260618925095e-03
3.383449837565422058e-02
9.216487407684326172e-03
-5.007819086313247681e-02
-5.063912272453308105e-02
2.229377254843711853e-02
2.316168276593089104e-03
6.024642381817102432e-03
2.793891541659832001e-02
1.636192202568054199e-02
-4.753671959042549133e-02
5.572466645389795303e-03
-3.847776353359222412e-02
-6.019955500960350037e-02
-4.149700398556888103e-04
4.430058598518371582e-02
3.152330173179507256e-03
-1.710346201434731483e-03
-3.461676090955734253e-02
1.617764309048652649e-02
-3.254057839512825012e-02
7.190331071615219116e-02
4.595495760440826416e-02
3.384849429130554199e-02
-2.794034592807292938e-02
-4.392147809267044067e-02
1.687208749353885651e-02
3.197042271494865417e-02
-5.176297575235366821e-02
-1.464914996176958084e-02
-3.694920614361763000e-02
3.597766906023025513e-02
-6.335084140300750732e-02
1.054502930492162704e-02
-5.422172322869300842e-02
-2.705805562436580658e-02
-9.176231920719146729e-03
-4.620517045259475708e-02
1.902642287313938141e-02
-1.045468146912753582e-03
-5.400850996375083923e-02
2.011918835341930389e-02
-2.902837283909320831e-02
2.623869664967060089e-02
3.754519671201705933e-02
-1.261241175234317780e-02
1.977160014212131500e-02
9.343176148831844330e-03
-3.968541324138641357e-02
1.503641996532678604e-02
-4.094525054097175598e-02
-3.070463240146636963e-02
1.308053848333656788e-03
1.088929921388626099e-02
7.673006039112806320e-03
6.888778414577245712e-03
-2.535758912563323975e-02
-1.640851423144340515e-02
-3.120529465377330780e-03
-2.041391842067241669e-02
2.558410167694091797e-02
-9.558246470987796783e-03
-4.111703485250473022e-02
-6.325527280569076538e-02
1.638728007674217224e-02
-2.781107835471630096e-02
-2.728884480893611908e-02
2.486314438283443451e-02
-2.686105482280254364e-02
-5.158451199531555176e-02
-3.181184083223342896e-02
-3.114612959325313568e-02
-3.429618850350379944e-02
-2.120730280876159668e-02
-1.987002044916152954e-02
-2.201857417821884155e-02
-1.425196998752653599e-03
-1.548504456877708435e-02
-3.760750591754913330e-02
-4.325259849429130554e-02
-4.816900193691253662e-02
-2.200037613511085510e-02
-1.750447787344455719e-02
2.071017399430274963e-02
-3.029738180339336395e-02
-5.205382476560771465e-04
-2.483691461384296417e-02
2.880772762000560760e-02
-3.644102439284324646e-02
1.411043666303157806e-02
1.409991271793842316e-02
-3.106893412768840790e-02
1.144685875624418259e-02
-4.188577178865671158e-03
-6.181048694998025894e-03
1.583446189761161804e-02
2.653476968407630920e-02
-2.453237026929855347e-02
-3.315744223073124886e-03
2.578428387641906738e-02
-4.507881775498390198e-02
-1.203077659010887146e-02
-2.673209458589553833e-02
7.711740583181381226e-02
2.392822504043579102e-02
2.626803144812583923e-02
-4.226651787757873535e-02
2.042969502508640289e-02
2.213867567479610443e-02
-3.377119079232215881e-02
-1.623370870947837830e-02
-4.629585891962051392e-02
1.466987282037734985e-02
2.870600298047065735e-02
5.843816325068473816e-02
3.614021989051252604e-04
-5.094864871352910995e-03
2.437189221382141113e-02
-2.007570490241050720e-02
2.459880197420716286e-03
5.646556243300437927e-02
-2.067441307008266449e-02
7.316356990486383438e-03
4.360442981123924255e-02
-2.020311355590820312e-02
-1.489884313195943832e-02
2.371569536626338959e-02
4.288183897733688354e-02
2.107314206659793854e-02
-8.537735790014266968e-03
-4.267024993896484375e-02
-3.265919908881187439e-02
4.466721042990684509e-02
1.351045066257938743e-04
-1.196498516947031021e-02
-1.214625197462737560e-03
8.299252390861511230e-02
-5.670399591326713562e-02
-1.761368289589881897e-02
-3.104597143828868866e-02
4.273455217480659485e-02
3.697998356074094772e-03
4.596737027168273926e-02
-3.356153517961502075e-02
-3.513762727379798889e-02
3.748019412159919739e-02
2.385869622230529785e-02
2.157408557832241058e-02
-3.779080510139465332e-02
4.665276408195495605e-02
-3.088000603020191193e-02
-4.645563289523124695e-02
-1.916329003870487213e-02
-1.072402298450469971e-02
5.923968926072120667e-02
4.278128221631050110e-02
1.001762785017490387e-02
4.000393673777580261e-03
-1.429205574095249176e-02
5.956342071294784546e-02
8.349273353815078735e-03
2.816907363012433052e-04
8.058879524469375610e-02
2.222623489797115326e-02
4.635579138994216919e-02
2.651392854750156403e-02
8.054670877754688263e-03
-2.045676345005631447e-03
3.051181510090827942e-02
6.703305523842573166e-03
8.782512508332729340e-03
-4.017860814929008484e-02
-1.418348401784896851e-03
-1.997178606688976288e-02
-1.279498450458049774e-02
1.392283663153648376e-02
1.954600960016250610e-02
-2.096791379153728485e-02
-1.074102520942687988e-02
-2.314885519444942474e-02
3.852410882245749235e-04
-2.093441970646381378e-02
-3.757298365235328674e-02
3.699702769517898560e-02
-2.975275367498397827e-02
-7.096542045474052429e-03
1.131889037787914276e-02
-1.034317887388169765e-03
-3.487599641084671021e-02
1.627404242753982544e-02
6.955623161047697067e-03
-3.616068139672279358e-02
-5.045708268880844116e-02
4.962276201695203781e-03
1.233897823840379715e-02
-1.856247149407863617e-02
-3.849213942885398865e-02
-1.468522101640701294e-02
2.692832425236701965e-02
-4.148453846573829651e-02
2.942535839974880219e-02
-3.077183105051517487e-02
4.769555106759071350e-02
-3.521896526217460632e-02
-3.299491479992866516e-02
-4.312656528782099485e-04
4.212450236082077026e-02
2.297936007380485535e-02
2.316260896623134613e-02
-1.375430170446634293e-02
-2.178318239748477936e-02
-2.482171542942523956e-02
-3.380876034498214722e-02
-1.158306002616882324e-02
-1.516748219728469849e-02
-2.924696169793605804e-02
1.379722263664007187e-02
3.610680624842643738e-02
-2.166228136047720909e-03
-5.269379541277885437e-02
