-7.902593165636062622e-02
9.716203063726425171e-02
9.628227353096008301e-02
-3.786537796258926392e-03
3.566304221749305725e-02
7.915224134922027588e-02
-3.754943609237670898e-02
-1.138105913996696472e-01
-1.985711418092250824e-02
-5.768107995390892029e-02
-2.566399984061717987e-02
-1.141244918107986450e-01
1.215940341353416443e-01
8.548417687416076660e-02
-1.186674013733863831e-01
-4.772090911865234375e-02
-1.163430586457252502e-01
-1.778773032128810883e-02
-8.435281366109848022e-02
6.907635182142257690e-02
-9.484545886516571045e-02
2.821004576981067657e-02
4.975083470344543457e-02
-2.168145775794982910e-02
-1.056330949068069458e-01
-1.231313720345497131e-01
1.093309745192527771e-01
-2.894554473459720612e-02
-6.732228398323059082e-02
1.119354143738746643e-01
-4.177412949502468109e-03
-2.699404954910278320e-02
-1.004277095198631287e-01
3.945944458246231079e-02
5.302873905748128891e-03
9.578039497137069702e-02
-2.993464469909667969e-02
1.067282408475875854e-01
-5.683753266930580139e-02
9.043174237012863159e-02
7.829177379608154297e-02
-1.213114485144615173e-01
1.719096116721630096e-02
-6.951420754194259644e-02
2.903044968843460083e-02
-6.513272970914840698e-02
9.619227796792984009e-02
2.962718904018402100e-02
-8.012104034423828125e-02
1.799388416111469269e-02
4.596487805247306824e-02
6.595987081527709961e-02
-1.002504006028175354e-01
7.782717049121856689e-02
-2.102242968976497650e-02
-1.481510512530803680e-02
-2.285373769700527191e-02
3.804749250411987305e-02
-7.541638612747192383e-02
-1.715514808893203735e-02
-1.183922402560710907e-02
4.696032777428627014e-02
-5.910848826169967651e-02
-5.564298108220100403e-02
4.977278038859367371e-02
-4.873040318489074707e-02
-8.224238455295562744e-02
5.946881696581840515e-02
6.076906621456146240e-02
-9.474021941423416138e-02
-3.075856715440750122e-02
8.248606324195861816e-02
-1.703509502112865448e-02
-8.955011516809463501e-02
-7.872784137725830078e-02
1.106172893196344376e-02
1.344791706651449203e-02
-3.788090124726295471e-02
1.139899790287017822e-01
-3.624324873089790344e-02
-7.563569396734237671e-02
-9.903269819915294647e-03
1.038519367575645447e-01
1.109766215085983276e-01
-4.438446834683418274e-02
9.529738873243331909e-02
1.200226545333862305e-01
-8.473105728626251221e-02
1.098534911870956421e-01
9.076982736587524414e-02
-1.124618873000144958e-01
2.657527476549148560e-02
-9.168078750371932983e-02
-4.478589445352554321e-02
-9.623793512582778931e-02
5.321180447936058044e-02
1.171675100922584534e-01
5.862224847078323364e-02
-1.191541478037834167e-01
-1.108814701437950134e-01
1.004743799567222595e-01
-3.506945073604583740e-02
-5.639705061912536621e-02
-1.074333488941192627e-01
-3.468129038810729980e-02
3.831683471798896790e-02
-6.953620910644531250e-02
-3.068049438297748566e-02
-2.177889272570610046e-02
6.174581870436668396e-02
2.657183073461055756e-02
9.515389055013656616e-02
-4.140275996178388596e-03
-6.627236306667327881e-02
-1.227629780769348145e-01
-1.075009480118751526e-01
-1.175585389137268066e-01
8.083789050579071045e-02
7.180842012166976929e-02
-1.072012782096862793e-01
4.244650900363922119e-02
-4.621485248208045959e-02
2.151663228869438171e-02
-3.810422122478485107e-02
4.679100587964057922e-02
5.972803384065628052e-02
2.818262204527854919e-02
-8.076790720224380493e-02
