2.124923467636108398e-02
2.597922831773757935e-02
7.041105069220066071e-03
1.593587920069694519e-03
8.175596012733876705e-04
-2.203413471579551697e-02
3.233350871596485376e-04
1.873627491295337677e-02
1.687928102910518646e-02
-1.467094384133815765e-02
-3.640133654698729515e-03
8.411593735218048096e-03
1.611126959323883057e-02
-1.035588048398494720e-02
-1.325845019891858101e-03
2.327080350369215012e-03
5.717267282307147980e-03
4.108575731515884399e-02
1.113923825323581696e-02
-2.504487894475460052e-02
-3.403483331203460693e-02
2.432515844702720642e-03
1.646435004658997059e-03
-2.702702395617961884e-02
-3.587359935045242310e-02
-2.702735178172588348e-02
4.387538507580757141e-02
4.198996722698211670e-02
-4.132916778326034546e-02
1.634583249688148499e-02
4.502532072365283966e-03
-3.072508983314037323e-02
1.858976297080516815e-02
-3.700750693678855896e-02
3.685234114527702332e-02
2.254698239266872406e-02
-4.211229830980300903e-02
-3.746416419744491577e-02
-3.693101182579994202e-02
1.766508817672729492e-02
-9.328667074441909790e-03
-1.952066086232662201e-02
-1.162934768944978714e-02
-1.885396614670753479e-02
-3.040013089776039124e-02
-1.213223440572619438e-03
-3.866983810439705849e-03
3.521232306957244873e-02
1.713233627378940582e-02
4.388006776571273804e-02
3.142021223902702332e-02
-3.121382929384708405e-02
-1.041501853615045547e-02
-3.598963096737861633e-02
-4.339716210961341858e-02
-4.047922417521476746e-02
4.841698333621025085e-03
-3.879754338413476944e-03
2.457819064147770405e-04
-1.177790481597185135e-02
1.147313043475151062e-02
-6.949646398425102234e-03
6.025276612490415573e-03
2.076447196304798126e-02
-1.499047502875328064e-02
5.685725715011358261e-03
-7.002103608101606369e-03
-6.347288843244314194e-03
-1.426637079566717148e-02
-7.237844984047114849e-04
-3.496846929192543030e-02
-3.201926499605178833e-02
5.602037999778985977e-03
-2.656378783285617828e-02
-1.492001023143529892e-02
4.049871489405632019e-02
3.480479866266250610e-02
1.418306771665811539e-02
1.267339382320642471e-02
-3.713739290833473206e-02
-2.541817352175712585e-02
-3.261144086718559265e-02
3.673025593161582947e-02
2.388836443424224854e-02
-3.102223947644233704e-02
-2.981778793036937714e-02
-9.456322877667844296e-04
4.010878503322601318e-02
-4.157280176877975464e-02
-3.024406731128692627e-02
-3.960358723998069763e-02
1.584749855101108551e-02
-2.430742047727108002e-02
5.348498001694679260e-03
-3.293072432279586792e-02
1.838819589465856552e-03
-1.721936428111803252e-06
1.276066899299621582e-02
-3.093594452366232872e-03
-1.502351742237806320e-02
-2.393266558647155762e-02
2.557896450161933899e-02
1.200419664382934570e-02
-1.845222711563110352e-02
-4.830639809370040894e-03
4.207317903637886047e-02
1.914933510124683380e-02
-1.725949719548225403e-02
1.807870157063007355e-02
-3.450739383697509766e-02
3.741511702537536621e-02
-4.329284280538558960e-02
9.912095963954925537e-03
-1.174404565244913101e-02
6.950637907721102238e-05
-1.658265665173530579e-02
-9.027485735714435577e-03
-4.277776926755905151e-02
2.495783613994717598e-03
-2.798226103186607361e-02
2.728189155459403992e-02
-8.000620640814304352e-03
-2.516510337591171265e-02
3.102449513971805573e-02
-2.769657410681247711e-02
-2.675226330757141113e-02
9.652146836742758751e-04
-2.748253755271434784e-02
-3.972423076629638672e-02
3.005874156951904297e-02
4.212338849902153015e-02
3.988255932927131653e-02
-2.832956239581108093e-02
3.691816702485084534e-02
-4.356168955564498901e-02
-4.263547807931900024e-02
1.032936479896306992e-02
-1.604009978473186493e-02
-2.801172807812690735e-02
3.404972329735755920e-02
1.327391806989908218e-02
-1.766932755708694458e-02
-3.251662477850914001e-02
1.457083411514759064e-02
1.937959529459476471e-02
2.555453032255172729e-02
1.212910376489162445e-02
7.299554999917745590e-03
7.604813668876886368e-03
-9.417791850864887238e-03
4.299399908632040024e-03
3.214238584041595459e-02
1.059982692822813988e-03
-2.260094479424878955e-04
2.969116903841495514e-02
-2.832431579008698463e-03
-2.249480970203876495e-02
1.553412154316902161e-02
-4.215577244758605957e-02
-4.285544529557228088e-02
2.042647451162338257e-02
-6.504117511212825775e-03
1.437545754015445709e-02
7.385787088423967361e-03
1.714874617755413055e-02
8.786843158304691315e-03
1.093554217368364334e-02
-2.877072989940643311e-02
2.899659425020217896e-02
4.071085155010223389e-02
-2.747227996587753296e-02
2.343619801104068756e-02
-2.740265242755413055e-02
1.225366909056901932e-02
-3.021019138395786285e-02
1.188869867473840714e-02
2.295489050447940826e-02
-1.342645846307277679e-03
-4.334354773163795471e-02
3.666927665472030640e-02
-3.186671435832977295e-02
-3.538350015878677368e-02
4.081053286790847778e-02
-4.186752066016197205e-02
-3.751363977789878845e-02
-1.532127521932125092e-02
-3.204394131898880005e-02
3.424584865570068359e-02
-4.183541238307952881e-02
-9.282421320676803589e-03
-3.239337354898452759e-02
6.992178037762641907e-03
-1.107711903750896454e-02
6.848752032965421677e-03
-2.201206050813198090e-02
3.549715131521224976e-02
-2.585925161838531494e-02
-1.818622834980487823e-02
1.254879985935986042e-03
-3.657423332333564758e-02
-1.341467257589101791e-02
-9.696482680737972260e-03
1.077705412171781063e-03
2.020045183598995209e-02
-3.322042897343635559e-02
-2.019880898296833038e-02
3.544947132468223572e-02
3.307582065463066101e-02
-1.931919343769550323e-02
-3.592805936932563782e-02
3.955866768956184387e-02
1.594489999115467072e-02
3.094445355236530304e-02
-1.800777763128280640e-02
2.818769589066505432e-02
1.199224777519702911e-02
2.153852954506874084e-02
-3.788229823112487793e-02
1.523551624268293381e-02
-1.008362788707017899e-02
1.624373160302639008e-02
4.095148295164108276e-02
-4.080183804035186768e-03
-3.107153065502643585e-02
-4.116282612085342407e-02
-3.891501575708389282e-02
-1.464481279253959656e-02
1.131774019449949265e-02
4.147699102759361267e-02
2.349401265382766724e-02
1.235076505690813065e-02
3.960090503096580505e-02
-4.314272664487361908e-03
-4.151174798607826233e-02
-3.267937898635864258e-02
-1.221914030611515045e-02
1.173832360655069351e-02
2.878728136420249939e-02
2.155587822198867798e-02
-2.123321220278739929e-02
4.026151448488235474e-02
1.118362415581941605e-02
-8.365549147129058838e-03
-2.883002907037734985e-02
-1.432261615991592407e-02
3.425408527255058289e-02
-1.844182726927101612e-03
2.683126740157604218e-02
1.319314911961555481e-02
-1.914103887975215912e-02
-3.936273604631423950e-02
-3.092252649366855621e-02
2.929997816681861877e-02
5.451847333461046219e-03
-1.893350668251514435e-02
3.160149231553077698e-02
