1.400125473737716675e-01
5.151116847991943359e-01
-3.233813047409057617e-01
-2.389281541109085083e-01
2.910850048065185547e-01
4.086159467697143555e-01
5.460730195045471191e-01
-1.965945810079574585e-01
-2.883528470993041992e-01
2.104698866605758667e-01
-2.549469172954559326e-01
1.931079477071762085e-01
1.659910380840301514e-01
4.238813817501068115e-01
1.391381323337554932e-01
6.088418513536453247e-02
-6.223719716072082520e-01
-4.355764389038085938e-02
-4.157212972640991211e-01
-4.196857810020446777e-01
3.529295623302459717e-01
5.032682418823242188e-02
3.514675199985504150e-01
1.540760248899459839e-01
3.688792884349822998e-01
-2.357103526592254639e-01
-3.320235610008239746e-01
-1.991110108792781830e-02
-4.750315845012664795e-01
2.045771926641464233e-01
-4.372298121452331543e-01
5.833970308303833008e-01
2.639970928430557251e-02
4.702442884445190430e-01
-4.158167243003845215e-01
-1.435173004865646362e-01
5.787658691406250000e-01
-4.467777162790298462e-02
1.275299303233623505e-02
4.887431263923645020e-01
-1.261537522077560425e-01
1.866536736488342285e-01
3.310324251651763916e-01
3.446050882339477539e-01
-3.984908163547515869e-01
1.581669598817825317e-02
3.600494563579559326e-01
-3.998759984970092773e-01
-5.686547160148620605e-01
4.772551655769348145e-01
-1.914251595735549927e-01
-7.179099321365356445e-02
-3.980007469654083252e-01
-1.849292516708374023e-01
-2.975204586982727051e-01
-3.900026157498359680e-02
2.789117395877838135e-01
-1.587260961532592773e-01
-3.207970410585403442e-02
3.489651978015899658e-01
2.218540757894515991e-01
7.121379673480987549e-02
3.615567386150360107e-01
-3.842057287693023682e-01
-2.217463254928588867e-01
4.563510119915008545e-01
-1.488987505435943604e-01
-2.968295812606811523e-01
-4.354245662689208984e-01
4.268025606870651245e-02
-4.086807072162628174e-01
3.693179488182067871e-01
3.421767801046371460e-02
-5.366975069046020508e-01
4.532546997070312500e-01
-2.749541997909545898e-01
3.087193071842193604e-01
2.187317460775375366e-01
2.114255577325820923e-01
-2.706696689128875732e-01
4.169385731220245361e-01
-3.932740390300750732e-01
7.999809831380844116e-02
2.676427923142910004e-02
-5.319640636444091797e-01
2.693986892700195312e-01
3.048557341098785400e-01
3.663370907306671143e-01
7.110523432493209839e-02
-1.248303279280662537e-01
-1.048028692603111267e-01
4.003134369850158691e-01
-4.514174461364746094e-01
-4.894311428070068359e-01
4.392094612121582031e-01
-8.459515124559402466e-02
-5.007652640342712402e-01
-1.293257027864456177e-01
-4.907279908657073975e-01
-5.235098004341125488e-01
-4.332121610641479492e-01
-2.443694025278091431e-01
-1.188015043735504150e-01
-4.842098951339721680e-01
8.762947469949722290e-02
-5.235536955296993256e-03
-6.765850353986024857e-03
4.066233634948730469e-01
2.446343600749969482e-01
5.614464879035949707e-01
-9.260053187608718872e-02
1.077501773834228516e-01
-6.141734123229980469e-02
-4.915755093097686768e-01
-4.811336398124694824e-01
-9.111300855875015259e-02
1.847639679908752441e-01
-3.703994452953338623e-01
-8.457125723361968994e-02
2.516490221023559570e-01
-4.788554310798645020e-01
1.494939923286437988e-01
-6.090315431356430054e-02
5.135720968246459961e-01
-5.177897810935974121e-01
-3.532322347164154053e-01
-6.054623126983642578e-01
5.768572445958852768e-03
5.321127772331237793e-01
1.345250308513641357e-01
1.401942372322082520e-01
-4.807276427745819092e-01
3.952239155769348145e-01
-3.829608857631683350e-01
4.889862239360809326e-01
1.147200688719749451e-01
-4.938476681709289551e-01
-4.406327009201049805e-02
-3.227400884497910738e-04
2.688831984996795654e-01
-1.516533792018890381e-01
4.652118384838104248e-01
5.393887162208557129e-01
7.770264148712158203e-02
-4.344415962696075439e-01
4.627188444137573242e-01
1.216937899589538574e-01
-2.105904184281826019e-02
-2.215040326118469238e-01
-5.157324671745300293e-01
3.051831722259521484e-01
-4.897828400135040283e-01
-1.449228823184967041e-01
-3.661205992102622986e-02
3.507050871849060059e-01
-2.479303330183029175e-01
2.109486907720565796e-01
-4.839407745748758316e-03
3.989894390106201172e-01
-4.506962597370147705e-01
-3.911543488502502441e-01
3.927335441112518311e-01
-5.960423871874809265e-02
-3.347209393978118896e-01
-1.193659305572509766e-01
8.122618496417999268e-02
-1.646022349596023560e-01
-4.771369993686676025e-01
3.690352737903594971e-01
1.459792852401733398e-01
-1.386392861604690552e-01
-5.004215240478515625e-01
-2.661487758159637451e-01
-3.240821063518524170e-01
1.541047263890504837e-02
-5.433984994888305664e-01
3.111874759197235107e-01
5.118255615234375000e-01
-4.221150279045104980e-01
-2.649706788361072540e-02
5.218684673309326172e-01
3.696401789784431458e-02
-2.699516117572784424e-01
-2.749567329883575439e-01
-3.854459822177886963e-01
-2.644557505846023560e-02
-1.577717661857604980e-01
4.249329119920730591e-02
-4.298594892024993896e-01
3.415767550468444824e-01
-5.596486330032348633e-01
-3.584537804126739502e-01
