-2.569829486310482025e-02
-4.856665432453155518e-02
6.389939039945602417e-02
3.693124651908874512e-02
-5.013248324394226074e-02
-5.957764014601707458e-02
7.664436846971511841e-02
-6.153836846351623535e-02
-8.218937553465366364e-03
6.895187497138977051e-02
-7.085113972425460815e-02
7.758784294128417969e-02
6.445807963609695435e-02
-6.066700909286737442e-03
1.029666066169738770e-01
8.941756933927536011e-02
4.732622951269149780e-02
5.997951328754425049e-02
-2.368881925940513611e-02
-4.438953101634979248e-02
-8.420925587415695190e-02
-4.610098525881767273e-02
2.846065722405910492e-02
-4.243132099509239197e-02
-5.814021453261375427e-02
-8.704113960266113281e-02
5.740875005722045898e-02
8.320393040776252747e-03
-6.404661387205123901e-02
-8.566550165414810181e-02
-3.786655142903327942e-02
-2.184772491455078125e-02
1.690050214529037476e-02
-1.155379191040992737e-01
5.454808007925748825e-03
1.863395608961582184e-02
4.464650060981512070e-03
2.024136856198310852e-02
2.495455183088779449e-02
8.316273987293243408e-02
1.048623174428939819e-01
-6.825792044401168823e-02
-1.238645147532224655e-02
-4.981829226016998291e-02
-1.314591616392135620e-02
5.398392677307128906e-02
2.558927237987518311e-02
-3.229520097374916077e-02
-9.580492973327636719e-02
1.251420527696609497e-01
-5.718320980668067932e-02
1.349847763776779175e-02
-7.409206777811050415e-02
1.329030990600585938e-01
9.129508584737777710e-02
7.401526719331741333e-02
-2.053092606365680695e-02
-4.326382651925086975e-02
3.973595425486564636e-02
2.251331321895122528e-02
-9.566086530685424805e-02
3.481578081846237183e-02
-3.073297813534736633e-02
-4.273988679051399231e-02
-1.076247096061706543e-01
-6.906832754611968994e-02
3.811521455645561218e-02
-5.389012023806571960e-02
-4.114352911710739136e-02
1.259553711861371994e-02
-3.835021704435348511e-02
7.787755876779556274e-02
2.597615867853164673e-02
-8.770313579589128494e-04
8.031403273344039917e-02
-4.959790408611297607e-02
2.868623100221157074e-02
5.285304412245750427e-02
5.402889102697372437e-02
6.322053726762533188e-03
-2.722454816102981567e-02
-3.907331451773643494e-02
-8.938405662775039673e-02
7.535143941640853882e-02
4.477142542600631714e-02
-8.321777731180191040e-02
-3.688957169651985168e-02
5.395368486642837524e-02
-2.308594435453414917e-02
-9.223791956901550293e-02
-3.672337532043457031e-02
1.598774269223213196e-02
1.162338405847549438e-01
2.144191786646842957e-02
9.913651272654533386e-03
1.718178205192089081e-02
-4.615388810634613037e-03
-1.584929041564464569e-02
1.083510578610002995e-03
-1.404405850917100906e-02
1.216401439160108566e-02
-2.301270142197608948e-02
3.622018033638596535e-03
-4.980232939124107361e-02
8.107759989798069000e-03
4.878644645214080811e-02
-9.882558137178421021e-03
4.934889078140258789e-02
3.462141379714012146e-02
-6.345906853675842285e-02
-7.432842254638671875e-02
3.730285912752151489e-02
-6.341295689344406128e-02
-6.019823998212814331e-02
4.777722805738449097e-02
9.619678556919097900e-02
-8.291674405336380005e-02
-4.745088145136833191e-02
3.444791072979569435e-04
1.182695850729942322e-02
5.867929756641387939e-02
-3.398515284061431885e-02
-1.571985892951488495e-02
4.595056548714637756e-02
-5.697217583656311035e-02
-2.398607321083545685e-02
6.356455385684967041e-02
9.574493393301963806e-03
-6.319195777177810669e-02
-3.233767673373222351e-02
8.752166479825973511e-02
6.689018011093139648e-02
-9.195265173912048340e-02
7.797002792358398438e-02
-2.201421931385993958e-02
9.211544878780841827e-03
3.712531924247741699e-02
7.471562922000885010e-02
6.835067272186279297e-02
3.619813919067382812e-02
-4.971599206328392029e-02
4.428238421678543091e-02
5.831195414066314697e-02
7.105947588570415974e-05
8.343504741787910461e-03
-9.928219020366668701e-03
6.765140593051910400e-02
-1.718494109809398651e-02
2.396203763782978058e-02
-9.268552064895629883e-02
-5.580679699778556824e-02
-1.135053951293230057e-02
2.606248110532760620e-02
1.420275215059518814e-02
-3.077938593924045563e-02
-3.364085033535957336e-02
3.145460784435272217e-02
-5.319232121109962463e-02
8.792377263307571411e-02
8.900229632854461670e-02
7.087602466344833374e-02
3.561134636402130127e-02
2.668236941099166870e-02
-1.519823353737592697e-02
2.464626170694828033e-02
3.834149986505508423e-02
5.080932751297950745e-02
-1.425820495933294296e-02
5.532130971550941467e-02
8.410587161779403687e-02
6.193091720342636108e-02
2.469188766553997993e-03
1.323911012150347233e-03
-3.888268768787384033e-02
-9.583369828760623932e-04
-7.821167260408401489e-02
2.560600079596042633e-02
-2.838975982740521431e-03
1.004873588681221008e-02
-3.021143749356269836e-02
4.723934829235076904e-02
5.065993592143058777e-02
4.230849072337150574e-02
-2.297522500157356262e-02
7.486955076456069946e-02
3.389447182416915894e-02
3.238655626773834229e-02
5.589913949370384216e-02
1.968554221093654633e-02
-5.430880188941955566e-02
-5.742513760924339294e-02
-5.476927384734153748e-02
-7.627152651548385620e-02
-7.600256055593490601e-02
-6.963756680488586426e-02
2.739627845585346222e-02
-6.551045924425125122e-02
1.717567443847656250e-02
-6.849038880318403244e-03
-5.479432269930839539e-02
-4.414217174053192139e-02
-7.039385288953781128e-02
5.736091360449790955e-02
2.962435036897659302e-02
-4.926168173551559448e-02
-7.008279860019683838e-02
2.513879165053367615e-02
-8.097463101148605347e-02
-3.979713190346956253e-03
-7.589831948280334473e-02
-8.989185839891433716e-02
-4.209076240658760071e-02
-2.869333256967365742e-04
4.410354048013687134e-02
5.595958977937698364e-02
1.796719431877136230e-02
1.634856685996055603e-02
-5.596222728490829468e-02
-2.715626917779445648e-02
-4.041450098156929016e-02
2.781319199129939079e-03
7.481515640392899513e-04
-8.065707981586456299e-02
9.545195847749710083e-02
4.215380921959877014e-02
1.529194647446274757e-03
-2.877319976687431335e-02
-1.222467143088579178e-02
6.831584125757217407e-02
5.366924032568931580e-02
8.124402165412902832e-02
-5.569065734744071960e-02
-7.407362014055252075e-02
-2.133390679955482483e-02
-5.438896641135215759e-02
8.478620648384094238e-02
-6.162023171782493591e-02
-1.430458389222621918e-02
3.910757228732109070e-02
-3.686263039708137512e-02
2.934535779058933258e-02
1.606270484626293182e-02
5.668656527996063232e-02
-3.243135660886764526e-02
9.799574315547943115e-02
5.119158327579498291e-02
-7.159370183944702148e-02
3.533240407705307007e-02
-1.335368677973747253e-02
-3.394610062241554260e-02
6.702306121587753296e-02
4.496219381690025330e-02
8.226834982633590698e-02
-5.877228453755378723e-02
1.560293510556221008e-02
-3.858794225379824638e-03
-1.821844093501567841e-02
-5.164934694766998291e-02
2.419046871364116669e-02
1.753274351358413696e-02
1.157808117568492889e-02
2.996027655899524689e-02
3.091829642653465271e-02
-4.447130858898162842e-02
3.675130754709243774e-02
-4.484934732317924500e-02
3.974079713225364685e-02
-8.639360778033733368e-03
-4.117396101355552673e-02
-1.127222552895545959e-02
-5.432194843888282776e-02
-2.545468695461750031e-02
1.415732968598604202e-02
-6.735315080732107162e-03
2.781725674867630005e-02
8.456268161535263062e-02
-4.383691400289535522e-02
1.303663570433855057e-02
-1.181928906589746475e-02
1.640745997428894043e-02
-3.686360269784927368e-02
-4.846432432532310486e-02
1.109038293361663818e-02
4.240989685058593750e-02
3.799415752291679382e-02
1.182203274220228195e-02
5.790145322680473328e-02
-1.890853978693485260e-02
-4.008151218295097351e-02
-1.017724536359310150e-02
5.181931331753730774e-02
5.510004982352256775e-02
3.313178196549415588e-02
-4.747251514345407486e-03
8.383708447217941284e-02
-6.447322666645050049e-02
-5.426287278532981873e-02
6.094770506024360657e-02
4.819720983505249023e-02
8.159985393285751343e-02
6.344087421894073486e-02
-7.570284605026245117e-02
5.308000743389129639e-02
6.110661476850509644e-02
-2.343422919511795044e-02
2.738988958299160004e-02
8.175640553236007690e-02
-4.693717710324563086e-05
9.992061555385589600e-02
2.023178525269031525e-02
-2.407982386648654938e-02
2.199237002059817314e-03
1.544433739036321640e-02
-9.823315590620040894e-02
-1.132514979690313339e-02
-9.769063442945480347e-02
4.460654407739639282e-02
-1.097270753234624863e-03
5.874444916844367981e-02
-1.142195425927639008e-02
3.854154050350189209e-02
-8.011043071746826172e-02
4.860004410147666931e-02
-5.756165832281112671e-02
2.484025992453098297e-02
-1.931733265519142151e-02
-5.331901833415031433e-02
2.161725237965583801e-02
2.007846347987651825e-02
3.475088998675346375e-02
2.529382472857832909e-03
9.135742671787738800e-03
-9.582468122243881226e-02
-7.382340729236602783e-02
-9.288526326417922974e-02
-4.255040735006332397e-02
1.023136228322982788e-01
4.457011446356773376e-02
5.016342923045158386e-02
7.446601986885070801e-02
6.887771189212799072e-02
-5.363988876342773438e-02
1.256348658353090286e-02
3.549632430076599121e-02
-4.306221008300781250e-02
-2.087004669010639191e-02
4.792380705475807190e-02
4.242073744535446167e-02
-6.848475337028503418e-02
6.477987766265869141e-02
3.756583482027053833e-02
6.929954141378402710e-02
3.913735970854759216e-02
1.280804071575403214e-02
-7.458113133907318115e-03
2.115868777036666870e-02
-1.536089461296796799e-02
-8.587224036455154419e-02
6.064353138208389282e-02
1.090165376663208008e-01
-6.133970804512500763e-03
8.373932540416717529e-02
5.444322526454925537e-02
2.715479815378785133e-03
-8.303170651197433472e-02
3.835232555866241455e-02
-3.976436797529459000e-03
9.048786014318466187e-02
8.103141188621520996e-02
6.743732094764709473e-02
-7.598672807216644287e-02
-7.796192169189453125e-02
3.374147042632102966e-02
3.571898117661476135e-02
-6.873339414596557617e-02
-8.622743934392929077e-02
-8.270680555142462254e-04
-9.900698438286781311e-03
1.332787703722715378e-02
1.664225198328495026e-02
5.578342080116271973e-02
5.608923733234405518e-02
-8.863256871700286865e-02
1.829104870557785034e-02
-7.716429233551025391e-02
8.874819613993167877e-03
-7.631188631057739258e-02
6.220477074384689331e-02
6.626892089843750000e-02
4.514691978693008423e-02
-6.961374729871749878e-02
4.122545197606086731e-02
-1.401397399604320526e-02
-5.351313948631286621e-02
1.325440965592861176e-02
-9.047091752290725708e-02
-3.336140885949134827e-02
5.568408593535423279e-02
1.160095557570457458e-01
-2.513532899320125580e-02
5.699134245514869690e-02
-7.778262346982955933e-02
-3.704296657815575600e-03
8.944674395024776459e-03
8.354945108294487000e-03
-7.649125903844833374e-02
-6.213173642754554749e-02
-5.689156427979469299e-02
9.083904325962066650e-02
-5.878729745745658875e-02
-2.119519340340048075e-04
1.481709908694028854e-02
8.488001674413681030e-02
1.058100089430809021e-01
-3.266869857907295227e-02
3.762137889862060547e-02
-3.527515381574630737e-02
-1.566409692168235779e-02
9.585784375667572021e-02
-3.496487066149711609e-02
-5.258881300687789917e-02
-8.681458979845046997e-02
-4.343980178236961365e-02
6.875503063201904297e-02
-1.512899762019515038e-03
6.052928417921066284e-02
3.972097858786582947e-02
8.798784762620925903e-02
2.893901802599430084e-02
-9.874319285154342651e-02
9.969629347324371338e-03
-1.209058240056037903e-02
-2.589645236730575562e-02
4.175947606563568115e-02
2.811967395246028900e-02
-5.466305464506149292e-02
2.109981887042522430e-02
5.371591076254844666e-02
-9.270891547203063965e-02
6.213265936821699142e-03
-2.385671064257621765e-02
-8.381045609712600708e-02
-7.562822103500366211e-02
5.769675225019454956e-02
-1.907830312848091125e-02
2.355962060391902924e-02
-5.652783904224634171e-03
-7.118546962738037109e-02
-3.444507718086242676e-02
9.503147564828395844e-03
7.064549624919891357e-02
6.021961197257041931e-02
2.518044225871562958e-02
-7.292678207159042358e-02
2.604339830577373505e-02
-4.229178279638290405e-02
4.405563697218894958e-02
-4.461964219808578491e-02
5.443536117672920227e-02
-5.538870394229888916e-02
-4.797655716538429260e-02
4.091700538992881775e-02
-1.285024918615818024e-02
2.631951868534088135e-02
1.955916173756122589e-03
6.592828780412673950e-02
2.700627781450748444e-02
1.245776470750570297e-02
7.202339172363281250e-02
4.208127781748771667e-02
5.952312797307968140e-02
1.288056187331676483e-02
-3.442877903580665588e-02
-6.898804754018783569e-02
-9.808957576751708984e-02
-1.085381507873535156e-01
2.469898900017142296e-03
4.195554554462432861e-02
6.593412905931472778e-02
-9.945755451917648315e-02
5.563861131668090820e-02
6.286110728979110718e-02
3.721475601196289062e-02
-1.921790465712547302e-02
-4.716552793979644775e-03
8.376131206750869751e-02
3.847673907876014709e-02
-7.829377055168151855e-02
-7.236727327108383179e-02
-4.137497395277023315e-02
1.703737117350101471e-02
-5.459300242364406586e-03
-3.212440758943557739e-02
9.030728787183761597e-02
5.356299132108688354e-02
6.902742385864257812e-02
-3.632254153490066528e-02
1.106790360063314438e-02
8.259492926299571991e-03
4.335769265890121460e-02
-6.755971908569335938e-02
-3.355758637189865112e-02
3.525715693831443787e-02
9.224376827478408813e-02
6.216579675674438477e-02
-2.641933783888816833e-02
6.618980318307876587e-02
9.128185361623764038e-02
-6.953909061849117279e-03
-2.176412940025329590e-02
8.243928104639053345e-02
5.341745540499687195e-02
2.928827516734600067e-02
-5.411296337842941284e-02
7.486757356673479080e-03
-4.944100603461265564e-02
1.942927390336990356e-02
-1.436828356236219406e-02
-8.215303719043731689e-02
3.623802214860916138e-02
1.458114013075828552e-02
5.449994467198848724e-03
2.056801877915859222e-02
4.441434517502784729e-02
5.544350296258926392e-02
8.899274468421936035e-02
-1.259869523346424103e-02
-2.119388803839683533e-02
5.724763870239257812e-02
5.158371850848197937e-02
1.020347774028778076e-01
6.678245961666107178e-02
-3.956501930952072144e-02
-5.706674605607986450e-02
7.846658118069171906e-03
-1.525239367038011551e-02
1.287321560084819794e-02
2.222807891666889191e-02
-1.591371558606624603e-02
4.946341365575790405e-02
-1.431833766400814056e-02
2.157502993941307068e-02
3.218581900000572205e-02
5.190368369221687317e-02
3.370431065559387207e-02
1.977456174790859222e-02
4.451845213770866394e-02
5.530859157443046570e-02
7.207928597927093506e-02
-5.612540990114212036e-02
3.605155274271965027e-02
-1.302253454923629761e-02
-1.081097498536109924e-02
-7.455064356327056885e-02
2.659620717167854309e-02
-6.387083977460861206e-02
6.533180177211761475e-02
1.063419505953788757e-02
-1.400903332978487015e-02
5.751657858490943909e-02
-5.237597972154617310e-02
3.948910161852836609e-02
-5.415657907724380493e-02
-3.764805942773818970e-02
4.319273307919502258e-02
1.921059191226959229e-02
-4.055745154619216919e-02
3.443342447280883789e-02
8.971858769655227661e-02
1.253789407201111317e-03
-5.423523485660552979e-02
-3.336591273546218872e-02
8.727053180336952209e-03
-1.590579934418201447e-02
-6.785549223423004150e-02
4.512122645974159241e-02
1.052912697196006775e-01
2.302447706460952759e-02
8.654045872390270233e-03
-2.301574870944023132e-02
-1.861095987260341644e-02
1.456311717629432678e-02
4.251493513584136963e-02
-7.685086876153945923e-02
-7.540012896060943604e-02
9.045566618442535400e-02
1.191867049783468246e-03
9.600876271724700928e-02
3.763236477971076965e-02
-7.863700389862060547e-02
-2.312767691910266876e-02
4.153338447213172913e-02
-5.360588431358337402e-02
-7.166884839534759521e-02
1.297705247998237610e-02
5.753085017204284668e-03
-5.878497660160064697e-02
-3.989737853407859802e-02
7.169447094202041626e-02
-7.709695398807525635e-02
5.567717552185058594e-02
-8.311301469802856445e-02
-3.975066170096397400e-02
6.757899373769760132e-02
-5.353670567274093628e-02
9.474881738424301147e-02
-5.411380156874656677e-02
6.310716271400451660e-02
2.126954309642314911e-02
8.864837884902954102e-02
8.743155747652053833e-02
1.479104720056056976e-02
-7.749871164560317993e-02
-7.507685106247663498e-03
4.916093498468399048e-02
2.624776028096675873e-02
-3.923097997903823853e-02
-3.587231785058975220e-02
-6.528976559638977051e-02
-3.757503256201744080e-02
-4.270169511437416077e-02
-2.593359164893627167e-02
-4.446301609277725220e-02
7.565902918577194214e-02
9.176708012819290161e-02
-6.939490139484405518e-02
-3.855795040726661682e-02
-3.726786375045776367e-02
-5.240134429186582565e-03
-8.580638468265533447e-02
-2.017869241535663605e-02
-3.048081183806061745e-03
-5.183936655521392822e-02
4.539265483617782593e-02
1.084800995886325836e-02
-5.065418407320976257e-02
5.713825672864913940e-02
-3.626369312405586243e-02
6.322727538645267487e-03
5.765970051288604736e-02
6.113060191273689270e-02
-7.217992842197418213e-02
-6.003966927528381348e-02
-1.891568675637245178e-02
-5.145002901554107666e-02
-3.401969000697135925e-02
-6.981263309717178345e-02
3.726731240749359131e-02
-5.222787614911794662e-03
-2.134961262345314026e-02
-4.007872194051742554e-02
2.771672606468200684e-02
-3.586968034505844116e-02
6.142121553421020508e-02
1.873853243887424469e-02
7.754883170127868652e-02
7.184645533561706543e-02
1.854665577411651611e-02
1.230634823441505432e-01
3.244284540414810181e-03
-6.438646465539932251e-02
-3.548010811209678650e-02
2.869016118347644806e-02
-3.477135300636291504e-02
-9.577603195793926716e-04
-3.315778821706771851e-02
-4.565270617604255676e-02
-4.010397195816040039e-02
2.555656433105468750e-02
4.490360245108604431e-02
5.863904207944869995e-02
8.273171633481979370e-02
-9.705603122711181641e-02
1.165169291198253632e-02
-2.594801597297191620e-02
-9.424839168787002563e-03
6.451562792062759399e-02
-6.213986873626708984e-02
2.442253939807415009e-02
-1.094339415431022644e-01
-4.525901749730110168e-02
-7.994272559881210327e-02
-1.070161834359169006e-01
1.157854050397872925e-01
8.619093336164951324e-03
-4.458616301417350769e-02
-5.756159871816635132e-02
-7.769402861595153809e-02
-2.007919596508145332e-03
-6.008465215563774109e-02
6.364037841558456421e-02
-7.344644516706466675e-02
1.921265572309494019e-02
-2.802789583802223206e-02
6.412658840417861938e-02
6.312483549118041992e-02
-1.222222670912742615e-01
-2.578479424118995667e-02
-7.543200999498367310e-02
-6.699930131435394287e-02
1.901728659868240356e-02
-7.922350615262985229e-02
-7.892844080924987793e-02
-3.855983912944793701e-02
-1.436480320990085602e-02
-5.555202811956405640e-02
-2.907253056764602661e-02
3.092137165367603302e-02
-5.616800487041473389e-02
-3.588586300611495972e-02
-4.077700152993202209e-02
4.754883795976638794e-02
-9.508106112480163574e-02
-7.764741033315658569e-02
4.045644775032997131e-02
-6.682632118463516235e-02
-4.617271944880485535e-02
6.811137776821851730e-03
1.106939651072025299e-02
-1.014762651175260544e-02
5.441867560148239136e-02
-7.370039820671081543e-02
-3.464015573263168335e-02
1.263761892914772034e-02
-5.631555616855621338e-02
4.478484019637107849e-02
-5.246930196881294250e-02
2.602347545325756073e-02
5.752818286418914795e-02
-2.324381470680236816e-02
-1.328798383474349976e-02
3.091238997876644135e-02
-1.087770387530326843e-01
-6.771224085241556168e-03
3.036728501319885254e-02
-1.168436557054519653e-02
-1.210318729281425476e-01
-5.021813791245222092e-03
-5.049617961049079895e-02
-1.314990073442459106e-01
-1.294100657105445862e-02
-8.242731541395187378e-02
4.484654963016510010e-02
-7.144095003604888916e-02
3.564066439867019653e-02
-7.113052159547805786e-02
4.667643830180168152e-02
-9.683670476078987122e-03
6.281512975692749023e-02
-1.074882876127958298e-02
-9.315648674964904785e-02
-4.152005538344383240e-03
-4.882029071450233459e-02
-1.851934567093849182e-02
-1.849971362389624119e-03
6.693980842828750610e-02
4.594278708100318909e-02
-8.101546764373779297e-02
-5.548029765486717224e-02
1.305700093507766724e-02
-9.428264573216438293e-03
1.463444530963897705e-02
-4.563575237989425659e-02
-1.146033480763435364e-01
6.053349748253822327e-02
6.970843765884637833e-03
-2.625361457467079163e-02
4.100195318460464478e-02
-5.220285058021545410e-02
3.509232029318809509e-02
-1.547135598957538605e-02
9.644867479801177979e-02
-1.236395165324211121e-02
2.566039003431797028e-02
4.285058937966823578e-03
-3.169247135519981384e-02
-4.167372733354568481e-02
-5.893665179610252380e-02
4.204614087939262390e-02
3.204423934221267700e-02
2.421583048999309540e-02
1.146979280747473240e-03
5.810707062482833862e-02
-1.087561529129743576e-02
7.997580617666244507e-02
4.553029779344797134e-03
-8.813533931970596313e-02
3.348565474152565002e-02
-7.197650521993637085e-02
8.527893573045730591e-02
3.820507228374481201e-02
5.370809137821197510e-02
-8.276201039552688599e-02
-4.632097855210304260e-02
9.589701890945434570e-02
-3.023721277713775635e-02
1.974945142865180969e-02
-3.063081391155719757e-02
-6.549989432096481323e-02
-7.397111505270004272e-02
-8.673803508281707764e-02
7.259702682495117188e-02
-4.098454862833023071e-02
-3.955453634262084961e-02
-1.457410305738449097e-01
5.093348026275634766e-02
-6.536048650741577148e-02
-8.512656204402446747e-03
3.607138246297836304e-02
-6.974934786558151245e-02
-2.216072008013725281e-02
2.508383989334106445e-02
-7.270374894142150879e-02
-5.698536708950996399e-02
8.917278796434402466e-02
-3.629048168659210205e-02
1.994966529309749603e-02
2.159085310995578766e-02
2.097079902887344360e-02
1.730218157172203064e-02
-2.947799116373062134e-02
5.412883684039115906e-02
-2.578686736524105072e-02
-3.134596720337867737e-02
3.928674384951591492e-03
3.719704225659370422e-02
-9.658960998058319092e-02
-7.432716339826583862e-02
-2.045293711125850677e-02
-8.486002683639526367e-02
6.424359977245330811e-02
1.930225268006324768e-02
-7.090802304446697235e-03
-8.016495406627655029e-02
8.361298590898513794e-02
3.277442231774330139e-02
-2.106537669897079468e-02
-1.188810020685195923e-01
-6.661468744277954102e-02
-4.663976281881332397e-02
-1.865697279572486877e-02
-4.745011031627655029e-02
-6.065431516617536545e-03
3.592249378561973572e-02
-1.026140712201595306e-02
-5.680401995778083801e-02
3.426498919725418091e-02
-6.515509635210037231e-02
5.437847971916198730e-02
8.189643733203411102e-03
-1.271888166666030884e-01
-6.031353399157524109e-02
5.700582172721624374e-03
3.360830992460250854e-02
4.429867118597030640e-02
-1.021872181445360184e-02
7.606206834316253662e-02
2.773068472743034363e-02
-2.912146598100662231e-02
9.233602136373519897e-02
-4.864742606878280640e-02
2.749560587108135223e-02
-2.709309384226799011e-02
-1.255619376897811890e-01
6.762446463108062744e-02
3.613331168889999390e-02
5.696238204836845398e-02
2.251520566642284393e-02
-5.953375948593020439e-04
4.535797052085399628e-03
-3.433796390891075134e-02
-1.060554012656211853e-02
1.105537116527557373e-01
-8.861951529979705811e-02
-2.160735614597797394e-02
-1.128512397408485413e-01
-4.641624540090560913e-02
-6.828328222036361694e-02
6.869322806596755981e-02
6.196659058332443237e-02
5.904557555913925171e-02
-5.471622943878173828e-02
-9.370923973619937897e-03
-7.905192673206329346e-02
7.999785989522933960e-02
-2.853335347026586533e-03
9.672725573182106018e-03
-1.877992600202560425e-02
-8.813279122114181519e-02
1.507369335740804672e-02
-2.109180018305778503e-02
7.186772301793098450e-03
-5.676056072115898132e-02
5.061714909970760345e-03
-6.609321571886539459e-03
1.653326861560344696e-02
-3.557423129677772522e-02
8.669497817754745483e-02
3.142623603343963623e-02
1.685400493443012238e-02
-7.644219696521759033e-02
3.227900341153144836e-02
2.442790195345878601e-02
7.786409556865692139e-02
1.228340528905391693e-02
-9.758017025887966156e-03
5.945512652397155762e-02
-9.210814721882343292e-03
3.125495463609695435e-02
-5.630526691675186157e-02
-2.238064771518111229e-03
1.684426888823509216e-02
-1.132928580045700073e-02
8.583845943212509155e-02
8.284144103527069092e-02
-3.575704246759414673e-02
9.877649694681167603e-02
9.274862706661224365e-02
2.325011603534221649e-02
-7.031835615634918213e-02
9.094825387001037598e-02
-3.057288192212581635e-02
2.428859844803810120e-02
1.943104900419712067e-02
7.558912038803100586e-02
7.805542647838592529e-02
1.427488587796688080e-02
3.916539996862411499e-02
4.121930338442325592e-03
-1.065174490213394165e-01
5.812655389308929443e-02
3.100866265594959259e-02
-1.867727749049663544e-02
6.085297465324401855e-02
-5.288697779178619385e-02
-7.122094929218292236e-02
-4.504773020744323730e-02
-4.055766016244888306e-02
6.713575869798660278e-02
8.037979900836944580e-02
-3.537278249859809875e-02
-5.198025703430175781e-02
-3.675322979688644409e-02
1.375229004770517349e-02
5.624051019549369812e-02
-5.067111924290657043e-02
3.509932756423950195e-02
-5.474824830889701843e-02
-4.881840199232101440e-02
-2.009726315736770630e-02
2.079347614198923111e-03
-2.336887083947658539e-02
3.476725146174430847e-02
-4.282670095562934875e-02
6.195654720067977905e-02
6.800141930580139160e-02
3.002082183957099915e-02
-3.840917721390724182e-02
-9.286618232727050781e-02
-1.651752856560051441e-03
-3.833317384123802185e-02
7.009976357221603394e-02
4.965215176343917847e-02
2.283651614561676979e-03
7.682953774929046631e-02
-5.754555016756057739e-02
5.203999951481819153e-02
-3.350218012928962708e-02
-6.847044080495834351e-02
8.406148850917816162e-02
-4.568786919116973877e-02
8.498790860176086426e-02
-4.420371353626251221e-02
5.284083262085914612e-02
-4.754260182380676270e-02
-3.714707121253013611e-02
3.694489225745201111e-02
5.132157355546951294e-03
7.735501229763031006e-02
1.719054020941257477e-02
8.045899122953414917e-02
-1.258951146155595779e-02
-4.844834282994270325e-02
5.538586899638175964e-02
-7.393474876880645752e-02
4.798689484596252441e-02
2.714524976909160614e-02
-2.539036050438880920e-02
-7.197390496730804443e-02
-7.423835247755050659e-02
2.381536364555358887e-02
-1.829084567725658417e-02
7.836541533470153809e-02
-2.618216909468173981e-02
-3.533845767378807068e-02
-5.092966929078102112e-02
-8.268302679061889648e-02
2.620245143771171570e-02
2.286858297884464264e-02
4.715255647897720337e-02
-8.762310445308685303e-02
-7.645139843225479126e-02
2.935986220836639404e-02
6.340748816728591919e-02
-6.304978579282760620e-02
8.173999376595020294e-03
1.165380608290433884e-02
8.518354594707489014e-02
-4.614250734448432922e-02
4.077535867691040039e-02
3.432789817452430725e-02
8.105013519525527954e-02
-4.689671471714973450e-02
-8.210367709398269653e-02
2.335564978420734406e-02
-4.788595065474510193e-02
-8.557890355587005615e-02
-5.799498781561851501e-02
7.079889532178640366e-03
-5.079195275902748108e-02
-3.372260555624961853e-02
-6.309730559587478638e-02
9.110347926616668701e-02
-1.942344568669795990e-02
-3.426500037312507629e-02
4.715026542544364929e-02
-6.577425450086593628e-02
-1.111794784665107727e-01
4.224840179085731506e-02
2.485607378184795380e-02
5.004280246794223785e-03
-7.095422130078077316e-03
-5.876780673861503601e-02
-1.143163666129112244e-01
1.669984497129917145e-02
7.080460339784622192e-02
5.499294772744178772e-02
-6.758791208267211914e-02
-5.313321016728878021e-04
-5.041230469942092896e-02
-7.621345669031143188e-02
-6.033892184495925903e-02
6.384553760290145874e-02
2.465148572809994221e-04
-6.384897232055664062e-02
7.689561694860458374e-02
-9.326061606407165527e-02
-9.807952679693698883e-03
-6.048552691936492920e-02
-6.362403184175491333e-02
-2.410700079053640366e-03
7.296322286128997803e-02
-1.254991069436073303e-02
-7.191693782806396484e-02
-2.214047312736511230e-02
3.295255079865455627e-02
4.083926789462566376e-03
3.726322203874588013e-03
-2.600436285138130188e-02
-7.005695998668670654e-02
-2.218516310676932335e-03
-4.306393489241600037e-02
-1.231459993869066238e-02
-1.234597936272621155e-01
9.311203658580780029e-02
-1.000531613826751709e-01
4.903344903141260147e-03
-1.760046035051345825e-01
-3.290228545665740967e-02
1.088063884526491165e-02
-6.897137314081192017e-02
-7.669200003147125244e-02
6.153944507241249084e-02
3.444637358188629150e-02
1.871218159794807434e-02
2.430435828864574432e-02
-4.589864984154701233e-02
-4.863819573074579239e-03
7.192470878362655640e-02
-1.422246824949979782e-02
8.869115263223648071e-03
-6.133452802896499634e-02
6.786263734102249146e-02
2.394269965589046478e-02
-1.060013622045516968e-01
-8.214450627565383911e-02
-1.016835570335388184e-01
5.880822241306304932e-02
-4.955160617828369141e-02
-3.810740262269973755e-02
-1.644819043576717377e-02
-6.478720903396606445e-02
2.956962957978248596e-02
2.641974762082099915e-02
-2.025163359940052032e-02
-9.882559068500995636e-03
8.519782871007919312e-02
-7.325948029756546021e-02
8.499228954315185547e-02
-7.355332374572753906e-02
5.724077671766281128e-02
6.372128613293170929e-03
-5.474220216274261475e-02
7.709355652332305908e-02
5.617775395512580872e-02
-6.454413291066884995e-03
1.927368342876434326e-02
1.967439614236354828e-02
-7.788784336298704147e-03
-9.309254586696624756e-02
-8.823172189295291901e-03
-5.455324053764343262e-02
6.862960755825042725e-02
2.481315098702907562e-02
6.964023411273956299e-02
6.828792393207550049e-02
6.257483363151550293e-02
-4.313423484563827515e-02
-5.176085606217384338e-02
1.679324358701705933e-02
-1.083573997020721436e-01
-9.159859269857406616e-02
1.477448176592588425e-02
-3.808190673589706421e-02
-7.568772137165069580e-02
5.597629770636558533e-02
3.239617869257926941e-02
3.424916788935661316e-02
-4.166635125875473022e-02
1.517990231513977051e-02
4.789002984762191772e-02
-2.743279561400413513e-02
-2.126871049404144287e-02
-5.946877971291542053e-02
-5.538566410541534424e-02
8.280422538518905640e-03
6.001251935958862305e-02
-1.444592420011758804e-02
-7.029782980680465698e-02
1.559663843363523483e-02
-9.148374199867248535e-02
8.412743359804153442e-02
8.775877952575683594e-02
-2.258624322712421417e-02
2.530368417501449585e-02
-1.346507817506790161e-01
-4.978027194738388062e-02
-1.211074590682983398e-01
-1.729211024940013885e-02
-2.854557894170284271e-02
6.768827885389328003e-02
-7.267918437719345093e-02
-7.542037218809127808e-02
5.728546530008316040e-02
1.121872663497924805e-02
-8.261448889970779419e-02
-5.408212170004844666e-02
1.237413380295038223e-02
-5.733624473214149475e-02
-1.963440328836441040e-02
-3.875469416379928589e-02
3.954049199819564819e-02
-3.008491732180118561e-02
1.184816285967826843e-02
2.927961200475692749e-02
-8.698172122240066528e-02
-4.884259775280952454e-02
5.731709301471710205e-02
-1.030445024371147156e-01
8.156652003526687622e-02
-3.375985473394393921e-02
-3.964930027723312378e-02
4.771882668137550354e-02
6.214291602373123169e-02
6.940526515245437622e-02
9.842362254858016968e-02
-2.822978235781192780e-02
-8.682423830032348633e-02
5.422019958496093750e-02
-6.286688894033432007e-02
-4.226899519562721252e-02
3.190802037715911865e-02
-4.509679228067398071e-02
-1.526629086583852768e-02
4.089934006333351135e-02
-5.382827366702258587e-04
-6.472327560186386108e-02
5.494263768196105957e-02
-4.427055642008781433e-02
-1.310964394360780716e-02
-6.895518302917480469e-02
-1.382780913263559341e-02
9.278719127178192139e-02
5.249741673469543457e-02
-9.209036827087402344e-02
-5.537696555256843567e-02
-1.146338996477425098e-03
3.362628445029258728e-02
-2.479991316795349121e-02
-4.046079516410827637e-02
-6.848540902137756348e-02
1.066644042730331421e-01
-3.805390745401382446e-02
-5.806567892432212830e-02
1.203927956521511078e-02
2.049029991030693054e-02
-5.499081686139106750e-02
-6.473428010940551758e-02
1.701588742434978485e-02
1.033313944935798645e-01
-9.488105773925781250e-02
5.158491898328065872e-03
-1.620470732450485229e-02
-1.428061258047819138e-02
-8.357250131666660309e-03
4.570060595870018005e-02
1.002861303277313709e-03
-5.582275986671447754e-02
8.255783468484878540e-03
-9.197323024272918701e-02
6.660938262939453125e-02
-3.028959967195987701e-02
-2.633969858288764954e-02
-2.607375569641590118e-02
7.129485905170440674e-02
3.423224762082099915e-02
7.992317527532577515e-02
1.262441929429769516e-02
3.916499018669128418e-02
7.479535788297653198e-02
6.282556802034378052e-03
3.821538761258125305e-02
-3.119474649429321289e-02
5.297924578189849854e-02
6.444255355745553970e-03
-2.975383587181568146e-02
-5.969731137156486511e-02
-7.247231900691986084e-02
9.409819729626178741e-03
-1.603749953210353851e-02
-3.115865588188171387e-02
3.903271630406379700e-02
-1.294569857418537140e-02
-4.039542004466056824e-02
-5.815627798438072205e-02
1.259082648903131485e-02
-1.754777133464813232e-02
2.437844127416610718e-02
1.486405823379755020e-02
7.251384109258651733e-02
6.825013458728790283e-02
-7.846944034099578857e-02
-9.392236359417438507e-03
1.060873270034790039e-03
1.933511346578598022e-02
-1.023997887969017029e-01
-6.829157471656799316e-02
2.716008573770523071e-02
-6.325282901525497437e-02
-8.112508803606033325e-02
-3.280178830027580261e-02
2.411035820841789246e-02
-8.079373091459274292e-02
5.063237994909286499e-02
1.980500482022762299e-02
-5.604244396090507507e-02
-8.723346143960952759e-02
6.586183607578277588e-02
-4.671095684170722961e-02
-5.062992125749588013e-02
2.936002425849437714e-02
-5.181239545345306396e-02
1.712143979966640472e-02
-3.239899501204490662e-02
9.284093976020812988e-02
5.648239701986312866e-02
-6.790373474359512329e-03
-1.252051815390586853e-02
5.569376423954963684e-02
-5.091558024287223816e-02
-4.886558651924133301e-02
4.402182251214981079e-02
-1.085123345255851746e-01
-1.444499045610427856e-01
-2.208345942199230194e-02
3.492402285337448120e-02
7.591474056243896484e-02
-8.501194417476654053e-02
-5.862292274832725525e-02
-1.303197294473648071e-01
-2.377186343073844910e-02
-5.366102978587150574e-02
6.617058813571929932e-02
-2.673845179378986359e-02
-7.256249338388442993e-02
-6.406720727682113647e-02
8.876027911901473999e-02
-8.565962314605712891e-02
6.690368801355361938e-02
5.284539610147476196e-02
3.904530778527259827e-02
-5.639386922121047974e-02
1.099457871168851852e-02
8.203429728746414185e-02
-1.641048351302742958e-03
-4.038419201970100403e-02
2.319404482841491699e-02
-4.154987633228302002e-02
-4.462895169854164124e-02
1.529432740062475204e-02
5.016465485095977783e-02
1.245379168540239334e-02
-8.465163409709930420e-02
6.502321362495422363e-02
-1.584181562066078186e-02
3.632711991667747498e-02
-7.743006199598312378e-02
7.442975044250488281e-02
-1.690576225519180298e-02
-1.516815572977066040e-01
-1.673091948032379150e-02
-1.213871166110038757e-01
-8.941931277513504028e-02
2.698133327066898346e-02
2.491175010800361633e-02
-6.890282779932022095e-02
2.602849900722503662e-02
-9.229423105716705322e-02
1.036741733551025391e-01
-7.164099067449569702e-02
6.614924222230911255e-02
3.064949251711368561e-02
-6.550664454698562622e-02
-7.254742830991744995e-02
6.405112799257040024e-03
-5.546095594763755798e-02
-8.711279183626174927e-02
3.886501491069793701e-02
9.682621061801910400e-02
7.185297459363937378e-02
-9.055730700492858887e-02
-3.838809952139854431e-02
-2.038701251149177551e-02
-2.262664772570133209e-02
-1.242480985820293427e-02
-3.391898795962333679e-02
-9.874368086457252502e-03
-8.364218473434448242e-02
-1.433465816080570221e-02
-5.156089900992810726e-04
8.119802223518490791e-04
2.069088397547602654e-03
4.731395468115806580e-02
-9.260757267475128174e-02
-3.548631817102432251e-02
-3.640542551875114441e-02
-4.399712197482585907e-03
7.955837994813919067e-02
1.565848477184772491e-02
-1.112246699631214142e-02
-3.035370633006095886e-02
-3.100089915096759796e-02
-2.984097786247730255e-02
9.365259669721126556e-03
3.980695083737373352e-02
4.321855306625366211e-02
3.632473945617675781e-02
-7.986986637115478516e-02
2.552736178040504456e-02
4.686749354004859924e-02
-8.065307885408401489e-02
9.141467511653900146e-03
3.276338567957282066e-03
-5.507936701178550720e-02
5.955659970641136169e-02
3.037885762751102448e-02
8.615487068891525269e-02
-1.286629289388656616e-01
-1.269511878490447998e-02
-9.111733734607696533e-02
-4.639259353280067444e-02
-6.866180151700973511e-02
8.764830231666564941e-02
-4.030798003077507019e-02
6.503698974847793579e-02
-7.120683044195175171e-02
8.441790938377380371e-02
-2.975927479565143585e-02
-5.878381058573722839e-02
-3.335705399513244629e-02
2.106117084622383118e-02
-1.095242649316787720e-01
-8.878495544195175171e-02
7.026609964668750763e-03
-5.204409360885620117e-02
-7.379844784736633301e-02
-3.541889414191246033e-02
1.079964488744735718e-01
5.303905159235000610e-02
5.401982925832271576e-03
-5.782146379351615906e-02
-7.770414650440216064e-02
7.399351894855499268e-02
-1.277954131364822388e-01
6.154352426528930664e-02
6.794661283493041992e-02
-1.057004323229193687e-03
7.371138781309127808e-02
8.024016767740249634e-02
-6.316578947007656097e-03
-9.810080379247665405e-02
4.815366864204406738e-02
-5.405670031905174255e-02
3.867148980498313904e-02
-1.297842059284448624e-02
-9.220651537179946899e-02
2.839039638638496399e-02
-4.719480872154235840e-02
-3.858050331473350525e-02
-5.839700996875762939e-02
5.162853747606277466e-02
6.617244333028793335e-02
5.056742206215858459e-02
2.803097851574420929e-02
-6.730482727289199829e-02
-5.838504433631896973e-02
-6.067391112446784973e-02
6.320992112159729004e-02
-3.761468082666397095e-02
7.204433530569076538e-02
-5.635874718427658081e-02
8.246787637472152710e-02
-5.424010381102561951e-02
3.600968047976493835e-02
7.789990864694118500e-03
6.291411817073822021e-02
-1.477607619017362595e-02
2.985234558582305908e-02
4.817100986838340759e-02
-1.879922859370708466e-02
-7.765290886163711548e-02
-7.614706456661224365e-02
-1.892811059951782227e-02
9.094156324863433838e-03
7.363635301589965820e-02
-3.858356177806854248e-02
4.722925648093223572e-02
-8.099232614040374756e-02
8.054149895906448364e-02
-5.140773486346006393e-03
-5.662686377763748169e-02
-2.013820456340909004e-03
-7.862024754285812378e-02
7.946199178695678711e-02
8.193282783031463623e-02
-1.390674989670515060e-02
-8.961439877748489380e-02
3.487566113471984863e-02
1.202986575663089752e-02
6.231217831373214722e-02
4.110336676239967346e-02
8.103859424591064453e-02
4.876170307397842407e-02
-2.341040596365928650e-02
-2.994039654731750488e-02
-9.499710053205490112e-02
2.003720775246620178e-02
7.806286215782165527e-02
-6.934457272291183472e-02
-2.837373409420251846e-03
2.486474113538861275e-03
1.320544537156820297e-02
4.113175719976425171e-02
-1.006446592509746552e-02
3.594673797488212585e-02
-6.209228187799453735e-02
2.584534697234630585e-02
3.191632032394409180e-02
6.178038567304611206e-02
1.020815968513488770e-01
-8.410037308931350708e-02
1.139400526881217957e-02
-9.727851487696170807e-03
-1.095121819525957108e-02
-3.663972020149230957e-02
-5.855613201856613159e-02
1.056213025003671646e-02
-3.859207779169082642e-02
-3.341831639409065247e-02
-1.118286475539207458e-01
7.851547002792358398e-02
5.465641245245933533e-02
5.615714564919471741e-02
4.178941994905471802e-02
1.508127804845571518e-02
2.699026465415954590e-02
4.643201082944869995e-02
6.308937817811965942e-02
7.106253504753112793e-02
1.869534514844417572e-02
-5.366038531064987183e-03
5.036898422986268997e-03
-2.474775165319442749e-02
9.673068299889564514e-03
-8.374194055795669556e-02
-1.052028220146894455e-02
4.557417705655097961e-02
-5.195288360118865967e-02
3.328203409910202026e-02
-3.199242055416107178e-02
5.012055393308401108e-03
-2.096264623105525970e-02
-8.633922040462493896e-02
5.934338271617889404e-02
1.857304200530052185e-02
-8.965541422367095947e-02
2.345461957156658173e-02
-7.516970485448837280e-02
-6.757418811321258545e-02
7.342625409364700317e-02
-1.321027800440788269e-02
7.715409249067306519e-02
3.273067995905876160e-02
-5.552576389163732529e-03
-2.443808317184448242e-02
9.879529476165771484e-03
-3.277186676859855652e-02
8.341699838638305664e-02
-8.030634373426437378e-02
-2.673197723925113678e-02
-4.107889905571937561e-02
-2.007881924510002136e-02
3.570736618712544441e-03
-5.307710543274879456e-02
-6.053414940834045410e-02
1.681100577116012573e-02
2.729150094091892242e-02
6.930281966924667358e-02
-2.003001049160957336e-02
5.642488598823547363e-02
-5.123733729124069214e-02
1.204110085964202881e-01
3.845687210559844971e-02
-2.036661282181739807e-02
-1.305135525763034821e-02
-2.736399695277214050e-02
7.627881318330764771e-02
-3.618209809064865112e-02
2.240175195038318634e-02
-1.836485601961612701e-02
7.526762038469314575e-02
7.006290368735790253e-03
-3.249027580022811890e-02
3.398486226797103882e-02
-7.683702558279037476e-02
-5.125420540571212769e-02
1.308360099792480469e-01
-8.161371201276779175e-02
-2.064521424472332001e-02
-9.477791935205459595e-02
-3.756169229745864868e-02
-2.560463035479187965e-03
-8.925344049930572510e-02
-1.871393807232379913e-02
7.923483848571777344e-02
-1.634193956851959229e-02
-1.018822491168975830e-01
-2.689744345843791962e-02
1.080936715006828308e-01
-1.242138724774122238e-02
-2.115333266556262970e-02
4.255095869302749634e-02
4.525890573859214783e-02
-7.627442828379571438e-04
2.421234734356403351e-02
6.692241132259368896e-02
-7.911247760057449341e-02
6.351473927497863770e-02
2.519924193620681763e-03
-3.301027417182922363e-02
-1.934787840582430363e-03
-1.534530892968177795e-02
2.840697066858410835e-03
1.420621126890182495e-01
-4.478580504655838013e-02
-1.006257832050323486e-01
-6.802037358283996582e-02
6.707985699176788330e-02
6.712029129266738892e-02
-8.963998407125473022e-02
7.426477223634719849e-02
-1.053579337894916534e-02
6.420894712209701538e-02
4.707644879817962646e-02
3.000901080667972565e-03
1.151510626077651978e-01
-2.844698168337345123e-02
-1.039768010377883911e-02
1.366629172116518021e-02
5.163419991731643677e-02
-6.952811777591705322e-02
7.472017779946327209e-03
5.373629182577133179e-02
2.223092131316661835e-02
3.410718962550163269e-02
-2.469570748507976532e-02
-7.113697379827499390e-02
-8.067095279693603516e-02
-7.575187087059020996e-02
8.459012955427169800e-02
-9.599278867244720459e-02
3.641877695918083191e-02
1.258633681572973728e-03
1.003902256488800049e-01
8.963160216808319092e-03
-8.797591924667358398e-02
-1.143927872180938721e-02
4.957992210984230042e-02
1.146719455718994141e-01
2.971076965332031250e-02
3.011900186538696289e-02
-4.885197803378105164e-02
-2.055964618921279907e-02
-2.199216000735759735e-02
-6.374884396791458130e-02
5.346492305397987366e-02
1.485427469015121460e-02
-1.950662955641746521e-02
-1.103371754288673401e-01
-4.383931681513786316e-02
-1.141283102333545685e-02
6.233593821525573730e-02
-5.890952888876199722e-03
-7.503169775009155273e-02
5.057363957166671753e-02
-8.392184227705001831e-02
-5.010168254375457764e-02
1.159603521227836609e-01
-8.041848242282867432e-02
-1.567136868834495544e-02
5.894736386835575104e-03
-7.520593237131834030e-03
-5.070457980036735535e-02
4.990325495600700378e-02
3.380719944834709167e-02
4.738720878958702087e-02
5.636758729815483093e-02
8.383851498365402222e-02
-7.966371625661849976e-02
6.678596138954162598e-02
3.355997428297996521e-02
4.420419689267873764e-03
1.726776361465454102e-02
-3.578174626454710960e-03
-9.055968374013900757e-02
8.469785004854202271e-02
8.869994431734085083e-02
7.979238033294677734e-02
1.848027482628822327e-02
3.954801708459854126e-02
9.819009900093078613e-02
5.016594193875789642e-03
8.910532295703887939e-02
5.542580038309097290e-03
8.960358053445816040e-02
-6.093378737568855286e-02
-1.666374318301677704e-02
-5.577109009027481079e-02
1.326143462210893631e-02
8.002470433712005615e-02
-4.517187550663948059e-02
-9.730210527777671814e-03
-1.911977864801883698e-02
-4.424533247947692871e-02
-8.526278287172317505e-02
-5.837282538414001465e-02
-7.238187361508607864e-03
6.462799012660980225e-02
-5.904225632548332214e-02
3.487005457282066345e-02
-3.960156813263893127e-02
4.061336442828178406e-02
-7.944271713495254517e-02
2.236182568594813347e-03
-2.210557833313941956e-02
-3.959517553448677063e-02
-8.066818863153457642e-02
-7.841193675994873047e-02
3.634408488869667053e-02
-8.058404177427291870e-02
1.486982032656669617e-02
-9.940685331821441650e-02
-8.501375466585159302e-02
-4.485991969704627991e-02
-7.540045678615570068e-02
-7.478700578212738037e-02
-7.746094465255737305e-02
-5.961175262928009033e-02
4.749886319041252136e-02
-5.894840508699417114e-02
5.827524140477180481e-02
2.988662756979465485e-02
-6.621636915951967239e-03
2.056077308952808380e-02
-7.719144970178604126e-02
1.346603874117136002e-02
5.401512607932090759e-02
4.166309535503387451e-02
-4.265210777521133423e-02
5.113571882247924805e-02
-8.221130818128585815e-02
-2.438329346477985382e-02
-5.681570619344711304e-02
-3.405793011188507080e-02
-4.136192053556442261e-02
-5.520877614617347717e-02
7.273432612419128418e-02
4.766945727169513702e-03
-9.013662487268447876e-02
6.888071447610855103e-02
-9.361495822668075562e-02
6.959535926580429077e-02
5.376297980546951294e-02
-5.586322769522666931e-02
1.617247797548770905e-02
1.866681128740310669e-02
-4.230596125125885010e-02
-6.153812259435653687e-02
-4.339988809078931808e-03
-8.006566017866134644e-02
-5.088648945093154907e-02
-8.724594488739967346e-03
-4.233814775943756104e-02
5.555985961109399796e-03
5.031340569257736206e-02
1.950295991264283657e-03
-4.452221095561981201e-02
-1.102864649146795273e-02
-6.201995909214019775e-02
-5.348684638738632202e-02
-4.500066116452217102e-02
-3.738062456250190735e-02
-3.905818238854408264e-02
-9.133692830801010132e-03
-4.336882010102272034e-02
3.776222467422485352e-03
-8.947832882404327393e-02
-7.682431489229202271e-02
-9.166906028985977173e-02
-6.543388962745666504e-02
-4.223889205604791641e-03
4.229179769754409790e-02
-1.650845445692539215e-02
-8.613792061805725098e-02
-1.663939096033573151e-02
6.955059617757797241e-02
2.885452844202518463e-02
7.007475942373275757e-03
-4.725338518619537354e-02
-1.856408081948757172e-02
1.084830164909362793e-01
-7.184623926877975464e-02
1.282822620123624802e-02
2.412780933082103729e-02
-9.001901000738143921e-02
-7.172570377588272095e-02
-5.295327398926019669e-03
-6.114356964826583862e-02
3.342213481664657593e-02
-1.043167188763618469e-01
3.314910829067230225e-02
-7.824829965829849243e-02
-3.735257312655448914e-02
-4.299438744783401489e-02
4.569682106375694275e-02
-6.761012971401214600e-02
-2.000409178435802460e-02
-9.836212545633316040e-02
3.658247366547584534e-02
2.880890667438507080e-02
4.925741255283355713e-02
8.985063433647155762e-02
6.212460249662399292e-02
-7.543759047985076904e-02
-7.229930255562067032e-03
5.732853338122367859e-02
-4.561424627900123596e-02
1.452652271836996078e-02
-4.453449323773384094e-02
-2.178627066314220428e-02
-2.028613723814487457e-02
-5.527212470769882202e-02
2.328234026208519936e-03
5.488118529319763184e-02
-5.918645113706588745e-02
-6.578113883733749390e-02
2.692849375307559967e-02
5.036629363894462585e-02
-3.676885366439819336e-02
2.460594847798347473e-02
5.817708745598793030e-02
5.404065549373626709e-02
-1.765522407367825508e-03
6.049626972526311874e-03
-6.522692739963531494e-02
-1.934051886200904846e-02
8.343287557363510132e-02
-7.607512176036834717e-02
6.982845813035964966e-02
5.924526974558830261e-02
-7.933603227138519287e-02
1.351866032928228378e-02
6.932332366704940796e-02
-4.902763664722442627e-02
4.113805294036865234e-02
-5.845543742179870605e-02
3.456657752394676208e-02
1.655150204896926880e-02
3.087230585515499115e-02
1.917635835707187653e-02
1.308265142142772675e-02
-3.872746229171752930e-02
-3.987091779708862305e-02
3.889917209744453430e-02
9.102011471986770630e-02
3.231064975261688232e-02
2.648411504924297333e-02
-3.449764847755432129e-02
4.429610818624496460e-02
-4.506668075919151306e-02
1.057314649224281311e-01
-3.669094294309616089e-02
-6.352058053016662598e-02
6.437509506940841675e-02
-7.023049145936965942e-02
-2.430350519716739655e-02
-3.683738783001899719e-02
-7.214833050966262817e-03
7.097782939672470093e-02
9.140943735837936401e-02
-7.148695737123489380e-02
-8.882506936788558960e-02
6.233510794118046761e-04
-5.905462056398391724e-02
-8.770825713872909546e-02
-7.898947224020957947e-03
3.845504671335220337e-02
3.720211982727050781e-02
-3.080651722848415375e-02
-1.066413745284080505e-01
-6.368836015462875366e-02
2.997105568647384644e-02
7.796664535999298096e-02
-4.787913709878921509e-02
4.581311717629432678e-02
-4.896648973226547241e-02
2.211299911141395569e-02
6.207486614584922791e-02
-7.980149239301681519e-02
-3.566112741827964783e-02
6.151946634054183960e-02
-8.198434859514236450e-02
-4.033833742141723633e-02
-2.383146807551383972e-02
-6.909213028848171234e-03
5.736617743968963623e-02
-4.811489954590797424e-02
2.280471473932266235e-02
-9.697658009827136993e-03
-8.463871665298938751e-03
-3.315534442663192749e-02
-3.931748680770397186e-03
-2.048125304281711578e-02
2.975273318588733673e-02
-1.113042607903480530e-02
-2.347817085683345795e-02
8.103760331869125366e-02
1.708842627704143524e-02
1.196604408323764801e-02
-3.246781881898641586e-03
4.075265303254127502e-02
5.267700552940368652e-02
4.904555901885032654e-02
-1.044518575072288513e-01
-5.267284810543060303e-02
-4.243274405598640442e-02
1.371065992861986160e-02
-1.045677252113819122e-02
-3.766801208257675171e-02
5.315580964088439941e-02
-5.089565739035606384e-02
-6.535450369119644165e-02
-7.944080978631973267e-02
3.587079793214797974e-02
6.490424275398254395e-02
3.664947301149368286e-02
-4.870475083589553833e-02
-5.859912186861038208e-02
-1.025573071092367172e-02
2.255217917263507843e-02
-9.042917750775814056e-03
-2.407061308622360229e-02
-2.825976349413394928e-03
2.456451393663883209e-02
6.102391332387924194e-02
-7.942096889019012451e-02
-5.423968657851219177e-02
8.280336111783981323e-02
3.478463739156723022e-02
-7.155787944793701172e-02
-2.733709290623664856e-02
6.552783399820327759e-02
-2.171290572732686996e-03
7.223667204380035400e-02
1.108550745993852615e-02
-2.172514051198959351e-02
-2.193735539913177490e-02
4.559068754315376282e-02
-1.514771301299333572e-02
2.473951689898967743e-02
7.788362354040145874e-02
-3.747431188821792603e-02
-1.933127455413341522e-02
-9.742702543735504150e-02
-1.083433534950017929e-02
1.431522425264120102e-02
-3.426015004515647888e-02
-4.606554657220840454e-02
-5.431027337908744812e-02
-7.873515039682388306e-02
-1.145923733711242676e-01
5.089032649993896484e-02
1.595595106482505798e-02
-4.596604406833648682e-02
-2.022522874176502228e-02
-1.149392686784267426e-02
-1.052691936492919922e-01
-3.043684549629688263e-02
-2.122161909937858582e-02
-3.307729959487915039e-02
-2.401492744684219360e-02
3.952090442180633545e-02
1.970296166837215424e-02
7.303467486053705215e-03
-8.075485378503799438e-02
4.260852187871932983e-02
5.852030217647552490e-02
6.108384951949119568e-02
-7.077786326408386230e-02
1.815732684917747974e-03
-8.989467471837997437e-02
-2.791969664394855499e-02
-7.247564848512411118e-03
7.102680951356887817e-02
7.658074051141738892e-02
1.487666927278041840e-02
4.880882799625396729e-02
-1.075264066457748413e-01
3.778553009033203125e-02
-2.293108962476253510e-03
9.929119795560836792e-02
7.037970423698425293e-02
-7.887721061706542969e-02
-7.632540911436080933e-02
-1.925818994641304016e-02
-8.655598759651184082e-02
-9.762123227119445801e-03
4.607634153217077255e-03
3.062898758798837662e-03
2.636120654642581940e-02
-3.045037016272544861e-02
5.613536015152931213e-02
5.905476957559585571e-02
-9.345059096813201904e-02
-3.236378729343414307e-02
7.082498073577880859e-02
-2.968274988234043121e-02
-6.651668995618820190e-02
6.286841630935668945e-02
9.310704190284013748e-04
2.926636673510074615e-02
6.028502061963081360e-02
-7.350542396306991577e-02
1.038461271673440933e-02
-7.931187748908996582e-02
3.262835368514060974e-02
-4.457080736756324768e-02
2.648253738880157471e-02
-1.172417122870683670e-02
-5.189017951488494873e-02
-1.057304721325635910e-02
-1.345628965646028519e-02
-5.120376124978065491e-02
-5.367038771510124207e-02
-7.179543375968933105e-02
-5.564915388822555542e-02
7.852713763713836670e-02
1.373737119138240814e-02
1.897122338414192200e-02
-4.597024619579315186e-02
4.730835929512977600e-02
-5.447056889533996582e-02
-7.097401469945907593e-02
-7.495495676994323730e-02
1.748745888471603394e-02
-1.007608845829963684e-01
3.661046922206878662e-02
4.008120298385620117e-02
-2.032524347305297852e-02
-4.094165191054344177e-02
4.444475099444389343e-02
-4.414868354797363281e-02
-9.933415800333023071e-02
-1.330918222665786743e-01
4.993541166186332703e-03
-5.327171832323074341e-02
-1.220896765589714050e-01
-8.334755152463912964e-02
-3.344292566180229187e-02
5.664748325943946838e-02
-2.340594492852687836e-02
-2.662287733983248472e-04
-1.934612691402435303e-01
-5.338105559349060059e-02
9.055369347333908081e-02
3.189456462860107422e-02
5.998498201370239258e-02
3.038371168076992035e-02
-1.636648736894130707e-02
6.857302039861679077e-02
6.005240720696747303e-04
4.697817785199731588e-04
5.306174978613853455e-02
2.843606844544410706e-02
5.716902390122413635e-02
3.713927045464515686e-02
2.798163518309593201e-02
-1.190466154366731644e-02
1.311192661523818970e-02
2.674100175499916077e-02
-5.373797565698623657e-02
8.346716314554214478e-02
4.844631999731063843e-03
-8.321314118802547455e-03
-5.086010321974754333e-02
4.211386665701866150e-02
-8.040421456098556519e-02
7.337710261344909668e-02
-4.327071830630302429e-02
-6.832672748714685440e-03
7.941354811191558838e-02
1.170287840068340302e-02
-3.426094725728034973e-02
6.549174338579177856e-02
2.115514315664768219e-02
1.380565948784351349e-02
4.031341895461082458e-02
-7.944733649492263794e-02
-8.602287620306015015e-02
4.041925817728042603e-02
7.798317074775695801e-02
-1.516354084014892578e-02
-6.801214069128036499e-02
-4.611888434737920761e-03
7.612556684762239456e-03
-5.126953870058059692e-02
-4.878816008567810059e-02
6.634563207626342773e-02
-4.648370295763015747e-02
-9.327995032072067261e-02
5.446993932127952576e-02
-4.376225173473358154e-02
1.312381774187088013e-01
-3.939092904329299927e-02
1.201052946271374822e-04
-6.399463862180709839e-02
-1.062859315425157547e-02
-3.255397826433181763e-02
-4.266636446118354797e-02
1.949837245047092438e-02
6.124266237020492554e-02
-1.532506290823221207e-02
-4.697606712579727173e-02
6.984835118055343628e-02
-7.388108968734741211e-02
-5.277583375573158264e-02
7.938590645790100098e-02
1.745564788579940796e-01
1.137388683855533600e-02
7.145164906978607178e-02
5.203008279204368591e-02
-5.933172255754470825e-02
2.116858027875423431e-02
5.365033866837620735e-04
3.508511558175086975e-02
-1.450531836599111557e-02
7.674880325794219971e-02
2.587018720805644989e-02
-7.752772420644760132e-02
5.127620697021484375e-02
-5.244913324713706970e-02
-4.910594434477388859e-04
9.176439605653285980e-03
-8.122433722019195557e-02
-3.548706695437431335e-02
4.480513930320739746e-02
-4.430261906236410141e-03
9.065103717148303986e-03
-9.544175118207931519e-02
2.222511917352676392e-02
1.157627776265144348e-01
-4.018238931894302368e-02
4.226459190249443054e-02
5.811656638979911804e-02
2.215101569890975952e-02
-8.147168904542922974e-02
9.410231560468673706e-02
-1.221825834363698959e-02
8.016107603907585144e-03
3.866638988256454468e-02
7.242007553577423096e-02
-9.249029308557510376e-02
9.535215049982070923e-02
7.612776756286621094e-02
4.772272333502769470e-02
-3.008900210261344910e-02
-2.897224621847271919e-03
-2.612351067364215851e-02
3.232150897383689880e-02
3.832957148551940918e-02
-5.053040757775306702e-02
1.332018896937370300e-02
-3.930024057626724243e-02
-9.007507562637329102e-02
-5.236940085887908936e-02
-4.650159552693367004e-02
7.902640849351882935e-02
3.475128114223480225e-02
2.556773647665977478e-02
-7.178319990634918213e-02
-8.204387873411178589e-02
-3.867680206894874573e-02
-1.915079727768898010e-02
2.322144247591495514e-02
-2.736290730535984039e-02
3.060970047954469919e-04
-3.985340520739555359e-02
3.320813179016113281e-02
-2.312723314389586449e-03
-4.233083128929138184e-02
2.016020938754081726e-02
8.938581682741641998e-03
-2.446945384144783020e-02
6.920706480741500854e-02
7.566057890653610229e-02
1.893822103738784790e-02
-5.517544969916343689e-02
3.886175155639648438e-02
1.029440015554428101e-01
3.182584047317504883e-02
-4.627329111099243164e-02
-2.087203226983547211e-02
6.518404185771942139e-02
-7.044061273336410522e-02
-7.369150966405868530e-02
8.124333620071411133e-02
3.891707584261894226e-02
-8.359386771917343140e-02
4.319625440984964371e-04
1.476707011461257935e-01
4.968873327015899122e-05
5.204926803708076477e-02
9.689205139875411987e-02
-9.316768497228622437e-02
-9.671525098383426666e-03
-6.696224212646484375e-02
-3.332527121528983116e-03
-8.558610826730728149e-02
2.888588979840278625e-02
-7.402541488409042358e-02
3.996706753969192505e-02
-8.173634111881256104e-02
-2.333170361816883087e-02
-5.985320359468460083e-02
-1.046443879604339600e-01
-4.590096324682235718e-02
-3.953936509788036346e-03
2.725914679467678070e-02
4.424655809998512268e-02
2.039338462054729462e-02
-3.014147281646728516e-02
-2.348825521767139435e-02
-2.448484860360622406e-02
-5.455652251839637756e-02
-6.667380034923553467e-02
-7.871598750352859497e-02
6.906794011592864990e-02
2.503418922424316406e-02
2.856670878827571869e-02
3.009227663278579712e-02
5.626421049237251282e-02
9.986206889152526855e-03
4.887979850172996521e-02
-3.664924204349517822e-02
-6.750776432454586029e-03
-5.779080465435981750e-02
7.184254378080368042e-02
-9.258693456649780273e-02
-1.934858784079551697e-02
2.988394349813461304e-02
1.968232914805412292e-02
-8.018136024475097656e-02
4.227187018841505051e-03
4.956364165991544724e-03
-6.902182102203369141e-02
1.842803508043289185e-02
-1.785304211080074310e-02
-4.939464852213859558e-03
9.959965944290161133e-03
-1.112798694521188736e-02
5.143507942557334900e-02
7.780188322067260742e-02
2.077921479940414429e-02
3.822700586169958115e-03
-2.834009006619453430e-02
5.127377435564994812e-02
-4.926704242825508118e-02
2.084717154502868652e-02
-3.937657549977302551e-02
7.420814782381057739e-02
6.999551504850387573e-02
-1.163426414132118225e-02
3.243041923269629478e-03
1.402227208018302917e-02
-7.881405204534530640e-02
-3.630305826663970947e-02
1.139076724648475647e-01
-3.573805466294288635e-02
-7.828864268958568573e-03
5.880096182227134705e-02
6.868368387222290039e-02
6.419192999601364136e-02
-2.631573192775249481e-02
8.582922816276550293e-02
-1.494209654629230499e-02
3.406760096549987793e-02
-9.508062899112701416e-02
-5.273463204503059387e-02
-8.870977908372879028e-02
1.619697548449039459e-02
7.162532955408096313e-02
-2.423119172453880310e-02
5.444888025522232056e-02
8.388987742364406586e-03
-1.326071321964263916e-01
4.731781780719757080e-02
3.906690701842308044e-02
8.855734765529632568e-02
1.619584299623966217e-02
-2.436618087813258171e-03
-7.195664197206497192e-02
-3.786502033472061157e-02
7.353664189577102661e-02
9.340937435626983643e-02
-5.155943334102630615e-02
-2.450542338192462921e-02
1.011375221423804760e-03
-3.388739749789237976e-02
-9.875079989433288574e-02
1.048704013228416443e-01
2.055110782384872437e-02
-6.160295754671096802e-02
2.535199373960494995e-02
2.067529968917369843e-02
-8.505710400640964508e-03
-2.047074399888515472e-02
-2.990925870835781097e-02
8.478653430938720703e-02
1.010039299726486206e-01
5.337924510240554810e-02
1.958211697638034821e-02
5.894552916288375854e-03
6.840416789054870605e-02
2.502967789769172668e-02
6.551906466484069824e-02
1.166117563843727112e-02
-5.234526097774505615e-02
-8.881546556949615479e-02
-1.220543533563613892e-01
2.545895054936408997e-02
-5.509415641427040100e-03
7.825526595115661621e-02
1.208419725298881531e-01
-4.761341959238052368e-02
5.253715813159942627e-02
1.242864038795232773e-02
-5.853255465626716614e-02
3.601659834384918213e-02
2.044239640235900879e-02
3.391046822071075439e-02
2.877307310700416565e-02
-4.009561613202095032e-02
-2.283948473632335663e-02
-1.681392826139926910e-02
-5.084960907697677612e-02
7.085260469466447830e-03
2.207921072840690613e-02
-3.409904986619949341e-02
7.136391103267669678e-02
-7.049499452114105225e-02
-6.089371442794799805e-02
-2.236876077950000763e-02
8.112363517284393311e-03
2.009059116244316101e-02
-7.922179996967315674e-03
4.872826393693685532e-03
3.942297026515007019e-02
-4.318707436323165894e-02
-5.675757303833961487e-02
-6.225423514842987061e-02
-2.686682343482971191e-02
-6.100791320204734802e-02
2.189065143465995789e-02
-9.618476033210754395e-02
-7.420834898948669434e-02
7.872586697340011597e-02
8.052484691143035889e-02
7.110514491796493530e-02
2.294788509607315063e-02
-6.756753474473953247e-02
-3.584958240389823914e-02
4.488112032413482666e-02
-4.436471685767173767e-02
3.593099489808082581e-02
-6.071088090538978577e-02
-8.759741485118865967e-02
2.219452522695064545e-02
5.796443670988082886e-02
6.673660874366760254e-02
-3.739475086331367493e-02
-9.203039109706878662e-02
1.391830667853355408e-02
-5.181319266557693481e-02
1.536060310900211334e-02
2.512823790311813354e-02
-7.988664507865905762e-02
3.014902025461196899e-02
6.813558936119079590e-02
-9.680310636758804321e-02
-5.044947937130928040e-02
-2.413246594369411469e-02
-2.962869592010974884e-02
6.420666724443435669e-02
-3.152807056903839111e-02
-8.369774371385574341e-02
-6.370379775762557983e-02
5.782824009656906128e-02
-5.596302077174186707e-02
4.234331101179122925e-02
9.319376945495605469e-02
9.840252995491027832e-02
-5.256816279143095016e-03
-7.386744767427444458e-02
-6.123157590627670288e-02
-3.396885097026824951e-02
-4.544978961348533630e-02
1.671432517468929291e-02
-2.377396635711193085e-02
3.793967515230178833e-02
-1.511131878942251205e-02
-6.076485291123390198e-02
-5.676776543259620667e-02
-6.638243049383163452e-02
-3.491783142089843750e-02
-3.226552158594131470e-02
6.122385337948799133e-02
-4.210402816534042358e-02
-4.391033947467803955e-02
-5.522988364100456238e-02
-1.232195366173982620e-02
-6.157756969332695007e-02
2.900507533922791481e-03
2.234725281596183777e-02
4.561941698193550110e-02
-3.972758349846117198e-05
5.921551585197448730e-02
5.037235468626022339e-02
8.517866954207420349e-03
7.604702562093734741e-02
7.337653636932373047e-02
1.070108078420162201e-02
4.513597860932350159e-02
-2.341670170426368713e-02
-2.663926780223846436e-02
-4.011189937591552734e-02
1.689780876040458679e-02
9.437551349401473999e-02
5.267312750220298767e-02
4.156275186687707901e-03
-9.605742245912551880e-02
-4.703466221690177917e-02
1.601093262434005737e-02
-5.427211150527000427e-02
-1.733842305839061737e-02
2.354435436427593231e-02
1.703518209978938103e-03
5.907396972179412842e-02
-3.751844540238380432e-02
2.147636376321315765e-02
-4.756069183349609375e-02
-2.247278951108455658e-02
6.322585046291351318e-02
-3.193205222487449646e-02
-1.623801700770854950e-02
-9.038492292165756226e-02
-1.917620003223419189e-02
4.610281065106391907e-02
-5.670082196593284607e-02
-3.869798779487609863e-02
5.165259912610054016e-02
-9.611622244119644165e-02
-2.185736969113349915e-02
7.246647030115127563e-02
-4.252921417355537415e-02
-4.071012139320373535e-02
-9.565809369087219238e-02
1.445150841027498245e-02
6.795928627252578735e-02
-2.025754656642675400e-03
-5.046457797288894653e-02
-2.155817579478025436e-03
-7.490815222263336182e-02
-5.497413873672485352e-02
8.087854832410812378e-02
-3.822828456759452820e-02
1.646711677312850952e-02
-6.581934541463851929e-02
8.140560239553451538e-02
-5.360562726855278015e-02
-7.045460492372512817e-02
2.447983808815479279e-02
2.522077783942222595e-02
2.281122095882892609e-02
8.450461179018020630e-02
-1.410784851759672165e-02
-5.135014653205871582e-02
9.781565517187118530e-02
-5.564918275922536850e-03
8.002508431673049927e-02
-6.873254477977752686e-02
-1.661047153174877167e-02
4.060234129428863525e-02
-2.247465401887893677e-02
-5.502907186746597290e-02
-2.726401761174201965e-02
-1.075883489102125168e-02
-5.730288848280906677e-02
-8.794716000556945801e-02
-3.658054396510124207e-02
2.588793262839317322e-02
1.510253082960844040e-02
2.468277700245380402e-02
-4.395819455385208130e-02
8.101415634155273438e-02
5.170909315347671509e-02
4.864908754825592041e-02
-6.808696687221527100e-02
-4.320208728313446045e-02
-2.719780197367072105e-03
8.484158664941787720e-02
8.055963367223739624e-02
-7.595821470022201538e-02
6.576126068830490112e-02
-7.206359505653381348e-02
6.066719442605972290e-02
-1.478099264204502106e-02
2.740713395178318024e-02
8.898807317018508911e-02
-7.625789940357208252e-02
-7.075240463018417358e-02
-1.930005662143230438e-02
6.441704463213682175e-03
4.816526919603347778e-02
-2.003524079918861389e-02
-4.321921616792678833e-02
-5.124487355351448059e-02
9.598208963871002197e-02
-6.592854112386703491e-02
-1.076784580945968628e-01
7.999991625547409058e-02
-8.506023883819580078e-02
1.274215131998062134e-01
-1.883789547719061375e-03
-3.623526915907859802e-02
5.632338672876358032e-02
8.834601193666458130e-02
-7.055078446865081787e-02
-5.100006237626075745e-02
1.079382374882698059e-02
-8.331983536481857300e-02
-5.998235195875167847e-02
-2.686689235270023346e-02
2.148111537098884583e-02
1.644596084952354431e-02
-4.640515893697738647e-02
3.260257095098495483e-02
4.957834631204605103e-02
1.651727780699729919e-02
2.728033997118473053e-02
9.946058690547943115e-02
3.205209039151668549e-03
-6.301584839820861816e-02
-2.417252771556377411e-02
9.406591206789016724e-02
-6.651692558079957962e-03
-8.490056544542312622e-02
-5.741072446107864380e-02
-7.720810920000076294e-02
1.700311154127120972e-02
3.037223033607006073e-02
1.080340519547462463e-01
5.615896359086036682e-02
-4.973071441054344177e-02
-6.424076110124588013e-02
4.061075672507286072e-02
-7.690660655498504639e-02
-1.081494241952896118e-01
5.957839265465736389e-02
2.594443969428539276e-03
9.754216670989990234e-02
-6.037131606717593968e-05
5.406658351421356201e-02
6.664935499429702759e-02
5.804557725787162781e-02
-3.845545649528503418e-02
-7.443094998598098755e-02
8.554100990295410156e-02
-7.546973973512649536e-02
1.400472521781921387e-01
3.430131077766418457e-02
7.268038392066955566e-02
-2.208133600652217865e-02
7.260160148143768311e-02
-1.531104464083909988e-02
-8.592399954795837402e-02
6.802150607109069824e-02
-6.093294173479080200e-02
-6.593440193682909012e-04
-6.879406981170177460e-03
7.500215619802474976e-02
4.827767983078956604e-02
1.402136981487274170e-01
6.008093059062957764e-02
-1.146540232002735138e-02
-7.967728376388549805e-02
2.054137550294399261e-02
-3.358289599418640137e-02
4.099202901124954224e-02
8.737716078758239746e-02
-5.160827189683914185e-02
2.359980158507823944e-02
5.465782014653086662e-04
1.015186980366706848e-01
-8.671146817505359650e-03
3.304754942655563354e-02
9.435326792299747467e-03
-5.038730055093765259e-02
-1.907740719616413116e-02
-4.527564160525798798e-03
-1.263131760060787201e-02
-7.565937936305999756e-02
1.364112365990877151e-02
3.369429707527160645e-02
-4.718335717916488647e-02
4.427450522780418396e-02
5.035121366381645203e-02
-5.327549204230308533e-02
1.044596917927265167e-02
3.264083713293075562e-02
1.168818920850753784e-01
-4.522844217717647552e-03
-8.117117732763290405e-02
4.028574004769325256e-02
4.210177063941955566e-02
5.335905402898788452e-02
-5.202905461192131042e-02
6.902214139699935913e-02
-2.590666711330413818e-02
-4.139008000493049622e-02
-4.396798834204673767e-02
8.477969467639923096e-02
-5.777565389871597290e-02
6.262835115194320679e-02
-3.437885642051696777e-02
-9.078183770179748535e-02
-2.398947812616825104e-02
-8.296205848455429077e-02
-3.897670656442642212e-02
5.987457558512687683e-02
5.119238421320915222e-02
-4.795918241143226624e-02
5.000842735171318054e-02
8.854605257511138916e-02
8.143316023051738739e-03
-3.780109575018286705e-03
-2.596767246723175049e-02
-1.438819710165262222e-02
-1.106019169092178345e-01
6.859656423330307007e-02
3.167657181620597839e-02
-9.475385770201683044e-03
7.263170927762985229e-02
-4.025838524103164673e-02
-8.913951367139816284e-02
4.338648170232772827e-02
-5.569375306367874146e-02
-9.140507876873016357e-02
-1.003693118691444397e-01
4.825620725750923157e-02
-2.001562342047691345e-02
2.100133523344993591e-02
2.460943162441253662e-02
8.830316364765167236e-02
-7.432366907596588135e-02
1.707496866583824158e-02
1.011228654533624649e-02
5.375371500849723816e-02
-1.950760558247566223e-02
-2.278688177466392517e-02
9.621336124837398529e-03
-1.193694546818733215e-01
8.436993509531021118e-02
-1.117151975631713867e-01
-7.560403645038604736e-02
-1.969771273434162140e-02
8.822684735059738159e-02
-2.815995831042528152e-03
-4.745075479149818420e-02
-8.404049277305603027e-02
2.606086619198322296e-02
9.795559197664260864e-02
-2.300440147519111633e-02
-8.829376846551895142e-02
7.778796553611755371e-02
-3.238519653677940369e-02
-5.508084222674369812e-02
4.763273894786834717e-02
3.791525959968566895e-02
-9.548848122358322144e-02
4.671717062592506409e-02
2.915669791400432587e-02
3.813497023656964302e-03
1.973406411707401276e-02
-3.172536566853523254e-02
5.318142473697662354e-02
-6.065926048904657364e-03
9.804986417293548584e-03
3.882334008812904358e-02
-7.386610656976699829e-02
-1.902058906853199005e-02
-6.173167377710342407e-02
-5.073636397719383240e-02
-2.181459963321685791e-02
4.804033413529396057e-02
-2.751364745199680328e-02
4.215114936232566833e-02
-6.780490279197692871e-02
5.549383163452148438e-02
4.045316576957702637e-02
-4.696189612150192261e-02
-1.634192280471324921e-02
5.999014526605606079e-02
-1.000503003597259521e-01
7.104381918907165527e-02
-1.079358439892530441e-02
5.731352604925632477e-03
1.675861515104770660e-02
8.804456144571304321e-02
4.900420829653739929e-02
-6.912140548229217529e-02
1.237704977393150330e-02
1.093030869960784912e-01
-7.168835401535034180e-02
-3.923005238175392151e-02
-2.779895253479480743e-02
-2.050286531448364258e-02
-2.664157561957836151e-02
-4.950740188360214233e-02
-8.195036649703979492e-02
-6.704287230968475342e-02
-2.622254751622676849e-02
-7.125018537044525146e-02
-1.173501182347536087e-02
-6.925419718027114868e-02
-6.678010523319244385e-02
9.770096512511372566e-04
7.446260005235671997e-02
-2.081036753952503204e-02
-9.251303970813751221e-02
4.912061244249343872e-02
3.379085659980773926e-02
-1.907342113554477692e-02
-1.418408192694187164e-02
-3.585153073072433472e-02
-3.197138756513595581e-02
1.199466269463300705e-02
7.236700039356946945e-03
2.832116559147834778e-02
2.415729127824306488e-02
2.030277065932750702e-02
5.699380114674568176e-02
-8.875723928213119507e-02
2.973049134016036987e-02
-4.702046886086463928e-02
6.054895371198654175e-02
6.354815512895584106e-02
-8.128827810287475586e-02
-2.529184147715568542e-02
-4.702717438340187073e-02
-9.545508772134780884e-02
2.682790346443653107e-02
-8.173495531082153320e-02
7.540459185838699341e-02
6.378489732742309570e-02
2.275732811540365219e-03
-8.393697440624237061e-02
2.901886776089668274e-02
-5.561595316976308823e-03
7.339518517255783081e-02
1.864138804376125336e-02
6.108083575963973999e-02
1.219223253428936005e-02
-5.718584358692169189e-02
1.992207579314708710e-02
2.456883713603019714e-02
-3.099129721522331238e-02
5.168855935335159302e-02
4.762893170118331909e-02
-5.341981723904609680e-02
3.127706795930862427e-02
-1.000158116221427917e-01
7.103896141052246094e-02
-7.425913959741592407e-02
-1.479644887149333954e-02
-1.043499261140823364e-01
6.367462128400802612e-02
-3.274457296356558800e-03
3.406048938632011414e-02
-6.354455370455980301e-03
-8.546093851327896118e-02
-6.376666575670242310e-02
-2.429340034723281860e-02
-8.378655463457107544e-02
-7.926772534847259521e-02
5.761788412928581238e-02
1.741370745003223419e-02
-8.166810870170593262e-02
5.806200951337814331e-02
-4.663230106234550476e-02
-5.077845975756645203e-02
-3.620893927291035652e-03
2.092047594487667084e-02
-2.554513327777385712e-02
-6.236081942915916443e-02
3.291669487953186035e-02
4.611837491393089294e-02
-1.004266366362571716e-02
-1.072897668927907944e-02
-1.071993447840213776e-02
-3.889453038573265076e-02
5.668845400214195251e-02
4.389519337564706802e-03
-6.311984360218048096e-02
-5.740390717983245850e-02
2.943609096109867096e-02
6.642965972423553467e-02
1.232517585158348083e-01
3.180280327796936035e-02
-9.069583564996719360e-02
3.899620100855827332e-02
2.723663486540317535e-02
-2.967161312699317932e-02
-4.361333325505256653e-02
3.413246572017669678e-02
-3.260443359613418579e-02
3.349862992763519287e-02
-5.442534387111663818e-02
2.641238830983638763e-02
3.857090696692466736e-02
1.227257680147886276e-02
-1.026887893676757812e-01
-4.512710496783256531e-02
-6.652933359146118164e-02
-4.331165924668312073e-02
8.070708811283111572e-02
-8.897720277309417725e-02
-4.775025695562362671e-02
7.369469851255416870e-02
-1.239803247153759003e-02
-6.439853459596633911e-02
-4.220999777317047119e-02
7.476360350847244263e-02
-2.157721854746341705e-02
-2.727898769080638885e-02
-1.177362650632858276e-01
-1.877602934837341309e-02
3.153159096837043762e-02
-5.662563070654869080e-02
4.913001134991645813e-02
-1.599902473390102386e-02
3.169474005699157715e-02
-1.083519402891397476e-02
-7.515847682952880859e-02
1.039559394121170044e-02
-1.307171303778886795e-02
-7.923723757266998291e-02
4.503265395760536194e-02
4.369929060339927673e-02
1.660038530826568604e-02
6.802083551883697510e-02
2.290874160826206207e-02
7.282753288745880127e-02
5.037367716431617737e-02
-2.075377851724624634e-02
-2.168153785169124603e-02
-9.985736012458801270e-02
-6.525554507970809937e-02
2.337535098195075989e-02
-4.585272073745727539e-02
6.150899827480316162e-02
-6.620895117521286011e-02
3.668548166751861572e-02
8.003433048725128174e-02
-1.133190467953681946e-02
-1.963449642062187195e-02
-9.414988569915294647e-03
-6.622156500816345215e-02
-4.991438984870910645e-02
-8.050883561372756958e-02
-1.071359515190124512e-01
5.613994784653186798e-03
6.480830162763595581e-02
-8.223633468151092529e-02
9.502767585217952728e-03
-6.550634652376174927e-02
8.333895355463027954e-03
-1.584643274545669556e-01
-4.425081610679626465e-02
8.556012809276580811e-02
8.041536062955856323e-02
-1.867981813848018646e-02
-2.069764956831932068e-02
1.211734637618064880e-01
-8.517194539308547974e-02
6.444173306226730347e-02
-2.581068687140941620e-02
1.531137153506278992e-02
4.516234621405601501e-02
-5.117382854223251343e-02
4.169340804219245911e-02
7.038956135511398315e-02
-1.124964579939842224e-01
-9.592489339411258698e-03
-1.259931735694408417e-02
-4.683288559317588806e-02
-4.666120558977127075e-02
-5.547226592898368835e-02
-1.582550071179866791e-02
-4.678190127015113831e-02
-5.382993072271347046e-02
-2.755497395992279053e-02
4.824953153729438782e-02
-5.881619453430175781e-02
1.636021025478839874e-02
-7.507351040840148926e-02
-2.251352183520793915e-02
7.036811113357543945e-02
6.233996152877807617e-02
-6.925846636295318604e-02
-9.059935808181762695e-02
-5.924830678850412369e-03
1.250221207737922668e-02
-7.443444430828094482e-02
-8.173026144504547119e-02
-3.418532758951187134e-02
7.049819082021713257e-02
2.132724039256572723e-02
-2.818108536303043365e-02
-3.422382101416587830e-02
-3.728519752621650696e-02
6.604117900133132935e-02
-6.901001930236816406e-02
1.907785981893539429e-02
-4.975892975926399231e-02
-5.921670794486999512e-02
2.877313457429409027e-02
-3.261145949363708496e-02
5.163895711302757263e-02
2.826298773288726807e-02
-1.982238702476024628e-02
-5.740227550268173218e-02
-2.694958820939064026e-02
1.753591187298297882e-02
-4.672937467694282532e-02
-6.576468795537948608e-02
6.301658228039741516e-03
-1.022676471620798111e-03
-9.146885573863983154e-02
2.838808856904506683e-02
-1.072774827480316162e-01
-4.522173851728439331e-02
-8.357273787260055542e-02
-4.345296695828437805e-02
-5.528838932514190674e-02
-3.770411713048815727e-03
3.499497100710868835e-02
1.758058904670178890e-03
3.817351907491683960e-02
-8.589967340230941772e-02
-7.132891565561294556e-02
-9.651243686676025391e-02
-1.461637765169143677e-01
-1.516919285058975220e-01
1.870099082589149475e-02
-2.239057421684265137e-02
-6.449202448129653931e-02
4.172981157898902893e-02
5.342229083180427551e-02
6.776306033134460449e-02
-4.087657108902931213e-02
5.655888468027114868e-02
7.941926829516887665e-03
1.571601256728172302e-02
-3.129870165139436722e-03
-4.190240055322647095e-02
-8.361906558275222778e-02
8.254205435514450073e-02
1.932582445442676544e-02
-7.651306688785552979e-02
-6.456216424703598022e-02
-1.226014271378517151e-02
2.409598557278513908e-03
1.306833513081073761e-02
7.094710320234298706e-02
3.000329993665218353e-02
-8.176065236330032349e-02
-6.571597605943679810e-02
-8.059880882501602173e-02
4.014726728200912476e-02
6.510557234287261963e-02
1.598457619547843933e-02
-9.464611113071441650e-02
5.051265284419059753e-02
6.955410540103912354e-02
-8.738522231578826904e-02
-3.557810559868812561e-02
-6.668680906295776367e-02
1.209260243922472000e-02
5.753389000892639160e-02
-1.832227036356925964e-02
6.702747941017150879e-02
-9.371834248304367065e-02
-1.999982818961143494e-02
-3.161432594060897827e-02
-4.343892633914947510e-02
-4.410335049033164978e-02
-8.919589966535568237e-02
-2.086708694696426392e-02
-2.385071013122797012e-03
-4.340624064207077026e-02
-4.590808227658271790e-02
-5.755026638507843018e-02
-6.157520040869712830e-02
4.510891623795032501e-03
-7.638313621282577515e-02
-2.661429159343242645e-02
1.243050582706928253e-02
-5.981519073247909546e-02
7.943220436573028564e-02
4.083869606256484985e-02
-8.961389958858489990e-02
4.548000171780586243e-02
-8.615262061357498169e-02
5.149783939123153687e-02
-2.724186517298221588e-02
-5.252521485090255737e-02
-9.861303865909576416e-02
-9.158484637737274170e-02
-7.173140347003936768e-02
-7.002523541450500488e-02
-1.141689494252204895e-01
-5.190340057015419006e-02
-1.689657941460609436e-02
-3.871696442365646362e-02
7.198377698659896851e-02
-4.906556755304336548e-02
8.273373357951641083e-03
1.536730490624904633e-02
-5.274662002921104431e-02
6.567944306880235672e-03
5.467772483825683594e-02
-1.793575286865234375e-02
-8.202460408210754395e-02
3.119006939232349396e-02
2.169836871325969696e-02
-9.939148277044296265e-02
-4.742658510804176331e-02
5.060060322284698486e-02
6.256116926670074463e-02
6.643286440521478653e-03
-4.594519734382629395e-02
-5.245207622647285461e-02
5.879662185907363892e-02
-3.861627355217933655e-02
-5.064680427312850952e-02
-1.065550446510314941e-01
3.087020479142665863e-02
-6.892034434713423252e-04
4.679332673549652100e-02
4.466564208269119263e-02
6.442383676767349243e-02
4.954608902335166931e-02
-1.883254386484622955e-02
-6.118502840399742126e-02
-1.064037457108497620e-01
3.430259972810745239e-02
2.163472572647151537e-06
-4.187256842851638794e-02
-6.407912820577621460e-02
-6.437677890062332153e-02
6.633437424898147583e-02
5.318769067525863647e-02
7.972853630781173706e-02
-3.397525101900100708e-02
-9.084235876798629761e-02
1.729807816445827484e-02
-7.655452191829681396e-02
7.467453926801681519e-02
-1.678835973143577576e-02
6.338153034448623657e-02
-8.534203469753265381e-02
1.414268929511308670e-02
2.104931138455867767e-02
-5.507173389196395874e-02
1.071200240403413773e-02
2.824947424232959747e-02
5.648619309067726135e-02
-2.563632652163505554e-02
-5.271365866065025330e-02
6.718830019235610962e-02
8.235982060432434082e-02
-4.526325315237045288e-02
-1.304991915822029114e-02
6.002430990338325500e-02
4.666828364133834839e-02
6.105894222855567932e-02
6.102570518851280212e-02
6.446952372789382935e-02
-8.006593585014343262e-02
-7.549793273210525513e-02
9.123922139406204224e-02
-2.996837347745895386e-02
8.239772915840148926e-02
-2.901586145162582397e-02
-7.353214174509048462e-02
-8.844709023833274841e-03
2.140804193913936615e-02
-4.910312127321958542e-03
-3.201935812830924988e-02
-5.372352898120880127e-02
7.597634196281433105e-02
6.420934945344924927e-02
-3.071121685206890106e-02
-6.404657382518053055e-03
1.061425823718309402e-02
-2.194578060880303383e-03
5.946531146764755249e-02
-4.816750064492225647e-02
8.115999400615692139e-02
-1.569307297468185425e-01
-1.191973127424716949e-02
-2.948069386184215546e-02
2.111650537699460983e-03
-4.345765337347984314e-02
-4.931357130408287048e-02
2.473761700093746185e-02
1.155689606093801558e-04
5.556742846965789795e-02
7.433523237705230713e-02
9.465472400188446045e-02
2.162665314972400665e-02
3.003211691975593567e-02
-1.170031167566776276e-02
2.981423772871494293e-02
6.947483052499592304e-04
-1.749192923307418823e-02
-1.279231309890747070e-01
-2.899814210832118988e-02
1.280379219679161906e-04
4.266980662941932678e-02
8.761528134346008301e-02
-6.028467789292335510e-02
-1.765417121350765228e-02
6.742102652788162231e-02
1.665146090090274811e-02
-6.879494059830904007e-03
1.094654947519302368e-01
-2.054637856781482697e-02
-7.420690357685089111e-02
3.020512871444225311e-02
-1.102738901972770691e-01
-8.199711143970489502e-02
6.805270165205001831e-02
6.380848586559295654e-02
8.865766972303390503e-02
-1.116648409515619278e-02
-6.843650341033935547e-02
4.038393031805753708e-03
-7.844306528568267822e-02
9.074064344167709351e-02
-2.808222174644470215e-02
-5.342838913202285767e-02
7.523194886744022369e-03
-3.055134788155555725e-02
5.234657600522041321e-02
2.869198843836784363e-02
-5.035600066184997559e-02
8.073208481073379517e-02
6.141869723796844482e-02
5.891441553831100464e-02
1.010549739003181458e-01
1.087151467800140381e-02
-8.246841281652450562e-02
9.928905963897705078e-02
8.560687303543090820e-02
5.537226423621177673e-02
-8.608215302228927612e-02
-7.385961711406707764e-02
5.626319441944360733e-03
-6.938440352678298950e-02
4.857668280601501465e-02
-2.073849178850650787e-02
-3.956900909543037415e-02
7.374488562345504761e-02
3.691441938281059265e-02
-3.810025379061698914e-02
9.640543907880783081e-02
-8.832448162138462067e-03
2.615608461201190948e-02
-4.671035706996917725e-02
2.406702004373073578e-02
-6.295774877071380615e-02
5.416638776659965515e-02
3.204135224223136902e-02
5.833701044321060181e-02
3.985922411084175110e-02
-6.012067943811416626e-02
5.807087942957878113e-02
-4.905804619193077087e-02
2.965145185589790344e-02
5.599902942776679993e-02
-4.117500409483909607e-02
-6.375624984502792358e-02
8.772836299613118172e-04
-3.758510574698448181e-02
5.394957587122917175e-02
-3.310891985893249512e-02
7.581065595149993896e-02
4.330148175358772278e-02
-6.364458799362182617e-02
6.974604725837707520e-02
-1.334922611713409424e-01
-4.162781685590744019e-02
-4.055647552013397217e-02
1.028966829180717468e-01
1.841327734291553497e-02
5.977283790707588196e-02
-7.478416711091995239e-02
7.249720394611358643e-02
1.398650836199522018e-02
-6.340344250202178955e-02
1.901211030781269073e-02
5.702665820717811584e-02
-1.141821369528770447e-01
-9.761947207152843475e-03
-2.002863958477973938e-02
8.163350075483322144e-02
7.037473469972610474e-02
7.133039832115173340e-02
4.575956985354423523e-02
-1.289116800762712955e-03
-4.810084402561187744e-02
-6.631243973970413208e-02
-1.389697100967168808e-02
5.362644046545028687e-02
-7.659637834876775742e-03
-9.744768589735031128e-02
-2.342777699232101440e-02
-3.389889746904373169e-02
3.164367750287055969e-02
8.029726147651672363e-02
-4.012346640229225159e-02
1.262335386127233505e-02
-3.194535896182060242e-02
6.514337658882141113e-02
-9.838937968015670776e-02
4.837131500244140625e-02
-5.009516701102256775e-02
6.195957586169242859e-02
3.186058718711137772e-03
-8.906056173145771027e-03
-5.746855959296226501e-02
-1.716525666415691376e-02
7.155098766088485718e-02
-1.326613686978816986e-02
-1.055841334164142609e-02
7.245954871177673340e-02
-6.814675778150558472e-02
2.053060382604598999e-02
-8.049656450748443604e-02
-1.843859441578388214e-02
-3.809613361954689026e-02
-2.108911052346229553e-02
6.866711378097534180e-02
-2.289431542158126831e-02
-5.103289708495140076e-02
6.228063628077507019e-02
8.516807854175567627e-02
6.059851963073015213e-03
6.011978164315223694e-02
9.409363381564617157e-03
-3.857230767607688904e-02
-9.421945363283157349e-02
6.019421294331550598e-02
1.082656066864728928e-02
4.667143523693084717e-02
4.353139922022819519e-02
-3.122314624488353729e-02
-3.046600520610809326e-02
5.789472535252571106e-02
-6.581766903400421143e-02
-1.045752689242362976e-01
-2.098181098699569702e-02
9.451352059841156006e-03
1.168871182017028332e-03
7.987229526042938232e-02
5.529504641890525818e-02
-8.711049705743789673e-02
-1.334426645189523697e-02
-5.239274725317955017e-02
4.519958794116973877e-02
6.247103214263916016e-02
-3.339801728725433350e-02
-7.285068184137344360e-02
9.801182150840759277e-02
-5.155137181282043457e-02
2.966342680156230927e-02
-3.874311968684196472e-02
1.300918683409690857e-02
-1.632036082446575165e-02
4.229628667235374451e-02
2.364045195281505585e-02
4.716378450393676758e-02
8.559305220842361450e-02
-1.626750826835632324e-02
-5.060718953609466553e-02
4.789800383150577545e-03
-6.189731135964393616e-02
-5.714776366949081421e-02
-4.096376150846481323e-02
-2.637327089905738831e-02
7.350491732358932495e-02
3.142859786748886108e-02
2.239608392119407654e-02
-9.118807502090930939e-03
4.733857512474060059e-02
3.909521177411079407e-02
3.913016989827156067e-02
5.323984473943710327e-02
6.893866509199142456e-02
-1.720156334340572357e-02
2.196538262069225311e-02
-8.944104611873626709e-02
-1.078691333532333374e-02
-1.358889136463403702e-02
2.555187232792377472e-02
8.910576999187469482e-02
2.584034390747547150e-02
7.767165452241897583e-02
-2.096628956496715546e-02
7.996003329753875732e-02
4.965324699878692627e-02
3.668630868196487427e-02
-4.871619492769241333e-02
3.856405988335609436e-02
5.042732227593660355e-04
-4.565661947708576918e-04
-2.058200910687446594e-02
1.176950288936495781e-03
-4.857623949646949768e-02
-2.875173464417457581e-03
-2.687957324087619781e-02
-7.508896291255950928e-02
-3.862516582012176514e-02
-2.093702927231788635e-02
-2.052299492061138153e-02
-3.282392770051956177e-02
6.505768746137619019e-02
-8.129509538412094116e-02
-4.830934107303619385e-02
3.954623639583587646e-02
1.926723867654800415e-02
2.764352411031723022e-02
-1.025594994425773621e-01
2.286752127110958099e-02
-3.797452524304389954e-02
8.434759825468063354e-02
-4.659770801663398743e-02
7.895968854427337646e-02
7.311033457517623901e-02
5.842487514019012451e-02
1.480060815811157227e-02
-1.432956778444349766e-03
-7.738299667835235596e-02
-3.229586407542228699e-02
-2.858387492597103119e-02
-5.244692787528038025e-03
6.022297218441963196e-02
-7.519185543060302734e-02
-1.388751994818449020e-02
4.357460886240005493e-02
-4.143651574850082397e-03
5.354064051061868668e-04
-6.820674985647201538e-02
3.663933649659156799e-02
4.343310371041297913e-02
1.585834193974733353e-03
2.373532764613628387e-02
-8.230705559253692627e-02
-6.553287059068679810e-02
-7.343590259552001953e-02
-7.956409826874732971e-03
-3.606702759861946106e-02
6.085708364844322205e-02
-3.143667802214622498e-02
1.838292367756366730e-02
-1.723302341997623444e-02
1.212414503097534180e-01
6.154485791921615601e-02
-3.371934592723846436e-02
5.362424254417419434e-02
-1.006980463862419128e-01
3.063118644058704376e-02
3.701262176036834717e-03
4.892744123935699463e-02
-7.082320749759674072e-02
-8.115656673908233643e-02
3.493481874465942383e-02
-1.633486337959766388e-02
8.502257987856864929e-03
8.260944858193397522e-03
-1.228894293308258057e-02
-4.567574709653854370e-02
-2.623755484819412231e-02
-7.716011255979537964e-02
-2.653425373136997223e-02
6.914607435464859009e-02
8.024961501359939575e-02
1.055935584008693695e-02
1.083900704979896545e-01
7.717861235141754150e-02
-5.891514196991920471e-02
-4.678016528487205505e-02
-6.572455167770385742e-03
3.242779895663261414e-02
-6.073333323001861572e-02
4.104365780949592590e-02
6.191716343164443970e-02
-1.644362881779670715e-02
-3.312014415860176086e-02
2.722434513270854950e-02
-9.755584597587585449e-02
-7.725521177053451538e-02
1.755822822451591492e-02
-7.950118184089660645e-02
-1.859355345368385315e-02
2.321629598736763000e-02
3.352528437972068787e-02
-5.045921355485916138e-02
1.030201315879821777e-01
6.530220806598663330e-02
-2.853776328265666962e-02
-2.313807606697082520e-02
6.455998867750167847e-02
-1.355403289198875427e-02
1.504241675138473511e-02
1.663635112345218658e-02
6.154270470142364502e-02
1.369577832520008087e-02
2.597037889063358307e-02
-2.235531248152256012e-02
4.406066611409187317e-03
8.995171636343002319e-02
-6.170454621315002441e-02
3.123038820922374725e-02
4.965548403561115265e-03
-5.401043687015771866e-03
-3.080290928483009338e-02
-3.889013081789016724e-02
-6.978908181190490723e-02
1.177154481410980225e-02
1.580055919475853443e-03
-3.068374842405319214e-02
-1.860714890062808990e-02
-4.871745780110359192e-02
1.559907104820013046e-02
-4.541379958391189575e-02
8.593872934579849243e-02
1.502890884876251221e-02
5.163811892271041870e-02
-9.824787080287933350e-02
2.191279456019401550e-02
-4.903826117515563965e-02
8.099924772977828979e-02
-7.565357256680727005e-03
2.315591555088758469e-03
9.286345914006233215e-03
-9.607088565826416016e-02
-2.100189402699470520e-02
6.275397539138793945e-02
2.884552441537380219e-02
7.622712850570678711e-02
4.488720092922449112e-03
-6.150592491030693054e-02
-1.099831610918045044e-02
3.086207620799541473e-02
-4.590395092964172363e-02
5.784590169787406921e-02
1.259580552577972412e-01
3.281781822443008423e-02
2.695384994149208069e-02
4.149798303842544556e-02
4.751039296388626099e-02
-7.051501423120498657e-03
-3.112979419529438019e-02
6.515528261661529541e-02
-7.087849825620651245e-02
5.341715365648269653e-02
-2.261310629546642303e-02
-7.923923432826995850e-03
-6.439968198537826538e-02
-1.144775655120611191e-02
1.432748418301343918e-02
5.055309087038040161e-02
3.925315290689468384e-02
3.619842231273651123e-02
9.215769171714782715e-02
8.502458781003952026e-02
-2.117027156054973602e-02
4.568613320589065552e-02
-3.023662790656089783e-02
6.783224642276763916e-02
-6.110198050737380981e-02
7.036953419446945190e-02
1.026157066226005554e-01
-3.799048438668251038e-02
-1.971423253417015076e-02
-7.141281664371490479e-02
-3.831205889582633972e-02
3.835441917181015015e-02
-1.926650479435920715e-02
-1.876369118690490723e-02
-2.921339683234691620e-02
4.108514264225959778e-02
-2.092244103550910950e-02
1.460546441376209259e-02
-3.349896520376205444e-03
4.538208991289138794e-02
4.025415703654289246e-02
6.069407984614372253e-02
-2.607537806034088135e-02
5.956277623772621155e-02
7.004542648792266846e-02
-2.692479640245437622e-02
-1.467527821660041809e-02
-5.453678220510482788e-02
-6.193448975682258606e-02
-4.515858739614486694e-02
5.218527093529701233e-02
-5.105379596352577209e-02
8.531279861927032471e-02
-3.656922653317451477e-02
-5.261688306927680969e-02
2.921321988105773926e-02
2.714634686708450317e-02
-6.425755470991134644e-02
-3.218655660748481750e-02
3.229713067412376404e-02
-1.939498260617256165e-02
7.176080346107482910e-02
-2.601376175880432129e-02
5.323078483343124390e-02
-5.117736011743545532e-02
-3.242315957322716713e-03
-8.331722021102905273e-02
-1.380896568298339844e-02
5.211575329303741455e-02
-4.458149150013923645e-02
5.382527038455009460e-02
4.618572443723678589e-02
-2.903734147548675537e-02
7.408053427934646606e-02
-5.157264322042465210e-02
2.135317586362361908e-02
-1.795069873332977295e-02
-5.446073412895202637e-02
-7.143320143222808838e-02
3.555123135447502136e-02
-5.107369273900985718e-02
-6.327896378934383392e-03
5.579153075814247131e-02
-8.926837891340255737e-02
7.833354920148849487e-02
6.723685190081596375e-03
-5.709860846400260925e-02
-3.624602407217025757e-02
7.217927277088165283e-02
-6.229704245924949646e-02
-1.635059900581836700e-02
-2.696794224902987480e-03
5.379515513777732849e-02
-2.176944864913821220e-03
1.453378424048423767e-02
7.728153467178344727e-02
8.290202170610427856e-02
-2.429312281310558319e-02
-3.925539925694465637e-02
-4.465864226222038269e-02
-9.435020387172698975e-02
8.589870482683181763e-02
-9.885326027870178223e-03
-2.393418736755847931e-02
8.845265954732894897e-02
8.389123529195785522e-02
6.234987080097198486e-02
-9.660467505455017090e-03
5.575829651206731796e-03
-4.493936896324157715e-02
3.060142882168292999e-02
-7.621298730373382568e-02
-2.651085518300533295e-02
-3.304713219404220581e-02
1.432964392006397247e-02
-4.709120467305183411e-02
-1.769751124083995819e-02
4.831282421946525574e-02
-4.649890586733818054e-02
3.163359314203262329e-02
-9.358937293291091919e-02
-2.224543830379843712e-03
-5.015887692570686340e-02
4.592908918857574463e-02
1.484055770561099052e-03
4.618056491017341614e-02
-3.181742876768112183e-02
-4.643366113305091858e-02
4.348394460976123810e-03
-9.551530331373214722e-02
-2.776672132313251495e-02
-2.926911041140556335e-02
-1.002418398857116699e-01
-2.268346026539802551e-02
1.323307678103446960e-02
-7.913558185100555420e-02
-3.216618299484252930e-02
-4.207515716552734375e-02
-4.779109731316566467e-02
3.973480686545372009e-02
9.796584397554397583e-02
2.330960519611835480e-02
3.849432244896888733e-02
5.282142013311386108e-02
-1.634736359119415283e-02
-5.904984474182128906e-02
-5.024852976202964783e-02
1.133421622216701508e-02
3.542388975620269775e-02
9.218934178352355957e-02
5.322607979178428650e-02
8.454088121652603149e-02
2.205922082066535950e-02
5.279144644737243652e-02
5.591291934251785278e-03
-5.180419981479644775e-02
-2.008999697864055634e-02
-5.693139880895614624e-02
5.634087324142456055e-02
-2.065841853618621826e-02
-5.552595108747482300e-02
-7.715415954589843750e-02
4.287556558847427368e-02
5.237430334091186523e-02
1.167713776230812073e-01
-2.103824913501739502e-01
7.377708703279495239e-02
3.240063786506652832e-02
-1.657895743846893311e-02
1.934654824435710907e-02
-2.863297611474990845e-02
-9.352244436740875244e-02
6.863504648208618164e-02
-3.909042850136756897e-02
1.024411767721176147e-01
1.071456968784332275e-01
1.509950775653123856e-02
-4.510520026087760925e-02
-4.340381920337677002e-02
4.796474426984786987e-02
1.512510329484939575e-01
-2.135144313797354698e-03
5.737765133380889893e-02
6.796833127737045288e-02
-2.298884838819503784e-02
-5.350492894649505615e-02
-8.519869297742843628e-02
-9.908496588468551636e-02
2.295947633683681488e-02
8.687082678079605103e-02
-5.003812164068222046e-02
-1.719629913568496704e-01
1.096137147396802902e-02
9.187148883938789368e-03
2.719200402498245239e-02
1.234701871871948242e-01
-1.236688271164894104e-01
-6.252369284629821777e-02
-4.832020401954650879e-02
1.844878308475017548e-02
-1.767827123403549194e-01
1.516178902238607407e-02
8.252055943012237549e-02
2.388456650078296661e-02
-4.041205625981092453e-03
1.127536073327064514e-01
3.839920088648796082e-02
7.807625830173492432e-02
-1.824479550123214722e-01
-1.416812986135482788e-01
-4.649406298995018005e-02
3.473143652081489563e-02
3.973584249615669250e-02
-2.093200944364070892e-02
-7.206900417804718018e-02
3.228205442428588867e-02
-5.341571196913719177e-02
-6.036072596907615662e-02
-4.708969593048095703e-02
-2.546958625316619873e-02
7.541210949420928955e-02
2.224532421678304672e-03
-1.224772930145263672e-01
7.095742225646972656e-02
4.661993880290538073e-04
2.821834199130535126e-02
1.261447742581367493e-02
-1.060898229479789734e-01
1.434972435235977173e-01
-2.236898615956306458e-02
6.582597643136978149e-02
-8.877472579479217529e-02
1.209700852632522583e-01
-4.382800310850143433e-03
-8.868556469678878784e-02
5.892113223671913147e-02
9.413467347621917725e-02
-1.139028649777173996e-02
-4.523204639554023743e-02
8.546682074666023254e-03
-2.160003408789634705e-03
2.224551141262054443e-02
-1.469690352678298950e-03
5.360618606209754944e-02
1.182808876037597656e-01
1.135829649865627289e-02
-3.861336410045623779e-02
-8.038821397349238396e-04
1.362547627650201321e-04
8.620795793831348419e-03
3.735735267400741577e-02
3.461612761020660400e-02
-6.039046868681907654e-02
-3.860644996166229248e-02
7.945486158132553101e-02
7.398607581853866577e-02
8.780789375305175781e-02
2.874806709587574005e-02
1.331089902669191360e-02
-1.611249335110187531e-02
-9.887821972370147705e-02
1.265085637569427490e-01
-3.303290531039237976e-02
3.064674325287342072e-02
7.914552837610244751e-02
6.292647682130336761e-03
-1.194639131426811218e-01
1.289973873645067215e-02
1.524002291262149811e-02
8.405222743749618530e-02
-1.883849650621414185e-01
-6.723954528570175171e-02
4.894178733229637146e-02
-2.571111917495727539e-02
5.021263286471366882e-02
5.317590013146400452e-02
7.150664180517196655e-02
3.252888564020395279e-03
3.192335739731788635e-02
4.519055783748626709e-02
-4.772359505295753479e-02
-3.638045117259025574e-02
4.920251667499542236e-02
4.407632350921630859e-02
1.251935586333274841e-02
-4.168803617358207703e-02
1.435809116810560226e-02
-9.940253943204879761e-02
5.670301243662834167e-02
-1.644092425704002380e-02
1.061384901404380798e-01
-8.984915167093276978e-02
-8.635217696428298950e-02
3.242544457316398621e-02
-4.174124076962471008e-02
-1.321495603770017624e-02
-1.204098761081695557e-02
7.966421544551849365e-02
4.585104063153266907e-02
-3.861256875097751617e-03
-7.385396957397460938e-02
6.472551263868808746e-03
-1.188468933105468750e-02
-5.495212227106094360e-02
5.955437198281288147e-02
6.057743355631828308e-02
7.538787089288234711e-03
6.329720467329025269e-02
1.322853472083806992e-02
-6.250485777854919434e-02
-2.658289857208728790e-02
-3.975828364491462708e-02
7.849629968404769897e-02
5.712758377194404602e-02
5.380100011825561523e-02
7.460514456033706665e-02
4.141340404748916626e-02
6.964208930730819702e-02
6.936268508434295654e-02
3.390160575509071350e-02
-2.121590077877044678e-02
7.341515272855758667e-02
-9.004039317369461060e-02
-7.392311841249465942e-02
-6.212463602423667908e-02
-3.758663311600685120e-02
-4.754820372909307480e-03
4.521067440509796143e-02
-3.537696972489356995e-02
-4.455839097499847412e-02
4.538287222385406494e-02
6.848186254501342773e-02
5.039385706186294556e-02
3.851035609841346741e-02
-7.309392094612121582e-02
-5.442473292350769043e-02
-5.445787683129310608e-02
8.316589146852493286e-02
-8.554805070161819458e-02
3.244622424244880676e-02
-9.709211066365242004e-03
9.611217677593231201e-02
-4.222879931330680847e-02
-7.061687856912612915e-02
-4.501807969063520432e-03
-7.531928271055221558e-02
6.317109614610671997e-02
-3.999622538685798645e-02
-9.244686365127563477e-02
-3.286006301641464233e-02
7.161071151494979858e-02
2.998651377856731415e-02
-1.615723595023155212e-02
-1.436814479529857635e-02
-8.435673953499644995e-05
-2.401828207075595856e-02
-7.483464479446411133e-02
-1.685679517686367035e-02
-5.736548081040382385e-02
3.995773196220397949e-02
4.162070155143737793e-02
-3.069166280329227448e-02
7.423799484968185425e-02
-4.473885521292686462e-02
3.825359418988227844e-02
8.839614689350128174e-02
-6.179714947938919067e-02
-1.113096922636032104e-01
-8.631557226181030273e-02
-2.909632585942745209e-02
-5.403169617056846619e-02
9.260328114032745361e-02
5.401898175477981567e-02
-6.019866466522216797e-02
-8.501643687486648560e-02
5.630805715918540955e-02
-6.226279214024543762e-02
-3.989429026842117310e-02
8.859986066818237305e-02
-8.212178945541381836e-02
-3.789448365569114685e-02
-7.993928156793117523e-03
-6.869205832481384277e-02
-6.368998438119888306e-02
5.791100114583969116e-02
-3.915631398558616638e-02
-5.715248733758926392e-02
5.761693418025970459e-02
9.302417188882827759e-02
4.498920217156410217e-02
7.506154477596282959e-02
-3.394387662410736084e-02
-2.820097468793392181e-02
9.881661832332611084e-02
4.313709214329719543e-03
-9.331735223531723022e-02
-5.495751276612281799e-02
6.348515301942825317e-02
-6.213106960058212280e-02
8.702867664396762848e-03
9.866636246442794800e-02
-7.157089561223983765e-02
2.988964878022670746e-02
3.803493827581405640e-02
8.530666679143905640e-02
-3.084026649594306946e-02
-5.504141002893447876e-02
-5.059880763292312622e-02
5.086624994874000549e-02
-7.411693781614303589e-02
-2.051651291549205780e-02
-7.650784403085708618e-02
-6.323071569204330444e-02
-4.645456001162528992e-02
2.103910036385059357e-02
-9.158819168806076050e-02
1.233484596014022827e-02
9.044815599918365479e-02
-2.892494760453701019e-02
3.582960367202758789e-02
-6.265380978584289551e-02
-7.744082808494567871e-02
3.105317056179046631e-02
-3.823834285140037537e-02
6.356349587440490723e-02
-1.473730150610208511e-02
7.393617928028106689e-02
-7.915864139795303345e-02
6.935023516416549683e-02
6.764607876539230347e-02
-8.764281123876571655e-02
-2.682767249643802643e-02
-9.048379212617874146e-02
-5.411438643932342529e-02
1.171239838004112244e-02
8.559670299291610718e-02
-2.313892915844917297e-02
6.418720632791519165e-02
6.565779447555541992e-02
-6.851577013731002808e-02
-6.898227334022521973e-02
-3.876669704914093018e-02
-5.552872270345687866e-02
-4.178849607706069946e-02
-1.152464561164379120e-02
7.202029228210449219e-02
9.637094102799892426e-03
-4.369494318962097168e-02
6.308393552899360657e-03
-2.497062832117080688e-02
-4.755145311355590820e-02
-9.257772564888000488e-02
-6.258831918239593506e-02
1.853339932858943939e-02
3.917213156819343567e-02
-8.888991922140121460e-02
7.197604328393936157e-02
-4.025557264685630798e-02
4.919292032718658447e-02
-8.302285522222518921e-02
7.299791276454925537e-02
2.772273123264312744e-02
-3.833280503749847412e-02
-7.785774022340774536e-02
-6.751749664545059204e-02
-4.509010910987854004e-02
8.464393764734268188e-02
-1.582835428416728973e-02
3.406995907425880432e-02
-4.072927311062812805e-02
-3.884298354387283325e-02
-3.972611948847770691e-02
7.215722650289535522e-02
2.961537428200244904e-02
2.649507299065589905e-02
-5.615017563104629517e-02
-2.404919452965259552e-02
2.642809972167015076e-02
7.492954283952713013e-02
2.350555732846260071e-02
