-1.392858847975730896e-02
-5.797983333468437195e-02
3.690852224826812744e-02
-6.701984256505966187e-02
4.700890928506851196e-02
-3.679206967353820801e-02
2.611513063311576843e-02
-2.571388613432645798e-03
-2.972228080034255981e-02
-5.718434602022171021e-02
1.104583963751792908e-02
-4.320949688553810120e-02
4.604631289839744568e-02
-3.757508099079132080e-02
1.014020480215549469e-02
5.576639249920845032e-02
1.601533778011798859e-02
1.405171118676662445e-03
-8.057953789830207825e-03
2.711711265146732330e-02
-1.473320182412862778e-02
-2.667324990034103394e-02
-1.343792187981307507e-03
1.676089316606521606e-02
2.289226278662681580e-02
-2.701433934271335602e-02
-5.213651806116104126e-02
1.950775831937789917e-02
-6.550080329179763794e-02
-4.985272511839866638e-02
2.552163600921630859e-02
6.405611336231231689e-02
-1.782470731995999813e-03
5.275937542319297791e-02
-1.836533844470977783e-02
-2.842685021460056305e-02
-1.303690252825617790e-03
-3.523532301187515259e-02
-3.223505243659019470e-02
3.304756432771682739e-02
-2.299728244543075562e-02
5.427327007055282593e-02
-4.238755628466606140e-02
4.803076758980751038e-02
-1.118998695164918900e-02
5.484513193368911743e-02
3.258486837148666382e-02
-3.055826388299465179e-02
-3.836284950375556946e-02
-3.941325098276138306e-02
3.090389072895050049e-02
1.187355909496545792e-02
-6.541460752487182617e-02
-1.049942220561206341e-03
2.882686443626880646e-02
1.299413200467824936e-02
-1.694387011229991913e-02
6.673646718263626099e-02
3.316039964556694031e-02
8.807874284684658051e-03
4.713105410337448120e-02
8.147162385284900665e-03
-1.353407464921474457e-02
-2.172729000449180603e-02
1.692660711705684662e-02
-9.059525281190872192e-02
-2.493474259972572327e-02
6.805077940225601196e-02
5.824716389179229736e-02
-7.291665673255920410e-02
-1.876180619001388550e-02
-4.414971172809600830e-02
-1.173545978963375092e-02
1.415415666997432709e-02
4.828333482146263123e-02
-5.045882239937782288e-02
-1.131000835448503494e-02
-4.705471172928810120e-02
7.734173908829689026e-03
2.940210700035095215e-02
2.592905052006244659e-02
1.396162062883377075e-02
-1.260551717132329941e-02
-2.842885255813598633e-02
-4.396581649780273438e-02
4.737595841288566589e-02
-2.400268428027629852e-02
2.498873323202133179e-02
-9.581842459738254547e-03
-4.525677859783172607e-02
4.401737451553344727e-02
-4.571683704853057861e-02
4.419351369142532349e-02
1.713282614946365356e-02
5.608654022216796875e-02
-2.460774965584278107e-02
3.464839980006217957e-02
-4.669892787933349609e-02
-6.632872670888900757e-02
-3.992623183876276016e-03
-6.980974227190017700e-02
-9.899613447487354279e-03
-4.926481470465660095e-02
-1.922200620174407959e-02
-2.677253820002079010e-02
-5.427176132798194885e-02
-3.175431117415428162e-02
-5.234254896640777588e-02
-3.344243764877319336e-02
3.547777235507965088e-02
-4.257761465851217508e-04
-7.354429922997951508e-03
7.273500412702560425e-02
-5.018059164285659790e-02
-6.698721554130315781e-03
-1.311726216226816177e-02
-1.153406873345375061e-02
-6.101640313863754272e-02
-1.064382772892713547e-02
-3.226312622427940369e-02
1.764786243438720703e-02
-3.063514456152915955e-02
1.482177339494228363e-02
-7.376561313867568970e-02
1.939032226800918579e-02
-5.193781107664108276e-02
-5.138344317674636841e-02
-1.146147772669792175e-02
-2.974664233624935150e-02
5.429128184914588928e-02
-1.560035720467567444e-02
1.865757396444678307e-03
-6.096815317869186401e-02
5.538963899016380310e-02
-1.740749739110469818e-02
-5.967528559267520905e-03
3.507724776864051819e-02
-3.687486797571182251e-02
-2.169645577669143677e-02
-1.203101966530084610e-02
5.726861208677291870e-02
4.698793590068817139e-02
1.267072092741727829e-02
2.857734449207782745e-02
6.866101175546646118e-03
6.014705449342727661e-02
-5.659226793795824051e-03
-3.521283343434333801e-02
3.645940870046615601e-02
-3.439118340611457825e-02
1.006011441349983215e-01
1.862310571596026421e-03
-3.221963718533515930e-02
4.833399876952171326e-02
2.641638368368148804e-02
-2.717539109289646149e-02
4.785297438502311707e-02
1.101160538382828236e-03
5.412193760275840759e-02
-3.367411345243453979e-02
3.551591560244560242e-02
-5.566481500864028931e-02
6.253629457205533981e-03
-4.910238087177276611e-02
2.173760905861854553e-02
-4.138593212701380253e-04
-2.091794088482856750e-02
5.927168205380439758e-02
-3.216536715626716614e-02
-6.061576306819915771e-03
6.615435332059860229e-02
-4.640163481235504150e-02
5.192983895540237427e-02
-4.726243764162063599e-02
4.845455661416053772e-02
-2.789485082030296326e-02
-2.272928133606910706e-02
2.923888340592384338e-02
5.528682842850685120e-02
-3.971730545163154602e-02
-4.054461419582366943e-02
4.300964623689651489e-02
3.354429081082344055e-02
-3.900813171640038490e-03
-7.975741475820541382e-02
-1.444090809673070908e-02
1.559508312493562698e-02
-3.587896749377250671e-02
-2.223070152103900909e-02
-3.518876060843467712e-02
-1.000623125582933426e-02
-1.535433996468782425e-02
-1.911264844238758087e-02
-7.219403050839900970e-03
-5.108138173818588257e-02
2.205197885632514954e-02
2.901040576398372650e-02
-7.696623448282480240e-03
-2.045988477766513824e-02
-2.982766833156347275e-03
-4.315575212240219116e-02
6.392797827720642090e-02
-3.095042333006858826e-02
-4.115374758839607239e-02
-3.494006767868995667e-02
-2.251886390149593353e-02
-6.406054645776748657e-02
-5.487488955259323120e-02
-4.245135188102722168e-02
-3.575253533199429512e-03
4.918641224503517151e-02
3.423525393009185791e-02
-6.240312010049819946e-02
4.621192067861557007e-02
2.655702643096446991e-02
7.716210186481475830e-02
-4.319069534540176392e-02
-6.182362791150808334e-03
-2.087527420371770859e-03
6.596145220100879669e-03
4.861908778548240662e-02
1.405174471437931061e-02
2.842116542160511017e-02
-3.067805804312229156e-02
-2.041240595281124115e-02
-5.600907374173402786e-03
-4.185750149190425873e-03
2.363680303096771240e-02
1.913808472454547882e-02
5.346726626157760620e-02
-2.235376462340354919e-02
5.647255480289459229e-02
6.043135374784469604e-02
3.299347311258316040e-02
3.113349527120590210e-02
-9.147118777036666870e-02
-2.547258511185646057e-02
-2.291032113134860992e-02
2.654543891549110413e-02
-3.582373633980751038e-02
-4.398579243570566177e-03
-1.807871647179126740e-02
2.531186491250991821e-02
-5.849692225456237793e-02
2.145857922732830048e-02
-2.896252460777759552e-02
-1.371504622511565685e-03
-1.576165668666362762e-02
2.699914015829563141e-02
4.648955538868904114e-03
2.916881442070007324e-02
1.737573184072971344e-02
-6.812673062086105347e-03
-2.591686509549617767e-02
-3.939152136445045471e-02
-3.705569542944431305e-04
-4.431750997900962830e-02
-5.617938563227653503e-02
6.647044420242309570e-02
3.047977946698665619e-02
-1.655839569866657257e-02
-7.116629183292388916e-02
6.069064885377883911e-02
1.859738607890903950e-03
3.082816116511821747e-02
5.780249461531639099e-02
-5.416981875896453857e-03
1.682481542229652405e-02
-1.664534024894237518e-02
2.884791791439056396e-02
1.915840618312358856e-02
1.597843132913112640e-02
-8.642335422337055206e-03
2.568188682198524475e-02
4.167522769421339035e-03
4.663211479783058167e-02
-5.995855107903480530e-02
6.278480403125286102e-03
-8.386154472827911377e-02
2.679424546658992767e-02
-3.391042724251747131e-02
-3.666104748845100403e-02
4.613211378455162048e-03
6.529331207275390625e-03
1.776490360498428345e-02
-1.583922095596790314e-02
5.438808724284172058e-02
1.536185853183269501e-02
-4.797933215741068125e-04
-3.849412500858306885e-02
7.345419842749834061e-03
-2.736107818782329559e-02
-5.882008001208305359e-02
2.714917436242103577e-02
3.726300224661827087e-02
-2.697529830038547516e-02
-3.087237849831581116e-02
3.340031579136848450e-02
-2.582870982587337494e-02
7.640486210584640503e-02
-4.015797821921296418e-05
5.703294277191162109e-02
3.005810640752315521e-02
-4.736351594328880310e-02
-1.327178627252578735e-02
-3.916178829967975616e-03
1.324862893670797348e-02
1.963137835264205933e-02
2.897331491112709045e-02
3.424371033906936646e-02
4.993641376495361328e-02
1.268594339489936829e-02
5.562099814414978027e-02
-3.828910365700721741e-02
6.285449117422103882e-02
9.605081751942634583e-03
4.606072604656219482e-02
3.712206333875656128e-02
2.363654412329196930e-02
-1.175991725176572800e-02
-1.118380296975374222e-02
4.762813448905944824e-02
-3.567192703485488892e-03
6.299067288637161255e-02
-2.699609473347663879e-02
-2.705029025673866272e-02
-5.832526087760925293e-02
3.298554103821516037e-03
5.560248717665672302e-02
-2.902615070343017578e-02
-5.336885899305343628e-02
-2.298328909091651440e-04
-6.227244809269905090e-02
-4.270398616790771484e-02
1.199562568217515945e-02
-2.304189093410968781e-02
5.815101787447929382e-02
-1.820854260586202145e-03
3.160651400685310364e-02
-3.083657473325729370e-02
-1.517065521329641342e-02
-1.722091808915138245e-03
6.638677418231964111e-02
3.707250952720642090e-02
5.192236974835395813e-02
-5.284645408391952515e-02
2.313962392508983612e-02
-2.167371846735477448e-02
5.843752622604370117e-02
3.540835157036781311e-02
-1.271765306591987610e-02
1.935130916535854340e-02
-1.808325177989900112e-03
-2.030636556446552277e-02
3.808556497097015381e-02
-1.154558733105659485e-02
-1.206334494054317474e-02
-7.468579802662134171e-03
2.935148403048515320e-02
-2.190836332738399506e-02
-1.911810785531997681e-02
2.976486273109912872e-02
8.348880708217620850e-02
-3.252118080854415894e-02
-8.003507740795612335e-03
-1.274362578988075256e-02
7.146234810352325439e-02
4.008505493402481079e-02
3.641116991639137268e-02
-3.012780100107192993e-02
6.576161831617355347e-02
-4.161894321441650391e-02
-3.236439824104309082e-02
-4.383772611618041992e-02
-6.936642527580261230e-02
-3.826405107975006104e-02
9.324764832854270935e-03
-2.123253606259822845e-02
-1.829381287097930908e-02
2.604418061673641205e-02
9.250318631529808044e-03
6.825125962495803833e-02
-4.437967669218778610e-03
4.552843049168586731e-02
3.159580007195472717e-02
3.950263559818267822e-02
-6.128310412168502808e-02
5.332687869668006897e-02
-3.278476744890213013e-02
4.726820066571235657e-02
-1.141948811709880829e-02
-4.755164682865142822e-02
3.239402174949645996e-02
-2.259306237101554871e-02
1.749371737241744995e-02
-6.491758394986391068e-03
4.312959313392639160e-02
-4.338295012712478638e-02
-7.606442272663116455e-02
4.529788717627525330e-02
-1.355866435915231705e-03
3.239927813410758972e-02
-1.957326382398605347e-02
-5.740691907703876495e-03
3.825022652745246887e-02
5.499406903982162476e-02
9.981954470276832581e-03
1.818878762423992157e-02
-2.659753710031509399e-02
-8.585469797253608704e-03
1.134619954973459244e-02
-6.667848210781812668e-04
4.592102766036987305e-02
3.888676315546035767e-02
-2.883204957470297813e-03
-9.731024503707885742e-03
4.616752266883850098e-02
-5.585304275155067444e-02
-3.149243444204330444e-02
5.947399139404296875e-02
4.300369694828987122e-02
-6.860462483018636703e-03
-3.146529942750930786e-02
-3.169634193181991577e-02
-2.677553892135620117e-02
4.772538319230079651e-02
4.687258508056402206e-03
-6.967850029468536377e-03
4.073000326752662659e-02
9.009785950183868408e-03
1.845716126263141632e-02
-3.960695862770080566e-02
2.278432995080947876e-02
-5.586149543523788452e-02
2.937081456184387207e-02
3.331539407372474670e-02
-2.292711660265922546e-02
7.665530778467655182e-03
-4.629641771316528320e-03
5.740270018577575684e-02
-5.059277638792991638e-02
-2.434235252439975739e-02
-7.691822946071624756e-02
-7.509527355432510376e-02
-3.420605137944221497e-02
5.694822967052459717e-02
9.792453609406948090e-03
4.054660350084304810e-02
-6.895901635289192200e-03
-6.447922438383102417e-02
4.101225733757019043e-02
-4.701678827404975891e-02
6.755338609218597412e-02
-1.849341019988059998e-02
1.815130002796649933e-02
5.867990199476480484e-03
-1.265128049999475479e-02
1.958777569234371185e-02
6.744968891143798828e-02
1.534289587289094925e-02
3.847605362534523010e-02
6.271851807832717896e-02
-5.115490034222602844e-02
1.022118516266345978e-02
1.040988136082887650e-02
2.706025540828704834e-02
3.293411061167716980e-02
1.269149966537952423e-02
1.272308081388473511e-02
3.125491365790367126e-02
2.044369280338287354e-02
-3.966699913144111633e-02
6.539271771907806396e-02
-3.768975660204887390e-02
1.864314824342727661e-02
7.187255658209323883e-03
6.576279550790786743e-02
-3.812987729907035828e-02
-3.808197006583213806e-02
1.164434012025594711e-02
-4.089939594268798828e-02
-3.248026221990585327e-02
3.787077218294143677e-02
-2.748146653175354004e-02
2.332603745162487030e-02
1.727471314370632172e-02
6.494828965514898300e-03
-5.468897148966789246e-02
-4.866888001561164856e-02
-3.020723722875118256e-02
5.304602906107902527e-02
6.895005702972412109e-02
5.562531575560569763e-02
2.490448392927646637e-02
2.739249914884567261e-02
-3.619153751060366631e-03
7.838699221611022949e-02
1.808994077146053314e-02
-1.302035618573427200e-02
2.798252739012241364e-02
3.649367019534111023e-02
-9.893525391817092896e-03
-3.097044676542282104e-02
3.073292039334774017e-02
-8.514136075973510742e-03
-3.914268687367439270e-02
4.333423823118209839e-02
-2.490455983206629753e-03
-8.115140721201896667e-03
-2.815361693501472473e-02
4.463121667504310608e-02
5.694371461868286133e-02
6.416454166173934937e-02
-1.693483069539070129e-02
-1.175962667912244797e-02
-2.469247952103614807e-02
-5.941529199481010437e-02
8.993723429739475250e-03
-6.096926704049110413e-02
2.448739856481552124e-02
-3.173622116446495056e-02
5.821365118026733398e-02
-6.193485483527183533e-02
2.212999574840068817e-02
2.796116843819618225e-02
5.539914593100547791e-02
1.151274889707565308e-02
-3.732868656516075134e-02
-4.972772672772407532e-02
-4.901978746056556702e-02
-8.453049510717391968e-02
4.167281091213226318e-03
-4.117091000080108643e-02
3.607810288667678833e-02
9.960713237524032593e-02
-2.880170755088329315e-02
-5.647046864032745361e-02
-1.658365130424499512e-02
5.477635189890861511e-02
2.491853386163711548e-02
1.962307281792163849e-02
8.182913810014724731e-02
3.191727027297019958e-02
3.822467103600502014e-02
2.701064012944698334e-02
4.703704267740249634e-03
-1.337454002350568771e-02
2.507766336202621460e-02
3.192777186632156372e-02
-1.953385025262832642e-02
-1.827267743647098541e-02
4.640702530741691589e-02
-3.185288235545158386e-02
-2.785435132682323456e-02
8.775697648525238037e-02
-1.932090520858764648e-02
4.870235919952392578e-02
-7.089843600988388062e-02
3.742863982915878296e-02
4.173781350255012512e-02
2.505605481564998627e-02
4.769429937005043030e-02
1.885638386011123657e-02
-6.570425629615783691e-02
-4.692451655864715576e-02
-3.771707415580749512e-02
-1.485207304358482361e-02
-1.514172647148370743e-02
-5.760448426008224487e-02
-4.267805814743041992e-02
-1.119233947247266769e-02
-2.400758489966392517e-02
3.083233162760734558e-02
-2.746928855776786804e-02
1.175330765545368195e-02
4.788313433527946472e-02
-1.821186766028404236e-02
-4.239279031753540039e-02
-6.326158344745635986e-02
8.502296358346939087e-02
-2.250008657574653625e-02
2.250447683036327362e-02
2.035260759294033051e-02
4.294021986424922943e-03
-3.989958390593528748e-02
-3.358094766736030579e-02
-3.639009967446327209e-02
-4.844169318675994873e-02
4.094836860895156860e-02
1.779184676706790924e-02
7.020352408289909363e-03
-6.749483197927474976e-02
4.369116947054862976e-02
5.317657813429832458e-02
-2.046748623251914978e-02
5.609433352947235107e-02
2.978986129164695740e-02
2.902043424546718597e-02
2.797044441103935242e-02
8.510452695190906525e-03
-3.753557428717613220e-02
-1.492296252399682999e-02
7.247725967317819595e-03
3.156924247741699219e-02
-5.053869448602199554e-03
2.245704643428325653e-02
6.980407517403364182e-03
4.071229323744773865e-02
2.207428961992263794e-02
-3.838946670293807983e-02
-6.421484798192977905e-02
-3.942670300602912903e-02
-1.396926864981651306e-02
5.613796040415763855e-02
-5.790362507104873657e-02
3.689016029238700867e-02
2.829386666417121887e-02
3.448903188109397888e-02
9.533289819955825806e-03
-1.797569543123245239e-02
-8.913679048418998718e-03
-3.013906069099903107e-02
1.130443997681140900e-02
3.151467442512512207e-02
7.859572768211364746e-03
-1.525753084570169449e-02
4.167981445789337158e-02
-4.248841851949691772e-02
-6.911912560462951660e-02
-1.641242578625679016e-02
-1.497654989361763000e-02
-7.416623644530773163e-03
1.169831864535808563e-02
1.657083071768283844e-02
-7.110273092985153198e-02
4.608555883169174194e-02
6.633334793150424957e-03
-2.687664702534675598e-02
3.835237026214599609e-02
4.458711668848991394e-02
-4.449759051203727722e-02
2.071628719568252563e-02
3.531222045421600342e-02
-6.003869697451591492e-02
-2.655763551592826843e-02
3.082636371254920959e-02
1.446498651057481766e-02
-6.341090891510248184e-03
-5.188378319144248962e-02
4.106908291578292847e-02
-4.757668823003768921e-02
-4.808910191059112549e-02
-1.687193475663661957e-02
4.224574193358421326e-02
-3.674003761261701584e-03
-2.126232162117958069e-02
-5.610819905996322632e-02
-2.677593939006328583e-02
1.864555105566978455e-02
2.130396850407123566e-02
5.776076018810272217e-02
2.515903860330581665e-02
-7.227985560894012451e-02
5.486689880490303040e-02
1.351886894553899765e-04
7.898408174514770508e-02
6.646861135959625244e-02
-1.160429790616035461e-02
-2.578308433294296265e-02
-5.178392678499221802e-02
-4.169552400708198547e-02
9.723600931465625763e-03
3.507290035486221313e-02
1.963270269334316254e-02
2.281930111348628998e-02
2.216442860662937164e-02
-2.382748946547508240e-02
-6.995746493339538574e-02
2.192525565624237061e-02
-4.260253161191940308e-02
8.715039119124412537e-03
4.087391123175621033e-02
1.569920778274536133e-02
3.688983991742134094e-02
3.401550278067588806e-02
5.809233337640762329e-02
2.223419025540351868e-02
-5.730567863793112338e-05
-1.402298174798488617e-02
1.323726680129766464e-02
-4.408128932118415833e-02
5.377636477351188660e-02
-2.070887573063373566e-02
-3.045407123863697052e-02
5.074314773082733154e-02
5.257703363895416260e-02
4.366219043731689453e-02
-2.991071529686450958e-02
1.977724255993962288e-03
1.927330717444419861e-02
1.911586150527000427e-02
-6.379884481430053711e-02
-5.850130692124366760e-02
1.703477837145328522e-02
-1.062235888093709946e-02
5.759975314140319824e-02
-6.483068689703941345e-03
2.535679936408996582e-02
-5.407648533582687378e-02
7.120499014854431152e-02
-3.839641436934471130e-02
-6.066118925809860229e-02
4.816612228751182556e-02
4.890978336334228516e-02
-9.300216101109981537e-03
1.748847775161266327e-02
8.316844701766967773e-03
-7.378980517387390137e-02
9.589573368430137634e-03
-3.569218516349792480e-02
8.114781812764704227e-04
7.211245596408843994e-02
-4.297673702239990234e-02
4.821415990591049194e-02
-6.045535206794738770e-02
-4.637242481112480164e-02
1.431418582797050476e-02
-3.309597820043563843e-02
-3.576221317052841187e-02
-4.599716886878013611e-02
3.334136679768562317e-02
-1.467983890324831009e-02
-1.248754747211933136e-02
3.896920382976531982e-02
1.212641713209450245e-03
9.591794572770595551e-03
6.270540878176689148e-03
-3.298308700323104858e-02
-5.506146326661109924e-02
5.532146990299224854e-02
2.922439388930797577e-02
1.593456044793128967e-02
2.812445722520351410e-02
2.006788272410631180e-04
-7.073508948087692261e-02
-2.599733509123325348e-02
5.577546544373035431e-03
4.460209980607032776e-02
-4.123876243829727173e-02
3.185158967971801758e-02
1.226877514272928238e-02
3.386793285608291626e-02
-1.347668468952178955e-02
-3.321887180209159851e-02
3.171743825078010559e-02
1.672845333814620972e-02
-2.838141098618507385e-02
-4.280887916684150696e-02
4.143457114696502686e-02
3.264380618929862976e-02
-3.469472751021385193e-02
3.164338320493698120e-02
2.374139800667762756e-02
5.567676946520805359e-02
3.803996136412024498e-03
2.209520526230335236e-02
-7.195538282394409180e-02
5.513602122664451599e-02
-5.426669120788574219e-02
-2.659654244780540466e-02
1.586749404668807983e-02
-2.872107550501823425e-02
1.769209653139114380e-02
-3.127954900264739990e-02
3.794232616201043129e-03
-2.348032407462596893e-02
5.449087172746658325e-02
-6.467508617788553238e-03
-7.207693159580230713e-02
-5.101059749722480774e-02
-4.799990728497505188e-02
-5.719631910324096680e-02
-5.268061906099319458e-02
-6.492664664983749390e-02
-4.313408210873603821e-02
4.375056177377700806e-02
-4.850783944129943848e-02
-2.342623472213745117e-02
3.291726857423782349e-02
5.509508028626441956e-02
5.643759388476610184e-03
4.963736049830913544e-03
5.730000883340835571e-02
3.646473214030265808e-02
4.082953557372093201e-02
-2.505312114953994751e-02
1.919792965054512024e-02
-4.302435554563999176e-03
6.921950727701187134e-02
2.544952183961868286e-02
-3.638714179396629333e-02
-1.250172406435012817e-02
-4.877345636487007141e-02
2.905918844044208527e-02
5.522050336003303528e-02
-3.059105202555656433e-02
2.175700850784778595e-02
1.150323543697595596e-02
-5.879803746938705444e-02
3.606475889682769775e-03
-2.159273624420166016e-02
2.671257592737674713e-02
6.263116002082824707e-02
-6.493539363145828247e-02
-1.119077205657958984e-02
2.035224623978137970e-02
7.952292799018323421e-04
-2.334862016141414642e-02
4.626849293708801270e-02
3.872278332710266113e-02
-3.452432155609130859e-02
3.117199055850505829e-02
8.432491682469844818e-03
-2.352101262658834457e-03
6.145733874291181564e-03
-2.182965865358710289e-03
2.972109708935022354e-03
-2.877840958535671234e-02
-4.061568900942802429e-02
-3.378138318657875061e-02
2.944681607186794281e-02
4.959993436932563782e-02
1.202016789466142654e-02
-3.201335296034812927e-02
-2.089259400963783264e-02
8.926095324568450451e-04
-5.652210861444473267e-02
3.782114386558532715e-02
5.286975577473640442e-02
-1.457907725125551224e-02
-4.169048368930816650e-02
-4.150288179516792297e-02
3.427949547767639160e-02
1.526491157710552216e-02
3.249464556574821472e-02
9.074076078832149506e-03
1.200328581035137177e-02
-1.030697021633386612e-02
-7.984505593776702881e-02
6.676791608333587646e-02
-5.400943383574485779e-02
5.195451900362968445e-02
-2.677159849554300308e-03
3.728247806429862976e-02
3.547101281583309174e-03
3.349743038415908813e-02
5.284601077437400818e-02
2.684493362903594971e-02
-2.623725682497024536e-02
2.206056611612439156e-03
9.946840815246105194e-03
-3.772334381937980652e-02
4.008004069328308105e-02
2.887671068310737610e-02
2.894899621605873108e-02
3.948530554771423340e-02
-4.164337739348411560e-02
-3.040176443755626678e-02
2.031021565198898315e-02
-5.397286266088485718e-02
5.653270520269870758e-03
-7.567200809717178345e-03
5.437516421079635620e-02
6.186026334762573242e-02
-7.493174634873867035e-03
-4.171877726912498474e-02
5.279055982828140259e-02
-2.468594163656234741e-02
6.882200390100479126e-02
-1.489550806581974030e-02
1.876245066523551941e-02
-7.445500046014785767e-02
3.304893150925636292e-02
-8.152422308921813965e-02
-3.901835903525352478e-02
3.912795707583427429e-02
2.668327838182449341e-02
5.830493755638599396e-03
3.974395617842674255e-02
4.644994810223579407e-02
-5.027719959616661072e-02
3.748715389519929886e-03
-4.102474078536033630e-03
-2.016400732100009918e-02
-5.608929321169853210e-02
5.013127811253070831e-03
7.005108147859573364e-02
-6.365823745727539062e-02
-2.402349375188350677e-02
1.998130930587649345e-03
4.200063180178403854e-03
2.199163101613521576e-02
2.812884189188480377e-02
3.544362634420394897e-02
-4.965854808688163757e-02
4.595758765935897827e-02
-2.262153849005699158e-02
-5.230859294533729553e-02
4.737396910786628723e-02
4.927078634500503540e-02
3.447673097252845764e-02
-5.220921710133552551e-02
-4.927333816885948181e-02
-3.231361135840415955e-02
-3.095252998173236847e-02
-4.867671430110931396e-02
-5.192469805479049683e-02
-4.680989682674407959e-02
6.632719188928604126e-02
4.616744443774223328e-02
4.305761680006980896e-02
5.085613951086997986e-02
-3.056364133954048157e-02
-1.286032330244779587e-02
1.288722548633813858e-02
-5.040071159601211548e-02
-3.256417438387870789e-02
1.029939949512481689e-02
4.222349822521209717e-02
-1.686579547822475433e-02
1.525097712874412537e-02
-9.049135260283946991e-03
3.576931357383728027e-02
-5.125640705227851868e-02
-8.250677026808261871e-03
4.264420270919799805e-02
-5.361882969737052917e-02
-3.853455930948257446e-02
3.876340389251708984e-02
1.317014358937740326e-02
-5.631585605442523956e-03
-4.254965484142303467e-02
2.693150192499160767e-02
5.096026882529258728e-02
-5.840349569916725159e-02
4.763264954090118408e-02
-2.847386524081230164e-02
3.565777326002717018e-03
-2.278532832860946655e-02
-2.187301591038703918e-02
3.166961297392845154e-02
7.677893619984388351e-03
-8.101296611130237579e-03
-3.403207752853631973e-03
5.901334341615438461e-03
5.327011458575725555e-03
4.385386407375335693e-02
-5.103154480457305908e-02
-1.357099413871765137e-02
-4.534825682640075684e-02
5.173502489924430847e-02
2.980519831180572510e-02
-2.060160040855407715e-02
6.810264196246862411e-03
3.778735920786857605e-02
-1.030105073004961014e-02
-4.797519370913505554e-02
3.543742746114730835e-02
-5.223950743675231934e-02
3.004209697246551514e-02
-2.911103144288063049e-02
-7.227671146392822266e-02
-1.152784656733274460e-02
7.181856036186218262e-02
-3.321560099720954895e-02
1.081520598381757736e-02
-6.927162408828735352e-03
3.087737970054149628e-02
1.625197939574718475e-02
-2.231588400900363922e-02
-4.471218958497047424e-02
1.525529846549034119e-02
2.377600967884063721e-02
4.292709380388259888e-02
-3.461847826838493347e-02
5.440883338451385498e-03
5.479615926742553711e-02
3.296099230647087097e-02
-4.835366830229759216e-02
-2.770759351551532745e-02
-1.866651140153408051e-02
1.180880703032016754e-02
5.224822089076042175e-03
-3.609697148203849792e-02
1.394637115299701691e-02
4.449720308184623718e-02
-3.246296942234039307e-02
-4.838778823614120483e-02
3.751080855727195740e-02
-5.231671035289764404e-02
4.170747846364974976e-02
-1.954916492104530334e-02
3.635454922914505005e-02
-2.403483539819717407e-02
4.634846001863479614e-02
1.888284459710121155e-02
-6.438702694140374660e-04
2.326654270291328430e-02
-7.015830837190151215e-03
2.805630490183830261e-02
2.063426934182643890e-02
4.013362806290388107e-03
-3.728267550468444824e-02
5.582298710942268372e-02
-9.832837618887424469e-03
-1.561934314668178558e-02
-1.734857563860714436e-03
-5.380636453628540039e-02
3.686105087399482727e-02
5.208042450249195099e-03
4.506486281752586365e-02
-1.482212543487548828e-02
1.271321997046470642e-02
1.113922684453427792e-03
5.513346195220947266e-02
2.025974355638027191e-02
2.905782312154769897e-02
-6.709450390189886093e-03
1.269596070051193237e-02
-5.216399580240249634e-02
-5.355056375265121460e-02
5.080543458461761475e-02
-3.820378333330154419e-02
2.443646453320980072e-02
2.640945278108119965e-02
-6.943909917026758194e-03
3.797386586666107178e-02
2.634391933679580688e-02
-2.929237857460975647e-02
-3.526759892702102661e-02
5.164441186934709549e-03
5.079733673483133316e-03
1.513074494141619653e-06
5.443817749619483948e-02
-1.049083890393376350e-03
-4.146933089941740036e-03
-7.587153464555740356e-02
-1.263863313943147659e-02
8.304739370942115784e-03
-1.666815578937530518e-02
-3.096741624176502228e-02
7.101541757583618164e-02
5.511611327528953552e-02
-2.574768476188182831e-02
6.286343932151794434e-02
6.080710887908935547e-02
-4.185841232538223267e-02
1.587970554828643799e-02
3.385546058416366577e-02
-5.254185944795608521e-02
2.831608057022094727e-02
4.047391563653945923e-02
-2.155629545450210571e-02
-5.146758258342742920e-02
3.460797667503356934e-02
9.679414331912994385e-03
1.564983651041984558e-02
1.246967259794473648e-02
-5.293635651469230652e-02
-2.273186855018138885e-02
-1.681550964713096619e-02
-5.416572466492652893e-02
5.568566918373107910e-02
-2.332714945077896118e-02
-5.067360401153564453e-02
2.266864851117134094e-02
6.042641401290893555e-02
-4.740580916404724121e-03
4.574549570679664612e-02
4.693964868783950806e-02
-2.252328768372535706e-02
-3.270263597369194031e-02
-9.615880437195301056e-03
1.204105280339717865e-02
-5.254659429192543030e-02
-4.528474435210227966e-02
3.765297308564186096e-02
-3.896499052643775940e-02
5.824627354741096497e-02
6.481432169675827026e-02
4.726345092058181763e-02
-2.085591293871402740e-02
-5.458556115627288818e-02
3.954347968101501465e-02
-6.449686479754745960e-04
2.890091203153133392e-02
-2.299936488270759583e-02
-3.915540128946304321e-02
-2.667340636253356934e-02
-8.468965068459510803e-03
-4.517724364995956421e-02
-3.700290247797966003e-02
2.888144925236701965e-02
1.113468874245882034e-02
-3.308552131056785583e-02
-1.050017867237329483e-02
-5.873606726527214050e-02
-1.469893567264080048e-02
1.215882040560245514e-02
4.946099966764450073e-02
6.174585223197937012e-02
5.090792477130889893e-02
3.718193620443344116e-02
-3.295002877712249756e-02
-3.295997530221939087e-02
-2.031032927334308624e-02
-7.275489158928394318e-03
4.282651469111442566e-03
6.027711927890777588e-02
2.456432767212390900e-02
-3.580629080533981323e-02
-4.939123615622520447e-02
-3.710306808352470398e-02
-3.326554968953132629e-02
-5.808878690004348755e-02
5.959924776107072830e-03
-3.408069163560867310e-02
-4.071707278490066528e-02
3.872146084904670715e-02
2.816892601549625397e-02
2.974060177803039551e-02
-4.723588749766349792e-02
6.397372484207153320e-02
9.671350941061973572e-03
3.633395582437515259e-02
-5.987060442566871643e-02
-7.200246304273605347e-02
3.191527351737022400e-02
5.193525180220603943e-02
1.675765216350555420e-02
4.145062714815139771e-02
-3.696910664439201355e-02
3.829591348767280579e-02
-1.823497191071510315e-02
3.217518329620361328e-02
-4.757260158658027649e-02
-2.457507885992527008e-02
5.228871107101440430e-02
1.972820051014423370e-02
5.837048590183258057e-02
4.644675925374031067e-02
2.713222429156303406e-02
-1.355939731001853943e-02
-5.783633515238761902e-02
-4.141476377844810486e-02
2.846394898369908333e-03
3.629164025187492371e-02
1.534302067011594772e-02
-8.991972543299198151e-03
3.996368125081062317e-02
-1.325101219117641449e-02
-5.556226521730422974e-02
2.176090329885482788e-02
-8.974220603704452515e-03
-5.609526112675666809e-02
-4.129060357809066772e-02
-3.020744398236274719e-02
-1.713554561138153076e-02
-3.864029049873352051e-02
7.481089793145656586e-03
3.798273578286170959e-02
4.685197956860065460e-03
3.197723301127552986e-03
1.759321056306362152e-02
-5.884675309062004089e-02
-2.316724136471748352e-02
7.790995389223098755e-02
3.335487097501754761e-02
-1.116381958127021790e-03
-2.310086227953433990e-02
2.819310314953327179e-02
5.370808020234107971e-02
-8.250868879258632660e-03
-5.859395116567611694e-02
1.999300159513950348e-02
1.790507510304450989e-02
-3.390436619520187378e-02
1.086425408720970154e-02
-2.898074686527252197e-02
7.477253675460815430e-03
-2.853282727301120758e-02
5.091960355639457703e-02
4.187543317675590515e-02
3.277590498328208923e-02
-3.428675979375839233e-02
-1.405828399583697319e-03
1.343207806348800659e-02
2.510314621031284332e-02
4.584873095154762268e-03
-2.620707824826240540e-02
6.317119696177542210e-04
4.182397201657295227e-02
-1.033543841913342476e-03
3.626877069473266602e-02
2.415188588201999664e-02
3.833150863647460938e-02
3.024241887032985687e-02
-4.422821104526519775e-03
7.104695588350296021e-02
2.987435087561607361e-02
7.709913887083530426e-03
-3.032455034554004669e-02
-5.808689817786216736e-02
-3.828322142362594604e-02
1.194943953305482864e-02
6.321440916508436203e-03
1.853288034908473492e-03
-3.833328932523727417e-02
-6.386059522628784180e-02
-2.375349588692188263e-02
4.153075814247131348e-02
-6.266937404870986938e-02
6.734347343444824219e-02
4.141386598348617554e-02
8.132515475153923035e-03
3.220312297344207764e-02
1.942869089543819427e-02
3.881108015775680542e-02
-4.154703929089009762e-04
-5.468893051147460938e-02
-5.882179364562034607e-02
-1.194162480533123016e-02
-1.125902310013771057e-02
6.180860567837953568e-03
-2.132145874202251434e-02
-2.908529527485370636e-02
-2.922230772674083710e-02
4.505809769034385681e-02
1.513391081243753433e-02
4.333280026912689209e-02
8.179929852485656738e-02
3.555943444371223450e-02
1.962509937584400177e-02
-1.497217826545238495e-02
7.909584045410156250e-02
-4.047060385346412659e-02
-5.150769650936126709e-02
-2.007229998707771301e-02
3.019847907125949860e-02
2.264744602143764496e-02
5.750009790062904358e-02
6.356113404035568237e-02
-1.862988620996475220e-02
7.561436388641595840e-03
-1.279024407267570496e-02
3.343794494867324829e-02
-4.265690967440605164e-02
3.152578324079513550e-02
-7.743572350591421127e-03
3.125881031155586243e-02
-3.830171376466751099e-02
2.333070849999785423e-03
2.423250302672386169e-02
2.203061943873763084e-03
1.371289044618606567e-02
-1.329527609050273895e-02
-6.590466946363449097e-02
2.070645615458488464e-02
4.556039720773696899e-02
2.844528295099735260e-02
-3.258899226784706116e-02
4.841897636651992798e-02
-5.565223470330238342e-02
3.768727183341979980e-02
-4.802628606557846069e-02
-4.323917254805564880e-02
-5.899345502257347107e-02
-3.870565444231033325e-02
-4.436599463224411011e-02
-1.621536910533905029e-02
2.581482985988259315e-03
5.842314101755619049e-03
7.040124386548995972e-03
-2.876273728907108307e-02
-2.524185366928577423e-02
-2.817626297473907471e-02
1.790093071758747101e-02
-3.993835300207138062e-02
9.176757186651229858e-03
9.216656908392906189e-03
-3.529744222760200500e-02
-3.529628738760948181e-02
1.810206100344657898e-03
-5.171141400933265686e-02
1.454390306025743484e-02
-7.206528913229703903e-03
-2.676960080862045288e-02
-5.459844134747982025e-03
-5.178328603506088257e-02
3.985974192619323730e-02
8.998912759125232697e-03
1.748443581163883209e-02
1.756678521633148193e-02
-4.064402543008327484e-03
-1.663821376860141754e-02
-8.069467730820178986e-03
3.088805824518203735e-02
-5.967233330011367798e-02
3.832535352557897568e-03
4.983753710985183716e-02
-1.326824072748422623e-02
3.917504847049713135e-02
-2.786675840616226196e-02
1.216162368655204773e-02
5.266895517706871033e-02
-2.980750240385532379e-02
-1.620660349726676941e-02
-3.981840610504150391e-02
2.027553133666515350e-02
3.718482702970504761e-02
4.537643864750862122e-02
-1.286298595368862152e-02
3.447821363806724548e-02
-5.788755416870117188e-02
-4.144142195582389832e-02
-5.065502971410751343e-02
1.736324466764926910e-02
5.321844667196273804e-02
-1.389024872332811356e-02
-6.797205656766891479e-02
-5.539549980312585831e-03
7.705342024564743042e-03
6.350349634885787964e-02
-1.006773579865694046e-02
-2.695036679506301880e-02
1.591497333720326424e-03
4.386252164840698242e-02
1.839014329016208649e-02
2.109863050282001495e-02
2.005588449537754059e-02
3.279624506831169128e-02
3.622138500213623047e-02
-1.639935187995433807e-02
5.956910923123359680e-02
-3.161247447133064270e-02
-6.500123441219329834e-02
-3.324175998568534851e-02
-1.452055014669895172e-02
5.624693259596824646e-02
4.810653626918792725e-03
7.808420807123184204e-02
-1.008586212992668152e-02
-1.882496848702430725e-02
6.590991746634244919e-03
4.981229454278945923e-02
-5.494486913084983826e-02
-2.050885371863842010e-02
1.973350718617439270e-02
-2.717789635062217712e-02
-4.040140658617019653e-02
7.891106605529785156e-02
-5.938395485281944275e-02
-1.664455235004425049e-02
8.564665168523788452e-02
-4.832586273550987244e-02
-4.469347372651100159e-02
2.341680973768234253e-02
-8.391610346734523773e-03
4.943952336907386780e-02
-1.485036406666040421e-02
-1.455896906554698944e-02
1.704515144228935242e-02
-1.323881465941667557e-02
3.998483344912528992e-02
-6.249129027128219604e-02
-6.136761233210563660e-02
3.189134644344449043e-03
3.495085984468460083e-02
-1.188919600099325180e-02
-1.373663544654846191e-02
-3.754936903715133667e-02
-3.014779463410377502e-02
-3.200855851173400879e-02
-2.060952223837375641e-02
5.571362003684043884e-02
-2.387807890772819519e-02
7.139799743890762329e-02
-1.506540086120367050e-02
-3.211678192019462585e-02
6.706584244966506958e-02
6.064315326511859894e-03
-3.064999170601367950e-02
1.637458987534046173e-02
-4.099101945757865906e-02
-2.684035152196884155e-02
1.626651920378208160e-02
-2.438314445316791534e-02
1.029122341424226761e-02
-1.387847121804952621e-02
2.282722666859626770e-02
1.093434635549783707e-02
-3.041033446788787842e-02
-5.594000220298767090e-02
-1.264651119709014893e-02
-5.140282213687896729e-02
4.408852756023406982e-02
-1.891934429295361042e-03
-5.517890304327011108e-02
-3.069509053602814674e-03
5.134635418653488159e-02
4.937670007348060608e-02
1.057385839521884918e-02
-4.331104084849357605e-02
3.042743913829326630e-02
-4.932120069861412048e-02
-4.061069339513778687e-02
4.171982035040855408e-02
3.339255228638648987e-02
1.492631435394287109e-02
-1.480559632182121277e-02
8.594560204073786736e-04
-5.884059704840183258e-03
-2.687089703977108002e-02
-2.441126853227615356e-02
-3.525305166840553284e-02
-3.464214876294136047e-02
-7.085999846458435059e-02
1.140593364834785461e-02
6.053236126899719238e-02
-3.970492258667945862e-02
3.693871200084686279e-02
4.889340698719024658e-02
-2.264053374528884888e-02
-1.131001953035593033e-02
-1.360764168202877045e-02
-1.616334356367588043e-02
2.004072628915309906e-02
-2.927862852811813354e-02
-8.314711041748523712e-03
5.860708653926849365e-02
-4.800046235322952271e-02
1.625646464526653290e-02
-2.853018464520573616e-03
4.110377654433250427e-02
5.875277519226074219e-02
2.095148339867591858e-02
2.380438521504402161e-02
-1.770189777016639709e-02
2.095959382131695747e-03
-3.324811533093452454e-02
4.328483715653419495e-02
2.565745078027248383e-02
-1.251630205661058426e-02
9.706729091703891754e-03
-5.157642066478729248e-02
7.327725645154714584e-03
-8.076378144323825836e-03
2.478589117527008057e-02
3.450508788228034973e-02
3.877352923154830933e-02
-4.348361119627952576e-02
7.055775076150894165e-02
1.999988220632076263e-02
8.760915696620941162e-02
1.019469089806079865e-02
-9.569782763719558716e-02
5.914968624711036682e-02
-6.507379934191703796e-03
-2.018835395574569702e-02
-2.530552446842193604e-02
-9.781034663319587708e-03
-7.257464528083801270e-02
-1.332583464682102203e-02
8.111466653645038605e-03
-5.265857651829719543e-02
1.980405766516923904e-03
-3.697388991713523865e-02
4.499056562781333923e-02
1.592058874666690826e-02
3.388327546417713165e-03
-4.942382872104644775e-02
3.162308409810066223e-02
-4.918771982192993164e-02
4.305461421608924866e-02
2.867795340716838837e-02
2.647166885435581207e-02
4.226927459239959717e-02
-1.894069276750087738e-02
7.097951322793960571e-02
-4.637926071882247925e-02
-6.645465269684791565e-03
9.673353284597396851e-03
-7.472299505025148392e-03
-2.644563792273402214e-03
-1.106421370059251785e-02
7.567187305539846420e-03
4.582230746746063232e-02
2.623479254543781281e-02
-5.166805908083915710e-02
2.485659904778003693e-02
-2.182191051542758942e-02
5.253944545984268188e-02
-1.477432320825755596e-03
-5.659116432070732117e-02
-1.447101775556802750e-02
-9.405527263879776001e-03
3.556335344910621643e-02
-4.247895907610654831e-03
3.973997011780738831e-02
5.332721397280693054e-02
1.034965272992849350e-02
6.431497633457183838e-02
-4.225638229399919510e-03
3.644704073667526245e-02
1.498727314174175262e-02
-4.990462958812713623e-02
3.131601586937904358e-02
-3.936089202761650085e-02
6.351275742053985596e-02
2.738650143146514893e-02
6.347926333546638489e-03
2.228007093071937561e-02
1.060443464666604996e-02
-2.125462517142295837e-02
5.411067232489585876e-02
-5.500015243887901306e-02
2.537682279944419861e-02
2.061294019222259521e-02
6.040678173303604126e-02
-2.598280273377895355e-02
1.178185548633337021e-02
-4.080809280276298523e-02
-6.463910639286041260e-02
6.109380349516868591e-02
-5.765332281589508057e-02
-3.164769709110260010e-02
5.278475582599639893e-02
-5.354641377925872803e-02
2.199311554431915283e-02
7.002815604209899902e-02
-5.031703785061836243e-02
-7.989078760147094727e-03
4.011943191289901733e-02
-5.985898897051811218e-02
5.733827501535415649e-02
4.491044208407402039e-03
4.915473982691764832e-02
1.037176698446273804e-02
-1.300262939184904099e-02
-1.103899627923965454e-02
-8.259945362806320190e-02
-4.475959390401840210e-02
-3.636315837502479553e-02
-3.801158443093299866e-02
1.588381454348564148e-02
-1.978171430528163910e-02
-3.098950721323490143e-02
4.894780367612838745e-02
2.915457077324390411e-02
-3.971672058105468750e-02
-6.558036059141159058e-02
-3.565237298607826233e-02
2.634942904114723206e-02
-5.641908501274883747e-04
2.465200796723365784e-02
-5.117417871952056885e-02
5.489640682935714722e-02
3.582087159156799316e-02
3.376086242496967316e-03
-2.806412242352962494e-02
-2.967686764895915985e-02
3.021357208490371704e-02
1.007958594709634781e-02
4.744232073426246643e-02
-4.210468009114265442e-02
7.374376058578491211e-02
4.865647852420806885e-02
3.258249163627624512e-02
-5.062962323427200317e-02
-3.635402396321296692e-02
-3.733887150883674622e-02
-3.961173817515373230e-03
-1.715098507702350616e-02
-1.555320899933576584e-02
1.241778209805488586e-02
3.941133245825767517e-02
1.480881590396165848e-02
-2.007526159286499023e-02
3.965925797820091248e-02
5.885292775928974152e-03
2.542643807828426361e-02
-1.315541844815015793e-02
3.542373329401016235e-02
-4.112628474831581116e-02
3.516145795583724976e-02
-8.365666493773460388e-03
-3.929626941680908203e-02
7.189527153968811035e-03
-2.901525981724262238e-02
5.021478980779647827e-02
-2.554490789771080017e-02
4.059888422489166260e-02
-2.320862375199794769e-02
3.448332101106643677e-02
-2.031531417742371559e-03
3.036012873053550720e-02
-2.435168810188770294e-02
5.611067637801170349e-02
-2.102311846101656556e-04
-1.243649236857891083e-02
-2.960808202624320984e-02
3.321353346109390259e-02
-2.354245632886886597e-02
-5.516965687274932861e-02
3.379138559103012085e-02
5.474021658301353455e-02
1.324294041842222214e-02
-1.072457712143659592e-02
-2.051414176821708679e-02
-2.104015275835990906e-02
-5.499098077416419983e-02
4.597875475883483887e-02
-5.919779464602470398e-02
-4.967723786830902100e-02
2.313141524791717529e-02
-2.649507485330104828e-03
-6.438682321459054947e-03
-6.339797377586364746e-02
5.323164537549018860e-02
3.229566663503646851e-02
-5.977763980627059937e-02
1.651149359531700611e-04
-3.927816078066825867e-02
2.553196437656879425e-02
2.099114283919334412e-02
-1.954533904790878296e-02
-3.568031266331672668e-02
-5.536358803510665894e-02
-2.544183470308780670e-02
-5.138227343559265137e-02
2.546776551753282547e-03
-1.950057782232761383e-02
6.735984236001968384e-02
-4.675531387329101562e-02
4.855054244399070740e-02
6.284014135599136353e-02
-1.747819595038890839e-02
3.377773985266685486e-02
8.320195972919464111e-02
-6.426703929901123047e-02
-1.684858463704586029e-02
1.847074180841445923e-02
7.616332173347473145e-02
5.281767621636390686e-02
2.034408412873744965e-02
-3.502251207828521729e-02
-2.349951304495334625e-02
6.880268454551696777e-02
-5.482761189341545105e-02
-2.432397380471229553e-02
-4.201642051339149475e-02
-1.793888770043849945e-02
-3.342252224683761597e-02
1.310673914849758148e-02
3.034933656454086304e-02
3.707267716526985168e-02
6.209583487361669540e-03
3.563364595174789429e-02
1.336598303169012070e-02
3.277962654829025269e-02
4.125133156776428223e-02
8.752176538109779358e-03
6.820379942655563354e-02
2.101832628250122070e-02
-1.006090641021728516e-02
5.737665295600891113e-02
-1.872873050160706043e-03
-7.311652600765228271e-02
2.266954630613327026e-02
-6.095109134912490845e-02
-4.104048013687133789e-02
3.114754706621170044e-02
-4.513746872544288635e-02
2.587237395346164703e-02
-1.752020791172981262e-02
-4.055474326014518738e-02
-4.848464950919151306e-02
4.216211289167404175e-02
2.538492158055305481e-02
-4.333453252911567688e-02
4.507907480001449585e-02
2.036094432696700096e-03
3.095495887100696564e-02
-2.025721408426761627e-02
-4.809660837054252625e-02
2.427235804498195648e-02
-1.230617891997098923e-02
-2.852113358676433563e-02
2.400436252355575562e-02
-4.219765588641166687e-02
-4.993708804249763489e-02
6.419882178306579590e-02
-4.514001682400703430e-02
-5.130671896040439606e-03
-3.172864019870758057e-02
3.473652154207229614e-02
5.176385119557380676e-02
-7.986330986022949219e-02
-2.787877246737480164e-02
-7.868539541959762573e-03
2.901645004749298096e-02
-1.533610629849135876e-03
-2.745129168033599854e-02
-5.865708366036415100e-02
-5.304271355271339417e-02
-4.530328884720802307e-02
-3.367669135332107544e-02
4.734108224511146545e-02
-3.967287763953208923e-02
4.647948592901229858e-02
5.209146812558174133e-02
4.503300413489341736e-02
1.288111205212771893e-03
-6.559552624821662903e-03
7.156237261369824409e-04
4.980031400918960571e-02
4.066869989037513733e-02
2.553850412368774414e-02
5.232061445713043213e-02
2.575382404029369354e-02
-4.010572284460067749e-02
6.937383441254496574e-04
-5.278366059064865112e-02
6.255666166543960571e-02
-3.449241816997528076e-02
1.523855701088905334e-02
4.682541266083717346e-02
4.988128319382667542e-02
7.706875354051589966e-02
2.578633092343807220e-02
-1.694840192794799805e-02
-4.752953723073005676e-02
1.670664735138416290e-02
6.340147554874420166e-02
7.563295308500528336e-03
-6.005727872252464294e-02
-3.600313887000083923e-02
5.337367579340934753e-02
6.543020159006118774e-02
-3.132241591811180115e-02
-1.570244319736957550e-02
3.720014542341232300e-02
-9.266199544072151184e-03
-3.780287876725196838e-02
1.921617984771728516e-02
-1.035762764513492584e-02
7.971893996000289917e-02
-7.731166481971740723e-02
4.380974546074867249e-02
-1.662839762866497040e-02
-4.723043367266654968e-02
-6.215861439704895020e-02
5.506139248609542847e-02
4.596655443310737610e-02
2.420355007052421570e-02
2.624596096575260162e-02
-1.198260020464658737e-02
4.625672474503517151e-02
1.005254779011011124e-02
-6.164186634123325348e-03
-5.902236327528953552e-02
6.239237263798713684e-03
-3.458261862397193909e-02
3.815227374434471130e-02
1.056241896003484726e-02
5.022211465984582901e-03
-5.753190722316503525e-03
-2.210066281259059906e-02
-1.058771926909685135e-02
-5.918245296925306320e-03
-3.132842108607292175e-02
5.526462569832801819e-02
4.621512442827224731e-02
5.487915128469467163e-03
2.560862153768539429e-02
-5.022449791431427002e-02
-4.152842983603477478e-02
5.252911522984504700e-02
-2.132193557918071747e-02
-5.906916037201881409e-02
4.717975854873657227e-03
-1.416580937802791595e-02
5.908213928341865540e-02
-2.302303723990917206e-02
-9.078562259674072266e-03
3.949584439396858215e-02
1.184552349150180817e-02
1.688510179519653320e-02
-4.260387271642684937e-02
5.879706889390945435e-02
-5.720849335193634033e-02
-1.477614417672157288e-02
4.053516313433647156e-02
1.166864531114697456e-03
-3.891149535775184631e-02
-4.359140247106552124e-02
1.290114503353834152e-02
3.628704324364662170e-02
-3.267566859722137451e-02
-3.348042443394660950e-02
2.912386320531368256e-02
6.744722276926040649e-02
-1.146213244646787643e-02
7.349531352519989014e-02
-7.176075875759124756e-02
-4.708253592252731323e-02
4.163128323853015900e-03
-2.067982405424118042e-02
-2.338238246738910675e-02
2.169731073081493378e-02
1.027350686490535736e-02
-5.932679772377014160e-02
-7.391095161437988281e-02
-2.478031069040298462e-02
2.295116148889064789e-02
1.966603565961122513e-03
3.367669414728879929e-03
-4.464437812566757202e-02
-3.268905729055404663e-02
5.366885662078857422e-02
5.456069111824035645e-02
-4.212608188390731812e-02
-5.864284560084342957e-02
-3.977510333061218262e-02
-3.129881247878074646e-02
3.594879992306232452e-03
-3.499167039990425110e-02
-1.065212200046516955e-04
3.678822657093405724e-03
-3.929208219051361084e-02
7.142620533704757690e-02
4.077342152595520020e-02
-1.597684063017368317e-02
-6.069603934884071350e-02
8.101575076580047607e-02
-1.038547232747077942e-02
1.354354899376630783e-02
-2.928864583373069763e-02
2.307224646210670471e-02
-4.482159763574600220e-02
-4.441505670547485352e-02
-8.522210642695426941e-03
-5.647705867886543274e-02
3.812442347407341003e-02
3.316239267587661743e-02
1.931400410830974579e-02
6.392318010330200195e-02
-2.604195661842823029e-02
-2.950757928192615509e-02
-1.300990581512451172e-02
4.905489087104797363e-02
3.731291368603706360e-02
6.485293805599212646e-02
-2.829431928694248199e-02
7.324551790952682495e-02
5.924222990870475769e-02
3.641905263066291809e-02
4.175673797726631165e-02
4.685847088694572449e-02
-1.086966507136821747e-02
-1.415795879438519478e-03
2.857467043213546276e-04
-5.493710935115814209e-02
2.348841726779937744e-02
6.332925986498594284e-03
5.951656401157379150e-02
5.420746281743049622e-02
4.097321629524230957e-02
6.762091815471649170e-02
6.023977324366569519e-02
3.009121119976043701e-02
2.972660213708877563e-02
3.812482953071594238e-02
-1.376289525069296360e-03
-3.264122828841209412e-02
-3.139298642054200172e-04
3.465801477432250977e-02
1.553542353212833405e-02
7.434035837650299072e-02
4.043611511588096619e-02
-1.852505083661526442e-04
3.519518673419952393e-02
3.175522014498710632e-02
-7.838135585188865662e-03
-5.611029267311096191e-02
-2.038744091987609863e-02
2.656703442335128784e-02
7.046942412853240967e-02
-4.383729398250579834e-02
-4.952313005924224854e-02
-2.413542568683624268e-02
-6.822102516889572144e-02
-3.731528064236044884e-03
-1.227243337780237198e-02
4.171194881200790405e-02
5.138720571994781494e-02
-4.997066780924797058e-02
-7.178728282451629639e-02
1.429881714284420013e-02
5.290367826819419861e-02
-3.320423513650894165e-02
-1.489853207021951675e-02
-2.996726520359516144e-02
-2.295845374464988708e-02
3.879729285836219788e-02
-6.025487184524536133e-02
5.897140875458717346e-02
5.720940232276916504e-02
4.739812389016151428e-02
5.552684515714645386e-02
2.941666729748249054e-02
3.070457093417644501e-02
2.205543592572212219e-02
2.414168417453765869e-02
-2.320490032434463501e-02
-3.900629281997680664e-02
-3.508085012435913086e-02
-4.154369607567787170e-02
-1.735263154841959476e-03
5.961613357067108154e-02
4.447478428483009338e-02
5.130407866090536118e-03
-3.457832708954811096e-02
-1.290042046457529068e-02
-2.409236878156661987e-02
7.145484536886215210e-02
-1.317497622221708298e-02
-7.737297099083662033e-03
-2.759358100593090057e-02
-5.787637084722518921e-02
4.699897021055221558e-02
2.520816959440708160e-02
-1.719700172543525696e-02
-9.641346521675586700e-03
-5.189506337046623230e-02
9.230296127498149872e-03
2.443993464112281799e-02
3.346030041575431824e-02
2.079848572611808777e-02
-3.334819898009300232e-02
1.852528192102909088e-02
3.134518489241600037e-02
-4.300153255462646484e-02
-4.980095848441123962e-02
-2.393793687224388123e-02
6.469675153493881226e-02
6.342207640409469604e-02
5.330135300755500793e-02
3.563147783279418945e-02
-4.254684224724769592e-02
1.104748900979757309e-02
3.258066624402999878e-02
1.328298449516296387e-02
-3.274012356996536255e-02
3.738338500261306763e-02
-3.647783398628234863e-02
3.958023712038993835e-02
2.253840118646621704e-02
-3.734705597162246704e-02
4.012918844819068909e-02
-9.624076075851917267e-03
-2.781648747622966766e-02
-4.664616286754608154e-02
-1.499501895159482956e-02
-9.102716110646724701e-03
-1.433604676276445389e-02
6.536083295941352844e-03
8.002415299415588379e-03
-1.432166062295436859e-02
8.783628232777118683e-03
5.545486137270927429e-02
-3.437208943068981171e-03
-3.862145543098449707e-02
-4.450740292668342590e-02
2.585666626691818237e-02
-3.376082167960703373e-04
-3.375535830855369568e-02
-1.827848702669143677e-02
4.852774366736412048e-02
-5.722733214497566223e-02
-1.802563667297363281e-02
5.719963833689689636e-02
-2.056760946288704872e-03
-2.533013373613357544e-02
6.965227657929062843e-04
4.166196286678314209e-02
-4.732640460133552551e-02
-1.332356967031955719e-02
9.806334972381591797e-03
-4.169220849871635437e-02
-1.188794430345296860e-02
-2.223077975213527679e-02
-2.865962125360965729e-02
5.004038568586111069e-03
1.968602277338504791e-02
-4.250063560903072357e-03
1.600196002982556820e-03
4.210291057825088501e-02
-6.099744141101837158e-02
1.153317932039499283e-02
-8.861443027853965759e-03
4.066095128655433655e-02
2.796936407685279846e-02
-4.802652820944786072e-02
-2.550185285508632660e-02
-6.252840906381607056e-02
-6.626901775598526001e-02
2.909500338137149811e-02
1.230183895677328110e-02
6.257721781730651855e-02
1.178729999810457230e-02
3.042796161025762558e-03
-1.874793320894241333e-02
3.236701712012290955e-02
7.463058456778526306e-03
-6.293680053204298019e-03
1.858045533299446106e-02
4.476015269756317139e-02
-4.154080525040626526e-02
3.736702725291252136e-02
-3.037041053175926208e-02
-5.298228189349174500e-02
7.030508667230606079e-02
-2.482962980866432190e-02
-6.153779570013284683e-03
3.582264110445976257e-02
-1.302783098071813583e-02
-4.407945647835731506e-02
-5.098234117031097412e-02
-5.502273514866828918e-02
1.338794454932212830e-02
3.958371654152870178e-02
2.250638417899608612e-02
2.284842915832996368e-02
4.224343597888946533e-02
-1.952207088470458984e-02
-1.130646001547574997e-02
1.154944952577352524e-02
-1.552211958914995193e-02
-8.469884283840656281e-03
9.442864917218685150e-03
-3.914409503340721130e-02
-4.609729722142219543e-02
3.095255233347415924e-02
-4.807252436876296997e-02
-9.717941284179687500e-03
-3.686167299747467041e-02
-1.551835518330335617e-02
-2.192455902695655823e-02
-1.932268030941486359e-02
-6.339944899082183838e-02
-9.009813074953854084e-04
5.098143219947814941e-02
-3.420263528823852539e-02
3.505812585353851318e-02
-2.570856921374797821e-02
2.385970670729875565e-03
3.705552592873573303e-02
4.774240031838417053e-02
5.076154321432113647e-02
8.201067894697189331e-02
3.012795932590961456e-02
-7.333030458539724350e-03
4.129748791456222534e-02
-5.168845504522323608e-02
3.976069018244743347e-02
-1.523218210786581039e-02
-2.000227384269237518e-02
1.171627175062894821e-02
4.878405109047889709e-02
1.935718208551406860e-02
2.196848951280117035e-02
4.962702840566635132e-02
-4.338013380765914917e-02
-4.992758482694625854e-02
-2.576034888625144958e-02
-2.791174454614520073e-03
2.900591120123863220e-02
-3.404814004898071289e-02
9.791989810764789581e-03
5.440866202116012573e-02
1.040293741971254349e-02
2.268579602241516113e-02
3.358906367793679237e-03
-1.475162152200937271e-02
2.594085969030857086e-02
-1.300143171101808548e-02
-2.190859988331794739e-02
5.800078436732292175e-02
7.245631515979766846e-02
-1.134047098457813263e-02
-1.610971638001501560e-03
4.292218759655952454e-02
-2.450521849095821381e-02
-4.943879321217536926e-02
3.172022104263305664e-02
-4.658273980021476746e-02
-3.660414367914199829e-02
4.461839422583580017e-02
-1.986692100763320923e-02
3.175373747944831848e-02
-3.647787123918533325e-02
5.681074783205986023e-02
5.706544965505599976e-02
-4.547685384750366211e-03
8.530893363058567047e-03
9.005015715956687927e-03
-4.327833652496337891e-02
3.623129427433013916e-02
5.317785311490297318e-03
-3.100815229117870331e-02
4.728161916136741638e-02
1.493929326534271240e-02
-4.640108346939086914e-02
4.300167039036750793e-02
-3.541812300682067871e-02
7.894637063145637512e-03
1.576375029981136322e-02
-3.371156752109527588e-02
-3.068440966308116913e-02
2.525872923433780670e-02
-2.621256746351718903e-02
-5.206578969955444336e-02
-1.388227194547653198e-02
6.715151667594909668e-02
-5.964999273419380188e-02
1.142269000411033630e-02
2.555880323052406311e-02
6.004951521754264832e-02
1.861527003347873688e-02
4.259963333606719971e-02
-2.887145802378654480e-02
-3.691900894045829773e-02
2.441531792283058167e-02
9.199297055602073669e-03
-4.206670075654983521e-02
2.128192037343978882e-02
-1.664749160408973694e-02
5.659630149602890015e-02
1.434434577822685242e-02
-4.077308252453804016e-02
1.491954270750284195e-02
-2.034957706928253174e-02
5.167078226804733276e-02
-3.565621748566627502e-02
6.821709126234054565e-02
-3.861304372549057007e-02
-3.948686271905899048e-02
-1.859607547521591187e-02
3.351305425167083740e-02
4.843759536743164062e-02
-1.913792826235294342e-02
-5.261433776468038559e-03
3.051620721817016602e-02
-4.627936286851763725e-04
5.858693644404411316e-02
-1.480022072792053223e-02
-1.137965079396963120e-02
-2.503129281103610992e-02
-3.923831391148269176e-04
-5.890126526355743408e-02
-1.453109271824359894e-02
5.429422482848167419e-02
-4.777614772319793701e-02
-4.249684512615203857e-02
-2.793110348284244537e-02
-2.848332189023494720e-02
3.001674450933933258e-02
4.472300782799720764e-02
6.772449612617492676e-02
-4.762242082506418228e-03
4.863695055246353149e-02
5.958374589681625366e-03
1.800074614584445953e-02
-6.310452520847320557e-02
6.683313846588134766e-02
5.972928181290626526e-02
3.587599471211433411e-02
1.644988730549812317e-02
-5.527016893029212952e-02
-2.019803039729595184e-02
1.060281574609689415e-04
4.294475167989730835e-02
-1.611814647912979126e-02
-1.162070408463478088e-02
1.474732160568237305e-02
-4.204312339425086975e-02
3.210809081792831421e-02
5.825745314359664917e-02
-1.036132685840129852e-02
-1.738743740133941174e-04
5.223731696605682373e-02
-2.032409049570560455e-02
4.569631069898605347e-02
6.656151264905929565e-02
3.903076425194740295e-02
6.915170699357986450e-02
-2.000956609845161438e-02
4.526194930076599121e-02
2.383725903928279877e-02
-8.087555319070816040e-02
5.209501460194587708e-02
-1.164072845131158829e-02
4.515227302908897400e-02
-2.280017361044883728e-02
7.228409498929977417e-02
6.239456683397293091e-02
7.820104062557220459e-02
4.857398942112922668e-02
-8.684402704238891602e-02
-2.542987093329429626e-02
1.290291082113981247e-02
-3.454902768135070801e-02
8.243531920015811920e-03
-3.552518039941787720e-02
-4.519010428339242935e-03
-8.653555996716022491e-03
1.354813203215599060e-02
2.069541066884994507e-02
-6.220636144280433655e-02
-1.740091480314731598e-02
5.742308218032121658e-03
2.098748274147510529e-02
1.051395758986473083e-02
1.060342602431774139e-02
-5.680504441261291504e-02
-5.731716752052307129e-03
-2.910094335675239563e-02
2.024478511884808540e-03
5.599286034703254700e-02
-6.113450974225997925e-02
-5.415018647909164429e-02
-3.035955131053924561e-02
7.077088952064514160e-02
1.212677266448736191e-02
3.864202648401260376e-02
5.709054693579673767e-02
-3.743125498294830322e-02
-4.463180899620056152e-02
-4.585764557123184204e-02
2.051104046404361725e-02
1.710071228444576263e-02
-9.475460392422974110e-04
-5.856878682971000671e-02
2.224468253552913666e-02
-1.886825263500213623e-02
5.765020474791526794e-02
-2.504139021039009094e-02
1.819696463644504547e-02
4.522463306784629822e-02
1.207784656435251236e-02
-1.329341717064380646e-02
-6.112653389573097229e-02
3.031087666749954224e-02
3.618044033646583557e-02
2.926301397383213043e-02
2.503377571702003479e-02
3.122295811772346497e-02
-1.726411841809749603e-02
-4.994257166981697083e-02
3.933365643024444580e-02
-3.134258463978767395e-02
1.404483988881111145e-02
-5.004061385989189148e-02
4.900178685784339905e-02
3.689372166991233826e-02
-4.388688132166862488e-02
9.380374103784561157e-03
-3.455088287591934204e-02
6.812272593379020691e-03
-3.591055050492286682e-02
-1.335126999765634537e-02
-1.067671645432710648e-02
-4.335108399391174316e-02
-4.363732784986495972e-02
4.874269012361764908e-03
-5.023457854986190796e-02
-1.569323986768722534e-02
3.352731093764305115e-02
4.083128273487091064e-02
-5.043090134859085083e-02
9.138725697994232178e-03
3.064383938908576965e-02
-4.897866398096084595e-02
1.416912488639354706e-02
-1.893781498074531555e-02
-4.982567206025123596e-02
1.527793426066637039e-02
-5.595580674707889557e-03
1.168728154152631760e-02
-3.935586661100387573e-02
-3.949929773807525635e-02
2.715420722961425781e-02
6.797000765800476074e-02
-1.763049699366092682e-02
2.574198879301548004e-02
-3.925018757581710815e-02
-2.867789193987846375e-02
-6.613609194755554199e-02
-1.989628747105598450e-02
6.365652382373809814e-02
-1.616881787776947021e-02
5.746472254395484924e-02
2.222077921032905579e-02
4.994354024529457092e-02
2.931334637105464935e-02
6.016400456428527832e-02
-3.747937828302383423e-02
4.071306809782981873e-02
4.601320996880531311e-02
-4.180424287915229797e-02
3.602583892643451691e-03
-1.360537577420473099e-02
-5.630799382925033569e-02
-2.960266731679439545e-02
-1.689458824694156647e-02
-4.379534348845481873e-02
-3.945057839155197144e-02
6.882488727569580078e-03
-1.496147923171520233e-02
1.799623295664787292e-02
-3.054234012961387634e-02
-2.946789935231208801e-02
-4.038045555353164673e-02
-2.431674487888813019e-02
-9.032756206579506397e-04
4.353693872690200806e-02
-2.236896753311157227e-02
9.760771878063678741e-03
-6.138359755277633667e-02
1.430939789861440659e-02
-5.237519368529319763e-02
1.405544020235538483e-02
1.093080732971429825e-02
2.155934274196624756e-02
-3.609921783208847046e-03
4.891024902462959290e-02
2.879408188164234161e-02
6.083455681800842285e-02
6.372818350791931152e-02
-4.327611252665519714e-02
2.848475985229015350e-02
-4.255943745374679565e-02
4.596349596977233887e-02
-7.133513689041137695e-03
2.204490639269351959e-02
-4.836470633745193481e-02
1.176024507731199265e-02
-2.595285698771476746e-02
-2.301556803286075592e-02
5.656769126653671265e-02
7.482339441776275635e-02
5.052760988473892212e-02
5.143188871443271637e-03
-3.699697554111480713e-02
-7.698968984186649323e-03
5.597789958119392395e-02
7.662121788598597050e-04
6.309473514556884766e-02
-2.395841991528868675e-03
-6.761585362255573273e-03
-2.475063689053058624e-02
-5.938775464892387390e-02
3.813860565423965454e-02
-6.595522165298461914e-02
-4.870090633630752563e-02
-8.693565614521503448e-03
5.246001109480857849e-02
-5.161801353096961975e-03
3.209117799997329712e-02
-2.118555083870887756e-02
1.457458361983299255e-02
1.339327916502952576e-02
2.067685313522815704e-02
-2.199954353272914886e-02
-4.885637387633323669e-02
-1.721812225878238678e-02
-5.180474370718002319e-02
6.152534484863281250e-02
2.270244434475898743e-02
1.652541942894458771e-02
-2.178628230467438698e-03
6.916915066540241241e-03
-6.462053861469030380e-03
9.464042261242866516e-03
-4.019755870103836060e-02
-5.452536046504974365e-03
6.947188824415206909e-02
-4.640698432922363281e-02
4.009249061346054077e-02
1.603835634887218475e-02
3.743785619735717773e-02
7.327943295240402222e-02
-3.903616219758987427e-02
-4.608197137713432312e-03
-2.450072951614856720e-02
-4.093878343701362610e-02
3.951830044388771057e-02
-5.995366349816322327e-02
-2.620929293334484100e-02
-3.308341279625892639e-02
-2.059218846261501312e-02
1.415566727519035339e-02
3.634677827358245850e-02
7.343549514189362526e-04
3.938306868076324463e-02
2.908701135311275721e-04
1.555042900145053864e-02
-1.074849721044301987e-02
-2.353444695472717285e-02
-7.654666900634765625e-02
2.049140073359012604e-02
-2.945571439340710640e-03
-1.579303853213787079e-02
2.230190904811024666e-03
2.329671941697597504e-02
2.079079858958721161e-02
-6.132018193602561951e-02
7.927558571100234985e-02
5.887651350349187851e-03
4.022597521543502808e-02
-4.884345084428787231e-02
5.123588256537914276e-03
-2.082353644073009491e-02
1.699975691735744476e-02
2.981686033308506012e-02
6.326925009489059448e-02
6.651149597018957138e-03
5.116070061922073364e-02
1.645122095942497253e-02
2.422269620001316071e-02
2.004355750977993011e-02
6.372755020856857300e-02
-2.188722416758537292e-02
-1.242594141513109207e-02
-4.157065879553556442e-03
-3.358479961752891541e-02
-3.110580146312713623e-02
5.179889500141143799e-02
-1.507815439254045486e-02
-2.565076574683189392e-02
-5.436067003756761551e-03
-5.616006441414356232e-03
8.096645772457122803e-02
6.012005265802145004e-03
-5.086771678179502487e-03
-3.666992485523223877e-02
1.239740103483200073e-02
4.527543485164642334e-02
-2.386655285954475403e-02
2.888080291450023651e-02
-3.226909041404724121e-02
6.065944908186793327e-04
-6.619282811880111694e-02
-4.686856269836425781e-02
-5.537721142172813416e-02
3.912665322422981262e-02
-1.525430101901292801e-02
3.691982783493585885e-05
1.344557385891675949e-02
-6.495330482721328735e-02
2.535014972090721130e-02
2.238339744508266449e-02
-4.930611699819564819e-02
9.813223034143447876e-03
2.073531970381736755e-02
-2.955079544335603714e-04
-1.911895535886287689e-02
4.442258924245834351e-02
3.348119184374809265e-02
5.446518212556838989e-02
-2.109416760504245758e-02
3.647163137793540955e-02
-1.336534228175878525e-02
6.274812668561935425e-02
-5.346815288066864014e-02
-2.530798316001892090e-02
4.706514626741409302e-02
6.204131618142127991e-02
6.602923572063446045e-02
-7.034640014171600342e-02
-6.552580161951482296e-04
-4.357178229838609695e-03
-2.107810042798519135e-02
-6.354053318500518799e-02
-4.420143086463212967e-03
-1.663014106452465057e-02
2.686355821788311005e-02
2.087618596851825714e-02
2.854591980576515198e-02
2.351885288953781128e-02
2.593906223773956299e-02
-3.449420630931854248e-02
-4.590733721852302551e-02
-2.246670238673686981e-02
-3.453907370567321777e-02
-6.130161695182323456e-03
5.932604148983955383e-02
4.064907878637313843e-02
-8.404330583289265633e-04
2.049705944955348969e-02
1.804330945014953613e-02
-4.317729920148849487e-02
-9.691821411252021790e-03
1.623933762311935425e-02
6.778763979673385620e-02
6.017597764730453491e-02
7.180375605821609497e-02
-1.541368290781974792e-02
3.423285484313964844e-02
4.331548511981964111e-02
4.731101915240287781e-02
-5.097198858857154846e-02
-4.357524961233139038e-02
2.322824858129024506e-02
-4.736853763461112976e-03
-2.479675970971584320e-02
-2.207892388105392456e-02
-6.174675375223159790e-02
-6.166457757353782654e-02
-2.828315086662769318e-02
1.649681106209754944e-02
-4.047688841819763184e-02
9.211220778524875641e-03
6.307496875524520874e-02
-4.675193689763545990e-03
3.171357139945030212e-02
-3.563178703188896179e-02
3.273564949631690979e-02
-4.960719496011734009e-02
3.043991699814796448e-02
-1.263052690774202347e-02
-2.536045014858245850e-02
-1.555767934769392014e-02
-1.613397523760795593e-02
2.705889753997325897e-02
-6.098094210028648376e-02
-4.736474901437759399e-02
3.249516338109970093e-02
5.282323062419891357e-02
-2.660571597516536713e-02
-3.143732994794845581e-02
6.959212571382522583e-02
-3.527120500802993774e-02
-7.499374449253082275e-02
-1.434483658522367477e-02
-9.893422015011310577e-03
1.566221355460584164e-03
-1.434486825019121170e-02
5.136123299598693848e-02
6.394500285387039185e-02
3.424428030848503113e-02
2.686514705419540405e-02
7.840675971237942576e-05
-4.997866600751876831e-02
-5.559084191918373108e-02
4.863448813557624817e-02
-1.731684617698192596e-02
-2.632626565173268318e-03
3.775365650653839111e-02
4.782293923199176788e-03
-5.836980044841766357e-02
4.024216532707214355e-02
-3.466757759451866150e-02
-4.062627442181110382e-03
-3.104840591549873352e-02
-2.765137702226638794e-02
5.657262727618217468e-02
-2.331047318875789642e-02
-1.601559296250343323e-02
4.658381640911102295e-02
-2.711041085422039032e-02
-4.035051539540290833e-02
-2.747388929128646851e-02
-4.852351173758506775e-02
5.286319181323051453e-02
-3.090730123221874237e-02
3.379914537072181702e-02
-3.850482404232025146e-02
-3.335618600249290466e-02
5.485866963863372803e-02
-3.027513064444065094e-02
1.455528195947408676e-03
-3.909010067582130432e-02
3.871988877654075623e-02
5.840036901645362377e-04
1.943392492830753326e-02
-2.412040717899799347e-02
-3.826096281409263611e-02
8.319658227264881134e-03
-7.055777311325073242e-02
-6.035236641764640808e-02
-4.982420802116394043e-02
2.139445580542087555e-02
9.900096803903579712e-03
-4.322685673832893372e-02
-1.230107247829437256e-02
8.123341016471385956e-03
-2.486973814666271210e-02
-1.457977481186389923e-02
-5.938303470611572266e-02
3.368553146719932556e-02
8.167244377546012402e-04
-4.640362039208412170e-02
-4.021095484495162964e-02
2.253504097461700439e-02
5.524306744337081909e-02
-2.038925327360630035e-02
-9.991066530346870422e-03
5.194557085633277893e-02
3.435454517602920532e-02
-6.140464916825294495e-02
-7.956179790198802948e-03
-6.384016573429107666e-02
2.390211820602416992e-02
2.048930712044239044e-02
6.251305341720581055e-02
4.649794101715087891e-02
1.273226737976074219e-02
-2.700901962816715240e-02
3.944910690188407898e-02
2.001796290278434753e-02
1.484531909227371216e-02
4.686979949474334717e-02
-4.621493071317672729e-02
-1.609473675489425659e-02
4.322842881083488464e-02
-2.280349656939506531e-02
4.088775441050529480e-02
-1.178471557796001434e-02
4.074939712882041931e-02
-3.351674228906631470e-02
-5.897796526551246643e-02
-3.227432072162628174e-02
-2.174715511500835419e-02
4.223264753818511963e-02
3.977930545806884766e-02
-4.531740397214889526e-02
2.829494420439004898e-03
-4.874534904956817627e-02
-2.548315748572349548e-02
-1.945582590997219086e-02
6.246330216526985168e-02
2.691033855080604553e-02
-1.922612078487873077e-02
4.184009507298469543e-02
-2.744433237239718437e-03
-2.321463078260421753e-03
8.400642313063144684e-03
-5.445669218897819519e-02
1.461061276495456696e-02
4.145424440503120422e-02
-2.679418586194515228e-02
-3.598802536725997925e-02
-5.908582732081413269e-02
5.869870632886886597e-02
-3.709736280143260956e-03
4.276197776198387146e-02
4.948386177420616150e-02
-2.554814517498016357e-02
6.742522865533828735e-02
1.250358577817678452e-02
2.685164287686347961e-02
5.154214054346084595e-02
4.969847947359085083e-02
2.283127233386039734e-02
-6.138233840465545654e-02
1.379330293275415897e-03
1.965659856796264648e-02
5.323597788810729980e-02
-9.089776128530502319e-02
-8.936855196952819824e-02
7.964308559894561768e-02
3.698649257421493530e-02
6.191313266754150391e-02
3.793602809309959412e-02
-4.473347216844558716e-02
4.847520217299461365e-02
1.948611438274383545e-02
-2.239646855741739273e-03
2.055404707789421082e-02
1.769080385565757751e-02
-2.485413104295730591e-02
3.220271319150924683e-02
4.154257476329803467e-02
-1.087646000087261200e-02
4.260982200503349304e-02
6.491873413324356079e-02
1.931174658238887787e-02
-1.837428472936153412e-02
-5.700594559311866760e-02
5.443945527076721191e-03
-2.516585774719715118e-02
5.010822787880897522e-04
4.616984724998474121e-02
-1.303593162447214127e-02
-8.490554988384246826e-03
5.715109407901763916e-02
3.294937312602996826e-02
-6.884982809424400330e-03
-2.333598770201206207e-02
2.004902809858322144e-02
6.872875988483428955e-02
4.468268901109695435e-02
-4.210817068815231323e-02
1.126656122505664825e-02
2.153132669627666473e-02
-1.767030917108058929e-02
-2.265747450292110443e-02
-7.111882418394088745e-02
-2.938459441065788269e-02
2.515144459903240204e-02
3.661990398541092873e-03
3.531146422028541565e-02
-1.593703217804431915e-02
-2.736666612327098846e-02
-6.940943188965320587e-03
2.587994001805782318e-02
-5.213767755776643753e-03
9.665326215326786041e-03
-7.497771829366683960e-02
-5.234474316239356995e-02
5.703753791749477386e-03
-1.815945096313953400e-02
-4.303030297160148621e-02
-4.176190868020057678e-02
8.750852197408676147e-02
4.568063840270042419e-02
4.189055413007736206e-02
-6.694421172142028809e-02
9.641437977552413940e-02
3.614416718482971191e-02
-6.268385797739028931e-02
2.634963020682334900e-02
-3.837885707616806030e-02
2.180749550461769104e-02
-3.788885474205017090e-02
-2.761435881257057190e-02
-1.168373599648475647e-02
-2.269569784402847290e-02
-5.009374395012855530e-02
-1.932586543262004852e-02
6.404004991054534912e-02
7.186557352542877197e-02
2.158561954274773598e-03
-4.188955947756767273e-02
-1.588612608611583710e-02
-6.377255171537399292e-02
2.214301191270351410e-02
-3.275791183114051819e-02
7.204611599445343018e-02
3.680445998907089233e-02
-1.108608394861221313e-02
-8.044049143791198730e-02
4.079120233654975891e-02
6.010832265019416809e-03
6.363812088966369629e-02
-2.587349154055118561e-02
1.780211459845304489e-03
-3.432669863104820251e-02
8.473870344460010529e-03
2.223902754485607147e-02
2.176595851778984070e-02
-5.157579109072685242e-02
4.778164997696876526e-02
2.154901623725891113e-02
-5.106567218899726868e-02
4.743131622672080994e-02
5.613358691334724426e-02
4.187154397368431091e-02
3.989629447460174561e-02
1.359184458851814270e-02
3.051490709185600281e-02
4.767069220542907715e-02
-1.055517699569463730e-02
-8.279240876436233521e-02
-2.358410740271210670e-03
2.738635614514350891e-02
-4.517054185271263123e-02
-2.249747514724731445e-02
-7.032457739114761353e-02
-3.578083962202072144e-02
1.661521196365356445e-02
7.306569069623947144e-02
-5.188068002462387085e-02
-3.455401211977005005e-02
1.293590571731328964e-02
-3.722574561834335327e-02
-3.736250847578048706e-02
5.366532504558563232e-02
3.679127618670463562e-02
-4.127606749534606934e-03
4.770187661051750183e-02
-5.760311335325241089e-02
1.827099546790122986e-02
6.471407134085893631e-03
2.689982764422893524e-02
7.577062398195266724e-02
-5.349519848823547363e-02
-5.803912132978439331e-02
-1.591691747307777405e-02
4.331608489155769348e-02
5.173189938068389893e-02
-3.482304140925407410e-02
-4.295707214623689651e-03
-4.179105162620544434e-02
1.478801388293504715e-02
3.921905532479286194e-03
6.084362789988517761e-02
1.544627244584262371e-03
-2.563057467341423035e-02
1.357001625001430511e-02
-4.958580434322357178e-02
-4.038615617901086807e-03
1.626409776508808136e-02
7.709982991218566895e-02
4.536320455372333527e-03
1.910348050296306610e-02
5.485385656356811523e-02
-3.388635069131851196e-02
-3.111993148922920227e-02
-7.342700846493244171e-03
1.905372366309165955e-02
-3.978249803185462952e-02
2.998108044266700745e-02
4.623849876224994659e-03
-2.093480899930000305e-03
-5.263197049498558044e-02
-2.422777935862541199e-02
4.784905537962913513e-02
1.374129112809896469e-02
6.344526074826717377e-03
4.786433652043342590e-02
-7.782639563083648682e-02
-9.885630570352077484e-03
-1.395956613123416901e-02
-3.459574654698371887e-02
-4.553271830081939697e-02
1.684397459030151367e-02
1.063247025012969971e-02
-5.704280734062194824e-02
4.266053438186645508e-02
-2.172818407416343689e-02
-4.665155336260795593e-02
-3.173309192061424255e-02
2.739101648330688477e-02
-3.889038413763046265e-02
7.037733495235443115e-02
-2.404040284454822540e-02
-7.070740312337875366e-02
-6.491414457559585571e-02
-9.246246889233589172e-03
6.754752248525619507e-02
6.320229917764663696e-02
3.146105678752064705e-03
-3.112503327429294586e-02
5.448206886649131775e-02
1.671875081956386566e-02
4.495071992278099060e-02
-4.980793967843055725e-02
4.678453877568244934e-02
3.327699005603790283e-02
-5.971914622932672501e-03
1.746759191155433655e-02
-4.202936217188835144e-02
-3.268321976065635681e-02
5.743633490055799484e-03
3.020454943180084229e-02
3.319052606821060181e-02
-1.515156961977481842e-02
3.422334324568510056e-03
-1.881764829158782959e-02
4.199381172657012939e-02
-2.554828673601150513e-02
-5.125115439295768738e-02
-2.456157840788364410e-02
-4.912712145596742630e-03
-3.138553723692893982e-02
4.497487843036651611e-02
3.753662481904029846e-02
-1.060771849006414413e-02
-2.888320200145244598e-02
-2.961244061589241028e-02
2.162972930818796158e-03
-7.288350164890289307e-02
-2.804490271955728531e-03
-3.236856544390320778e-03
6.649380922317504883e-02
-3.407311812043190002e-02
-5.828912928700447083e-02
-1.437847968190908432e-03
-1.531886961311101913e-02
-1.119174901396036148e-02
6.666665524244308472e-02
5.083118751645088196e-02
7.430044468492269516e-03
4.986324161291122437e-02
-4.444022476673126221e-02
7.822605967521667480e-02
7.969649136066436768e-02
6.704446673393249512e-02
-3.371473029255867004e-02
3.377194702625274658e-02
-2.447749860584735870e-02
-6.041267770342528820e-04
-2.046268619596958160e-02
-1.039705052971839905e-02
-6.250492483377456665e-02
2.179098501801490784e-02
-7.533916272222995758e-03
4.159584641456604004e-02
8.774457126855850220e-02
6.239441037178039551e-02
1.271542161703109741e-02
-2.309421636164188385e-02
-9.407500922679901123e-02
8.550275117158889771e-02
5.306177958846092224e-02
-4.166357591748237610e-02
6.135711818933486938e-02
7.542499154806137085e-02
1.064804010093212128e-02
-6.755027174949645996e-02
-2.330614440143108368e-02
-2.099264785647392273e-02
-1.949749514460563660e-02
-6.375802308320999146e-02
-2.446768619120121002e-02
-1.178712863475084305e-02
2.741812914609909058e-02
4.803916439414024353e-02
-5.411057267338037491e-03
-1.114290300756692886e-02
-8.968319743871688843e-03
2.720039896667003632e-02
-1.380549091845750809e-02
4.522672388702630997e-03
-3.837192803621292114e-02
2.925209887325763702e-02
-5.006469786167144775e-02
4.439177736639976501e-02
-1.338494848459959030e-02
-1.987271383404731750e-02
3.195258602499961853e-02
-5.104862153530120850e-02
-4.579092562198638916e-02
-3.698603063821792603e-02
-7.445804774761199951e-03
-1.018996164202690125e-02
-5.197472870349884033e-02
4.255106300115585327e-02
-7.879088819026947021e-02
2.310099452733993530e-02
-1.446624193340539932e-02
-5.229324102401733398e-02
4.775276780128479004e-02
-7.232182659208774567e-03
-3.200393542647361755e-02
-1.868283492513000965e-03
5.234135687351226807e-02
-2.273063547909259796e-02
7.502356916666030884e-02
-4.027480259537696838e-02
-4.282996989786624908e-03
2.400533482432365417e-02
-1.339323498541489244e-04
-1.877111382782459259e-02
-4.496625624597072601e-03
-1.442971825599670410e-02
5.024855583906173706e-02
7.343688607215881348e-02
-1.917731575667858124e-02
-3.166183829307556152e-02
-4.663330689072608948e-02
-5.030004307627677917e-02
-5.625962838530540466e-02
-1.790747046470642090e-02
8.416368812322616577e-02
-8.971258066594600677e-03
-1.728133857250213623e-02
-2.790814824402332306e-02
-5.532005056738853455e-02
4.571038484573364258e-02
-3.188773989677429199e-02
2.112256549298763275e-02
6.415748596191406250e-02
1.433292776346206665e-02
2.784483879804611206e-02
2.091095037758350372e-02
6.487282458692789078e-03
-3.548625856637954712e-03
1.405317708849906921e-02
-2.240054309368133545e-02
3.435453772544860840e-02
-3.861413896083831787e-02
4.917823895812034607e-02
5.702313780784606934e-02
-6.026748567819595337e-02
-1.324752531945705414e-02
2.491164207458496094e-02
3.816708922386169434e-02
-5.209141224622726440e-02
-4.120913147926330566e-02
-4.955248162150382996e-02
-2.579833008348941803e-02
-5.697841942310333252e-02
6.247557327151298523e-02
2.153959684073925018e-02
4.819040372967720032e-02
-3.837469965219497681e-03
8.611131925135850906e-04
3.712950274348258972e-02
2.209278056398034096e-03
-4.493416845798492432e-02
1.456107757985591888e-02
3.001422248780727386e-02
5.856259912252426147e-02
4.735334217548370361e-02
-2.981182374060153961e-02
-4.865469038486480713e-02
-3.582470491528511047e-02
3.127918019890785217e-02
-3.140623122453689575e-02
6.741931289434432983e-02
-3.680172562599182129e-02
1.382056996226310730e-02
7.557892706245183945e-03
-5.241821706295013428e-02
-1.172269880771636963e-02
4.765522852540016174e-02
-9.530229493975639343e-03
-5.625143647193908691e-02
-3.581760823726654053e-02
-3.332794830203056335e-02
4.287850111722946167e-03
-5.319763347506523132e-02
-2.243505232036113739e-02
1.996788010001182556e-02
-4.308243095874786377e-02
6.370896846055984497e-02
-3.827808797359466553e-02
2.179007604718208313e-02
2.381238527595996857e-02
4.501118883490562439e-02
3.172158449888229370e-02
2.259234525263309479e-02
5.152114108204841614e-02
-3.405946120619773865e-02
4.169021546840667725e-02
-3.813514485955238342e-02
6.072349473834037781e-02
-2.713148295879364014e-02
-1.458796486258506775e-02
-4.540282115340232849e-02
-9.164127521216869354e-03
7.636496424674987793e-02
6.898808293044567108e-03
3.965016454458236694e-02
-3.443659842014312744e-02
-4.116776213049888611e-02
-2.844777889549732208e-02
-2.967879921197891235e-02
-3.088220767676830292e-02
-1.768745109438896179e-02
3.561226651072502136e-02
3.495159372687339783e-02
3.238929901272058487e-03
-1.408491749316453934e-02
-2.153342962265014648e-02
8.255332708358764648e-03
-5.203720554709434509e-02
-4.884236678481101990e-02
6.307881325483322144e-02
-8.243896998465061188e-03
-5.177500657737255096e-03
5.895633250474929810e-02
-5.412864685058593750e-02
-3.408131748437881470e-02
-1.160879991948604584e-02
-3.420733660459518433e-02
3.335585445165634155e-02
5.929487198591232300e-02
5.480849370360374451e-02
1.212285459041595459e-02
-8.758637309074401855e-02
4.008729383349418640e-02
4.267299547791481018e-02
-3.273593494668602943e-03
3.140665218234062195e-02
3.915861994028091431e-02
4.227606952190399170e-02
1.289387606084346771e-02
1.746276207268238068e-02
-5.791921541094779968e-02
-1.487403269857168198e-02
2.259021252393722534e-02
-5.644029588438570499e-04
-5.051233991980552673e-02
-4.847785085439682007e-02
-2.789103426039218903e-02
-2.277557924389839172e-02
-9.749957360327243805e-03
-5.448671989142894745e-03
3.929857164621353149e-02
-2.548421733081340790e-02
6.131688714958727360e-04
-3.935823589563369751e-02
7.298037409782409668e-02
-5.211727693676948547e-02
-6.547500193119049072e-02
8.026315271854400635e-02
-5.526896938681602478e-02
1.855042949318885803e-02
-5.033463612198829651e-02
5.081259459257125854e-02
-3.269517049193382263e-02
5.421045050024986267e-02
-5.256023257970809937e-02
1.762940548360347748e-02
-5.682538449764251709e-02
1.224349066615104675e-02
-4.039731994271278381e-02
2.218765392899513245e-02
-2.944540232419967651e-02
-4.957286268472671509e-02
-5.824053194373846054e-03
4.192108288407325745e-02
8.598259091377258301e-02
-3.253866685554385185e-03
-3.731081634759902954e-02
3.901331499218940735e-02
-3.825129941105842590e-02
-1.000853441655635834e-02
1.081414055079221725e-02
3.280650079250335693e-02
-5.659706890583038330e-02
1.513663772493600845e-02
-7.016658782958984375e-02
5.501984432339668274e-02
-4.882735013961791992e-02
-2.861229004338383675e-03
9.564612992107868195e-03
-1.102495659142732620e-02
-4.333002492785453796e-03
-3.107955493032932281e-02
-3.247495740652084351e-02
-2.069914713501930237e-02
-3.738776221871376038e-02
1.028476804494857788e-01
1.548949349671602249e-02
1.833268068730831146e-02
3.155016899108886719e-02
5.239266157150268555e-02
-4.328238964080810547e-02
4.279540851712226868e-03
-3.916133940219879150e-02
4.283368587493896484e-02
1.130579877644777298e-02
7.231174502521753311e-03
2.824566885828971863e-02
-7.593372836709022522e-03
-3.343391790986061096e-02
-3.320380300283432007e-02
3.680600225925445557e-02
-2.194785699248313904e-02
4.850881174206733704e-02
3.882446885108947754e-02
4.725448787212371826e-02
5.800047144293785095e-02
-7.373759988695383072e-03
-1.640072651207447052e-02
-5.433567613363265991e-02
-1.788279041647911072e-02
-2.195619232952594757e-02
-3.116053901612758636e-02
3.594468161463737488e-02
7.797701656818389893e-02
-8.038624073378741741e-04
1.852658577263355255e-02
3.570218384265899658e-02
-3.529888344928622246e-03
3.908183053135871887e-02
1.694217696785926819e-02
-4.138530418276786804e-02
4.598154127597808838e-02
5.440376698970794678e-02
-4.862590285483747721e-04
-3.738439828157424927e-02
1.027042232453823090e-02
-7.414950430393218994e-02
-4.150085151195526123e-02
-3.792469203472137451e-02
6.784325093030929565e-02
1.358174066990613937e-02
7.473718840628862381e-03
-4.033228382468223572e-02
-7.857718318700790405e-02
-4.319878667593002319e-02
4.320774599909782410e-02
-4.599338024854660034e-02
3.580426797270774841e-02
1.031939312815666199e-02
5.174929276108741760e-02
3.748627752065658569e-02
-3.704442456364631653e-02
6.183690950274467468e-02
-4.715437442064285278e-02
5.581230670213699341e-02
-1.142870914191007614e-02
-1.072640158236026764e-02
-2.585274400189518929e-03
-3.169268742203712463e-02
6.903941929340362549e-02
-2.397031150758266449e-02
2.873490005731582642e-02
2.782629057765007019e-02
3.252374008297920227e-02
-8.712488226592540741e-03
-2.477813512086868286e-02
6.361834704875946045e-02
3.208303079009056091e-02
-2.270268648862838745e-02
3.328001592308282852e-03
7.205750327557325363e-03
-5.391465872526168823e-02
-1.329181529581546783e-02
-2.943196799606084824e-03
3.890351206064224243e-02
9.160336107015609741e-03
1.886352151632308960e-02
-5.163419991731643677e-02
6.310267001390457153e-02
-8.865176700055599213e-03
-7.490471750497817993e-02
6.599133461713790894e-02
4.105999320745468140e-02
3.474617376923561096e-02
-1.892543211579322815e-02
-5.021220073103904724e-02
-7.186082657426595688e-03
6.747357547283172607e-02
-1.067727338522672653e-02
-4.321614652872085571e-02
5.219475924968719482e-02
2.956997603178024292e-03
-1.363885961472988129e-02
-3.216898813843727112e-02
-1.778477616608142853e-02
8.087707310914993286e-02
-4.673564061522483826e-02
7.496602088212966919e-02
-3.691655397415161133e-02
-2.269477397203445435e-02
4.592401161789894104e-02
5.762864649295806885e-02
2.432358637452125549e-02
5.663280934095382690e-02
2.183050662279129028e-02
-5.646271631121635437e-02
2.350653707981109619e-02
3.801239281892776489e-02
4.539958760142326355e-02
4.598380252718925476e-02
6.472457200288772583e-02
4.183816909790039062e-02
-4.114209488034248352e-02
3.353100270032882690e-02
2.484241267666220665e-03
4.741420969367027283e-02
5.569798126816749573e-02
-4.352093115448951721e-02
-5.863219127058982849e-02
-3.110224381089210510e-02
-3.281196579337120056e-02
2.749958448112010956e-02
2.729868143796920776e-02
1.823246106505393982e-02
-5.598720535635948181e-02
3.199434652924537659e-02
-2.201764099299907684e-02
2.647361159324645996e-02
1.507952436804771423e-02
-1.375620346516370773e-02
-3.642028942704200745e-02
-2.658314071595668793e-02
-1.381682604551315308e-02
-2.962396852672100067e-02
6.306210067123174667e-03
-4.957037419080734253e-02
-2.372457459568977356e-02
5.964668095111846924e-02
-4.430110007524490356e-02
-1.095715910196304321e-02
3.671259433031082153e-02
3.569263499230146408e-03
5.818540602922439575e-02
-1.901008933782577515e-02
5.206938087940216064e-02
-6.181589327752590179e-03
-3.120331279933452606e-02
-3.058566711843013763e-02
5.939670652151107788e-02
2.645327150821685791e-02
4.032333567738533020e-02
-1.895596645772457123e-02
-4.267624020576477051e-02
-8.886449038982391357e-03
7.250595092773437500e-02
2.654559724032878876e-02
-1.481739711016416550e-02
-2.318874746561050415e-02
-1.335120853036642075e-02
-2.358573861420154572e-02
-1.368142664432525635e-02
-2.664696797728538513e-02
-6.612320896238088608e-03
-3.678066283464431763e-02
-6.019332632422447205e-02
2.765959687530994415e-02
4.531263932585716248e-02
2.925818786025047302e-03
9.782983921468257904e-03
-4.255327582359313965e-02
6.063279882073402405e-02
-2.480038255453109741e-02
3.614824032410979271e-03
5.750517174601554871e-02
3.397162631154060364e-02
-1.395351346582174301e-02
-5.877302587032318115e-02
-9.498571045696735382e-03
-6.201461702585220337e-02
2.453927695751190186e-02
-5.155136063694953918e-02
-1.480077020823955536e-02
-2.850269712507724762e-02
-3.992930054664611816e-02
-3.223517537117004395e-02
-2.500518783926963806e-02
-4.060633853077888489e-02
3.008445538580417633e-02
5.244744941592216492e-02
5.994663387537002563e-02
-9.882492013275623322e-03
2.112148888409137726e-02
-2.101994678378105164e-02
5.748383235186338425e-03
6.650751456618309021e-03
2.136978087946772575e-03
-7.356841582804918289e-03
-5.283095315098762512e-02
7.109692785888910294e-03
-1.704854948911815882e-04
6.985188275575637817e-02
-3.024213947355747223e-02
-4.837897047400474548e-02
-3.395588323473930359e-02
2.252848446369171143e-02
1.648870483040809631e-02
1.350167766213417053e-02
-1.666719466447830200e-02
-7.112685590982437134e-02
3.803358227014541626e-02
-2.723850123584270477e-02
5.500557646155357361e-02
-3.517889603972434998e-02
5.328500643372535706e-02
-3.106397204101085663e-02
-4.138791561126708984e-02
-6.346962600946426392e-02
-3.861629962921142578e-02
-7.949495688080787659e-03
-1.406398229300975800e-02
-3.284394973888993263e-03
4.793769866228103638e-02
5.055621638894081116e-02
-1.185365137644112110e-03
1.632015407085418701e-02
4.313234984874725342e-02
3.347211331129074097e-02
-3.679732605814933777e-02
4.217038862407207489e-03
-5.837471783161163330e-02
2.024032548069953918e-02
-4.447621852159500122e-02
-2.667389996349811554e-02
2.620149590075016022e-02
2.126088738441467285e-02
3.263528645038604736e-02
-5.957882106304168701e-02
3.904019296169281006e-02
4.521244019269943237e-02
2.718442864716053009e-02
1.065912842750549316e-02
-1.475078333169221878e-02
-2.573870122432708740e-02
-6.663551926612854004e-02
-3.186611086130142212e-02
6.162944436073303223e-02
-2.337683364748954773e-02
1.406158227473497391e-02
4.199922829866409302e-02
2.462451718747615814e-02
6.596194207668304443e-02
-4.149830713868141174e-02
1.636600308120250702e-02
5.604041740298271179e-02
3.501425683498382568e-02
2.239937148988246918e-02
-2.937528863549232483e-02
1.993348076939582825e-02
1.605836674571037292e-02
-6.977642327547073364e-02
-4.187451303005218506e-02
1.306486781686544418e-02
-2.031386643648147583e-02
-4.823989793658256531e-02
4.714635014533996582e-02
-2.230159752070903778e-02
5.273253191262483597e-03
-2.786092646420001984e-02
1.988909393548965454e-02
6.517431885004043579e-02
6.419357657432556152e-02
-1.359515637159347534e-02
-1.614870503544807434e-02
-5.899235978722572327e-02
-5.356103554368019104e-02
3.744215890765190125e-02
2.388204261660575867e-02
-1.657514087855815887e-02
-3.343598917126655579e-02
-2.837506681680679321e-02
1.865506917238235474e-02
-2.357163466513156891e-03
3.326726704835891724e-02
1.523491274565458298e-02
-2.866682037711143494e-02
3.475010767579078674e-02
6.066939234733581543e-02
2.618403360247612000e-02
-2.212832868099212646e-02
-6.281933933496475220e-02
1.830200478434562683e-02
-3.779303655028343201e-02
3.892814740538597107e-02
2.114164829254150391e-02
3.118795342743396759e-02
9.937078692018985748e-03
5.948676541447639465e-02
-5.200222879648208618e-02
3.786653047427535057e-03
3.272146731615066528e-02
3.681199252605438232e-02
3.398616984486579895e-02
6.983720231801271439e-03
-5.145421624183654785e-02
4.817759618163108826e-03
-5.812215059995651245e-02
6.238977983593940735e-02
-2.302640676498413086e-02
-3.602150827646255493e-04
-2.689975779503583908e-03
4.020307585597038269e-02
-6.066191196441650391e-02
-6.719617545604705811e-02
-3.410655073821544647e-03
1.179227512329816818e-02
-7.651701103895902634e-03
-3.657095134258270264e-02
-1.434822008013725281e-02
-5.464408919215202332e-02
6.300707906484603882e-02
1.579946093261241913e-02
4.836286231875419617e-02
1.707817427814006805e-02
1.403375808149576187e-02
-2.630283683538436890e-02
7.137090712785720825e-02
3.863291442394256592e-02
-1.279103942215442657e-02
5.296090245246887207e-02
-1.647509075701236725e-02
-4.037644714117050171e-02
3.222505375742912292e-02
-2.375587262213230133e-02
-5.070606619119644165e-02
-2.974463393911719322e-03
4.971093032509088516e-03
2.071298100054264069e-02
2.234589494764804840e-02
1.190444361418485641e-02
4.948899615556001663e-03
-6.283270195126533508e-03
1.397602912038564682e-02
3.896977752447128296e-02
-2.268382720649242401e-02
-4.577884823083877563e-02
-2.570499293506145477e-02
2.717769471928477287e-03
-6.871115416288375854e-02
-2.777182683348655701e-02
-5.085261166095733643e-02
-8.721398562192916870e-02
-1.326333172619342804e-02
5.586531385779380798e-02
-2.778255008161067963e-02
6.504474580287933350e-02
-5.340681970119476318e-02
-6.884730607271194458e-02
4.043233394622802734e-02
-3.214122354984283447e-02
2.156973630189895630e-02
-3.624556586146354675e-02
-3.981672599911689758e-02
-3.498298674821853638e-02
-2.429043315351009369e-02
3.208236768841743469e-02
-5.298730731010437012e-02
-1.090006064623594284e-02
-4.818170517683029175e-02
7.255075499415397644e-03
-4.492831975221633911e-02
3.873403370380401611e-02
-8.167035877704620361e-03
3.915758803486824036e-02
4.298472031950950623e-02
1.575877331197261810e-02
-1.064405776560306549e-02
-2.410761080682277679e-02
-1.033620070666074753e-02
1.587254181504249573e-02
5.198181048035621643e-02
-4.830549284815788269e-02
-2.314916066825389862e-02
-5.319632589817047119e-02
-2.916103042662143707e-02
-1.947608031332492828e-02
-8.031293749809265137e-02
-3.316761553287506104e-02
-1.241037249565124512e-02
-8.476459421217441559e-03
-8.306264877319335938e-03
-6.980174686759710312e-03
4.545015096664428711e-02
-1.496101543307304382e-02
-2.268461743369698524e-03
4.660989344120025635e-02
2.945549227297306061e-02
6.187498569488525391e-02
1.103272661566734314e-02
-2.392595633864402771e-02
3.269307687878608704e-02
2.302585542201995850e-02
7.020889967679977417e-02
-6.488430779427289963e-03
6.481380667537450790e-03
4.681727290153503418e-02
4.064019024372100830e-02
-2.840916626155376434e-03
3.096491657197475433e-02
-3.755404800176620483e-02
-1.837505400180816650e-02
4.018693789839744568e-02
3.984848037362098694e-02
2.255010046064853668e-02
-7.213460281491279602e-03
-5.826911702752113342e-02
4.093901813030242920e-02
2.905387058854103088e-02
5.828892812132835388e-02
3.795970231294631958e-02
-4.403409361839294434e-02
1.790940016508102417e-02
3.488842397928237915e-02
3.438720479607582092e-02
5.602185055613517761e-02
-4.150626482442021370e-04
-6.519596278667449951e-02
-3.173241391777992249e-02
-1.508270949125289917e-02
1.847759447991847992e-02
-2.643053419888019562e-02
1.237281691282987595e-02
4.444077238440513611e-02
-6.111601367592811584e-02
5.116476118564605713e-02
-1.061121001839637756e-02
5.003410205245018005e-02
-4.635662212967872620e-02
-5.850998312234878540e-02
4.049374535679817200e-02
-2.009105496108531952e-02
-9.658882394433021545e-03
-2.236529253423213959e-02
4.543958976864814758e-02
3.739435225725173950e-02
-5.454135313630104065e-02
-6.448467820882797241e-02
2.044499106705188751e-02
-2.114346995949745178e-02
-2.932424843311309814e-02
2.389579452574253082e-02
6.671429425477981567e-02
-5.375275388360023499e-03
-1.960939727723598480e-02
1.180633716285228729e-02
-6.044396385550498962e-02
3.231181949377059937e-02
4.431360960006713867e-02
3.019374050199985504e-02
-5.545821785926818848e-02
-3.174805641174316406e-02
-7.751944009214639664e-03
-3.220185637474060059e-02
3.937925770878791809e-02
-1.936156622832641006e-04
-4.500892758369445801e-02
4.028203710913658142e-02
-3.107200190424919128e-02
-3.108177892863750458e-02
-1.027376390993595123e-02
-3.791020065546035767e-02
2.563881129026412964e-02
5.107143893837928772e-02
-5.446510761976242065e-02
-2.748570777475833893e-02
-1.029186230152845383e-02
3.012810647487640381e-02
2.068859897553920746e-02
-5.392416194081306458e-02
-1.051393058151006699e-02
-1.756235584616661072e-02
1.967746205627918243e-02
-1.488793734461069107e-02
-2.139175869524478912e-02
-4.978719353675842285e-02
3.157614171504974365e-02
3.326180204749107361e-02
-4.621281474828720093e-02
5.406856909394264221e-02
4.826150089502334595e-02
-3.392819315195083618e-02
-2.486908994615077972e-02
1.066700555384159088e-02
4.877192154526710510e-02
-3.260882943868637085e-02
-2.473756298422813416e-02
-2.858659066259860992e-02
1.417377404868602753e-02
5.629154853522777557e-03
-3.552084043622016907e-02
5.560747231356799603e-04
-3.687416017055511475e-02
1.677991077303886414e-02
6.205886602401733398e-02
5.456515587866306305e-03
-5.015473067760467529e-02
-2.355669811367988586e-02
-2.018217369914054871e-02
3.786074370145797729e-02
1.427801046520471573e-02
-1.689780317246913910e-02
1.222729589790105820e-02
4.690048471093177795e-02
-3.372447565197944641e-03
2.100753039121627808e-02
2.988479100167751312e-02
7.472947239875793457e-03
-9.053451940417289734e-03
6.477242335677146912e-03
5.532639846205711365e-02
7.335539162158966064e-02
1.387885119765996933e-02
-6.833771709352731705e-03
6.142076849937438965e-02
-4.131767898797988892e-02
-2.051290310919284821e-02
2.345711924135684967e-02
5.014738440513610840e-02
-3.919698297977447510e-02
-3.326206933706998825e-04
4.045771434903144836e-02
6.280127167701721191e-02
2.919522114098072052e-02
-2.852311544120311737e-02
-1.734916865825653076e-02
4.873886704444885254e-02
-6.074042990803718567e-03
7.067243754863739014e-02
7.807691115885972977e-03
4.574472829699516296e-02
6.669522076845169067e-02
1.985406735911965370e-03
2.169024955946952105e-04
-8.761014789342880249e-02
-5.343714728951454163e-02
5.613640695810317993e-02
3.366474434733390808e-02
1.420767861418426037e-03
-3.848489001393318176e-02
-7.460202276706695557e-02
1.616701669991016388e-02
-4.459717869758605957e-02
-2.523666247725486755e-02
8.510867133736610413e-03
-4.991958662867546082e-02
5.507028102874755859e-02
-3.919613361358642578e-02
-8.001703768968582153e-02
-4.146479815244674683e-02
2.945896983146667480e-02
5.000554490834474564e-03
4.999266192317008972e-02
4.716335330158472061e-03
-5.495160818099975586e-02
-7.571191340684890747e-02
-7.391516119241714478e-02
3.135707601904869080e-02
-4.113095626235008240e-02
-2.237505093216896057e-02
5.631506070494651794e-02
-4.569082707166671753e-02
4.215934313833713531e-03
5.436506122350692749e-02
-3.242759034037590027e-02
4.926937445998191833e-02
-5.038875713944435120e-02
-2.958956919610500336e-02
3.361585736274719238e-02
5.976009741425514221e-02
-1.459865551441907883e-02
-3.335422277450561523e-02
-3.499284759163856506e-02
5.760407447814941406e-02
-1.718970015645027161e-02
1.173411123454570770e-02
4.703104123473167419e-02
-4.751495271921157837e-02
3.577781841158866882e-02
2.876080945134162903e-02
2.606012113392353058e-02
7.737166434526443481e-02
-5.955446045845746994e-03
4.558451846241950989e-02
6.762499455362558365e-03
2.002607658505439758e-02
-5.223078280687332153e-02
1.650786027312278748e-02
1.373474765568971634e-02
4.559529200196266174e-02
-2.305531129240989685e-02
-5.117316916584968567e-02
5.101472139358520508e-02
1.539000496268272400e-02
-4.558167606592178345e-02
-5.205864831805229187e-02
5.457174032926559448e-02
-1.947708800435066223e-02
3.590847179293632507e-02
-4.302584379911422729e-02
-7.346419990062713623e-02
-6.234674155712127686e-02
1.554758381098508835e-02
-5.575945228338241577e-02
2.472095750272274017e-02
4.786534607410430908e-02
-1.898493617773056030e-02
-2.412394620478153229e-02
1.886823028326034546e-02
-1.651311479508876801e-02
8.524059318006038666e-03
-6.867757439613342285e-02
8.807009086012840271e-03
2.803665213286876678e-02
3.109830617904663086e-02
-4.724293947219848633e-02
-6.038571242243051529e-03
4.986928775906562805e-02
2.431242726743221283e-03
-2.978617697954177856e-02
-7.195006124675273895e-03
-9.764212183654308319e-03
-3.372099995613098145e-02
3.159727156162261963e-02
-3.795086964964866638e-02
-7.670647650957107544e-02
-4.947451129555702209e-02
4.103884100914001465e-02
-2.105561783537268639e-03
1.503619458526372910e-02
2.919363416731357574e-02
4.420342668890953064e-02
-3.165620937943458557e-02
4.913870245218276978e-02
3.134293481707572937e-02
5.936925113201141357e-02
-2.166138216853141785e-02
4.906377196311950684e-02
-4.174185451120138168e-04
-3.382874280214309692e-02
-5.781795829534530640e-02
-1.640895381569862366e-02
-4.083586484193801880e-02
2.547116018831729889e-02
-5.711535457521677017e-03
-4.658237472176551819e-02
2.141990698873996735e-02
-3.163300454616546631e-02
2.437391504645347595e-02
-2.889019809663295746e-02
-7.711785286664962769e-02
-1.243945304304361343e-02
-1.346056442707777023e-02
-6.021698564291000366e-02
4.077844787389039993e-04
6.034955009818077087e-02
-2.580202929675579071e-02
-7.720265537500381470e-02
-5.967576429247856140e-02
-2.786987647414207458e-02
5.648191273212432861e-02
-2.219624817371368408e-02
2.297100052237510681e-02
-1.515396218746900558e-02
-5.408571660518646240e-02
6.051282584667205811e-02
-2.433615271002054214e-03
-3.664036840200424194e-02
-2.379176951944828033e-02
3.291241079568862915e-02
1.433751173317432404e-02
1.110067777335643768e-02
-1.583162322640419006e-02
-4.646148160099983215e-02
-2.441830933094024658e-02
3.168019652366638184e-02
1.530155539512634277e-02
9.363016579300165176e-04
2.003892138600349426e-02
7.419635541737079620e-03
-5.721996352076530457e-02
-4.275365918874740601e-02
4.218700155615806580e-02
-3.574170544743537903e-02
3.576202318072319031e-02
1.697542518377304077e-02
8.433943614363670349e-03
2.123071439564228058e-02
-9.050817228853702545e-03
5.397472530603408813e-02
-4.003357887268066406e-02
4.573828540742397308e-03
4.607026930898427963e-03
-2.987352386116981506e-02
4.372888058423995972e-02
-2.536257542669773102e-02
5.601017270237207413e-03
-5.057264491915702820e-02
1.159251481294631958e-02
-7.136780302971601486e-03
-3.899792581796646118e-02
3.290114179253578186e-02
-1.992073096334934235e-02
-5.341373011469841003e-02
1.450344547629356384e-02
-4.415562376379966736e-02
-2.436508797109127045e-02
3.349894285202026367e-02
4.888992756605148315e-02
-4.190123640000820160e-03
7.292934507131576538e-02
-2.070150710642337799e-02
4.660629108548164368e-02
1.450738497078418732e-02
-6.656352430582046509e-02
5.437151715159416199e-02
3.617605566978454590e-02
-3.448166698217391968e-02
2.635900117456912994e-02
7.862030714750289917e-02
-2.613616548478603363e-02
2.382526546716690063e-02
2.408017963171005249e-02
-4.044115543365478516e-02
-4.107551649212837219e-02
-1.172554679214954376e-02
-1.780811883509159088e-02
-2.099928818643093109e-02
-8.447071537375450134e-03
5.222409963607788086e-02
7.192652672529220581e-03
-9.890707209706306458e-03
6.954734772443771362e-02
-3.755615279078483582e-02
5.847115442156791687e-02
-3.323496133089065552e-02
-1.554190739989280701e-02
3.929414227604866028e-02
2.667013183236122131e-02
2.916396781802177429e-02
-2.143096737563610077e-02
-2.134569548070430756e-02
-5.049448460340499878e-02
6.855469197034835815e-02
-3.969871625304222107e-02
-6.949804723262786865e-02
4.507420584559440613e-02
2.681921981275081635e-02
-4.524891823530197144e-02
5.732336640357971191e-02
