-2.067825570702552795e-02
2.441869862377643585e-02
1.600974798202514648e-02
-2.552646957337856293e-02
-4.108118638396263123e-02
-1.198299694806337357e-02
-2.146730758249759674e-02
-2.667765878140926361e-02
2.148068882524967194e-02
1.130249351263046265e-02
2.142393216490745544e-02
-1.048819534480571747e-02
4.221402481198310852e-02
5.668329540640115738e-03
-9.294776245951652527e-03
1.705577038228511810e-02
-3.967533633112907410e-02
-8.122960571199655533e-04
2.649897709488868713e-02
-4.100146889686584473e-02
-1.794750243425369263e-02
-4.252444207668304443e-02
2.533541806042194366e-02
2.963191643357276917e-02
-2.409768663346767426e-02
-2.168584987521171570e-02
3.501366823911666870e-02
3.389530628919601440e-02
-1.338833104819059372e-02
-6.630947813391685486e-03
-1.340055838227272034e-02
1.276825089007616043e-02
-2.956563979387283325e-02
-7.842143066227436066e-03
2.973326854407787323e-02
1.865064911544322968e-02
1.784857362508773804e-02
3.508470207452774048e-02
3.655042499303817749e-02
4.036955907940864563e-02
4.156197234988212585e-02
-7.172434590756893158e-03
1.017739437520503998e-02
3.308482095599174500e-02
9.494520723819732666e-03
2.463544905185699463e-02
3.293595090508460999e-02
1.169105619192123413e-02
-1.170984841883182526e-02
-1.594072207808494568e-02
-5.769929848611354828e-03
3.681062534451484680e-02
-1.057814247906208038e-02
2.136209793388843536e-02
-2.847109176218509674e-02
-6.987704895436763763e-03
-2.183987013995647430e-02
-4.103828221559524536e-03
-4.319465160369873047e-02
1.031938195228576660e-02
2.885817363858222961e-02
-4.102986678481101990e-02
2.338694781064987183e-02
-2.684245817363262177e-02
4.315136000514030457e-02
-4.182621464133262634e-02
3.268864378333091736e-02
2.763597294688224792e-02
4.378154501318931580e-02
-1.263061445206403732e-02
-3.525220230221748352e-02
-3.110260888934135437e-02
1.597350277006626129e-02
1.837715320289134979e-02
4.205198958516120911e-02
1.930913142859935760e-02
-2.147826552391052246e-02
-1.401544921100139618e-02
3.787657618522644043e-02
-2.187191136181354523e-02
-1.227350439876317978e-02
-3.723610192537307739e-02
5.095522385090589523e-03
-4.265616089105606079e-02
-2.110991254448890686e-02
2.952909842133522034e-02
-9.724483825266361237e-03
1.527797989547252655e-02
-3.609898686408996582e-02
3.357278183102607727e-02
-3.305593039840459824e-03
5.615035071969032288e-03
3.010192140936851501e-02
4.823043011128902435e-03
2.301412867382168770e-03
1.795740239322185516e-02
2.201504819095134735e-02
-3.225013613700866699e-02
4.361179471015930176e-02
-4.384811222553253174e-02
-1.553125586360692978e-02
3.253386169672012329e-02
-2.613952755928039551e-02
-1.129548717290163040e-02
1.190754864364862442e-02
-2.121520042419433594e-02
1.734490273520350456e-03
-7.031179498881101608e-03
-3.791020810604095459e-02
-1.219117548316717148e-02
-6.205122452229261398e-03
-9.028508327901363373e-03
7.355083245784044266e-03
2.089059539139270782e-02
-1.060158666223287582e-02
2.857079543173313141e-02
-1.461991481482982635e-02
-4.036718606948852539e-02
-4.201567173004150391e-02
9.874711744487285614e-03
-9.173651225864887238e-03
-3.209046646952629089e-02
-3.048413991928100586e-02
-1.935109612531960011e-03
-4.178078100085258484e-02
3.982331231236457825e-02
-1.591559872031211853e-02
2.024482190608978271e-02
2.624383009970188141e-02
9.322587400674819946e-03
-2.989374287426471710e-02
-2.498190104961395264e-02
3.396601229906082153e-02
-4.201914183795452118e-03
-9.009704925119876862e-03
3.501094505190849304e-02
-1.768371649086475372e-02
-1.257734373211860657e-03
2.092106267809867859e-02
-2.736770734190940857e-02
-2.785896696150302887e-02
-3.320107236504554749e-02
-1.528522372245788574e-02
-1.870992407202720642e-02
-1.450958941131830215e-02
2.490891888737678528e-02
2.545878291130065918e-02
1.477715931832790375e-02
4.088704288005828857e-02
1.185453869402408600e-02
2.561190165579319000e-02
-1.534819602966308594e-03
-2.295070700347423553e-02
2.418396621942520142e-02
2.861762605607509613e-02
-7.138548418879508972e-03
1.796267577446997166e-03
-1.628443598747253418e-02
2.968697436153888702e-02
1.214965060353279114e-02
4.397674277424812317e-02
3.165917843580245972e-02
-1.255898643285036087e-02
3.595519065856933594e-02
2.334341034293174744e-02
4.180460423231124878e-02
-1.396007928997278214e-02
2.936672233045101166e-02
2.884991280734539032e-02
-2.961644716560840607e-02
1.759785786271095276e-02
-4.385342076420783997e-02
-3.067316487431526184e-02
-2.519601769745349884e-02
-3.797216713428497314e-02
1.798707433044910431e-02
-3.590459749102592468e-02
-1.961560174822807312e-02
-2.694286522455513477e-04
3.541395813226699829e-02
3.703360632061958313e-02
1.475013233721256256e-02
-3.039269335567951202e-02
1.691751368343830109e-02
2.612933330237865448e-02
-3.742872551083564758e-02
2.306130155920982361e-02
-3.734214231371879578e-02
-5.111416801810264587e-03
-2.971480228006839752e-02
-3.646377101540565491e-02
1.613032631576061249e-02
-3.481515496969223022e-02
-1.656666584312915802e-02
4.266592860221862793e-02
2.685463801026344299e-02
-1.723635941743850708e-02
2.480550669133663177e-02
-4.770127590745687485e-03
2.963128872215747833e-02
1.282956358045339584e-02
4.330500587821006775e-02
-3.423270210623741150e-02
2.682371810078620911e-02
2.692374959588050842e-02
-2.051953598856925964e-02
-1.595778763294219971e-02
-1.153880730271339417e-03
-3.774454817175865173e-02
3.558321390300989151e-03
3.740999102592468262e-02
3.400558233261108398e-02
4.151017218828201294e-02
1.207079971209168434e-03
-2.017977833747863770e-02
3.280657902359962463e-02
1.790864393115043640e-02
-2.307489328086376190e-02
3.838003054261207581e-02
4.725619510281831026e-04
7.929007522761821747e-03
-1.147589646279811859e-02
-2.792228478938341141e-03
-1.610293611884117126e-02
1.810812391340732574e-02
-2.544485777616500854e-02
2.497580647468566895e-02
4.309004172682762146e-03
-2.753706462681293488e-02
1.770102232694625854e-02
-2.037570439279079437e-02
1.881826668977737427e-02
4.599611740559339523e-03
-3.582810983061790466e-02
-5.942110437899827957e-03
-3.212659433484077454e-02
-3.366680070757865906e-02
-1.220371946692466736e-02
1.315740309655666351e-02
3.311977908015251160e-02
-3.480158001184463501e-02
1.379235554486513138e-02
-2.903363108634948730e-02
1.328937360085546970e-03
3.618062287569046021e-02
6.559898611158132553e-03
3.963764011859893799e-02
3.854662179946899414e-03
4.056049510836601257e-03
-4.311119392514228821e-02
-8.056622929871082306e-03
-2.574781514704227448e-02
5.229917820543050766e-03
-5.344657693058252335e-03
2.164961397647857666e-02
1.941143721342086792e-02
