1.000027880072593689e-01
9.408544749021530151e-02
5.424068868160247803e-02
-2.576025202870368958e-02
-4.211844503879547119e-02
8.703164011240005493e-02
8.919162303209304810e-02
-1.214505881071090698e-01
-5.192831740714609623e-04
7.668777555227279663e-02
-2.927957847714424133e-02
1.100941076874732971e-01
-1.061159297823905945e-01
-4.417189210653305054e-02
-2.191243134438991547e-02
-5.943782627582550049e-02
7.433849573135375977e-02
3.940743580460548401e-02
-5.233390256762504578e-02
4.257785156369209290e-02
2.403393946588039398e-02
5.233750492334365845e-02
5.355782434344291687e-02
6.235532835125923157e-02
-4.670764133334159851e-02
1.234431713819503784e-01
2.726813405752182007e-02
4.070238396525382996e-02
1.853155344724655151e-02
2.597264014184474945e-03
2.935915067791938782e-02
5.449460819363594055e-02
-1.005092039704322815e-01
2.155122905969619751e-02
7.061832398176193237e-02
7.935842871665954590e-02
-9.873197413980960846e-03
-1.214528828859329224e-01
-1.374388393014669418e-02
3.426583483815193176e-03
-3.476486355066299438e-02
-3.161976486444473267e-02
-3.258574381470680237e-02
-5.917005613446235657e-02
-6.842668168246746063e-03
1.202862858772277832e-01
1.102486103773117065e-01
-1.058067101985216141e-02
-5.103653529658913612e-04
7.096018642187118530e-02
6.980228424072265625e-02
4.579570516943931580e-02
-1.067871600389480591e-01
9.580973535776138306e-02
5.949892103672027588e-02
-1.066666319966316223e-01
6.008144468069076538e-02
7.828194648027420044e-02
9.337163716554641724e-02
8.165382593870162964e-02
-8.056492358446121216e-02
-3.055763430893421173e-02
3.919556364417076111e-02
2.962581254541873932e-02
9.772659838199615479e-02
8.705371618270874023e-02
-7.705609314143657684e-04
5.393941327929496765e-02
1.015326231718063354e-01
3.185506165027618408e-02
-1.164060756564140320e-01
9.515173733234405518e-02
-4.649021476507186890e-02
-1.128582879900932312e-01
1.157466601580381393e-02
-1.206002663820981979e-02
-1.583113707602024078e-02
-6.704874336719512939e-02
8.681290596723556519e-02
8.812649548053741455e-02
7.319597154855728149e-02
8.349740505218505859e-02
-9.485049545764923096e-02
8.432986587285995483e-02
-4.901909455657005310e-02
-1.081114187836647034e-01
3.620551154017448425e-02
1.161175668239593506e-01
6.542430818080902100e-02
-1.097193881869316101e-01
-4.434204101562500000e-02
-4.129917547106742859e-02
-1.214887350797653198e-01
-2.933410555124282837e-02
-9.058862924575805664e-02
-1.745419227518141270e-03
5.596659705042839050e-02
-1.201767399907112122e-01
-4.188709333539009094e-02
-8.418545126914978027e-02
6.274425238370895386e-02
-1.196724250912666321e-01
2.712881006300449371e-02
-8.769945055246353149e-02
4.006173089146614075e-02
1.150475963950157166e-01
-4.222109913825988770e-03
9.969978034496307373e-02
-7.081942260265350342e-02
-6.247612088918685913e-02
-2.517041936516761780e-02
1.096146106719970703e-01
9.571467339992523193e-02
-1.170753836631774902e-01
2.977005951106548309e-02
7.548261433839797974e-02
1.213283836841583252e-01
3.505092114210128784e-02
3.554643690586090088e-02
2.420764043927192688e-02
6.126629188656806946e-02
1.180361136794090271e-01
1.653733290731906891e-02
8.355665206909179688e-02
-1.110097095370292664e-01
-7.355678081512451172e-02
-9.854871034622192383e-02
-1.029555946588516235e-01
