-6.895548664033412933e-03
8.147419430315494537e-03
8.777873590588569641e-03
5.561384023167192936e-05
8.783911354839801788e-03
2.056769561022520065e-03
-6.726530380547046661e-03
-1.851160341175273061e-04
6.515305023640394211e-03
1.133189769461750984e-03
3.131678560748696327e-03
2.156956354156136513e-03
9.728348813951015472e-03
2.184267714619636536e-02
-5.158343818038702011e-03
3.761929692700505257e-03
4.583672154694795609e-03
-9.463163092732429504e-03
-1.613030582666397095e-02
-5.987829063087701797e-03
-1.234369701705873013e-04
-5.359196104109287262e-03
1.907944120466709137e-02
5.359547678381204605e-03
1.311916299164295197e-02
5.363436415791511536e-03
5.663318559527397156e-03
-8.070494979619979858e-03
1.311313267797231674e-02
7.580725010484457016e-03
-1.073812600225210190e-02
-1.382643915712833405e-02
1.302211172878742218e-02
-6.852657068520784378e-03
1.943256892263889313e-02
-1.541220699436962605e-03
1.262954995036125183e-02
2.201581560075283051e-02
-2.195204608142375946e-03
9.784138528630137444e-04
-1.537933386862277985e-02
1.315213460475206375e-02
3.844157326966524124e-03
-5.477489321492612362e-04
6.837788037955760956e-03
-2.542230300605297089e-03
2.966168802231550217e-03
-8.205004967749118805e-03
1.732210628688335419e-02
-9.365700185298919678e-03
9.340656921267509460e-03
9.341207332909107208e-03
-8.253157138824462891e-03
7.778679952025413513e-03
3.305577673017978668e-03
2.578261774033308029e-03
1.157264690846204758e-02
-1.783392578363418579e-02
6.805305834859609604e-03
-5.421506240963935852e-03
-8.116724900901317596e-03
-1.080119982361793518e-03
-1.222100015729665756e-02
-5.777363665401935577e-03
1.735540851950645447e-02
-2.587895840406417847e-03
-9.109013713896274567e-03
2.317453548312187195e-02
-1.868610456585884094e-02
7.936197333037853241e-03
-3.020882839336991310e-03
1.382280979305505753e-02
1.868162886239588261e-03
-1.913967309519648552e-03
3.911430016160011292e-03
-8.043872192502021790e-03
-1.282387319952249527e-02
-7.020792923867702484e-03
1.843852340243756771e-03
-1.470416877418756485e-02
-4.734576214104890823e-03
1.125385425984859467e-02
-3.854034235700964928e-03
2.001696964725852013e-03
-3.315874608233571053e-03
-1.242479775100946426e-03
1.858208212070167065e-03
1.006142422556877136e-02
1.899152877740561962e-03
-1.355366781353950500e-03
1.521657593548297882e-02
1.660775020718574524e-02
-1.452780910767614841e-03
1.494915224611759186e-02
9.401270188391208649e-03
4.003738984465599060e-03
-2.295222878456115723e-02
1.600345596671104431e-02
2.770371921360492706e-02
8.228676393628120422e-03
7.140911184251308441e-03
1.653057755902409554e-03
4.086809232831001282e-03
4.345944151282310486e-03
1.060092542320489883e-02
4.444361198693513870e-03
1.106742862612009048e-02
1.259228098206222057e-03
1.156705617904663086e-02
2.296041697263717651e-03
1.097853761166334152e-02
-1.158630475401878357e-03
-4.663940053433179855e-03
-1.891028694808483124e-02
1.110962964594364166e-02
-9.547952562570571899e-03
2.759865671396255493e-02
8.336987346410751343e-03
5.061862058937549591e-03
1.690805517137050629e-02
7.399322465062141418e-03
-1.965645933523774147e-03
-6.635446101427078247e-03
-8.044970221817493439e-03
5.367239005863666534e-03
1.033298857510089874e-02
1.311013009399175644e-03
-9.035244584083557129e-03
