-8.987851440906524658e-02
-3.388830646872520447e-02
4.337656125426292419e-02
2.430692315101623535e-03
1.395504772663116455e-01
6.455098092555999756e-02
6.637618690729141235e-02
1.036324352025985718e-01
-6.787813454866409302e-02
5.376747250556945801e-02
7.474519312381744385e-02
-5.545720830559730530e-02
-4.847053065896034241e-02
3.980305418372154236e-02
2.466044947504997253e-02
6.954999268054962158e-02
-9.399589151144027710e-03
6.101138889789581299e-02
4.202072694897651672e-02
4.218340292572975159e-02
2.807885780930519104e-02
2.438490092754364014e-02
1.523513495922088623e-01
1.700112521648406982e-01
-6.481601297855377197e-02
-1.210122704505920410e-01
7.923730462789535522e-02
6.483236700296401978e-02
1.167195811867713928e-01
2.635215222835540771e-02
-7.904329150915145874e-02
9.920749068260192871e-02
3.620147705078125000e-03
-1.210866402834653854e-02
1.884637326002120972e-01
7.541481405496597290e-02
1.088555157184600830e-01
1.583212167024612427e-01
-1.062780097126960754e-01
7.053072750568389893e-02
-2.890457957983016968e-02
-6.707815825939178467e-02
-8.500134199857711792e-02
3.751604631543159485e-02
1.829748274758458138e-03
1.954734474420547485e-01
-1.307319849729537964e-01
7.806598395109176636e-02
1.935125738382339478e-01
4.455043468624353409e-03
1.326950341463088989e-01
9.473785758018493652e-02
2.571538463234901428e-02
2.111538499593734741e-02
1.299367994070053101e-01
1.466647684574127197e-01
8.595512062311172485e-02
5.364563316106796265e-03
1.374369487166404724e-02
2.614046074450016022e-02
-7.026655972003936768e-02
7.442381232976913452e-02
4.741312935948371887e-03
4.859953746199607849e-02
-9.343019872903823853e-02
1.944730989634990692e-02
-9.262127429246902466e-02
-1.104699000716209412e-01
7.169836759567260742e-02
7.616577297449111938e-02
3.909541293978691101e-02
2.809148840606212616e-02
3.911643847823143005e-02
-1.001402065157890320e-01
-1.132571473717689514e-01
1.452928185462951660e-01
-3.366345167160034180e-02
4.149338975548744202e-02
3.906764835119247437e-02
1.401297189295291901e-02
-7.711814343929290771e-02
-8.591812103986740112e-02
6.846948713064193726e-02
1.379775585519382730e-05
8.149164915084838867e-02
1.864005923271179199e-01
4.963639006018638611e-02
-1.476010307669639587e-03
1.637070327997207642e-01
-5.428681522607803345e-02
-9.913278743624687195e-03
-2.832536399364471436e-02
1.971593685448169708e-02
8.779474347829818726e-02
4.914464056491851807e-02
1.594409793615341187e-01
5.919068306684494019e-02
2.012004256248474121e-01
5.778301134705543518e-02
2.951058186590671539e-02
6.280332058668136597e-02
8.408355712890625000e-02
-2.502937614917755127e-02
1.048795804381370544e-01
-8.583050221204757690e-03
9.612263739109039307e-02
4.645511880517005920e-02
-4.978729784488677979e-02
4.401667788624763489e-02
8.083978295326232910e-02
3.032359108328819275e-02
-3.991190344095230103e-02
-9.879599511623382568e-02
8.763872087001800537e-02
2.892174059525132179e-03
-2.909049950540065765e-02
1.472730338573455811e-01
-7.452609133906662464e-04
-1.155365183949470520e-01
5.575056187808513641e-03
1.437122523784637451e-01
8.709640800952911377e-02
-8.786674588918685913e-03
-1.547906249761581421e-01
8.238829672336578369e-02
3.200691938400268555e-02
2.837214805185794830e-02
1.919670999050140381e-01
6.373257189989089966e-02
-1.496566236019134521e-01
2.450910955667495728e-02
7.265131175518035889e-02
3.690161928534507751e-02
-8.806531317532062531e-03
1.717092003673315048e-03
3.887655213475227356e-02
-4.662379622459411621e-03
9.849707037210464478e-02
-1.698209531605243683e-02
4.371305182576179504e-02
-6.511268764734268188e-02
1.194231584668159485e-01
9.868147969245910645e-02
-3.124049119651317596e-02
1.810885965824127197e-02
7.572502642869949341e-02
8.561012148857116699e-02
3.757385164499282837e-02
5.500711128115653992e-02
-4.107915982604026794e-02
2.116233110427856445e-03
1.413045674562454224e-01
-7.464783731848001480e-03
3.175018727779388428e-02
-1.084502562880516052e-01
-4.053428024053573608e-02
-2.092641964554786682e-02
-2.793548442423343658e-02
-1.445766687393188477e-01
-3.205502778291702271e-02
1.551190316677093506e-01
6.879986077547073364e-02
4.896551370620727539e-02
1.545795202255249023e-01
9.166815318167209625e-03
9.321658872067928314e-03
-6.711452454328536987e-02
-3.457377478480339050e-02
1.342129409313201904e-01
7.140914350748062134e-02
7.137460261583328247e-02
3.583545982837677002e-02
8.296947926282882690e-02
-6.040532514452934265e-02
-3.236858919262886047e-02
-3.607211634516716003e-02
-1.219337657094001770e-01
4.597852379083633423e-02
-7.915247976779937744e-02
1.266189664602279663e-01
6.895777769386768341e-03
-4.198285285383462906e-03
2.338963747024536133e-02
-1.981068029999732971e-02
2.703756652772426605e-02
1.203755810856819153e-01
-1.133128348737955093e-02
9.168023616075515747e-02
-5.161147937178611755e-02
5.869316682219505310e-02
-1.070849373936653137e-01
-7.999611087143421173e-03
2.440180070698261261e-02
-3.929756954312324524e-02
2.625878155231475830e-01
-2.349391579627990723e-02
-9.753999183885753155e-04
-6.555715948343276978e-02
-8.975716680288314819e-02
6.124232336878776550e-02
-1.335578709840774536e-01
1.663542240858078003e-01
3.602080047130584717e-02
3.325410559773445129e-02
-1.070955321192741394e-01
3.179134055972099304e-02
6.597399711608886719e-02
6.168074533343315125e-02
1.254774779081344604e-01
1.044361218810081482e-01
5.774116888642311096e-02
8.910058438777923584e-02
1.285967826843261719e-01
-1.672236435115337372e-02
-6.897290796041488647e-02
-8.749140053987503052e-02
-2.440770342946052551e-02
-1.607809029519557953e-02
6.831832975149154663e-02
-5.462015792727470398e-02
1.103406772017478943e-01
-1.152155622839927673e-01
1.154722832143306732e-02
-5.133347585797309875e-02
-1.122658252716064453e-01
1.208710297942161560e-01
-1.201412901282310486e-01
-3.792748227715492249e-02
1.396410465240478516e-01
-3.559987992048263550e-02
1.037724241614341736e-01
2.830787189304828644e-02
-5.459155514836311340e-02
-1.582893356680870056e-02
-5.392380431294441223e-02
1.125635877251625061e-01
1.000370606780052185e-01
-4.288155212998390198e-02
1.898926310241222382e-02
1.027919128537178040e-01
-7.443277537822723389e-02
-3.594307973980903625e-02
9.061001241207122803e-02
1.775025576353073120e-01
-3.831317648291587830e-02
3.480355814099311829e-02
-1.702724844217300415e-01
2.662330865859985352e-02
2.702586725354194641e-02
-3.222835436463356018e-02
-1.733949333429336548e-01
3.013282455503940582e-02
2.272120863199234009e-02
-1.153990346938371658e-02
2.375177480280399323e-02
8.708183467388153076e-02
-3.407477959990501404e-02
-7.286548614501953125e-02
-3.514883294701576233e-02
5.935323610901832581e-02
7.735324651002883911e-02
3.252945467829704285e-02
-3.458223491907119751e-02
-3.010424971580505371e-02
-7.810181379318237305e-02
4.252871125936508179e-02
7.861401885747909546e-02
-2.343261428177356720e-02
-1.026516482234001160e-01
-1.477127429097890854e-02
1.001860871911048889e-01
1.129049900919198990e-02
1.949117891490459442e-02
3.300442174077033997e-02
-6.653857976198196411e-02
4.582854360342025757e-02
1.508916765451431274e-01
-3.286472707986831665e-02
8.653742820024490356e-02
-2.290331060066819191e-03
-4.854438081383705139e-02
-3.575757518410682678e-02
2.341975271701812744e-02
6.651183962821960449e-02
2.902412088587880135e-04
-2.892152965068817139e-02
-1.277377596125006676e-03
-5.014588311314582825e-02
2.570586279034614563e-02
-1.299995277076959610e-02
8.691141009330749512e-02
-4.135060682892799377e-02
1.031596660614013672e-01
1.064874790608882904e-02
-2.219268493354320526e-02
3.552701324224472046e-02
1.343580149114131927e-02
-3.875730931758880615e-02
-7.397349923849105835e-02
-4.642817005515098572e-02
6.423547863960266113e-02
6.673450767993927002e-02
7.188167423009872437e-02
-7.983689755201339722e-02
-4.645577166229486465e-03
6.139355897903442383e-02
1.347022247500717640e-03
3.501357277855277061e-03
1.514907181262969971e-01
-4.360040649771690369e-03
7.777582854032516479e-03
9.788542240858078003e-02
1.488863397389650345e-02
6.804546713829040527e-02
2.889877744019031525e-02
-1.609327457845211029e-02
4.809580277651548386e-03
1.002609655261039734e-01
-1.546144858002662659e-02
7.902978360652923584e-02
-3.382085636258125305e-02
3.358877450227737427e-02
-1.980040594935417175e-02
-8.650577813386917114e-02
4.755797609686851501e-02
1.220388710498809814e-02
5.254283547401428223e-02
1.344732102006673813e-02
3.420137986540794373e-02
1.009303629398345947e-01
6.007674615830183029e-03
-6.092454120516777039e-02
1.022182852029800415e-01
3.051374666392803192e-02
-1.150414813309907913e-02
7.235126942396163940e-02
-3.789260983467102051e-02
-1.177904941141605377e-02
-6.455590575933456421e-02
8.158192038536071777e-02
-6.779963150620460510e-03
6.058560684323310852e-02
6.000844761729240417e-02
4.160734266042709351e-02
-1.109230099245905876e-03
5.691614374518394470e-02
4.506920278072357178e-02
-6.634941790252923965e-03
-2.313482202589511871e-02
1.304262690246105194e-02
-7.133902609348297119e-02
-1.904299599118530750e-03
1.408866196870803833e-01
7.056225091218948364e-02
1.606729440391063690e-02
6.900526583194732666e-02
6.358810514211654663e-02
1.888463273644447327e-02
-1.371573098003864288e-02
-2.792690694332122803e-02
6.262755393981933594e-02
2.705082111060619354e-02
6.790481507778167725e-02
5.323673412203788757e-02
5.305707082152366638e-02
-1.104796957224607468e-02
-1.760304719209671021e-02
-4.045497998595237732e-02
3.791745379567146301e-02
3.307795897126197815e-02
-1.171283144503831863e-02
5.141001939773559570e-02
-3.956647924496792257e-05
1.273787580430507660e-03
-2.618656307458877563e-02
-3.117437940090894699e-03
4.763703793287277222e-02
-2.727162325754761696e-03
-7.182525843381881714e-02
-7.064177654683589935e-03
5.881686508655548096e-02
1.251783221960067749e-01
5.321221426129341125e-02
8.319772034883499146e-02
-1.476224325597286224e-02
-4.519046284258365631e-03
-8.536349982023239136e-02
5.373799800872802734e-02
1.273837983608245850e-01
1.337328180670738220e-02
3.793657198548316956e-02
8.304958045482635498e-02
7.763592898845672607e-02
-7.254240661859512329e-02
3.622230887413024902e-02
-2.001962438225746155e-02
6.511494517326354980e-02
-3.169910609722137451e-02
-4.004219919443130493e-02
3.742992505431175232e-02
9.937604889273643494e-03
-1.485166698694229126e-02
9.346642345190048218e-02
-2.922932803630828857e-02
2.132854424417018890e-02
5.440723150968551636e-02
2.842509653419256210e-03
6.697786599397659302e-02
-1.662412099540233612e-02
-6.602250784635543823e-02
8.086044341325759888e-02
2.015375765040516853e-03
-6.266140192747116089e-02
9.539157152175903320e-03
-9.412529319524765015e-02
4.994089528918266296e-02
-2.813311526551842690e-03
-1.570939457451459020e-05
7.690300792455673218e-02
4.528978839516639709e-02
4.031020030379295349e-02
-1.071511767804622650e-02
1.138456612825393677e-01
1.004010885953903198e-01
3.193060308694839478e-02
-1.155509240925312042e-02
5.520936846733093262e-02
2.556705474853515625e-02
-1.001612171530723572e-01
6.121395155787467957e-02
4.618468135595321655e-02
5.285272002220153809e-02
-4.485294222831726074e-02
4.174390342086553574e-03
-6.897734105587005615e-02
8.791450411081314087e-03
8.513750880956649780e-02
-2.132259868085384369e-02
-1.757483184337615967e-02
-4.319025948643684387e-02
3.206653147935867310e-02
-6.610549986362457275e-03
-2.521260641515254974e-02
4.252652451395988464e-02
-9.736851602792739868e-02
-1.175388786941766739e-02
-5.623382329940795898e-02
1.700230315327644348e-02
4.292334895581007004e-03
4.224372655153274536e-02
1.165669783949851990e-01
-1.215680968016386032e-02
6.278745830059051514e-02
-5.713638663291931152e-02
-1.484770774841308594e-01
-1.947607286274433136e-02
-1.362802088260650635e-02
3.014431893825531006e-02
-3.773809596896171570e-02
-1.346247643232345581e-02
2.157585695385932922e-03
3.319977596402168274e-02
-4.327565059065818787e-02
7.175321131944656372e-02
2.885307371616363525e-02
-4.569516703486442566e-02
3.704989328980445862e-02
2.971716783940792084e-02
-4.550506919622421265e-02
-2.657446451485157013e-02
5.527160689234733582e-02
-5.597118660807609558e-02
6.335963308811187744e-02
4.728679545223712921e-03
-2.232431247830390930e-02
3.271428495645523071e-02
6.548447906970977783e-02
-1.339849233627319336e-01
7.591953035444021225e-03
1.064682155847549438e-01
-8.994433097541332245e-03
8.037182688713073730e-02
2.313673123717308044e-02
-6.321351043879985809e-03
1.229991316795349121e-01
1.479620579630136490e-02
-7.553931325674057007e-02
3.776231780648231506e-02
1.099814078770577908e-03
-5.248493701219558716e-02
2.585117518901824951e-02
4.683206230401992798e-02
9.582257270812988281e-02
2.394078671932220459e-02
7.370450068265199661e-03
-5.536629632115364075e-02
-6.876979023218154907e-03
-1.470980197191238403e-01
9.175852686166763306e-02
1.165942475199699402e-02
5.370300263166427612e-02
-4.049538075923919678e-02
3.660986945033073425e-02
-6.742771714925765991e-02
5.395752191543579102e-02
-1.138171833008527756e-02
7.872501760721206665e-02
-6.000917032361030579e-02
3.177003934979438782e-02
-1.115421131253242493e-01
-2.469452656805515289e-02
-4.763930290937423706e-02
4.130801185965538025e-02
3.894432634115219116e-02
4.647556692361831665e-02
5.508828535676002502e-02
-6.024212762713432312e-02
1.021983250975608826e-01
6.227298453450202942e-02
-4.548624530434608459e-02
-9.455764666199684143e-03
1.471612229943275452e-02
-7.782918401062488556e-03
6.942161917686462402e-02
-5.570888891816139221e-02
-3.067575953900814056e-02
2.095536328852176666e-03
-3.004362108185887337e-03
-3.219819068908691406e-02
9.756558388471603394e-02
4.281757026910781860e-02
1.021532155573368073e-02
6.347787380218505859e-02
-1.078271269798278809e-01
1.748126745223999023e-02
-1.673606596887111664e-02
3.265544399619102478e-02
9.918574243783950806e-03
2.565824799239635468e-02
-1.736005954444408417e-02
2.105734869837760925e-02
-3.845971822738647461e-02
-1.604689843952655792e-02
-1.031433641910552979e-01
1.683196797966957092e-02
7.134646177291870117e-02
9.985876828432083130e-02
-1.058439910411834717e-02
-6.365684792399406433e-03
-2.205862663686275482e-02
5.972725152969360352e-02
-1.976366154849529266e-02
-2.832246012985706329e-02
7.528820540755987167e-03
8.147048205137252808e-02
7.521664351224899292e-02
2.858167141675949097e-02
1.771292649209499359e-02
-6.195135042071342468e-02
4.140528663992881775e-02
7.042860984802246094e-02
-1.501479558646678925e-02
-3.791843727231025696e-02
-4.003865271806716919e-02
-3.409819677472114563e-03
7.341787964105606079e-02
7.882453501224517822e-02
8.469318598508834839e-02
-4.062210395932197571e-02
2.881449088454246521e-02
-4.358086362481117249e-02
1.096393633633852005e-02
-6.190034002065658569e-02
4.226379469037055969e-02
5.633522570133209229e-02
9.542241692543029785e-03
1.066012904047966003e-01
-8.939038962125778198e-02
6.731227971613407135e-03
3.265206515789031982e-02
-6.240535527467727661e-02
-6.070037186145782471e-02
1.159260198473930359e-01
-4.771181941032409668e-02
3.363324701786041260e-02
-4.906662553548812866e-02
6.506700068712234497e-02
1.429194677621126175e-02
-9.106045216321945190e-02
3.758804500102996826e-02
8.226420730352401733e-02
-9.344561398029327393e-02
-7.193264318630099297e-04
-5.450739711523056030e-02
-2.820944972336292267e-02
-4.251948371529579163e-02
-4.571433365345001221e-02
1.712485216557979584e-02
3.025232814252376556e-02
5.188618227839469910e-02
-7.106063514947891235e-02
-7.772285491228103638e-02
-1.112573035061359406e-02
4.625098407268524170e-02
-2.341765165328979492e-02
4.842102155089378357e-02
8.031511306762695312e-02
-9.242285043001174927e-02
1.207256466150283813e-01
1.821297220885753632e-02
1.583615690469741821e-02
4.800368100404739380e-02
-7.669661939144134521e-02
7.224685698747634888e-02
7.299139350652694702e-02
5.126435309648513794e-02
-1.281614303588867188e-01
-3.389330953359603882e-02
2.353624626994132996e-02
-3.897416219115257263e-02
1.051335316151380539e-02
3.760714083909988403e-02
-6.067173928022384644e-02
-2.111946977674961090e-02
-3.259286656975746155e-02
1.313989050686359406e-02
1.798754371702671051e-02
7.791149895638227463e-03
-1.746210455894470215e-02
2.092644385993480682e-02
7.994911819696426392e-02
3.093685768544673920e-02
-6.088639143854379654e-03
4.026039317250251770e-02
2.917665988206863403e-02
3.096900321543216705e-02
3.633838146924972534e-02
5.716584995388984680e-02
9.671488404273986816e-02
-7.027150690555572510e-02
7.764329202473163605e-03
2.813557535409927368e-02
6.384491175413131714e-02
4.154250398278236389e-02
9.168326109647750854e-02
-4.651456326246261597e-02
5.679883435368537903e-02
-2.801145240664482117e-02
4.615922644734382629e-02
-6.482673436403274536e-02
5.394117161631584167e-02
5.720720440149307251e-02
9.418117813766002655e-03
4.824609681963920593e-02
-1.889864914119243622e-02
-4.074715077877044678e-02
-1.128969620913267136e-02
6.811884045600891113e-02
5.322818458080291748e-02
4.781462252140045166e-02
2.555692754685878754e-02
5.343748629093170166e-02
-5.900182574987411499e-02
1.301497034728527069e-02
1.350321574136614799e-03
3.252164646983146667e-02
-2.536007575690746307e-02
-5.376915261149406433e-02
6.662564724683761597e-02
1.091341376304626465e-01
-2.192818187177181244e-02
-3.778551518917083740e-02
2.333317883312702179e-02
5.790649726986885071e-02
4.144405946135520935e-03
1.554179191589355469e-02
4.492723569273948669e-02
1.810578070580959320e-02
-1.209198310971260071e-02
6.302285473793745041e-04
2.224711515009403229e-02
9.354351460933685303e-02
-1.302888989448547363e-02
-1.939941942691802979e-02
6.281371414661407471e-02
7.451765239238739014e-03
5.834825709462165833e-02
-2.611550129950046539e-02
-3.791227564215660095e-02
9.911069273948669434e-02
-5.003289878368377686e-02
-7.427043467760086060e-02
-1.177307777106761932e-02
-2.053723484277725220e-02
7.977331988513469696e-03
-2.249262481927871704e-02
5.184034630656242371e-02
8.594996295869350433e-03
2.524063363671302795e-02
-5.196318030357360840e-03
-4.520690441131591797e-02
-1.035972870886325836e-02
-7.660669088363647461e-02
-4.637814592570066452e-03
4.262270778417587280e-02
-5.490355566143989563e-02
-1.013318635523319244e-02
-6.666623055934906006e-02
2.038562856614589691e-02
1.048431172966957092e-01
5.539472773671150208e-02
3.238160163164138794e-02
8.718051947653293610e-03
7.371734827756881714e-02
2.930338680744171143e-02
-1.876918599009513855e-02
-3.541272506117820740e-02
8.598762005567550659e-02
-4.104602336883544922e-02
-1.335563836619257927e-03
-3.048339486122131348e-02
1.058911159634590149e-01
5.342851858586072922e-03
2.788289822638034821e-02
-3.513793647289276123e-02
-7.921952009201049805e-02
7.256477326154708862e-02
6.954830884933471680e-02
-3.399921208620071411e-02
1.781778223812580109e-02
8.083105087280273438e-02
1.234279852360486984e-02
9.409602731466293335e-02
1.120567396283149719e-01
-3.796435892581939697e-02
-4.049622640013694763e-02
-5.858097597956657410e-02
2.386296167969703674e-02
6.830245256423950195e-02
2.730990573763847351e-02
7.543805986642837524e-02
-4.618424549698829651e-02
-7.361726462841033936e-02
-6.279172748327255249e-02
4.360924288630485535e-02
-1.202614456415176392e-01
1.076904311776161194e-01
-1.673217117786407471e-02
-3.586223721504211426e-02
5.622816458344459534e-02
6.757363677024841309e-02
-2.790484949946403503e-02
4.282113164663314819e-02
-4.188631474971771240e-02
-3.604926168918609619e-02
-3.418829664587974548e-02
1.019091904163360596e-02
4.750143270939588547e-03
-7.553264498710632324e-02
9.280505776405334473e-02
6.401426345109939575e-02
-4.264960810542106628e-02
-4.718959704041481018e-02
4.443207383155822754e-02
1.026053726673126221e-01
6.672704964876174927e-02
8.456747978925704956e-02
2.959407866001129150e-02
-4.865255206823348999e-02
-5.613938719034194946e-02
-1.470326930284500122e-01
-2.468116432428359985e-01
-2.711176127195358276e-02
1.190795376896858215e-01
7.920616120100021362e-02
-1.617756038904190063e-01
1.746275424957275391e-01
-1.489879637956619263e-01
-2.105510830879211426e-01
7.524605840444564819e-02
-6.824609637260437012e-02
-9.833431243896484375e-02
5.912658292800188065e-03
-5.040128156542778015e-02
-3.193949535489082336e-02
3.855388239026069641e-02
6.436806917190551758e-02
-1.453973501920700073e-01
-7.542157918214797974e-02
4.732353612780570984e-02
7.066082954406738281e-02
1.080250740051269531e-01
2.508975006639957428e-02
-1.920224577188491821e-01
7.298845797777175903e-02
1.117713842540979385e-02
1.204089727252721786e-02
-2.206971049308776855e-01
-2.028023004531860352e-01
-2.041374295949935913e-01
1.130789220333099365e-01
-1.170183811336755753e-02
-1.791580021381378174e-01
1.164412051439285278e-01
1.474078185856342316e-02
1.079310029745101929e-01
-1.581467241048812866e-01
8.179665356874465942e-02
4.371811449527740479e-02
-6.606986746191978455e-03
-9.712730348110198975e-02
-2.371545284986495972e-01
3.403640165925025940e-02
-1.133369654417037964e-01
-1.094866776838898659e-03
2.468617819249629974e-02
-1.825769245624542236e-01
-8.404669165611267090e-02
7.599335908889770508e-02
6.372606381773948669e-03
-2.006359100341796875e-01
-9.174354374408721924e-02
6.610397994518280029e-02
1.784526556730270386e-02
4.074227437376976013e-02
-1.045486629009246826e-01
-9.796866029500961304e-02
-1.821318268775939941e-01
8.294828981161117554e-02
-4.638792946934700012e-02
-3.234019502997398376e-02
-2.299567461013793945e-01
-2.295521795749664307e-01
1.361033767461776733e-01
-5.682169646024703979e-02
-1.259743869304656982e-01
-1.754101365804672241e-01
8.209906518459320068e-02
8.445265144109725952e-02
-5.488898977637290955e-02
-1.022639945149421692e-01
-1.034740209579467773e-01
7.041548937559127808e-02
-3.953341394662857056e-02
1.010683327913284302e-01
4.411187395453453064e-02
-6.265859305858612061e-02
6.817568838596343994e-02
-1.797739565372467041e-01
-2.457287013530731201e-01
-1.410902291536331177e-01
1.752014039084315300e-03
-3.074543364346027374e-02
1.289547234773635864e-02
-1.514793485403060913e-01
-2.303903363645076752e-02
-1.178426016122102737e-02
8.526258170604705811e-02
6.392005085945129395e-02
-1.695665717124938965e-01
9.750070050358772278e-03
-4.869657009840011597e-02
1.457985956221818924e-02
1.144424974918365479e-01
-1.469322293996810913e-01
-1.482404917478561401e-01
-1.067605465650558472e-01
-7.693912088871002197e-02
-1.593193858861923218e-01
4.032838717103004456e-02
-5.577391386032104492e-02
-5.661467090249061584e-03
3.617047518491744995e-02
-3.939107805490493774e-02
-1.579242199659347534e-01
-4.735254496335983276e-02
-1.143578663468360901e-01
-2.463491559028625488e-01
8.385287225246429443e-02
-1.556511037051677704e-02
-6.164700910449028015e-02
9.828037768602371216e-02
-1.181915625929832458e-01
-4.693669325206428766e-04
1.984258294105529785e-01
-7.985559105873107910e-02
-1.568065434694290161e-01
2.124667167663574219e-01
1.134193539619445801e-01
-1.585067957639694214e-01
-1.370222121477127075e-01
4.275410249829292297e-02
-2.217159420251846313e-01
-2.121033221483230591e-01
3.344764187932014465e-02
-1.240065023303031921e-01
-1.005701199173927307e-01
-1.116140037775039673e-01
-1.261478662490844727e-02
-2.417815327644348145e-01
-1.831683665513992310e-01
4.933191463351249695e-02
-1.215475201606750488e-01
-1.982787251472473145e-01
-6.723204255104064941e-02
-1.081545352935791016e-01
-2.134432941675186157e-01
1.307151615619659424e-01
5.926113575696945190e-02
1.131863221526145935e-01
-1.103114634752273560e-01
-1.057704463601112366e-01
-1.377292424440383911e-01
2.006510049104690552e-01
-1.656794100999832153e-01
-1.833068579435348511e-02
-1.762120425701141357e-01
-2.452993392944335938e-01
3.501329198479652405e-02
-3.807705361396074295e-03
-3.173240646719932556e-02
4.141147807240486145e-02
-5.102616548538208008e-02
-1.099994685500860214e-02
5.351022258400917053e-02
-3.746894001960754395e-02
-1.028126403689384460e-01
-4.828307032585144043e-02
7.999549061059951782e-02
-2.546082064509391785e-02
-1.924697309732437134e-01
1.112924665212631226e-01
-1.020475476980209351e-01
4.355182871222496033e-02
7.705077528953552246e-02
-2.348886579275131226e-01
7.614826411008834839e-02
1.208579316735267639e-01
-1.186303421854972839e-01
7.654883712530136108e-02
4.904294013977050781e-02
-1.947444379329681396e-01
-1.341248303651809692e-01
-1.232137382030487061e-01
2.345632202923297882e-02
5.046662688255310059e-02
-1.128949075937271118e-01
-2.036277800798416138e-01
-1.266551911830902100e-01
9.760451503098011017e-03
-1.192519441246986389e-01
-1.761117279529571533e-01
-2.321912944316864014e-01
-2.335729002952575684e-01
6.941185891628265381e-02
5.214045941829681396e-02
-1.586978584527969360e-01
-1.417885273694992065e-01
-1.301660537719726562e-01
-4.055211320519447327e-02
-7.965391129255294800e-02
-5.454260110855102539e-02
7.769785076379776001e-02
-1.802451163530349731e-01
1.225055232644081116e-01
2.680176682770252228e-02
4.771334677934646606e-02
2.174978405237197876e-01
-1.867563873529434204e-01
-1.643480360507965088e-01
-3.480480238795280457e-02
2.960124425590038300e-02
-5.286413058638572693e-02
-7.031575590372085571e-02
-1.815450638532638550e-01
-2.281522750854492188e-01
-1.125037521123886108e-01
-4.029856529086828232e-03
-2.467563748359680176e-01
-1.508786082267761230e-01
3.186968713998794556e-02
-5.189124494791030884e-02
1.254933625459671021e-01
8.403566479682922363e-02
-1.006587445735931396e-01
1.459218189120292664e-02
6.719226390123367310e-02
1.174827292561531067e-01
-1.706350147724151611e-01
6.134087219834327698e-02
-1.266226619482040405e-01
8.478708565235137939e-02
-1.621391624212265015e-01
1.152040958404541016e-01
-1.517074368894100189e-02
8.121152408421039581e-03
-7.592689245939254761e-02
-3.222182095050811768e-01
5.155905708670616150e-02
8.525948226451873779e-02
-2.178819775581359863e-01
-6.281679123640060425e-02
-6.729573756456375122e-02
9.039562195539474487e-02
-1.084045991301536560e-01
1.001742333173751831e-01
3.566174581646919250e-02
4.760378599166870117e-02
-7.737280335277318954e-03
4.752301797270774841e-02
-3.411032259464263916e-02
-3.991597518324851990e-02
-1.400850266218185425e-01
-2.173707932233810425e-01
-1.045459732413291931e-01
-9.641580283641815186e-02
-2.515039145946502686e-01
-2.650075033307075500e-02
1.486251968890428543e-02
1.327608805149793625e-02
-5.535745876841247082e-04
-1.611130833625793457e-01
-1.329891681671142578e-01
4.127323627471923828e-02
7.975754328072071075e-03
1.393995881080627441e-01
1.527028977870941162e-01
1.459143161773681641e-01
-5.419660359621047974e-02
1.450179796665906906e-02
7.325329817831516266e-03
2.012990117073059082e-01
1.117301657795906067e-01
-9.524775296449661255e-02
8.281699568033218384e-02
-7.957364618778228760e-02
7.473079860210418701e-02
1.183670312166213989e-01
4.328970983624458313e-02
-1.153915226459503174e-01
1.064655482769012451e-01
9.509544074535369873e-02
6.705880165100097656e-02
3.060297854244709015e-02
7.643192261457443237e-02
1.105706691741943359e-01
3.152825683355331421e-02
-4.280224069952964783e-02
1.369916498661041260e-01
2.889253199100494385e-01
2.347536012530326843e-02
-3.811035677790641785e-02
-6.641569733619689941e-02
1.489931531250476837e-02
-1.742046475410461426e-01
-1.138394419103860855e-02
6.010349094867706299e-02
1.577451080083847046e-01
2.191796712577342987e-02
2.751047722995281219e-02
1.380546241998672485e-01
-9.063154458999633789e-02
4.322916641831398010e-02
5.653393268585205078e-02
3.084253985434770584e-04
-2.183851003646850586e-01
2.559303641319274902e-01
9.693236649036407471e-02
8.643575012683868408e-02
9.292189031839370728e-03
5.198221653699874878e-02
7.009296864271163940e-02
-9.593471884727478027e-02
1.383411884307861328e-01
1.120451018214225769e-01
9.118901938199996948e-02
9.617434814572334290e-03
1.046481505036354065e-01
2.687486587092280388e-03
-1.891187578439712524e-01
-7.625541649758815765e-03
2.522909641265869141e-01
-2.101468853652477264e-02
3.669956326484680176e-02
-8.580508828163146973e-02
-6.098469719290733337e-02
-1.515222620218992233e-02
3.475628793239593506e-02
2.366399914026260376e-01
-1.161149982362985611e-02
1.098931655287742615e-01
2.967762947082519531e-01
-1.469573006033897400e-02
3.431788831949234009e-02
1.275232583284378052e-01
9.264782071113586426e-02
1.021976619958877563e-01
5.790989100933074951e-02
-5.645149387419223785e-03
7.518780231475830078e-02
-3.130865097045898438e-02
1.188126802444458008e-01
1.595983207225799561e-01
8.443907648324966431e-02
4.499384760856628418e-02
2.215412408113479614e-01
2.038308531045913696e-01
-2.333841286599636078e-02
-6.176682934165000916e-02
6.480804085731506348e-02
2.845818176865577698e-02
-1.619402086362242699e-03
1.879200786352157593e-01
-7.942453771829605103e-02
1.203387379646301270e-01
2.399886399507522583e-01
1.533516347408294678e-01
1.521077752113342285e-01
-1.418226514942944050e-03
6.381177902221679688e-02
3.289402276277542114e-02
6.280758231878280640e-02
2.640450894832611084e-01
2.336580306291580200e-02
1.308234781026840210e-01
1.106263995170593262e-01
6.552963051944971085e-03
-4.516248777508735657e-02
-4.806856811046600342e-02
-4.692916199564933777e-02
2.444625496864318848e-01
-6.316275894641876221e-02
-3.212024644017219543e-02
5.577069520950317383e-02
1.400889009237289429e-01
1.241840124130249023e-01
7.953985035419464111e-02
-3.254165127873420715e-02
1.206705421209335327e-01
-8.856628835201263428e-02
4.187539219856262207e-03
1.981113404035568237e-01
-4.472814500331878662e-03
-2.520818822085857391e-02
-4.390554502606391907e-03
-7.454813271760940552e-02
2.182794064283370972e-01
-6.498752534389495850e-02
3.137742355465888977e-02
-6.397528946399688721e-02
-7.077854592353105545e-03
-4.089263454079627991e-02
-2.992340736091136932e-02
7.499277591705322266e-02
-8.606262505054473877e-02
4.269212111830711365e-02
-8.822146058082580566e-02
4.795701801776885986e-02
1.310851275920867920e-01
9.041932411491870880e-03
1.257737874984741211e-01
1.620472669601440430e-01
1.062288135290145874e-01
-6.667543202638626099e-02
-5.958804488182067871e-02
1.323032528162002563e-01
-1.285389252007007599e-02
1.199481170624494553e-02
1.160937026143074036e-01
-3.501530736684799194e-02
5.503970757126808167e-02
-1.306318789720535278e-01
1.555713266134262085e-01
-5.425510928034782410e-02
-8.122313767671585083e-02
7.940779626369476318e-02
1.754642128944396973e-01
5.918142944574356079e-02
-6.157892756164073944e-03
-1.019288524985313416e-01
5.233495309948921204e-02
-6.050144881010055542e-02
5.079542472958564758e-02
5.087379738688468933e-02
1.776449941098690033e-02
-1.792934723198413849e-02
-4.819421097636222839e-03
6.748331338167190552e-02
2.259126454591751099e-01
2.009421885013580322e-01
-1.013959571719169617e-01
1.185129433870315552e-01
-3.131395205855369568e-02
-4.236055165529251099e-02
-5.717082321643829346e-02
1.182676106691360474e-02
-7.493152469396591187e-02
1.862264424562454224e-01
2.985132299363613129e-02
1.430228054523468018e-01
-1.240766141563653946e-02
1.123182289302349091e-02
2.129340767860412598e-01
-3.936629369854927063e-02
4.251974076032638550e-02
5.613664165139198303e-02
1.891430467367172241e-03
3.471662057563662529e-03
1.949011385440826416e-01
6.903485208749771118e-02
-8.694977313280105591e-02
-1.019617244601249695e-01
2.404016703367233276e-01
8.269272744655609131e-02
-9.192774444818496704e-02
4.849367216229438782e-02
8.873526751995086670e-02
-8.997234702110290527e-02
2.160235773772001266e-03
-1.708625815808773041e-03
-1.128404513001441956e-01
-8.674897253513336182e-04
-5.563545972108840942e-02
-1.896140128374099731e-01
1.494501531124114990e-01
-7.166193425655364990e-02
2.758915424346923828e-01
1.351749300956726074e-01
-7.358844578266143799e-02
-5.940730124711990356e-02
9.182269871234893799e-02
1.506773531436920166e-01
7.822073996067047119e-02
-8.750355988740921021e-02
3.304028185084462166e-03
5.771860480308532715e-02
1.470573842525482178e-01
1.297311335802078247e-01
-3.164923936128616333e-02
1.051418855786323547e-01
2.689386345446109772e-02
-1.631224900484085083e-01
2.360790967941284180e-01
-1.363364756107330322e-01
6.274204701185226440e-02
1.652650185860693455e-03
-2.506839297711849213e-02
4.985304176807403564e-02
1.882450468838214874e-02
2.252231724560260773e-02
7.900395244359970093e-02
1.739338338375091553e-01
3.376522287726402283e-02
1.137490868568420410e-01
1.922237277030944824e-01
5.522789806127548218e-02
-3.118668124079704285e-02
-1.481551397591829300e-02
-5.208584666252136230e-02
1.158806979656219482e-01
-1.405995488166809082e-01
-3.202838450670242310e-02
-1.302017718553543091e-01
-8.746206760406494141e-02
-4.871340841054916382e-02
1.530823111534118652e-01
1.806717962026596069e-01
-8.426430821418762207e-02
1.015077605843544006e-01
1.460528075695037842e-01
3.095455840229988098e-02
1.281890124082565308e-01
-8.478082716464996338e-02
-6.650862842798233032e-02
9.886992722749710083e-02
-6.612715870141983032e-02
5.437622219324111938e-02
2.009205073118209839e-01
-1.206881105899810791e-01
-1.306957155466079712e-01
9.408928453922271729e-02
-1.141756679862737656e-02
1.196072325110435486e-01
2.507355511188507080e-01
7.872553914785385132e-02
-9.861670434474945068e-03
3.486496955156326294e-02
2.868541143834590912e-02
4.873429983854293823e-02
6.989678740501403809e-02
7.858745008707046509e-02
9.186510927975177765e-03
1.106296926736831665e-01
-7.465097308158874512e-02
1.452834531664848328e-02
1.953136362135410309e-02
5.130651593208312988e-02
-2.616731217131018639e-03
6.974299252033233643e-02
1.545245349407196045e-01
8.198240399360656738e-02
1.725569516420364380e-01
1.175383701920509338e-01
-3.163695707917213440e-02
-1.936974585987627506e-03
1.062570810317993164e-01
9.150315076112747192e-02
9.623986482620239258e-02
9.403340518474578857e-03
9.170061349868774414e-02
-1.533860713243484497e-01
1.248689740896224976e-01
1.934522390365600586e-01
1.075962930917739868e-01
6.415677815675735474e-02
7.007378339767456055e-02
2.404695302248001099e-01
7.261796295642852783e-02
3.286897018551826477e-02
1.687335520982742310e-01
-5.241279955953359604e-03
4.939379915595054626e-02
1.466821432113647461e-01
1.145901083946228027e-01
5.859680101275444031e-02
-9.998383373022079468e-02
-1.999368518590927124e-02
1.906830817461013794e-02
8.589670993387699127e-03
1.266354620456695557e-01
1.059011891484260559e-01
1.787744015455245972e-01
4.561068862676620483e-02
1.922670155763626099e-01
1.056700013577938080e-02
4.137218371033668518e-02
9.083090722560882568e-02
-1.808372139930725098e-02
5.762817338109016418e-02
1.725109517574310303e-01
1.612418913282454014e-03
4.694109782576560974e-02
-7.320031523704528809e-02
3.837019577622413635e-02
1.288910508155822754e-01
1.662999391555786133e-01
1.077292189002037048e-01
1.182587593793869019e-01
1.527082826942205429e-02
1.737317740917205811e-01
1.925854980945587158e-01
1.080336943268775940e-01
3.838377818465232849e-02
6.368544697761535645e-02
-3.406327590346336365e-02
-1.171287149190902710e-01
1.607776880264282227e-01
-7.059124112129211426e-02
-5.951252952218055725e-02
2.433033287525177002e-01
1.497432142496109009e-01
1.099764928221702576e-01
2.184633314609527588e-01
-1.078377384692430496e-02
8.669633418321609497e-02
-2.129269391298294067e-02
-6.723293662071228027e-02
9.455074369907379150e-02
8.471131324768066406e-02
1.201705038547515869e-01
8.918296545743942261e-02
-7.028599269688129425e-03
3.695654496550559998e-02
9.227599948644638062e-02
5.947150662541389465e-02
8.280872367322444916e-03
-2.778783813118934631e-02
2.754258736968040466e-02
1.832312494516372681e-01
1.528461463749408722e-02
1.251620501279830933e-01
9.267225861549377441e-02
1.360918860882520676e-03
-1.524518337100744247e-02
4.926640912890434265e-02
2.790190838277339935e-02
3.451942279934883118e-02
8.834018558263778687e-02
8.811576664447784424e-02
7.422006689012050629e-03
1.370225399732589722e-01
-5.136881768703460693e-02
1.309927105903625488e-01
5.995418131351470947e-02
-2.318837866187095642e-02
-7.192070037126541138e-02
8.018472045660018921e-02
1.302850246429443359e-01
1.103161573410034180e-01
-2.082155458629131317e-02
9.206830710172653198e-02
-1.149712130427360535e-02
-1.138092130422592163e-01
-2.994466945528984070e-02
1.508008092641830444e-01
8.625466376543045044e-02
5.291727185249328613e-02
1.058089658617973328e-01
1.664601713418960571e-01
8.914022147655487061e-02
-7.506993412971496582e-02
5.533920973539352417e-02
-1.541945524513721466e-02
9.117525070905685425e-02
3.553399071097373962e-02
2.197130620479583740e-01
3.622893989086151123e-02
1.235198527574539185e-01
6.039706990122795105e-03
2.942228876054286957e-02
-5.084051936864852905e-02
-1.898594386875629425e-02
4.648993536829948425e-02
-1.244367007166147232e-02
-3.312995657324790955e-02
7.393606752157211304e-02
3.499598801136016846e-02
1.276608109474182129e-01
1.127317845821380615e-01
6.135274469852447510e-02
4.361206293106079102e-02
-3.927230834960937500e-02
8.433824777603149414e-02
-2.093683695420622826e-03
2.677389048039913177e-02
8.644735813140869141e-02
-5.641782283782958984e-02
6.239901483058929443e-02
6.288421154022216797e-02
1.352658122777938843e-01
1.141134351491928101e-01
1.318558603525161743e-01
4.396175593137741089e-02
9.752385318279266357e-02
-2.514806017279624939e-02
-4.531512968242168427e-03
6.089692935347557068e-03
1.144385524094104767e-02
9.642416611313819885e-03
8.021742105484008789e-02
9.510412812232971191e-03
-3.002698533236980438e-02
1.106571555137634277e-01
-4.925947263836860657e-02
1.684864759445190430e-01
1.536596119403839111e-01
9.558325260877609253e-02
8.409529179334640503e-02
-2.437255159020423889e-02
1.373763382434844971e-01
5.062778666615486145e-02
4.230198264122009277e-02
-9.821859747171401978e-02
1.048713102936744690e-01
-5.343751981854438782e-03
-9.311275184154510498e-02
-2.296448685228824615e-02
4.309123009443283081e-02
6.653384119272232056e-02
8.779556304216384888e-02
1.248516589403152466e-01
-8.588726073503494263e-02
-3.919299691915512085e-02
3.183725103735923767e-02
4.899897426366806030e-02
9.024800732731819153e-03
8.347842842340469360e-02
4.431433230638504028e-02
-5.950610339641571045e-02
4.094982519745826721e-02
9.215050190687179565e-02
-5.895975977182388306e-02
1.755745266564190388e-03
4.632216691970825195e-02
2.210039943456649780e-01
-9.532122313976287842e-02
3.997424244880676270e-02
-1.003740634769201279e-02
-7.503814250230789185e-02
9.089437313377857208e-03
1.863170564174652100e-01
-6.326618045568466187e-02
2.397302910685539246e-02
1.138325855135917664e-01
1.425162553787231445e-01
7.545389235019683838e-02
1.557741463184356689e-01
-1.478006541728973389e-01
2.132222801446914673e-01
4.423486068844795227e-02
-6.009665504097938538e-02
-7.386782765388488770e-02
7.058849930763244629e-02
2.016002982854843140e-01
1.196847185492515564e-01
6.720326095819473267e-02
9.923909604549407959e-02
8.838439732789993286e-02
-1.412093173712491989e-02
2.815984487533569336e-01
7.339151203632354736e-02
1.193324401974678040e-01
1.314268819987773895e-02
6.911466270685195923e-02
9.070910513401031494e-02
6.539766490459442139e-02
5.562330782413482666e-02
-1.371514145284891129e-02
-6.420931778848171234e-03
6.519994884729385376e-02
3.109596110880374908e-02
1.087268516421318054e-01
1.952259540557861328e-01
-1.670480822212994099e-03
1.331904083490371704e-01
-4.389460757374763489e-02
2.210891842842102051e-01
3.793430700898170471e-02
8.072216063737869263e-02
3.680523112416267395e-02
2.112332731485366821e-01
6.277076154947280884e-02
-2.230788953602313995e-02
1.404439806938171387e-01
1.159791797399520874e-01
1.878045797348022461e-01
-7.654158771038055420e-02
2.488434761762619019e-01
-7.759273797273635864e-02
-7.062108814716339111e-02
-3.124872781336307526e-02
1.294351518154144287e-01
1.322515457868576050e-01
-9.010203927755355835e-02
-1.219240725040435791e-01
-1.340877860784530640e-01
-7.022079825401306152e-02
4.556698724627494812e-02
-1.138433888554573059e-01
-2.271911315619945526e-02
-1.632850617170333862e-01
2.956366539001464844e-02
-1.194979473948478699e-01
1.024403609335422516e-02
2.212805300951004028e-01
1.712633371353149414e-01
-1.970856338739395142e-01
-7.946599274873733521e-02
1.425637304782867432e-01
9.532502293586730957e-02
-2.121407538652420044e-02
5.857995897531509399e-02
1.445678528398275375e-02
3.381630778312683105e-02
1.067036986351013184e-01
9.056183695793151855e-02
-9.600842744112014771e-02
-3.279196470975875854e-02
6.660588551312685013e-03
-3.648043051362037659e-02
2.648389041423797607e-01
1.022197157144546509e-01
-3.268178179860115051e-02
9.792450815439224243e-02
1.691506952047348022e-01
1.048871204257011414e-01
-4.834920167922973633e-02
-1.974293962121009827e-02
-4.954788833856582642e-02
2.829446196556091309e-01
-1.357462722808122635e-02
2.598609961569309235e-02
5.751271382905542850e-04
5.592368170619010925e-02
2.014437466859817505e-01
-1.263489723205566406e-01
-2.584498748183250427e-02
-1.050193887203931808e-02
-1.585462689399719238e-02
-2.750401757657527924e-02
2.013093419373035431e-02
1.831724494695663452e-01
-6.351194530725479126e-02
-2.785971760749816895e-02
-4.976140335202217102e-02
-1.270894408226013184e-01
-1.022423878312110901e-01
7.626414299011230469e-02
1.340118646621704102e-01
-1.828031837940216064e-01
-4.503048956394195557e-02
2.658848091959953308e-02
-1.167423352599143982e-01
-4.862970113754272461e-02
-6.340233981609344482e-02
-6.865797191858291626e-02
6.673235446214675903e-02
1.076282095164060593e-02
-1.600978337228298187e-02
2.223829552531242371e-02
-1.439963560551404953e-02
2.674994766712188721e-01
3.195064142346382141e-02
-2.412180416285991669e-02
1.453049364499747753e-03
-5.442792177200317383e-02
-1.145890802145004272e-01
1.479474012739956379e-03
1.642200946807861328e-01
-1.049423068761825562e-01
2.273963019251823425e-02
-6.345579028129577637e-02
3.097317554056644440e-02
1.131193935871124268e-01
4.833840578794479370e-02
-3.912863612640649080e-04
7.572390884160995483e-02
5.490647256374359131e-02
-7.080953568220138550e-02
-5.906771868467330933e-02
-3.091653995215892792e-02
-4.562754184007644653e-02
-1.236865222454071045e-01
1.363371461629867554e-01
-3.703313320875167847e-02
5.418341234326362610e-02
6.584624201059341431e-02
-5.266829580068588257e-02
3.994001448154449463e-02
9.921177476644515991e-02
-6.007264927029609680e-02
-2.225460670888423920e-02
-9.677383303642272949e-02
4.577472433447837830e-02
-1.502146720886230469e-01
-1.306926757097244263e-01
-1.996291801333427429e-03
-2.020659297704696655e-02
-8.158506453037261963e-02
-5.351424589753150940e-02
1.268936600536108017e-02
-2.270147651433944702e-01
9.724111855030059814e-02
-1.409279108047485352e-01
-1.458251178264617920e-01
1.279856562614440918e-01
-9.398970007896423340e-02
1.791937500238418579e-01
-1.383348256349563599e-01
7.194473594427108765e-02
-1.319572031497955322e-01
4.876731336116790771e-02
-7.123044878244400024e-02
9.079422801733016968e-02
1.799919456243515015e-01
5.632160604000091553e-02
1.199299395084381104e-01
9.396375715732574463e-02
-7.148845493793487549e-02
-1.684843446128070354e-03
6.826932728290557861e-02
4.203981906175613403e-02
3.279008343815803528e-02
5.765441060066223145e-02
3.613710775971412659e-02
5.646666884422302246e-02
-3.491977462545037270e-03
1.127183586359024048e-01
1.457406301051378250e-02
-1.970477998256683350e-01
1.784398336894810200e-03
-2.788144920486956835e-04
3.133198618888854980e-02
7.129599899053573608e-02
-1.203199252486228943e-01
2.125730179250240326e-02
-2.423660606145858765e-01
-4.713204130530357361e-02
-1.526897251605987549e-01
3.496104106307029724e-02
-4.491878673434257507e-02
6.968805193901062012e-02
-7.877877354621887207e-02
1.474563125520944595e-02
-1.138245686888694763e-01
-2.247300231829285622e-03
-9.474127739667892456e-02
2.115960717201232910e-01
-3.781039267778396606e-02
1.062292158603668213e-01
-7.373641431331634521e-02
-6.679461151361465454e-02
-1.277485489845275879e-01
1.255476474761962891e-01
6.936746090650558472e-02
8.658880740404129028e-02
-3.016510792076587677e-02
1.361818909645080566e-01
3.624211251735687256e-01
-8.015042543411254883e-02
-1.407882720232009888e-01
2.792596630752086639e-02
7.089757174253463745e-02
-2.595143020153045654e-02
-3.133418411016464233e-02
5.022716522216796875e-02
-4.725740849971771240e-02
-9.353341907262802124e-02
1.306949853897094727e-01
8.987157046794891357e-02
-1.487291455268859863e-01
1.676846444606781006e-01
2.018859982490539551e-01
-4.328289628028869629e-02
1.680996716022491455e-01
5.458874255418777466e-02
-4.479245468974113464e-02
-2.990407943725585938e-01
-1.001954823732376099e-01
-2.128892689943313599e-01
4.417086020112037659e-02
8.450183272361755371e-02
1.446177363395690918e-01
4.292730987071990967e-02
1.940654516220092773e-01
1.803360879421234131e-01
1.605880856513977051e-01
1.631237268447875977e-01
7.377372682094573975e-02
-7.487253844738006592e-02
-2.254399806261062622e-01
-1.141640823334455490e-02
-8.307046955451369286e-04
1.975482329726219177e-02
-2.358574718236923218e-01
2.464414807036519051e-03
-2.378004603087902069e-02
-3.161300718784332275e-02
-1.356907784938812256e-01
-3.586617484688758850e-02
-1.211525425314903259e-01
-1.249442696571350098e-01
-7.066649198532104492e-02
1.806237399578094482e-01
1.857890635728836060e-01
1.088055670261383057e-01
1.392643898725509644e-01
2.560397088527679443e-01
-1.080574765801429749e-01
-4.295871406793594360e-02
-9.041588008403778076e-02
1.782721607014536858e-03
-2.622449398040771484e-02
7.819134742021560669e-02
-1.556783765554428101e-01
1.542307734489440918e-01
-5.969461053609848022e-02
-6.777878850698471069e-02
1.513251382857561111e-02
-1.559714972972869873e-01
-1.380259543657302856e-01
-4.783166199922561646e-02
3.947609104216098785e-03
1.553643494844436646e-01
7.690846920013427734e-02
1.962287724018096924e-01
7.290677726268768311e-02
-1.075930446386337280e-01
-5.568917840719223022e-02
-2.266188617795705795e-03
1.278007682412862778e-02
1.136249005794525146e-01
4.557116702198982239e-02
2.690866217017173767e-02
-1.495706886053085327e-01
-1.403182465583086014e-02
-3.746932372450828552e-02
-4.989551007747650146e-02
2.878266572952270508e-02
-8.538237772881984711e-03
6.696503609418869019e-02
7.627324759960174561e-02
1.196420006453990936e-02
-2.719874978065490723e-01
1.904314458370208740e-01
1.566115617752075195e-01
-8.117936551570892334e-02
4.789419844746589661e-02
1.339091733098030090e-02
-1.076935157179832458e-01
-3.796715289354324341e-02
7.276130467653274536e-02
-2.423029951751232147e-02
1.026255786418914795e-01
8.993839472532272339e-02
-1.038830205798149109e-01
-2.445920854806900024e-01
5.086773261427879333e-02
-2.890996262431144714e-02
8.863157778978347778e-02
6.554392725229263306e-02
-1.513997651636600494e-02
-1.386678777635097504e-02
5.688388273119926453e-02
2.084535360336303711e-02
7.750297337770462036e-02
1.826772391796112061e-01
-1.176918298006057739e-01
-3.031297959387302399e-02
-5.831462144851684570e-02
-8.814659714698791504e-02
-1.347255408763885498e-01
-1.621450483798980713e-01
-5.391544103622436523e-02
1.316949445754289627e-02
-6.129544228315353394e-02
-8.142635226249694824e-03
-1.035345271229743958e-01
9.361436218023300171e-02
-2.709540724754333496e-01
-1.746569275856018066e-01
-4.196095466613769531e-02
-1.610798686742782593e-01
6.179106235504150391e-02
-6.393000483512878418e-02
-2.819238603115081787e-01
4.023874551057815552e-02
2.688469924032688141e-02
-1.631668508052825928e-01
1.737690269947052002e-01
-7.770004868507385254e-02
2.138680517673492432e-01
-1.042006537318229675e-01
-1.346449553966522217e-01
-7.122676074504852295e-02
1.209459900856018066e-01
8.820237219333648682e-02
3.431213786825537682e-03
-6.929123401641845703e-02
1.037022005766630173e-02
-8.740572631359100342e-02
-8.240473270416259766e-02
8.886779099702835083e-02
8.853086829185485840e-02
-1.982773421332240105e-03
-1.200862601399421692e-01
-5.862838029861450195e-02
-2.337370514869689941e-01
5.414090678095817566e-02
9.288930892944335938e-02
-7.477461360394954681e-03
-2.545027248561382294e-02
1.614359617233276367e-01
-8.439527451992034912e-02
7.915328443050384521e-02
-2.108995020389556885e-01
9.287089109420776367e-02
-2.566531896591186523e-01
-1.149770468473434448e-01
-1.765525788068771362e-01
-8.752918243408203125e-02
-1.810534298419952393e-01
-3.095592856407165527e-01
-9.097938239574432373e-02
-1.024638339877128601e-01
-2.048436850309371948e-01
-1.328801363706588745e-01
-1.185368299484252930e-01
-3.162900805473327637e-01
2.113678492605686188e-02
8.768019266426563263e-03
-6.977514922618865967e-02
3.281017020344734192e-02
-1.854294240474700928e-01
-1.319870501756668091e-01
-1.239793002605438232e-02
9.738988429307937622e-02
3.157226741313934326e-02
-7.412172108888626099e-02
-5.655662342905998230e-02
-3.488517925143241882e-02
2.346947044134140015e-02
3.585234284400939941e-02
-1.524090319871902466e-01
2.214688435196876526e-02
-1.447411328554153442e-01
-1.988735049962997437e-01
7.928252220153808594e-02
-9.664941579103469849e-02
-1.123255342245101929e-01
-1.092494502663612366e-01
-1.300614923238754272e-01
-3.958925604820251465e-02
-2.487298548221588135e-01
7.095186412334442139e-02
8.168515563011169434e-02
-2.396299988031387329e-01
2.247240096330642700e-01
3.454440832138061523e-02
9.276928007602691650e-02
1.002218648791313171e-01
1.240473464131355286e-01
1.523650437593460083e-02
-9.554504603147506714e-02
-8.447615802288055420e-02
-1.966627985239028931e-01
-1.865728385746479034e-02
-3.057543933391571045e-02
-1.654061973094940186e-01
-2.117167785763740540e-02
-1.574843823909759521e-01
-3.718534857034683228e-02
3.537720069289207458e-02
-2.937194705009460449e-01
7.666068617254495621e-03
-1.563106477260589600e-01
1.745686233043670654e-01
-1.428684592247009277e-01
-3.775688111782073975e-01
-9.464631974697113037e-02
-1.661598533391952515e-01
-2.610394358634948730e-02
-2.937889099121093750e-02
1.013542786240577698e-01
-2.222589999437332153e-01
-6.877391040325164795e-02
1.386233121156692505e-01
1.140239462256431580e-01
-1.518400013446807861e-01
8.907034993171691895e-02
2.026184834539890289e-02
-1.204782649874687195e-01
3.781077265739440918e-02
-2.618828117847442627e-01
-2.253824844956398010e-02
-8.955362439155578613e-02
3.157745674252510071e-02
-3.656861931085586548e-02
-1.451452970504760742e-01
8.311060070991516113e-02
1.189916804432868958e-01
-1.157212108373641968e-01
-2.100132852792739868e-01
-2.033591419458389282e-01
-1.350436359643936157e-01
1.191682219505310059e-01
-1.580818444490432739e-01
1.269299834966659546e-01
-1.657770127058029175e-01
-1.202241927385330200e-01
9.154960513114929199e-02
-3.619772568345069885e-02
2.329533919692039490e-02
-1.196083240211009979e-02
-4.577181488275527954e-02
-1.756833344697952271e-01
1.896169632673263550e-01
-1.024035438895225525e-01
8.205540325434412807e-06
3.249163925647735596e-02
8.907214738428592682e-03
2.354513667523860931e-02
-1.110389679670333862e-01
-6.884302198886871338e-02
-2.811537683010101318e-01
1.495798230171203613e-01
-7.935831695795059204e-02
-2.354267239570617676e-01
-7.998520135879516602e-02
-1.098624542355537415e-01
-9.694653749465942383e-02
-1.393598318099975586e-02
-1.244135666638612747e-02
-2.842633053660392761e-02
-1.086738184094429016e-01
-7.850834727287292480e-02
-1.145518794655799866e-01
-1.239441111683845520e-01
2.654859423637390137e-02
-1.204309836030006409e-01
-4.912182688713073730e-02
-6.162242061691358685e-05
-2.189482748508453369e-01
-9.924226254224777222e-02
1.240517720580101013e-01
9.996307641267776489e-02
3.645977377891540527e-02
1.628799177706241608e-02
-8.216124773025512695e-02
-1.994120702147483826e-02
-1.988791376352310181e-01
-1.532956361770629883e-01
-9.486759081482887268e-03
-9.896857291460037231e-02
-1.081520766019821167e-01
1.751179434359073639e-02
-6.111774966120719910e-02
-1.836881488561630249e-01
1.862023770809173584e-01
-1.700630635023117065e-01
7.422725856304168701e-02
-9.098959714174270630e-02
-1.278898864984512329e-01
-1.104396432638168335e-01
-2.679196745157241821e-02
-7.065396010875701904e-02
7.661787420511245728e-02
2.493916079401969910e-02
-4.840020556002855301e-03
-2.684791684150695801e-01
-5.906683951616287231e-02
-1.059423685073852539e-01
-1.555664539337158203e-01
-2.025227993726730347e-01
-2.244333624839782715e-01
2.604296314530074596e-04
-8.984388411045074463e-02
-7.279086112976074219e-02
-1.147832125425338745e-01
-1.093049272894859314e-01
-7.739473879337310791e-02
-6.563965231180191040e-02
4.132258892059326172e-02
-1.229458600282669067e-01
1.839411705732345581e-01
-9.662859886884689331e-02
-3.909603506326675415e-02
-2.992529869079589844e-01
-1.090452373027801514e-01
-2.371935248374938965e-01
-7.978899776935577393e-02
-1.941168308258056641e-02
7.651531696319580078e-02
-1.565353386104106903e-02
-1.149150058627128601e-01
-6.041395291686058044e-02
2.711182832717895508e-02
-3.926482796669006348e-02
2.303052246570587158e-01
-1.825222373008728027e-02
8.716121315956115723e-02
1.053545847535133362e-01
9.602290391921997070e-02
1.411275267601013184e-01
1.530089676380157471e-01
2.335691824555397034e-02
-6.013792008161544800e-02
9.008947014808654785e-02
1.063638925552368164e-02
1.432859301567077637e-01
1.754838228225708008e-01
7.217186968773603439e-03
8.481099456548690796e-02
1.213481426239013672e-01
3.962901979684829712e-02
-2.876335941255092621e-02
-3.354042395949363708e-02
-4.642560705542564392e-02
6.535448879003524780e-02
8.408140391111373901e-02
9.079392999410629272e-03
-9.127063094638288021e-04
-4.254079237580299377e-02
-9.458616375923156738e-02
1.720068156719207764e-01
9.013636410236358643e-02
3.248200565576553345e-02
7.911308668553829193e-03
1.572673171758651733e-01
2.014875262975692749e-01
1.063660681247711182e-01
7.163755595684051514e-02
3.353679925203323364e-02
3.685478866100311279e-02
1.775031238794326782e-01
1.797768771648406982e-01
-8.506795763969421387e-02
2.766931951045989990e-01
3.431321680545806885e-02
4.001728072762489319e-02
1.052885949611663818e-01
6.929527502506971359e-03
1.283296346664428711e-01
3.273591026663780212e-02
2.201478928327560425e-03
-8.764201402664184570e-02
4.136416688561439514e-02
2.240204662084579468e-01
1.032966002821922302e-01
2.115289494395256042e-02
1.338085234165191650e-01
1.428516060113906860e-01
1.016153991222381592e-01
5.332025513052940369e-02
-6.014994904398918152e-02
-1.189711131155490875e-02
-6.290966272354125977e-02
7.928127795457839966e-02
6.874185800552368164e-02
-5.882774665951728821e-02
1.310008764266967773e-01
8.725365996360778809e-02
4.186899587512016296e-02
1.387758851051330566e-01
1.071166172623634338e-01
-1.136539410799741745e-02
9.183631837368011475e-02
-3.220108896493911743e-02
1.068232655525207520e-01
1.096377000212669373e-01
2.543695457279682159e-02
-5.335837230086326599e-02
1.439942568540573120e-01
7.083012908697128296e-02
1.524968352168798447e-02
1.362490057945251465e-01
8.836106210947036743e-02
2.241144515573978424e-02
1.321910172700881958e-01
-1.625277101993560791e-02
3.864369168877601624e-02
1.046424359083175659e-02
1.446960568428039551e-01
1.042645573616027832e-01
4.892688617110252380e-02
1.765645444393157959e-01
3.644403070211410522e-02
5.838659405708312988e-02
8.310429006814956665e-02
5.006342381238937378e-02
5.026724562048912048e-02
1.913852989673614502e-01
1.160292699933052063e-01
8.729382604360580444e-02
9.652107208967208862e-02
-1.839116215705871582e-02
1.349272280931472778e-01
-1.292075682431459427e-02
1.086739003658294678e-01
2.363922595977783203e-01
2.187389582395553589e-01
1.837665140628814697e-01
1.910593360662460327e-01
9.321742504835128784e-02
5.542660877108573914e-02
1.184725463390350342e-01
-1.328418850898742676e-01
2.826485037803649902e-02
2.932649292051792145e-02
2.667547576129436493e-02
6.564341485500335693e-02
-3.385310992598533630e-02
-2.468137443065643311e-02
-3.462151810526847839e-02
1.453629583120346069e-01
8.565249294042587280e-02
1.892692893743515015e-01
8.910106867551803589e-02
1.405912190675735474e-01
4.442785680294036865e-02
-1.025045588612556458e-01
-4.909246228635311127e-03
7.511179149150848389e-02
-1.042699441313743591e-01
3.255648910999298096e-02
-3.879930078983306885e-02
-4.667105898261070251e-02
1.061450615525245667e-01
1.792803555727005005e-01
3.163064271211624146e-02
3.820339590311050415e-02
8.284536749124526978e-02
2.474280074238777161e-02
1.355934888124465942e-01
-5.269517004489898682e-02
3.033217974007129669e-02
-1.537308190017938614e-02
1.022351980209350586e-01
-6.701809167861938477e-02
2.895743027329444885e-02
1.337750107049942017e-01
-1.548335701227188110e-01
1.463817711919546127e-02
3.026969917118549347e-02
-2.881104126572608948e-02
1.638534814119338989e-01
1.876919716596603394e-01
-1.862131059169769287e-02
-2.452704682946205139e-02
7.540769875049591064e-02
5.846855044364929199e-02
-5.059105902910232544e-02
1.913949549198150635e-01
1.489651501178741455e-01
2.262043356895446777e-01
1.514344215393066406e-01
-9.020045399665832520e-03
1.813645660877227783e-01
-3.048611106351017952e-04
3.715511783957481384e-02
5.186450108885765076e-02
-6.704214960336685181e-02
8.317246288061141968e-02
5.732358433306217194e-03
-2.644604071974754333e-02
5.011633411049842834e-02
-8.040614426136016846e-02
1.555281784385442734e-02
-6.478817760944366455e-02
-4.757600277662277222e-02
1.066696196794509888e-01
1.654218882322311401e-02
2.212225794792175293e-01
2.930772677063941956e-02
1.883676052093505859e-01
1.208773031830787659e-01
3.678024187684059143e-02
2.046071290969848633e-01
1.049278378486633301e-01
7.897395640611648560e-02
1.153563112020492554e-01
1.294659674167633057e-01
9.512824937701225281e-03
1.734517142176628113e-02
1.206378713250160217e-01
3.297164570540189743e-03
-7.918218523263931274e-02
1.188579294830560684e-02
5.773109942674636841e-02
5.879939720034599304e-02
8.391939103603363037e-02
-1.491696573793888092e-02
8.814663439989089966e-02
-7.152140140533447266e-02
4.395546764135360718e-02
1.578562706708908081e-01
1.550731211900711060e-01
3.467063885182142258e-03
-8.108625560998916626e-02
7.380370795726776123e-02
-1.979366317391395569e-02
1.661197245121002197e-01
-1.905705966055393219e-02
1.019883975386619568e-01
8.265390247106552124e-02
-4.185342788696289062e-02
-1.825814396142959595e-01
1.079340428113937378e-01
-4.249719902873039246e-03
1.403757482767105103e-01
2.134005278348922729e-01
1.010304018855094910e-01
9.304083883762359619e-02
6.757824122905731201e-02
1.801400929689407349e-01
1.104760356247425079e-02
3.963788226246833801e-02
-1.115139015018939972e-02
1.102136895060539246e-01
3.425258025527000427e-02
2.848619595170021057e-02
6.880621612071990967e-02
7.272750884294509888e-02
8.741859346628189087e-02
1.272676289081573486e-01
3.485102206468582153e-02
1.711208000779151917e-02
-7.030230015516281128e-02
-1.388777978718280792e-02
6.575482338666915894e-02
-4.282464087009429932e-02
-6.866800040006637573e-02
3.638257086277008057e-02
1.137657463550567627e-01
1.054951176047325134e-01
1.617126762866973877e-01
1.589392274618148804e-01
6.794515997171401978e-02
2.173316478729248047e-01
1.330706030130386353e-01
1.277370154857635498e-01
5.695101246237754822e-02
1.052326485514640808e-01
6.727499887347221375e-03
1.263496130704879761e-01
1.161037981510162354e-01
6.417818367481231689e-02
1.743547618389129639e-01
3.697838261723518372e-02
7.435356825590133667e-02
9.246966242790222168e-02
1.185278818011283875e-01
1.503064036369323730e-01
2.175385802984237671e-01
