-1.657720468938350677e-02
-3.009779937565326691e-02
8.747993968427181244e-03
-1.833465881645679474e-02
-5.136663839221000671e-02
2.234877087175846100e-02
-8.168478496372699738e-03
-2.524502947926521301e-02
3.231264650821685791e-02
1.817930303514003754e-02
2.858659252524375916e-03
4.487250000238418579e-02
1.763456873595714569e-02
4.081133753061294556e-02
-2.350794523954391479e-02
2.978211827576160431e-02
-3.761876747012138367e-02
2.641528844833374023e-03
1.999615319073200226e-02
-3.969267383217811584e-02
5.950763821601867676e-03
1.645248010754585266e-02
-1.987055689096450806e-02
-3.882489353418350220e-02
1.628900505602359772e-02
-3.045536577701568604e-02
3.079786896705627441e-02
3.173831850290298462e-02
-4.182326048612594604e-02
5.350752267986536026e-03
1.502917986363172531e-02
-4.516878165304660797e-03
2.820334769785404205e-02
1.935416273772716522e-02
-4.491443186998367310e-02
-3.440875187516212463e-02
-2.412625961005687714e-02
-4.807299375534057617e-02
8.143250830471515656e-03
1.588780991733074188e-02
-1.467655878514051437e-02
-3.440266475081443787e-02
-2.850577421486377716e-02
-1.525123021565377712e-03
-3.434895724058151245e-02
-2.548039192333817482e-03
-3.837407566606998444e-03
2.257834188640117645e-02
1.485751103609800339e-02
2.212717942893505096e-02
1.612147316336631775e-03
-2.204901166260242462e-02
-2.967362664639949799e-02
-4.348678514361381531e-02
3.995621576905250549e-02
1.535852253437042236e-02
3.049887344241142273e-02
-2.819859050214290619e-02
1.525993552058935165e-02
3.150522010400891304e-03
-4.541794210672378540e-02
-1.299157552421092987e-02
-1.315419934689998627e-02
-1.221956685185432434e-02
4.413539171218872070e-02
-1.352818496525287628e-02
3.903602436184883118e-02
-1.973107084631919861e-02
1.566581055521965027e-02
-1.513965986669063568e-02
-3.480362147092819214e-02
1.287443190813064575e-02
2.893223613500595093e-02
1.744995266199111938e-02
-1.759783364832401276e-02
-1.705040223896503448e-02
5.397918284870684147e-04
-9.409639053046703339e-03
5.294854287058115005e-03
-4.029635339975357056e-02
-3.510684520006179810e-02
-4.908636957406997681e-02
2.745677717030048370e-02
-5.336438305675983429e-03
2.531502582132816315e-02
1.848251186311244965e-02
-2.786821871995925903e-02
-3.605717793107032776e-02
4.320476204156875610e-02
1.771807670593261719e-02
-1.941826380789279938e-02
-3.589025884866714478e-02
3.195280442014336586e-03
-3.155874460935592651e-02
-3.043372929096221924e-02
4.553505778312683105e-02
1.052475161850452423e-02
7.355052512139081955e-03
4.024603217840194702e-02
-3.531487286090850830e-02
1.860071159899234772e-02
4.254371859133243561e-03
6.833379156887531281e-03
-2.206830121576786041e-02
2.581881918013095856e-02
2.119408361613750458e-02
-1.813262142241001129e-02
2.496090158820152283e-02
4.714340716600418091e-02
7.645945530384778976e-03
1.442422531545162201e-02
-3.920586779713630676e-02
-2.473606169223785400e-02
-4.990714788436889648e-02
-1.768046058714389801e-02
-2.847294323146343231e-02
-1.702644489705562592e-02
7.714283652603626251e-03
4.831078927963972092e-03
-4.675012826919555664e-02
-3.018745407462120056e-02
1.426905952394008636e-02
-4.269682615995407104e-02
1.298406254500150681e-02
-3.783401474356651306e-02
2.943921089172363281e-02
3.644518321380019188e-03
1.336410082876682281e-02
1.059204296325333416e-04
9.367906488478183746e-03
-2.932836860418319702e-02
-5.633649998344480991e-04
1.529440935701131821e-02
3.822858631610870361e-02
3.591667488217353821e-02
2.498496323823928833e-03
-8.590861223638057709e-03
-2.863092347979545593e-02
-2.580834738910198212e-02
-3.545795008540153503e-02
-7.841122336685657501e-03
-1.025079563260078430e-02
3.625135496258735657e-02
3.509659692645072937e-02
3.796631097793579102e-02
-2.924883365631103516e-02
-2.198115922510623932e-02
-6.234721280634403229e-03
-4.032952710986137390e-03
1.619169302284717560e-02
2.351485006511211395e-02
3.572649136185646057e-02
1.626737788319587708e-02
-4.050933290272951126e-03
-2.016923949122428894e-02
1.941202953457832336e-02
2.467663958668708801e-02
-5.022757872939109802e-02
-3.377887979149818420e-02
-1.924083940684795380e-02
-4.643422365188598633e-02
2.536811120808124542e-02
-1.205280702561140060e-02
-5.086561292409896851e-02
1.021064817905426025e-04
-4.648205358535051346e-03
-2.207682840526103973e-02
-1.034684944897890091e-02
3.697343915700912476e-02
-5.630742525681853294e-04
-2.559613622725009918e-02
-1.701434701681137085e-02
3.412172943353652954e-02
-1.473357900977134705e-02
2.962199039757251740e-02
-1.394623331725597382e-02
-8.492460474371910095e-03
-4.100170359015464783e-02
-2.801503799855709076e-02
1.097915973514318466e-02
-5.586147680878639221e-02
-4.481928050518035889e-02
1.971859298646450043e-02
-2.239629253745079041e-02
-2.125273458659648895e-02
-1.549222506582736969e-02
-2.285944670438766479e-02
-9.203974157571792603e-03
6.473028566688299179e-03
-1.607046090066432953e-02
-2.092859707772731781e-02
-1.139410305768251419e-02
2.568370848894119263e-02
-7.153719663619995117e-03
-3.513690456748008728e-02
-2.770866267383098602e-02
-5.661960225552320480e-03
-1.234835479408502579e-02
-4.248275607824325562e-02
-3.303380683064460754e-02
6.782071199268102646e-03
5.312998313456773758e-03
-5.184240639209747314e-03
-4.381725564599037170e-02
1.351615414023399353e-02
2.864251285791397095e-02
3.916059806942939758e-02
-3.080266527831554413e-02
6.349849049001932144e-03
-4.122427105903625488e-02
6.155437324196100235e-03
2.277738414704799652e-02
-2.009354531764984131e-03
-1.450847368687391281e-02
3.061904385685920715e-02
-1.027165725827217102e-02
1.496384944766759872e-02
-2.445735037326812744e-02
-3.918307274580001831e-02
-5.034037679433822632e-02
4.556574393063783646e-03
7.585573475807905197e-03
1.794963516294956207e-02
1.338781882077455521e-02
1.078047353075817227e-05
2.697502076625823975e-02
2.108286879956722260e-02
2.949851751327514648e-02
-3.258629469200968742e-03
1.511739939451217651e-02
-2.560111135244369507e-02
-4.310568794608116150e-03
2.642896585166454315e-02
2.797252964228391647e-03
-2.534799277782440186e-02
3.337823972105979919e-02
2.820901013910770416e-02
-3.567933291196823120e-02
3.779971227049827576e-02
-1.679555140435695648e-02
1.384617760777473450e-02
-5.043713748455047607e-02
2.551820129156112671e-02
3.486725315451622009e-02
-3.817558288574218750e-02
-4.940164461731910706e-02
-3.164326772093772888e-02
-3.100986592471599579e-02
2.504687383770942688e-02
3.592365607619285583e-02
-3.658482059836387634e-02
-3.403685241937637329e-02
-2.193072997033596039e-02
-2.809278666973114014e-02
1.651997491717338562e-02
1.219498552381992340e-02
-4.472200199961662292e-02
2.871041186153888702e-02
3.620940819382667542e-02
-4.056181386113166809e-02
-1.742658950388431549e-02
-4.984213784337043762e-02
3.367081284523010254e-02
-4.688655585050582886e-02
1.754631474614143372e-02
3.089481033384799957e-02
-2.405057288706302643e-02
-1.999744214117527008e-02
1.326021924614906311e-02
-3.397774882614612579e-03
-3.480485454201698303e-02
-3.876802697777748108e-02
3.009604522958397865e-03
1.261208485811948776e-02
-4.859315603971481323e-02
2.713122591376304626e-02
-4.293252527713775635e-02
-4.203543066978454590e-03
2.982035093009471893e-02
-1.658013463020324707e-02
-2.138020843267440796e-02
-1.611980982124805450e-02
3.195521235466003418e-02
-1.360455062240362167e-02
-2.950275875627994537e-02
-1.620188169181346893e-02
3.261142410337924957e-03
2.176420949399471283e-02
2.980056591331958771e-02
3.542208671569824219e-02
-3.603065013885498047e-02
8.521992713212966919e-03
-5.164207890629768372e-03
-2.283001132309436798e-02
-2.273899316787719727e-02
1.553507987409830093e-03
-1.173521485179662704e-02
7.347199134528636932e-03
-2.090134285390377045e-02
-5.184178054332733154e-02
-4.084550216794013977e-02
-1.301013305783271790e-02
-3.779969364404678345e-02
-3.127843514084815979e-02
1.828281395137310028e-02
-1.486669853329658508e-02
1.614610664546489716e-02
2.566164592280983925e-03
-2.088349871337413788e-02
1.675554923713207245e-02
-3.210384026169776917e-02
-8.142563514411449432e-03
-2.645227126777172089e-02
2.843446796759963036e-03
4.566132556647062302e-03
2.774762362241744995e-02
9.282946586608886719e-03
-2.844703942537307739e-02
-2.414461458101868629e-03
-1.981237530708312988e-02
-1.657412271015346050e-03
-5.041294917464256287e-02
-5.693910270929336548e-02
3.209553658962249756e-02
1.864428259432315826e-02
2.363281697034835815e-02
1.640742085874080658e-02
2.268185652792453766e-02
3.992725536227226257e-02
4.776808433234691620e-03
5.813017953187227249e-03
-4.853015765547752380e-02
-3.501818701624870300e-02
7.432998972944915295e-05
8.287521079182624817e-03
-1.465645991265773773e-02
9.564466890878975391e-04
-4.836490377783775330e-02
-3.650670498609542847e-02
-4.782716557383537292e-02
4.040354862809181213e-02
2.214439585804939270e-02
-4.205834493041038513e-02
3.684382140636444092e-02
-2.000499702990055084e-02
-3.961876407265663147e-02
-2.361776120960712433e-02
-3.057909384369850159e-02
2.270321361720561981e-02
7.667769212275743484e-03
1.549758389592170715e-02
-3.268062695860862732e-02
-2.502011507749557495e-02
-2.078183740377426147e-02
-5.518157780170440674e-02
2.793419174849987030e-02
6.110510323196649551e-03
-4.219699651002883911e-02
-2.962787821888923645e-02
4.320650547742843628e-02
-1.736582629382610321e-02
2.882579155266284943e-02
-1.463756524026393890e-02
1.152244303375482559e-02
-1.020264253020286560e-02
-6.729387212544679642e-03
2.464740246068686247e-04
-5.124933645129203796e-02
2.984112314879894257e-02
-3.632714226841926575e-02
1.698478870093822479e-02
6.900989450514316559e-03
3.059705719351768494e-02
-2.553306519985198975e-02
-3.416642919182777405e-02
-1.681777462363243103e-02
-6.062814965844154358e-03
-3.471481427550315857e-02
-3.243994712829589844e-02
1.778827980160713196e-02
2.261334098875522614e-02
3.169335424900054932e-02
8.000976406037807465e-03
-4.252332448959350586e-02
-1.314750220626592636e-02
-1.542504690587520599e-02
5.828838329762220383e-03
5.665545817464590073e-03
-3.862621635198593140e-02
1.507076527923345566e-02
-1.935515739023685455e-02
1.023788098245859146e-02
-4.562072455883026123e-02
-2.618723735213279724e-02
-4.578864574432373047e-02
-2.708881348371505737e-02
4.651281982660293579e-02
2.178959734737873077e-02
-4.659559205174446106e-02
-3.910846263170242310e-02
-1.686612516641616821e-02
-1.072644814848899841e-02
-6.765482947230339050e-03
-2.293214946985244751e-02
1.099746022373437881e-02
1.309893280267715454e-02
-1.268060132861137390e-02
3.297591209411621094e-02
1.871143002063035965e-03
-3.251317888498306274e-02
1.201938185840845108e-02
2.125866338610649109e-02
-3.018336929380893707e-02
-1.767123304307460785e-02
-1.300726830959320068e-02
1.215790491551160812e-02
-5.450300499796867371e-02
-3.324683755636215210e-02
5.654352251440286636e-03
1.684496738016605377e-02
2.456985786557197571e-02
3.190074488520622253e-02
-3.172268718481063843e-02
-3.178716450929641724e-02
-2.312508411705493927e-02
9.654004126787185669e-03
-3.475688770413398743e-02
-3.817016258835792542e-02
-2.716047875583171844e-02
-2.575273625552654266e-02
-2.814449369907379150e-02
4.163133911788463593e-03
4.213069751858711243e-02
-3.814486041665077209e-02
-2.188820391893386841e-03
2.898085676133632660e-02
-4.043496400117874146e-02
-3.762742504477500916e-02
-1.736360229551792145e-02
1.685388945043087006e-02
1.171398791484534740e-03
2.857936359941959381e-02
2.238231338560581207e-02
-4.188703373074531555e-02
1.934462040662765503e-02
-2.825471758842468262e-02
-5.616289749741554260e-02
7.907645776867866516e-03
-1.778403297066688538e-02
3.465143963694572449e-02
-2.719418145716190338e-03
3.460959345102310181e-02
-3.140201047062873840e-02
1.937875151634216309e-02
3.668508678674697876e-02
5.437422543764114380e-03
4.166679456830024719e-02
-1.952213607728481293e-02
3.682126477360725403e-02
-1.818601414561271667e-02
2.044527791440486908e-02
3.802982717752456665e-02
3.010874055325984955e-02
2.163733914494514465e-02
-4.394014179706573486e-02
-2.093976922333240509e-02
2.647581137716770172e-02
-3.206239640712738037e-02
-4.031867533922195435e-02
-4.316583648324012756e-02
-3.494818881154060364e-02
3.555745258927345276e-02
-4.126796126365661621e-02
2.527387998998165131e-02
4.864647984504699707e-03
-2.889464050531387329e-02
-9.981759823858737946e-03
-5.746400915086269379e-03
1.973563805222511292e-02
3.952167555689811707e-02
-1.053254934959113598e-03
-3.448855131864547729e-02
-2.469707094132900238e-02
1.149488892406225204e-02
-2.210165373980998993e-02
1.563942059874534607e-02
-2.943976782262325287e-02
-1.126048900187015533e-02
4.006352648138999939e-02
-3.782192245125770569e-02
-2.806193754076957703e-02
-2.509675454348325729e-03
-1.986846327781677246e-02
-2.316285297274589539e-02
-3.446595743298530579e-02
-3.888080641627311707e-02
1.518957689404487610e-02
-3.292999789118766785e-02
-3.248472139239311218e-02
3.100996278226375580e-02
-3.615203127264976501e-02
2.047214470803737640e-02
-3.695905208587646484e-02
2.476406469941139221e-02
4.664529580622911453e-03
-2.516285330057144165e-02
2.297653257846832275e-02
-1.155808288604021072e-02
-4.121714085340499878e-02
-1.166493073105812073e-02
-5.268338695168495178e-02
2.103375829756259918e-02
-7.460523396730422974e-03
-3.261307626962661743e-02
-2.673205221071839333e-03
-2.763508073985576630e-02
-8.389227092266082764e-03
-3.317119553685188293e-02
-1.808170974254608154e-02
-2.384454943239688873e-02
-3.532753139734268188e-02
1.188488490879535675e-02
4.356648400425910950e-02
-4.331742227077484131e-02
-5.056495591998100281e-02
-3.092262195423245430e-03
5.232721939682960510e-02
-4.362723976373672485e-02
2.252238616347312927e-02
3.597489371895790100e-02
3.721225634217262268e-02
2.487073419615626335e-03
-9.716639295220375061e-03
1.371940597891807556e-02
-2.261978946626186371e-02
2.227323595434427261e-03
1.416789554059505463e-02
3.831203281879425049e-02
4.026662930846214294e-02
3.627834096550941467e-02
-6.076027639210224152e-03
-3.535643592476844788e-02
-4.245357587933540344e-02
-4.590942710638046265e-02
-3.335794201120734215e-03
-4.565575718879699707e-02
4.073343798518180847e-02
-2.545380406081676483e-02
-2.475017122924327850e-02
1.952889934182167053e-02
1.024931855499744415e-02
2.902027405798435211e-02
-1.338679576292634010e-03
2.435518801212310791e-02
2.564401365816593170e-02
-1.550418697297573090e-02
1.621044985949993134e-02
-2.243182621896266937e-02
-2.079119719564914703e-02
4.440252482891082764e-02
-3.005706891417503357e-02
6.353466771543025970e-03
-7.584098493680357933e-04
-8.373287506401538849e-03
4.112958163022994995e-02
4.869333282113075256e-02
8.781619369983673096e-03
-2.474871277809143066e-02
4.182442277669906616e-02
-5.723599810153245926e-03
-4.901116341352462769e-02
2.682257443666458130e-02
1.417392306029796600e-02
3.432019054889678955e-02
1.505875214934349060e-02
-4.999524727463722229e-02
1.737612299621105194e-02
-1.346516422927379608e-02
4.607419297099113464e-02
9.171440266072750092e-03
4.873020201921463013e-02
3.816144540905952454e-03
-7.395014981739223003e-04
3.705233708024024963e-02
2.199373394250869751e-02
-1.409373246133327484e-02
-9.249032591469585896e-04
5.311213433742523193e-03
2.407498285174369812e-02
-2.403833903372287750e-02
3.623650595545768738e-02
1.156195811927318573e-02
1.971599413082003593e-03
1.160365063697099686e-02
-1.179111562669277191e-02
9.138497523963451385e-03
1.157045084983110428e-02
3.080161288380622864e-02
2.880731830373406410e-03
2.884037978947162628e-02
-5.179738625884056091e-02
9.196436963975429535e-03
-5.232382100075483322e-03
8.614548482000827789e-03
2.757142484188079834e-02
4.412250127643346786e-03
3.890966624021530151e-02
-2.330585150048136711e-03
-4.629650339484214783e-02
3.000710159540176392e-02
2.248701266944408417e-02
6.529584061354398727e-03
1.611901633441448212e-02
4.465095233172178268e-03
3.630689159035682678e-02
-2.368091233074665070e-02
3.761488571763038635e-02
-1.912458240985870361e-02
6.993450224399566650e-04
3.571685403585433960e-02
-4.669530317187309265e-03
6.142178550362586975e-03
-1.466413121670484543e-02
-3.702011331915855408e-02
-1.023192610591650009e-02
-2.169164642691612244e-02
-2.536575309932231903e-02
-1.462592650204896927e-02
3.602556651458144188e-03
3.751649707555770874e-02
-3.964265342801809311e-03
2.848351374268531799e-02
-3.710201010107994080e-02
-1.434754300862550735e-02
1.884955726563930511e-02
2.405571751296520233e-02
-6.571338512003421783e-03
-9.909711079671978951e-04
3.320454386994242668e-03
-2.622821554541587830e-02
3.422609716653823853e-02
4.257193580269813538e-02
7.662504445761442184e-03
3.503675758838653564e-02
1.940802484750747681e-02
-3.466922789812088013e-02
-1.114017982035875320e-02
7.421517744660377502e-03
-4.003530833870172501e-03
3.959495108574628830e-03
-3.010775521397590637e-02
2.452441677451133728e-02
-1.500002760440111160e-02
8.193974383175373077e-03
-4.867573734372854233e-03
-1.236171554774045944e-02
-3.953093290328979492e-02
3.629967570304870605e-02
3.666236251592636108e-02
2.664060331881046295e-02
-4.502471163868904114e-02
3.670208156108856201e-02
-7.196637801826000214e-03
2.817936055362224579e-02
4.068804159760475159e-02
1.856445521116256714e-02
-5.873225629329681396e-03
-1.069759298115968704e-02
-9.240821003913879395e-03
6.613475736230611801e-03
4.338090308010578156e-03
-3.061002492904663086e-02
-3.047828190028667450e-02
-7.708357879891991615e-04
1.132468413561582565e-02
-2.103744307532906532e-03
3.170970082283020020e-02
6.313700228929519653e-03
-1.239815843291580677e-03
-7.369942497462034225e-03
-6.096110213547945023e-03
2.633981779217720032e-02
2.194002270698547363e-02
-8.633502759039402008e-03
-1.447224244475364685e-02
2.670600451529026031e-02
-3.357107564806938171e-02
1.665975525975227356e-02
-2.893113531172275543e-02
7.863256148993968964e-03
3.308607637882232666e-02
-1.357790362089872360e-02
-2.099466323852539062e-02
-4.678039625287055969e-02
-1.436552871018648148e-02
-3.496400266885757446e-02
1.267059706151485443e-02
1.591152697801589966e-02
-1.868753135204315186e-02
-2.530004456639289856e-02
-2.212935872375965118e-02
3.621652955189347267e-03
-6.949866074137389660e-04
-1.391315134242177010e-03
3.111688420176506042e-02
9.457769803702831268e-03
7.311701774597167969e-03
-4.738793242722749710e-03
2.204617485404014587e-02
1.686757616698741913e-02
4.342542588710784912e-02
-1.473204884678125381e-02
2.304627746343612671e-02
2.387434244155883789e-02
-6.496944464743137360e-03
-1.580980792641639709e-02
-3.653743490576744080e-02
-3.094401583075523376e-02
-3.555260226130485535e-02
-1.448891963809728622e-02
3.641311079263687134e-02
-1.676551811397075653e-02
1.927160099148750305e-02
3.766750684008002281e-03
-2.388456091284751892e-02
3.736952319741249084e-03
-1.954801753163337708e-02
-3.327931277453899384e-03
-1.834839209914207458e-02
-1.119977561756968498e-03
2.340307459235191345e-02
-3.155417740345001221e-02
3.356777504086494446e-02
1.486560050398111343e-02
-3.657614439725875854e-02
2.207548916339874268e-02
-3.010723553597927094e-02
2.185066789388656616e-02
4.965212941169738770e-02
-6.775475572794675827e-03
-2.851068787276744843e-02
5.255022272467613220e-02
1.369698625057935715e-02
-3.183935210108757019e-02
-1.013178657740354538e-02
1.489875465631484985e-02
1.216479483991861343e-02
-1.040056161582469940e-02
7.999201305210590363e-03
4.759470000863075256e-02
-2.869545295834541321e-02
-2.926051849499344826e-03
9.416452609002590179e-03
1.858279109001159668e-02
1.860615797340869904e-02
-3.554904088377952576e-02
-6.886892486363649368e-03
3.958093002438545227e-03
-5.594393983483314514e-02
5.184136331081390381e-02
3.690645843744277954e-02
-2.128885500133037567e-02
-2.911583893001079559e-02
-1.287370268255472183e-02
1.905885338783264160e-02
3.139531239867210388e-02
-3.912276402115821838e-02
-2.430035546422004700e-02
-1.066998858004808426e-02
-2.768257819116115570e-02
-1.195383723825216293e-02
1.260307338088750839e-02
-1.687035663053393364e-03
-2.147617191076278687e-02
2.160725928843021393e-02
-4.434755537658929825e-03
-4.063033685088157654e-02
-2.730552107095718384e-03
-1.043323799967765808e-02
6.455882685258984566e-04
-2.402281574904918671e-02
-3.080512210726737976e-02
-6.976866628974676132e-03
1.740270294249057770e-02
-4.325305297970771790e-02
-1.522581558674573898e-02
-1.660663075745105743e-02
-4.893876239657402039e-02
5.456692725419998169e-02
-2.843282558023929596e-02
1.594962365925312042e-02
-1.701374654658138752e-03
-3.331107273697853088e-02
-2.923896722495555878e-02
2.310703508555889130e-02
-2.518145367503166199e-02
-8.288349956274032593e-03
-1.097019389271736145e-02
5.664937663823366165e-03
-4.131369292736053467e-02
4.493970051407814026e-02
-1.578063145279884338e-02
-4.791052639484405518e-02
-1.879494078457355499e-02
2.389331907033920288e-02
2.651027170941233635e-03
5.594866350293159485e-02
1.513439323753118515e-02
2.409880049526691437e-02
-3.827124834060668945e-02
-3.151886165142059326e-02
-1.023823744617402554e-03
2.582049742341041565e-02
-3.801015764474868774e-02
2.728498540818691254e-02
-2.926388382911682129e-02
2.783117443323135376e-02
9.823822416365146637e-03
-1.257170364260673523e-02
-1.204921770840883255e-02
-6.987853907048702240e-03
2.877564541995525360e-02
1.690458692610263824e-02
-2.516348473727703094e-02
2.505156025290489197e-02
3.431164473295211792e-02
9.751540608704090118e-03
3.493114560842514038e-02
4.017082229256629944e-02
2.985318936407566071e-02
3.886685590259730816e-04
-1.582284085452556610e-02
-1.307554636150598526e-02
1.253096852451562881e-03
3.462504222989082336e-02
-9.547347202897071838e-03
3.413336724042892456e-02
3.808279708027839661e-02
8.933303877711296082e-03
2.814135141670703888e-02
3.408600762486457825e-02
-4.984513670206069946e-02
-1.353179570287466049e-02
2.863751910626888275e-02
-1.206256332807242870e-03
1.705879904329776764e-02
2.293528616428375244e-02
3.333366662263870239e-02
-2.640685066580772400e-02
-5.852260161191225052e-03
1.216574478894472122e-02
7.942320778965950012e-03
2.111317403614521027e-02
4.581272229552268982e-02
1.993316970765590668e-02
2.091992273926734924e-02
-3.120316751301288605e-02
1.315012574195861816e-02
-3.136464580893516541e-02
-5.208039190620183945e-03
-2.908897958695888519e-02
4.578067921102046967e-03
1.742579601705074310e-02
-4.224124923348426819e-02
2.422295138239860535e-02
3.073614276945590973e-02
2.303454838693141937e-02
1.491971034556627274e-02
-3.273320198059082031e-02
1.976148225367069244e-02
-2.669363841414451599e-02
2.711822651326656342e-02
2.124802209436893463e-02
-1.020657829940319061e-02
-2.018534019589424133e-02
2.053675055503845215e-02
-5.212239548563957214e-02
-1.952138729393482208e-02
-9.813608601689338684e-03
3.913843631744384766e-02
-7.589795161038637161e-03
2.437144704163074493e-02
4.803753271698951721e-02
3.340679779648780823e-02
3.096018545329570770e-02
-2.868768945336341858e-02
6.899227388203144073e-03
-4.279270023107528687e-02
4.741423577070236206e-02
3.019610606133937836e-02
-9.036133065819740295e-03
-1.021804753690958023e-02
4.538570716977119446e-02
4.668905399739742279e-03
-3.243327082600444555e-04
2.186041884124279022e-02
1.456756331026554108e-02
-1.463441643863916397e-02
-4.618686065077781677e-02
5.027427803725004196e-03
-4.438010230660438538e-02
3.969058021903038025e-02
1.315785385668277740e-02
-5.121361836791038513e-02
-2.378598600625991821e-02
3.791732713580131531e-02
7.906986400485038757e-03
2.205312624573707581e-02
2.096548490226268768e-02
3.791826544329524040e-03
4.266016185283660889e-02
4.051957279443740845e-03
4.066527262330055237e-02
-2.833110280334949493e-02
1.628505624830722809e-02
-1.355981547385454178e-02
1.434401422739028931e-02
-2.515485696494579315e-02
2.941405400633811951e-02
2.587705850601196289e-02
3.609035164117813110e-02
9.763165144249796867e-04
4.484814405441284180e-02
-1.959002809599041939e-03
-4.017617553472518921e-03
3.341607376933097839e-02
-1.213298086076974869e-02
-8.217494003474712372e-03
-2.271564118564128876e-02
-3.973730653524398804e-02
1.505414955317974091e-02
-4.601274058222770691e-02
-3.015568293631076813e-02
-2.145391143858432770e-02
4.314829781651496887e-02
5.711941048502922058e-03
1.549729239195585251e-02
3.007042035460472107e-02
7.161436602473258972e-03
-4.205408319830894470e-02
1.539995335042476654e-02
3.245423734188079834e-02
4.452941566705703735e-02
2.758220769464969635e-02
3.139039501547813416e-02
-2.599105611443519592e-02
3.423431888222694397e-02
1.389844343066215515e-03
-1.969725079834461212e-02
-1.993433944880962372e-02
-5.511472932994365692e-03
2.885493822395801544e-02
-2.551802247762680054e-02
-2.089841663837432861e-02
9.273174218833446503e-03
3.092559985816478729e-02
7.218659389764070511e-03
-3.226760402321815491e-02
-3.814737126231193542e-02
-2.965282090008258820e-02
-2.393141016364097595e-02
-3.257626667618751526e-02
7.840110920369625092e-03
-1.649276167154312134e-02
-3.995540365576744080e-02
-3.599083423614501953e-02
1.269667991437017918e-03
-4.094567894935607910e-02
-2.739972434937953949e-02
-2.820780500769615173e-02
2.903115563094615936e-02
-2.359196171164512634e-02
2.012863755226135254e-02
2.535109780728816986e-02
4.451090097427368164e-02
3.288044035434722900e-02
2.626966312527656555e-02
-3.863855451345443726e-02
-4.686019942164421082e-02
-2.836330793797969818e-03
-7.339025381952524185e-03
9.505698457360267639e-03
-4.472723975777626038e-02
-1.530790049582719803e-02
-2.342909865546971560e-04
2.614325843751430511e-02
1.752987736836075783e-03
-7.262873928993940353e-03
4.466899204999208450e-03
-1.281692367047071457e-02
3.362345509231090546e-03
1.548571698367595673e-02
-2.503535151481628418e-02
3.000996448099613190e-02
5.376589251682162285e-04
3.632492199540138245e-02
3.132859617471694946e-02
-1.470327470451593399e-02
-1.764244586229324341e-02
4.000858590006828308e-02
-4.806340113282203674e-02
-7.335795089602470398e-03
4.058863967657089233e-02
1.125567127019166946e-02
3.127154335379600525e-02
-1.848189346492290497e-02
-4.464522004127502441e-02
-1.784532913006842136e-03
2.433446608483791351e-02
-1.623344840481877327e-03
-3.344523534178733826e-02
1.028213091194629669e-02
-3.321679681539535522e-02
2.847558935172855854e-04
-3.254337608814239502e-02
6.676414050161838531e-03
-1.530310697853565216e-02
-5.335222929716110229e-03
2.845376357436180115e-02
7.279679412022233009e-04
3.153873607516288757e-02
-1.692966744303703308e-02
1.544275041669607162e-02
-1.793991401791572571e-02
-3.656207770109176636e-02
-2.808946929872035980e-02
2.778804488480091095e-02
1.277344953268766403e-02
5.144844576716423035e-02
1.148784533143043518e-02
-4.037501756101846695e-03
-6.779486779123544693e-03
-1.748845353722572327e-02
-3.653046861290931702e-02
3.663141280412673950e-02
-6.161732599139213562e-02
-2.371886745095252991e-02
-3.598436340689659119e-02
2.741346135735511780e-02
-4.111329466104507446e-02
-3.863735869526863098e-02
1.702246442437171936e-02
-1.264813542366027832e-02
2.456490136682987213e-02
-3.119837865233421326e-02
-4.364965017884969711e-03
-4.326066747307777405e-02
2.133118174970149994e-02
1.479011680930852890e-02
3.613337874412536621e-02
3.874031826853752136e-02
-2.735250815749168396e-02
-4.335014894604682922e-02
2.007607743144035339e-02
4.426278918981552124e-02
-3.259627521038055420e-02
-3.292222321033477783e-02
-4.581994190812110901e-02
-1.791786216199398041e-02
-2.373864129185676575e-02
7.617974653840065002e-03
-1.869820989668369293e-02
-3.317071869969367981e-02
-2.643536776304244995e-03
-2.736203931272029877e-02
-4.380424320697784424e-02
-6.197944656014442444e-02
-3.575210273265838623e-02
4.504951462149620056e-02
2.442864142358303070e-02
-8.399846032261848450e-03
5.138840992003679276e-03
-1.136779133230447769e-02
1.980840414762496948e-02
-5.805757269263267517e-02
-5.002338811755180359e-02
-6.324800197035074234e-03
4.610772430896759033e-02
-4.518267139792442322e-02
-2.052918449044227600e-02
4.153378307819366455e-02
-6.560845940839499235e-05
1.633910113014280796e-03
4.137141257524490356e-02
1.365545578300952911e-02
-5.105010047554969788e-02
-4.950634762644767761e-02
-4.470415785908699036e-02
-4.678211733698844910e-02
-1.123515237122774124e-02
-1.387913059443235397e-02
3.421765938401222229e-02
1.499804295599460602e-02
-3.324447572231292725e-02
-2.948440238833427429e-02
-1.800664328038692474e-02
-3.183173015713691711e-02
-3.360873833298683167e-02
-5.213620513677597046e-02
-9.529574774205684662e-03
-1.448060758411884308e-02
-9.282674291171133518e-04
4.182943701744079590e-02
-1.288748532533645630e-02
1.127418875694274902e-02
-3.884242847561836243e-02
-2.959196828305721283e-02
4.569587856531143188e-02
1.858199015259742737e-02
-2.637933567166328430e-02
-4.275191458873450756e-04
-9.315209463238716125e-03
1.251091901212930679e-02
2.381158247590065002e-02
-4.199459776282310486e-02
-2.847482264041900635e-02
-4.067518189549446106e-02
7.973290979862213135e-03
4.045134119223803282e-05
2.809734269976615906e-02
2.265382930636405945e-02
-1.184223964810371399e-02
1.217678072862327099e-03
2.927623316645622253e-02
2.225099876523017883e-02
1.235574111342430115e-02
1.911440864205360413e-02
-4.948931187391281128e-02
3.371411934494972229e-02
5.373286083340644836e-03
-3.768437728285789490e-02
1.828430918976664543e-03
1.209538057446479797e-02
-4.019490256905555725e-02
-9.640417061746120453e-03
-4.422595724463462830e-02
-1.778656430542469025e-02
-1.322146132588386536e-02
1.539980806410312653e-02
-2.701400965452194214e-02
-1.120403409004211426e-02
-1.575569808483123779e-02
2.947365492582321167e-02
2.773701027035713196e-02
-8.388986811041831970e-03
3.011553175747394562e-02
2.613728865981101990e-02
-2.477584220468997955e-02
7.830802933312952518e-04
-2.545733749866485596e-02
-1.261436194181442261e-02
2.182985190302133560e-03
-2.139353007078170776e-02
2.895504236221313477e-02
-2.978075295686721802e-02
6.979385856539011002e-03
-2.635737415403127670e-03
2.753908559679985046e-02
-4.883025959134101868e-02
-3.601045906543731689e-02
-4.323591664433479309e-02
-1.683343946933746338e-02
-1.056737639009952545e-02
-2.091099508106708527e-02
2.004638547077775002e-03
2.650108560919761658e-02
-4.816596861928701401e-03
4.057377204298973083e-02
6.076274905353784561e-03
2.165897563099861145e-02
-2.479973621666431427e-02
9.079729206860065460e-03
-2.511808648705482483e-02
1.488329377025365829e-02
4.408468678593635559e-02
-1.729409024119377136e-02
-2.236732281744480133e-02
-4.940896108746528625e-02
2.361772581934928894e-02
-2.740146964788436890e-02
-1.714332401752471924e-02
-4.147509858012199402e-02
2.941818721592426300e-02
-1.810316927731037140e-02
3.346015140414237976e-02
1.682298840023577213e-03
-1.665425300598144531e-02
1.105661783367395401e-02
-1.331075932830572128e-02
-1.482946798205375671e-02
-1.477374322712421417e-02
2.104264218360185623e-03
-4.930167272686958313e-02
-5.503913015127182007e-02
2.519244886934757233e-02
-3.647916764020919800e-02
-1.076283119618892670e-02
-6.421644985675811768e-02
-4.750160034745931625e-03
-1.859097741544246674e-02
-4.377898946404457092e-02
-2.394563145935535431e-02
-4.505922272801399231e-02
7.565368898212909698e-03
2.832226641476154327e-02
-9.596859104931354523e-03
-1.064458861947059631e-03
-1.701533235609531403e-02
-1.861613988876342773e-02
3.347853571176528931e-02
-5.121194943785667419e-02
3.985846042633056641e-02
-1.342153293080627918e-03
-1.605457998812198639e-02
-3.259482607245445251e-02
3.863925486803054810e-02
1.143657043576240540e-02
-3.515993431210517883e-02
1.778569445013999939e-02
-4.472701624035835266e-02
-2.263093192595988512e-04
8.866894058883190155e-03
8.793990127742290497e-03
3.078409656882286072e-02
1.411246974021196365e-02
1.076816115528345108e-02
-3.006149828433990479e-02
-4.909193888306617737e-02
1.466892287135124207e-02
5.996315740048885345e-03
-3.817062824964523315e-02
-3.828829154372215271e-02
-7.081778254359960556e-03
-1.210047677159309387e-02
2.615013346076011658e-02
2.294212952256202698e-02
-2.800142578780651093e-02
1.024471316486597061e-02
3.100395575165748596e-02
-5.130615551024675369e-03
-2.212773635983467102e-02
3.785667940974235535e-02
-3.800223022699356079e-02
1.305567473173141479e-02
4.606369882822036743e-02
-5.564673990011215210e-02
-3.165628015995025635e-02
-4.113525152206420898e-02
4.117584973573684692e-02
5.148538202047348022e-02
1.328572072088718414e-02
2.600818313658237457e-02
8.643223904073238373e-03
4.206620529294013977e-02
1.298686582595109940e-02
-5.498632322996854782e-03
1.128649897873401642e-02
2.854135818779468536e-02
-4.799049347639083862e-02
-3.600392863154411316e-02
-5.130697973072528839e-04
2.718983218073844910e-02
-4.718626383692026138e-03
-2.094424143433570862e-02
2.675185538828372955e-02
-2.822555601596832275e-03
7.117238361388444901e-03
2.399897761642932892e-02
-4.735910147428512573e-02
2.539510605856776237e-03
-4.652366973459720612e-03
2.151206508278846741e-02
-2.229019068181514740e-02
1.495029137004166842e-04
2.918515587225556374e-03
-4.681563377380371094e-02
4.709506779909133911e-02
-5.575872026383876801e-03
-1.135370694100856781e-02
3.569220006465911865e-02
-3.986069560050964355e-02
-3.766289725899696350e-02
-2.156376093626022339e-02
1.363593246787786484e-02
-2.384557947516441345e-02
-5.160126835107803345e-03
4.020497202873229980e-02
-2.459711395204067230e-02
1.617978699505329132e-02
2.974811196327209473e-02
5.504578351974487305e-03
1.518273726105690002e-02
-3.196431323885917664e-02
-5.917212739586830139e-02
1.653343322686851025e-03
1.252255681902170181e-02
-2.912453375756740570e-02
-5.089940968900918961e-03
1.152588613331317902e-02
-1.083109993487596512e-02
2.202345523983240128e-03
-3.110975958406925201e-02
-4.731428250670433044e-02
-2.810264378786087036e-02
4.172336310148239136e-02
-4.056091979146003723e-02
4.008127003908157349e-02
4.203925654292106628e-02
2.536061964929103851e-02
5.397148430347442627e-03
-3.216439485549926758e-02
-4.032007232308387756e-02
1.681307144463062286e-02
-2.806894108653068542e-02
-4.569443315267562866e-02
-3.989206999540328979e-02
-4.586466774344444275e-02
3.902484849095344543e-02
3.577011078596115112e-02
-5.497661232948303223e-02
-2.002688497304916382e-02
-1.971983537077903748e-02
-3.994790464639663696e-02
3.155573084950447083e-02
1.923749595880508423e-02
3.075846098363399506e-02
1.796219870448112488e-02
-8.160875178873538971e-03
3.801264241337776184e-02
1.657651364803314209e-02
1.307628862559795380e-02
3.739356249570846558e-02
2.283385768532752991e-02
-5.375893786549568176e-02
2.087277546525001526e-02
4.076054319739341736e-02
2.908827923238277435e-02
3.421255201101303101e-02
-5.334153398871421814e-02
-3.207008168101310730e-02
-4.611436650156974792e-02
1.734220050275325775e-02
-2.385770529508590698e-02
-9.897460229694843292e-03
-3.013064153492450714e-02
1.446264795958995819e-03
-2.614895068109035492e-02
1.265305094420909882e-02
2.278955467045307159e-02
3.281933069229125977e-02
-1.128297299146652222e-02
-3.143248334527015686e-02
2.805524691939353943e-02
-1.459608413279056549e-02
5.631149560213088989e-02
5.730178207159042358e-03
-1.163244340568780899e-02
3.670694306492805481e-02
1.874209009110927582e-02
1.978538930416107178e-02
-5.369459465146064758e-02
-5.062279850244522095e-02
3.186395019292831421e-02
5.118669569492340088e-02
-5.950242653489112854e-02
-5.358547903597354889e-03
1.528701093047857285e-02
2.786115556955337524e-02
5.992836784571409225e-03
-1.114394236356019974e-02
6.971203256398439407e-03
-1.285865996032953262e-02
-1.897626556456089020e-02
-2.434284612536430359e-02
-4.964194819331169128e-02
-2.118054032325744629e-02
-1.822235994040966034e-03
-3.739154338836669922e-02
-1.110990159213542938e-02
-2.837566193193197250e-03
1.559819094836711884e-02
4.978610202670097351e-02
-3.542763739824295044e-02
-1.765415444970130920e-02
-4.371307417750358582e-02
1.594441384077072144e-02
-1.632532104849815369e-03
-8.156919851899147034e-03
-1.529626315459609032e-03
4.564708471298217773e-02
7.258184999227523804e-02
3.573516150936484337e-03
1.206577289849519730e-02
-3.243663907051086426e-02
-5.176287610083818436e-03
2.155477926135063171e-02
-5.277366563677787781e-02
2.545722573995590210e-02
-7.968142628669738770e-03
1.342845614999532700e-02
2.156704105436801910e-02
3.834173455834388733e-02
-1.709536090493202209e-02
4.670626670122146606e-02
-3.824052587151527405e-02
-1.979413628578186035e-02
-2.559421584010124207e-02
4.132047668099403381e-02
-3.926178067922592163e-02
-5.386664718389511108e-02
2.918257191777229309e-02
-5.583328660577535629e-03
-1.063114311546087265e-02
1.731825619935989380e-02
-2.417409326881170273e-03
-5.188594385981559753e-02
-2.539048716425895691e-02
6.253605708479881287e-03
-3.143646568059921265e-02
3.864760743454098701e-03
-1.119371782988309860e-02
4.490241035819053650e-02
3.235798701643943787e-02
-2.136201784014701843e-02
1.366426981985569000e-02
5.811653565615415573e-03
2.410003915429115295e-03
-5.748833715915679932e-02
2.581081818789243698e-03
2.185581624507904053e-02
-4.609550524037331343e-04
-1.631237752735614777e-02
-4.287371411919593811e-03
3.193908184766769409e-02
1.280057989060878754e-02
-1.666946150362491608e-02
6.908612558618187904e-04
-1.612467691302299500e-02
-3.699100390076637268e-02
1.150315161794424057e-02
-1.421819068491458893e-02
-4.208755679428577423e-03
-3.765536472201347351e-02
1.242648996412754059e-02
-3.851125761866569519e-02
-2.928190678358078003e-02
9.065501391887664795e-03
-1.059204456396400928e-03
-5.988206714391708374e-02
-5.068861693143844604e-02
-3.795542987063527107e-03
-1.066211052238941193e-02
-4.476595204323530197e-03
-3.620295599102973938e-02
2.405730448663234711e-02
6.925249006599187851e-03
2.916806563735008240e-02
2.979831025004386902e-02
-2.783420123159885406e-02
-1.985911466181278229e-02
-6.070684269070625305e-02
-4.717804864048957825e-02
-1.157771982252597809e-02
-3.053010674193501472e-03
-5.151753500103950500e-02
-3.880133107304573059e-02
3.690877184271812439e-02
1.711302995681762695e-02
4.810453206300735474e-02
-2.769876830279827118e-02
-6.997494492679834366e-03
-4.508117958903312683e-02
3.152617439627647400e-02
6.451494991779327393e-03
-4.331741482019424438e-03
-5.577010102570056915e-03
1.267993007786571980e-03
3.146444633603096008e-02
-5.033643916249275208e-02
5.312759429216384888e-03
4.771287553012371063e-03
-3.976280987262725830e-02
3.096409142017364502e-02
-3.718570619821548462e-02
-1.457763183861970901e-02
-4.167163372039794922e-02
-4.479235038161277771e-02
-9.248248301446437836e-03
-2.811575122177600861e-02
1.875359006226062775e-02
-3.909897059202194214e-02
4.980524629354476929e-02
-1.289157476276159286e-02
1.657046377658843994e-02
-1.715454459190368652e-02
1.278331317007541656e-02
-1.747228577733039856e-02
-9.841257706284523010e-03
3.579925373196601868e-02
-1.112869381904602051e-02
-1.063380576670169830e-02
2.837543562054634094e-02
5.484550073742866516e-02
-6.420499831438064575e-02
2.012478373944759369e-02
-5.971809383481740952e-03
7.943443022668361664e-03
-1.243904326111078262e-02
-1.344247255474328995e-02
5.790002644062042236e-03
-1.436644699424505234e-02
1.459777168929576874e-02
-3.857725858688354492e-02
-1.297999289818108082e-03
2.286409959197044373e-03
-7.606960367411375046e-03
-4.942087456583976746e-03
-3.102535568177700043e-02
-5.701237358152866364e-03
-3.222339972853660583e-02
2.064851671457290649e-02
-2.140570431947708130e-02
-2.412766031920909882e-02
-6.810181366745382547e-05
-3.722042962908744812e-02
-2.154706045985221863e-02
-1.757614128291606903e-02
8.203818462789058685e-03
-6.124896928668022156e-02
2.522690035402774811e-02
4.566846881061792374e-03
1.637609908357262611e-03
4.286042600870132446e-02
4.086833074688911438e-02
1.513885799795389175e-02
-2.329728193581104279e-02
-1.665520109236240387e-02
-3.788131847977638245e-02
-3.818042576313018799e-02
1.389850303530693054e-02
-5.221738293766975403e-02
-2.022594586014747620e-02
4.287749994546175003e-03
-3.952727094292640686e-02
-2.585100755095481873e-02
3.517108038067817688e-02
-4.588275775313377380e-02
-2.936698310077190399e-02
-3.573486208915710449e-02
3.653404861688613892e-02
2.287930995225906372e-02
4.211910814046859741e-02
-3.902276232838630676e-02
-2.965194918215274811e-02
-2.525464631617069244e-02
-3.054982423782348633e-02
1.395054254680871964e-02
-4.301264509558677673e-02
-1.007649302482604980e-02
1.320934761315584183e-02
1.535172760486602783e-02
-4.832135140895843506e-02
-7.958757691085338593e-03
3.206986561417579651e-02
3.824629262089729309e-02
2.938015572726726532e-02
-1.190944109112024307e-02
-3.896985203027725220e-02
1.099761854857206345e-02
1.869804970920085907e-02
-2.326608635485172272e-02
-2.676379121840000153e-02
-3.245867043733596802e-02
-4.456225037574768066e-02
-3.488017991185188293e-02
-7.874515140429139137e-04
-1.611413806676864624e-02
2.387476153671741486e-02
1.433075778186321259e-02
2.597887627780437469e-02
-1.208409108221530914e-02
-1.974811963737010956e-02
-3.299049288034439087e-02
-1.164033263921737671e-02
-2.760722301900386810e-02
-4.429594054818153381e-02
-4.290264099836349487e-02
1.164123881608247757e-02
-4.402789846062660217e-02
2.108225971460342407e-02
-2.472839318215847015e-02
2.722989395260810852e-02
2.397873997688293457e-02
2.762465365231037140e-02
-2.326198481023311615e-02
-3.518410027027130127e-02
-1.229284238070249557e-02
1.644041575491428375e-02
3.286113962531089783e-02
-3.571363911032676697e-02
1.160557661205530167e-02
2.023649774491786957e-02
2.522023208439350128e-02
-1.749871671199798584e-02
-1.882448233664035797e-02
2.142794616520404816e-02
2.401796914637088776e-02
-3.475394845008850098e-02
1.049663685262203217e-02
3.745500370860099792e-02
8.856764994561672211e-03
2.954055555164813995e-02
5.530260968953371048e-03
1.835291832685470581e-02
-4.031485691666603088e-02
-3.265639394521713257e-02
2.683042176067829132e-02
9.416259825229644775e-03
-4.640548303723335266e-02
-3.035492263734340668e-02
1.785476692020893097e-02
-9.090481325984001160e-03
-2.792577724903821945e-03
-4.779013991355895996e-02
-9.015584364533424377e-03
-3.293268382549285889e-02
4.211011156439781189e-02
-3.052609786391258240e-02
2.633802033960819244e-02
-3.130391240119934082e-02
-1.269654929637908936e-02
-3.450236842036247253e-02
-1.166276074945926666e-02
2.754887565970420837e-02
-2.552421391010284424e-02
-4.253436252474784851e-02
-3.769376128911972046e-02
3.826438449323177338e-03
-1.335106045007705688e-02
4.686131142079830170e-03
-1.119631621986627579e-02
1.923110708594322205e-02
2.656495897099375725e-03
9.701503440737724304e-04
-2.955085970461368561e-02
2.442060038447380066e-02
4.367147013545036316e-02
-2.753832377493381500e-02
2.412546239793300629e-02
1.876574242487549782e-03
2.673947997391223907e-02
4.029146209359169006e-02
-2.104930207133293152e-02
-5.757553037256002426e-03
-1.826461777091026306e-02
1.842810586094856262e-02
-2.862016856670379639e-02
-1.263314299285411835e-02
-1.835588924586772919e-02
-7.441388443112373352e-03
-7.310438901185989380e-03
-3.256309777498245239e-02
-2.015457302331924438e-02
2.921194955706596375e-02
3.844472020864486694e-02
-4.724060744047164917e-02
-4.523873329162597656e-02
1.358043681830167770e-02
-3.438505902886390686e-02
2.804154064506292343e-03
1.502483524382114410e-02
-1.478287298232316971e-02
6.952813360840082169e-03
-4.660065285861492157e-03
7.651038002222776413e-03
-1.383554306812584400e-03
1.051528193056583405e-02
-2.800096757709980011e-02
2.463653869926929474e-02
-2.369449287652969360e-02
1.323023531585931778e-02
-5.740896798670291901e-03
3.018839657306671143e-02
1.865788362920284271e-02
5.748334806412458420e-04
2.810638770461082458e-02
2.763447165489196777e-02
3.303717076778411865e-02
-4.626740887761116028e-02
1.092005521059036255e-02
4.521483927965164185e-02
1.949854753911495209e-02
9.026848711073398590e-03
-8.404965512454509735e-03
-2.069680206477642059e-02
-3.602070733904838562e-02
-3.074572235345840454e-02
-1.498618628829717636e-02
1.227034442126750946e-02
2.273915521800518036e-02
-5.482636764645576477e-02
-4.846256598830223083e-02
-9.907709900289773941e-04
1.890402846038341522e-02
-4.900402203202247620e-02
1.678666286170482635e-02
4.039615765213966370e-02
-3.529351577162742615e-02
3.523623198270797729e-02
1.930349878966808319e-02
-1.879517338238656521e-03
3.381194174289703369e-02
-3.839882835745811462e-02
-1.638805679976940155e-02
2.527823112905025482e-02
-1.660571247339248657e-02
-3.363920748233795166e-02
1.732691656798124313e-03
-2.858824469149112701e-02
2.879444137215614319e-02
-1.166816521435976028e-02
2.871837839484214783e-02
-2.031897939741611481e-02
-4.026070237159729004e-02
2.832852117717266083e-02
1.697820425033569336e-02
1.089002937078475952e-02
-4.962644539773464203e-03
-2.223815210163593292e-02
-3.969202190637588501e-02
2.612940967082977295e-03
-4.296494275331497192e-02
-1.614914275705814362e-02
1.084092818200588226e-02
2.840672247111797333e-02
-2.469513379037380219e-02
2.319154515862464905e-02
1.504440326243638992e-02
4.138532653450965881e-02
9.750039316713809967e-03
1.483164168894290924e-02
2.749359980225563049e-02
2.960012294352054596e-02
4.045366123318672180e-02
1.014782488346099854e-02
-3.774059005081653595e-03
-3.646419942378997803e-02
2.123847790062427521e-02
-2.133321389555931091e-02
-8.049305528402328491e-03
-3.366181254386901855e-02
-3.250724449753761292e-02
1.294125150889158249e-02
-1.842993684113025665e-02
-4.090866073966026306e-02
-4.985994473099708557e-02
3.559321537613868713e-02
-3.654872998595237732e-02
3.107325546443462372e-02
-9.817562066018581390e-03
2.407217212021350861e-02
-4.973275959491729736e-02
2.123356610536575317e-02
-7.314202957786619663e-04
-4.239095002412796021e-02
-2.356229815632104874e-03
-2.224192768335342407e-02
-1.839615590870380402e-02
-8.614180609583854675e-03
-5.270646885037422180e-02
-3.333915770053863525e-02
2.826084196567535400e-02
-1.994055882096290588e-02
-6.942308507859706879e-03
-1.414074935019016266e-02
4.763839766383171082e-02
1.925528794527053833e-02
7.457681931555271149e-03
-3.849213942885398865e-02
-1.564371772110462189e-02
2.816489152610301971e-02
4.488803388085216284e-04
-2.440267801284790039e-02
-5.139117129147052765e-03
2.444384805858135223e-02
1.051284186542034149e-02
8.779437281191349030e-03
2.575835399329662323e-02
4.752691835165023804e-03
2.897190675139427185e-02
-4.231701418757438660e-02
-1.929237879812717438e-02
-4.533374682068824768e-02
-8.814170956611633301e-03
-1.644524891162291169e-04
-1.598186232149600983e-02
1.118056569248437881e-02
-4.793506488204002380e-02
-1.662044972181320190e-02
-1.497509796172380447e-02
-3.784911334514617920e-02
-3.828173503279685974e-02
3.014727495610713959e-02
-4.159479960799217224e-02
2.170076966285705566e-02
-3.198204562067985535e-02
-1.348300557583570480e-02
-2.606947906315326691e-02
4.472281038761138916e-02
8.579369634389877319e-03
2.509823068976402283e-02
3.120313026010990143e-02
1.726211421191692352e-02
6.364505738019943237e-03
-2.358979312703013420e-03
-1.170586701482534409e-02
-1.588234491646289825e-02
2.953667007386684418e-02
1.643786393105983734e-02
-1.835437305271625519e-02
5.407323129475116730e-03
-8.687941357493400574e-03
1.217221259139478207e-03
7.795151323080062866e-03
-1.914320886135101318e-02
3.595640882849693298e-02
4.197616130113601685e-03
1.000958960503339767e-02
2.230414748191833496e-02
2.364500612020492554e-02
-4.340786021202802658e-03
-4.589629359543323517e-03
-2.850436978042125702e-02
2.923419326543807983e-02
2.501417323946952820e-02
-1.048906240612268448e-03
2.807602100074291229e-02
-3.990205004811286926e-02
1.878092065453529358e-02
-2.468431554734706879e-02
-3.154654055833816528e-02
-2.524022420402616262e-04
-1.655777730047702789e-02
-3.755142912268638611e-02
4.008546471595764160e-02
-1.849992014467716217e-02
-8.067675866186618805e-03
7.876740768551826477e-03
4.126952029764652252e-03
-4.696382675319910049e-03
-1.090103015303611755e-02
2.537029609084129333e-02
-3.919848427176475525e-02
-1.267575751990079880e-02
-1.554185990244150162e-02
-1.404851768165826797e-02
-4.306549578905105591e-02
-8.871953934431076050e-03
-1.829462498426437378e-02
2.105130255222320557e-02
-3.048834204673767090e-02
1.408008392900228500e-02
-5.213500000536441803e-03
1.038235146552324295e-02
7.192416582256555557e-03
-2.336356416344642639e-02
3.539008274674415588e-02
1.168218161910772324e-02
-4.236785322427749634e-02
2.075110189616680145e-02
-4.167199134826660156e-02
6.994596216827630997e-03
7.067639380693435669e-04
3.034746646881103516e-02
-2.506136149168014526e-02
-1.622011326253414154e-02
-3.285520151257514954e-02
-4.091105982661247253e-02
1.798248104751110077e-02
3.718621283769607544e-02
1.037765666842460632e-02
-2.433980628848075867e-02
-1.728065684437751770e-02
-1.310324482619762421e-02
-6.692237686365842819e-03
1.351397577673196793e-02
-4.195961356163024902e-02
-2.902385964989662170e-02
-5.200736224651336670e-02
-9.094585664570331573e-03
-4.108030349016189575e-02
-1.017124671489000320e-02
-2.499246411025524139e-02
2.826539054512977600e-02
-7.730936165899038315e-03
-2.419980615377426147e-02
-2.244396135210990906e-02
-2.578795328736305237e-02
5.837316857650876045e-04
-3.128803521394729614e-02
-8.288453333079814911e-03
-8.101370185613632202e-03
-1.014702580869197845e-02
2.679951488971710205e-02
3.592475503683090210e-02
2.305221743881702423e-02
-2.583199180662631989e-02
1.291055465117096901e-03
-3.672089055180549622e-02
4.142021294683218002e-03
2.094527333974838257e-02
-9.903790429234504700e-03
1.641240343451499939e-02
-4.488939046859741211e-02
8.099885657429695129e-03
-7.516595069319009781e-03
-3.784249350428581238e-02
-1.497197616845369339e-02
-4.021441563963890076e-02
-4.704742133617401123e-02
1.886803098022937775e-02
-7.000714074820280075e-03
-2.392839267849922180e-02
-2.692124992609024048e-02
1.653479598462581635e-02
1.750341989099979401e-02
-3.076449595391750336e-02
3.858876228332519531e-02
2.538817189633846283e-02
1.185978483408689499e-02
-3.079202584922313690e-02
-1.810226030647754669e-02
3.872013476211577654e-04
3.692988306283950806e-02
1.032067276537418365e-02
2.640730328857898712e-02
-1.379375904798507690e-02
3.724536299705505371e-02
-3.313642740249633789e-02
3.279015421867370605e-02
-2.592437341809272766e-02
-2.826901385560631752e-03
-3.728231042623519897e-02
-1.675587333738803864e-02
-8.772855624556541443e-03
-2.558767236769199371e-02
-7.838317542336881161e-04
-1.003807410597801208e-02
-3.178808093070983887e-02
-2.040838636457920074e-02
-1.323907356709241867e-02
-2.581163123250007629e-02
2.640439383685588837e-02
-4.453112930059432983e-02
-5.381634831428527832e-02
-3.109614364802837372e-02
2.964093536138534546e-02
-4.899280890822410583e-02
2.756471186876296997e-02
-1.422738749533891678e-02
2.379635721445083618e-02
4.131819121539592743e-03
2.356097474694252014e-02
3.199972212314605713e-02
-2.718738652765750885e-02
-2.772433124482631683e-02
-9.899651631712913513e-03
4.192948341369628906e-02
-1.375188957899808884e-02
-2.690266072750091553e-02
1.924772164784371853e-03
-5.707877688109874725e-03
2.876632101833820343e-02
-4.097729176282882690e-02
4.808223247528076172e-02
1.974982954561710358e-02
-2.246127650141716003e-02
3.044799715280532837e-02
-2.777796983718872070e-02
-2.135501243174076080e-02
-7.002682425081729889e-03
1.612123101949691772e-02
-5.063649266958236694e-02
1.852608844637870789e-02
-9.964419528841972351e-03
-2.943772822618484497e-02
3.013836964964866638e-02
-3.125780820846557617e-02
3.110026568174362183e-02
-3.500365093350410461e-02
-5.208367947489023209e-03
-4.367425106465816498e-03
-1.772918738424777985e-02
3.481914103031158447e-02
-3.962295129895210266e-03
-2.209274098277091980e-02
1.477106660604476929e-02
-3.721396625041961670e-02
1.017413567751646042e-02
3.399058058857917786e-02
1.072477363049983978e-02
-4.124278575181961060e-02
1.158463954925537109e-02
-2.924373373389244080e-03
-3.311369195580482483e-02
-1.025679334998130798e-02
4.090731218457221985e-02
-2.307199873030185699e-02
-4.906166717410087585e-02
-1.223816629499197006e-02
-4.588693007826805115e-02
-1.627638237550854683e-03
-3.119948320090770721e-02
-5.550035275518894196e-03
-4.153189808130264282e-02
-1.691264845430850983e-02
-3.013776242733001709e-02
-3.005798347294330597e-02
2.245886810123920441e-02
-2.446363307535648346e-02
-8.345481939613819122e-03
1.302783284336328506e-02
5.947443190962076187e-03
1.651318743824958801e-02
1.312092691659927368e-02
2.247760072350502014e-02
2.106854080921038985e-04
2.123660594224929810e-02
4.103875719010829926e-03
3.420510794967412949e-03
-3.968061134219169617e-02
-4.067764803767204285e-02
6.145514547824859619e-03
2.556273154914379120e-02
3.217076137661933899e-02
-4.229751974344253540e-02
-4.655426740646362305e-02
2.114589512348175049e-02
3.310777992010116577e-02
-3.617233829572796822e-03
-8.813966065645217896e-03
2.456599287688732147e-02
-4.095397517085075378e-02
-3.652067109942436218e-02
-1.593340933322906494e-02
-3.979556262493133545e-02
-3.734163939952850342e-02
-1.964951492846012115e-02
-4.119056090712547302e-02
-6.530713289976119995e-03
4.359144344925880432e-02
-7.571274414658546448e-03
3.780520707368850708e-02
9.883455000817775726e-03
-3.636357188224792480e-02
3.600001707673072815e-02
2.893409691751003265e-02
-1.552693545818328857e-02
-3.281811252236366272e-02
3.757753595709800720e-02
1.063090190291404724e-02
2.021490223705768585e-02
-5.008526891469955444e-02
-2.492554299533367157e-02
2.755356207489967346e-02
-3.394140675663948059e-02
-4.366910457611083984e-02
-4.513663053512573242e-02
1.167385280132293701e-02
-6.036521866917610168e-03
-2.244466450065374374e-03
-3.815034404397010803e-02
-4.361078888177871704e-02
-7.116421125829219818e-03
-4.264248907566070557e-02
-5.196752026677131653e-02
1.138171833008527756e-02
-8.040367625653743744e-03
3.195502236485481262e-02
-3.761189803481101990e-02
-3.767701238393783569e-02
-2.013524994254112244e-02
1.434414740651845932e-02
-2.077581826597452164e-03
-3.304679319262504578e-02
-5.360522866249084473e-02
-5.466741509735584259e-03
-6.877084262669086456e-03
5.662106350064277649e-02
1.637840643525123596e-02
-3.741436824202537537e-02
2.167134173214435577e-02
-5.451496317982673645e-02
-5.377194657921791077e-02
-2.308876998722553253e-02
-3.510805591940879822e-02
-2.569778822362422943e-02
-2.270054444670677185e-02
-5.661282688379287720e-03
4.319437593221664429e-02
3.215885534882545471e-02
3.408854454755783081e-02
-4.441156517714262009e-03
-3.734084218740463257e-02
-1.435064332326874137e-04
6.985526997596025467e-04
-1.362200733274221420e-02
2.947579324245452881e-02
2.260756120085716248e-02
2.507094852626323700e-02
2.817520499229431152e-02
2.186060138046741486e-02
3.200314566493034363e-02
-1.740921288728713989e-02
-2.400052174925804138e-02
-4.556983243674039841e-03
-1.075524650514125824e-02
3.384686261415481567e-02
2.390853129327297211e-02
2.543674595654010773e-02
2.571837417781352997e-02
-1.574695296585559845e-02
-4.092442616820335388e-02
6.702868733555078506e-03
-1.980478502810001373e-02
7.379641290754079819e-03
-1.498887315392494202e-02
3.687861561775207520e-02
8.205990307033061981e-03
-3.616980090737342834e-02
9.832547046244144440e-03
-3.174196183681488037e-02
4.436837509274482727e-03
7.103096228092908859e-03
-2.041781134903430939e-02
-1.971722953021526337e-02
-1.943184621632099152e-02
-2.756744064390659332e-02
-3.915235027670860291e-02
-1.218306180089712143e-02
2.195697836577892303e-02
-4.850329132750630379e-04
-4.686229303479194641e-02
5.299489572644233704e-02
3.860585764050483704e-02
-3.068599104881286621e-02
4.345744848251342773e-02
-3.828259557485580444e-02
-1.665998436510562897e-02
1.470681466162204742e-02
1.510899234563112259e-02
1.149501651525497437e-03
-2.104249410331249237e-02
6.432696245610713959e-03
-2.771639823913574219e-02
-3.915798291563987732e-02
-3.336317837238311768e-02
3.966253623366355896e-02
-1.809931732714176178e-02
1.919709146022796631e-02
-5.539113655686378479e-02
-2.471678331494331360e-02
-4.095010459423065186e-02
3.494881838560104370e-02
8.282071910798549652e-03
-3.165322542190551758e-02
3.352456726133823395e-03
1.249576359987258911e-02
-4.821938276290893555e-02
-2.613554149866104126e-02
-1.215912308543920517e-02
-3.488326445221900940e-02
1.968695595860481262e-02
3.908063098788261414e-02
1.729019917547702789e-02
-1.697231270372867584e-02
3.320347517728805542e-02
-4.159528389573097229e-02
4.669606219977140427e-03
-8.569247089326381683e-03
2.738286927342414856e-02
-1.104779448360204697e-02
-3.009682521224021912e-02
3.387756180018186569e-03
-1.817497238516807556e-02
-4.513389244675636292e-02
-3.982803970575332642e-02
-1.916698180139064789e-02
4.434372822288423777e-04
1.165626477450132370e-02
-2.773612737655639648e-02
-1.143437111750245094e-03
-3.224159777164459229e-02
1.926710270345211029e-02
-3.889682888984680176e-02
1.635907776653766632e-02
-2.789293788373470306e-02
3.513365238904953003e-02
-1.712375693023204803e-02
-3.082884475588798523e-02
1.800403743982315063e-02
3.597185015678405762e-02
2.803304791450500488e-02
1.025880500674247742e-02
9.449700592085719109e-04
-3.991381078958511353e-02
-3.246567770838737488e-02
1.057711895555257797e-02
-8.149733766913414001e-03
-1.996397227048873901e-02
1.886556972749531269e-03
2.417293936014175415e-02
2.658415958285331726e-02
3.578624222427606583e-03
1.462561730295419693e-02
1.201377995312213898e-02
-4.048974066972732544e-02
2.867211401462554932e-02
2.275517582893371582e-02
-3.102551214396953583e-02
-2.479180879890918732e-02
3.838907927274703979e-02
-1.752934604883193970e-02
-1.143230497837066650e-02
-1.991132274270057678e-02
2.217813953757286072e-02
-3.861363045871257782e-03
-2.591935219243168831e-03
-2.006371272727847099e-03
-9.270050562918186188e-03
1.395359355956315994e-02
-2.693345770239830017e-02
1.507577206939458847e-02
-1.503419596701860428e-03
4.625813290476799011e-02
-8.533990941941738129e-03
-2.636884571984410286e-03
-1.290745288133621216e-02
1.162027847021818161e-02
-3.322444856166839600e-02
-1.077223569154739380e-02
-2.211869321763515472e-02
-2.471643313765525818e-02
-6.045590620487928391e-03
-4.043255001306533813e-02
1.017528958618640900e-02
-6.709393579512834549e-03
-2.671400643885135651e-02
-4.002042487263679504e-02
2.196060121059417725e-02
2.350452169775962830e-02
-6.313524208962917328e-03
-2.011733874678611755e-02
2.676030155271291733e-03
3.590102866291999817e-02
4.212605580687522888e-02
2.372359158471226692e-03
-1.700160279870033264e-02
3.456829581409692764e-03
-4.497425258159637451e-02
-2.869097515940666199e-02
-4.361605644226074219e-02
-3.241780400276184082e-02
5.159222986549139023e-03
-2.134712226688861847e-02
1.830432750284671783e-02
1.404100190848112106e-02
1.448267512023448944e-02
-2.134121954441070557e-02
-2.100195921957492828e-02
-6.129638757556676865e-03
1.095624268054962158e-02
8.552675135433673859e-03
3.606990724802017212e-02
4.274210077710449696e-04
3.068633563816547394e-02
-2.578355185687541962e-02
-4.746418073773384094e-02
1.212465856224298477e-02
-4.319082945585250854e-02
-1.956886239349842072e-02
2.089605852961540222e-02
-2.559623681008815765e-02
-6.287105847150087357e-03
-2.024885825812816620e-02
1.443754602223634720e-02
-3.508587554097175598e-02
-2.419479191303253174e-02
-1.593230478465557098e-02
-3.186000138521194458e-02
1.316043641418218613e-02
-1.729372330009937286e-02
2.600849047303199768e-02
-2.697108872234821320e-02
2.401719801127910614e-02
-4.137381911277770996e-02
1.103723607957363129e-02
-1.012033317238092422e-02
-4.601677879691123962e-02
-3.663426265120506287e-02
5.929965525865554810e-03
2.107264660298824310e-02
-1.603841222822666168e-02
1.164816599339246750e-02
2.609000727534294128e-02
-2.763478830456733704e-02
-3.644877299666404724e-02
-2.333093248307704926e-02
3.691656515002250671e-02
-2.830607257783412933e-02
1.224981900304555893e-02
4.132803902029991150e-02
-1.153751183301210403e-02
-3.289644420146942139e-02
4.776621982455253601e-02
1.256210170686244965e-02
-1.271397527307271957e-02
-1.219889614731073380e-02
4.628187045454978943e-03
1.700874418020248413e-02
3.866567835211753845e-02
-1.100631710141897202e-02
7.854311726987361908e-03
1.780408434569835663e-03
2.821352705359458923e-02
1.488578971475362778e-02
1.663894020020961761e-02
7.676795125007629395e-03
2.978265285491943359e-02
-1.714882999658584595e-02
-3.664891794323921204e-02
2.983444370329380035e-02
-1.696234568953514099e-02
4.138942807912826538e-02
3.213964402675628662e-02
-4.655152931809425354e-02
-3.861458506435155869e-03
2.691083401441574097e-02
2.261131769046187401e-03
3.676398843526840210e-02
-1.373610179871320724e-02
3.087025880813598633e-02
9.547132067382335663e-03
-4.657942801713943481e-02
-8.220506832003593445e-03
-2.361013554036617279e-03
-2.847222425043582916e-02
2.017773315310478210e-02
1.283564418554306030e-02
-1.384228561073541641e-02
3.300621733069419861e-02
-2.892913669347763062e-02
-1.004749070852994919e-02
-1.353184785693883896e-02
3.392878919839859009e-03
-4.023230075836181641e-02
3.575107082724571228e-02
2.698503062129020691e-02
-1.666385331191122532e-03
-3.780481056310236454e-04
-1.681858114898204803e-02
-1.670042425394058228e-02
-3.593037649989128113e-02
2.013675495982170105e-02
2.257561683654785156e-02
2.185527794063091278e-02
-2.643520198762416840e-02
-3.421046957373619080e-02
-2.709375880658626556e-02
4.299909248948097229e-02
-2.464746870100498199e-02
3.828428313136100769e-02
1.231254450976848602e-02
2.523744478821754456e-02
1.153950695879757404e-03
1.972072012722492218e-02
-2.114607021212577820e-03
-2.057560347020626068e-02
-3.202589228749275208e-02
9.636444039642810822e-03
-3.989306464791297913e-02
-3.248657658696174622e-02
2.154604345560073853e-02
-4.901737719774246216e-02
-1.180838141590356827e-02
-3.243872523307800293e-02
1.492218580096960068e-02
1.167215086752548814e-04
-2.848460525274276733e-02
2.974636154249310493e-03
-4.120504949241876602e-03
-3.834430500864982605e-02
-2.390030771493911743e-02
-1.440888736397027969e-02
2.177398279309272766e-02
-2.426949329674243927e-02
1.398492138832807541e-02
1.681744866073131561e-02
1.703262887895107269e-02
-2.602796070277690887e-02
1.975954324007034302e-02
7.071482017636299133e-03
-2.058067731559276581e-02
3.441777080297470093e-02
1.616859808564186096e-02
-4.706061258912086487e-02
-1.621125079691410065e-02
3.695826977491378784e-02
-3.728690370917320251e-02
-2.850581705570220947e-02
8.351278491318225861e-03
3.216069936752319336e-02
7.401052396744489670e-03
-3.707262501120567322e-02
2.213647821918129921e-03
-1.789255038602277637e-04
3.498622030019760132e-02
1.835236884653568268e-02
-1.135679893195629120e-02
3.545485064387321472e-02
2.828731376212090254e-04
-4.792131856083869934e-02
1.794327236711978912e-02
3.456674888730049133e-02
-3.496812283992767334e-02
-3.827377781271934509e-02
-2.337048575282096863e-02
4.363147914409637451e-02
-5.001210421323776245e-02
4.488290473818778992e-02
-4.744737595319747925e-02
1.022780966013669968e-02
4.282462596893310547e-02
-2.227006107568740845e-02
-4.242189694195985794e-03
-2.551079541444778442e-02
-2.679822221398353577e-02
-4.623092338442802429e-02
-4.297346249222755432e-02
2.800297364592552185e-02
4.645542241632938385e-03
2.673411555588245392e-02
-1.981387287378311157e-02
-1.388244796544313431e-02
2.378086932003498077e-02
-3.683034097775816917e-03
1.367076486349105835e-02
-2.948636375367641449e-02
2.961601130664348602e-02
-1.447289716452360153e-02
1.249409839510917664e-02
3.641737625002861023e-02
2.139301225543022156e-02
2.167145535349845886e-02
-9.670520201325416565e-03
1.764201372861862183e-02
-5.168802663683891296e-02
-5.395098030567169189e-02
-3.706545010209083557e-02
5.134993791580200195e-02
4.666270688176155090e-02
2.185430377721786499e-02
-4.559708293527364731e-03
9.811295196413993835e-03
-8.039220236241817474e-03
-2.058344194665551186e-03
-3.722434863448143005e-02
1.533277332782745361e-03
-4.166582226753234863e-02
-6.218972150236368179e-03
2.131946757435798645e-02
-3.338638320565223694e-02
3.796259872615337372e-03
-9.656534530222415924e-03
1.596350781619548798e-02
-3.234104067087173462e-02
-1.259632315486669540e-02
3.778552636504173279e-02
2.596857398748397827e-02
-4.041595757007598877e-02
-4.693743586540222168e-02
-1.888244412839412689e-03
3.782032057642936707e-02
1.608199626207351685e-02
1.956741139292716980e-02
-1.182542368769645691e-02
1.484882924705743790e-02
-2.671431005001068115e-02
2.273561991751194000e-02
-3.833064809441566467e-03
1.232971344143152237e-02
-2.092625200748443604e-02
1.679584942758083344e-02
-4.819960519671440125e-02
-5.218991078436374664e-03
2.231592684984207153e-02
-3.425040841102600098e-02
1.452617812901735306e-02
-2.632310148328542709e-03
-3.624719753861427307e-02
-4.153198562562465668e-03
-4.137057438492774963e-02
-3.098060190677642822e-02
2.631761878728866577e-02
-8.587419142713770270e-05
1.115560717880725861e-02
2.875581197440624237e-02
-2.012030454352498055e-03
-1.024036784656345844e-03
-4.790405742824077606e-03
-2.414470352232456207e-02
-2.326222322881221771e-02
6.210168940015137196e-04
2.569784037768840790e-02
3.677154332399368286e-02
-1.349424943327903748e-02
2.370651997625827789e-02
8.275083266198635101e-03
-1.962094753980636597e-02
-2.940766140818595886e-02
-9.078083094209432602e-04
-2.670564502477645874e-02
3.484541177749633789e-02
1.376758888363838196e-02
-4.323485866189002991e-02
-5.023064464330673218e-02
6.814184598624706268e-03
1.848957873880863190e-02
-3.268937394022941589e-02
-4.447326809167861938e-02
2.568033058196306229e-03
3.580519184470176697e-02
-4.445262253284454346e-02
5.193057470023632050e-03
2.055211365222930908e-02
6.693019997328519821e-03
2.526140399277210236e-02
-1.540802512317895889e-02
5.584528669714927673e-03
-1.039485679939389229e-03
3.266563639044761658e-03
-4.041507467627525330e-02
-4.026014730334281921e-02
3.213761374354362488e-02
-1.397323887795209885e-02
3.450904041528701782e-02
-9.380945935845375061e-03
2.434931881725788116e-02
-7.189088035374879837e-03
4.909965209662914276e-03
-2.303072065114974976e-02
4.838702082633972168e-02
-1.428469084203243256e-02
-1.117757288739085197e-03
-3.996760398149490356e-02
-3.172363713383674622e-02
-4.453086107969284058e-02
-2.261205343529582024e-03
1.151257939636707306e-02
6.876765284687280655e-03
-5.553031340241432190e-03
4.885064437985420227e-03
-9.074833244085311890e-03
1.608464680612087250e-02
-4.307958483695983887e-02
4.961685463786125183e-02
-3.165844455361366272e-02
-5.204232782125473022e-02
-2.836892381310462952e-02
5.679520778357982635e-03
3.222397761419415474e-03
3.622683882713317871e-02
-1.763132773339748383e-02
3.515515476465225220e-02
-1.377506181597709656e-02
-3.811172395944595337e-02
2.474267035722732544e-02
-5.140318349003791809e-02
-3.482978418469429016e-02
-4.949081223458051682e-03
2.182701230049133301e-02
-3.265049774199724197e-03
-2.784293331205844879e-02
-2.780991792678833008e-02
3.722392488270998001e-03
5.135125946253538132e-03
-4.954812116920948029e-03
-1.171747874468564987e-02
5.003815982490777969e-03
-4.457108303904533386e-02
9.537183679640293121e-03
4.176377132534980774e-02
-2.622553333640098572e-02
3.853991255164146423e-02
-2.149895019829273224e-02
-5.558195337653160095e-02
2.276510000228881836e-02
-4.015965852886438370e-03
-4.567094612866640091e-03
-5.864799953997135162e-03
1.132860872894525528e-02
-5.291479453444480896e-02
4.659251868724822998e-02
-1.571761816740036011e-02
-1.669319719076156616e-02
1.217262167483568192e-02
2.966710180044174194e-02
2.462895773351192474e-02
2.212247811257839203e-02
-1.007463084533810616e-03
-2.155587822198867798e-02
2.698638848960399628e-02
-1.852987706661224365e-02
1.723612891510128975e-03
-2.731193415820598602e-02
3.233957104384899139e-03
2.188560366630554199e-02
-2.469228766858577728e-02
-4.291174001991748810e-03
-4.187661688774824142e-03
-1.826993562281131744e-02
-1.692831330001354218e-02
5.709794815629720688e-03
-9.034014656208455563e-04
2.829756401479244232e-02
-6.354554556310176849e-03
-5.306929815560579300e-04
2.687127143144607544e-02
4.217592999339103699e-03
-1.517362706363201141e-02
5.993276089429855347e-02
-2.244176156818866730e-02
-2.669600211083889008e-02
-2.132690325379371643e-02
-3.803730476647615433e-03
-4.718545079231262207e-02
-2.093868888914585114e-02
-8.175157010555267334e-03
2.377786673605442047e-02
1.971110329031944275e-02
2.054861746728420258e-02
7.443659007549285889e-03
-1.495769130997359753e-03
-1.759798452258110046e-02
-2.662707865238189697e-02
1.327543985098600388e-02
2.029338851571083069e-02
-8.615681901574134827e-03
-1.293498557060956955e-02
-4.906791076064109802e-02
1.820964179933071136e-02
8.367615751922130585e-03
-2.962421812117099762e-02
-3.986015170812606812e-02
-6.006610393524169922e-02
-2.189662866294384003e-02
-3.268665447831153870e-02
-2.309977449476718903e-02
9.973992593586444855e-03
1.570538990199565887e-02
-5.863174796104431152e-02
1.901311054825782776e-02
2.111521363258361816e-02
-3.765684738755226135e-02
1.671137521043419838e-03
-6.129868328571319580e-03
1.478603761643171310e-02
-4.720954969525337219e-02
-6.078107748180627823e-03
1.725710369646549225e-02
3.664486855268478394e-02
3.226629272103309631e-02
-6.058660073904320598e-05
-3.050289861857891083e-02
1.556928153149783611e-03
-5.427482724189758301e-02
3.670152649283409119e-02
1.107450295239686966e-02
3.296703845262527466e-02
-2.746684662997722626e-02
-2.157418057322502136e-03
2.811803296208381653e-02
-4.709739610552787781e-02
-3.810364985838532448e-03
6.916311103850603104e-03
1.249950192868709564e-02
-1.296952646225690842e-02
1.109854504466056824e-02
1.192662119865417480e-02
3.426231443881988525e-02
-4.051570314913988113e-03
-3.376648575067520142e-02
2.587725967168807983e-02
8.198518306016921997e-03
4.630497843027114868e-02
-1.467465143650770187e-02
2.977508306503295898e-02
1.740341831464320421e-04
1.022889371961355209e-02
1.969529315829277039e-03
-4.208056256175041199e-02
-2.879465743899345398e-02
1.270814798772335052e-03
-5.012788996100425720e-02
3.909587860107421875e-02
9.088496677577495575e-03
-4.099771380424499512e-03
-2.354636415839195251e-02
7.965858094394207001e-03
-1.611134968698024750e-03
4.133388027548789978e-02
1.010292209684848785e-02
-4.279795289039611816e-02
-4.879069700837135315e-02
2.839909307658672333e-02
1.378242298960685730e-02
-1.706979610025882721e-02
-2.627740427851676941e-02
2.660844102501869202e-02
2.396468631923198700e-02
-3.229450061917304993e-02
-3.158573433756828308e-02
1.195298042148351669e-02
9.902813471853733063e-04
5.118692293763160706e-02
-3.312923386693000793e-02
-2.842373028397560120e-02
-1.345060765743255615e-02
-3.645874559879302979e-02
-5.928884726017713547e-03
2.699218690395355225e-02
-3.471784293651580811e-02
2.705683931708335876e-02
1.128314528614282608e-02
-1.074586994946002960e-02
-3.005736134946346283e-02
4.451588913798332214e-02
-1.562281884253025055e-02
-9.130564518272876740e-03
1.011516992002725601e-02
1.640470698475837708e-02
-4.884422570466995239e-02
5.458451807498931885e-02
5.418071988970041275e-03
9.622498182579874992e-04
-3.687272593379020691e-02
1.243406906723976135e-02
1.972958818078041077e-02
7.062531076371669769e-03
1.645221002399921417e-02
4.564839974045753479e-02
1.114563457667827606e-02
5.371079780161380768e-03
9.755912236869335175e-03
2.887756004929542542e-02
-4.620506241917610168e-02
-2.701410651206970215e-02
-3.047443926334381104e-02
4.234793782234191895e-02
3.276365622878074646e-02
1.334584131836891174e-02
-1.951487176120281219e-02
4.553215950727462769e-02
-1.707724295556545258e-02
-4.324687272310256958e-02
-1.856440491974353790e-02
3.136762883514165878e-03
-8.064708672463893890e-04
-2.683598734438419342e-02
2.525207353755831718e-03
-3.086496330797672272e-02
-3.165290132164955139e-02
-6.580918096005916595e-03
-1.166355237364768982e-02
-1.627832837402820587e-02
1.193264964967966080e-02
-1.859600469470024109e-02
2.054909057915210724e-02
-3.429278358817100525e-02
-3.456648811697959900e-02
-2.568931505084037781e-02
4.361414909362792969e-02
1.604637317359447479e-02
-5.057638045400381088e-03
-3.128256648778915405e-02
4.560403060168027878e-03
-5.154981091618537903e-02
1.467928197234869003e-02
-1.939765177667140961e-02
-4.236086830496788025e-02
-3.644874319434165955e-02
-4.204298928380012512e-02
3.090040385723114014e-02
3.521554917097091675e-02
2.078198082745075226e-02
1.944909989833831787e-02
-8.717526681721210480e-03
1.714968495070934296e-02
4.341602325439453125e-02
3.019490092992782593e-02
-4.016374424099922180e-02
-5.610249191522598267e-02
3.077089972794055939e-02
-3.789915144443511963e-02
3.501618979498744011e-03
-1.768107526004314423e-02
4.466963186860084534e-02
-3.615703806281089783e-02
-4.408101737499237061e-02
-2.671548910439014435e-02
-4.733578860759735107e-02
-1.743316277861595154e-02
1.356808654963970184e-02
-2.577202580869197845e-02
-6.076097115874290466e-02
6.824537646025419235e-03
-3.549020364880561829e-02
-2.727525494992733002e-02
1.408909913152456284e-02
6.184147670865058899e-02
-1.314849033951759338e-02
1.249219756573438644e-03
3.570831194519996643e-02
2.001728489995002747e-02
-3.114406019449234009e-02
-3.991420939564704895e-02
-4.808160942047834396e-03
-2.774421125650405884e-02
-9.209742769598960876e-03
-6.731330882757902145e-03
7.212405093014240265e-03
3.228855133056640625e-02
-3.497364372014999390e-02
3.958754986524581909e-02
-1.667391508817672729e-02
1.896470598876476288e-02
1.297128573060035706e-02
1.355854980647563934e-02
-6.488216109573841095e-03
-3.309124708175659180e-02
-1.536592375487089157e-02
1.801068149507045746e-02
-3.328954055905342102e-02
-2.298152819275856018e-02
7.177711930125951767e-03
-4.424163699150085449e-02
1.912529766559600830e-02
-2.963977307081222534e-02
4.295901954174041748e-02
2.747683227062225342e-02
2.386578824371099472e-03
-2.223157323896884918e-03
-5.141554400324821472e-02
1.109634060412645340e-02
-4.716395214200019836e-02
3.049538843333721161e-02
1.980212330818176270e-02
-3.030502237379550934e-02
3.550372272729873657e-02
-1.977064087986946106e-02
-5.098044872283935547e-02
-3.140873461961746216e-02
-1.873427629470825195e-02
1.598183880560100079e-03
-8.469054475426673889e-03
2.247839607298374176e-02
-4.533496126532554626e-02
-3.306293115019798279e-02
-7.755527039989829063e-04
1.551446132361888885e-02
-1.305915974080562592e-02
-5.578212905675172806e-03
-4.531589522957801819e-02
1.868196181021630764e-03
2.585348673164844513e-02
-2.870446257293224335e-02
-2.497700974345207214e-03
-1.455259975045919418e-03
3.376753628253936768e-02
2.104022167623043060e-02
-2.403742820024490356e-02
3.235465660691261292e-02
-5.824359133839607239e-02
2.521718852221965790e-02
-4.617010429501533508e-02
-4.178234189748764038e-02
-3.135043382644653320e-02
2.068298496305942535e-02
-3.917326778173446655e-02
-1.962786167860031128e-02
8.372008800506591797e-03
2.640508674085140228e-02
-3.429721668362617493e-02
-2.336652390658855438e-02
1.751095615327358246e-02
-4.094918817281723022e-02
-9.676118381321430206e-03
2.524842880666255951e-02
3.430487122386693954e-03
-4.860109090805053711e-02
3.289514034986495972e-02
3.508198133204132318e-04
2.782799117267131805e-02
1.861819438636302948e-02
2.098531927913427353e-03
5.886668339371681213e-03
-2.177183702588081360e-02
-2.733368240296840668e-02
2.223227918148040771e-02
-3.519842401146888733e-02
2.585275098681449890e-02
-4.038739949464797974e-03
-5.106199905276298523e-02
-5.102382972836494446e-02
-5.632156133651733398e-02
-1.168361958116292953e-02
1.242431532591581345e-02
-2.332491055130958557e-02
-7.532383315265178680e-03
1.042392384260892868e-02
2.857341244816780090e-02
-3.297118097543716431e-02
2.345668151974678040e-02
3.242100030183792114e-02
-3.590770810842514038e-02
-2.196242799982428551e-03
4.184753447771072388e-02
5.394989158958196640e-03
2.378667891025543213e-02
-1.655140705406665802e-02
-3.641746193170547485e-02
1.435969769954681396e-02
4.034324735403060913e-02
7.717863190919160843e-04
-1.293090358376502991e-02
1.627401635050773621e-02
1.856388757005333900e-03
-4.980608075857162476e-02
-4.461974278092384338e-02
2.253034524619579315e-02
-1.935725845396518707e-02
1.383949350565671921e-02
-2.586853690445423126e-03
4.171825945377349854e-03
3.240983933210372925e-02
-1.519703119993209839e-02
-3.601316735148429871e-02
-3.841310041025280952e-03
3.345050662755966187e-02
-8.769508451223373413e-03
-6.898288149386644363e-03
-3.001627698540687561e-02
-5.832387600094079971e-03
3.313777968287467957e-02
2.148140594363212585e-02
1.199873629957437515e-02
4.459856823086738586e-02
-2.764864079654216766e-02
-5.181330442428588867e-02
1.214633230119943619e-02
-3.362284600734710693e-02
-4.948674514889717102e-02
1.563530601561069489e-02
7.286704145371913910e-03
1.319979410618543625e-02
3.042116761207580566e-02
-2.251521870493888855e-02
1.573267765343189240e-02
-6.954473908990621567e-03
1.707270555198192596e-02
1.352214533835649490e-02
2.526898868381977081e-02
2.932579629123210907e-02
2.926102839410305023e-02
5.007461830973625183e-02
3.060581721365451813e-02
2.213034965097904205e-02
3.699031425639986992e-03
-4.056826233863830566e-03
-4.507271945476531982e-02
1.234003063291311264e-02
2.275754325091838837e-02
-3.359891101717948914e-02
2.835092018358409405e-04
4.742268472909927368e-02
-4.229852557182312012e-02
3.858373314142227173e-02
1.977925561368465424e-02
2.279256843030452728e-02
-1.477152574807405472e-02
6.930877454578876495e-03
-1.148069277405738831e-02
3.253525495529174805e-02
4.925012588500976562e-03
1.862367801368236542e-02
1.303536910563707352e-02
-1.846331730484962463e-02
1.824128441512584686e-02
-1.263803988695144653e-02
6.079438142478466034e-03
2.605992136523127556e-03
2.696223556995391846e-02
2.782540954649448395e-02
-3.308007260784506798e-03
-4.151820205152034760e-03
2.894437499344348907e-02
-1.564441435039043427e-02
4.542852193117141724e-02
-2.507296856492757797e-03
-8.664944209158420563e-03
3.545987606048583984e-02
1.595064997673034668e-02
8.842845447361469269e-03
3.030581586062908173e-02
-2.230331860482692719e-02
-8.369380375370383263e-04
-1.138707809150218964e-02
-1.033733785152435303e-02
-3.257498145103454590e-02
2.557943761348724365e-02
3.244233131408691406e-02
-6.563157658092677593e-04
-4.204257577657699585e-02
9.933976456522941589e-03
2.431068569421768188e-02
-2.229557000100612640e-02
-1.315770298242568970e-02
1.547457883134484291e-03
-3.077728208154439926e-03
3.286701068282127380e-02
-1.971451798453927040e-03
-2.374442107975482941e-02
-2.741823345422744751e-02
3.297201544046401978e-02
2.124250680208206177e-02
4.572004079818725586e-02
1.880443654954433441e-02
-5.077350139617919922e-02
-5.533260852098464966e-02
2.175657078623771667e-03
-2.860031090676784515e-02
-2.257808111608028412e-02
-4.975174553692340851e-03
-4.420758038759231567e-02
2.534647937864065170e-03
-3.559519071131944656e-03
2.464370802044868469e-02
2.683675615116953850e-03
3.073505684733390808e-02
-2.830388396978378296e-02
4.284737259149551392e-02
2.274245209991931915e-02
9.031924419105052948e-04
4.693405702710151672e-02
-1.541270501911640167e-02
-3.709702193737030029e-02
2.372895181179046631e-02
-5.014562606811523438e-02
2.510839514434337616e-02
-4.126992076635360718e-02
3.437287732958793640e-02
2.831341698765754700e-02
-3.271432593464851379e-02
-3.680435940623283386e-02
1.570273190736770630e-02
2.670842036604881287e-02
6.066462374292314053e-04
-1.802553609013557434e-02
4.518350586295127869e-02
2.318704873323440552e-02
-4.143343120813369751e-02
-4.205816611647605896e-02
-3.773068543523550034e-03
-4.058784991502761841e-02
2.670657820999622345e-02
1.538175391033291817e-03
-3.758303821086883545e-02
2.458971180021762848e-02
-4.231745377182960510e-02
-2.066481113433837891e-02
-1.350248977541923523e-02
4.455747082829475403e-02
4.958219081163406372e-02
-1.053950376808643341e-02
1.711829006671905518e-02
-3.392706438899040222e-02
3.131903335452079773e-02
-1.269893720746040344e-02
-5.115445330739021301e-02
-8.293902501463890076e-03
3.746739123016595840e-03
-1.731738075613975525e-02
3.073742613196372986e-02
-2.418490312993526459e-02
-2.768478356301784515e-02
-4.148143529891967773e-02
-2.209878712892532349e-02
3.820949047803878784e-02
7.228111382573843002e-03
1.746246777474880219e-02
-9.720345959067344666e-03
-1.111418567597866058e-02
6.926614325493574142e-03
3.440846875309944153e-02
1.863803714513778687e-03
7.265356369316577911e-03
1.784585230052471161e-02
1.794151030480861664e-02
3.077608533203601837e-02
1.048270240426063538e-02
-2.628981694579124451e-02
2.201193477958440781e-03
3.092365711927413940e-02
-1.255903299897909164e-02
-1.523883920162916183e-02
1.532092411071062088e-02
2.594115212559700012e-02
-1.639788784086704254e-02
3.698790818452835083e-02
3.847394511103630066e-02
5.037052556872367859e-02
1.524062734097242355e-02
5.414607468992471695e-03
2.814356423914432526e-02
5.380107462406158447e-02
-3.312632907181978226e-03
-3.095059096813201904e-02
6.854220293462276459e-03
3.752130270004272461e-02
3.510099649429321289e-02
-8.159453980624675751e-03
2.533060312271118164e-02
3.630160912871360779e-02
-4.185164347290992737e-02
-6.408084882423281670e-04
-1.155658438801765442e-02
5.556741729378700256e-03
-1.605717279016971588e-02
2.164751105010509491e-02
-4.929790273308753967e-02
2.430534735321998596e-02
2.891226857900619507e-02
-5.581615027040243149e-03
1.307838410139083862e-02
-5.991843994706869125e-03
3.106023930013179779e-02
-1.682593114674091339e-02
2.804517000913619995e-02
8.096902631223201752e-03
-3.812295943498611450e-02
1.192323677241802216e-02
1.944967731833457947e-02
4.635271430015563965e-02
-1.498936489224433899e-02
-2.527174539864063263e-02
-2.034183358773589134e-03
5.425597541034221649e-03
-1.965673873201012611e-03
1.332052052021026611e-02
-1.453873608261346817e-02
6.718761753290891647e-03
-1.140315551310777664e-02
-4.025890678167343140e-02
-4.643246158957481384e-02
-2.347872592508792877e-02
1.422757166437804699e-03
-2.623271942138671875e-02
8.600294589996337891e-03
-2.250347472727298737e-02
2.822732180356979370e-02
-4.338964819908142090e-02
1.825000345706939697e-02
-2.793483249843120575e-02
1.585884392261505127e-02
-1.923697441816329956e-02
1.164407934993505478e-02
-8.759998716413974762e-03
1.825965568423271179e-02
-2.535181306302547455e-02
-2.139627560973167419e-02
2.050368301570415497e-02
4.110808484256267548e-03
-3.829212114214897156e-02
-1.994227431714534760e-02
2.211731113493442535e-02
-2.848889306187629700e-02
2.645468525588512421e-02
6.211106199771165848e-03
-1.366270706057548523e-02
2.304686047136783600e-02
3.585466742515563965e-02
2.984838746488094330e-02
-2.649524249136447906e-02
-3.540900349617004395e-02
3.939406573772430420e-02
-3.344465512782335281e-03
-3.072325373068451881e-03
2.640631981194019318e-02
-8.610939607024192810e-03
7.671176921576261520e-03
-1.979485154151916504e-02
2.692523598670959473e-02
4.033768177032470703e-02
4.099995270371437073e-02
2.724365331232547760e-02
3.813372924923896790e-02
-5.100693553686141968e-02
-4.288915172219276428e-02
1.840468309819698334e-02
1.659033587202429771e-03
-2.671803720295429230e-02
2.638136222958564758e-02
-4.410491511225700378e-02
4.212910309433937073e-03
-1.835371367633342743e-02
-4.403774160891771317e-03
2.423247694969177246e-02
1.972864940762519836e-02
3.366237506270408630e-02
-3.282519057393074036e-02
-1.825527474284172058e-02
3.653097525238990784e-02
5.302806943655014038e-02
-1.266153156757354736e-02
1.419442240148782730e-02
-4.474086686968803406e-02
-3.649068530648946762e-03
2.078668959438800812e-02
3.922532126307487488e-02
3.551430255174636841e-02
-1.631852798163890839e-02
-7.083198986947536469e-03
9.227008558809757233e-03
2.448092680424451828e-03
-3.822707757353782654e-02
7.582165300846099854e-03
-1.930581964552402496e-02
3.916442766785621643e-02
3.127602115273475647e-02
4.550474230200052261e-03
1.547798421233892441e-02
1.145335007458925247e-02
-2.275793254375457764e-02
-2.181738242506980896e-02
-4.436656460165977478e-02
-5.693627148866653442e-02
-5.019635707139968872e-02
-8.554563857614994049e-03
-1.236526761204004288e-02
1.841946691274642944e-02
2.135347574949264526e-02
2.823117934167385101e-02
2.621395885944366455e-02
1.496982201933860779e-02
1.950180158019065857e-02
-3.050261549651622772e-02
3.507772460579872131e-02
-3.604355454444885254e-02
1.157900597900152206e-02
2.482428587973117828e-02
1.330289058387279510e-02
-3.986617550253868103e-03
-4.187782853841781616e-02
4.431713372468948364e-02
1.162474974989891052e-02
-3.645766526460647583e-02
-3.779555438086390495e-03
-3.581056371331214905e-02
4.405730590224266052e-02
-3.158043324947357178e-02
2.344036847352981567e-02
-1.600763387978076935e-02
-2.684428542852401733e-02
-3.287044540047645569e-02
2.683581318706274033e-03
-4.285309091210365295e-02
-2.282627858221530914e-02
7.263445295393466949e-03
-1.552550680935382843e-02
-2.605968527495861053e-02
9.343517944216728210e-03
-3.656556829810142517e-02
1.761343516409397125e-02
-9.439841844141483307e-03
-5.532238166779279709e-03
3.135472163558006287e-02
4.979589954018592834e-02
-1.626146398484706879e-02
-1.097826100885868073e-02
-3.654412552714347839e-02
2.533939480781555176e-02
3.949138894677162170e-02
-1.347362878732383251e-03
8.232701569795608521e-03
2.102375403046607971e-02
1.279165875166654587e-02
-3.850057255476713181e-03
-3.452639654278755188e-02
-2.175506763160228729e-02
-2.082699351012706757e-02
1.120105292648077011e-02
2.816959517076611519e-03
7.346606347709894180e-03
-7.078389171510934830e-03
5.740657448768615723e-03
1.753293536603450775e-02
-3.757197409868240356e-02
-1.261695753782987595e-02
-2.426216960884630680e-04
2.485584653913974762e-02
-2.826234139502048492e-02
3.473627939820289612e-02
-2.929369453340768814e-03
3.757933154702186584e-02
5.061339586973190308e-02
-3.083184361457824707e-02
-1.092093065381050110e-02
1.267266576178371906e-03
-4.462750628590583801e-02
5.727445334196090698e-02
3.629968687891960144e-02
1.470407564193010330e-02
-3.133162111043930054e-02
-5.038927774876356125e-03
6.894415710121393204e-04
-3.811671212315559387e-02
1.782285980880260468e-02
3.045891597867012024e-02
3.238103166222572327e-02
1.547192805446684361e-03
1.659140922129154205e-02
1.415564678609371185e-02
-4.123352468013763428e-02
3.067817538976669312e-02
-2.817037515342235565e-02
-1.523011829704046249e-02
-1.218453235924243927e-02
-1.536321733146905899e-02
-2.012467756867408752e-02
4.501530900597572327e-02
5.418107379227876663e-03
-1.894716871902346611e-03
-2.102604694664478302e-02
-4.033223912119865417e-02
-3.689469024538993835e-02
-3.328593075275421143e-02
4.229073226451873779e-02
-3.366145864129066467e-02
-3.477149293757975101e-04
-2.490432374179363251e-02
1.485037431120872498e-02
-1.894247531890869141e-02
1.994475163519382477e-02
-5.299711599946022034e-02
2.003660425543785095e-02
3.463901579380035400e-02
1.133699156343936920e-02
-4.438167810440063477e-02
3.003213927149772644e-02
-1.648991741240024567e-02
-3.396288305521011353e-02
-6.085761822760105133e-03
3.029651008546352386e-02
3.471921756863594055e-02
1.120786648243665695e-02
4.485073685646057129e-02
-2.479633502662181854e-02
-1.499535329639911652e-02
1.324220467358827591e-02
-4.635638743638992310e-02
-2.931090258061885834e-02
-6.608426570892333984e-03
-2.183671807870268822e-03
3.096451982855796814e-03
-1.384351402521133423e-02
-4.833856597542762756e-02
1.240786071866750717e-02
-5.132768303155899048e-03
2.618443686515092850e-03
-2.870584093034267426e-02
-4.789813235402107239e-02
-4.056766629219055176e-02
4.983086604624986649e-03
-3.237468004226684570e-02
3.572730720043182373e-02
3.914682194590568542e-02
6.922781467437744141e-03
-1.403828244656324387e-02
5.305875837802886963e-02
4.171542450785636902e-02
2.196800522506237030e-02
-4.993911460041999817e-02
7.799498736858367920e-03
-3.556405380368232727e-02
4.426547326147556305e-03
4.917002096772193909e-02
2.941627055406570435e-02
3.231130912899971008e-02
-1.932748965919017792e-02
2.565177530050277710e-02
-3.381576389074325562e-02
-5.185931175947189331e-02
1.819592900574207306e-02
1.092863641679286957e-02
-3.125491738319396973e-02
1.634209230542182922e-02
3.347943350672721863e-02
3.131823241710662842e-02
-3.228748962283134460e-02
-2.970686368644237518e-02
-4.165918380022048950e-02
-4.052802175283432007e-02
-2.040686272084712982e-02
3.995623439550399780e-02
-3.050263971090316772e-02
3.105250559747219086e-02
2.821521600708365440e-03
5.195786431431770325e-02
8.093304932117462158e-03
-1.758142723701894283e-03
-4.621733352541923523e-02
-3.710531070828437805e-02
4.001567885279655457e-02
-6.268246565014123917e-03
3.478683065623044968e-03
6.753161083906888962e-03
1.961449347436428070e-02
2.137035829946398735e-03
4.010632261633872986e-02
-2.534669078886508942e-02
-4.976779222488403320e-02
-4.735630005598068237e-02
-1.031953841447830200e-02
1.596800051629543304e-02
-1.114446297287940979e-02
2.704422548413276672e-02
3.192695556208491325e-03
2.735342644155025482e-02
2.943705022335052490e-02
-3.763790801167488098e-02
-4.399688448756933212e-03
9.888190543279051781e-04
-2.087614871561527252e-02
-3.738051280379295349e-02
9.235684759914875031e-03
-4.094829037785530090e-02
3.252672776579856873e-02
-1.288314815610647202e-02
-4.186357557773590088e-02
8.379307575523853302e-03
6.474589463323354721e-03
7.764460518956184387e-03
-4.366947710514068604e-02
-4.598948359489440918e-02
-9.630038402974605560e-03
4.029302392154932022e-03
2.320881001651287079e-03
-6.397451274096965790e-03
-4.709495231509208679e-03
-1.664438843727111816e-02
1.825870387256145477e-02
4.363129660487174988e-02
1.394035853445529938e-02
3.503881767392158508e-02
3.533355519175529480e-02
-2.433276176452636719e-02
2.192953787744045258e-02
-2.856480889022350311e-02
6.454714108258485794e-03
7.512892130762338638e-03
4.784944653511047363e-02
-4.563009738922119141e-02
3.094596602022647858e-02
-2.364976145327091217e-02
1.309505850076675415e-02
1.237495988607406616e-02
1.672345958650112152e-02
-1.269816793501377106e-02
7.996782660484313965e-03
-5.288787186145782471e-02
-3.144254162907600403e-02
-3.895035758614540100e-02
-9.369317442178726196e-03
2.579855360090732574e-02
-3.171713277697563171e-02
-4.442789405584335327e-02
2.831033896654844284e-03
-1.388470828533172607e-02
2.381068281829357147e-02
8.906674571335315704e-03
-9.498502127826213837e-03
-1.223148405551910400e-02
4.260655120015144348e-02
-3.504521027207374573e-02
-3.077350556850433350e-02
-2.367302216589450836e-02
-4.151675384491682053e-03
9.876359254121780396e-04
-4.843967780470848083e-02
-3.399144858121871948e-02
3.313460201025009155e-02
2.511392906308174133e-02
2.340051904320716858e-02
1.185847260057926178e-02
-4.655830562114715576e-02
1.572992838919162750e-02
5.022423341870307922e-02
-9.644581004977226257e-03
-5.770139768719673157e-02
3.647992387413978577e-02
1.805215701460838318e-02
-7.841111073503270745e-05
-2.259675413370132446e-02
-1.194492261856794357e-02
-3.796761110424995422e-02
-8.017869666218757629e-03
-3.187905624508857727e-02
-4.429323598742485046e-02
-1.569053344428539276e-02
8.926704525947570801e-03
-4.186764359474182129e-03
-2.397840842604637146e-02
-1.922784373164176941e-02
-2.804969437420368195e-02
2.284598350524902344e-02
-4.210511222481727600e-02
3.083775565028190613e-02
-5.194052308797836304e-02
-4.641264677047729492e-02
-9.614204056560993195e-03
-2.287095226347446442e-02
-4.329114779829978943e-02
-1.447139587253332138e-02
9.750891476869583130e-03
1.336748618632555008e-02
-3.928876668214797974e-02
-3.719572676345705986e-03
-3.711667656898498535e-02
-1.713062077760696411e-02
3.817456960678100586e-02
3.839382901787757874e-02
6.807592231780290604e-03
-5.404494702816009521e-03
-4.432033002376556396e-02
1.318313833326101303e-02
-2.167779579758644104e-02
-3.468245640397071838e-02
3.278872370719909668e-02
-3.846564143896102905e-02
-3.161864727735519409e-02
-1.731698587536811829e-02
-6.477817147970199585e-02
-1.296804565936326981e-02
2.920308150351047516e-02
3.264137357473373413e-02
-1.334993913769721985e-02
2.547128684818744659e-02
-3.444182127714157104e-02
3.293481469154357910e-02
-1.817915961146354675e-02
-3.964018821716308594e-02
-4.279172420501708984e-02
2.741734869778156281e-02
-1.421430706977844238e-02
-4.230904951691627502e-02
-2.295526675879955292e-02
3.988094162195920944e-03
-3.731372952461242676e-02
-4.544628039002418518e-02
2.699298597872257233e-02
-3.468265756964683533e-02
3.040551766753196716e-02
3.880879282951354980e-02
2.702484373003244400e-03
-1.382510876283049583e-03
-2.415695041418075562e-02
-5.482095479965209961e-02
3.028509765863418579e-02
1.787343062460422516e-02
7.538840174674987793e-03
2.017932757735252380e-02
-4.684099182486534119e-02
-1.438478659838438034e-02
2.157303318381309509e-02
-5.569109320640563965e-02
2.154406346380710602e-02
1.298634149134159088e-02
-1.781511306762695312e-02
3.016905486583709717e-02
-4.272906109690666199e-02
3.128727525472640991e-02
5.288441106677055359e-02
-3.628569468855857849e-02
-3.056365624070167542e-02
-3.660352900624275208e-02
-5.972656421363353729e-03
-3.509790450334548950e-02
1.686108671128749847e-02
1.818356476724147797e-02
-6.815530359745025635e-02
1.362734939903020859e-02
-1.772708608768880367e-03
2.912474796175956726e-02
3.528655320405960083e-02
2.945290133357048035e-02
-2.650125697255134583e-02
-4.228790104389190674e-02
-2.829699777066707611e-02
-1.900938368635252118e-04
2.097926801070570946e-03
-4.380775243043899536e-02
-8.088366128504276276e-03
-1.272068638354539871e-02
2.283268049359321594e-02
3.000836877617985010e-04
-3.030434995889663696e-02
-4.645603243261575699e-03
-6.522649526596069336e-02
1.055672857910394669e-02
3.147085011005401611e-02
-3.684483096003532410e-02
7.822401821613311768e-03
-5.351871252059936523e-03
-4.951307922601699829e-02
4.946988774463534355e-04
-4.102404415607452393e-02
-4.112564027309417725e-03
-2.416664734482765198e-02
-2.782802842557430267e-02
-7.795330602675676346e-03
7.549532223492860794e-03
-1.409029704518616199e-03
-2.030101232230663300e-02
2.092844806611537933e-02
-1.446953695267438889e-02
-5.731224082410335541e-03
1.217886339873075485e-02
-3.648800030350685120e-02
-4.985862597823143005e-02
1.364769507199525833e-02
-1.608698628842830658e-02
9.609477594494819641e-03
-1.585147157311439514e-02
3.392833843827247620e-02
-9.037584997713565826e-03
2.773047983646392822e-02
3.661721199750900269e-02
2.547270432114601135e-02
2.391771227121353149e-02
7.914331741631031036e-03
1.394475717097520828e-02
-3.340358659625053406e-02
7.227553986012935638e-03
-1.375722605735063553e-02
-2.286768984049558640e-03
-5.478494986891746521e-02
-2.376770600676536560e-02
1.064423657953739166e-02
-4.922617599368095398e-02
6.615562830120325089e-03
5.414360389113426208e-02
-1.487508416175842285e-02
6.601526401937007904e-03
2.641243860125541687e-02
5.582727864384651184e-02
-2.564959786832332611e-02
-4.109533131122589111e-02
2.997230365872383118e-02
1.767957955598831177e-02
-2.352203428745269775e-02
3.917583823204040527e-02
-2.321318909525871277e-02
-4.169558733701705933e-02
3.237526118755340576e-02
-2.876886352896690369e-02
3.465519845485687256e-02
-4.658903926610946655e-02
-3.536375612020492554e-02
-1.459490228444337845e-02
1.351905800402164459e-02
1.213759742677211761e-02
-1.040821615606546402e-02
-5.583392456173896790e-02
4.778269305825233459e-02
-3.851979598402976990e-02
-6.837328430265188217e-03
-2.503424510359764099e-02
-1.292021013796329498e-02
-6.224904209375381470e-03
-1.963482052087783813e-02
-2.442159503698348999e-02
3.748819231986999512e-02
-5.959315225481987000e-02
-4.670479893684387207e-02
-5.270627792924642563e-03
-5.813084426335990429e-04
1.902619563043117523e-02
-2.940785139799118042e-02
-2.625396708026528358e-03
-2.326524443924427032e-02
1.524651981890201569e-02
-7.220546714961528778e-03
-2.777307853102684021e-02
3.077339194715023041e-02
5.430985242128372192e-03
2.848076634109020233e-02
1.870559342205524445e-02
6.117390003055334091e-03
-9.627377614378929138e-03
2.192663773894309998e-02
-1.945564895868301392e-02
3.333415463566780090e-02
-6.121770478785037994e-03
-1.247607450932264328e-02
1.031449623405933380e-02
1.294436119496822357e-02
1.115753501653671265e-02
-1.634848536923527718e-03
1.669077016413211823e-02
-3.462416306138038635e-02
-5.112655460834503174e-02
1.085856743156909943e-02
2.314120763912796974e-03
4.361074417829513550e-02
1.004001218825578690e-02
2.005458809435367584e-02
-1.930203475058078766e-02
4.545545205473899841e-02
-2.900375053286552429e-02
-3.615662828087806702e-02
-4.440882802009582520e-02
-3.311850875616073608e-02
-5.359736457467079163e-02
-1.352799497544765472e-02
2.561108022928237915e-02
2.335409447550773621e-02
-4.366455972194671631e-02
-4.418719187378883362e-02
-4.055190831422805786e-02
-3.240917623043060303e-02
1.950122974812984467e-02
-3.959226608276367188e-02
2.292073145508766174e-02
-2.178511396050453186e-02
-7.856306619942188263e-03
-5.701460316777229309e-02
-8.203071542084217072e-03
-2.613164298236370087e-02
2.891755662858486176e-02
4.174008592963218689e-02
-1.046417281031608582e-02
-3.900647861883044243e-03
-1.014202926307916641e-02
1.301256101578474045e-02
-1.808713562786579132e-02
-4.108168929815292358e-02
1.973805204033851624e-02
-4.460649564862251282e-02
-9.176097810268402100e-03
3.095564432442188263e-02
-4.894052073359489441e-02
2.582062967121601105e-02
-1.493058633059263229e-02
-2.599647268652915955e-02
1.215959340333938599e-02
-3.497285395860671997e-02
-3.216569870710372925e-02
-4.513977840542793274e-02
-6.695462507195770741e-04
4.907383397221565247e-02
-1.569842337630689144e-03
4.157277196645736694e-02
1.888668193714693189e-04
-3.304985538125038147e-02
-2.373406291007995605e-02
1.678233779966831207e-02
1.483138743788003922e-02
4.463092423975467682e-03
-5.806670989841222763e-03
-2.053424529731273651e-02
-3.149092569947242737e-02
1.788524910807609558e-02
2.474892884492874146e-02
-1.251703407615423203e-02
4.254990443587303162e-02
1.081980206072330475e-02
5.423277034424245358e-04
-4.137115553021430969e-03
-2.938333712518215179e-02
1.312397047877311707e-02
-1.205978076905012131e-02
-4.344809800386428833e-02
-2.621750347316265106e-02
3.392105922102928162e-02
4.210201650857925415e-02
-6.515935529023408890e-03
2.450713329017162323e-02
3.792313486337661743e-02
-4.109958559274673462e-02
3.352245315909385681e-02
-1.535076927393674850e-02
1.411571260541677475e-02
1.423811819404363632e-02
-4.364247247576713562e-02
4.346708301454782486e-03
4.369804635643959045e-03
-2.197712473571300507e-02
-1.042455551214516163e-03
1.374554634094238281e-02
1.419912185519933701e-02
1.223708689212799072e-02
9.809171780943870544e-03
-1.934306812472641468e-03
-4.583645612001419067e-02
3.130735084414482117e-02
3.551791235804557800e-02
-4.735706374049186707e-02
2.552148699760437012e-02
-2.304781787097454071e-02
-4.119217768311500549e-02
-1.782898418605327606e-02
2.602081932127475739e-02
1.909491606056690216e-02
-5.179523676633834839e-02
-1.360993459820747375e-02
1.272483263164758682e-03
3.339623659849166870e-02
1.216228585690259933e-02
1.696675270795822144e-02
8.179639466106891632e-03
-3.153608739376068115e-02
1.133476197719573975e-02
5.485304817557334900e-02
2.208119072020053864e-02
1.327441260218620300e-02
1.310813985764980316e-02
-2.624533697962760925e-02
-2.384860627353191376e-02
1.056541502475738525e-02
-2.145126275718212128e-02
2.518147043883800507e-02
-1.136199478060007095e-02
-4.388134181499481201e-02
-1.043132040649652481e-02
2.693872153759002686e-02
6.058225408196449280e-03
-2.907607518136501312e-02
-1.160643715411424637e-02
3.748998418450355530e-02
2.089150622487068176e-02
-5.156046897172927856e-02
3.179154545068740845e-02
1.842164620757102966e-02
1.883802376687526703e-02
-1.363187842071056366e-02
-3.190556541085243225e-03
1.888229162432253361e-03
3.080056793987751007e-02
2.998151071369647980e-02
1.494960952550172806e-02
-2.760570310056209564e-02
4.583039879798889160e-02
-2.024555578827857971e-02
8.220748975872993469e-03
-4.050625488162040710e-03
-6.179336458444595337e-02
5.741621553897857666e-02
2.227631630375981331e-03
2.455847710371017456e-02
-4.133895970880985260e-03
2.092674933373928070e-02
3.579026460647583008e-02
3.676733002066612244e-03
-2.721098624169826508e-02
-4.128286615014076233e-02
-2.604040876030921936e-02
3.595317527651786804e-02
-8.701033890247344971e-03
-1.654576696455478668e-02
-5.747882183641195297e-03
-1.646551117300987244e-02
-1.889750733971595764e-02
-3.968282043933868408e-02
-3.047659434378147125e-02
-3.185801580548286438e-02
3.154866024851799011e-02
2.317418158054351807e-02
-9.085376746952533722e-03
1.429451815783977509e-02
1.944653131067752838e-02
-3.072370588779449463e-02
3.740622196346521378e-03
2.208106219768524170e-02
-4.605577141046524048e-02
-3.265029191970825195e-02
3.610856831073760986e-02
1.312813721597194672e-02
-6.724214181303977966e-03
-4.910664167255163193e-03
-5.360658094286918640e-02
4.322014376521110535e-02
-1.020013354718685150e-02
-4.139985516667366028e-02
1.907455362379550934e-02
4.193598404526710510e-02
-3.528749942779541016e-02
-2.927754074335098267e-02
-2.792397141456604004e-02
2.168140746653079987e-02
-3.071107901632785797e-02
1.618600636720657349e-02
2.758560515940189362e-02
-2.745822817087173462e-02
-2.427139692008495331e-02
2.261457964777946472e-02
-2.326145954430103302e-02
