2.247529476881027222e-02
8.046898990869522095e-03
-2.757404372096061707e-02
5.515038967132568359e-03
-6.478596478700637817e-03
2.916826680302619934e-02
-2.927235141396522522e-02
-1.819055527448654175e-02
-6.146956235170364380e-03
1.310892403125762939e-04
2.189332619309425354e-02
-7.325623184442520142e-03
1.448667794466018677e-02
-1.911885663866996765e-02
-1.485410332679748535e-02
3.112215921282768250e-02
-1.730146259069442749e-02
1.311092823743820190e-02
1.234984025359153748e-02
2.912419661879539490e-02
-1.837909221649169922e-02
1.369380950927734375e-02
-2.137953042984008789e-02
3.107286244630813599e-02
1.622131466865539551e-02
-8.538197726011276245e-03
-2.832523733377456665e-02
2.287559211254119873e-02
1.157454773783683777e-02
-1.740280166268348694e-02
-1.142123714089393616e-02
2.097369357943534851e-02
-2.704008296132087708e-02
1.997923478484153748e-02
-2.285312861204147339e-03
-1.623275876045227051e-02
2.851490303874015808e-02
2.316985279321670532e-03
-4.042968153953552246e-03
2.724082767963409424e-02
2.697639912366867065e-02
-3.025456517934799194e-02
2.957426384091377258e-02
-1.742273196578025818e-02
2.796074002981185913e-02
4.442043602466583252e-03
2.067395299673080444e-02
-1.599885150790214539e-02
-2.460367977619171143e-04
1.130734756588935852e-02
9.123012423515319824e-04
-1.947358995676040649e-02
1.331195607781410217e-02
-1.032735034823417664e-02
-2.352465689182281494e-02
-1.499308273196220398e-02
2.158876881003379822e-02
2.048525586724281311e-02
2.698022872209548950e-03
2.360928803682327271e-02
-3.027766942977905273e-03
2.856932207942008972e-02
2.372761443257331848e-02
1.427294313907623291e-02
-9.362578392028808594e-03
2.775269746780395508e-02
1.239836215972900391e-03
-3.884807229042053223e-03
2.290721237659454346e-02
-2.841130271553993225e-02
5.353312939405441284e-03
3.060065209865570068e-02
-5.145773291587829590e-03
-2.445235848426818848e-02
-2.611087262630462646e-02
-1.346604898571968079e-02
-2.249747514724731445e-02
-9.469281882047653198e-03
-9.285654872655868530e-03
-2.337637171149253845e-02
1.836404204368591309e-03
2.243513241410255432e-02
-2.773654088377952576e-02
-2.502093464136123657e-02
-2.877434715628623962e-02
2.907294780015945435e-03
2.006198465824127197e-02
-1.931481808423995972e-02
2.476942166686058044e-02
1.698478311300277710e-02
-5.851373076438903809e-03
-2.120993286371231079e-02
-2.254904061555862427e-02
2.002413198351860046e-02
2.005928009748458862e-02
6.645895540714263916e-03
-3.957800567150115967e-03
-2.503464743494987488e-02
-2.407623454928398132e-02
-1.382932066917419434e-02
9.935617446899414062e-03
2.082183957099914551e-02
-1.729945465922355652e-02
2.332664653658866882e-02
-3.065838664770126343e-02
-1.654084771871566772e-02
-1.999510452151298523e-02
2.562227845191955566e-02
1.985040679574012756e-02
7.257800549268722534e-03
-2.766974270343780518e-02
3.031264990568161011e-03
2.388224750757217407e-02
-3.929685801267623901e-03
2.101546153426170349e-02
4.466786980628967285e-03
-1.530928537249565125e-02
-1.603548601269721985e-02
-3.080835938453674316e-02
-1.085216924548149109e-02
-2.092939242720603943e-02
-1.898981630802154541e-02
1.404595002532005310e-02
2.847237512469291687e-02
-1.960206776857376099e-03
8.364517241716384888e-03
-5.538471043109893799e-03
2.976883202791213989e-02
1.807573437690734863e-02
3.111302852630615234e-03
-9.365692734718322754e-03
-2.972591668367385864e-03
-2.553391456604003906e-02
-9.210150688886642456e-03
-1.565118134021759033e-02
1.378796994686126709e-02
-1.344002783298492432e-03
2.886931225657463074e-02
-2.082149311900138855e-02
-2.971656993031501770e-02
-2.743988856673240662e-02
-1.044989377260208130e-02
2.736321464180946350e-02
-2.703020721673965454e-02
-1.953601464629173279e-02
2.404197677969932556e-02
1.920039206743240356e-02
-1.036818325519561768e-02
-5.068276077508926392e-03
2.910381555557250977e-02
2.807714417576789856e-02
-2.958263829350471497e-02
-2.608785033226013184e-02
-2.323621138930320740e-02
-4.073120653629302979e-04
3.960162401199340820e-03
-1.257702335715293884e-02
-2.257142215967178345e-02
-1.384132727980613708e-02
-1.526585593819618225e-02
2.669733390212059021e-02
-3.027372062206268311e-03
1.946615427732467651e-02
1.664143055677413940e-02
-1.738086715340614319e-02
6.836738437414169312e-03
6.415534764528274536e-03
-7.793854922056198120e-03
-1.326603442430496216e-02
-1.472273096442222595e-02
2.300805598497390747e-02
-2.744757384061813354e-02
-3.409385681152343750e-03
2.804562076926231384e-02
-1.150406897068023682e-02
1.535516232252120972e-03
2.390611916780471802e-03
2.049162983894348145e-03
2.642894536256790161e-02
3.956526517868041992e-03
-1.261457055807113647e-02
-1.282086968421936035e-02
-1.283816993236541748e-03
2.563321217894554138e-02
8.396293967962265015e-03
2.686044201254844666e-02
1.435639709234237671e-02
7.520925253629684448e-03
2.919871360063552856e-02
-1.337902620434761047e-02
-2.260766178369522095e-02
1.164623722434043884e-02
-1.375851407647132874e-02
-2.509748935699462891e-02
1.981820911169052124e-02
-1.025043055415153503e-02
3.615438938140869141e-03
6.343424320220947266e-03
2.613397687673568726e-02
-2.340584993362426758e-03
2.891341224312782288e-02
-3.778431564569473267e-03
2.642644569277763367e-02
2.970628440380096436e-02
2.483058720827102661e-03
1.747656613588333130e-03
1.170960441231727600e-02
-1.114761829376220703e-02
7.778052240610122681e-03
-7.298920303583145142e-03
-1.588349416851997375e-02
-2.687191218137741089e-02
1.410422474145889282e-02
2.909966558218002319e-02
5.221847444772720337e-03
2.149254083633422852e-02
1.146934181451797485e-02
-5.834829062223434448e-03
-8.673604577779769897e-03
-2.113572135567665100e-02
4.058144986629486084e-04
-2.157974988222122192e-02
-3.103132173418998718e-02
2.290999889373779297e-02
1.831924170255661011e-02
2.766724303364753723e-02
9.045686572790145874e-03
1.226280257105827332e-02
-2.577593177556991577e-02
1.254143565893173218e-02
-1.183419674634933472e-02
2.649422734975814819e-03
1.301669701933860779e-02
-7.105458527803421021e-03
2.960024029016494751e-02
-2.582756429910659790e-02
-2.255094423890113831e-02
4.310160875320434570e-06
-3.541536629199981689e-03
1.653552055358886719e-02
2.103858813643455505e-02
-9.343482553958892822e-03
6.662484258413314819e-03
-1.039746403694152832e-02
-2.404874563217163086e-02
-2.811235189437866211e-02
1.238957419991493225e-02
-2.433734759688377380e-02
3.871429711580276489e-03
-3.018327057361602783e-03
-5.815610289573669434e-03
3.664519637823104858e-03
-1.047783344984054565e-02
1.945873722434043884e-02
3.111923858523368835e-02
2.279761806130409241e-02
4.552856087684631348e-03
-1.249653473496437073e-02
-3.707472234964370728e-03
-1.722650229930877686e-02
-1.981163769960403442e-02
-1.919257268309593201e-02
9.451549500226974487e-03
-1.328271627426147461e-02
2.209286391735076904e-02
8.291184902191162109e-03
6.635744124650955200e-03
-2.671312913298606873e-02
1.653565466403961182e-02
-1.513569056987762451e-02
2.150621265172958374e-02
1.221311092376708984e-02
-2.293346077203750610e-02
-2.399358153343200684e-02
-2.014022320508956909e-02
2.749984711408615112e-02
1.268209144473075867e-02
-1.831106096506118774e-02
-9.899064898490905762e-04
-4.953097552061080933e-03
1.055771112442016602e-02
2.112235873937606812e-02
2.314384281635284424e-02
7.328838109970092773e-03
4.514500498771667480e-03
-2.484360709786415100e-02
-2.516292780637741089e-02
-1.742900535464286804e-02
-9.762547910213470459e-03
-2.313193678855895996e-02
2.741236239671707153e-02
3.570392727851867676e-03
-2.840228378772735596e-03
4.322864115238189697e-03
8.984863758087158203e-03
2.715493738651275635e-02
8.783798664808273315e-03
2.796791493892669678e-03
-6.717450916767120361e-03
-2.815932780504226685e-02
2.266753464937210083e-02
-2.857520803809165955e-02
-1.905265823006629944e-02
-8.720051497220993042e-03
3.042320162057876587e-02
3.063414245843887329e-02
1.804624870419502258e-02
-5.215480923652648926e-03
-6.426185369491577148e-03
2.162004262208938599e-02
2.671241387724876404e-02
2.128955721855163574e-02
1.642233133316040039e-02
-1.388718187808990479e-02
-1.796725019812583923e-02
1.930169761180877686e-02
-1.189960911870002747e-02
2.439881116151809692e-02
-5.675904452800750732e-03
1.408588141202926636e-03
1.225098222494125366e-02
5.733009427785873413e-03
8.082073181867599487e-03
-1.994188874959945679e-02
4.394721239805221558e-03
1.625971496105194092e-02
2.241439372301101685e-02
-3.977946937084197998e-03
-2.761374413967132568e-02
-9.778190404176712036e-03
8.689209818840026855e-03
-4.489835351705551147e-03
-2.912439405918121338e-02
2.421859651803970337e-03
-8.684750646352767944e-03
-7.896237075328826904e-03
-2.824176102876663208e-03
9.543083608150482178e-03
-1.324672251939773560e-03
-2.621895447373390198e-02
-2.159409597516059875e-02
-1.069092378020286560e-02
2.927223592996597290e-02
-2.148922532796859741e-02
-1.931060105562210083e-02
-1.253000274300575256e-02
6.679076701402664185e-03
2.627906203269958496e-02
6.778769195079803467e-03
2.069681882858276367e-03
2.501567080616950989e-02
2.435423433780670166e-03
-2.681879699230194092e-02
-2.272184938192367554e-02
1.856768876314163208e-02
-1.002877578139305115e-02
2.378717064857482910e-02
1.809399574995040894e-02
1.972121372818946838e-02
-1.005399972200393677e-03
1.446064189076423645e-02
1.648244634270668030e-02
1.710939779877662659e-02
3.053016588091850281e-02
-1.008978486061096191e-02
-2.271806076169013977e-02
-1.180362328886985779e-02
3.743130713701248169e-03
9.549260139465332031e-04
-1.899984106421470642e-02
-1.224502921104431152e-03
1.565267145633697510e-02
-2.731891348958015442e-02
3.872584551572799683e-03
2.237129956483840942e-02
-5.195416510105133057e-03
-8.438460528850555420e-03
-1.487135887145996094e-04
-3.107741102576255798e-02
-2.460496127605438232e-02
-1.863243430852890015e-02
-2.399099245667457581e-02
-1.524683833122253418e-02
-9.791672229766845703e-03
1.651334390044212341e-02
2.336033806204795837e-02
-2.707126736640930176e-02
-5.957469344139099121e-03
-1.383945345878601074e-04
-2.957610040903091431e-02
-1.798116415739059448e-02
2.606403082609176636e-03
-2.927879244089126587e-02
-1.349643990397453308e-02
1.912810280919075012e-02
-2.308533340692520142e-02
-1.569875702261924744e-02
1.938042789697647095e-02
-2.382879704236984253e-02
2.243609353899955750e-02
-2.509891241788864136e-02
-2.152097225189208984e-02
2.889916300773620605e-02
1.260510087013244629e-02
-1.833513006567955017e-02
-5.476608872413635254e-03
-1.921183988451957703e-02
1.994347944855690002e-02
-2.403959631919860840e-02
1.815881207585334778e-02
-2.031225711107254028e-02
-2.849049121141433716e-02
2.260371297597885132e-02
-6.492037326097488403e-03
-1.186717301607131958e-02
1.451876014471054077e-03
1.015035435557365417e-02
1.583709940314292908e-02
2.327768504619598389e-02
-2.271798998117446899e-02
9.228829294443130493e-03
-1.641841232776641846e-02
-4.991479218006134033e-03
5.325168371200561523e-03
-1.997032389044761658e-02
-4.933811724185943604e-04
-2.167962864041328430e-02
4.009090363979339600e-03
-9.074345231056213379e-03
-1.712635159492492676e-02
2.378416061401367188e-02
3.080741316080093384e-02
-3.070311620831489563e-02
-8.213020861148834229e-03
8.512876927852630615e-03
-1.869082450866699219e-02
2.043956145644187927e-02
1.188082247972488403e-02
6.345093250274658203e-03
-1.175094395875930786e-02
1.049341633915901184e-02
1.653748378157615662e-02
1.580369472503662109e-02
-1.962622255086898804e-02
-2.845734357833862305e-02
-4.583306610584259033e-03
-4.133589565753936768e-03
-9.531341493129730225e-03
-1.423041149973869324e-02
3.106993436813354492e-02
2.523943781852722168e-02
-1.339087635278701782e-02
8.260082453489303589e-03
-1.268983632326126099e-02
-2.747434750199317932e-02
-4.694763571023941040e-03
1.366778463125228882e-02
1.304052397608757019e-02
-1.170361042022705078e-02
-2.619595453143119812e-02
-5.398061126470565796e-03
1.998587325215339661e-02
-1.297323033213615417e-02
2.995350211858749390e-02
-1.609973981976509094e-02
2.822016179561614990e-02
-1.875330135226249695e-02
-1.289962977170944214e-02
1.541250199079513550e-02
-8.043505251407623291e-03
2.317976206541061401e-03
3.287009894847869873e-03
-1.310199499130249023e-03
-5.593489855527877808e-03
-1.879165321588516235e-02
2.502577379345893860e-02
-2.371376007795333862e-02
1.122325658798217773e-03
1.142092049121856689e-02
2.876209840178489685e-02
2.309932187199592590e-02
2.327031642198562622e-02
-4.228066653013229370e-03
2.972965687513351440e-02
-1.500269770622253418e-02
-2.240160107612609863e-02
2.573982998728752136e-02
-2.753344923257827759e-02
7.588464766740798950e-03
1.710891351103782654e-02
-4.194922745227813721e-03
-2.225675806403160095e-02
8.782159537076950073e-03
6.148092448711395264e-03
1.520801708102226257e-02
1.104898005723953247e-02
-1.871518790721893311e-03
1.697856187820434570e-02
-2.080794796347618103e-02
-3.504708409309387207e-03
-1.709910109639167786e-02
-2.560893446207046509e-02
1.047868654131889343e-02
-9.393543004989624023e-04
-2.984173595905303955e-03
-2.341264486312866211e-02
-9.278278797864913940e-03
1.245341449975967407e-02
-7.100533694028854370e-03
2.179527655243873596e-02
-7.791813462972640991e-03
-5.789469927549362183e-03
