-1.659223437309265137e-02
1.642558537423610687e-02
-1.764228008687496185e-02
-2.052512019872665405e-02
1.304718898609280586e-03
3.843715414404869080e-02
-1.364491507411003113e-02
-3.539810329675674438e-02
-2.370795421302318573e-02
-2.847099117934703827e-02
1.094095292501151562e-03
-2.004214329645037651e-03
3.534798696637153625e-02
2.305017411708831787e-02
3.000718541443347931e-02
2.027439326047897339e-02
-6.799545604735612869e-03
-1.917505636811256409e-02
2.131320349872112274e-02
1.243266649544239044e-02
3.481252864003181458e-02
4.327341169118881226e-02
7.255263626575469971e-04
-1.824881508946418762e-02
1.397752785123884678e-03
-9.226540103554725647e-03
-6.348674651235342026e-03
2.755641005933284760e-02
2.958208695054054260e-02
-2.721553668379783630e-02
3.592323279008269310e-03
-1.448416989296674728e-02
-3.069070167839527130e-02
1.790809072554111481e-02
-2.565490268170833588e-02
-2.158188819885253906e-02
2.345603331923484802e-02
2.998641319572925568e-02
-3.174332529306411743e-02
-4.385326802730560303e-02
-1.590696908533573151e-02
3.658852726221084595e-02
-2.520116046071052551e-02
-8.947833441197872162e-03
-1.205532066524028778e-02
7.170701399445533752e-03
1.922133937478065491e-02
-2.412442862987518311e-02
-1.504577137529850006e-02
2.831224538385868073e-02
-1.188678108155727386e-02
7.424946874380111694e-03
-9.965742938220500946e-03
-3.229425475001335144e-02
5.914625246077775955e-03
7.953858003020286560e-03
1.093882974237203598e-02
-3.156579285860061646e-02
-1.860505156219005585e-02
-1.718841120600700378e-02
-5.480365362018346786e-03
-1.794890873134136200e-02
3.213594481348991394e-02
3.870270773768424988e-02
-2.710569242481142282e-04
-2.251565270125865936e-02
-1.366905029863119125e-02
2.067553065717220306e-02
2.642897143959999084e-02
4.241723567247390747e-02
-2.410124242305755615e-02
-1.983051374554634094e-02
4.076870903372764587e-02
-1.820819079875946045e-02
-9.444412775337696075e-03
-1.053832937031984329e-02
1.839294284582138062e-02
-5.303027108311653137e-03
-1.520804222673177719e-02
-1.771988905966281891e-02
-2.266618423163890839e-02
2.015836909413337708e-02
1.207745820283889771e-02
-3.115744143724441528e-02
2.233483083546161652e-02
3.195508196949958801e-02
1.217301096767187119e-02
-4.118372872471809387e-02
4.183080792427062988e-02
4.262482374906539917e-02
-1.841754466295242310e-02
4.012416675686836243e-02
2.721311897039413452e-02
3.605362027883529663e-02
-3.983564674854278564e-02
2.871534228324890137e-02
-2.053890191018581390e-02
-1.029495242983102798e-02
1.138894725590944290e-02
-2.668857015669345856e-02
-2.915308438241481781e-02
-3.914310410618782043e-02
-1.785419508814811707e-02
-1.175647880882024765e-02
2.095554396510124207e-02
-8.446275256574153900e-03
2.679196000099182129e-02
-3.937715291976928711e-02
-3.696829080581665039e-02
2.855492755770683289e-02
-3.459655493497848511e-02
-4.143604077398777008e-03
-1.558853313326835632e-02
-2.170002087950706482e-02
4.251254722476005554e-02
9.212294593453407288e-03
-1.076039019972085953e-02
4.089690744876861572e-02
4.070391505956649780e-02
1.013778150081634521e-02
9.598202072083950043e-03
-1.670720055699348450e-02
-1.364298746921122074e-03
-1.441393699496984482e-02
-2.396296523511409760e-02
7.438123226165771484e-03
7.418272085487842560e-03
-4.399817064404487610e-02
-1.410578563809394836e-02
-9.020457975566387177e-03
2.425196021795272827e-02
1.675716973841190338e-02
4.267296567559242249e-02
3.798771649599075317e-02
-8.174649439752101898e-03
8.365611545741558075e-03
-1.709839142858982086e-02
2.516640909016132355e-02
3.252788446843624115e-03
-3.728475049138069153e-02
1.307579595595598221e-02
-3.506164764985442162e-03
3.831371292471885681e-02
-3.229648619890213013e-02
2.923068776726722717e-02
-2.916008606553077698e-02
-3.924509882926940918e-02
-1.994943618774414062e-02
-2.230264805257320404e-02
4.162937402725219727e-02
4.239341616630554199e-02
-4.050666093826293945e-02
3.472789004445075989e-02
1.339627522975206375e-02
3.104433603584766388e-02
-3.753233328461647034e-02
-3.738802671432495117e-02
2.794607356190681458e-02
-2.203573100268840790e-02
2.918862551450729370e-02
-1.151431351900100708e-02
-4.358512908220291138e-02
-3.296463110018521547e-04
-3.363417088985443115e-02
2.848954685032367706e-02
4.799630492925643921e-03
-4.123576357960700989e-02
6.971236318349838257e-03
-1.270711142569780350e-02
9.494562633335590363e-03
6.588421761989593506e-03
-3.328796103596687317e-02
1.124209258705377579e-03
2.415429614484310150e-02
-2.132755890488624573e-02
-1.319645158946514130e-02
2.815499529242515564e-02
-4.294012486934661865e-02
3.478443250060081482e-02
-5.074717570096254349e-03
-1.291331462562084198e-02
-3.538266196846961975e-02
-2.544358931481838226e-02
-3.771494328975677490e-02
1.059236191213130951e-02
-9.665610268712043762e-03
-4.065468162298202515e-02
2.851563505828380585e-02
-4.400694742798805237e-03
-3.117859922349452972e-02
-3.193932026624679565e-02
2.930344454944133759e-02
2.117670513689517975e-02
5.641592666506767273e-03
3.967175260186195374e-02
3.794323652982711792e-02
-4.250353574752807617e-02
4.246984049677848816e-02
3.674617782235145569e-02
-2.456702990457415581e-03
6.805188022553920746e-03
-5.023746285587549210e-03
9.736606734804809093e-04
3.205651789903640747e-02
3.584513068199157715e-02
3.396568074822425842e-02
-2.748772129416465759e-02
-3.843822702765464783e-02
3.486518934369087219e-02
-1.394270919263362885e-02
-2.700505033135414124e-02
3.137384355068206787e-02
4.001750424504280090e-02
1.187174487859010696e-02
5.699302069842815399e-03
3.918860107660293579e-02
-2.320352010428905487e-02
1.114065479487180710e-02
-2.996987476944923401e-02
3.091553412377834320e-02
2.376708202064037323e-02
1.691331341862678528e-02
-3.484477475285530090e-02
-2.618709020316600800e-02
2.386375563219189644e-03
1.843064837157726288e-02
4.230386018753051758e-02
2.970156259834766388e-02
4.402160272002220154e-02
3.873679786920547485e-03
-2.999293990433216095e-02
-2.380221709609031677e-02
-2.183406846597790718e-03
3.506730869412422180e-02
2.927533723413944244e-02
2.544758096337318420e-02
1.410892116837203503e-03
7.330121938139200211e-03
3.733483701944351196e-02
3.741988539695739746e-02
-3.038917854428291321e-02
1.070097368210554123e-02
-3.833789378404617310e-02
-7.347054313868284225e-03
-1.467402558773756027e-02
9.523343294858932495e-03
-1.163922064006328583e-02
-4.389218613505363464e-02
-2.984658442437648773e-02
3.773052617907524109e-02
-1.112741045653820038e-02
2.685761451721191406e-02
3.694947808980941772e-02
3.047495707869529724e-02
1.664218306541442871e-02
-1.190240681171417236e-02
7.406939752399921417e-03
2.322814427316188812e-02
-4.324494674801826477e-02
1.696060784161090851e-02
-3.838295117020606995e-02
2.411323972046375275e-02
-1.331998500972986221e-04
-3.762131556868553162e-02
-6.406226195394992828e-03
3.109245188534259796e-02
3.164817392826080322e-02
-5.540371872484683990e-03
1.204397808760404587e-02
2.976959384977817535e-02
1.755410991609096527e-02
4.051655530929565430e-02
3.233694285154342651e-02
9.056235663592815399e-03
-1.775532960891723633e-02
1.374597288668155670e-02
2.585730701684951782e-02
-4.324872791767120361e-02
-4.440249409526586533e-03
3.460606187582015991e-02
1.429788116365671158e-02
1.598961884155869484e-03
6.785063073039054871e-03
1.157024223357439041e-02
-2.671088650822639465e-02
4.299146682024002075e-02
-3.652805089950561523e-02
-2.859292179346084595e-02
-2.071768417954444885e-02
-3.939148038625717163e-02
-2.297982014715671539e-02
5.585047416388988495e-03
1.037893537431955338e-02
-1.797354407608509064e-02
-4.014120623469352722e-02
4.218267649412155151e-02
1.025507599115371704e-02
-2.638011798262596130e-02
6.096256896853446960e-03
4.418538138270378113e-02
5.776999983936548233e-03
2.993175946176052094e-02
-1.452957745641469955e-02
1.526524592190980911e-02
-1.752380654215812683e-02
-1.197838690131902695e-02
1.409432198852300644e-02
5.205536261200904846e-03
2.624173462390899658e-02
-1.028204988688230515e-02
8.244724012911319733e-03
2.258973568677902222e-02
3.045526519417762756e-02
4.573596641421318054e-03
2.623163908720016479e-02
1.033080369234085083e-02
2.854007482528686523e-02
-3.132833167910575867e-03
2.221656776964664459e-02
8.956911042332649231e-03
2.602347545325756073e-02
3.829411044716835022e-02
3.794690966606140137e-02
-2.594724297523498535e-02
2.931327000260353088e-02
4.132492467761039734e-02
-3.010350652039051056e-02
1.139571773819625378e-03
2.763066254556179047e-02
1.606496050953865051e-02
-9.330701082944869995e-03
-2.578877098858356476e-02
4.021656885743141174e-02
-4.086031578481197357e-03
-3.852837160229682922e-02
-2.764028683304786682e-02
2.655498916283249855e-03
-3.112847171723842621e-02
1.440045610070228577e-02
-3.519186004996299744e-02
-3.236179426312446594e-02
6.757772993296384811e-03
-2.041979506611824036e-02
-1.286744885146617889e-02
1.352686714380979538e-02
-3.557267598807811737e-03
1.725046336650848389e-02
-1.008471846580505371e-02
7.255416363477706909e-03
-3.587392717599868774e-02
-3.524333983659744263e-02
-2.165435440838336945e-02
9.675630368292331696e-03
1.068962085992097855e-02
2.020655758678913116e-02
-8.694704622030258179e-03
3.333989158272743225e-02
-8.821756928227841854e-04
3.559518232941627502e-02
1.197842881083488464e-02
2.516279555857181549e-02
-6.602662149816751480e-03
2.377721853554248810e-02
2.033093944191932678e-02
-3.280563279986381531e-02
-2.624384686350822449e-02
4.038866609334945679e-02
-3.767771646380424500e-02
-6.584781222045421600e-03
1.967501826584339142e-02
1.764056360116228461e-04
4.182583466172218323e-02
-6.766349542886018753e-03
2.967000566422939301e-02
-4.003833606839179993e-02
8.183294907212257385e-03
2.900504507124423981e-02
1.163709722459316254e-02
1.291049085557460785e-02
2.457485720515251160e-02
-1.343213208019733429e-02
-4.114022478461265564e-02
4.019951075315475464e-02
-2.206070907413959503e-02
-2.020587399601936340e-02
1.938082277774810791e-02
1.188519992865622044e-03
1.182871311902999878e-02
8.902694098651409149e-03
-4.256138205528259277e-02
-8.852660655975341797e-03
2.243079990148544312e-02
-1.876756921410560608e-02
4.183832183480262756e-02
-5.583904217928647995e-03
2.587306499481201172e-02
-3.923112526535987854e-02
-3.042522445321083069e-02
-3.731248155236244202e-02
-1.599630923010408878e-04
-2.623049728572368622e-02
4.130944143980741501e-03
2.404902316629886627e-02
2.417204901576042175e-02
-2.802096307277679443e-02
3.741744440048933029e-04
-6.600565393455326557e-04
2.443589968606829643e-03
-3.460010141134262085e-02
-3.279467672109603882e-02
-4.402694106101989746e-02
-3.514272719621658325e-02
-2.566823549568653107e-02
5.654036533087491989e-03
-4.081683605909347534e-02
-3.577238321304321289e-02
-3.869748115539550781e-02
-3.517744597047567368e-03
3.837420046329498291e-02
3.903140127658843994e-02
-2.044186368584632874e-02
3.765863180160522461e-02
3.681555017828941345e-02
-1.295767957344651222e-03
8.815803448669612408e-04
-3.893351880833506584e-03
2.525405399501323700e-02
-4.380444809794425964e-02
-3.213337436318397522e-02
3.131510689854621887e-03
1.421907171607017517e-02
-2.304095029830932617e-02
-2.217140793800354004e-02
3.945365920662879944e-02
1.936533302068710327e-02
1.027088612318038940e-02
3.335482999682426453e-02
-4.310810565948486328e-02
2.840069495141506195e-02
3.510857746005058289e-02
-2.662723511457443237e-02
4.241039603948593140e-02
4.166008159518241882e-02
-3.412531688809394836e-02
-3.435205668210983276e-02
-7.709822617471218109e-03
-4.233827441930770874e-02
-4.188415780663490295e-02
1.910101994872093201e-02
3.516924753785133362e-02
2.212960831820964813e-02
-3.319028392434120178e-02
-3.984329104423522949e-02
-2.665718644857406616e-02
3.066314850002527237e-03
-4.198242723941802979e-02
9.813804179430007935e-03
2.630728296935558319e-02
-2.343929000198841095e-02
2.442478388547897339e-02
4.001500550657510757e-03
-7.129924371838569641e-03
3.691446036100387573e-02
-1.799027621746063232e-02
4.089086130261421204e-02
-1.756226457655429840e-02
2.825532667338848114e-02
2.720938809216022491e-02
2.365349559113383293e-03
-2.028860151767730713e-02
-1.098730415105819702e-02
-2.864871919155120850e-02
-3.092214092612266541e-02
7.271753856912255287e-04
-1.697216648608446121e-03
-8.860826492309570312e-03
-1.397202815860509872e-02
1.772248651832342148e-03
2.300046198070049286e-02
-4.067232832312583923e-02
-2.179332450032234192e-02
2.066276036202907562e-02
-3.665750101208686829e-02
-1.120889652520418167e-02
3.994227945804595947e-02
-3.215449303388595581e-02
-2.068476192653179169e-02
4.282360523939132690e-02
-1.369752548635005951e-02
2.860108762979507446e-02
-8.161094039678573608e-03
7.381983567029237747e-03
3.908741846680641174e-02
-2.808233350515365601e-02
2.199313603341579437e-02
-4.000350087881088257e-02
-1.648532412946224213e-02
1.878549344837665558e-02
-6.350629031658172607e-03
8.478507399559020996e-03
2.764795348048210144e-02
-3.166657686233520508e-02
4.204253479838371277e-02
-1.996954437345266342e-03
3.232507780194282532e-02
1.854492351412773132e-02
-2.354054711759090424e-02
5.755141377449035645e-03
1.392481289803981781e-02
-2.270819531986489892e-04
4.146639630198478699e-02
2.473320253193378448e-02
-2.345891483128070831e-02
-3.191203251481056213e-02
-3.670651838183403015e-02
-1.693415082991123199e-02
-4.270940087735652924e-03
2.082455158233642578e-02
2.104035951197147369e-02
-6.316389772109687328e-04
-3.700881451368331909e-02
-2.930505573749542236e-02
-1.908108405768871307e-02
-1.893306523561477661e-02
-2.696619555354118347e-02
1.859784498810768127e-02
2.221875451505184174e-02
3.835270553827285767e-02
-2.694587595760822296e-02
3.391094878315925598e-02
-4.307157173752784729e-02
5.025168647989630699e-04
1.403221860527992249e-02
4.868840798735618591e-03
1.822170428931713104e-02
3.313437104225158691e-02
5.215567070990800858e-04
3.985252976417541504e-02
-1.219987869262695312e-03
-2.189022954553365707e-03
-1.356119103729724884e-02
2.878913655877113342e-02
1.567162014544010162e-02
3.089207038283348083e-02
-3.977211937308311462e-02
-1.063564140349626541e-02
-7.601473946124315262e-03
-1.849668659269809723e-02
-2.687680162489414215e-02
-5.679703783243894577e-03
-2.011833898723125458e-02
3.246485814452171326e-02
1.383782736957073212e-02
3.194636106491088867e-02
4.291434586048126221e-02
-1.104213669896125793e-02
5.229865200817584991e-03
-1.225646678358316422e-02
4.033449292182922363e-02
-9.276700206100940704e-03
7.455108221620321274e-03
4.271805286407470703e-02
-2.074400335550308228e-02
9.872213937342166901e-03
-4.143558442592620850e-02
4.151018708944320679e-02
1.841343007981777191e-02
-8.049611002206802368e-03
-6.340255495160818100e-03
2.251837588846683502e-02
3.783499822020530701e-02
-2.408237196505069733e-02
1.564095844514667988e-03
3.687756881117820740e-02
-3.171267360448837280e-02
2.083718031644821167e-02
-3.977277502417564392e-02
-1.865519559942185879e-03
6.266914773732423782e-03
-2.796587720513343811e-02
-3.168726572766900063e-03
-2.743456326425075531e-02
-2.637123502790927887e-02
-4.067451134324073792e-02
-4.007861763238906860e-02
2.270892634987831116e-02
-3.284368291497230530e-02
-3.671257942914962769e-02
3.596961125731468201e-02
3.614039451349526644e-04
-4.307987168431282043e-03
1.053014770150184631e-02
3.765673190355300903e-02
-1.746333576738834381e-02
-2.690528333187103271e-02
1.156303007155656815e-02
-3.091359138488769531e-02
2.912792377173900604e-02
-3.725843876600265503e-02
-3.923808783292770386e-02
6.291170604526996613e-03
-2.735229209065437317e-02
2.419352345168590546e-02
-8.880546316504478455e-03
1.599020324647426605e-02
1.322620268911123276e-02
-3.028359077870845795e-02
4.127551335841417313e-03
1.950983889400959015e-02
3.582920879125595093e-02
-3.699998557567596436e-02
-4.253207519650459290e-02
3.007161244750022888e-02
2.399207279086112976e-02
-4.168739542365074158e-03
4.255209118127822876e-02
2.604138292372226715e-02
-2.587358094751834869e-02
-4.075610637664794922e-02
-1.524918805807828903e-02
-2.237305417656898499e-02
-1.976253651082515717e-02
2.863402105867862701e-02
-2.348620444536209106e-02
3.132205829024314880e-02
-2.548791095614433289e-02
9.714136831462383270e-03
4.379168525338172913e-02
4.194184020161628723e-02
-3.210034221410751343e-02
1.399049814790487289e-02
-1.564401946961879730e-02
-2.801653696224093437e-03
2.072653360664844513e-02
-3.939154371619224548e-02
7.398942485451698303e-03
4.111953824758529663e-02
-6.620716769248247147e-03
-1.743873232044279575e-03
4.088536649942398071e-02
1.896655000746250153e-02
-3.191601112484931946e-02
-5.170206422917544842e-04
-2.239783108234405518e-02
-1.287959702312946320e-02
4.135468602180480957e-02
2.990099601447582245e-02
3.924944251775741577e-02
-4.109982401132583618e-02
-6.546217016875743866e-03
3.993452340364456177e-02
1.402374729514122009e-02
1.992609165608882904e-02
2.512069046497344971e-02
3.293301537632942200e-02
1.756325550377368927e-02
-3.689503530040383339e-03
-1.474973745644092560e-02
3.552883490920066833e-02
-9.690829552710056305e-03
1.607117243111133575e-03
-2.179104276001453400e-02
-4.031543433666229248e-02
-3.084041923284530640e-02
-3.926390781998634338e-02
-5.135324783623218536e-03
-1.457626558840274811e-02
3.121670521795749664e-02
6.963212508708238602e-03
-8.996250107884407043e-03
4.171309247612953186e-02
8.667083457112312317e-03
2.490369230508804321e-02
2.890389226377010345e-02
-1.590751670300960541e-02
-3.157940506935119629e-02
-3.636233508586883545e-02
2.232429943978786469e-02
-2.971990779042243958e-02
4.104147851467132568e-02
7.339536212384700775e-03
2.965679205954074860e-02
3.904090449213981628e-02
4.140610247850418091e-02
1.026225183159112930e-02
1.908248662948608398e-02
-1.922537386417388916e-02
2.137101814150810242e-02
2.624167129397392273e-02
3.469905257225036621e-02
-3.144561499357223511e-02
9.550475515425205231e-04
1.499047968536615372e-02
-1.366197410970926285e-02
3.862153366208076477e-02
2.894805744290351868e-02
-4.171222448348999023e-02
-1.478935498744249344e-02
-3.957078605890274048e-02
8.235499262809753418e-03
3.338983282446861267e-02
-3.855630010366439819e-02
-1.774409227073192596e-02
-1.171400491148233414e-02
-1.666248217225074768e-02
-3.125826269388198853e-02
4.294178634881973267e-02
3.855059295892715454e-02
2.951465174555778503e-02
-2.250496856868267059e-02
-4.262292757630348206e-02
-1.882995851337909698e-02
2.922948077321052551e-02
4.128533601760864258e-02
-1.659969985485076904e-02
1.368633564561605453e-02
-1.323529053479433060e-02
2.849649079144001007e-02
3.961479291319847107e-02
-4.304449632763862610e-02
1.251871977001428604e-02
4.380488023161888123e-02
-3.689640434458851814e-04
-1.727670989930629730e-02
3.021267242729663849e-02
3.593692556023597717e-02
4.123977944254875183e-02
3.431789577007293701e-02
2.725338377058506012e-02
8.661577478051185608e-03
3.969739377498626709e-02
-4.107234627008438110e-02
3.502223873510956764e-03
-2.132144756615161896e-02
-2.592708729207515717e-02
1.569673418998718262e-02
-3.330665174871683121e-03
-4.283160716295242310e-02
-1.171473786234855652e-02
-7.775176782160997391e-03
-2.913623675704002380e-02
-1.640812680125236511e-02
-4.212116077542304993e-02
-3.690824285149574280e-02
-1.637941971421241760e-02
-2.245042473077774048e-02
1.003939006477594376e-02
-1.909128390252590179e-02
-1.905364729464054108e-02
1.281412784010171890e-02
3.928215801715850830e-02
6.011805497109889984e-03
9.732044301927089691e-03
-1.184697821736335754e-02
-2.408029139041900635e-02
-3.689511492848396301e-02
-1.127364393323659897e-02
4.074606671929359436e-02
4.226793721318244934e-02
2.178874611854553223e-02
-4.386295005679130554e-02
-2.313621714711189270e-02
-2.684035524725914001e-02
1.799484901130199432e-02
-3.256139531731605530e-02
6.815751083195209503e-03
1.425661426037549973e-02
3.677761927247047424e-02
2.392878383398056030e-02
-3.963394556194543839e-03
-3.929387405514717102e-02
1.635148562490940094e-02
-1.803757622838020325e-02
-2.692517638206481934e-02
-2.675811201333999634e-02
3.845420852303504944e-02
-2.636000886559486389e-02
-1.055823359638452530e-02
-5.505853332579135895e-04
1.454344391822814941e-02
-5.508277099579572678e-04
1.555379852652549744e-02
-2.085832692682743073e-02
-2.614250965416431427e-02
-1.551758404821157455e-02
1.774860732257366180e-02
-3.315165638923645020e-02
-7.514019031077623367e-03
-3.023534826934337616e-02
2.711121737957000732e-02
3.967995569109916687e-02
-2.683183178305625916e-02
-3.547876700758934021e-02
3.199496865272521973e-02
1.999098807573318481e-03
1.745277829468250275e-02
1.282762456685304642e-02
5.070160608738660812e-03
2.863881923258304596e-02
1.887925341725349426e-02
2.494097687304019928e-03
2.703898958861827850e-02
-7.494652643799781799e-03
-2.941979654133319855e-02
-4.692593123763799667e-03
6.811857689172029495e-03
2.633732743561267853e-02
5.788632668554782867e-03
3.753451630473136902e-02
4.257001727819442749e-02
3.594488650560379028e-02
1.023565698415040970e-02
-2.542632445693016052e-02
1.739075407385826111e-02
3.431453928351402283e-02
-9.261959232389926910e-03
4.040638357400894165e-02
-2.865079417824745178e-02
-1.400302629917860031e-03
3.686114773154258728e-02
-1.899680681526660919e-02
1.664681918919086456e-02
-3.504234924912452698e-02
1.530598104000091553e-02
-3.819083794951438904e-02
3.093370608985424042e-02
6.685285363346338272e-03
-3.639344125986099243e-02
3.021272085607051849e-02
-2.473113872110843658e-02
1.793148182332515717e-02
1.449014991521835327e-02
-8.795773610472679138e-03
-2.315279096364974976e-03
-2.452177368104457855e-02
-1.931628957390785217e-02
-5.402119713835418224e-04
2.053187973797321320e-02
-1.409276295453310013e-02
1.097089331597089767e-02
1.868606917560100555e-02
-1.865366846323013306e-02
2.480739168822765350e-02
4.251510649919509888e-02
1.701018400490283966e-02
-1.403888314962387085e-02
1.265085581690073013e-02
-1.130584999918937683e-02
1.277888752520084381e-02
-3.893064334988594055e-02
2.555476687848567963e-02
-9.869021363556385040e-03
4.865226801484823227e-03
-1.650245115160942078e-02
1.159454509615898132e-02
4.252593591809272766e-02
7.347512524574995041e-03
-4.274195432662963867e-02
7.302183657884597778e-03
-4.325286671519279480e-02
2.506654709577560425e-02
8.571282960474491119e-03
3.622573241591453552e-02
3.199151158332824707e-02
-3.896906971931457520e-02
-3.812206536531448364e-02
-4.415621608495712280e-02
-6.119500845670700073e-03
-3.760499879717826843e-03
-1.618939451873302460e-03
-2.667677961289882660e-02
1.961240312084555626e-03
-3.789424523711204529e-02
-1.479569263756275177e-02
2.790028601884841919e-02
-5.902002099901437759e-03
3.943555057048797607e-02
4.201607778668403625e-02
-2.677434869110584259e-02
1.576631888747215271e-02
8.094391785562038422e-03
-4.041629657149314880e-02
-2.051240764558315277e-02
1.986835524439811707e-02
4.273568838834762573e-02
-3.435366228222846985e-02
-2.301568165421485901e-02
-4.127813875675201416e-02
3.772938251495361328e-02
-2.536966837942600250e-02
-2.097221836447715759e-02
-3.817337006330490112e-02
2.594120614230632782e-02
3.776660934090614319e-02
-1.690407283604145050e-02
2.049029059708118439e-02
1.780171133577823639e-02
3.685636329464614391e-04
4.834549035876989365e-03
-4.421657416969537735e-03
4.320213571190834045e-02
3.131670504808425903e-02
-1.540342438966035843e-02
4.618578124791383743e-03
2.630134485661983490e-02
-2.949171327054500580e-02
-3.852652758359909058e-02
-8.680006489157676697e-03
-4.084573313593864441e-02
1.043374184519052505e-02
2.097519487142562866e-02
-4.312188923358917236e-02
-3.241548314690589905e-02
4.390978068113327026e-02
-1.136778481304645538e-02
2.810444496572017670e-02
8.714124560356140137e-03
-1.759979128837585449e-02
1.775824837386608124e-02
3.785840421915054321e-02
5.893762689083814621e-03
2.289074845612049103e-02
-4.053238779306411743e-02
9.560316801071166992e-03
-1.376597676426172256e-02
2.398982876911759377e-03
4.106782004237174988e-02
-7.140993257053196430e-04
-1.377020217478275299e-02
1.795337721705436707e-02
3.772929310798645020e-02
1.249522808939218521e-02
-1.807551272213459015e-02
-2.947513386607170105e-02
-2.683637198060750961e-03
1.423832215368747711e-02
3.219119831919670105e-02
-1.572024263441562653e-02
2.702758833765983582e-02
1.062797009944915771e-02
3.211811557412147522e-02
-1.224716845899820328e-02
3.159167990088462830e-02
-4.399460181593894958e-02
1.711288467049598694e-03
-3.080117888748645782e-02
-2.687012776732444763e-02
-2.392679266631603241e-02
-3.061887808144092560e-02
5.957989022135734558e-03
7.812497788108885288e-04
3.253008425235748291e-02
5.042295902967453003e-03
3.925968706607818604e-02
2.942781895399093628e-02
2.155611664056777954e-02
-3.557433560490608215e-02
-4.673221614211797714e-03
-2.550148777663707733e-02
-3.020486980676651001e-02
1.757735945284366608e-02
3.326009586453437805e-02
-1.846256293356418610e-02
-2.905707433819770813e-02
1.312583498656749725e-02
1.949146389961242676e-02
-3.919209167361259460e-02
4.012465104460716248e-02
-3.737922385334968567e-02
1.237757038325071335e-02
-8.217002032324671745e-04
-2.744325622916221619e-02
7.908466272056102753e-03
-1.999591849744319916e-02
4.115798696875572205e-02
4.263694584369659424e-02
7.132237311452627182e-03
-3.860709816217422485e-02
-2.584784477949142456e-02
4.412240162491798401e-02
-3.450534865260124207e-02
2.384718693792819977e-02
-8.214283734560012817e-03
2.408692307653836906e-05
1.075049676001071930e-02
4.180941358208656311e-02
-1.361194066703319550e-02
-2.716316469013690948e-02
-4.029703885316848755e-02
1.482601743191480637e-02
4.019713494926691055e-03
2.030055038630962372e-02
-3.318598121404647827e-02
3.590763732790946960e-02
3.524432703852653503e-02
-3.352059982717037201e-03
2.576497383415699005e-02
1.077332440763711929e-02
-1.821063645184040070e-02
-3.836540132761001587e-02
2.184925787150859833e-02
-1.819090172648429871e-02
-2.516807429492473602e-02
-6.704220082610845566e-03
-1.654056645929813385e-02
3.633234277367591858e-02
2.674502087756991386e-03
2.791902609169483185e-02
2.675863914191722870e-02
1.954385638236999512e-02
1.669326052069664001e-02
-4.320175200700759888e-02
-4.348095506429672241e-02
3.162045031785964966e-02
3.557411581277847290e-02
-1.208693627268075943e-02
-2.478422224521636963e-02
-4.093774780631065369e-02
1.966491900384426117e-02
3.173049166798591614e-02
1.865478046238422394e-02
4.403106495738029480e-02
4.373234510421752930e-02
2.828263677656650543e-02
